Weights_k:
[array([[-0.24455173, -0.01410377,  0.05091372,  0.40995324,  0.10377976,
        -0.01928282, -0.04292332,  0.19374608, -0.26983738,  0.15705684,
        -0.06056294,  0.05650024,  0.09198162, -0.16049875,  0.05126203,
        -0.10609944, -0.03874345,  0.0676913 ,  0.10990296, -0.12624127,
         0.05258166,  0.32344195, -0.3551767 ,  0.01972412,  0.5017816 ,
        -0.13255957, -0.01732752, -0.33502743,  0.2222758 ,  0.13221371,
         0.19624211,  0.08265789,  0.35803148,  0.17939697,  0.0424364 ,
         0.11058104,  0.2899495 , -0.28442672,  0.08628774, -0.3496589 ,
        -0.1341293 , -0.22592744, -0.29943112,  0.18015994,  0.06990833,
         0.02827538,  0.22881329,  0.39848125, -0.4660565 ,  0.17396551,
         0.01880674, -0.35221276,  0.37196124, -0.02545211, -0.20010783,
        -0.3547233 , -0.03216314,  0.08605649,  0.12812716,  0.12833215,
        -0.00445261, -0.15766527,  0.13031538,  0.00508687, -0.07500573,
         0.3652011 ,  0.03032173,  0.18322372, -0.26845253, -0.21682668],
       [ 0.20637253,  0.13340768, -0.08769541, -0.27674544, -0.0678071 ,
        -0.2730987 ,  0.23291413, -0.10575271, -0.16467069,  0.24775496,
         0.12767765, -0.1923331 ,  0.14588623, -0.05376852,  0.07541307,
        -0.14998008,  0.02210341,  0.00125579, -0.14337058, -0.02173958,
        -0.05122957, -0.31360158,  0.19035381,  0.1033861 , -0.10306127,
        -0.08944189, -0.09074499, -0.27528793, -0.08673642,  0.11975941,
        -0.15619981, -0.09033763, -0.05507135, -0.0487695 , -0.2570774 ,
         0.03706979, -0.07394729,  0.08419478,  0.16374087, -0.04116163,
         0.28475934, -0.07722551, -0.06953497, -0.25805208, -0.0603487 ,
         0.17029856,  0.0041745 , -0.10523742, -0.09631597, -0.10316172,
        -0.13345248,  0.13094468, -0.27145717, -0.08295161, -0.02514204,
         0.15669778,  0.08799964,  0.19481084,  0.30610755, -0.05916234,
        -0.1514285 ,  0.14397922,  0.01826633, -0.23899794,  0.29378647,
        -0.19010526,  0.3284724 , -0.21017015,  0.32804587,  0.11435025]],
      dtype=float32), array([[ 0.0751259 , -0.06177187,  0.0562501 , ..., -0.2552699 ,
         0.14209056, -0.19584647],
       [-0.02878615,  0.15252179, -0.09440883, ..., -0.01911982,
         0.07764834,  0.07986535],
       [ 0.14520831, -0.05407304,  0.1027521 , ...,  0.08875395,
         0.13850233, -0.09907538],
       ...,
       [-0.20021932, -0.04134737,  0.03969155, ...,  0.12552063,
         0.04889006, -0.03471389],
       [ 0.03038445,  0.22385521,  0.01523604, ..., -0.11523251,
         0.02690529,  0.11540512],
       [ 0.00423744,  0.02441124,  0.08909137, ...,  0.08857244,
        -0.12879878,  0.1690204 ]], dtype=float32), array([[ 0.23548967, -0.23274656,  0.13891685, ..., -0.02276126,
        -0.20469128, -0.08483019],
       [-0.03295453, -0.10958346, -0.02796966, ...,  0.07198659,
        -0.15046613, -0.08777134],
       [-0.05525591, -0.00471852,  0.00517496, ...,  0.12470001,
        -0.02116103,  0.04545053],
       ...,
       [-0.04056345,  0.06446236,  0.21245682, ..., -0.12398478,
         0.00220422, -0.06290592],
       [ 0.14770254,  0.0529651 ,  0.09322535, ...,  0.04594509,
        -0.06479505, -0.01237401],
       [-0.01689098,  0.09097169,  0.00135308, ..., -0.08519609,
         0.00819426,  0.02348996]], dtype=float32), array([[ 1.8751658e-01],
       [ 1.4074373e-01],
       [-4.0794630e-02],
       [ 6.3322129e-04],
       [-7.8558698e-02],
       [ 1.9805931e-01],
       [ 3.1373236e-01],
       [ 6.7778967e-02],
       [-9.8077886e-02],
       [ 4.5672230e-02],
       [ 1.9652086e-01],
       [-1.6119903e-01],
       [-1.2579823e-01],
       [ 7.1856566e-02],
       [ 2.0326529e-01],
       [ 1.9146203e-01],
       [-2.3054317e-01],
       [-2.3417387e-04],
       [ 1.8907033e-02],
       [ 1.8792956e-01],
       [-2.0467493e-01],
       [-1.0892327e-01],
       [-2.5771710e-01],
       [-3.6267478e-02],
       [-2.0856352e-01],
       [-2.2926033e-02],
       [ 2.5118816e-01],
       [-2.2462044e-02],
       [ 1.5739132e-01],
       [-1.2455852e-01],
       [-4.4580080e-02],
       [ 2.1406986e-01],
       [ 2.5246024e-02],
       [ 7.7977583e-02],
       [ 2.5241831e-01],
       [ 2.0666866e-01],
       [ 1.6247702e-01],
       [-1.2239485e-01],
       [ 5.0422844e-02],
       [-2.5562751e-01],
       [-1.3182525e-01],
       [ 2.2223471e-01],
       [-2.6278815e-01],
       [ 3.3143911e-01],
       [-3.4641969e-01],
       [ 6.9489516e-02],
       [-3.2817230e-02],
       [-1.2181799e-01],
       [-7.0819728e-02],
       [ 1.6018000e-01],
       [-9.3546838e-02],
       [-1.6607491e-04],
       [-2.1220192e-01],
       [-2.6717097e-01],
       [ 2.2821951e-01],
       [-1.6454828e-01],
       [-3.3284757e-02],
       [-9.8480932e-02],
       [-1.7064796e-01],
       [-2.2350538e-01],
       [-2.4329944e-01],
       [ 4.5770325e-04],
       [-2.8247759e-01],
       [-1.2137849e-01],
       [-5.4382416e-04],
       [ 2.3805833e-01],
       [ 3.1382650e-01],
       [-9.9215798e-02],
       [-2.1543491e-01],
       [ 2.3200342e-05]], dtype=float32)]


Weights_h:
[array([[ 0.14568856,  0.0427883 , -0.24494357, -0.34768084,  0.12403906,
        -0.08453072,  0.13545074, -0.04501846, -0.10312223, -0.13585359,
         0.30502224,  0.33671856,  0.10827706,  0.11763223, -0.12222837,
         0.39696944, -0.03577499,  0.08426218, -0.07125954,  0.00613714,
        -0.23424527, -0.04163045, -0.08416878,  0.30254552, -0.34226817,
        -0.23766267, -0.04486886, -0.20879053,  0.0101837 ,  0.07206345,
         0.16564794,  0.17375416],
       [ 0.00346856,  0.39501163, -0.04247865,  0.05718492, -0.46294108,
         0.15985963,  0.08958366,  0.06815035, -0.21758986, -0.245652  ,
         0.04290448, -0.28693548,  0.10382438, -0.24541831, -0.33473513,
        -0.22370315, -0.28881592, -0.32878292,  0.19366924, -0.0243009 ,
        -0.02153269,  0.00258307, -0.43086967, -0.09275589, -0.32401958,
        -0.11621533,  0.22480007, -0.08678791,  0.20522231,  0.08635533,
         0.13053833, -0.12524052]], dtype=float32), array([[ 0.14613502,  0.13872388,  0.1402741 , ...,  0.251899  ,
         0.19029291,  0.08356266],
       [ 0.2909089 ,  0.012693  ,  0.14056441, ..., -0.22259322,
         0.17874275, -0.3493558 ],
       [ 0.00450856,  0.2582141 ,  0.09719661, ...,  0.06585601,
         0.27156398, -0.07380354],
       ...,
       [-0.13177583,  0.13860631,  0.320436  , ...,  0.22266309,
         0.11515298,  0.09497961],
       [-0.32934234, -0.06933061,  0.16701901, ...,  0.23945828,
        -0.04170385, -0.21546309],
       [ 0.01153392, -0.1474798 , -0.08698559, ..., -0.18199755,
        -0.10279488,  0.05231684]], dtype=float32), array([[ 7.05821216e-02, -5.46152852e-02, -1.89709201e-01, ...,
        -2.75937468e-01, -2.03610852e-01, -1.38038620e-01],
       [-6.36903048e-02,  8.44612252e-03, -1.03535384e-01, ...,
        -3.22719038e-01, -1.41772922e-04, -7.48106092e-03],
       [ 1.97661653e-01,  1.44059375e-01, -8.65310654e-02, ...,
        -1.39062628e-02,  7.18802810e-02, -7.87372515e-02],
       ...,
       [ 2.23957852e-01,  7.22172782e-02, -1.61669962e-02, ...,
        -6.46444559e-02,  1.65832117e-02, -4.95307110e-02],
       [ 2.76551485e-01,  5.90382963e-02,  1.41858488e-01, ...,
        -1.93446189e-01,  2.73978382e-01, -1.90457731e-01],
       [-7.44643584e-02, -2.15930268e-01,  1.40060276e-01, ...,
         1.87460482e-01,  1.40545100e-01,  1.02962419e-01]], dtype=float32), array([[-0.09848686],
       [-0.18843706],
       [ 0.20386577],
       [-0.10627208],
       [ 0.10532624],
       [-0.19488737],
       [ 0.05369253],
       [ 0.35077465],
       [-0.28267416],
       [ 0.18323849],
       [ 0.35219964],
       [ 0.1987451 ],
       [-0.25650328],
       [-0.3942111 ],
       [-0.04799478],
       [ 0.13988715],
       [ 0.00692682],
       [-0.4145102 ],
       [-0.41573158],
       [ 0.42574856],
       [-0.19519965],
       [-0.38440022],
       [ 0.10127336],
       [-0.12720051],
       [ 0.01412332],
       [ 0.1001907 ],
       [-0.4699128 ],
       [-0.09748092],
       [ 0.2031211 ],
       [-0.27913523],
       [ 0.10445727],
       [ 0.34600475]], dtype=float32)]


Weights_c:
[array([[-0.436551  , -0.19577149, -0.14908943, -0.23251636,  0.21020836,
         0.01899168, -0.18862444,  0.07153811, -0.28318742,  0.08614405,
         0.16644958, -0.05243946,  0.1033326 ,  0.35956657,  0.12489102,
         0.11240142, -0.44272956,  0.18902408,  0.2457999 , -0.37412995,
         0.18249556, -0.22759682, -0.09805822,  0.23432578, -0.44437405,
        -0.07873162,  0.33763906, -0.18306339,  0.34050578,  0.34015605,
         0.10902152, -0.29574654],
       [-0.36611027,  0.2716988 , -0.297845  , -0.14435045,  0.34210795,
         0.10336805, -0.30717757, -0.18570022, -0.2744148 ,  0.07295002,
         0.08316567, -0.1886442 , -0.04990215, -0.3336338 , -0.2549983 ,
        -0.0923717 , -0.17328607,  0.4468056 , -0.2635115 , -0.21491107,
         0.10679378, -0.13244447,  0.27923778,  0.1546878 ,  0.01163447,
        -0.04222929, -0.0029199 ,  0.11461112, -0.0541359 , -0.2994231 ,
        -0.00919068, -0.14721985]], dtype=float32), array([[ 0.11665306,  0.2537795 , -0.11705668, ...,  0.00697507,
         0.07209751, -0.03910639],
       [ 0.13674262,  0.20050101, -0.04953763, ...,  0.02222706,
         0.02070728,  0.19853294],
       [ 0.3518492 ,  0.20398915,  0.08312125, ...,  0.03551027,
         0.3447903 ,  0.08161815],
       ...,
       [ 0.02204326, -0.26413402,  0.01505016, ..., -0.13244654,
        -0.00846231, -0.22384918],
       [ 0.21933721, -0.03704536, -0.1586929 , ...,  0.18279529,
        -0.08279106,  0.21981505],
       [-0.22208689,  0.041264  ,  0.201325  , ..., -0.0835606 ,
        -0.1985827 , -0.04760926]], dtype=float32), array([[-0.03064156, -0.26161763, -0.15255532, ...,  0.05586261,
         0.01343352,  0.04425788],
       [ 0.0712921 , -0.16796869, -0.09860854, ..., -0.03465192,
        -0.03304254, -0.06419692],
       [ 0.13349235,  0.1533324 ,  0.07535215, ..., -0.13567074,
        -0.10419467, -0.12308176],
       ...,
       [ 0.27622157, -0.24120644,  0.02672122, ...,  0.0235175 ,
        -0.13245907,  0.09059867],
       [-0.07116906, -0.16041829, -0.0282239 , ...,  0.19553743,
        -0.04006693,  0.11770446],
       [ 0.01839904, -0.19303663,  0.24373351, ...,  0.04492711,
        -0.00136926, -0.10089289]], dtype=float32), array([[ 0.01475844],
       [-0.06276604],
       [-0.44945487],
       [-0.01337795],
       [ 0.02571248],
       [ 0.09547279],
       [ 0.14328891],
       [-0.20065366],
       [-0.06742534],
       [ 0.00947275],
       [-0.0857871 ],
       [-0.07455337],
       [-0.09628659],
       [ 0.0506513 ],
       [ 0.02637007],
       [ 0.10461706],
       [-0.09704024],
       [-0.26791316],
       [-0.01533256],
       [-0.29926658],
       [ 0.07074825],
       [-0.00978785],
       [ 0.20001294],
       [ 0.08812054],
       [ 0.2354673 ],
       [-0.02420573],
       [ 0.10969929],
       [ 0.15924199],
       [-0.18883389],
       [ 0.0879006 ],
       [ 0.30827   ],
       [ 0.13382424]], dtype=float32)]


Weights_k:
[array([[ 9.66555381e-04,  3.35549191e-02, -1.07492492e-01,
        -1.42400712e-01, -6.83606714e-02,  1.98594123e-01,
        -2.54836887e-01, -1.45471305e-01, -3.02198261e-01,
         4.08093035e-01,  1.27518326e-02,  1.72102067e-03,
        -3.61139566e-01, -3.94310057e-01, -9.26541984e-02,
        -2.47414753e-01, -2.27909327e-01, -5.77670276e-01,
         1.73876792e-01, -3.76606584e-01,  2.33597606e-01,
         8.12814105e-03,  1.75660416e-01, -1.06764115e-01,
         4.42735180e-02, -2.46310055e-01, -8.55080038e-02,
         6.89824224e-02, -4.43590105e-01,  1.49037495e-01,
        -2.87060797e-01,  4.38030928e-01,  4.29591276e-02,
        -1.77907143e-02, -2.41893336e-01,  2.55385339e-01,
         4.19679880e-02, -1.73697308e-01,  2.80395538e-01,
        -4.68605459e-01,  3.06637704e-01,  9.72084701e-02,
         3.68575662e-01,  7.21355304e-02,  2.97816515e-01,
         1.02728359e-01, -2.03548983e-01,  1.61370412e-01,
         4.20373231e-01,  1.86519295e-01,  3.16370338e-01,
         4.11645681e-01, -5.07857725e-02, -2.58136541e-02,
        -3.29111107e-02, -1.29987150e-01,  2.70947337e-01,
        -7.72885308e-02,  1.69650465e-01,  1.32358775e-01,
         4.65816408e-01,  1.79761142e-01, -1.79405838e-01,
         2.38746747e-01, -2.87248820e-01, -3.79545726e-02,
        -8.14751327e-01, -3.28777522e-01,  3.59911561e-01,
         4.02524263e-01],
       [-1.22684613e-01,  1.62299395e-01,  3.40175211e-01,
        -1.28385901e-01, -3.83394837e-01,  1.18588902e-01,
        -1.62215363e-02,  2.45409384e-01,  3.53756100e-02,
        -1.18630454e-01, -1.22991897e-01,  1.98752850e-01,
         3.96646326e-03, -1.59366593e-01, -1.72747537e-01,
         8.78908560e-02,  1.02557234e-01,  1.83381438e-01,
         1.02708109e-01, -9.35978666e-02, -1.07403934e-01,
        -3.32242817e-01,  5.34563735e-02,  4.79585379e-02,
        -5.76043241e-02,  4.37193736e-02, -2.12530956e-01,
        -2.81343281e-01, -1.44298166e-01,  1.25770837e-01,
        -7.11509362e-02, -1.34834439e-01, -1.47970825e-01,
        -3.33573312e-01,  7.51245394e-02, -3.92276794e-01,
        -1.08221829e-01, -2.92524844e-01,  1.21458143e-01,
         2.66410768e-01,  3.34401727e-01, -2.08395958e-01,
        -1.67081878e-02,  2.27214113e-01, -5.05871736e-02,
         2.37800494e-01, -2.04582095e-01,  2.23327009e-03,
        -9.43056718e-02, -1.57808676e-01,  6.26292452e-02,
        -9.47886929e-02,  3.53367120e-01,  4.18953598e-02,
        -9.84075218e-02,  3.72128218e-01,  1.94077075e-01,
         1.78739816e-01, -1.36657521e-01, -1.26123831e-01,
        -1.38450060e-02,  2.00587288e-01, -1.85658019e-02,
         2.56724568e-04, -4.32013907e-02,  1.50857484e-02,
        -1.12065189e-01,  2.16706634e-01, -1.11871652e-01,
         1.05305508e-01]], dtype=float32), array([[ 0.04496748, -0.15824817, -0.00470847, ...,  0.01484054,
         0.03681893, -0.04682218],
       [-0.19912104,  0.00054591,  0.11057039, ...,  0.0468115 ,
        -0.03783679, -0.04124379],
       [-0.00179578, -0.09760235,  0.01633312, ..., -0.15269673,
        -0.03217268,  0.11256055],
       ...,
       [ 0.06775175,  0.11328075, -0.17452046, ..., -0.04249943,
        -0.22131969,  0.03888897],
       [-0.06227088,  0.02702804, -0.14507423, ...,  0.0120387 ,
         0.05425872, -0.06524961],
       [-0.2499807 ,  0.00984611, -0.01344841, ..., -0.16134536,
        -0.18443638,  0.00227723]], dtype=float32), array([[-0.0724617 ,  0.09234404, -0.0738019 , ...,  0.00347084,
        -0.10219975, -0.16468056],
       [-0.00122494, -0.11690948, -0.0507886 , ...,  0.10172135,
        -0.0179813 ,  0.17104043],
       [-0.21439327,  0.02232637, -0.07497548, ...,  0.03436999,
        -0.1908617 , -0.02944244],
       ...,
       [-0.12198016,  0.02266535, -0.02982747, ...,  0.02713363,
        -0.10263794,  0.11265441],
       [ 0.0279632 , -0.14175092, -0.08680888, ..., -0.0307588 ,
         0.00690165,  0.09639977],
       [ 0.06102997, -0.06526546, -0.13768964, ..., -0.09154116,
         0.11638323,  0.18769825]], dtype=float32), array([[ 2.98959494e-01],
       [-2.35916942e-01],
       [-1.26313244e-04],
       [ 1.88035369e-01],
       [ 2.55006744e-04],
       [-2.67005758e-04],
       [-2.73749620e-01],
       [ 1.05383009e-01],
       [ 3.45810384e-01],
       [ 1.53632164e-01],
       [-6.09442219e-03],
       [ 1.03605106e-01],
       [ 1.46050334e-01],
       [-6.89308569e-02],
       [ 1.88323811e-01],
       [ 2.81386834e-04],
       [-1.13459125e-01],
       [-3.57091129e-02],
       [ 1.39151827e-01],
       [-2.69792438e-01],
       [-2.11004138e-01],
       [-1.77532300e-01],
       [-3.29597369e-02],
       [ 1.98275223e-01],
       [-1.93615794e-01],
       [-2.55960826e-04],
       [-5.83120745e-05],
       [ 2.05520447e-02],
       [ 1.63467124e-01],
       [-3.18475097e-01],
       [ 3.81453365e-01],
       [-2.48780146e-01],
       [-7.43005350e-02],
       [ 2.75942117e-01],
       [ 8.08621719e-02],
       [ 9.42154005e-02],
       [-5.65150976e-02],
       [-8.25923234e-02],
       [ 9.46389991e-05],
       [ 1.32246330e-01],
       [ 2.94412941e-01],
       [ 2.56494820e-01],
       [ 6.25549406e-02],
       [ 1.14959992e-01],
       [ 2.12803379e-01],
       [-8.40063617e-02],
       [-2.02728823e-01],
       [-2.44165823e-01],
       [ 6.91842213e-02],
       [-2.84351930e-02],
       [-2.05228001e-01],
       [ 3.70035052e-01],
       [-8.30850899e-02],
       [ 1.03919469e-01],
       [-1.55521497e-01],
       [-3.51329774e-01],
       [-2.04133868e-01],
       [ 3.39840451e-04],
       [ 2.41205469e-01],
       [-1.10877082e-01],
       [-9.74349082e-02],
       [-1.83894306e-01],
       [-2.21749564e-04],
       [ 1.52677655e-01],
       [-1.54822570e-04],
       [ 2.08437502e-01],
       [ 1.45036012e-01],
       [ 8.43040422e-02],
       [-8.54122043e-02],
       [ 7.75506049e-02]], dtype=float32)]


Weights_h:
[array([[-0.16667257, -0.14098442, -0.3371081 , -0.2938103 ,  0.31038827,
        -0.14485466, -0.39948893, -0.19172153, -0.07195195, -0.13461772,
        -0.06295788, -0.0570878 , -0.37470177,  0.04423603,  0.04003348,
        -0.25131515, -0.01828348, -0.00286655,  0.1424687 , -0.13803023,
        -0.14099388, -0.21372865,  0.06265498,  0.15111043,  0.0637881 ,
        -0.3842567 ,  0.0814514 ,  0.18488625,  0.27293012, -0.33196145,
         0.08002225,  0.00258938],
       [-0.1605048 ,  0.02642943,  0.36064792, -0.17233297,  0.07286545,
        -0.02350812, -0.2233314 ,  0.0720048 , -0.2646986 ,  0.23810387,
         0.13817751,  0.10486013, -0.06275598,  0.26177916, -0.09759831,
        -0.06965747, -0.13328612, -0.18019493,  0.40985096,  0.26168475,
        -0.14401527, -0.06207142,  0.0236031 ,  0.2072142 , -0.16891477,
        -0.20640516, -0.25395337, -0.0079886 ,  0.25706634,  0.28898326,
         0.06174295, -0.2862478 ]], dtype=float32), array([[-0.07952387,  0.05601887, -0.08114199, ...,  0.11496942,
         0.19842498, -0.15626514],
       [ 0.11576866, -0.10636358, -0.08431379, ..., -0.00401743,
        -0.11238188,  0.06086915],
       [ 0.01921429,  0.01835847,  0.02887561, ...,  0.02435638,
        -0.22979145,  0.02017415],
       ...,
       [-0.05570672, -0.10275162, -0.1165124 , ...,  0.08928961,
        -0.09025579,  0.02382337],
       [-0.06906956,  0.09112208, -0.25459448, ...,  0.24982288,
         0.1087403 ,  0.22040321],
       [-0.07558201, -0.06508206, -0.0545749 , ..., -0.08113257,
         0.29554686, -0.03057962]], dtype=float32), array([[ 0.02318055,  0.05314887, -0.04771667, ..., -0.01551351,
         0.00785696, -0.03070415],
       [ 0.13580392,  0.05563123,  0.20735967, ...,  0.16661893,
        -0.12942342, -0.31691745],
       [-0.26552325,  0.00763791, -0.16814883, ...,  0.02892022,
        -0.08468611, -0.1496304 ],
       ...,
       [ 0.04030946,  0.2339986 , -0.03834747, ...,  0.34941235,
         0.0725353 , -0.12587303],
       [-0.12964258, -0.23612624,  0.04492943, ..., -0.20143577,
         0.05992046, -0.15391302],
       [ 0.05161038,  0.11051093,  0.05691123, ...,  0.07618581,
         0.08538087,  0.20506121]], dtype=float32), array([[ 0.0320239 ],
       [ 0.4047919 ],
       [ 0.18547758],
       [-0.21642125],
       [ 0.1385907 ],
       [ 0.23560646],
       [ 0.01003942],
       [ 0.15534581],
       [-0.34430084],
       [-0.09889951],
       [ 0.16910109],
       [-0.17811348],
       [-0.1813838 ],
       [ 0.04572342],
       [ 0.2650643 ],
       [-0.33143377],
       [-0.05705164],
       [-0.02489571],
       [ 0.06294405],
       [-0.36889884],
       [-0.36486503],
       [-0.12024207],
       [-0.07027923],
       [-0.2844021 ],
       [-0.17836797],
       [ 0.06579563],
       [-0.01477459],
       [ 0.05191774],
       [ 0.03581678],
       [ 0.17893302],
       [-0.01134045],
       [-0.0713635 ]], dtype=float32)]


Weights_c:
[array([[-0.21855539,  0.0859611 ,  0.05785949,  0.03408356, -0.26873392,
        -0.32596388, -0.15043454,  0.05110978,  0.2057415 ,  0.1840395 ,
         0.15383962,  0.06026912, -0.09147272,  0.21124363,  0.33002204,
         0.34283423, -0.17870584,  0.01213983, -0.12984097, -0.04075257,
        -0.1937536 ,  0.13131702,  0.16435657, -0.40805823,  0.24011712,
        -0.45250282, -0.33970827,  0.3708952 , -0.09278612, -0.01306805,
         0.22326714,  0.10213867],
       [ 0.11809128, -0.0710515 ,  0.2212445 ,  0.2186606 , -0.13785253,
        -0.2892435 ,  0.30449   , -0.16764356, -0.440934  ,  0.2386299 ,
        -0.07764255, -0.45592225, -0.02357369, -0.32781643,  0.2455445 ,
        -0.3175778 ,  0.16144939, -0.1766583 , -0.08357299,  0.1619325 ,
        -0.26791215, -0.20170535,  0.15934452,  0.0870991 , -0.47853336,
        -0.33869752,  0.04722012,  0.17251417, -0.3157648 ,  0.15438317,
         0.07247742,  0.05817201]], dtype=float32), array([[-0.24019612,  0.0827605 ,  0.01939048, ..., -0.12124392,
         0.18913004,  0.11859066],
       [ 0.05264084, -0.30364797, -0.01070906, ..., -0.12660529,
         0.12226996, -0.25589588],
       [-0.11217719, -0.03921169,  0.0298625 , ...,  0.05651135,
         0.32999423,  0.18216631],
       ...,
       [ 0.26271546,  0.03622009, -0.16955745, ..., -0.1253519 ,
        -0.3051682 , -0.3070884 ],
       [ 0.20045432, -0.04249988,  0.1049904 , ...,  0.08221284,
        -0.28102383,  0.1154396 ],
       [-0.23891878, -0.00117731, -0.24787971, ..., -0.10705197,
         0.08746094, -0.10448793]], dtype=float32), array([[ 0.17363116, -0.12426404, -0.17871502, ..., -0.19528589,
         0.10295632,  0.16921656],
       [ 0.12246761,  0.2982503 , -0.11576544, ..., -0.23412669,
        -0.32905295, -0.05344482],
       [-0.04027465,  0.1161852 ,  0.22676595, ...,  0.17424907,
        -0.11921091, -0.10175683],
       ...,
       [-0.06329535, -0.00970055, -0.19573528, ...,  0.01615715,
         0.08141179, -0.20318405],
       [ 0.01822933, -0.25670868, -0.0882322 , ...,  0.02180021,
         0.22569056, -0.26289797],
       [ 0.07283358, -0.02597342,  0.2827217 , ...,  0.15197377,
         0.18653478, -0.09254892]], dtype=float32), array([[-0.04721677],
       [-0.31539735],
       [-0.21153095],
       [-0.05498205],
       [ 0.01665216],
       [-0.30080187],
       [ 0.19519201],
       [ 0.07675136],
       [-0.23347901],
       [ 0.21684225],
       [-0.13655867],
       [-0.11660205],
       [ 0.04123694],
       [-0.2378426 ],
       [ 0.34194967],
       [-0.08872461],
       [ 0.03502812],
       [ 0.04867774],
       [-0.01781973],
       [ 0.30306286],
       [-0.14985946],
       [ 0.1092234 ],
       [-0.37867755],
       [-0.02122351],
       [-0.05504847],
       [-0.11220027],
       [-0.19101469],
       [ 0.02976434],
       [-0.07292032],
       [ 0.15512271],
       [-0.32558522],
       [ 0.26215994]], dtype=float32)]


Weights_k:
[array([[ 0.0423093 ,  0.3018365 , -0.00789307, -0.46363452,  0.04114771,
        -0.39807343, -0.12777257, -0.70732373, -0.15344265,  0.2904218 ,
        -0.21738774,  0.09611017, -0.4233104 ,  0.2585829 ,  0.29265887,
        -0.13508923, -0.01493706, -0.16888712, -0.0770924 , -0.03004398,
        -0.14233875, -0.21481414, -0.02615255,  0.05906511, -0.05200005,
         0.18299331,  0.29043183,  0.10045969, -0.29163143, -0.27899364,
         0.12002473, -0.18373762, -0.02129646, -0.45169604,  0.09790111,
         0.25043216,  0.3342248 , -0.11410327, -0.25485906, -0.302033  ,
        -0.11088593,  0.27168074, -0.30932403, -0.58864576, -0.4781533 ,
         0.2450323 ,  0.5666624 ,  0.05358044,  0.31560114, -0.13699798,
        -0.43683624, -0.10900223,  0.2451769 ,  0.6457299 ,  0.2604361 ,
         0.30407792, -0.02118936, -0.00430671, -0.7540695 ,  0.47006693,
        -0.23067065, -0.12302702,  0.32257724, -0.35863212, -0.06683204,
        -0.07185151,  0.35372385, -0.34563005,  0.20971389, -0.03042796],
       [-0.12755004, -0.24439229, -0.21901363, -0.03840584, -0.26372147,
         0.251148  , -0.2857691 ,  0.04937834,  0.14173864, -0.1694069 ,
        -0.04966519,  0.03652863, -0.17188552,  0.15661773,  0.24459949,
        -0.03468921,  0.18858097, -0.2343143 , -0.30904013, -0.1137192 ,
         0.0043584 ,  0.04807064,  0.16718955,  0.24864855, -0.25072023,
         0.33763957, -0.26418036, -0.18618372,  0.17510386,  0.29935575,
         0.03135625, -0.14773151, -0.13181919,  0.2867201 ,  0.11158212,
        -0.0623071 , -0.01687531, -0.09363994,  0.06520952, -0.2787748 ,
         0.44455075,  0.23421371,  0.33927742,  0.07628417,  0.00948632,
         0.14699362, -0.15470095,  0.28618017,  0.10737723, -0.16900039,
        -0.17076834,  0.2681589 , -0.24141723, -0.11367665, -0.09729992,
         0.29076406,  0.101978  , -0.19285898,  0.10112129, -0.23406622,
        -0.03837455, -0.09955014,  0.15612264,  0.09728611,  0.1638934 ,
         0.2800198 , -0.15863234,  0.00292917, -0.15398452, -0.08307481]],
      dtype=float32), array([[-0.16825958, -0.11685709,  0.05173856, ..., -0.05110631,
         0.13608834,  0.22979715],
       [ 0.02721359, -0.15432414,  0.05502256, ..., -0.02810994,
         0.02982282,  0.85457844],
       [-0.06557983,  0.00842613,  0.13149107, ...,  0.12839301,
         0.15552309, -0.0202397 ],
       ...,
       [ 0.06896623, -0.05812234,  0.04808531, ...,  0.11477092,
         0.03230951, -0.38828146],
       [ 0.09303241, -0.10063797,  0.11741157, ...,  0.07910588,
         0.0421081 ,  0.998559  ],
       [-0.05879621, -0.05078848, -0.03101933, ...,  0.0351644 ,
         0.03091442,  0.7065845 ]], dtype=float32), array([[ 0.03255292,  0.04059475, -0.10707521, ..., -0.14764062,
        -0.09254608,  0.0363851 ],
       [ 0.13060917, -0.0672546 , -0.12845805, ..., -0.01431596,
        -0.0354475 , -0.00878937],
       [-0.16300434,  0.22353823,  0.00798255, ..., -0.03729139,
         0.07942885,  0.2109978 ],
       ...,
       [ 0.11416651,  0.04571968,  0.03527404, ...,  0.04736643,
         0.10729495,  0.11708767],
       [-0.01590171,  0.1823654 , -0.04911323, ..., -0.00527435,
        -0.15771031, -0.06197986],
       [ 0.19488858,  0.01265947,  0.140242  , ...,  0.13365264,
        -0.00886564,  0.08434038]], dtype=float32), array([[-2.78665453e-01],
       [-9.84169245e-02],
       [-2.26474926e-01],
       [-5.01840226e-02],
       [-1.60435855e-01],
       [-2.18428504e-02],
       [-2.03082383e-01],
       [ 1.80056855e-01],
       [ 4.22037505e-02],
       [ 9.84152928e-02],
       [-3.26493382e-02],
       [-5.33476397e-02],
       [-4.69552167e-02],
       [ 3.81396338e-02],
       [ 6.71018511e-02],
       [-1.57141566e-01],
       [ 1.72277570e-01],
       [ 2.38228306e-01],
       [-1.19806685e-01],
       [-2.90080190e-01],
       [ 2.52465457e-01],
       [-2.39877567e-01],
       [ 3.30450416e-01],
       [-1.13775932e-04],
       [-1.64608151e-01],
       [ 2.87678856e-02],
       [-5.74850477e-02],
       [ 2.02476799e-01],
       [ 2.19776332e-02],
       [ 3.50889772e-01],
       [-2.91973297e-02],
       [ 3.29973459e-01],
       [-8.43507349e-02],
       [-7.48802722e-02],
       [ 2.64857672e-02],
       [ 4.10758844e-03],
       [-2.17119306e-01],
       [-1.67870253e-01],
       [ 1.12587422e-01],
       [ 1.26260478e-04],
       [ 1.11404292e-01],
       [-3.70220132e-02],
       [ 7.92542920e-02],
       [-1.07345625e-03],
       [ 2.52597369e-02],
       [ 9.02325585e-02],
       [-1.47650212e-01],
       [ 7.97383413e-02],
       [-4.95840088e-02],
       [-1.72846168e-01],
       [ 9.72674787e-02],
       [ 1.81191645e-04],
       [ 6.73788041e-02],
       [ 1.85229450e-01],
       [-1.29189342e-01],
       [-1.04447812e-01],
       [ 2.94617325e-01],
       [ 1.91011250e-01],
       [ 3.11281029e-02],
       [-7.62295797e-02],
       [ 1.63959965e-01],
       [-3.44667882e-02],
       [-2.33363450e-01],
       [ 3.62471402e-01],
       [ 2.91379124e-01],
       [-4.73080203e-02],
       [ 1.85718819e-01],
       [-2.55275127e-02],
       [ 1.73126739e-02],
       [-1.02663115e-01]], dtype=float32)]


Weights_h:
[array([[-0.3847942 , -0.04948629,  0.24677642, -0.23875709,  0.05156523,
        -0.20742881, -0.21824352, -0.06401967, -0.27852044, -0.02240024,
         0.25755304,  0.18873529, -0.03202347,  0.23602533, -0.03530238,
         0.16433482, -0.05650025,  0.05088195, -0.06550679, -0.1382626 ,
         0.11936234,  0.02564701,  0.06707189, -0.26239616, -0.10346323,
         0.09673453, -0.21234682, -0.09207831, -0.17807688,  0.15526433,
        -0.29707652, -0.03676382],
       [-0.33513674, -0.18489185,  0.06239164, -0.19025156, -0.0101442 ,
        -0.04081805, -0.11376446, -0.04229528, -0.24654998,  0.2349803 ,
         0.20441197,  0.17320421, -0.1103617 ,  0.3836468 , -0.00348098,
        -0.35042274,  0.00902804, -0.3705562 ,  0.2899864 ,  0.18666182,
        -0.02002633, -0.37947112, -0.01253294, -0.12768048, -0.3302281 ,
        -0.01156785,  0.14746457,  0.0364135 ,  0.25202355, -0.25384378,
        -0.04984817, -0.21131259]], dtype=float32), array([[ 0.09194116, -0.17335773,  0.09601409, ..., -0.07172847,
         0.09723873, -0.12559257],
       [ 0.0792105 ,  0.03344706,  0.11776788, ...,  0.12338252,
         0.20829958, -0.05623387],
       [ 0.02874343,  0.02338286, -0.04900435, ...,  0.12100572,
         0.03710907,  0.0522728 ],
       ...,
       [-0.25116593, -0.08184017,  0.24272752, ...,  0.10158588,
         0.32422888, -0.23551747],
       [-0.17285287, -0.3381873 ,  0.03805894, ..., -0.09182721,
         0.16076602,  0.16624102],
       [-0.02222054, -0.21406713,  0.03391899, ...,  0.11497474,
        -0.12312885, -0.03046631]], dtype=float32), array([[ 0.01018026, -0.03925708,  0.21420872, ...,  0.09495685,
        -0.18163879, -0.11779539],
       [ 0.0113268 , -0.2960281 , -0.26057416, ..., -0.11653978,
         0.02164994, -0.21261981],
       [ 0.0042045 ,  0.07931965, -0.3090617 , ...,  0.05754375,
        -0.03637549,  0.07554075],
       ...,
       [-0.09785339,  0.19730261,  0.19000147, ...,  0.1329379 ,
         0.18629673,  0.0533314 ],
       [ 0.03400845, -0.0655346 , -0.08878192, ..., -0.00805781,
         0.00066319, -0.08710948],
       [ 0.01120411, -0.20655243,  0.07101776, ...,  0.01610675,
         0.1589889 , -0.32596985]], dtype=float32), array([[-0.01565349],
       [ 0.11162023],
       [-0.3251682 ],
       [-0.03965157],
       [ 0.05331318],
       [-0.00968867],
       [ 0.3363216 ],
       [-0.07715577],
       [ 0.4663127 ],
       [ 0.3354981 ],
       [ 0.06902552],
       [-0.24426116],
       [-0.13933954],
       [-0.0180802 ],
       [-0.18084541],
       [ 0.1622704 ],
       [ 0.16364646],
       [ 0.24967502],
       [ 0.20082943],
       [ 0.04129044],
       [ 0.37992406],
       [ 0.08060747],
       [-0.2853554 ],
       [ 0.0861797 ],
       [-0.32356298],
       [ 0.10788144],
       [-0.34842527],
       [-0.17330487],
       [-0.03875805],
       [-0.43936598],
       [-0.35634166],
       [-0.08395713]], dtype=float32)]


Weights_c:
[array([[-0.13622867,  0.42338312, -0.15675224, -0.32363656, -0.17980838,
         0.05629794, -0.07583773,  0.30347443, -0.1349772 ,  0.24305099,
        -0.4092207 , -0.3735009 ,  0.09488913, -0.33440706, -0.05949428,
        -0.29759374, -0.19795848, -0.35358143, -0.06076776, -0.05803337,
         0.15161946, -0.04768752, -0.2998307 , -0.15278476, -0.35588375,
        -0.08726347,  0.00589391,  0.28316075, -0.13023134,  0.41367993,
         0.4020938 , -0.1483381 ],
       [ 0.08978734, -0.00890773,  0.11880561,  0.23088348, -0.0555931 ,
        -0.14995074,  0.273828  ,  0.17952684,  0.21569912,  0.10075775,
        -0.21407801, -0.04635951, -0.19050644,  0.24149464, -0.2934903 ,
        -0.32948896, -0.02040687,  0.4164493 , -0.0814971 ,  0.45980972,
         0.00654618,  0.3216357 , -0.25729465, -0.10112642,  0.2957573 ,
         0.31495658, -0.12426634,  0.2900583 , -0.27321368, -0.19987638,
         0.2101588 ,  0.1513096 ]], dtype=float32), array([[ 0.29732078,  0.03540108,  0.1635939 , ...,  0.19236319,
        -0.1472768 ,  0.0139805 ],
       [ 0.19454236, -0.08634178,  0.10947739, ...,  0.03405735,
        -0.14790235, -0.0009466 ],
       [-0.0088187 , -0.21634892, -0.01317325, ..., -0.04822404,
         0.01997719,  0.07304514],
       ...,
       [-0.11606478,  0.09968559, -0.1909063 , ...,  0.02873203,
         0.19393866,  0.06193072],
       [ 0.00252427, -0.2394489 , -0.12123157, ..., -0.05189986,
        -0.17629506,  0.18243061],
       [-0.05971986,  0.19113524,  0.05141175, ...,  0.07302216,
        -0.01481896, -0.04089622]], dtype=float32), array([[-0.00089215,  0.1211469 , -0.05319216, ...,  0.16930425,
         0.12946188,  0.0407088 ],
       [-0.08425625, -0.33784568, -0.06500454, ..., -0.18562123,
         0.13479383, -0.00340043],
       [ 0.10126544,  0.0596708 , -0.3345778 , ..., -0.0576431 ,
         0.12685978, -0.22224922],
       ...,
       [-0.11011127, -0.05950799,  0.22059968, ..., -0.02914822,
        -0.03456303,  0.02283335],
       [-0.18414769,  0.20103744,  0.3129413 , ..., -0.17992538,
        -0.14682287, -0.0979409 ],
       [ 0.09176545, -0.15499635, -0.13979758, ..., -0.01998837,
         0.21740592, -0.00665311]], dtype=float32), array([[-0.02168287],
       [-0.03359716],
       [-0.34869012],
       [ 0.38278785],
       [-0.07443333],
       [ 0.12078632],
       [-0.05771888],
       [-0.21379422],
       [ 0.07108034],
       [-0.37464947],
       [ 0.37116486],
       [-0.1801672 ],
       [-0.12809238],
       [ 0.03691423],
       [ 0.01316369],
       [ 0.2842414 ],
       [-0.06493585],
       [ 0.09263818],
       [-0.15633747],
       [-0.15200108],
       [-0.30846697],
       [ 0.21564965],
       [-0.48064598],
       [-0.33955863],
       [ 0.13439439],
       [-0.00347315],
       [-0.2916215 ],
       [-0.20961083],
       [ 0.09588093],
       [-0.06549325],
       [ 0.19615898],
       [ 0.06145195]], dtype=float32)]


Weights_k:
[array([[-0.0045997 ,  0.16257787, -0.0290167 , -0.17406139,  0.24938671,
         0.27640697, -0.13899677,  0.0103242 ,  0.1429871 ,  0.32696983,
         0.49181762, -0.37483767, -0.16635355,  0.1790783 , -0.22814736,
        -0.14847396, -0.69308805, -0.22126873,  0.22865348, -0.09699512,
         0.44743207, -0.20612337,  0.16511245, -0.15401223,  0.13272756,
         0.25784665,  0.06897923, -0.1982238 , -0.05610685,  0.19172776,
         0.47728765,  0.17976202, -0.27296183,  0.12353966,  0.3256762 ,
        -0.01529343, -0.05105075,  0.33001634,  0.16746515, -0.05285942,
        -0.1360904 ,  0.20051247,  0.13124232,  0.02072945,  0.2418698 ,
         0.15473418,  0.20669068, -0.3297457 ,  0.09952816,  0.15150797,
        -0.02984404, -0.28947747, -0.29165593, -0.00487897,  0.21840097,
        -0.423694  , -0.24785347, -0.18171802, -0.31502217,  0.28940162,
        -0.3220381 ,  0.22614515, -0.1719291 , -0.26908413, -0.08791317,
         0.1637778 , -0.4640367 , -0.02156102, -0.2408122 , -0.34172812],
       [-0.10293662, -0.46904096,  0.05038501, -0.2355091 ,  0.2565255 ,
        -0.01209156,  0.21953367,  0.07733334,  0.0119357 , -0.00909247,
         0.1181145 ,  0.16002572,  0.08470834, -0.10700066, -0.25411284,
         0.00435929,  0.21963993,  0.24536023, -0.07213552, -0.30043265,
        -0.019946  , -0.01138668,  0.33743876, -0.01329869, -0.41397607,
         0.01433857, -0.5086798 , -0.16652566, -0.2596613 ,  0.03650784,
         0.09687151, -0.19401307,  0.26422545,  0.19179328, -0.1396462 ,
        -0.22119051,  0.15773235, -0.08677632, -0.36570385, -0.21717249,
        -0.27684093,  0.0222251 , -0.07179762, -0.13724609, -0.03326283,
         0.12057202, -0.10320565,  0.03814849, -0.08202512, -0.38553193,
         0.13236356,  0.12231188,  0.1517255 , -0.20807603, -0.3426201 ,
        -0.03582418, -0.04063106,  0.01682176, -0.08429136,  0.15076868,
        -0.00304835, -0.0428135 ,  0.01376252,  0.28877684,  0.01550751,
        -0.19794774,  0.19326267,  0.09952639,  0.04786539,  0.11573154]],
      dtype=float32), array([[-0.25730652,  0.22513427, -0.01928272, ...,  0.1476936 ,
        -0.2009763 , -0.1454726 ],
       [ 0.03968133,  0.13220036, -0.22135085, ..., -0.08289333,
        -0.01115148, -0.0410625 ],
       [ 0.15277141,  0.01103884,  0.01610908, ..., -0.03788174,
         0.15561163, -0.00889898],
       ...,
       [ 0.03337411, -0.16259544, -0.0769239 , ...,  0.07119011,
         0.1751443 ,  0.1192616 ],
       [ 0.04595618, -0.03132937, -0.02964202, ...,  0.12773271,
         0.14830945,  0.22953291],
       [ 0.16821837, -0.21517983,  0.08963591, ..., -0.09731141,
         0.0646609 ,  0.08359082]], dtype=float32), array([[ 0.01766534,  0.06653991,  0.08848862, ...,  0.09616344,
        -0.02080116, -0.00085045],
       [ 0.06023094,  0.03893885, -0.08440264, ..., -0.15048303,
        -0.02866768,  0.06900392],
       [-0.1367563 , -0.14682856, -0.07326562, ...,  0.13783747,
         0.05070741,  0.1635224 ],
       ...,
       [-0.07945576, -0.02249112, -0.01775261, ..., -0.11396256,
         0.04252448, -0.00717997],
       [ 0.15133493, -0.06767862, -0.01794254, ...,  0.04740185,
        -0.053286  , -0.07114866],
       [-0.02525871, -0.08932038, -0.08528844, ...,  0.01451658,
         0.23497778,  0.01419391]], dtype=float32), array([[ 8.3564989e-02],
       [-2.0652843e-01],
       [ 1.4214741e-01],
       [ 1.1790538e-01],
       [-2.0522957e-01],
       [ 1.6666670e-01],
       [ 3.3007264e-02],
       [ 9.4337299e-02],
       [ 3.0077463e-01],
       [-2.2094864e-02],
       [ 2.3428811e-01],
       [-9.2202783e-02],
       [-3.2164285e-01],
       [-2.4261262e-01],
       [ 2.2113976e-01],
       [-2.9590581e-02],
       [-7.2755069e-02],
       [-2.5521666e-01],
       [-1.4285116e-01],
       [-1.6887272e-02],
       [-6.7168742e-02],
       [-1.7579791e-01],
       [ 2.1886018e-04],
       [ 4.6086084e-04],
       [ 1.3181034e-01],
       [-2.2123666e-01],
       [-7.7263780e-02],
       [-1.9266559e-01],
       [-7.7629492e-02],
       [-1.0145879e-01],
       [ 9.4184160e-02],
       [-2.0866366e-01],
       [-6.5887935e-02],
       [ 2.2518143e-01],
       [ 2.0118348e-01],
       [-1.3488705e-01],
       [-9.9748209e-02],
       [-1.3021798e-01],
       [ 2.0100452e-01],
       [-3.3129695e-01],
       [-6.7911171e-03],
       [-1.8437544e-01],
       [-2.1459711e-05],
       [-1.6112809e-01],
       [ 4.4378859e-04],
       [-2.5267848e-01],
       [ 3.4886785e-02],
       [ 2.2637360e-01],
       [ 1.2103696e-01],
       [ 1.7576510e-01],
       [ 8.4688730e-04],
       [-1.2819839e-01],
       [-3.0994943e-01],
       [ 6.7806766e-05],
       [-3.5501918e-04],
       [ 2.9177900e-02],
       [ 1.2677000e-01],
       [ 4.3130968e-02],
       [ 1.9850367e-01],
       [ 7.9255521e-02],
       [-4.2607389e-02],
       [-2.8310898e-01],
       [ 2.8055853e-01],
       [-2.4443850e-01],
       [ 5.2605543e-02],
       [-5.4429106e-02],
       [ 1.8888032e-01],
       [-1.2755680e-01],
       [-4.0656973e-02],
       [ 1.4470384e-01]], dtype=float32)]


Weights_h:
[array([[-0.30400786,  0.01792022,  0.06938045,  0.02330546, -0.06868703,
         0.37080288,  0.01202486,  0.01886149,  0.10361246, -0.15670668,
        -0.03693129, -0.2700748 ,  0.06063279, -0.04794429, -0.18770742,
        -0.43031457,  0.0885537 , -0.03981707, -0.08119503, -0.16214885,
         0.11414637, -0.3256369 ,  0.278451  ,  0.2964988 ,  0.11967512,
         0.32852736,  0.4801364 , -0.19182198,  0.19292532, -0.03105825,
         0.21247259,  0.12212262],
       [-0.08988723,  0.07390318,  0.05101496, -0.20506227,  0.26010945,
        -0.01923952, -0.23306885, -0.21306822,  0.12720756,  0.13766392,
        -0.21740034, -0.15015253, -0.3117034 ,  0.01175536,  0.29495478,
        -0.13960005, -0.14602302, -0.05989897, -0.09021899, -0.08428376,
        -0.0036646 , -0.266173  ,  0.26125628,  0.09124697,  0.01502525,
         0.06828384, -0.28480273, -0.00621608, -0.3989994 ,  0.00568015,
         0.43112308,  0.03681706]], dtype=float32), array([[ 0.11569422, -0.04723977,  0.3084169 , ..., -0.07265962,
         0.22303168, -0.21699463],
       [-0.11422396,  0.17824996, -0.0464906 , ..., -0.19711742,
         0.01816284,  0.02020247],
       [ 0.17763181, -0.25119373, -0.1642591 , ..., -0.25231907,
         0.03841883, -0.05415213],
       ...,
       [ 0.18433015,  0.23024501, -0.3433169 , ..., -0.11828477,
         0.17955808,  0.16050485],
       [-0.2366715 ,  0.0713651 , -0.25627568, ...,  0.27950966,
         0.28516105,  0.07738235],
       [-0.05673158, -0.27202567, -0.13438535, ..., -0.06205755,
        -0.12946098,  0.01012141]], dtype=float32), array([[ 0.05054799,  0.05766766,  0.25051004, ...,  0.03549561,
         0.15792166,  0.23611781],
       [-0.17571624,  0.1661249 , -0.31310213, ..., -0.27999386,
        -0.01309361, -0.04667158],
       [-0.21247248,  0.14322577,  0.05542572, ..., -0.09773356,
         0.13901141, -0.23091306],
       ...,
       [ 0.29810798,  0.16447218,  0.09788392, ..., -0.14747761,
        -0.31281254, -0.13939558],
       [ 0.0925322 ,  0.05173494,  0.20474224, ..., -0.19036953,
        -0.19046192, -0.27849728],
       [ 0.0337874 ,  0.23531835, -0.05128616, ..., -0.20331149,
        -0.14286007,  0.06216659]], dtype=float32), array([[-0.12511268],
       [-0.1893171 ],
       [-0.31220916],
       [ 0.2434964 ],
       [ 0.23665056],
       [ 0.0123227 ],
       [ 0.47079128],
       [-0.2175555 ],
       [-0.01930456],
       [-0.21869287],
       [ 0.20425278],
       [ 0.30568588],
       [ 0.21341772],
       [-0.08333297],
       [ 0.2469635 ],
       [-0.12570496],
       [ 0.04697948],
       [-0.3927118 ],
       [ 0.48104247],
       [-0.08670194],
       [-0.23502035],
       [ 0.06826956],
       [ 0.20307343],
       [-0.04939986],
       [ 0.30004272],
       [-0.252164  ],
       [-0.04778063],
       [-0.14081118],
       [ 0.1551775 ],
       [ 0.26574823],
       [-0.00438787],
       [ 0.06894805]], dtype=float32)]


Weights_c:
[array([[-0.13442113,  0.19845286,  0.09708432,  0.40922683, -0.36279464,
        -0.29366985,  0.13334762,  0.19582412, -0.36474195, -0.00639213,
         0.16563483, -0.07134784,  0.10933784,  0.16500331,  0.05301572,
        -0.21443018, -0.22199033,  0.19119225,  0.3372994 ,  0.35366562,
         0.1364199 , -0.18138339,  0.04972997, -0.16778229, -0.16920207,
        -0.12581487,  0.12767327, -0.14963128,  0.3119879 , -0.14133012,
         0.23281942,  0.25819734],
       [ 0.1487653 , -0.32936358, -0.07373161,  0.13086993, -0.370247  ,
        -0.02450482, -0.19813125, -0.33103657,  0.07152235,  0.10551912,
        -0.03737341, -0.28994802, -0.08255294,  0.25516197, -0.16769898,
        -0.03791162, -0.15366833,  0.08617391,  0.01770783,  0.3197725 ,
         0.10101067,  0.02484412, -0.08822213, -0.00227069, -0.05929791,
        -0.22289096,  0.34699023, -0.47490385,  0.32694906, -0.30304962,
        -0.23912951,  0.00561153]], dtype=float32), array([[ 0.06139038, -0.14951885,  0.12830696, ..., -0.07389957,
        -0.26557326,  0.14496595],
       [ 0.2894069 , -0.266369  , -0.03214949, ..., -0.01776998,
         0.05788056, -0.06198962],
       [ 0.02053292,  0.01680291, -0.0542418 , ..., -0.15697622,
        -0.05625335,  0.13148633],
       ...,
       [-0.30171463,  0.2308341 , -0.0315115 , ..., -0.00481637,
         0.11398295,  0.07938053],
       [ 0.06103221, -0.05772445,  0.12204749, ...,  0.17899142,
         0.1825149 ,  0.10094772],
       [ 0.18110369,  0.10372639,  0.12031326, ..., -0.03262603,
        -0.04672311, -0.17034456]], dtype=float32), array([[-0.1871115 , -0.02301693, -0.06045176, ..., -0.00649628,
         0.14063711,  0.07507982],
       [ 0.17728989,  0.107947  ,  0.07035647, ...,  0.29785442,
        -0.09396828,  0.18469846],
       [ 0.14216708,  0.13490656,  0.1967732 , ..., -0.09733833,
         0.15251693,  0.00948957],
       ...,
       [-0.17658044,  0.23159759, -0.3381804 , ..., -0.10576715,
         0.14067194,  0.05445183],
       [ 0.04000979, -0.1588569 , -0.1999719 , ..., -0.17903924,
        -0.05965688,  0.13578263],
       [-0.10473091, -0.00378662,  0.2004241 , ...,  0.27385694,
         0.29562017, -0.01813447]], dtype=float32), array([[-0.00594524],
       [-0.254245  ],
       [-0.1919461 ],
       [ 0.07142402],
       [ 0.02193999],
       [-0.11047361],
       [ 0.12381399],
       [-0.20115456],
       [ 0.16134983],
       [-0.10313765],
       [ 0.1157281 ],
       [ 0.12451386],
       [ 0.19572425],
       [-0.45730788],
       [ 0.36600986],
       [ 0.01748684],
       [-0.34259507],
       [ 0.10353127],
       [-0.18891682],
       [ 0.10702197],
       [ 0.11450938],
       [ 0.25676802],
       [-0.26005375],
       [-0.11707489],
       [ 0.310538  ],
       [ 0.2419247 ],
       [-0.33584556],
       [-0.03312165],
       [ 0.29492825],
       [-0.04745822],
       [ 0.28261483],
       [-0.01298675]], dtype=float32)]


Weights_k:
[array([[-0.16006498, -0.16685721,  0.3119244 , -0.10349597,  0.40337053,
        -0.22155336,  0.31895888,  0.2525095 , -0.03948547, -0.0992653 ,
         0.5385256 , -0.05618987,  0.19290031,  0.18822086, -0.08479602,
        -0.31512788, -0.4495652 ,  0.02501958, -0.278377  , -0.16459535,
        -0.23730297,  0.14627874,  0.09807021, -0.04800687, -0.04436595,
        -0.22838953, -0.13799478, -0.14471965,  0.26427162, -0.09304231,
        -0.1532216 , -0.22055216, -0.14664185, -0.07816099, -0.3311264 ,
         0.04885518,  0.18523754,  0.11159065,  0.35382545,  0.32167447,
        -0.00500262, -0.32088867, -0.08097184,  0.00114535,  0.32083604,
         0.2811332 ,  0.33480227,  0.04096398,  0.24058427,  0.34586507,
        -0.06393589,  0.1621504 ,  0.05131347,  0.1262553 , -0.5739343 ,
        -0.0126057 ,  0.09535165,  0.34582558,  0.267089  ,  0.34915936,
        -0.19735746,  0.13646959,  0.10258337,  0.23922974,  0.21654512,
        -0.27577743,  0.39954647,  0.41808167, -0.00283103,  0.045895  ],
       [-0.03375424,  0.2052079 ,  0.24562994,  0.21526846, -0.15100579,
         0.37427902, -0.06631569, -0.04959567, -0.1237786 ,  0.2773349 ,
        -0.24257661,  0.00113048, -0.02927127,  0.21571985,  0.07272201,
         0.12266229,  0.3245003 , -0.09880301,  0.17550896, -0.09539982,
         0.23221979,  0.17543063,  0.03138796, -0.03881001, -0.01291036,
         0.18090822, -0.06358046, -0.04554861, -0.15753296, -0.00203231,
         0.27443886,  0.33390963, -0.24376982,  0.07175008, -0.07847597,
        -0.09031394,  0.06269057,  0.16560943, -0.18960395,  0.17692566,
         0.09720571, -0.17987616,  0.19304779,  0.15648419, -0.30802932,
         0.10714401, -0.08415715,  0.12642026, -0.1084504 , -0.04753432,
        -0.16243368, -0.0833471 ,  0.17982309,  0.27068576,  0.2874538 ,
         0.06797303, -0.16358025,  0.09403938, -0.16045636,  0.00615828,
         0.03565351, -0.00880801, -0.03407519, -0.03058468,  0.04239725,
        -0.12754092, -0.20805262, -0.25142908, -0.26849735,  0.23534767]],
      dtype=float32), array([[ 0.20032527,  0.10609566, -0.14839429, ...,  0.01501404,
        -0.01379006, -0.09754056],
       [ 0.13982639, -0.11334278,  0.00470197, ..., -0.03194333,
         0.34734216, -0.02980712],
       [-0.00056882,  0.0755573 ,  0.18425125, ...,  0.15901218,
         0.0143017 ,  0.40598798],
       ...,
       [-0.09162191,  0.09619623,  0.14006266, ...,  0.17105575,
        -0.17535289,  0.32323727],
       [-0.08708043,  0.13842805, -0.14578538, ...,  0.0326474 ,
        -0.24077131, -0.12857707],
       [-0.11374392,  0.05260533,  0.02729178, ..., -0.04536064,
         0.288571  ,  0.14149322]], dtype=float32), array([[ 0.04474638,  0.03882279, -0.00579188, ...,  0.00046266,
        -0.01957509, -0.09500829],
       [-0.0205553 ,  0.01468912,  0.02565732, ..., -0.05877531,
        -0.10369621, -0.15213093],
       [ 0.00793214, -0.13719144,  0.12407114, ...,  0.01729249,
         0.22936442,  0.06574842],
       ...,
       [-0.03471535,  0.12432308, -0.15304036, ...,  0.2282894 ,
         0.02145921, -0.05680821],
       [ 0.17246673, -0.24279097,  0.09055188, ...,  0.09336487,
         0.00135367, -0.11045244],
       [-0.10455804, -0.08789349, -0.19141947, ..., -0.19525656,
         0.15958238, -0.11088011]], dtype=float32), array([[ 2.76049636e-02],
       [ 3.68959159e-02],
       [-1.36043742e-01],
       [-1.67008117e-01],
       [-2.95082778e-01],
       [-8.29735398e-03],
       [-6.77513406e-02],
       [ 3.17227505e-02],
       [-5.07836863e-02],
       [-2.21779257e-01],
       [-1.53129309e-01],
       [-3.14223975e-01],
       [-1.35998368e-01],
       [ 1.59162089e-01],
       [ 7.44411498e-02],
       [-6.80904122e-07],
       [-3.58007967e-01],
       [-1.39751852e-01],
       [-2.36764755e-02],
       [ 2.42486745e-01],
       [-2.59929538e-01],
       [ 6.81323309e-06],
       [ 5.58231175e-02],
       [ 4.21372168e-02],
       [-2.85138220e-01],
       [-5.55358604e-02],
       [ 1.95030309e-02],
       [-1.81439430e-01],
       [-2.67590433e-02],
       [-6.29397631e-02],
       [-2.47568097e-02],
       [-9.64397788e-02],
       [ 3.19676623e-02],
       [-2.68656109e-02],
       [ 1.73222870e-01],
       [-7.09010884e-02],
       [-8.95157363e-03],
       [-4.25303914e-02],
       [-1.86155513e-02],
       [ 2.25867108e-01],
       [-4.66905758e-02],
       [-1.60183355e-01],
       [-4.22576703e-02],
       [ 2.32247189e-02],
       [-2.39492908e-01],
       [ 1.33826181e-01],
       [ 1.88780613e-02],
       [-2.84123391e-01],
       [ 1.97554022e-01],
       [ 1.92181617e-01],
       [-2.51710680e-05],
       [ 2.24601507e-01],
       [-1.19795583e-01],
       [-3.54843020e-01],
       [ 1.34262696e-01],
       [ 1.56893745e-01],
       [ 1.32116405e-02],
       [-2.21185073e-01],
       [-1.12688117e-01],
       [-1.67834893e-01],
       [-7.29945302e-02],
       [-8.61911831e-05],
       [ 2.07605392e-01],
       [ 2.44672119e-04],
       [ 1.02516994e-01],
       [-6.07944876e-02],
       [ 2.87667394e-01],
       [-1.88416183e-01],
       [ 8.81511420e-02],
       [ 2.74169028e-01]], dtype=float32)]


Weights_h:
[array([[ 0.21761176, -0.06866745, -0.1568707 ,  0.01163642,  0.23694262,
        -0.3583775 , -0.1254417 ,  0.18340953, -0.03919468,  0.13551612,
         0.06590401,  0.00784959, -0.14344597,  0.20329988,  0.08609977,
        -0.04263502,  0.2112599 , -0.19337872, -0.16948462,  0.0635085 ,
         0.21023078,  0.4606883 , -0.19543542,  0.30974808,  0.08987384,
        -0.10368224,  0.09751139, -0.24336322,  0.10676917,  0.11090305,
        -0.12117792, -0.18344821],
       [-0.06623748,  0.3326226 , -0.03918875, -0.17474748,  0.03005263,
         0.382488  ,  0.00332448, -0.04954591, -0.01753859, -0.43648535,
        -0.28214735, -0.01858219,  0.15916474, -0.05888181, -0.2932501 ,
        -0.22194889, -0.1412111 ,  0.34414494, -0.09136651, -0.1726395 ,
         0.3205803 ,  0.31963515, -0.23500647,  0.14209367, -0.01877834,
        -0.0736273 , -0.04039801, -0.08810985, -0.3979339 , -0.33061746,
        -0.3859166 ,  0.16417502]], dtype=float32), array([[-0.31348026, -0.09603777, -0.00605665, ..., -0.27864516,
        -0.04771524,  0.3164231 ],
       [-0.11479451,  0.11294184, -0.10407682, ..., -0.05251154,
        -0.06626305,  0.31422135],
       [-0.17162123, -0.01299953,  0.22427683, ...,  0.16681981,
        -0.23973568,  0.0182342 ],
       ...,
       [ 0.04825148, -0.03999862,  0.05611136, ...,  0.01072962,
        -0.04241518, -0.1318942 ],
       [-0.01337449, -0.09352002,  0.20202766, ..., -0.04658755,
         0.25717378, -0.30073008],
       [ 0.22533484, -0.0842543 ,  0.03436501, ..., -0.0337697 ,
         0.17285144,  0.00769653]], dtype=float32), array([[ 0.00070873, -0.09612991, -0.08668564, ..., -0.16653763,
        -0.01368161, -0.00373128],
       [-0.02081122, -0.01263396,  0.1091    , ...,  0.10281656,
         0.04255705, -0.02786921],
       [-0.21672575,  0.05605174, -0.32428974, ..., -0.04200837,
         0.26970264, -0.271437  ],
       ...,
       [ 0.0216892 ,  0.23742533, -0.17781271, ...,  0.25779969,
        -0.04728901,  0.09846446],
       [ 0.10556652, -0.251843  ,  0.05399964, ...,  0.16026028,
        -0.10508182, -0.07755994],
       [-0.25969392, -0.2540061 , -0.343167  , ..., -0.05324988,
        -0.22797397,  0.12224432]], dtype=float32), array([[-0.29859096],
       [-0.12805055],
       [ 0.01005595],
       [-0.32689485],
       [-0.04857918],
       [ 0.00875255],
       [-0.1196961 ],
       [-0.06431265],
       [-0.3851508 ],
       [-0.25443295],
       [-0.14194065],
       [ 0.11982951],
       [-0.12796186],
       [ 0.1563057 ],
       [-0.11836494],
       [-0.3212594 ],
       [ 0.3208776 ],
       [ 0.05173323],
       [-0.01375938],
       [ 0.02027991],
       [ 0.26122308],
       [ 0.20663449],
       [-0.13485418],
       [-0.2246924 ],
       [ 0.01677882],
       [ 0.22474578],
       [ 0.33265752],
       [ 0.03274905],
       [ 0.14458646],
       [ 0.13426332],
       [ 0.4807502 ],
       [ 0.01078109]], dtype=float32)]


Weights_c:
[array([[-0.02773894, -0.02238187,  0.21106188, -0.04069914, -0.17352179,
         0.07246035, -0.04314454,  0.03694176,  0.2564744 ,  0.06800909,
         0.18002336, -0.36544546, -0.21775676,  0.04824789,  0.20188303,
        -0.2734754 ,  0.25981113, -0.01752807, -0.46116522, -0.21952274,
        -0.02799732,  0.17632742, -0.2516311 ,  0.306759  , -0.15132926,
         0.2539523 , -0.0382761 , -0.37671953,  0.31306678, -0.2784782 ,
        -0.09871036,  0.18954185],
       [-0.04505695,  0.26984042,  0.42244646,  0.08894147,  0.41332003,
        -0.18850683,  0.0195058 ,  0.07561946,  0.3693138 , -0.0629966 ,
        -0.1460936 ,  0.05240527, -0.0884099 , -0.17930648,  0.14684425,
         0.39418563, -0.28095478,  0.10409319, -0.00095421,  0.18695545,
         0.09041143,  0.23027728,  0.057171  , -0.11877465, -0.09786086,
        -0.28330937,  0.2471343 , -0.35242116, -0.0344678 ,  0.07418243,
        -0.3059995 , -0.3026282 ]], dtype=float32), array([[-0.09376832,  0.05604881,  0.20350385, ...,  0.08695684,
         0.31278467,  0.00997129],
       [-0.26797202,  0.03841998, -0.09305635, ..., -0.26779708,
        -0.0029179 , -0.29075247],
       [-0.08340988,  0.06215201, -0.13043395, ..., -0.2037869 ,
        -0.03482126,  0.16955835],
       ...,
       [-0.12846291, -0.07543447, -0.18251508, ...,  0.20554353,
        -0.07856128,  0.13175283],
       [ 0.08770239, -0.07662755, -0.3470475 , ...,  0.2993582 ,
        -0.00894539,  0.19255957],
       [ 0.02059019,  0.26415154, -0.04832577, ..., -0.03868418,
        -0.05232628, -0.20270042]], dtype=float32), array([[ 0.02891468,  0.20150585, -0.14556527, ..., -0.03954394,
         0.06996314, -0.10403655],
       [-0.02890217, -0.10630672, -0.14136542, ...,  0.07433087,
         0.03790386, -0.00475042],
       [-0.3085963 ,  0.24910669, -0.00959708, ...,  0.03975948,
        -0.12678383, -0.01123672],
       ...,
       [ 0.18684956,  0.06893972,  0.30750975, ..., -0.1435334 ,
         0.16136357,  0.07172196],
       [ 0.00605324,  0.03754336,  0.11350088, ...,  0.02075126,
         0.09186033, -0.16736029],
       [-0.08266553, -0.1671539 , -0.12203153, ...,  0.1265494 ,
        -0.01370834, -0.251923  ]], dtype=float32), array([[ 2.94102907e-01],
       [-4.16558614e-04],
       [ 9.80608165e-03],
       [-4.34766412e-02],
       [ 1.90041095e-01],
       [-3.32134634e-01],
       [-2.64160067e-01],
       [ 2.29354471e-01],
       [-1.45829305e-01],
       [ 2.44389847e-01],
       [ 1.24667585e-01],
       [-2.11100310e-01],
       [ 4.19094473e-01],
       [-1.63462877e-01],
       [ 1.93111777e-01],
       [ 2.56596327e-01],
       [-3.60058755e-01],
       [-3.85673314e-01],
       [ 4.69617367e-01],
       [-1.00910343e-01],
       [ 1.82702839e-01],
       [ 8.35569426e-02],
       [-1.88650310e-01],
       [-5.02467416e-02],
       [ 2.33310059e-01],
       [ 4.18203324e-02],
       [-3.35680485e-01],
       [ 2.02316537e-01],
       [ 2.52752960e-01],
       [ 4.90336925e-01],
       [ 1.72318891e-01],
       [ 6.36678189e-02]], dtype=float32)]


Weights_k:
[array([[-0.16983055,  0.13326778,  0.57931453,  0.24204609, -0.28799555,
        -0.09232645,  0.14671133,  0.32447916,  0.35614502, -0.20792283,
         0.07698957, -0.07211991, -0.07520302,  0.38938403, -0.03701711,
        -0.1698514 , -0.20221801, -0.04605394,  0.14809544, -0.02757367,
        -0.1729369 ,  0.24452831, -0.00204444,  0.2834811 ,  0.04620843,
        -0.01615981,  0.19058076, -0.0041665 , -0.34450144,  0.32552648,
         0.00423506,  0.17771992, -0.05206736,  0.007396  , -0.37866312,
         0.03635288,  0.1135317 ,  0.10182012,  0.30862206,  0.21872818,
         0.14915684,  0.32505286,  0.33122808, -0.13735367,  0.1326892 ,
        -0.14318995, -0.06240334, -0.30770767,  0.19276583, -0.15667431,
         0.06136922,  0.08425916, -0.16430968,  0.00188254,  0.2512266 ,
        -0.44477114, -0.23235919, -0.24700509, -0.0337692 ,  0.28941315,
         0.07689457, -0.18970838,  0.24322036, -0.05765022,  0.06146372,
        -0.38972205,  0.10409617, -0.00797421, -0.22577415,  0.14252612],
       [-0.0243496 ,  0.11719651, -0.01514076, -0.16183841, -0.3011142 ,
        -0.01379616,  0.02927631, -0.12570967, -0.04669385, -0.09867536,
         0.10357343,  0.0314868 , -0.18180098, -0.20582442,  0.1968519 ,
         0.1077706 ,  0.2979875 , -0.19376718, -0.20969282,  0.34308228,
         0.0874711 ,  0.1478353 , -0.11300419, -0.13230242, -0.18978085,
        -0.13703567, -0.01468405,  0.27840012,  0.07152639, -0.13495372,
        -0.25323087, -0.23322673,  0.36214226, -0.0068619 ,  0.15454188,
         0.14040501,  0.2061742 , -0.22138496,  0.07795957,  0.15087773,
        -0.13747588, -0.12470904,  0.09251464,  0.11046693, -0.1132315 ,
         0.00258558, -0.0461068 , -0.07307219,  0.08724866,  0.05845965,
         0.1586249 ,  0.10160293,  0.09633487, -0.1399689 ,  0.10442702,
         0.13474555, -0.2303081 , -0.07047769, -0.1813243 , -0.00981344,
         0.1458113 ,  0.26792973,  0.14413695,  0.2828512 ,  0.05841036,
        -0.04899081, -0.01837824, -0.32946026, -0.320972  ,  0.16891737]],
      dtype=float32), array([[ 2.3761358e-02,  5.7063699e-02, -2.4097943e-01, ...,
        -8.6936906e-02, -9.5512144e-02,  6.4955696e-02],
       [ 1.7796974e-01, -3.3287447e-02, -3.9053272e-02, ...,
         1.2545246e-01,  1.9644816e-01,  3.7404504e-02],
       [-1.7424008e-01,  3.2188985e-01,  3.4216254e-03, ...,
         1.2091783e-01, -8.6915448e-02,  4.0223893e-02],
       ...,
       [-4.6549212e-02,  4.2443309e-02,  4.2607884e-05, ...,
        -3.1468889e-01,  2.1814328e-01, -7.9497360e-02],
       [-2.5277951e-01,  6.9858231e-02, -1.0332205e-01, ...,
         1.3060403e-01, -3.0265151e-02, -1.0619890e-01],
       [ 3.5845891e-01,  3.3149391e-02,  1.1362221e-01, ...,
         8.1779435e-03,  2.0605405e-01, -3.2726158e-03]], dtype=float32), array([[-0.14628918, -0.13424654,  0.06616412, ...,  0.13754906,
        -0.10836661,  0.08058751],
       [ 0.05698392,  0.03061505, -0.11004194, ..., -0.06857496,
        -0.12869531, -0.0777902 ],
       [-0.04120408,  0.17422697, -0.10250679, ...,  0.18150789,
        -0.01745694,  0.1593829 ],
       ...,
       [-0.13702881,  0.0254607 ,  0.06215206, ...,  0.14890185,
         0.13665187, -0.12851858],
       [-0.2521715 ,  0.15449806, -0.04248267, ..., -0.10559741,
        -0.0425349 , -0.12366557],
       [-0.16555588,  0.20904525,  0.01602369, ...,  0.02390941,
         0.12267528,  0.12198759]], dtype=float32), array([[-3.46812159e-01],
       [ 2.63561368e-01],
       [ 2.31400445e-01],
       [-1.81872264e-01],
       [ 2.16871679e-01],
       [ 1.67045504e-01],
       [ 1.93634391e-04],
       [ 2.82727450e-01],
       [ 3.32694858e-01],
       [-2.05359638e-01],
       [-1.66430801e-01],
       [-9.32635367e-02],
       [-2.68628966e-04],
       [ 3.00497562e-01],
       [ 1.77223280e-01],
       [ 2.25014433e-01],
       [ 1.27969667e-01],
       [-8.51045916e-05],
       [-1.67234138e-01],
       [ 1.67694256e-01],
       [-3.18668991e-01],
       [ 7.54340726e-05],
       [ 7.60835782e-02],
       [ 1.69074938e-01],
       [-2.96382129e-01],
       [ 4.79037222e-03],
       [-6.89437729e-06],
       [-1.50907218e-01],
       [-2.03746498e-01],
       [ 3.89144756e-02],
       [ 7.45948926e-02],
       [-1.18178435e-01],
       [-2.84482926e-01],
       [-1.09690554e-01],
       [-1.01924077e-01],
       [ 8.41428563e-02],
       [-1.19754814e-01],
       [ 4.23761420e-02],
       [ 1.47141159e-01],
       [ 7.17971846e-02],
       [ 3.33595322e-04],
       [ 5.85645251e-02],
       [-1.77304611e-01],
       [ 8.78959000e-02],
       [-1.57995373e-02],
       [-2.05716435e-02],
       [-3.13616484e-01],
       [ 2.43337359e-04],
       [ 2.31275976e-01],
       [-2.25388169e-01],
       [ 3.51400614e-01],
       [-8.61243159e-02],
       [ 6.75673261e-02],
       [ 8.97653177e-02],
       [-2.22384915e-01],
       [ 6.11608326e-02],
       [-1.21962512e-06],
       [ 1.00885265e-01],
       [ 5.04778605e-03],
       [ 1.08689994e-01],
       [-3.58878635e-02],
       [ 8.10645297e-02],
       [-1.71241716e-01],
       [ 8.76937265e-05],
       [ 1.15457669e-01],
       [ 2.45291352e-01],
       [ 8.07391033e-02],
       [-1.09365575e-01],
       [-1.87328041e-01],
       [-2.35337555e-01]], dtype=float32)]


Weights_h:
[array([[ 4.5985198e-01,  3.1653088e-02, -9.4610095e-02,  2.9936377e-02,
         4.4416822e-02, -3.5678452e-01,  6.4765714e-02, -3.1960491e-02,
        -1.4181523e-01,  1.0354892e-01, -2.9966846e-01, -1.4293289e-01,
        -2.7292227e-02, -1.4529186e-02,  5.6072205e-02, -1.7751355e-01,
        -2.8846401e-01,  8.4634908e-02,  6.9677420e-02,  1.3474733e-01,
        -1.4507805e-01,  1.4786313e-01, -8.6261205e-02, -1.6822034e-01,
         1.7393834e-04, -4.1912919e-01,  3.4297634e-02,  3.5141623e-01,
         1.2131183e-01, -1.4974408e-01, -8.0398485e-02,  7.3297671e-03],
       [ 1.6548507e-01,  5.2168310e-02, -6.8092979e-02, -1.2759571e-01,
        -1.0013059e-01,  4.0918535e-01, -1.0014458e-04, -6.6912852e-02,
        -2.4814112e-01, -3.1258050e-01, -7.6035924e-02, -2.8104445e-01,
         1.2894349e-01, -1.9795634e-01, -1.2509815e-01,  5.1197100e-02,
        -2.3502448e-01, -2.2410347e-01,  3.0440360e-01,  4.8023928e-02,
        -7.6954593e-03, -4.6104953e-01,  4.5458329e-01, -3.1720391e-01,
         4.9215383e-03,  1.8161684e-01,  2.1115033e-02,  4.4258296e-01,
         2.5403532e-01, -3.0889186e-01,  1.6401905e-01, -3.0117527e-02]],
      dtype=float32), array([[-0.14303827,  0.02500917,  0.18917075, ..., -0.26461425,
         0.27748534,  0.03598652],
       [-0.02527359,  0.21100533,  0.08008699, ...,  0.14482719,
        -0.3511928 ,  0.29364157],
       [-0.09825195,  0.23041983,  0.20214812, ..., -0.16752832,
         0.06339921,  0.24940279],
       ...,
       [ 0.1659406 ,  0.06657028,  0.1193921 , ..., -0.1901631 ,
        -0.17676897,  0.22207469],
       [-0.18908185,  0.11093511, -0.15214474, ...,  0.04514555,
         0.10254516,  0.21312883],
       [ 0.31004855, -0.07135854, -0.12175947, ..., -0.11701073,
         0.28254333,  0.26543143]], dtype=float32), array([[ 0.19732043, -0.02829042,  0.14722571, ...,  0.2249647 ,
         0.07514738,  0.14194442],
       [ 0.33618668, -0.10528748,  0.04579602, ...,  0.12039438,
        -0.01748417, -0.13059057],
       [ 0.00781166, -0.26281735, -0.06113457, ...,  0.1732497 ,
         0.06874599,  0.16462028],
       ...,
       [ 0.09670289,  0.00574799,  0.05655579, ...,  0.03004449,
        -0.10422017,  0.19211134],
       [-0.03666924, -0.12673613,  0.04829501, ...,  0.2804445 ,
         0.10213619,  0.23199117],
       [-0.02485989,  0.07086693, -0.15266843, ..., -0.19834419,
         0.21654856, -0.1987142 ]], dtype=float32), array([[-0.06137362],
       [-0.24803077],
       [-0.14744101],
       [-0.27761987],
       [ 0.2951694 ],
       [ 0.07357154],
       [ 0.09882187],
       [ 0.2523106 ],
       [-0.19725755],
       [ 0.09623801],
       [-0.04581695],
       [ 0.28250656],
       [-0.11330771],
       [-0.00854755],
       [ 0.0618971 ],
       [-0.2719617 ],
       [-0.25745457],
       [-0.270398  ],
       [-0.27933082],
       [-0.0238261 ],
       [ 0.06151662],
       [ 0.23762152],
       [-0.2251945 ],
       [-0.20362206],
       [ 0.42528883],
       [ 0.15711048],
       [ 0.18522464],
       [-0.03827386],
       [ 0.17197673],
       [ 0.01234831],
       [-0.2516409 ],
       [-0.30535644]], dtype=float32)]


Weights_c:
[array([[ 0.04592385,  0.0418089 , -0.15129656, -0.13814618, -0.23305169,
        -0.25480327,  0.01989048, -0.1483743 , -0.13565724, -0.36851734,
        -0.05889921, -0.06366038, -0.336444  ,  0.03559427,  0.0354824 ,
        -0.01093947,  0.07018314,  0.1757688 , -0.13342184,  0.09266233,
        -0.14229353, -0.12295419,  0.10899246,  0.24183625, -0.11995822,
         0.3918303 , -0.25143793, -0.25314468,  0.17165169,  0.15363759,
         0.42438057,  0.20305945],
       [-0.15831798, -0.2557335 , -0.25931358,  0.12498111,  0.05328231,
         0.18446666,  0.34211543, -0.34436855,  0.12894766,  0.24522151,
         0.41924432,  0.07781219, -0.08171586, -0.03925864,  0.03001134,
         0.04588576,  0.10129904,  0.13561499,  0.14207675, -0.07735906,
        -0.17474242, -0.0308746 ,  0.25568584,  0.16379921,  0.45067108,
         0.2862476 , -0.182468  ,  0.06175597, -0.38036403, -0.0662001 ,
         0.3700039 ,  0.2506681 ]], dtype=float32), array([[ 5.5860728e-03,  1.8663917e-01, -2.8088749e-03, ...,
         3.9347537e-02,  6.2974785e-03, -1.1739839e-04],
       [ 7.8547329e-02,  9.4252639e-02, -1.5123378e-01, ...,
        -1.4751449e-01,  2.4177167e-01, -2.4494991e-01],
       [ 8.3280541e-02, -2.2533220e-01, -1.6298127e-01, ...,
         2.0429784e-01, -2.8757444e-01, -1.0693876e-01],
       ...,
       [-5.7727811e-03, -7.5999156e-02,  1.8906625e-01, ...,
        -6.8691783e-02, -1.9626567e-01, -1.2075148e-01],
       [ 6.0660108e-03, -7.2046109e-02, -2.8932514e-03, ...,
        -8.4790237e-02,  4.0415067e-02, -5.3564098e-02],
       [ 7.4008100e-02,  6.3014194e-02, -2.9262972e-01, ...,
        -1.6109335e-01,  6.8137810e-02, -5.5234708e-02]], dtype=float32), array([[-0.26464853, -0.1623153 ,  0.14151794, ...,  0.29842633,
        -0.0845253 ,  0.25036973],
       [-0.02985864,  0.14098378, -0.28290546, ..., -0.0161836 ,
         0.2712229 , -0.05202908],
       [-0.02243061,  0.01313352, -0.26123488, ...,  0.07003565,
         0.06863834,  0.09160221],
       ...,
       [ 0.3330193 ,  0.03742538,  0.09860221, ..., -0.00636405,
         0.2939863 ,  0.00210162],
       [-0.34872168, -0.17082694, -0.16700354, ...,  0.2548975 ,
         0.06301641, -0.02045715],
       [-0.26555872, -0.11161312, -0.1389981 , ..., -0.02893323,
         0.08425467, -0.06004058]], dtype=float32), array([[-0.04897578],
       [-0.24575524],
       [-0.00441061],
       [-0.38141105],
       [-0.3174321 ],
       [-0.10020119],
       [ 0.04259241],
       [ 0.19539478],
       [-0.0869453 ],
       [ 0.09390261],
       [-0.4087574 ],
       [-0.18379037],
       [ 0.04728005],
       [ 0.10562174],
       [-0.21612433],
       [ 0.22322008],
       [-0.03883009],
       [-0.06274892],
       [-0.12052643],
       [-0.02456137],
       [ 0.27942243],
       [ 0.07991317],
       [-0.17268063],
       [-0.10754759],
       [ 0.42694205],
       [-0.2489393 ],
       [-0.00896281],
       [ 0.27990142],
       [ 0.01765898],
       [ 0.20190835],
       [ 0.34650674],
       [ 0.14097689]], dtype=float32)]


Weights_k:
[array([[ 5.12611233e-02, -3.82045418e-01, -4.17863876e-01,
         3.68855149e-01, -3.56629640e-02,  1.60442501e-01,
         5.98227382e-02,  5.13744116e-01,  2.39965394e-02,
        -1.40702780e-02,  2.02581942e-01, -1.46850288e-01,
        -2.21912518e-01, -3.56820434e-01,  1.98952973e-01,
         2.06713036e-01,  2.12961972e-01, -3.08538079e-01,
        -5.44205546e-01, -4.37139481e-01, -1.68688536e-01,
         5.52363098e-01, -2.55266309e-01,  1.62911281e-01,
         1.54510498e-01, -7.64902309e-02,  4.16941047e-01,
         2.92620510e-01,  8.22022706e-02,  2.47715607e-01,
         1.61837026e-01,  2.84257352e-01, -2.05899432e-01,
        -3.61386091e-02,  8.88419747e-02,  3.39790642e-01,
        -3.57038945e-01, -3.30264121e-01, -4.03063804e-01,
         4.58400458e-01, -4.05266047e-01, -5.31452037e-02,
         6.47646114e-02, -4.25694853e-01, -3.98408830e-01,
        -5.09961843e-01, -4.28060830e-01,  2.43364632e-01,
        -2.13587552e-01,  7.03402003e-03,  2.32879892e-01,
        -6.86838806e-01,  1.15996771e-01, -4.29698497e-01,
         2.06662402e-01, -2.91064411e-01, -4.59383912e-02,
        -1.14409707e-01,  2.69990861e-02, -1.82288110e-01,
         1.69587642e-01,  1.88290223e-01, -6.61943331e-02,
         1.63817570e-01,  3.23111564e-01,  2.63022095e-01,
        -4.91598286e-02,  5.17375588e-01,  1.17639244e-01,
        -1.15602046e-01],
       [-2.05429614e-01,  2.04226598e-01, -1.65610939e-01,
         6.91641271e-02, -7.28297979e-02, -8.33990350e-02,
         3.93425673e-01, -2.78338522e-01, -2.11210504e-01,
         1.55152287e-04,  4.33284432e-01, -2.34276742e-01,
         2.07318053e-01, -3.41499746e-02,  2.20183477e-01,
        -1.54618278e-01, -4.65597361e-02,  3.36380988e-01,
         1.54097632e-01,  2.88237035e-01,  1.99245587e-01,
         3.49423066e-02,  2.95208305e-01,  5.69232590e-02,
         1.54204533e-01, -5.69724515e-02,  1.61440805e-01,
         1.27265915e-01,  2.21984446e-01,  3.41666430e-01,
         5.19678473e-01,  1.07304744e-01, -1.00593036e-03,
        -1.15653954e-01,  3.94891016e-02, -2.38984436e-01,
        -2.22453326e-01, -4.21105064e-02, -2.53171653e-01,
        -8.31929967e-02,  1.76925838e-01,  1.05277514e-02,
         1.56746164e-01,  2.24633530e-01, -1.98726356e-01,
        -2.53603831e-02, -1.84951723e-01,  3.11580151e-01,
        -1.83944926e-01, -2.28443891e-01, -2.57616252e-01,
        -1.57053530e-01,  1.62614554e-01,  6.37533516e-02,
         4.82582673e-02, -6.68797269e-02,  1.83787838e-01,
         1.37083322e-01,  2.99231201e-01, -2.22012565e-01,
         1.10659003e-01, -1.15283221e-01,  6.32243007e-02,
        -1.57210454e-01, -8.35843459e-02,  2.20112083e-03,
         4.43082266e-02,  1.00948557e-01,  4.06330556e-01,
         3.68114233e-01]], dtype=float32), array([[ 0.00713157, -0.01383842, -0.00328981, ...,  0.02709158,
        -0.05076361, -0.03316743],
       [-0.20027015,  0.13900232,  0.11404867, ..., -0.02390123,
        -0.24894732, -0.24162358],
       [ 0.07524751, -0.18868037, -0.09869965, ..., -0.00743019,
         0.08947931,  0.09299373],
       ...,
       [ 0.24207859,  0.10470991, -0.04845087, ..., -0.09981287,
         0.02953673,  0.02142256],
       [ 0.02817708,  0.20664926,  0.06628396, ..., -0.0116963 ,
         0.10627761,  0.03980801],
       [ 0.1538632 ,  0.09566195, -0.04102995, ...,  0.18935826,
        -0.15416753,  0.24477874]], dtype=float32), array([[ 0.18807413, -0.08790441,  0.31632346, ...,  0.20096315,
        -0.03030636,  0.01593637],
       [-0.05880776,  0.2077845 , -0.14838493, ..., -0.08595775,
        -0.17048255, -0.30310515],
       [ 0.1883701 , -0.05866743, -0.06091193, ..., -0.19831458,
         0.04934669, -0.07781436],
       ...,
       [ 0.15594028, -0.06156486, -0.28680813, ..., -0.0328932 ,
         0.08439682, -0.08058222],
       [ 0.09167084, -0.05299701,  0.10427053, ..., -0.08830921,
         0.03627603,  0.20836878],
       [ 0.01906608, -0.03564324, -0.14807846, ...,  0.01416799,
        -0.0374837 ,  0.34151047]], dtype=float32), array([[ 1.74569577e-01],
       [ 1.26676798e-01],
       [ 2.80556142e-01],
       [-3.32384221e-02],
       [-1.01053834e-01],
       [-1.28144279e-01],
       [-6.62639141e-02],
       [ 2.09213972e-01],
       [-5.44945151e-02],
       [ 1.93217352e-01],
       [ 1.86611205e-01],
       [ 1.35958433e-01],
       [-4.12191600e-02],
       [-2.20276237e-01],
       [-3.21141034e-02],
       [-1.37012228e-01],
       [ 5.31376004e-02],
       [ 2.99235106e-01],
       [-3.38494283e-04],
       [ 1.84783056e-01],
       [-7.09990859e-02],
       [ 3.20847005e-01],
       [-6.91981539e-02],
       [-6.21439666e-02],
       [-9.04650092e-02],
       [ 2.14469954e-02],
       [-7.30855986e-02],
       [ 7.88970962e-02],
       [ 2.71012783e-01],
       [ 3.21201123e-02],
       [ 2.25029051e-01],
       [-4.18771766e-02],
       [ 6.31185758e-05],
       [-2.52018246e-04],
       [-2.93695807e-01],
       [ 3.82359140e-02],
       [ 1.11021198e-01],
       [ 1.72751158e-01],
       [ 2.75246978e-01],
       [-1.09281875e-01],
       [ 1.56375691e-01],
       [ 2.04120740e-01],
       [ 4.84158343e-04],
       [ 4.51588334e-04],
       [-2.17229605e-01],
       [-1.70175105e-01],
       [ 8.48439485e-02],
       [ 1.45602049e-02],
       [ 1.09769411e-01],
       [-2.81834751e-02],
       [-6.95004389e-02],
       [-2.12324560e-01],
       [-4.47555594e-02],
       [ 9.45696374e-05],
       [-4.09974344e-02],
       [-2.90433702e-04],
       [-2.54796982e-01],
       [-4.52718250e-02],
       [ 2.87847161e-01],
       [-1.55124307e-01],
       [-1.17852531e-01],
       [-2.73928791e-01],
       [-1.45511404e-01],
       [ 3.06469589e-01],
       [ 4.31817174e-02],
       [ 1.40007123e-01],
       [-7.26233646e-02],
       [ 1.06745780e-01],
       [-2.88002253e-01],
       [-3.06849390e-01]], dtype=float32)]


Weights_h:
[array([[ 1.5552828e-01, -1.1548480e-02, -1.6207969e-01,  1.3235476e-03,
         8.1754327e-02,  2.3658185e-01,  2.5378183e-01, -8.1035927e-02,
         1.6852993e-01,  4.4150227e-01, -2.3855504e-01,  2.3212178e-01,
         3.5063496e-01,  1.2645373e-01, -4.1935412e-04,  1.4389719e-01,
         2.0184129e-01, -6.0957227e-02,  1.1724079e-01,  5.2241530e-02,
        -8.6581834e-02,  2.2397016e-01, -2.0651679e-01,  1.6269978e-02,
        -1.1380990e-01, -4.0435016e-02,  1.1496022e-01,  1.1597490e-01,
        -8.0702655e-02,  1.8885431e-03,  4.2252496e-01,  1.8910949e-01],
       [-1.1196329e-01,  1.4413401e-01,  9.3730651e-02,  1.1044976e-01,
        -1.6705917e-01,  4.5468576e-02,  1.2718847e-01,  1.6720940e-01,
        -1.2910876e-02,  8.0172300e-02, -1.7632933e-01, -4.8867557e-02,
         1.4700533e-01, -3.4762337e-03,  1.0277905e-01,  9.1302834e-02,
         3.3724400e-01, -3.9640795e-02,  2.2209059e-01, -4.2001811e-01,
        -1.4507537e-01, -1.7779216e-01,  3.7716317e-01,  1.3297774e-01,
         3.4843314e-01,  1.7773725e-01,  1.2001168e-01,  2.0996894e-01,
        -1.3425569e-01,  2.0726646e-01,  3.7136402e-02, -4.0367147e-01]],
      dtype=float32), array([[ 0.22082266, -0.05677303,  0.28164664, ...,  0.11814401,
         0.04945686,  0.04444103],
       [ 0.12245174,  0.03758034,  0.02619482, ...,  0.04253716,
        -0.0494669 , -0.3482883 ],
       [ 0.15456516,  0.1377463 ,  0.3003883 , ...,  0.20641635,
        -0.0335812 , -0.2510453 ],
       ...,
       [-0.1346014 , -0.03169771,  0.1592409 , ..., -0.17717026,
        -0.20019571,  0.29073727],
       [ 0.12481645, -0.13146435,  0.3363038 , ...,  0.18749739,
        -0.16380243, -0.12862617],
       [-0.10075154,  0.05603448, -0.27963197, ...,  0.09459075,
        -0.23705444, -0.02715261]], dtype=float32), array([[-0.35128292, -0.2218832 , -0.26517895, ..., -0.19981778,
         0.06071639,  0.19858997],
       [-0.17046727, -0.244133  , -0.18059851, ...,  0.00832856,
        -0.06238608,  0.11112276],
       [-0.0809162 , -0.02861832, -0.31773937, ..., -0.29773763,
        -0.05322012, -0.03194536],
       ...,
       [-0.19433716, -0.00248658, -0.11294396, ...,  0.08956148,
         0.01541783, -0.08462741],
       [ 0.01282337,  0.03531352,  0.09694158, ..., -0.0456789 ,
        -0.18591687, -0.1416591 ],
       [ 0.0411277 ,  0.01714656, -0.26857227, ..., -0.03190125,
         0.08459588,  0.28972268]], dtype=float32), array([[-0.28240418],
       [ 0.1125057 ],
       [ 0.2927575 ],
       [ 0.4047762 ],
       [-0.13679433],
       [-0.172494  ],
       [-0.09840836],
       [ 0.06217964],
       [ 0.2699088 ],
       [ 0.05094178],
       [-0.4395863 ],
       [-0.07212071],
       [-0.08490133],
       [ 0.26143774],
       [ 0.15354061],
       [-0.13456596],
       [-0.19864246],
       [-0.3431897 ],
       [ 0.19174005],
       [ 0.1853083 ],
       [-0.25411168],
       [ 0.21960227],
       [ 0.04068709],
       [ 0.1287294 ],
       [ 0.34149268],
       [-0.15133168],
       [-0.15512349],
       [ 0.35480282],
       [-0.17325163],
       [-0.04281875],
       [-0.3607363 ],
       [-0.11027752]], dtype=float32)]


Weights_c:
[array([[ 9.7153848e-03, -5.5456635e-02, -3.6009213e-01, -3.9738479e-01,
         1.9763087e-01, -1.8932123e-01,  3.6570776e-02,  2.0465988e-01,
        -3.3344021e-01,  2.2680697e-01, -6.4003676e-02,  1.8413971e-01,
        -1.0204903e-01, -1.9982150e-01, -1.4626618e-01, -1.4208350e-01,
         1.8931317e-01,  2.0739883e-01,  1.8751206e-01, -3.1136385e-01,
        -1.8412383e-01,  5.1189464e-02,  1.5545608e-01,  1.3148056e-02,
        -3.5600194e-01, -4.7043297e-01,  1.0184944e-01, -7.7709235e-02,
        -4.7491256e-02,  3.7117168e-01,  1.3306753e-02, -2.6769376e-01],
       [-2.0391406e-01,  2.4424565e-01,  2.0225786e-01,  9.4125733e-02,
         1.1730316e-01, -3.9386671e-02,  1.9925314e-01,  2.9267382e-04,
        -1.3619070e-01,  2.2112033e-01,  1.1545697e-01,  3.4489900e-01,
         2.2891974e-01,  3.5937765e-01, -5.8660794e-02,  1.9125837e-01,
         8.0735339e-03,  8.7829605e-02, -1.2378150e-03,  4.3032210e-02,
        -3.8329754e-02, -1.3411783e-01, -1.5073495e-01, -3.2827917e-01,
        -5.0664108e-05, -4.2701952e-02,  6.0706489e-02, -4.6222925e-01,
         1.2678432e-01, -5.9105210e-02,  3.9712837e-01, -1.5666662e-01]],
      dtype=float32), array([[ 0.17305948, -0.05242923,  0.13039201, ...,  0.254439  ,
         0.01548668,  0.02816551],
       [-0.2945672 , -0.24087122, -0.1626728 , ..., -0.10922339,
        -0.11124414,  0.00631726],
       [ 0.14929238,  0.06051737,  0.08123555, ...,  0.1325741 ,
         0.17448589, -0.04374857],
       ...,
       [ 0.11540306,  0.13660194, -0.11530485, ...,  0.06641854,
         0.04139338,  0.03751474],
       [ 0.06938518,  0.02708964,  0.26265728, ..., -0.12408066,
        -0.04616734, -0.10042616],
       [-0.28173628,  0.01237739, -0.21065512, ...,  0.16855673,
         0.1827748 ,  0.04680277]], dtype=float32), array([[-0.22545354, -0.07187547, -0.14442419, ...,  0.11584321,
        -0.2038995 ,  0.31835875],
       [-0.30080193,  0.02214817,  0.10380074, ..., -0.23845765,
        -0.33495492, -0.05100659],
       [-0.05400572, -0.06240096,  0.1800163 , ..., -0.19848675,
         0.06801064,  0.07409856],
       ...,
       [ 0.03126961,  0.16752546,  0.0644073 , ...,  0.20145148,
        -0.20542438,  0.25677338],
       [-0.12060466, -0.15554702, -0.0442339 , ...,  0.27785528,
         0.21819408,  0.11419685],
       [ 0.03869557, -0.09189226, -0.07247018, ..., -0.19166638,
        -0.02177585,  0.11387041]], dtype=float32), array([[ 0.08609298],
       [ 0.04049498],
       [ 0.02245416],
       [-0.05016258],
       [-0.03790698],
       [ 0.31485328],
       [-0.06405962],
       [ 0.15032955],
       [-0.07535892],
       [-0.11362389],
       [-0.08638325],
       [ 0.20707814],
       [ 0.04710513],
       [-0.16217473],
       [ 0.4483355 ],
       [ 0.13482639],
       [ 0.20239249],
       [-0.05658853],
       [-0.15529232],
       [ 0.02467447],
       [-0.36174905],
       [ 0.18982193],
       [ 0.4835285 ],
       [ 0.16275583],
       [ 0.09216779],
       [ 0.13862066],
       [-0.06015594],
       [ 0.00589642],
       [ 0.23751388],
       [-0.19204564],
       [-0.15273528],
       [ 0.06234562]], dtype=float32)]


Weights_k:
[array([[-0.09160414, -0.06340012,  0.01959991,  0.5191344 , -0.35008383,
         0.2066122 ,  0.4213158 , -0.17078072, -0.12350746, -0.34204236,
         0.6168052 ,  0.10743871,  0.19152342,  0.21643648,  0.1201387 ,
        -0.24239728,  0.11002071, -0.01733024,  0.15110101,  0.3562958 ,
        -0.12252082,  0.03466991,  0.13229479,  0.11687183, -0.22345553,
         0.11966973, -0.1849788 ,  0.20402865,  0.02623108,  0.36433232,
         0.40679115, -0.28508553, -0.19310631,  0.21290684,  0.11607929,
         0.18707228, -0.30800074,  0.31568936,  0.27353966,  0.34508476,
        -0.1061134 ,  0.0785132 ,  0.00296353,  0.31495917,  0.03189968,
         0.09845956,  0.01386958,  0.30766737,  0.10753352, -0.17102405,
        -0.42548043,  0.30014226, -0.15418246, -0.3173301 , -0.07508102,
        -0.26093408,  0.26277253,  0.38943806, -0.3161686 , -0.04926983,
         0.08513412,  0.08918286,  0.18684185, -0.06953249,  0.26459807,
         0.06589632,  0.0786016 ,  0.27388787,  0.39855072,  0.10277881],
       [-0.04549419,  0.09773718, -0.2547093 , -0.33713454,  0.03846693,
         0.13746813, -0.09183056,  0.06953743,  0.12061321,  0.0818242 ,
        -0.2825239 ,  0.02056868, -0.14442845, -0.18525682, -0.07026333,
        -0.00823655, -0.21950148,  0.12790649, -0.09361964,  0.05039595,
        -0.219805  , -0.13775994, -0.208848  ,  0.21698627, -0.16161563,
        -0.2656042 , -0.03457526, -0.20727903, -0.49331176, -0.30335405,
        -0.05991053, -0.06133533,  0.4018022 , -0.3767642 ,  0.12150113,
        -0.03214558,  0.15032075, -0.21270773,  0.35762057, -0.22624798,
         0.1666628 ,  0.05539109, -0.03857975,  0.25513494, -0.39944243,
         0.22790785, -0.2224602 ,  0.01619403,  0.36828572,  0.01476129,
         0.16439447, -0.13103908,  0.01004318,  0.10779054,  0.185358  ,
        -0.0794697 ,  0.04320964, -0.20715639,  0.17996264,  0.14344116,
         0.18565048, -0.06343182,  0.23421648, -0.10210904,  0.00421168,
         0.17041376, -0.03782497, -0.1559828 , -0.02094721,  0.00189649]],
      dtype=float32), array([[-0.08691902, -0.23102926, -0.28490868, ..., -0.04896789,
        -0.15529737,  0.02616511],
       [-0.10880052,  0.09212255, -0.03992915, ..., -0.06178734,
         0.18505825, -0.02528466],
       [-0.12138019, -0.16232324,  0.06471164, ...,  0.05753808,
        -0.04764445, -0.15765911],
       ...,
       [-0.14136691, -0.01659535,  0.19876604, ...,  0.01653923,
        -0.15828562,  0.13237089],
       [-0.1356064 , -0.09656982,  0.2719783 , ..., -0.01525685,
         0.08829325, -0.14815083],
       [ 0.02788507, -0.00300118,  0.1435557 , ...,  0.13600156,
         0.03750134, -0.03198074]], dtype=float32), array([[ 0.15400691,  0.0154147 ,  0.13405386, ...,  0.13856001,
         0.08843677,  0.09667496],
       [-0.08983654, -0.0677726 ,  0.11906835, ...,  0.1513038 ,
         0.14242132,  0.05327004],
       [ 0.01636061,  0.13860475, -0.24661157, ...,  0.22164989,
         0.00374566,  0.05601415],
       ...,
       [-0.04690123, -0.1431795 ,  0.01452612, ...,  0.12644427,
         0.09384125, -0.16493845],
       [-0.05144472,  0.02490323, -0.0340699 , ...,  0.41981155,
         0.04002115,  0.07793207],
       [ 0.02070941,  0.08047625,  0.10829019, ...,  0.01479272,
        -0.19289495,  0.10501608]], dtype=float32), array([[ 1.09798446e-01],
       [ 1.84508398e-01],
       [-2.02171192e-01],
       [ 8.27540904e-02],
       [ 8.53703246e-02],
       [ 1.76128671e-01],
       [ 1.33519277e-01],
       [ 5.26412725e-02],
       [-3.38218004e-01],
       [ 2.37546369e-01],
       [ 3.16043258e-01],
       [ 1.26213330e-04],
       [ 1.39873192e-01],
       [ 1.43480822e-01],
       [ 1.09901540e-01],
       [-1.55096054e-01],
       [ 2.68248550e-04],
       [-5.84791079e-02],
       [-5.04360124e-02],
       [-5.58894535e-05],
       [ 7.53172114e-02],
       [ 2.02562064e-02],
       [ 1.43759891e-01],
       [-9.22047766e-05],
       [ 9.97209325e-02],
       [ 5.49188964e-02],
       [-2.88188249e-01],
       [ 2.93398160e-04],
       [-1.02283217e-01],
       [-2.12953761e-04],
       [-1.35138124e-01],
       [-1.81221992e-01],
       [ 1.43054530e-01],
       [ 1.86986193e-01],
       [-1.00268856e-01],
       [-3.39299798e-01],
       [ 5.00112846e-02],
       [-1.91741399e-02],
       [ 5.53307533e-02],
       [ 3.16590779e-02],
       [-5.59638552e-02],
       [ 2.33518276e-02],
       [-2.31253002e-02],
       [ 9.01060775e-02],
       [-1.05049700e-01],
       [-1.67383924e-01],
       [ 1.14657514e-01],
       [-1.93878978e-01],
       [ 1.76872630e-02],
       [ 3.61299329e-02],
       [ 4.98320907e-02],
       [ 8.63982737e-02],
       [-6.09746240e-02],
       [ 3.24353814e-01],
       [ 6.04618639e-02],
       [-2.01809734e-01],
       [ 2.54275680e-01],
       [-9.82649997e-02],
       [-1.38803318e-01],
       [-1.91449404e-01],
       [ 2.99883308e-04],
       [-1.08167827e-01],
       [ 3.56690772e-02],
       [-3.65331024e-02],
       [ 1.14047505e-01],
       [-1.38976738e-01],
       [-3.25960368e-02],
       [-2.23872051e-01],
       [ 3.04788227e-06],
       [ 9.47484672e-02]], dtype=float32)]


Weights_h:
[array([[ 1.33413941e-01, -2.57467091e-01, -2.98276931e-01,
         4.84093040e-01, -1.68937907e-01, -1.74281701e-01,
        -1.19346604e-02,  1.72100082e-01, -1.42576238e-02,
         2.83984601e-01, -9.45583731e-03,  1.70933288e-02,
        -3.59939188e-01, -3.18084538e-01,  3.62746239e-01,
         2.86121300e-04,  2.41618767e-01, -2.07917944e-01,
         2.06867918e-01,  3.52102369e-01, -8.52321759e-02,
         3.96233916e-01, -2.14078784e-01, -8.65665302e-02,
         3.94103378e-02,  1.26810730e-01, -9.67567861e-02,
        -1.10526800e-01,  9.29000899e-02, -2.42853373e-01,
        -2.42233828e-01,  1.94416329e-01],
       [-2.26941586e-01,  9.65584293e-02,  7.82252401e-02,
        -2.45745972e-01, -5.57164755e-03,  1.19128361e-01,
         1.05141491e-01,  1.51517615e-01,  1.18049115e-01,
        -9.79629308e-02, -2.36335799e-01, -1.03922658e-01,
         1.60265818e-01,  1.49214894e-01, -2.43754283e-01,
        -5.09549724e-03, -1.84286386e-01,  2.87370294e-01,
         4.31450307e-01, -4.49577093e-01,  2.13697657e-01,
        -2.20381647e-01, -1.74786717e-01, -1.86598629e-01,
         1.67360649e-01, -3.47694010e-03,  1.01985253e-01,
         9.42669511e-02, -1.98613703e-01,  1.23232834e-01,
        -7.03811944e-02,  2.08967060e-01]], dtype=float32), array([[-0.16051981, -0.03172033, -0.14623612, ...,  0.00625344,
         0.03869114,  0.25693503],
       [-0.10506209,  0.07975081,  0.05791577, ...,  0.09135875,
         0.02632286, -0.16613103],
       [-0.28537908, -0.02920447, -0.04829635, ...,  0.01626302,
         0.01131269, -0.0605102 ],
       ...,
       [-0.14452499,  0.26190254,  0.0195742 , ...,  0.20312881,
         0.12981355, -0.07938602],
       [ 0.07443239,  0.1939757 , -0.14501853, ...,  0.04964448,
         0.22768153,  0.14350417],
       [-0.0380691 , -0.07565996, -0.18330203, ..., -0.01425912,
         0.02932328,  0.0602267 ]], dtype=float32), array([[-0.18858628, -0.01499291, -0.00283174, ...,  0.06264907,
        -0.01406983,  0.00449619],
       [ 0.10439749, -0.04995112,  0.15284765, ...,  0.03754403,
        -0.03796028,  0.00881071],
       [-0.00962966, -0.12573889, -0.08784255, ..., -0.13685594,
         0.13860005, -0.10153686],
       ...,
       [ 0.24010655,  0.18509021,  0.04528935, ..., -0.1265875 ,
         0.18611175,  0.30073696],
       [ 0.04977816, -0.05632941, -0.00134981, ..., -0.28142297,
         0.093381  , -0.14462101],
       [-0.22560616,  0.26504856,  0.0143928 , ...,  0.07292166,
         0.27497074, -0.11464224]], dtype=float32), array([[ 0.0271161 ],
       [-0.23940264],
       [ 0.17537147],
       [ 0.22159088],
       [-0.05524469],
       [ 0.47433946],
       [-0.02129691],
       [-0.09409378],
       [-0.36765158],
       [-0.31332576],
       [ 0.45199823],
       [ 0.0141751 ],
       [-0.11863557],
       [-0.2411208 ],
       [-0.20935029],
       [ 0.3545497 ],
       [ 0.3944783 ],
       [-0.27307603],
       [-0.20184182],
       [-0.38534915],
       [ 0.25498736],
       [-0.28897062],
       [ 0.21345483],
       [-0.11492411],
       [-0.37209937],
       [ 0.21672937],
       [ 0.04404161],
       [-0.46836096],
       [ 0.26793942],
       [-0.34275627],
       [ 0.27000788],
       [ 0.13801   ]], dtype=float32)]


Weights_c:
[array([[-2.91012079e-02, -1.19081922e-02,  4.57314923e-02,
         3.47021013e-01, -3.46620440e-01, -3.05266589e-01,
        -1.04496166e-01, -1.13082439e-01,  7.26575851e-02,
         4.07259613e-01,  1.54576257e-01, -6.35376275e-02,
         3.50396298e-02,  4.11731750e-01,  1.22196525e-01,
         5.17050289e-02,  7.34213665e-02,  7.13780224e-02,
        -2.14392707e-01, -3.66569757e-02,  2.47727007e-01,
        -3.65377992e-01,  2.39864558e-01,  3.98151018e-02,
         3.83513600e-01, -1.20864170e-05,  3.52072448e-01,
        -2.43953630e-01, -2.22482290e-02, -1.23931304e-01,
        -7.44719729e-02, -5.90128750e-02],
       [-3.73102725e-02,  3.13711882e-01, -2.87394047e-01,
         6.74897730e-02,  2.30789676e-01,  4.73277986e-01,
         1.63457334e-01,  2.67834842e-01,  2.83210874e-01,
        -2.61291891e-01, -4.11990546e-02, -2.39355654e-01,
         4.27950434e-02, -6.05939813e-02,  5.55565506e-02,
        -6.45225570e-02, -2.71812588e-01, -9.93955955e-02,
         3.13019514e-01,  1.37336060e-01,  7.43802190e-02,
         3.78049910e-01,  1.36458099e-01, -7.79619440e-02,
        -3.76276940e-01, -1.65787220e-01, -1.65926516e-02,
        -3.29334736e-02,  1.68400466e-01,  2.75152951e-01,
         3.62108380e-01,  2.87380934e-01]], dtype=float32), array([[-0.06897471, -0.14033914, -0.08509406, ...,  0.00373188,
         0.02345668,  0.10007627],
       [ 0.08284986,  0.23735324,  0.08701025, ...,  0.05696561,
         0.22953779,  0.08127859],
       [ 0.13336061,  0.07286844, -0.12113136, ..., -0.26364285,
        -0.07715853, -0.13199969],
       ...,
       [ 0.12709369,  0.13581015, -0.02872263, ..., -0.23031557,
        -0.21964395, -0.08711708],
       [-0.02345105, -0.03322603, -0.2532483 , ...,  0.0850331 ,
         0.15466884, -0.15350112],
       [-0.10025895,  0.06888474, -0.22291927, ...,  0.15423627,
         0.12420404, -0.24055295]], dtype=float32), array([[ 0.02029868,  0.3192651 , -0.00569276, ..., -0.31451884,
        -0.19011174,  0.28018382],
       [-0.28842342, -0.20227672, -0.02752836, ...,  0.14017715,
         0.09212122,  0.09328289],
       [ 0.3487366 ,  0.03304384,  0.20333795, ..., -0.13394374,
         0.20021689,  0.22986616],
       ...,
       [ 0.05326884,  0.07421836,  0.25597316, ..., -0.05583486,
        -0.26382214,  0.1762018 ],
       [-0.06411157, -0.02629099, -0.17724735, ..., -0.07552465,
        -0.10284863, -0.08849195],
       [-0.0466877 ,  0.01486115,  0.17077021, ...,  0.05851194,
         0.07460685, -0.16065331]], dtype=float32), array([[ 0.08705557],
       [ 0.35492632],
       [-0.01082919],
       [ 0.24442615],
       [ 0.01295359],
       [ 0.16554616],
       [ 0.04306936],
       [ 0.34584057],
       [-0.00474943],
       [-0.23388876],
       [-0.11247019],
       [-0.03161738],
       [ 0.15242586],
       [-0.46479538],
       [ 0.27992603],
       [ 0.18838924],
       [ 0.04346547],
       [ 0.06784711],
       [-0.17293993],
       [-0.1815389 ],
       [-0.19919388],
       [-0.2520189 ],
       [ 0.10371193],
       [-0.30759397],
       [ 0.3485531 ],
       [-0.05587621],
       [ 0.07745821],
       [-0.31474692],
       [ 0.12912977],
       [-0.06280432],
       [ 0.13428992],
       [ 0.19495922]], dtype=float32)]


Weights_k:
[array([[ 0.13643412, -0.44048423,  0.00789305, -0.12853336, -0.1277428 ,
        -0.05073737, -0.00936796,  0.11454319,  0.33903205,  0.2605348 ,
        -0.12525761, -0.48361734,  0.24193503,  0.31911924,  0.33819067,
         0.08487574, -0.3137658 , -0.2115779 , -0.25411376, -0.05566612,
        -0.19947639,  0.01605764, -0.20420572, -0.5214855 , -0.02547963,
         0.32072234, -0.224858  , -0.11830588, -0.06533203,  0.2754596 ,
         0.33844015,  0.11781215, -0.1903253 ,  0.3942468 ,  0.27718306,
         0.02660101, -0.45047674,  0.4411351 ,  0.40889454,  0.392272  ,
        -0.3148859 , -0.11921536,  0.30267006,  0.29367936,  0.27002123,
         0.18253168,  0.2589391 ,  0.11245377,  0.04713165, -0.01889084,
        -0.21548826, -0.02947583, -0.10139365,  0.21153489, -0.18243217,
         0.1825296 ,  0.24526595,  0.269957  ,  0.14278647,  0.0635311 ,
         0.05049948, -0.23413806,  0.02528216, -0.24894409, -0.11815456,
        -0.18794033, -0.396722  ,  0.02077122, -0.26265255, -0.42261332],
       [ 0.20870665, -0.0170555 , -0.10450016,  0.19670784,  0.08833042,
         0.22836937,  0.07606065,  0.185519  ,  0.05859106, -0.00152153,
         0.09019906,  0.06245398, -0.16260469,  0.35623205, -0.04600484,
        -0.17209864,  0.01685973,  0.01131229,  0.15215194, -0.14690827,
         0.10889817,  0.21287322,  0.42663446,  0.19314836,  0.33174038,
        -0.04109116,  0.013391  , -0.13161242, -0.25330967, -0.2618691 ,
        -0.18637367,  0.12311494, -0.02366844,  0.0370763 , -0.18227184,
         0.25252149, -0.00777876,  0.08767521,  0.12528966, -0.15726104,
        -0.1124679 , -0.22606322,  0.02525797, -0.17231762,  0.09916618,
         0.08326417, -0.10435096, -0.1578232 , -0.02811072, -0.27672377,
         0.17688188,  0.15332843, -0.22171332, -0.17258258,  0.02534017,
         0.12131387, -0.01563158,  0.00353054, -0.4167611 , -0.19459237,
        -0.35280555, -0.24927863,  0.01772113,  0.06320827,  0.30244887,
        -0.07603196,  0.0738528 , -0.35926798,  0.34539193, -0.10611907]],
      dtype=float32), array([[ 0.3590713 ,  0.29321915, -0.11506847, ..., -0.31717935,
        -0.14338075,  0.03882866],
       [-0.234961  , -0.11650509, -0.01830625, ...,  0.01742364,
        -0.05378819, -0.19806086],
       [ 0.14171378,  0.20036902,  0.08306677, ...,  0.00077584,
        -0.1982359 , -0.32782885],
       ...,
       [-0.23972437,  0.12507671, -0.15120049, ...,  0.10053208,
         0.05961331,  0.02288262],
       [-0.01342088, -0.1680771 , -0.04958858, ..., -0.12986194,
         0.01116977, -0.03904684],
       [-0.10829022, -0.07216494,  0.08977558, ..., -0.0587979 ,
        -0.02004382, -0.13576083]], dtype=float32), array([[-0.06021889, -0.07008747, -0.05557114, ...,  0.04866173,
         0.06761218,  0.22235811],
       [ 0.01693914,  0.08525817, -0.20050025, ...,  0.21136114,
         0.08169317, -0.07445213],
       [-0.10559615,  0.0542507 , -0.01391018, ...,  0.1382888 ,
         0.04539821, -0.12974717],
       ...,
       [-0.08623511, -0.07592991, -0.21207303, ..., -0.04554043,
        -0.02468333,  0.01537582],
       [ 0.12112848,  0.11825661,  0.00490349, ...,  0.10110569,
        -0.01212458, -0.08830304],
       [ 0.2609333 ,  0.04118078, -0.14709738, ...,  0.02110975,
         0.06036666, -0.1865192 ]], dtype=float32), array([[ 1.5668349e-01],
       [-4.0273953e-02],
       [-5.4525044e-02],
       [-5.0915077e-02],
       [-2.2652897e-01],
       [-1.5042437e-04],
       [-7.8073554e-02],
       [-6.4686455e-02],
       [-2.1070316e-02],
       [ 1.8309499e-01],
       [-1.2153554e-01],
       [ 7.0084296e-02],
       [ 1.9163428e-01],
       [ 7.6263666e-02],
       [ 1.4754306e-01],
       [ 1.5239227e-01],
       [ 3.5261884e-01],
       [ 1.8047631e-01],
       [ 4.7185406e-02],
       [ 1.9315958e-02],
       [-1.5658367e-01],
       [ 4.9811013e-02],
       [-2.4527442e-01],
       [ 3.2824498e-01],
       [-1.5203607e-01],
       [ 1.0843882e-01],
       [ 2.8718370e-01],
       [ 2.3039445e-01],
       [-1.6667180e-02],
       [ 4.2848047e-02],
       [ 9.8131508e-02],
       [-3.0441236e-02],
       [ 1.5505706e-01],
       [ 7.4490301e-02],
       [ 2.2872706e-01],
       [-1.8890463e-01],
       [ 2.2884564e-01],
       [-3.6245562e-02],
       [-9.9689618e-02],
       [-1.2858258e-01],
       [-1.7494516e-01],
       [ 1.9359322e-01],
       [ 7.9627417e-02],
       [ 2.2244056e-01],
       [-4.0850960e-02],
       [-5.0887256e-03],
       [-3.7854947e-02],
       [-5.3650323e-02],
       [-3.3957526e-02],
       [-6.5477073e-02],
       [ 6.8227425e-02],
       [ 1.6919288e-01],
       [ 1.1075821e-02],
       [-8.5676372e-02],
       [-1.7537652e-01],
       [ 1.6202949e-01],
       [ 8.7095302e-04],
       [ 1.9023262e-01],
       [-4.7767162e-02],
       [ 5.4896280e-02],
       [-2.9411365e-05],
       [-1.7563535e-01],
       [ 1.5001369e-01],
       [ 4.3862201e-02],
       [-1.9842580e-01],
       [-2.8249943e-01],
       [ 2.3400958e-01],
       [ 2.5376961e-01],
       [ 9.4554655e-02],
       [ 6.8919204e-02]], dtype=float32)]


Weights_h:
[array([[-0.00581956, -0.12296215, -0.00053352, -0.10110603, -0.26426208,
        -0.06991763,  0.13835497, -0.13982163,  0.07560905, -0.24963835,
        -0.15644847, -0.3986096 , -0.01088318, -0.18684344, -0.183576  ,
        -0.40463245,  0.09961089,  0.2964772 ,  0.17523195, -0.02768284,
         0.00572248, -0.15290622, -0.07560184,  0.3430447 , -0.31498438,
        -0.21901992, -0.23827   ,  0.2809041 ,  0.11710461,  0.06930905,
         0.2979232 , -0.4541576 ],
       [-0.12863253, -0.2300634 , -0.36604372, -0.1384138 ,  0.48025492,
         0.27887058,  0.20390937,  0.04281587,  0.06100809,  0.10589387,
        -0.16829237,  0.11612906,  0.21351725, -0.37136894,  0.03253302,
        -0.43570164, -0.32326996, -0.2625725 , -0.148697  ,  0.16211155,
        -0.03175252,  0.22363631, -0.02865695,  0.07584805, -0.04992482,
         0.01957369, -0.05096632,  0.1477985 ,  0.1703368 , -0.170492  ,
        -0.10405252, -0.27728936]], dtype=float32), array([[-0.0905792 ,  0.21518773,  0.00355722, ...,  0.2941052 ,
        -0.06901145,  0.35177934],
       [-0.06422021,  0.02518373, -0.0789583 , ...,  0.02504209,
         0.01580884, -0.07942791],
       [-0.06027362, -0.13966702,  0.05632904, ...,  0.08035725,
        -0.03845748,  0.13989028],
       ...,
       [ 0.26438323, -0.0122875 ,  0.08180525, ...,  0.34580606,
         0.09055771,  0.34762082],
       [ 0.04951791, -0.18975529, -0.12073699, ..., -0.11074981,
         0.0786695 , -0.18819702],
       [ 0.23033461,  0.16948456,  0.1394808 , ...,  0.09853823,
        -0.29582834, -0.1475859 ]], dtype=float32), array([[-0.14835438, -0.19192933, -0.09438171, ...,  0.0272703 ,
         0.13573752,  0.17986123],
       [-0.03042103, -0.1363867 ,  0.13417436, ..., -0.11225815,
         0.0242092 ,  0.0650209 ],
       [-0.28750348, -0.03712742, -0.13955985, ..., -0.03866415,
         0.08403423, -0.0520054 ],
       ...,
       [-0.01353996,  0.01354734,  0.04266101, ..., -0.21197726,
         0.0572025 ,  0.20681418],
       [ 0.14071737, -0.07694923, -0.09681591, ..., -0.15854892,
         0.12193368,  0.08229961],
       [-0.07628719,  0.1391485 ,  0.16114374, ..., -0.140947  ,
        -0.11405338, -0.11114588]], dtype=float32), array([[-0.15237156],
       [-0.47732085],
       [ 0.01574554],
       [-0.08731797],
       [ 0.00051019],
       [ 0.10326591],
       [-0.30499238],
       [ 0.14858943],
       [ 0.2317217 ],
       [ 0.04856282],
       [-0.30826247],
       [-0.14900884],
       [-0.117029  ],
       [-0.21127363],
       [ 0.319327  ],
       [-0.02879608],
       [-0.1473245 ],
       [ 0.2094349 ],
       [-0.38836   ],
       [ 0.3759392 ],
       [ 0.14020474],
       [ 0.3018961 ],
       [-0.10670591],
       [ 0.0191786 ],
       [-0.12281977],
       [-0.13490048],
       [ 0.32987672],
       [ 0.12460347],
       [-0.31468314],
       [-0.07570384],
       [-0.3738898 ],
       [ 0.00977936]], dtype=float32)]


Weights_c:
[array([[-0.29562813,  0.14709382, -0.29631323, -0.29974425,  0.16995664,
         0.32341582,  0.19690405, -0.1595382 ,  0.0996379 ,  0.3285209 ,
