Weights_k:
[array([[-0.21832545,  0.5533154 , -0.32146966,  0.87781215,  0.62124836,
         0.13070084,  0.05066195,  0.52948666, -0.76663184,  0.66809535,
        -0.66475534, -0.36621952,  0.92225665, -0.5068375 ,  0.28528827,
        -0.26718706, -0.04053888,  0.24403432,  0.54112655, -0.36697477,
        -0.1151439 ,  0.46999037,  0.177153  ,  0.02330292,  0.73200744,
        -0.58063257, -0.18615955, -0.697586  ,  0.37709334,  0.5340381 ],
       [ 0.35113877,  0.14466631,  0.74868625,  0.17575972, -0.26018673,
         0.2891326 ,  1.1027535 , -0.48539582,  0.4133852 , -0.91296864,
        -0.5055408 , -0.18702959, -0.5449348 ,  0.21323767, -0.11421553,
         0.44273874,  0.53237677,  0.6154613 , -0.3005933 ,  0.18008222,
        -0.08578046, -0.55923694,  0.625736  ,  0.3072593 , -0.64002156,
        -0.6056753 , -0.05781795,  0.16216017,  0.29784527,  0.02224769]],
      dtype=float32), array([[-3.98619086e-01, -1.71698064e-01,  3.71634156e-01,
         5.45372784e-01, -2.93075681e-01,  2.07502037e-01,
         3.14470589e-01, -2.73207992e-01,  5.02430141e-01,
         2.42571875e-01, -5.18591881e-01, -1.27701581e-01,
         1.61876917e-01,  1.36015013e-01,  2.24917993e-01,
        -4.91028167e-02, -2.21826151e-04, -1.53212592e-01,
        -2.21886292e-01,  2.90214326e-02, -8.74048248e-02,
        -5.42254373e-02,  1.14154838e-01, -6.22287095e-01,
        -2.91072786e-01, -8.61537009e-02, -2.07753703e-01,
         1.30883202e-01, -2.54695296e-01,  1.80960558e-02],
       [ 9.02969360e-01,  2.87883699e-01, -5.17181791e-02,
        -3.86730492e-01,  1.62175074e-02,  1.66227713e-01,
        -8.80628467e-01, -3.01450729e-01,  2.18852058e-01,
        -3.83598715e-01, -1.24042660e-01, -1.71587557e-01,
         3.71215487e-04,  1.28114149e-01,  2.43702799e-01,
         3.83955479e-01, -1.94925159e-01,  2.01579928e-01,
        -8.46312791e-02,  1.67554036e-01, -1.48256138e-01,
        -8.00689533e-02,  1.97045222e-01,  7.38738418e-01,
         1.02391221e-01, -5.99604957e-02, -7.80451074e-02,
        -9.60653946e-02,  1.14552021e-01, -2.43402988e-01],
       [-3.94371361e-01, -2.51939297e-01,  1.29367590e-01,
         8.48963737e-01, -8.85970891e-02,  1.72237679e-01,
         3.17444414e-01, -3.07491541e-01,  7.39904523e-01,
        -2.38584936e-01, -4.17164296e-01,  3.05316478e-01,
        -1.91287920e-01, -1.40453562e-01,  2.24289700e-01,
        -1.36354536e-01,  4.03108299e-01, -1.74620956e-01,
        -1.27147540e-01, -1.03737123e-01,  3.05410683e-01,
        -7.68143758e-02,  1.66025814e-02, -3.89097452e-01,
        -3.09271336e-01, -1.65527642e-01, -3.24461520e-01,
         3.71416062e-02,  1.24220118e-01, -9.20815989e-02],
       [ 6.39155447e-01, -1.07545190e-01, -2.88415211e-03,
         6.99156597e-02,  4.16194238e-02, -3.81830037e-01,
        -3.96641970e-01, -2.69455194e-01,  4.71617132e-01,
        -6.79854453e-01,  3.26567709e-01, -3.20419192e-01,
         2.72644252e-01, -5.48305623e-02, -1.00120619e-01,
         1.54734209e-01,  2.90560871e-01,  3.77145290e-01,
         5.71530223e-01,  1.11654870e-01, -1.09405164e-02,
         1.52963176e-01, -8.74443650e-02,  2.27925628e-01,
        -9.87123623e-02, -4.07287687e-01,  5.38424291e-02,
        -3.70761216e-01, -2.33252019e-01, -1.67513743e-01],
       [-3.39390375e-02,  2.66773731e-01, -1.04317024e-01,
        -3.81553061e-02,  5.95368333e-02, -2.57629752e-01,
        -7.26703405e-01,  4.08247799e-01,  2.22666696e-01,
        -3.74975473e-01,  4.38637406e-01, -9.86567065e-02,
         9.63207707e-02,  1.26214385e-01,  1.43382967e-01,
        -2.72526652e-01, -4.64082882e-02,  6.06335290e-02,
         9.84893203e-01,  1.25593901e-01,  2.55457759e-01,
        -1.15289517e-01,  3.95849109e-01,  1.01883031e-01,
         2.03326911e-01, -4.11559999e-01, -9.02296305e-02,
         5.02607040e-02, -9.25582722e-02, -2.62698561e-01],
       [-2.45423391e-01, -3.05943191e-01, -3.54738254e-03,
         4.80624676e-01, -1.73518404e-01,  4.38995399e-02,
         1.09807476e-01,  8.97454917e-02,  5.58242440e-01,
        -2.94836253e-01, -5.81191957e-01,  6.79486096e-02,
        -1.07781440e-02,  6.91488609e-02,  9.81312897e-03,
        -2.44288012e-01,  2.24191546e-01, -1.48820691e-02,
         2.76041716e-01,  1.19528227e-01,  5.69815785e-02,
        -1.78899392e-01,  4.05176789e-01, -2.40051553e-01,
        -1.76240876e-01, -1.07738875e-01,  9.90200490e-02,
         1.46771178e-01, -1.76777005e-01,  1.21262714e-01],
       [-1.70152530e-01, -1.36908330e-02,  1.66011646e-01,
         2.87326947e-02,  3.39602739e-01,  5.05405307e-01,
        -1.72799751e-01, -1.01685894e+00,  2.66517282e-01,
        -1.88592553e-01, -6.79572761e-01, -1.45639732e-01,
        -2.61797067e-02,  3.47665548e-01,  2.42964491e-01,
         3.20750266e-01,  2.47803777e-02,  2.96502560e-01,
        -4.96888399e-01, -2.43795104e-03,  2.57229060e-01,
        -1.77316234e-01, -1.54174984e-01,  2.50855833e-01,
         3.83701138e-02,  3.35746914e-01, -4.55873728e-01,
         1.79409713e-01,  2.04602629e-01, -1.67432144e-01],
       [ 6.87666059e-01,  3.14418346e-01, -2.33825445e-01,
        -4.26753819e-01,  7.17296079e-02, -3.69479030e-01,
        -7.17055738e-01, -1.42075613e-01, -7.85642043e-02,
        -2.37857655e-01,  4.80770200e-01, -6.62304275e-03,
         2.14010477e-01, -3.54194254e-01,  1.44371465e-01,
         1.29414976e-01, -4.44256254e-02,  4.20980342e-02,
         7.67394081e-02, -7.46537820e-02, -2.21933634e-03,
         1.72766242e-02,  3.87873739e-01,  5.21471560e-01,
         3.36336762e-01,  2.99690932e-01,  2.57709831e-01,
         2.35469148e-01,  2.02205002e-01,  7.09990924e-03],
       [-8.99106979e-01, -4.14509177e-01,  5.77693395e-02,
         3.30665588e-01, -7.94239268e-02,  4.03456241e-01,
         4.48678583e-01,  4.93574627e-02, -1.29461452e-01,
        -4.11395803e-02, -7.01594293e-01, -8.01191628e-02,
         2.24987969e-01,  7.74808079e-02,  4.44367900e-02,
         2.76165992e-01, -2.33091474e-01, -3.38607609e-01,
        -4.35181677e-01, -1.90016091e-01,  1.94819737e-02,
        -3.07937950e-01,  1.06574092e-02, -7.94898689e-01,
        -5.91915138e-02,  6.75577968e-02, -2.65684217e-01,
        -7.26412237e-02, -1.07504502e-02,  4.77157123e-02],
       [ 4.92948294e-01,  7.80299231e-02, -2.93970764e-01,
        -4.09070492e-01,  2.00875709e-03, -8.32123682e-02,
        -1.43329248e-01, -3.48183879e-04, -4.36162621e-01,
         3.01236689e-01,  7.07912862e-01, -1.25982970e-01,
        -1.41196251e-01,  1.23677514e-01, -1.18243285e-01,
         3.18831354e-01,  6.10192260e-03, -2.97349572e-01,
         3.23045701e-01, -2.79007375e-01, -1.76447071e-02,
        -1.80968061e-01,  2.24388450e-01,  5.14400721e-01,
         2.43922800e-01,  1.38711603e-02,  4.72436786e-01,
        -8.30272678e-03,  1.37134001e-01, -8.17905366e-02],
       [-1.58199251e-01, -1.86899021e-01,  1.10713996e-01,
         1.04268588e-01,  4.61074263e-02, -3.16536948e-02,
         6.04013503e-01,  1.54043198e-01, -8.48855138e-01,
         8.03538859e-01, -2.02411171e-02, -2.14105144e-01,
        -1.42089158e-01, -4.75493784e-04,  5.87643543e-03,
         1.65911868e-01, -3.60112011e-01, -2.96318799e-01,
        -4.82713491e-01, -9.70859751e-02,  3.51095051e-01,
        -2.73999423e-01,  3.63469161e-02, -2.19991848e-01,
        -1.89510435e-02,  1.85189411e-01,  3.70660782e-01,
        -5.27043119e-02,  2.10331902e-01, -1.33093132e-03],
       [-3.10052693e-01, -1.84382364e-01, -7.99254626e-02,
         5.29097497e-01, -6.30340204e-02, -7.71154612e-02,
         3.25835228e-01, -6.90390244e-02, -3.85209441e-01,
        -6.50064647e-02,  2.72449791e-01, -9.84572023e-02,
        -2.22603500e-01, -6.67326823e-02,  3.48905548e-02,
        -3.46792251e-01, -5.41996770e-02, -6.59697056e-02,
         8.16919357e-02, -7.34295323e-02,  1.18025333e-01,
        -2.25217249e-02, -9.81961638e-02, -7.93025315e-01,
        -5.75032458e-02, -3.50675493e-01,  5.43417990e-01,
        -7.42385983e-02,  4.01737466e-02, -2.39457801e-01],
       [ 2.70006597e-01, -1.08770810e-01, -1.49041891e-01,
        -3.60773981e-01,  1.50203351e-02, -4.07931000e-01,
        -4.08119678e-01,  2.54316270e-01, -2.73988128e-01,
        -4.15636927e-01,  7.54176795e-01,  2.10374338e-03,
         1.95609301e-01, -4.85370904e-02,  7.11784512e-02,
        -1.66985527e-01,  3.68261784e-01,  3.99943329e-02,
         1.01248443e+00,  2.04830747e-02, -6.05558231e-02,
         3.22813950e-02,  2.39010558e-01, -1.63998380e-01,
         4.75902148e-02, -6.34284914e-01,  6.99878037e-02,
         1.36835530e-01,  1.04325265e-01, -5.98825105e-02],
       [-3.56724679e-01, -1.81522876e-01, -2.04327703e-02,
         3.43882203e-01, -1.54736102e-01,  5.42173348e-02,
         5.00459433e-01, -1.86961606e-01, -3.66839468e-01,
         3.09581339e-01, -2.68173248e-01, -2.49496013e-01,
        -3.95187475e-02,  1.92520157e-01,  3.35869968e-01,
        -1.69406712e-01,  1.83477085e-02, -2.94491559e-01,
        -3.85590255e-01, -1.54219791e-01,  6.93204403e-02,
        -1.31412938e-01, -7.47452006e-02, -8.35591078e-01,
        -1.14014484e-01, -3.00758690e-01, -1.98731601e-01,
        -2.43055761e-01, -1.34515032e-01,  2.09122188e-02],
       [ 4.48147863e-01, -2.19641104e-01, -3.57302308e-01,
         1.79259017e-01, -6.00072220e-02, -1.28321111e-01,
        -6.06432855e-01,  4.01594728e-01,  8.01781490e-02,
        -4.82298642e-01, -8.25431757e-03, -1.35656044e-01,
         1.88394990e-02,  6.20967336e-02, -2.07159564e-01,
         2.05030039e-01, -1.64966807e-02, -5.97344637e-02,
         9.67858136e-01,  4.32027616e-02,  3.21155898e-02,
         5.58431819e-02,  2.96260267e-01,  3.33481163e-01,
        -2.60370284e-01, -3.12177032e-01, -2.05167737e-02,
         1.80938050e-01,  1.05618618e-01, -3.94000560e-02],
       [-2.65048712e-01, -4.53774393e-01,  2.47505367e-01,
         7.67414927e-01, -3.94424871e-02,  1.26726376e-02,
         3.99424225e-01, -9.60493833e-02,  7.61099517e-01,
        -1.99014351e-01, -4.51187432e-01, -2.62995005e-01,
         7.49948919e-02, -5.95356040e-02,  2.57761627e-01,
        -1.00195177e-01, -4.75698784e-02, -1.65121973e-01,
        -1.25861272e-01,  6.57269219e-03,  3.23534273e-02,
         7.36546982e-03, -2.51466483e-02, -1.98648632e-01,
        -6.31564260e-02, -4.69035767e-02, -3.59704569e-02,
         3.56165588e-01, -4.57914144e-01,  2.97849029e-01],
       [-1.62014678e-01,  3.41771692e-01,  3.68327945e-01,
        -5.57920113e-02, -4.03474458e-02,  3.31131399e-01,
        -2.01301323e-03, -5.61700642e-01,  2.40205690e-01,
        -2.92205036e-01, -3.76373231e-01, -5.99454455e-02,
        -4.09243077e-01,  1.60246387e-01,  2.57175505e-01,
        -3.99999358e-02, -3.39841936e-03,  7.42925704e-02,
        -3.66524577e-01,  2.56345183e-01, -1.79232638e-02,
        -4.64833938e-02, -3.54007065e-01,  2.95114756e-01,
         5.27241677e-02,  4.28668618e-01, -1.84543967e-01,
        -1.79161802e-02, -7.75708556e-02, -9.10532400e-02],
       [ 2.06829473e-01,  2.24124014e-01,  1.54287621e-01,
        -1.22257791e-01,  1.48733765e-01,  9.82902348e-02,
        -6.07959926e-01, -8.65401745e-01,  7.22183287e-01,
        -2.90711731e-01, -1.12711988e-01,  7.56382197e-02,
         2.06029844e-02, -1.23599663e-01,  1.12015322e-01,
        -2.05840483e-01, -6.46295547e-02,  4.43457335e-01,
        -9.78260264e-02,  2.11305603e-01,  2.57107347e-01,
         2.17849687e-01, -5.04744798e-02,  3.32626641e-01,
         1.91220775e-01,  2.13422969e-01, -3.10320288e-01,
        -1.51585698e-01,  9.89730731e-02, -1.06538773e-01],
       [ 2.57067531e-01,  2.08186239e-01, -2.60348171e-01,
        -7.36444592e-02, -3.72267395e-01, -2.29623988e-01,
        -2.96148360e-01,  2.05980256e-01,  1.87025130e-01,
        -5.72649717e-01,  2.80660868e-01, -2.43008733e-01,
         6.30468652e-02,  1.78879380e-01, -9.33505315e-03,
        -2.44583905e-01, -3.08808032e-02, -9.42365229e-02,
         5.89526296e-01, -5.42832445e-03, -1.88813880e-01,
         1.30077630e-01,  4.23632562e-01,  3.36423308e-01,
        -1.86039209e-02, -5.74527860e-01,  2.13948846e-01,
        -2.73762681e-02,  1.14831418e-01, -2.11192086e-01],
       [-3.59541774e-01,  3.94863598e-02,  5.56754693e-02,
         1.22782394e-01,  3.58476877e-01,  3.24438140e-02,
         3.27590376e-01, -2.10878074e-01, -2.38237336e-01,
         2.58140564e-01, -2.52440244e-01, -3.53617445e-02,
        -1.53793365e-01, -2.80177653e-01,  2.42925584e-02,
         1.14153050e-01, -1.88463822e-01, -1.73170298e-01,
        -6.99502409e-01,  1.52187362e-01,  1.04600437e-01,
        -3.76612358e-02, -4.39449430e-01, -3.37245792e-01,
         2.20458761e-01,  4.70454484e-01, -2.45612904e-01,
        -1.43618807e-01, -9.49792564e-02,  1.35458587e-02],
       [-5.55144027e-02,  3.81574810e-01,  1.46705449e-01,
        -3.20291460e-01, -1.19470157e-01,  1.15962394e-01,
         7.71676889e-03,  2.81681940e-02,  5.14855236e-02,
         3.28937739e-01,  3.85513082e-02,  1.04645647e-01,
        -5.69502376e-02, -2.71289855e-01, -1.21265762e-01,
         2.75457293e-01, -3.41503948e-01, -4.98625249e-01,
        -7.56471157e-01,  2.01424628e-01, -2.71036297e-01,
        -2.48104036e-01,  1.30259255e-02,  2.31338153e-03,
         1.30555749e-01, -2.33215746e-02,  2.16292590e-01,
        -2.52498448e-01, -1.35065541e-01,  2.08564654e-01],
       [ 3.41594815e-01,  1.12306677e-01, -3.59084941e-02,
        -7.83426613e-02,  9.26998109e-02, -2.76953250e-01,
        -7.14843273e-01,  4.12435263e-01,  1.38965681e-01,
        -7.72811919e-02,  5.22413671e-01, -1.43400654e-02,
        -6.52769627e-03, -2.92934507e-01, -1.04880221e-01,
         1.36697413e-02,  1.79006606e-01,  1.05458081e-01,
         7.58992314e-01,  6.47691637e-02,  8.18315074e-02,
         8.99721086e-02,  3.38371992e-01, -1.63713425e-01,
         1.34602457e-01, -2.60673970e-01,  2.75699139e-01,
         8.35650936e-02,  3.29637259e-01,  2.53900260e-01],
       [ 1.81967124e-01,  1.09486923e-01,  1.49834543e-01,
        -7.48923328e-03, -2.10202411e-01,  2.15567663e-01,
        -3.59548897e-01, -5.93528628e-01,  3.12158138e-01,
         2.42688641e-01, -4.50100124e-01,  2.90206932e-02,
        -3.74272406e-01, -1.33344784e-01,  4.24403623e-02,
         1.65677875e-01,  3.02884966e-01,  6.08035266e-01,
        -2.98123900e-02, -1.78893358e-01, -1.83058545e-01,
         5.78656010e-02, -1.49388298e-01,  4.11732078e-01,
         3.40129510e-02,  2.49480590e-01, -1.28587499e-01,
         2.98755199e-01,  1.37103543e-01, -1.09363474e-01],
       [ 2.19587937e-01, -2.41916999e-02,  1.57754034e-01,
         1.31781220e-01, -1.16102263e-01,  3.01610976e-01,
        -1.65824994e-01, -3.42665792e-01,  3.53672773e-01,
        -3.19308862e-02, -6.94355547e-01, -2.89625172e-02,
        -2.14681223e-01,  1.41250059e-01,  4.19011246e-03,
         8.18581283e-02, -1.24433428e-01,  1.94224671e-01,
        -3.61056834e-01,  2.35615462e-01, -3.38019490e-01,
        -7.33417943e-02, -3.58025789e-01,  3.78293008e-01,
         1.62309140e-01,  3.09046000e-01, -1.87372580e-01,
        -8.40736274e-03, -3.72800767e-01,  1.83608625e-02],
       [ 5.53317606e-01,  5.47597528e-01, -8.27917829e-02,
        -5.97512484e-01,  1.54197201e-01, -1.90910092e-03,
        -5.95508099e-01, -1.10457219e-01, -3.58078092e-01,
         2.90352941e-01,  5.02118349e-01,  3.05528753e-02,
         8.29785094e-02, -7.10557848e-02, -1.84245706e-01,
         2.89021749e-02,  1.91260949e-02,  1.26966134e-01,
         2.22055763e-01,  9.10398811e-02, -1.84985563e-01,
         9.54871997e-02, -2.02182516e-01,  5.51201165e-01,
         4.99566555e-01,  1.64841533e-01,  1.65591791e-01,
         1.69102550e-01,  4.26676199e-02, -3.19123305e-02],
       [-2.62768835e-01,  9.61898491e-02,  3.49830449e-01,
        -8.09370279e-02, -1.64536998e-01, -3.17270130e-01,
         1.63304240e-01, -4.51440774e-02, -5.29753983e-01,
         9.43741739e-01, -9.75462701e-03, -2.45510206e-01,
        -7.82295913e-02,  1.19703501e-01,  3.65410298e-01,
         3.64719063e-01, -4.58103150e-01, -4.22135681e-01,
        -9.98976827e-01, -1.81810990e-01, -3.29416580e-02,
         1.84899136e-01, -1.11596324e-01, -1.59155086e-01,
        -3.95180285e-01,  2.83738840e-02,  2.91315943e-01,
        -8.68084729e-02,  2.16746017e-01, -1.34057954e-01],
       [-3.88697118e-01, -2.35894118e-02, -3.18144746e-02,
         3.73972088e-01,  2.39342321e-02,  2.09179774e-01,
         5.53081274e-01,  4.02433634e-01,  8.34877566e-02,
        -1.91864043e-01,  2.73574859e-01, -3.20770890e-02,
         1.17064409e-01, -1.90498680e-02, -1.51635960e-01,
        -3.41395438e-01,  1.86021194e-01,  5.05802259e-02,
         2.40954414e-01, -6.38999790e-02,  2.65951365e-01,
        -1.17575280e-01,  2.50369579e-01, -8.42509747e-01,
        -3.55860353e-01, -2.43628472e-01,  3.38015646e-01,
         7.66389370e-02, -8.91455635e-02, -1.33320764e-02],
       [-9.56236243e-01, -1.67987585e-01, -4.75907922e-02,
         4.03257936e-01,  7.14285225e-02, -2.11919248e-01,
         8.22338402e-01,  1.37000412e-01, -3.25654089e-01,
         8.83162394e-02, -4.83777583e-01, -1.67811349e-01,
         1.10570833e-01, -7.94626251e-02,  2.06875727e-01,
        -5.40776178e-02,  2.57373918e-02, -2.96287060e-01,
        -3.82896900e-01, -1.35492191e-01,  7.03661963e-02,
        -8.70905966e-02, -1.48220599e-01, -9.41979349e-01,
        -8.70820805e-02,  2.22500920e-01,  1.09473355e-01,
        -2.82466769e-01, -1.64281979e-01, -2.91132063e-01],
       [ 4.04824048e-01, -1.57097086e-01, -1.48912165e-02,
         3.33410017e-02, -3.14971060e-01,  3.93285081e-02,
        -2.60345310e-01, -2.21333474e-01,  4.74314272e-01,
        -7.80854404e-01,  1.91739172e-01, -5.75043485e-02,
        -2.73581315e-02,  2.19357073e-01,  3.19979757e-01,
         1.26990393e-01,  9.15012434e-02,  4.69313473e-01,
         5.45265198e-01,  1.33320205e-02,  3.53016965e-02,
        -1.95461959e-01,  3.96430492e-02,  1.77686498e-01,
         1.44529704e-03, -8.24553296e-02, -2.97361404e-01,
        -1.29023358e-01,  1.21378437e-01,  2.54572313e-02],
       [ 7.49267101e-01, -1.93606436e-01,  4.09068018e-02,
        -5.88269472e-01,  2.35221341e-01, -2.47085303e-01,
        -6.01911783e-01, -2.72792757e-01,  2.85026729e-01,
        -3.70913237e-01,  6.58131540e-02,  2.24259600e-01,
         2.51427054e-01, -9.59460437e-02,  4.87113558e-02,
         5.18383756e-02,  1.94066018e-01,  4.89023179e-01,
         2.26464659e-01,  1.09929696e-01, -1.30181581e-01,
        -1.83782384e-01,  2.88023084e-01,  8.42215955e-01,
         9.65059623e-02,  8.45175683e-02, -5.21972142e-02,
         1.01040959e-01,  1.28200337e-01,  2.03824490e-01]], dtype=float32), array([[ 2.87256092e-01, -4.35178310e-01,  1.41490936e+00,
        -7.44849294e-02, -5.57450652e-02, -2.34077200e-01,
        -1.26502678e-01, -3.82050782e-01, -9.59877446e-02,
         1.17001925e-02, -2.82401711e-01, -2.96724550e-02,
         7.19707251e-01, -1.73424363e-01,  2.73104701e-02,
        -1.72222808e-01, -1.97397321e-02, -2.21441984e-01,
        -7.59625077e-01, -2.72022933e-01, -6.72986582e-02,
        -8.71122181e-02, -1.53792918e-01, -1.30847782e-01,
         1.17180375e-02,  3.18763107e-01,  6.72795177e-02,
        -2.12434754e-02, -3.84425707e-02, -4.40202579e-02],
       [ 4.19946434e-03,  1.87010020e-01,  4.31224443e-02,
        -2.93211043e-01, -1.22704953e-02, -1.83786750e-01,
         1.31368577e-01, -4.86982852e-01,  3.80089730e-01,
         2.34852910e-01, -5.17786890e-02, -6.23962134e-02,
         1.10863589e-01, -7.96242580e-02,  3.74740325e-02,
         3.58511835e-01,  1.38167754e-01, -1.06838010e-02,
        -1.97261348e-01,  9.69370306e-02, -9.65811834e-02,
        -1.55498952e-01,  3.51439267e-02, -1.69905469e-01,
        -7.85279572e-02,  3.27302456e-01,  2.22264096e-01,
        -1.81084096e-01,  7.24533722e-02,  3.84237245e-02],
       [-2.20656723e-01, -1.71528041e-01,  1.63700491e-01,
        -1.03009745e-01, -2.03461275e-02, -4.35766615e-02,
         4.71079983e-02, -1.51978865e-01, -1.71097875e-01,
        -1.77282676e-01, -2.22226623e-02,  8.31324756e-02,
        -5.31525984e-02, -1.49397090e-01,  2.30223343e-01,
        -4.43093143e-02, -9.50277969e-03,  9.38724220e-01,
         9.63456854e-02, -1.56812102e-01, -1.26974538e-01,
        -1.85061172e-01,  9.31018498e-03, -6.40496254e-01,
         2.72845596e-01,  1.89131275e-01,  1.20500147e-01,
         1.14798211e-01, -1.00543506e-01,  5.10498323e-02],
       [ 3.29177268e-02, -1.64775550e-01,  2.44505733e-04,
        -6.58091456e-02,  6.00422174e-02,  3.25653464e-01,
        -1.29921243e-01,  6.80767298e-01, -2.82921165e-01,
         6.03178367e-02, -6.11018296e-03,  2.71057248e-01,
        -2.44174734e-01, -8.83385390e-02, -1.07243218e-01,
        -2.86481649e-01, -9.46197584e-02,  6.59452677e-01,
         2.55097061e-01,  2.51932234e-01,  2.81261140e-03,
        -1.07373618e-01,  1.00856349e-01,  1.56444713e-01,
         5.22153556e-01, -9.43322703e-02, -1.04598753e-01,
        -1.46188796e-01, -3.21569443e-01,  1.19127542e-01],
       [ 1.59789789e-02,  1.56267047e-01,  6.61563277e-01,
         5.76400906e-02, -2.88387954e-01, -7.94212222e-02,
        -1.16092309e-01,  2.46839315e-01,  3.78332138e-02,
        -1.73378978e-02, -1.34911969e-01, -2.42253393e-01,
         4.39061880e-01, -1.21486418e-01,  2.09336840e-02,
         4.46780086e-01, -6.01605028e-02, -3.48279506e-01,
        -2.45980904e-01, -1.30414337e-01, -6.61224797e-02,
         1.14225127e-01, -4.20358125e-03,  2.23238133e-02,
        -3.83150727e-01,  3.37577403e-01, -1.99003860e-01,
        -1.45354196e-01,  1.47127941e-01, -3.74685228e-01],
       [ 3.49864006e-01, -2.13108316e-01,  3.92118935e-03,
         3.12966615e-01, -1.09796770e-01,  2.64127940e-01,
        -3.09828639e-01,  2.01132894e-01, -1.70098945e-01,
         1.85553372e-01, -3.14331800e-02, -2.55380660e-01,
        -2.20029742e-01, -1.91273719e-01,  1.37702540e-01,
         4.48341016e-03,  5.54033816e-02,  9.00570974e-02,
        -1.69449642e-01,  2.42021419e-02, -1.36222303e-01,
        -3.04821581e-01, -6.22931793e-02, -6.40096009e-01,
         2.95284927e-01,  4.39771600e-02,  4.23415303e-02,
        -1.14684533e-02, -1.89605534e-01,  6.76303208e-02],
       [ 2.27048784e-01, -2.95291483e-01, -7.88909018e-01,
         2.21186474e-01, -3.05778950e-01, -1.21964049e-02,
         1.10407852e-01,  5.17604947e-01, -1.19797267e-01,
        -9.79360119e-02,  1.18528344e-01,  1.92477047e-01,
        -1.30509958e-01, -1.33832484e-01,  1.78457811e-01,
        -3.70506167e-01, -1.33148551e-01,  4.42889839e-01,
         6.38018787e-01,  1.37250200e-01,  6.86131418e-02,
         6.73456043e-02, -2.84093410e-01,  2.72674948e-01,
         3.66084635e-01,  2.08767295e-01,  3.36850733e-01,
         2.01674238e-01, -7.33445585e-02,  1.80368140e-01],
       [ 1.74433634e-01, -1.64835632e-01, -9.46271777e-01,
         1.74347863e-01, -1.29998755e-02, -1.05837248e-01,
         7.46986419e-02,  8.16824064e-02, -1.62362471e-01,
         1.74099833e-01,  1.26486287e-01,  8.99338275e-02,
        -2.92424023e-01, -1.89278740e-02,  1.75349563e-01,
        -1.59930989e-01,  1.89746439e-03,  2.73015141e-01,
         1.07896984e-01,  5.97269498e-02,  3.04754376e-01,
        -4.03353244e-01, -4.50274765e-01,  7.10257068e-02,
        -5.22350557e-02, -1.96633428e-01, -6.94790483e-02,
         3.11280764e-03, -1.74560919e-01,  1.81870297e-01],
       [-4.34400775e-02, -2.15364516e-01, -3.52552116e-01,
        -1.53133914e-01, -2.25050207e-02, -2.06105277e-01,
        -2.40972340e-01, -7.76994973e-02, -6.74544811e-01,
        -6.21104939e-03, -1.81561448e-02,  1.07248306e-01,
        -1.67112693e-01,  1.17008062e-02,  2.48632833e-01,
         2.52784062e-02, -2.51225561e-01, -7.61415482e-01,
        -6.64802551e-01,  1.81534410e-01,  2.90325671e-01,
         3.18512410e-01,  1.40437350e-01,  6.05501354e-01,
         2.17766255e-01, -8.10007751e-02,  7.68150985e-02,
         1.42158702e-01, -7.53616840e-02, -1.52386993e-01],
       [-2.35688001e-01,  3.11756022e-02,  1.70245573e-01,
        -2.91579843e-01,  3.32746953e-02,  2.50550747e-01,
        -1.58149183e-01,  1.26239970e-01,  1.06530413e-02,
         5.00340424e-02, -3.97012383e-02, -2.97244806e-02,
         4.43103202e-02,  8.20429027e-02, -3.56076239e-03,
        -9.42195654e-02, -1.64310738e-01,  3.87668222e-01,
         1.02106690e+00,  2.23658085e-01, -1.89210564e-01,
         1.08986691e-01,  2.70331085e-01, -3.83605272e-01,
        -1.57154799e-02,  1.74139857e-01, -2.75237858e-02,
         2.43622661e-01, -2.82669485e-01,  4.84971106e-01],
       [-7.32685253e-03, -8.20103660e-03, -4.95300829e-01,
         2.37944722e-01, -1.06161572e-01, -1.06143141e-02,
         2.98298270e-01, -1.47259742e-01,  2.62313753e-01,
         4.08973359e-02,  5.63803948e-02, -9.59865600e-02,
        -5.38000613e-02, -2.80103516e-02,  1.64390951e-01,
         3.85126650e-01,  5.19714542e-02,  4.34325725e-01,
         5.09574533e-01,  1.25437304e-01,  2.83869426e-03,
        -3.40510868e-02,  6.60490170e-02, -2.87550539e-01,
        -4.06260610e-01,  2.19500333e-01, -1.38058126e-01,
         3.99178565e-01,  2.14818627e-01,  3.45455706e-01],
       [-2.77879655e-01,  1.28968477e-01, -2.61679180e-02,
        -1.04283944e-01, -6.78989440e-02, -2.02155411e-01,
        -8.11083615e-02, -1.69928535e-03,  1.50579074e-02,
        -2.36607455e-02, -3.33299577e-01, -2.30807990e-01,
         1.87450662e-01, -2.50961125e-01,  2.67676920e-01,
        -2.22844034e-01, -2.88149137e-02, -6.42951965e-01,
        -4.41501707e-01,  7.18913600e-02, -1.48076877e-01,
         6.23381287e-02, -1.56587496e-01,  3.50598246e-01,
         5.99464998e-02, -8.26817006e-02,  1.28798723e-01,
         1.64061382e-01, -7.18424097e-02,  1.11856334e-01],
       [-3.63264769e-01,  7.21680000e-02,  4.03080024e-02,
        -1.40196636e-01, -1.83385834e-01, -2.84545124e-01,
         1.74451545e-01, -1.18219465e-01, -1.87730014e-01,
        -2.25728154e-01, -7.70300925e-02,  1.76208228e-01,
         2.43146881e-01,  2.48756513e-01, -1.23835532e-02,
        -9.08469483e-02,  3.58253181e-01, -3.03015351e-01,
        -2.40604565e-01,  2.39946321e-01,  2.65040137e-02,
         1.67285893e-02,  6.85029700e-02,  4.77339953e-01,
         2.82929480e-01, -2.81018674e-01, -4.48007174e-02,
         2.67754465e-01, -3.22895259e-01, -4.58244979e-02],
       [-1.76164135e-01,  2.67907917e-01,  2.90598124e-01,
        -1.33645698e-01, -2.30484992e-01,  1.36164472e-01,
        -3.22505802e-01,  7.34136552e-02, -1.57977566e-01,
         1.29756346e-01, -1.00212246e-01,  6.10688180e-02,
        -2.21787781e-01,  1.87958673e-01, -1.74755245e-01,
        -8.71076956e-02, -2.52118796e-01, -3.91561091e-01,
        -6.37460360e-03, -3.17353942e-02,  7.36811608e-02,
         1.98996458e-02, -2.87501723e-01, -1.95344433e-01,
         2.86370963e-01,  6.41897172e-02, -1.35592401e-01,
         1.04482345e-01, -2.23898485e-01,  2.10102603e-01],
       [ 2.46990900e-02, -2.44811356e-01,  3.90914530e-01,
         1.49338031e-02, -1.15900291e-02,  3.19542617e-01,
        -1.51918367e-01, -1.02121517e-01, -3.45341831e-01,
        -2.87909418e-01, -8.34196582e-02,  6.50266632e-02,
        -1.74032584e-01,  5.19782724e-03, -1.96558446e-01,
        -2.17282102e-01, -1.47297442e-01,  8.48018527e-02,
        -9.89426970e-02,  2.13322669e-01,  1.63980365e-01,
         1.31868705e-01, -1.38183072e-01, -4.14643526e-01,
         2.52356768e-01, -3.03247392e-01, -2.32184995e-02,
        -3.59108858e-02,  6.93970248e-02,  7.79028833e-02],
       [ 2.57959723e-01,  3.85356657e-02,  3.24582279e-01,
        -1.19339809e-01,  4.64086011e-02,  8.64567012e-02,
        -1.24878801e-01, -5.80397904e-01,  2.82270253e-01,
         1.42275363e-01,  2.99849659e-01, -5.01175970e-03,
         1.22428827e-01,  6.41206056e-02, -7.63112530e-02,
         4.00436491e-01, -1.24279365e-01, -1.33017734e-01,
        -5.30193746e-02,  1.04964115e-01, -1.35706350e-01,
        -8.14804286e-02,  3.24575126e-01, -3.43364090e-01,
        -2.07322761e-02,  2.00255871e-01,  1.35614738e-01,
         2.92116612e-01, -2.45553344e-01, -1.18235692e-01],
       [ 1.40273541e-01,  7.03675523e-02, -3.36210966e-01,
         1.20146997e-01, -1.04460910e-01, -4.47662801e-01,
         2.24362388e-01,  2.47630164e-01, -2.25828484e-01,
        -5.88029735e-02,  2.06314191e-01,  1.42303944e-01,
        -2.42728412e-01, -9.35382098e-02,  2.03848049e-01,
         3.29339683e-01, -6.09983969e-03, -3.53847772e-01,
        -3.40469301e-01,  4.56501171e-02, -3.14554542e-01,
        -5.72094843e-02, -2.80536823e-02,  6.35166228e-01,
         2.17136949e-01, -8.49533156e-02,  3.41408029e-02,
        -4.12818007e-02,  7.43327737e-02, -2.77332246e-01],
       [-1.34015828e-01,  1.91249624e-01,  3.60634267e-01,
        -2.98519805e-02,  8.89549479e-02,  2.54612654e-01,
        -1.17533475e-01, -7.02403188e-02,  6.87650442e-02,
        -7.07748756e-02, -1.11499995e-01,  1.34961694e-01,
        -5.63195208e-03,  2.27697045e-01,  1.48302764e-01,
        -1.24076150e-01, -1.14552267e-01,  4.95086238e-02,
         1.40674695e-01,  3.31236124e-02,  1.60881668e-01,
        -2.10272218e-03, -2.02419594e-01,  4.19972986e-02,
        -8.70309621e-02,  1.18689507e-01, -7.58491978e-02,
         1.98169634e-01,  3.49137306e-01, -1.10589378e-01],
       [-1.02776311e-01,  1.30159736e-01, -2.41456360e-01,
         2.76702255e-01,  8.22137371e-02, -3.88363540e-01,
         3.78274888e-01, -3.50551158e-01,  3.16675097e-01,
        -9.31926742e-02,  2.59469986e-01,  1.17341960e-02,
         2.06484020e-01, -2.04963312e-01,  5.56901470e-02,
        -2.45242566e-01,  7.38644088e-03,  4.76533890e-01,
         1.02854557e-02, -1.10500194e-01,  2.14175925e-01,
         2.14319676e-02, -1.34521931e-01,  9.14233401e-02,
        -7.76043385e-02, -3.79605852e-02,  1.57812670e-01,
        -2.72253174e-02,  1.95885852e-01,  1.55486003e-01],
       [ 1.39466166e-01,  2.80509412e-01,  1.14175916e-01,
         2.01203272e-01,  7.62134865e-02, -3.85339893e-02,
        -9.47785452e-02, -5.02124727e-01, -2.01245561e-01,
         9.78460237e-02, -2.79671364e-02, -2.00503528e-01,
         3.43876362e-01,  1.23030491e-01, -1.17295869e-01,
        -2.29806840e-01, -1.96321398e-01, -6.95006102e-02,
        -6.80679739e-01,  1.57679215e-01,  5.47203235e-02,
        -6.97054639e-02,  3.62384468e-02,  1.70199290e-01,
        -2.12666973e-01, -3.28689933e-01, -3.15138847e-02,
         5.63871004e-02,  5.09675369e-02, -3.02106231e-01],
       [-3.23500514e-01,  3.29999812e-02, -2.38136113e-01,
         1.66955635e-01,  1.04265943e-01,  7.66547248e-02,
        -2.73815751e-01,  8.32488760e-02, -4.12773192e-01,
        -3.18328410e-01,  7.84872025e-02,  3.01929444e-01,
        -2.05277398e-01,  3.11036082e-03, -2.39068851e-01,
        -1.81551233e-01,  3.63838077e-01, -1.73604116e-01,
         6.12015761e-02,  1.01788975e-01,  3.76231402e-01,
        -9.25058946e-02, -1.36417210e-01, -1.62178263e-01,
        -1.32180810e-01,  1.39079965e-03,  6.84998184e-02,
         5.09362742e-02,  2.95617562e-02, -2.44569629e-02],
       [ 2.51408696e-01,  2.35354766e-01, -5.04726954e-02,
        -2.75148191e-02,  2.03171566e-01, -1.48615375e-01,
        -3.55197899e-02, -2.34563172e-01, -1.52907297e-01,
        -2.54534096e-01, -6.10587709e-02, -1.59551501e-01,
         4.63068604e-01, -2.93076128e-01, -4.86178659e-02,
         1.42329521e-02, -8.31467807e-02, -5.53473532e-01,
        -2.03306779e-01, -2.41205677e-01, -2.71630734e-01,
         2.30126847e-02,  2.92629451e-01,  2.62786776e-01,
         1.25464395e-01, -1.86268523e-01, -1.19114235e-01,
         5.07725440e-02, -2.30778065e-02,  1.26923770e-02],
       [-2.94310242e-01, -8.38516280e-02, -3.90693769e-02,
        -1.00806326e-01,  2.17854649e-01, -3.45209129e-02,
         2.96182111e-02, -2.66524434e-01, -1.80397615e-01,
        -5.90004809e-02,  1.27105728e-01,  2.92373210e-01,
         1.65588260e-01,  2.35099606e-02,  1.27135262e-01,
         8.72722641e-03,  3.49481940e-01, -3.65457088e-01,
        -2.80625731e-01, -2.39284277e-01,  1.07400306e-01,
         9.67409313e-02, -2.78019398e-01,  8.47799718e-01,
        -7.16738403e-03,  7.60488287e-02,  3.13613564e-01,
        -1.13606103e-01, -2.34003872e-01, -4.86452738e-03],
       [ 1.14662945e-01, -2.27139413e-01,  1.34548974e+00,
        -3.03887837e-02,  1.34517223e-01, -4.00245160e-01,
        -1.26702353e-01, -1.45853966e-01, -2.64838189e-01,
         1.02651715e-01,  1.20939836e-01,  1.36964247e-01,
         2.75612418e-02,  1.58497438e-01, -3.46772522e-01,
        -8.86527300e-02,  4.73359413e-02, -5.53579926e-01,
        -6.61998391e-01,  1.45543426e-01,  4.39087376e-02,
         3.11082840e-01, -1.41653895e-01,  7.06202462e-02,
        -8.60265736e-03, -3.26477811e-02, -1.33648172e-01,
        -6.36843890e-02, -2.95239072e-02, -2.19752014e-01],
       [-8.94537792e-02,  2.07345173e-01,  3.02250236e-01,
         3.08780074e-02,  1.34333298e-01, -1.85070023e-01,
         1.81174874e-01, -4.97939438e-01,  1.01042844e-01,
        -1.67576447e-02,  5.09758927e-02, -2.30941791e-02,
         3.43272984e-01, -5.28546944e-02,  2.66854137e-01,
         2.70451009e-01, -2.16955736e-01, -4.35204506e-01,
        -1.98981255e-01,  3.39514464e-01,  2.84108877e-01,
        -1.44149825e-01,  1.07062422e-01, -1.19734257e-01,
        -1.16958342e-01, -4.83621769e-02,  5.80381043e-03,
         1.84175670e-02,  3.62598717e-01, -1.21178053e-01],
       [-8.54398608e-02, -1.28598824e-01,  4.74083424e-01,
         2.02269539e-01,  2.23820359e-01, -8.67825970e-02,
        -1.07650146e-01, -3.92288476e-01,  1.17768310e-01,
        -1.85520709e-01, -3.48534316e-01,  9.57119614e-02,
        -8.44482034e-02,  2.07481027e-01, -2.12692082e-01,
         3.10430050e-01, -9.33990553e-02, -5.04417479e-01,
         3.63363512e-02,  1.42540991e-01,  8.68024006e-02,
         1.01456001e-01,  1.06266081e-01,  1.15440516e-02,
        -4.90312837e-02,  8.62484127e-02, -1.39695883e-01,
         6.71929866e-02,  4.44974452e-02, -8.54785219e-02],
       [-8.99952129e-02, -1.71442389e-01, -5.66422999e-01,
         1.94492146e-01, -7.77413696e-02,  1.13417760e-01,
         3.69013816e-01,  2.41029829e-01,  3.00500661e-01,
         9.20523480e-02,  1.22741759e-01, -1.38017267e-01,
         1.10212870e-01, -1.82759762e-01, -1.96038205e-02,
        -2.01352745e-01,  1.90462604e-01,  5.73090315e-01,
         3.44139516e-01,  3.09853237e-02, -8.49625096e-02,
         3.25390816e-01, -2.19760552e-01, -1.20371487e-02,
        -1.48168012e-01,  1.42141774e-01,  1.04974099e-01,
         1.84873089e-01,  7.69386068e-02,  4.81601626e-01],
       [-3.08175504e-01,  1.11339070e-01,  3.43358032e-02,
         2.60841195e-02, -1.59598082e-01, -2.29685947e-01,
        -3.10880005e-01, -1.03756972e-01,  1.35630414e-01,
        -1.02786630e-01, -1.93254247e-01,  5.74577935e-02,
         1.57892285e-03, -5.04437797e-02, -2.81780958e-01,
         1.92149639e-01,  6.66760793e-03, -2.58369774e-01,
        -4.86162096e-01,  2.92406857e-01,  1.09164633e-01,
         9.73846540e-02, -5.14417216e-02,  2.96740413e-01,
         8.10838416e-02,  6.21912293e-02, -1.22917378e-02,
         1.44889683e-01,  3.23194057e-01,  3.68357226e-02],
       [ 2.72878438e-01,  7.67392665e-02,  4.63955551e-01,
        -3.78960937e-01, -2.97946185e-01, -3.39706361e-01,
        -1.69428110e-01,  2.75325626e-02,  2.76412278e-01,
        -1.27728656e-01, -1.41761959e-01, -3.51976557e-03,
         2.36813858e-01, -4.83989269e-02, -2.67865121e-01,
         2.76418239e-01,  1.06045626e-01, -7.03734308e-02,
         1.84840411e-01, -7.88386241e-02, -1.07877418e-01,
         9.66254473e-02, -1.36191363e-03,  2.78610438e-01,
        -9.13510695e-02,  2.57707685e-01,  1.47661775e-01,
        -7.13109076e-02, -1.71341524e-01, -1.68121234e-01],
       [-6.26175925e-02, -1.24209970e-02, -1.39308915e-01,
        -1.26260132e-01, -9.52107534e-02, -1.86712414e-01,
         2.55295813e-01, -2.78238863e-01, -2.18787625e-01,
        -1.39874950e-01,  2.07889497e-01, -1.92688584e-01,
        -8.16766620e-02,  1.24715231e-02,  2.52690375e-01,
        -5.95744401e-02,  1.36285514e-01, -2.64234900e-01,
        -4.15450186e-01,  1.19021215e-01, -1.34895211e-02,
         1.08475052e-01,  1.65884182e-01, -3.04885924e-01,
        -3.61290686e-02,  1.63768530e-01, -3.40825096e-02,
         1.77530974e-01, -1.36680573e-01,  2.63344441e-02]], dtype=float32), array([[ 0.2888231 ],
       [ 0.17916244],
       [-0.22919011],
       [ 0.09791657],
       [-0.04025357],
       [ 0.35927677],
       [ 0.33556604],
       [ 0.31067973],
       [-0.1500138 ],
       [ 0.10321674],
       [ 0.34672853],
       [-0.2612781 ],
       [-0.07838786],
       [-0.02144356],
       [ 0.47382426],
       [ 0.38290143],
       [-0.35300553],
       [-0.37849715],
       [ 0.21483238],
       [ 0.29221278],
       [-0.1419049 ],
       [-0.5069057 ],
       [-0.23803414],
       [-0.25852555],
       [-0.3706695 ],
       [-0.12461937],
       [ 0.3106821 ],
       [ 0.04793415],
       [ 0.23672561],
       [-0.3218111 ]], dtype=float32)]


Weights_h:
[array([[ 0.14568856,  0.0427883 , -0.24494357, -0.34768084,  0.12403906,
        -0.08453072,  0.13545074, -0.04501846, -0.10312223, -0.13585359,
         0.30502224,  0.33671856,  0.10827706,  0.11763223, -0.12222837,
         0.39696944, -0.03577499,  0.08426218, -0.07125954,  0.00613714,
        -0.23424527, -0.04163045, -0.08416878,  0.30254552, -0.34226817,
        -0.23766267, -0.04486886, -0.20879053,  0.0101837 ,  0.07206345,
         0.16564794,  0.17375416],
       [ 0.00346856,  0.39501163, -0.04247865,  0.05718492, -0.46294108,
         0.15985963,  0.08958366,  0.06815035, -0.21758986, -0.245652  ,
         0.04290448, -0.28693548,  0.10382438, -0.24541831, -0.33473513,
        -0.22370315, -0.28881592, -0.32878292,  0.19366924, -0.0243009 ,
        -0.02153269,  0.00258307, -0.43086967, -0.09275589, -0.32401958,
        -0.11621533,  0.22480007, -0.08678791,  0.20522231,  0.08635533,
         0.13053833, -0.12524052]], dtype=float32), array([[ 0.14613502,  0.13872388,  0.1402741 , ...,  0.251899  ,
         0.19029291,  0.08356266],
       [ 0.2909089 ,  0.012693  ,  0.14056441, ..., -0.22259322,
         0.17874275, -0.3493558 ],
       [ 0.00450856,  0.2582141 ,  0.09719661, ...,  0.06585601,
         0.27156398, -0.07380354],
       ...,
       [-0.13177583,  0.13860631,  0.320436  , ...,  0.22266309,
         0.11515298,  0.09497961],
       [-0.32934234, -0.06933061,  0.16701901, ...,  0.23945828,
        -0.04170385, -0.21546309],
       [ 0.01153392, -0.1474798 , -0.08698559, ..., -0.18199755,
        -0.10279488,  0.05231684]], dtype=float32), array([[ 7.05821216e-02, -5.46152852e-02, -1.89709201e-01, ...,
        -2.75937468e-01, -2.03610852e-01, -1.38038620e-01],
       [-6.36903048e-02,  8.44612252e-03, -1.03535384e-01, ...,
        -3.22719038e-01, -1.41772922e-04, -7.48106092e-03],
       [ 1.97661653e-01,  1.44059375e-01, -8.65310654e-02, ...,
        -1.39062628e-02,  7.18802810e-02, -7.87372515e-02],
       ...,
       [ 2.23957852e-01,  7.22172782e-02, -1.61669962e-02, ...,
        -6.46444559e-02,  1.65832117e-02, -4.95307110e-02],
       [ 2.76551485e-01,  5.90382963e-02,  1.41858488e-01, ...,
        -1.93446189e-01,  2.73978382e-01, -1.90457731e-01],
       [-7.44643584e-02, -2.15930268e-01,  1.40060276e-01, ...,
         1.87460482e-01,  1.40545100e-01,  1.02962419e-01]], dtype=float32), array([[-0.09848686],
       [-0.18843706],
       [ 0.20386577],
       [-0.10627208],
       [ 0.10532624],
       [-0.19488737],
       [ 0.05369253],
       [ 0.35077465],
       [-0.28267416],
       [ 0.18323849],
       [ 0.35219964],
       [ 0.1987451 ],
       [-0.25650328],
       [-0.3942111 ],
       [-0.04799478],
       [ 0.13988715],
       [ 0.00692682],
       [-0.4145102 ],
       [-0.41573158],
       [ 0.42574856],
       [-0.19519965],
       [-0.38440022],
       [ 0.10127336],
       [-0.12720051],
       [ 0.01412332],
       [ 0.1001907 ],
       [-0.4699128 ],
       [-0.09748092],
       [ 0.2031211 ],
       [-0.27913523],
       [ 0.10445727],
       [ 0.34600475]], dtype=float32)]


Weights_c:
[array([[-0.436551  , -0.19577149, -0.14908943, -0.23251636,  0.21020836,
         0.01899168, -0.18862444,  0.07153811, -0.28318742,  0.08614405,
         0.16644958, -0.05243946,  0.1033326 ,  0.35956657,  0.12489102,
         0.11240142, -0.44272956,  0.18902408,  0.2457999 , -0.37412995,
         0.18249556, -0.22759682, -0.09805822,  0.23432578, -0.44437405,
        -0.07873162,  0.33763906, -0.18306339,  0.34050578,  0.34015605,
         0.10902152, -0.29574654],
       [-0.36611027,  0.2716988 , -0.297845  , -0.14435045,  0.34210795,
         0.10336805, -0.30717757, -0.18570022, -0.2744148 ,  0.07295002,
         0.08316567, -0.1886442 , -0.04990215, -0.3336338 , -0.2549983 ,
        -0.0923717 , -0.17328607,  0.4468056 , -0.2635115 , -0.21491107,
         0.10679378, -0.13244447,  0.27923778,  0.1546878 ,  0.01163447,
        -0.04222929, -0.0029199 ,  0.11461112, -0.0541359 , -0.2994231 ,
        -0.00919068, -0.14721985]], dtype=float32), array([[ 0.11665306,  0.2537795 , -0.11705668, ...,  0.00697507,
         0.07209751, -0.03910639],
       [ 0.13674262,  0.20050101, -0.04953763, ...,  0.02222706,
         0.02070728,  0.19853294],
       [ 0.3518492 ,  0.20398915,  0.08312125, ...,  0.03551027,
         0.3447903 ,  0.08161815],
       ...,
       [ 0.02204326, -0.26413402,  0.01505016, ..., -0.13244654,
        -0.00846231, -0.22384918],
       [ 0.21933721, -0.03704536, -0.1586929 , ...,  0.18279529,
        -0.08279106,  0.21981505],
       [-0.22208689,  0.041264  ,  0.201325  , ..., -0.0835606 ,
        -0.1985827 , -0.04760926]], dtype=float32), array([[-0.03064156, -0.26161763, -0.15255532, ...,  0.05586261,
         0.01343352,  0.04425788],
       [ 0.0712921 , -0.16796869, -0.09860854, ..., -0.03465192,
        -0.03304254, -0.06419692],
       [ 0.13349235,  0.1533324 ,  0.07535215, ..., -0.13567074,
        -0.10419467, -0.12308176],
       ...,
       [ 0.27622157, -0.24120644,  0.02672122, ...,  0.0235175 ,
        -0.13245907,  0.09059867],
       [-0.07116906, -0.16041829, -0.0282239 , ...,  0.19553743,
        -0.04006693,  0.11770446],
       [ 0.01839904, -0.19303663,  0.24373351, ...,  0.04492711,
        -0.00136926, -0.10089289]], dtype=float32), array([[ 0.01475844],
       [-0.06276604],
       [-0.44945487],
       [-0.01337795],
       [ 0.02571248],
       [ 0.09547279],
       [ 0.14328891],
       [-0.20065366],
       [-0.06742534],
       [ 0.00947275],
       [-0.0857871 ],
       [-0.07455337],
       [-0.09628659],
       [ 0.0506513 ],
       [ 0.02637007],
       [ 0.10461706],
       [-0.09704024],
       [-0.26791316],
       [-0.01533256],
       [-0.29926658],
       [ 0.07074825],
       [-0.00978785],
       [ 0.20001294],
       [ 0.08812054],
       [ 0.2354673 ],
       [-0.02420573],
       [ 0.10969929],
       [ 0.15924199],
       [-0.18883389],
       [ 0.0879006 ],
       [ 0.30827   ],
       [ 0.13382424]], dtype=float32)]


Weights_k:
[array([[-0.03642776, -0.52263945, -0.2509457 , -0.582614  , -0.28512672,
        -0.87802184, -0.48116493, -0.06374576, -0.39848673,  0.85682315,
        -0.0808839 , -0.06007142, -0.14295556, -0.8595447 , -0.63701063,
        -0.21923828, -0.19174454, -0.43832877,  0.36316425, -0.79092157,
        -0.03501451, -0.3267541 ,  0.4125101 , -0.50235385,  0.3202562 ,
        -0.9973537 , -0.22402512,  0.02571674, -0.7023423 ,  0.06959242],
       [-0.36108705,  1.290731  , -0.34000725, -0.23797217, -0.4367191 ,
         0.2025217 ,  0.02353283, -0.6793148 ,  0.93957895, -0.46917954,
        -0.01778988,  0.4440895 ,  0.5183093 ,  0.05263866,  0.07996629,
         0.66636336, -0.4831335 ,  0.12245322,  0.5508313 ,  0.33919728,
         0.5842133 ,  0.20911147,  0.03789308,  0.42967752,  0.1568189 ,
         0.5347315 ,  0.5006973 , -0.19048144, -0.00547777,  0.35899684]],
      dtype=float32), array([[-3.89592685e-02, -1.77497745e-01, -1.15321495e-01,
        -1.06566049e-01,  9.02476430e-01,  7.68246353e-02,
        -5.74029312e-02,  9.78443101e-02, -2.54869014e-01,
        -2.32467264e-01, -4.32233699e-02, -3.48348439e-01,
        -3.89589816e-01, -1.13290906e-01, -1.21556632e-01,
         1.58837810e-01,  2.44214401e-01,  1.50048569e-01,
        -2.33085483e-01,  1.55974567e-01, -4.26773392e-02,
        -1.00482613e-01, -1.75008252e-01,  1.34170130e-01,
         1.22392938e-01,  5.80146872e-02,  9.50597785e-03,
         1.89809650e-01, -1.61226287e-01,  9.37349275e-02],
       [ 1.81006119e-01, -8.28362629e-02,  2.64149368e-01,
         4.86406356e-01, -7.01833665e-02,  2.92227596e-01,
        -2.25539267e-01, -2.08311677e-01,  3.65448147e-01,
         5.22938073e-01,  4.77993667e-01,  8.03650796e-01,
        -1.37626529e-01,  1.98810041e-01, -1.32114440e-01,
         1.91056877e-01,  4.30219948e-01,  8.41182843e-02,
        -3.19088787e-01, -4.87983137e-01,  4.52966303e-01,
         2.02355638e-01,  3.12568963e-01, -5.80238644e-03,
         2.78567314e-01,  1.47743717e-01, -4.28807735e-01,
        -1.79693028e-01, -2.60209385e-02, -1.22781247e-01],
       [ 2.71565050e-01, -2.76850134e-01, -1.71070591e-01,
         2.97972225e-02,  2.32893491e+00,  9.13024768e-02,
         8.45807418e-03,  7.31280744e-02, -4.74272311e-01,
        -3.45413417e-01, -4.65012372e-01, -2.57007241e-01,
         1.35333225e-01,  1.54613942e-01, -7.12342784e-02,
         2.05281749e-01, -6.25358000e-02, -4.67601083e-02,
         2.96067297e-01, -2.38265209e-02, -2.48584419e-01,
         9.13901851e-02,  6.98662922e-02,  1.68632194e-01,
        -2.03140050e-01,  2.86488116e-01, -2.08293572e-01,
        -1.52608693e-01,  4.18613590e-02,  4.26659659e-02],
       [ 1.49970919e-01, -3.21521342e-01,  2.22635180e-01,
        -4.29841399e-01,  4.30382282e-01, -6.77799480e-03,
        -9.09289494e-02, -1.41660184e-01, -7.57141292e-01,
        -3.55577350e-01, -1.72559544e-01,  4.76317480e-02,
        -6.12127595e-02,  1.43737331e-01, -3.98065984e-01,
         3.31451148e-01,  4.90172952e-01, -2.68643618e-01,
        -3.97443742e-01, -4.24174398e-01, -3.39278072e-01,
         6.18701242e-02, -2.15757266e-01,  1.33833677e-01,
         2.35628203e-01,  1.00831963e-01, -1.32700831e-01,
        -2.07049191e-01,  3.89536977e-01,  3.33397269e-01],
       [ 3.41834850e-03, -3.62630397e-01, -1.28687605e-01,
        -1.27629906e-01,  1.44173396e+00,  1.84762910e-01,
         2.30884273e-02,  8.71286020e-02, -6.20145202e-01,
        -3.65595520e-01, -2.96986461e-01, -3.51382285e-01,
        -7.72272274e-02,  2.32848123e-01, -6.18627593e-02,
        -1.30493537e-01,  5.94566688e-02,  1.38622016e-01,
        -1.21865392e-01, -4.63167168e-02, -8.93836990e-02,
        -2.58494645e-01, -8.67595002e-02,  1.25859737e-01,
         1.35773523e-02, -1.03593707e-01,  1.62366018e-01,
        -2.70686299e-01, -3.10112983e-02,  1.52788475e-01],
       [ 2.90111184e-01, -4.64010864e-01, -7.08284602e-02,
         2.64438808e-01,  7.61501431e-01, -7.83844516e-02,
        -2.73791701e-01, -2.87292842e-02,  2.46658936e-01,
        -2.37942293e-01, -4.82042246e-02, -1.46709859e-01,
        -4.89215970e-01, -6.33412227e-03,  2.68543422e-01,
         5.56748569e-01,  5.93792260e-01, -1.00506691e-03,
         1.19899794e-01,  3.42784792e-01,  7.81436712e-02,
        -1.54077917e-01, -1.24432549e-01,  1.51387304e-01,
         1.89967871e-01, -2.53000587e-01,  1.21196255e-01,
        -2.64478058e-01,  1.10161006e-01, -1.01334386e-01],
       [ 1.56228542e-01, -3.40741545e-01, -3.31856459e-02,
        -5.68733513e-02,  4.77662295e-01,  1.41835436e-01,
        -1.10851496e-01,  2.58916318e-01, -7.78178275e-01,
         9.64482427e-02, -2.35724580e-02, -3.40212137e-02,
        -4.03297581e-02,  3.85812461e-01, -1.17985219e-01,
         9.99449044e-02,  4.37066346e-01, -9.92448702e-02,
        -4.16581213e-01, -4.90494281e-01, -1.94923192e-01,
         1.05237268e-01,  2.81622894e-02,  8.09438154e-02,
        -3.57218180e-03,  2.22153723e-01, -3.38413119e-01,
        -3.69901091e-01,  2.67850049e-02,  1.43724129e-01],
       [ 4.87228930e-02,  3.76463622e-01, -1.14982747e-01,
        -1.04919933e-01,  1.07479421e-02, -2.15965658e-02,
         1.60957158e-01,  6.94620386e-02, -7.68921852e-01,
        -8.14107060e-02,  1.42855197e-01, -4.38207507e-01,
        -1.49282202e-01,  3.56603856e-03, -3.52546990e-01,
        -4.41324443e-01, -4.17986721e-01, -3.23785633e-01,
         1.61027070e-02, -3.27839702e-01, -1.82961851e-01,
         1.51544780e-01, -2.12861910e-01,  1.29115120e-01,
         1.20997377e-01, -6.45057037e-02,  2.37995330e-02,
         3.26838046e-01, -1.47872061e-01,  7.91764930e-02],
       [ 5.35265654e-02, -3.74132752e-01, -9.24353953e-03,
         2.84765124e-01, -8.01367983e-02,  5.44225425e-02,
        -2.20372155e-01, -1.90510541e-01,  4.42700952e-01,
         2.04859689e-01,  1.00205891e-01,  2.16552541e-01,
        -2.28990674e-01,  2.62401216e-02,  7.45272338e-02,
         4.08603609e-01,  2.84090340e-01, -3.27372491e-01,
        -1.34018451e-01, -3.54060292e-01,  5.89027256e-02,
        -9.35296416e-02,  5.44784427e-01,  3.02174641e-03,
         3.72302294e-01, -1.02188550e-01, -1.46252722e-01,
        -3.21536630e-01, -1.33458346e-01, -1.02999695e-01],
       [ 2.82019768e-02,  5.27435839e-01, -2.62253553e-01,
        -1.18650980e-01, -7.62059152e-01,  2.38159344e-01,
         2.37363115e-01,  1.31876543e-01,  1.53523475e-01,
         8.42207968e-02, -4.71593514e-02, -8.40507597e-02,
        -2.77902447e-02, -5.79137862e-01,  3.94931585e-02,
        -3.24659854e-01, -2.71804243e-01,  2.93501139e-01,
         4.26369756e-01,  5.95663637e-02,  2.54851669e-01,
         1.81003556e-01,  1.17807137e-02, -2.61612982e-01,
        -3.02329659e-01, -8.87063965e-02,  4.22383547e-01,
         7.02228665e-01,  4.05454636e-02,  7.41409883e-02],
       [ 2.23966703e-01, -3.44990671e-01,  1.86412688e-02,
        -5.41586913e-02,  7.38018095e-01, -9.48511586e-02,
        -2.59293914e-01, -2.99382925e-01,  1.47484481e-01,
        -2.97853380e-01,  9.60267708e-02, -2.04403698e-01,
        -2.76808478e-02, -4.54106867e-01,  1.34318605e-01,
         2.59137422e-01,  3.40939909e-01,  2.71349605e-02,
         8.84014741e-03,  6.76024318e-01,  2.09486142e-01,
        -7.70300105e-02,  4.08063047e-02, -4.48486544e-02,
         4.13567610e-02,  3.41923675e-03, -2.44952798e-01,
        -2.39277687e-02, -5.21704406e-02, -3.28901887e-01],
       [ 1.31490901e-01, -5.45178242e-02,  1.63605943e-01,
         1.24764657e-02, -1.98111236e-01, -3.61299127e-01,
        -7.33851567e-02, -3.09688270e-01,  3.35012347e-01,
         6.48373842e-01, -2.01142505e-01,  3.08823287e-01,
         1.05981857e-01,  4.39723194e-01,  3.36347163e-01,
         1.36961162e-01,  2.52094507e-01,  5.52532403e-03,
        -1.62602201e-01,  1.94782775e-03, -1.13191351e-01,
         7.38015994e-02,  4.65189189e-01, -2.07308047e-02,
         3.61456543e-01,  2.21803710e-02, -6.11152709e-01,
        -2.12018400e-01, -2.02570274e-01, -1.81756824e-01],
       [ 1.29726216e-01,  2.48847604e-01,  2.38655970e-01,
        -6.87393919e-02, -8.66171122e-01, -4.48861159e-02,
        -3.72304291e-01, -2.12116480e-01,  2.12903008e-01,
         4.61142033e-01, -1.47974595e-01,  5.42114794e-01,
        -1.95980489e-01,  5.35334826e-01, -2.39785388e-01,
         3.78607243e-01, -2.28383504e-02,  1.65746510e-01,
         1.71502113e-01, -2.80578822e-01, -2.06592977e-01,
         6.68880865e-02,  2.73834288e-01, -5.95805980e-02,
         2.42190853e-01, -1.02530941e-01, -2.18667731e-01,
        -3.20199579e-01,  2.97320094e-02,  1.52660072e-01],
       [-1.71897233e-01, -5.45694590e-01, -1.02453671e-01,
        -1.22833967e-01,  9.62244570e-01, -1.30855262e-01,
        -1.52795240e-01, -1.87374782e-02, -1.50142834e-01,
         1.09452643e-01, -4.36688364e-01, -1.17302455e-01,
         1.19637489e-01,  3.50314565e-02, -6.80352673e-02,
         3.12290072e-01,  8.56539547e-01, -1.46129817e-01,
         3.68098393e-02, -2.98194438e-01, -1.90990254e-01,
        -3.16988111e-01, -2.01962870e-02,  3.81003395e-02,
         2.13780925e-01,  1.69361681e-01, -4.70044091e-02,
        -1.57064587e-01,  4.04050142e-01, -2.50355154e-01],
       [ 8.95662159e-02,  6.74676821e-02, -3.18553369e-03,
        -3.54444794e-02,  1.00030288e-01, -7.87146240e-02,
        -8.33256841e-02, -1.59435533e-02, -3.20105523e-01,
        -1.43022358e-01,  3.38246897e-02,  3.37428778e-01,
         1.69657364e-01,  3.75893801e-01, -1.89087719e-01,
         4.20861810e-01,  3.93519521e-01, -2.16960534e-01,
         1.47440270e-01, -8.68783176e-01, -3.92682046e-01,
        -2.25278661e-01,  5.07518724e-02, -7.66618252e-02,
         2.12753534e-01,  3.47663969e-01, -1.31771669e-01,
        -4.62297648e-01, -1.08197808e-01, -2.98834920e-01],
       [-2.71314412e-01,  2.06103146e-01, -1.52487382e-01,
         2.42320642e-01, -7.99009502e-01, -1.71494246e-01,
        -1.14966162e-01,  4.12195511e-02,  6.71431005e-01,
         5.91874838e-01,  1.31867364e-01,  6.91621006e-01,
        -7.90417716e-02,  6.09729230e-01,  3.48363221e-01,
         1.51005581e-01,  2.54988611e-01,  1.54651493e-01,
         5.09655513e-02, -8.43206108e-01, -2.78801143e-01,
         1.28947601e-01,  2.22653717e-01, -3.71448129e-01,
         5.42524159e-01,  1.16449423e-01, -4.80223477e-01,
        -1.58344880e-01, -3.50853324e-01,  8.51686895e-02],
       [-1.12795688e-01,  2.11476594e-01,  2.07286756e-02,
        -1.49433360e-01,  1.34089053e-01, -3.21117155e-02,
         1.11042954e-01,  1.47293612e-01, -7.30644941e-01,
        -2.56104320e-01, -2.49765278e-03, -3.46527696e-01,
        -2.40955785e-01, -3.22816670e-02, -2.81721860e-01,
        -3.07095975e-01,  3.95878889e-02, -2.09090281e-02,
        -7.46776536e-02, -4.33047265e-01, -5.70185184e-01,
         1.06276959e-01, -2.81757623e-01, -8.93881638e-03,
        -7.62583762e-02, -1.79517478e-01,  1.99815184e-02,
        -1.30146548e-01,  3.02851945e-01, -2.04126369e-02],
       [-9.72287655e-02, -4.16481405e-01,  8.49840567e-02,
        -9.01185721e-03,  7.09222674e-01, -4.35954668e-02,
        -3.64895403e-01,  1.46548241e-01, -3.77011150e-01,
        -1.92148596e-01,  6.32301047e-02,  2.33931430e-02,
        -1.05223484e-01,  5.47289848e-01,  4.52528857e-02,
         2.81974673e-01,  3.12193155e-01,  1.81670815e-01,
        -1.01702064e-01, -4.87025857e-01, -4.12150502e-01,
        -9.58401859e-02,  2.67347753e-01, -1.28559634e-01,
         1.65942833e-01,  1.53317839e-01, -4.23451543e-01,
        -4.52279896e-01, -1.37473717e-01,  3.32615405e-01],
       [-1.20206200e-01, -3.40428561e-01,  1.16265260e-01,
         2.44091809e-01, -9.68305320e-02,  5.64551912e-02,
         1.05449542e-01,  2.00195573e-02,  1.26897931e+00,
         1.50573418e-01,  3.33614767e-01,  2.98895419e-01,
        -6.41172528e-02,  7.22502321e-02,  3.53490293e-01,
         2.56287396e-01,  6.79238811e-02,  2.21071169e-02,
        -1.67824164e-01,  1.12791204e+00,  4.06377614e-01,
        -2.26844475e-01,  3.56190145e-01,  1.29190251e-01,
         2.98710316e-01,  1.36427442e-02, -1.53557166e-01,
         5.20369820e-02, -2.53598392e-01,  4.56710085e-02],
       [ 6.12056516e-02, -5.51228106e-01, -8.50980207e-02,
        -2.00776067e-02,  3.11297327e-01, -3.32544069e-03,
        -2.56460607e-01, -3.18597555e-02, -4.00873274e-01,
         2.49888077e-01, -3.94285649e-01,  3.08091402e-01,
        -2.20202670e-01,  3.70341659e-01, -1.39374852e-01,
         8.00482556e-02,  5.64198971e-01, -3.23088348e-01,
        -2.24254861e-01, -8.30588043e-01,  1.84967332e-02,
        -1.73195228e-01, -5.36685064e-02,  3.57853740e-01,
        -3.95142753e-03, -1.14803962e-01, -3.62243563e-01,
        -5.56820989e-01,  2.00721189e-01,  1.28957421e-01],
       [-3.25648099e-01,  2.92765498e-01, -5.29599655e-03,
         3.11368912e-01, -1.09894598e+00,  1.70072168e-02,
         3.89034748e-02, -1.33919597e-01,  5.73700853e-02,
         4.31894153e-01,  1.90384731e-01,  5.12055099e-01,
        -1.55833047e-02,  1.51956722e-01,  5.29407263e-02,
         3.62292454e-02,  8.38368237e-02, -3.08572322e-01,
         3.10077488e-01, -5.77736676e-01, -1.53844267e-01,
        -1.55623198e-01,  3.35142702e-01,  2.75468022e-01,
         6.06890880e-02, -4.57054041e-02, -6.17729306e-01,
        -1.07458174e-01, -1.86502278e-01, -7.52568245e-02],
       [-3.03371344e-02, -2.09533751e-01,  2.15988711e-01,
        -1.76862746e-01, -2.53054082e-01,  1.03788890e-01,
         1.51088506e-01,  1.54445007e-01,  1.98073834e-01,
         3.11430752e-01, -2.83649951e-01,  5.89617550e-01,
        -2.17466727e-01,  4.12075430e-01,  1.73274681e-01,
        -2.97497287e-02, -1.63440183e-02, -2.15482414e-01,
         1.56073552e-02, -1.59666085e+00, -4.61733252e-01,
        -1.80804566e-01, -1.21226475e-01,  1.89014241e-01,
         5.22969812e-02,  2.12276697e-01,  1.68737154e-02,
        -3.83655690e-02,  2.62968838e-01, -6.79707229e-02],
       [ 1.54270187e-01,  2.75807738e-01,  3.88192125e-02,
        -2.26257920e-01, -6.61050856e-01,  2.02734545e-01,
         1.56410545e-01,  1.77071318e-01,  4.67832178e-01,
         7.11402297e-02,  4.85887080e-01,  1.21015161e-02,
         2.87266284e-01, -3.55553448e-01,  1.80747673e-01,
        -1.56957045e-01, -5.29792428e-01,  3.37590761e-02,
        -2.84114569e-01,  4.47799385e-01,  2.26750568e-01,
         2.69949138e-01,  2.95564950e-01,  7.70021901e-02,
        -3.20232302e-01,  9.51938971e-04, -1.24031976e-01,
         3.09453815e-01, -3.81806135e-01,  5.89019246e-02],
       [ 4.54259887e-02,  8.89771059e-02,  7.71020502e-02,
         1.08232372e-01, -6.51575439e-03, -2.23437652e-01,
        -5.19876089e-03, -4.61603582e-01,  1.61515146e-01,
         3.06764305e-01, -7.35898502e-04,  1.02384016e-01,
        -2.97111034e-01,  8.18084776e-01, -3.74839120e-02,
         4.24268752e-01,  2.19581857e-01, -3.88545066e-01,
         5.90895116e-02, -8.35780263e-01, -3.98592323e-01,
        -1.51990458e-01,  3.13960791e-01,  1.71457857e-01,
         3.12434077e-01,  4.39674295e-02, -6.14086747e-01,
        -3.21908891e-01, -2.11228400e-01, -1.35036349e-01],
       [-8.17800015e-02,  2.71004677e-01,  9.19417441e-02,
         1.40567034e-01, -6.60823435e-02,  1.95169568e-01,
        -2.06667259e-01,  2.02569783e-01,  7.45881677e-01,
         2.27526262e-01,  2.62063533e-01, -1.62695169e-01,
         2.78953552e-01, -9.28416476e-02,  7.02308714e-02,
         3.28382440e-02, -6.64365143e-02,  2.84902215e-01,
         1.18206143e-01,  1.82213509e+00,  7.41373360e-01,
        -1.42847136e-01,  4.10863519e-01, -1.41877130e-01,
        -8.86328146e-02, -1.62822213e-02,  9.41619836e-03,
         3.32523733e-01, -5.56137562e-02,  4.64749821e-02],
       [-6.49466366e-02, -5.26728630e-01,  2.82238722e-01,
         1.81668356e-01,  1.08447492e+00,  1.03276789e-01,
        -5.65105557e-01, -3.13264519e-01, -2.01692492e-01,
        -1.34868309e-01, -4.17704254e-01,  2.73275729e-02,
        -1.01342767e-01,  2.04071701e-01,  2.56893098e-01,
         5.42739153e-01,  8.88041019e-01, -3.70866627e-01,
        -2.38355130e-01, -1.13891242e-02,  1.27190053e-01,
        -1.14662237e-01,  4.32580322e-01, -2.01135859e-01,
         2.06230253e-01,  3.68686140e-01, -2.45594069e-01,
        -2.89493144e-01, -5.00106364e-02, -1.42695621e-01],
       [ 2.51374274e-01, -4.55231577e-01,  9.31549668e-02,
         1.53947875e-01,  7.14472085e-02,  8.73342231e-02,
         1.47051364e-02, -7.00933188e-02,  4.85058069e-01,
         2.75216788e-01,  1.03814453e-01,  5.19206166e-01,
        -2.07061231e-01,  1.11841135e-01, -1.41145801e-02,
         4.51652586e-01,  2.49420479e-01, -3.34440887e-01,
         1.38547748e-01, -3.80876869e-01, -2.26487219e-01,
         1.18652217e-01,  1.50224626e-01,  3.88879962e-02,
         3.77705574e-01, -1.36223197e-01,  7.95909762e-02,
        -3.08961421e-01,  1.85368836e-01, -1.81903001e-02],
       [ 2.35242724e-01, -1.90439433e-01,  8.25904533e-02,
        -1.34610444e-01,  8.77023280e-01,  1.40389517e-01,
        -1.93138883e-01,  2.15535000e-01, -1.56575352e-01,
        -4.71706063e-01,  5.23158489e-03, -3.11268508e-01,
        -1.01446137e-01, -2.33389735e-01,  6.26610368e-02,
         1.38760984e-01, -8.73901248e-02, -7.14077801e-02,
        -7.37713873e-02,  6.46788538e-01,  3.56408745e-01,
         1.79450050e-01,  2.52856910e-01, -3.30245882e-01,
        -4.15536799e-02,  2.21458793e-01,  2.99971581e-01,
         4.45650965e-02,  7.60052800e-02, -1.97514355e-01],
       [ 2.21940055e-01, -3.26000899e-01,  4.65388037e-02,
        -5.28476089e-02,  7.31042564e-01,  3.39837484e-02,
         1.49603367e-01,  2.03980908e-01, -6.77686870e-01,
        -1.77407593e-01,  1.73494801e-01, -1.39377356e-01,
        -2.19434146e-02,  4.50130463e-01, -3.86830233e-02,
         3.56776710e-03,  5.71256399e-01, -3.82929668e-02,
        -5.96919172e-02, -6.64072335e-01, -1.49705082e-01,
        -3.60464096e-01, -3.02174807e-01,  2.52315234e-02,
         2.24478558e-01, -7.69193470e-02, -7.31153861e-02,
        -3.05579662e-01,  8.50173905e-02, -1.40800267e-01],
       [ 3.08333993e-01,  6.33911230e-03,  3.41183431e-02,
         2.61515230e-01,  2.13292271e-01,  2.58229524e-01,
        -3.73231322e-01, -2.37894550e-01,  6.20078683e-01,
         1.91784099e-01, -4.72585531e-03,  2.24646091e-01,
        -1.87706813e-01, -1.35866955e-01, -3.34062167e-02,
         2.31761068e-01,  3.46916616e-01,  6.85182586e-02,
        -2.84158485e-03,  4.87478197e-01,  4.55550641e-01,
        -1.22426465e-01,  1.89936981e-01, -2.60362267e-01,
         1.21586829e-01, -8.34111497e-02,  1.31501094e-01,
        -2.83434123e-01,  4.90543758e-03,  1.49215519e-01]], dtype=float32), array([[-1.33268446e-01,  1.58447012e-01, -2.82388508e-01,
        -2.01534986e-01, -1.83603823e-01,  3.75381649e-01,
         2.39476055e-01, -5.78727089e-02,  1.01855788e-02,
         2.57697016e-01,  7.34662712e-02, -9.88915637e-02,
         7.55434781e-02, -3.09680134e-01, -9.33096409e-02,
        -1.05915308e-01,  3.77727091e-01,  3.49093303e-02,
        -1.07175000e-01,  2.30779618e-01,  3.92008930e-01,
        -1.86438933e-01,  9.40212384e-02, -4.08912092e-01,
        -3.72632705e-02,  3.22203845e-01, -3.96187186e-01,
         1.44391283e-01,  3.21222931e-01,  2.11001724e-01],
       [ 5.49140722e-02, -2.96800677e-02, -2.29792553e-03,
        -1.94452927e-01, -3.02535146e-01, -3.45152199e-01,
         5.93948886e-02, -2.45622188e-01, -2.85083354e-01,
        -2.53727108e-01,  2.46846423e-01,  2.37236917e-02,
        -1.86217159e-01,  5.52215219e-01, -3.50226969e-01,
        -1.40806854e-01,  3.93101275e-01, -4.81351525e-01,
        -2.79401779e-01,  2.28794981e-02,  1.98345110e-01,
         3.14510018e-01,  6.17897846e-02,  1.05767079e-01,
        -1.17500179e-01, -4.58447427e-01, -7.95149878e-02,
        -3.92352164e-01,  6.46119192e-02, -2.80515611e-01],
       [-1.97204933e-01, -1.16504036e-01, -2.02171907e-01,
        -1.74105503e-02, -9.63100716e-02,  1.64071560e-01,
         2.04220667e-01, -7.01796403e-03, -9.05480683e-02,
        -2.37949938e-01, -1.72744781e-01, -1.64924458e-01,
        -5.58788702e-03,  1.00284398e-01, -1.88024178e-01,
        -3.86674970e-01, -3.68174240e-02, -4.34539169e-02,
        -5.77625185e-02,  1.74138471e-01,  1.75418556e-01,
         1.43891513e-01,  2.49312986e-02, -2.93495446e-01,
         3.93458694e-01,  1.42355993e-01,  3.43492627e-01,
         9.33002606e-02,  4.33829963e-01,  8.89885128e-02],
       [-1.29428312e-01, -1.97497651e-01,  3.67401354e-02,
         8.82645771e-02, -1.74562186e-01,  2.19761863e-01,
        -1.40285686e-01,  9.19595137e-02, -2.36376915e-02,
         2.61049531e-02, -2.94055969e-01,  1.12720124e-01,
         3.59589726e-01, -4.41002473e-02,  1.63406581e-01,
         3.96083184e-02, -2.72287995e-01, -1.58062577e-01,
         7.48762637e-02,  2.19927840e-02, -2.82613765e-02,
        -9.15366560e-02, -1.02465987e-01,  2.38679901e-01,
         1.72128037e-01, -7.17503488e-01,  1.74913183e-01,
         1.05955806e-02,  1.02631278e-01,  1.17337905e-01],
       [ 2.01460924e-02,  3.70497227e-01, -1.85700327e-01,
        -1.51475057e-01,  3.66364092e-01,  1.58234268e-01,
         1.61470212e-02, -1.80384979e-01,  1.49578512e-01,
         4.26252633e-01, -1.85104698e-01,  2.26421729e-01,
         1.56369090e-01, -9.08990860e-01, -1.25410736e-01,
         2.24306718e-01, -1.32341862e-01,  4.30448294e-01,
         6.66007698e-02,  2.00218782e-01, -2.92180985e-01,
        -1.02533177e-01, -1.46985203e-01,  3.68553065e-02,
        -3.44651163e-01,  1.93374589e-01,  1.44609064e-01,
        -2.66802292e-02, -8.54201093e-02, -3.85188758e-01],
       [ 8.85129422e-02,  3.21693532e-03, -1.44454718e-01,
        -1.17073290e-01,  2.17297688e-01,  2.39612445e-01,
         4.84567657e-02, -2.56506234e-01, -3.13288361e-01,
         7.76423961e-02,  1.36394769e-01, -2.18845934e-01,
        -3.77816856e-02, -1.33522600e-01, -1.22680580e-02,
        -1.07164569e-01,  3.23135167e-01, -2.71940846e-02,
        -6.90229535e-02, -1.75279364e-01,  1.22364998e-01,
         6.24703206e-02,  1.95429966e-01, -2.93218866e-02,
        -2.51273781e-01, -3.79456609e-01, -1.71643615e-01,
         1.26004992e-02,  5.46393543e-02,  2.23525494e-01],
       [ 6.03902861e-02, -1.83026623e-02,  2.57953286e-01,
         1.01264313e-01,  9.07282531e-02, -6.35118261e-02,
        -3.80215079e-01, -1.86657548e-01, -1.14731774e-01,
         1.92922160e-01, -7.48319775e-02, -2.04538435e-01,
        -9.78914052e-02,  4.69827294e-01,  1.55532360e-01,
         2.13187754e-01,  1.02654226e-01, -1.83468938e-01,
         1.54568896e-01, -2.40910426e-01, -3.23002517e-01,
         2.21559122e-01,  8.60093161e-02,  1.59631714e-01,
        -1.47905782e-01, -3.73697162e-01,  1.44443572e-01,
         6.09784536e-02, -4.52540934e-01, -1.70611948e-01],
       [ 9.45446640e-02,  4.64094616e-02, -1.07341342e-01,
        -1.20040528e-01,  1.16405211e-01,  1.29644023e-02,
        -2.46769592e-01, -1.30273417e-01, -8.24683607e-02,
         1.38351217e-01,  3.15891951e-01, -1.35966569e-01,
        -1.46959916e-01, -1.99042168e-02, -5.53640351e-02,
         5.62498439e-03,  2.59153284e-02, -1.68670148e-01,
         3.56947124e-01, -1.64296404e-01, -9.03835446e-02,
        -6.39947355e-02,  1.30369440e-01,  1.78540081e-01,
         2.03581918e-02,  4.63498414e-01,  1.20341279e-01,
         1.87340870e-01, -3.72867107e-01, -1.70441568e-01],
       [-6.73569441e-02, -1.93688974e-01, -8.53041351e-01,
        -3.51574779e-01,  2.53313690e-01, -9.51773673e-02,
         8.70289728e-02,  9.81407333e-03,  7.46403337e-02,
        -1.57811999e-01, -8.18728730e-02, -4.72020023e-02,
         2.32914329e-01,  4.61852014e-01, -1.81450844e-02,
         1.20537445e-01, -8.10932927e-03, -3.99170995e-01,
         8.77515197e-01, -1.92162376e-02, -9.82419103e-02,
         4.02924597e-01,  2.19876301e-02, -5.99119626e-02,
        -1.24763079e-01, -3.48138481e-01, -2.87914246e-01,
         1.24704890e-01, -1.46382526e-01, -2.62531400e-01],
       [-3.12260747e-01, -1.82511076e-01, -2.58368671e-01,
        -7.29168281e-02, -9.74092912e-03, -2.36382127e-01,
        -1.54068368e-02, -7.31898025e-02,  2.43902862e-01,
        -9.82096121e-02, -6.82471022e-02, -8.95852149e-02,
        -2.33447537e-01,  8.13971609e-02, -2.59559095e-01,
        -5.39127827e-01,  3.67597044e-02, -2.47849137e-01,
        -3.30278844e-01,  5.07843316e-01,  4.20442760e-01,
        -1.13647811e-01, -3.62712666e-02, -1.50640845e-01,
         5.93244247e-02,  4.21552509e-01, -8.71289670e-02,
        -2.85045326e-01,  4.16568309e-01,  4.33404118e-01],
       [ 4.48292755e-02, -3.15514088e-01,  2.21644759e-01,
         7.46617317e-02,  1.95367932e-01,  7.16233402e-02,
        -3.49604785e-01,  3.87024730e-02,  1.08146602e-02,
         2.28000566e-01,  4.49127465e-01, -1.15389772e-01,
        -8.77788216e-02,  1.82857454e-01, -1.00577556e-01,
        -1.99926034e-01,  2.26161882e-01, -4.58415866e-01,
         2.79816717e-01, -3.02312762e-01, -2.66766220e-01,
         1.80120587e-01,  1.87413126e-01,  1.41719252e-01,
         1.63842335e-01, -1.16222835e+00,  5.96967220e-01,
         2.50829130e-01, -2.06489369e-01, -1.97558463e-01],
       [ 1.10828243e-01, -4.84916896e-01,  1.07872181e-01,
         1.43553361e-01,  7.22496733e-02, -2.76239872e-01,
         4.37504798e-02, -5.22622950e-02, -1.37695253e-01,
        -1.48779288e-01, -6.91907108e-02,  1.42185420e-01,
        -2.11267009e-01,  3.11414432e-02, -2.40572374e-02,
        -5.13532579e-01, -1.88510224e-01, -5.18849075e-01,
        -6.11093760e-01,  2.09471285e-01,  6.52909949e-02,
        -1.18877679e-01, -2.68659621e-01,  4.60059121e-02,
         7.65186548e-02, -1.45078123e-01, -2.76780844e-01,
        -3.57643701e-02,  5.25515795e-01, -2.49931827e-01],
       [-2.64959872e-01, -1.45446196e-01,  7.15830848e-02,
         2.19932180e-02,  5.38022220e-02,  3.65017541e-02,
        -2.03217998e-01, -4.95119989e-02,  1.11090302e-01,
        -2.80598402e-01,  3.37682277e-01,  2.14443907e-01,
        -1.38058558e-01,  4.13824856e-01,  1.62280515e-01,
         2.66438033e-02,  2.15972483e-01, -1.48529232e-01,
         9.16076228e-02, -3.43120247e-01, -2.02775016e-01,
         1.11097597e-01,  3.64631005e-02,  2.95808256e-01,
        -4.82641980e-02,  2.51645446e-01,  2.85444826e-01,
         9.93321985e-02, -2.97487199e-01,  7.47603774e-02],
       [ 1.83878213e-01, -1.26222759e-01,  1.28171876e-01,
         3.53286192e-02, -1.29967825e-02, -1.99990571e-01,
         2.01810494e-01,  2.46130645e-01,  1.71854585e-01,
         2.81482279e-01, -1.09012369e-02,  1.89429089e-01,
        -1.71321794e-01, -9.19215381e-01,  1.59447089e-01,
        -1.05606832e-01,  1.32450864e-01,  1.93180829e-01,
        -2.41359070e-01,  1.30888194e-01, -7.28625432e-02,
         1.15222089e-01,  1.43786550e-01,  2.12858662e-01,
         5.00522926e-02, -1.51274443e-01, -1.77783489e-01,
         2.28020534e-01,  2.10169882e-01, -4.13974784e-02],
       [-1.06419183e-01, -1.95227847e-01, -2.43215621e-01,
         5.73300272e-02, -3.90503742e-02,  4.85681817e-02,
        -1.20648995e-01,  1.45072863e-02, -3.36857187e-03,
         1.03449643e-01, -2.90705413e-01,  2.22597182e-01,
         2.29448900e-01,  1.02612160e-01,  1.78594649e-01,
         1.43108815e-01, -3.81142229e-01, -1.99610859e-01,
         1.58986822e-01,  1.49810717e-01,  1.11772649e-01,
        -1.81447700e-01, -5.60404286e-02, -2.64153868e-01,
         1.06164478e-01, -6.57136977e-01,  2.62357622e-01,
        -4.33789231e-02, -1.61211062e-02, -3.13128941e-02],
       [ 3.81482840e-02, -8.19684565e-02, -4.44338797e-03,
        -2.31763616e-01,  2.50685774e-02, -1.03513040e-01,
         3.17041665e-01,  2.23128229e-01,  1.61563545e-01,
         1.98657244e-01, -4.48983788e-01,  3.83876674e-02,
        -2.29314521e-01, -4.87045407e-01, -3.72253925e-01,
        -3.07672173e-01,  1.33047709e-02,  3.31516325e-01,
        -2.31019229e-01,  4.32922959e-01,  2.22408175e-01,
         1.08184312e-02,  5.82159646e-02, -5.96825033e-02,
         1.64530158e-01,  2.05820277e-01, -1.87625289e-01,
        -2.41606752e-03,  2.60911256e-01,  5.69349043e-02],
       [ 1.69443786e-01,  1.67526037e-01, -7.64789293e-03,
        -1.82427809e-01, -1.60875022e-01,  3.84361595e-01,
         7.41269439e-02,  2.66769946e-01,  1.06871612e-01,
         1.65087804e-01, -1.02556147e-01,  9.64438990e-02,
        -3.20919722e-01,  6.84975088e-02, -2.79329062e-01,
         1.61880508e-01,  1.13710351e-01,  4.85273898e-01,
         5.01169544e-03,  2.03867227e-01,  4.51434463e-01,
        -4.02813435e-01,  8.41947943e-02,  8.54104571e-03,
         1.53638065e-01,  8.38346958e-01,  5.29888202e-04,
        -1.26257390e-01,  3.60824853e-01, -1.47257626e-01],
       [ 4.03621569e-02,  2.40964830e-01, -1.40856892e-01,
        -2.67618746e-01, -7.82785416e-02, -8.16531479e-02,
        -1.27197921e-01, -4.56839800e-02, -7.79164210e-02,
         2.18145221e-01, -1.29731372e-01,  1.53693035e-01,
        -2.89902806e-01,  1.60653502e-01, -4.48230915e-02,
         1.19016141e-01, -1.11381613e-01, -5.83521366e-01,
         7.69752339e-02,  6.12122193e-02, -1.45883799e-01,
         3.93649995e-01, -2.34542564e-01, -1.08388392e-02,
        -1.89782288e-02, -9.69670594e-01,  7.19311357e-01,
        -1.35599837e-01, -3.24791729e-01, -3.86114679e-02],
       [-1.17093861e-01, -9.97212678e-02,  6.19538650e-02,
        -3.81852537e-01,  4.42573503e-02, -4.76239324e-02,
         1.73477054e-01,  1.30940259e-01, -1.85985550e-01,
        -7.86166787e-02, -1.56760350e-01,  3.13652039e-01,
        -4.01816219e-01,  4.88818198e-01, -1.94916174e-01,
         2.41500080e-01,  2.53732540e-02,  6.52700886e-02,
        -3.71561311e-02, -1.71456456e-01, -2.98748404e-01,
         2.83466369e-01,  7.79952556e-02, -1.95781514e-01,
        -1.43576488e-01, -9.17061508e-01,  1.57510966e-01,
         1.64238811e-01, -2.27895394e-01,  1.10153615e-01],
       [ 8.24115649e-02,  1.37082100e-01,  8.41985792e-02,
        -3.22727978e-01, -3.58962208e-01, -4.81663793e-02,
         1.17467493e-02, -2.39389464e-01, -1.71109453e-01,
         2.44366288e-01, -1.84427842e-01, -9.81952250e-02,
        -8.33404958e-02,  3.11432332e-01, -1.74491957e-01,
         2.12339610e-01,  1.04179531e-02, -2.52754509e-01,
         5.10699511e-01, -4.97586370e-01, -1.19731724e-01,
        -1.91558171e-02,  6.62854984e-02, -1.22294858e-01,
        -8.35041553e-02, -2.06445698e-02,  6.70013428e-01,
        -2.61379685e-02, -3.36327195e-01, -1.88340694e-01],
       [ 1.90633237e-01, -1.62621737e-01,  3.50699818e-04,
         3.08023006e-01,  1.58729404e-01,  8.35894719e-02,
         1.58138399e-03, -1.30000427e-01, -4.17408556e-01,
         4.18186218e-01, -4.13078591e-02,  1.46817580e-01,
         7.58634061e-02,  4.23955888e-01,  2.31958598e-01,
         1.78860128e-01, -1.19711988e-01, -2.71895081e-01,
         2.09085599e-01, -1.31451920e-01, -1.90309379e-02,
         2.40341648e-01,  1.30012438e-01,  2.04855695e-01,
         1.84120703e-02, -2.84405053e-01,  2.02135384e-01,
        -2.00875461e-01,  3.48654129e-02, -2.57314858e-03],
       [-6.16332283e-03, -3.97995889e-01,  8.23995247e-02,
         1.28150016e-01,  2.04486683e-01, -2.20270250e-02,
         7.94172585e-02, -2.83204734e-01,  3.57896239e-02,
        -1.20225184e-01,  4.18025285e-01, -1.06902108e-01,
        -3.04601580e-01,  2.54948139e-01, -1.13957688e-01,
         1.02122173e-01,  2.00886384e-01, -2.35700428e-01,
        -2.65572727e-01, -9.84370261e-02,  4.18734960e-02,
         2.83248574e-01,  6.58001006e-02, -1.82124287e-01,
        -6.34097084e-02, -7.07936406e-01,  1.74492881e-01,
        -8.73204917e-02, -1.27779037e-01, -1.29703015e-01],
       [ 2.30096523e-02,  1.91683859e-01, -9.65066850e-02,
         4.63920319e-03,  1.62163049e-01,  2.19494805e-01,
         3.35327297e-01, -3.05150270e-01,  1.36296198e-01,
        -1.38092697e-01, -1.67108372e-01, -2.21173123e-01,
         1.61523879e-01, -4.23064977e-01, -1.25677496e-01,
         1.21000119e-01,  2.71428674e-01, -3.75115097e-01,
        -2.17231393e-01, -2.17133954e-01,  6.90198541e-02,
        -1.64616734e-01,  6.76957220e-02,  4.42549996e-02,
         8.43538418e-02, -1.24147058e-01, -1.49998039e-01,
         5.31787425e-02,  1.01468168e-01,  4.29934442e-01],
       [ 1.45244241e-01,  1.04416631e-01,  8.36403668e-02,
         1.84761345e-01,  1.39033213e-01,  1.68055028e-01,
        -1.66849405e-01,  2.28865340e-01,  1.17181063e-01,
        -2.14647174e-01, -5.17004021e-02,  1.93953484e-01,
        -2.60667633e-02, -1.52819291e-01,  7.63781443e-02,
        -6.92187026e-02, -1.42935783e-01,  1.50156245e-01,
         3.05977259e-02, -1.47615373e-02,  1.98209509e-01,
         8.12595710e-02,  2.20941812e-01, -1.91935197e-01,
         4.32566032e-02,  6.66916788e-01, -4.02295262e-01,
        -1.60192683e-01,  3.96575987e-01, -8.49707425e-03],
       [ 3.40179473e-01,  9.07967463e-02, -8.00535381e-02,
        -1.84127107e-01, -1.22544073e-01, -2.93561280e-01,
        -4.54536751e-02,  9.84362960e-02,  4.28354144e-02,
        -8.45439956e-02, -2.24689916e-01, -1.88734442e-01,
         1.18576512e-01,  3.79788637e-01,  1.17821746e-01,
        -1.10381417e-01, -1.06618509e-01,  8.43615979e-02,
        -5.38067520e-02,  3.01564932e-01,  2.44650111e-01,
        -7.43118152e-02, -9.87300724e-02, -1.27260452e-02,
        -1.26600921e-01, -5.64287841e-01, -1.68312252e-01,
         1.24563389e-01,  1.38193861e-01,  2.66448885e-01],
       [-1.43649146e-01, -7.21728755e-03, -1.26477972e-01,
         7.31406957e-02,  1.47754729e-01,  1.15355477e-01,
         2.24345788e-01,  1.51803404e-01,  1.46975532e-01,
        -2.26945013e-01,  3.35629843e-02,  2.09366128e-01,
         2.54661858e-01, -2.53522098e-01, -8.17794129e-02,
         2.02131882e-01,  6.35817945e-02,  3.91856134e-01,
         1.48934517e-02, -1.14302501e-01, -8.92644152e-02,
        -1.08646020e-01, -7.95835778e-02,  2.15724245e-01,
        -1.26093328e-01,  5.37534356e-01, -5.23019075e-01,
        -3.74388658e-02, -9.60574076e-02, -7.16594160e-02],
       [ 4.82206717e-02,  1.20249443e-01, -2.54077226e-01,
         6.33580908e-02,  2.81782836e-01, -4.18449901e-02,
        -1.15703987e-02,  4.09674086e-02, -3.35131437e-01,
         1.34427056e-01,  1.13470599e-01,  1.11697517e-01,
        -1.14895254e-01,  2.38911837e-01, -1.03111118e-01,
         3.11062485e-01,  3.15852255e-01, -2.29347870e-01,
         3.44149768e-01, -2.03905419e-01, -1.46587566e-01,
        -5.30991256e-02, -2.59731144e-01, -3.77268046e-01,
        -2.05971807e-01, -1.07652299e-01,  3.43396634e-01,
        -4.89032306e-02, -2.56199121e-01, -2.83963352e-01],
       [-5.21222018e-02,  7.19311237e-02, -7.12970132e-03,
         2.70929672e-02, -1.40356898e-01, -1.04779147e-01,
         1.96048751e-01, -5.12582183e-01, -3.94389451e-01,
         6.17116950e-02,  7.90062994e-02, -2.65030921e-01,
        -2.92769670e-01,  5.33036768e-01, -1.77762240e-01,
        -1.10124730e-01,  1.05439164e-01, -2.20358387e-01,
        -3.19121361e-01, -2.43012458e-01, -1.64987043e-01,
         1.29018456e-01,  8.46813321e-02, -1.83966234e-01,
        -3.05910349e-01, -1.08065832e+00,  3.20138812e-01,
        -9.63053331e-02,  7.29495659e-02,  3.75453047e-02],
       [ 6.95940107e-02,  2.12600037e-01, -3.86469841e-01,
        -6.00085109e-02, -1.52840704e-01,  1.08290836e-01,
         1.13000780e-01, -4.12649289e-02, -1.97362378e-01,
        -1.22031473e-01,  2.13917717e-01,  4.16933410e-02,
         5.36175221e-02, -2.60334134e-01, -3.28579187e-01,
         1.20987132e-01, -4.32709046e-02,  3.46650779e-01,
        -2.20254526e-01, -2.10218243e-02,  1.45210400e-01,
        -3.12715054e-01, -1.03448167e-01, -5.86072132e-02,
         1.87241957e-02,  3.95350128e-01, -1.72054842e-01,
         9.41647291e-02, -4.60319547e-03,  2.40701854e-01],
       [ 9.44259614e-02,  2.32289314e-01,  9.85857546e-02,
        -1.75114945e-01, -1.62426487e-01,  1.97935700e-02,
        -1.50473103e-01, -1.69236269e-02,  3.06349993e-02,
        -1.88777391e-02,  2.48470932e-01,  2.77428538e-01,
         1.49796546e-01,  5.25583327e-01,  2.08981991e-01,
         4.18602049e-01, -1.16358913e-01, -9.04654041e-02,
         5.10655949e-03,  1.15755051e-01, -3.25736076e-01,
        -2.43444204e-01, -3.25592250e-01,  3.57493192e-01,
        -1.14017271e-01,  3.00987631e-01,  3.19311261e-01,
         2.18504220e-01, -1.33819759e-01, -3.96908730e-01]], dtype=float32), array([[ 4.33466405e-01],
       [-3.39772940e-01],
       [ 1.01375468e-01],
       [ 5.07746339e-01],
       [ 2.51668036e-01],
       [ 1.20008610e-01],
       [-6.03180707e-01],
       [ 2.32274905e-01],
       [ 5.68422914e-01],
       [ 2.98250526e-01],
       [-2.83644646e-01],
       [ 1.96310103e-01],
       [ 5.04718125e-01],
       [-2.74195760e-01],
       [ 4.24904197e-01],
       [ 2.05043569e-01],
       [-8.99070054e-02],
       [-5.53491294e-01],
       [ 2.71419197e-01],
       [-4.03707802e-01],
       [-2.81585753e-01],
       [-2.56356627e-01],
       [ 3.08078714e-04],
       [ 3.60115618e-01],
       [-1.32500231e-01],
       [ 2.39188224e-01],
       [ 1.04005702e-01],
       [ 3.13020796e-02],
       [ 1.10589445e-01],
       [-3.67855489e-01]], dtype=float32)]


Weights_h:
[array([[-0.16667257, -0.14098442, -0.3371081 , -0.2938103 ,  0.31038827,
        -0.14485466, -0.39948893, -0.19172153, -0.07195195, -0.13461772,
        -0.06295788, -0.0570878 , -0.37470177,  0.04423603,  0.04003348,
        -0.25131515, -0.01828348, -0.00286655,  0.1424687 , -0.13803023,
        -0.14099388, -0.21372865,  0.06265498,  0.15111043,  0.0637881 ,
        -0.3842567 ,  0.0814514 ,  0.18488625,  0.27293012, -0.33196145,
         0.08002225,  0.00258938],
       [-0.1605048 ,  0.02642943,  0.36064792, -0.17233297,  0.07286545,
        -0.02350812, -0.2233314 ,  0.0720048 , -0.2646986 ,  0.23810387,
         0.13817751,  0.10486013, -0.06275598,  0.26177916, -0.09759831,
        -0.06965747, -0.13328612, -0.18019493,  0.40985096,  0.26168475,
        -0.14401527, -0.06207142,  0.0236031 ,  0.2072142 , -0.16891477,
        -0.20640516, -0.25395337, -0.0079886 ,  0.25706634,  0.28898326,
         0.06174295, -0.2862478 ]], dtype=float32), array([[-0.07952387,  0.05601887, -0.08114199, ...,  0.11496942,
         0.19842498, -0.15626514],
       [ 0.11576866, -0.10636358, -0.08431379, ..., -0.00401743,
        -0.11238188,  0.06086915],
       [ 0.01921429,  0.01835847,  0.02887561, ...,  0.02435638,
        -0.22979145,  0.02017415],
       ...,
       [-0.05570672, -0.10275162, -0.1165124 , ...,  0.08928961,
        -0.09025579,  0.02382337],
       [-0.06906956,  0.09112208, -0.25459448, ...,  0.24982288,
         0.1087403 ,  0.22040321],
       [-0.07558201, -0.06508206, -0.0545749 , ..., -0.08113257,
         0.29554686, -0.03057962]], dtype=float32), array([[ 0.02318055,  0.05314887, -0.04771667, ..., -0.01551351,
         0.00785696, -0.03070415],
       [ 0.13580392,  0.05563123,  0.20735967, ...,  0.16661893,
        -0.12942342, -0.31691745],
       [-0.26552325,  0.00763791, -0.16814883, ...,  0.02892022,
        -0.08468611, -0.1496304 ],
       ...,
       [ 0.04030946,  0.2339986 , -0.03834747, ...,  0.34941235,
         0.0725353 , -0.12587303],
       [-0.12964258, -0.23612624,  0.04492943, ..., -0.20143577,
         0.05992046, -0.15391302],
       [ 0.05161038,  0.11051093,  0.05691123, ...,  0.07618581,
         0.08538087,  0.20506121]], dtype=float32), array([[ 0.0320239 ],
       [ 0.4047919 ],
       [ 0.18547758],
       [-0.21642125],
       [ 0.1385907 ],
       [ 0.23560646],
       [ 0.01003942],
       [ 0.15534581],
       [-0.34430084],
       [-0.09889951],
       [ 0.16910109],
       [-0.17811348],
       [-0.1813838 ],
       [ 0.04572342],
       [ 0.2650643 ],
       [-0.33143377],
       [-0.05705164],
       [-0.02489571],
       [ 0.06294405],
       [-0.36889884],
       [-0.36486503],
       [-0.12024207],
       [-0.07027923],
       [-0.2844021 ],
       [-0.17836797],
       [ 0.06579563],
       [-0.01477459],
       [ 0.05191774],
       [ 0.03581678],
       [ 0.17893302],
       [-0.01134045],
       [-0.0713635 ]], dtype=float32)]


Weights_c:
[array([[-0.21855539,  0.0859611 ,  0.05785949,  0.03408356, -0.26873392,
        -0.32596388, -0.15043454,  0.05110978,  0.2057415 ,  0.1840395 ,
         0.15383962,  0.06026912, -0.09147272,  0.21124363,  0.33002204,
         0.34283423, -0.17870584,  0.01213983, -0.12984097, -0.04075257,
        -0.1937536 ,  0.13131702,  0.16435657, -0.40805823,  0.24011712,
        -0.45250282, -0.33970827,  0.3708952 , -0.09278612, -0.01306805,
         0.22326714,  0.10213867],
       [ 0.11809128, -0.0710515 ,  0.2212445 ,  0.2186606 , -0.13785253,
        -0.2892435 ,  0.30449   , -0.16764356, -0.440934  ,  0.2386299 ,
        -0.07764255, -0.45592225, -0.02357369, -0.32781643,  0.2455445 ,
        -0.3175778 ,  0.16144939, -0.1766583 , -0.08357299,  0.1619325 ,
        -0.26791215, -0.20170535,  0.15934452,  0.0870991 , -0.47853336,
        -0.33869752,  0.04722012,  0.17251417, -0.3157648 ,  0.15438317,
         0.07247742,  0.05817201]], dtype=float32), array([[-0.24019612,  0.0827605 ,  0.01939048, ..., -0.12124392,
         0.18913004,  0.11859066],
       [ 0.05264084, -0.30364797, -0.01070906, ..., -0.12660529,
         0.12226996, -0.25589588],
       [-0.11217719, -0.03921169,  0.0298625 , ...,  0.05651135,
         0.32999423,  0.18216631],
       ...,
       [ 0.26271546,  0.03622009, -0.16955745, ..., -0.1253519 ,
        -0.3051682 , -0.3070884 ],
       [ 0.20045432, -0.04249988,  0.1049904 , ...,  0.08221284,
        -0.28102383,  0.1154396 ],
       [-0.23891878, -0.00117731, -0.24787971, ..., -0.10705197,
         0.08746094, -0.10448793]], dtype=float32), array([[ 0.17363116, -0.12426404, -0.17871502, ..., -0.19528589,
         0.10295632,  0.16921656],
       [ 0.12246761,  0.2982503 , -0.11576544, ..., -0.23412669,
        -0.32905295, -0.05344482],
       [-0.04027465,  0.1161852 ,  0.22676595, ...,  0.17424907,
        -0.11921091, -0.10175683],
       ...,
       [-0.06329535, -0.00970055, -0.19573528, ...,  0.01615715,
         0.08141179, -0.20318405],
       [ 0.01822933, -0.25670868, -0.0882322 , ...,  0.02180021,
         0.22569056, -0.26289797],
       [ 0.07283358, -0.02597342,  0.2827217 , ...,  0.15197377,
         0.18653478, -0.09254892]], dtype=float32), array([[-0.04721677],
       [-0.31539735],
       [-0.21153095],
       [-0.05498205],
       [ 0.01665216],
       [-0.30080187],
       [ 0.19519201],
       [ 0.07675136],
       [-0.23347901],
       [ 0.21684225],
       [-0.13655867],
       [-0.11660205],
       [ 0.04123694],
       [-0.2378426 ],
       [ 0.34194967],
       [-0.08872461],
       [ 0.03502812],
       [ 0.04867774],
       [-0.01781973],
       [ 0.30306286],
       [-0.14985946],
       [ 0.1092234 ],
       [-0.37867755],
       [-0.02122351],
       [-0.05504847],
       [-0.11220027],
       [-0.19101469],
       [ 0.02976434],
       [-0.07292032],
       [ 0.15512271],
       [-0.32558522],
       [ 0.26215994]], dtype=float32)]


Weights_k:
[array([[ 0.17990407,  1.1824338 ,  0.169086  , -0.4952163 ,  0.42096174,
        -0.61490697, -0.4092703 , -0.7219954 , -0.32013556,  0.7939384 ,
        -0.36836013,  0.14642964, -0.71313196,  0.18858601,  0.8387448 ,
        -0.28048226, -0.07676362, -0.02570862, -0.15777482, -0.019458  ,
        -0.28621596, -0.512968  ,  0.12311834,  1.2790649 , -0.19710374,
         0.12696284,  0.68847334,  0.4306547 , -0.5691019 , -0.8581716 ],
       [ 0.03714393, -0.25620857, -0.44413918, -0.33088607,  0.19631617,
         0.3235224 ,  0.6114836 ,  0.01321838, -0.23871583, -0.57186484,
        -0.5808681 ,  0.37039104, -0.34159276, -0.55112505, -0.49608383,
         0.71485907,  0.95493317,  0.01876337,  0.7200617 , -0.22115266,
        -0.55788785, -0.17994988,  0.4097881 ,  0.24981406,  0.33052802,
         0.597582  , -0.22586334,  0.08577296, -0.7378334 ,  0.63383317]],
      dtype=float32), array([[-4.64755505e-01, -5.16740382e-02,  1.07648015e-01,
        -1.41821146e-01, -3.30663860e-01, -1.37331128e-01,
        -1.83519840e-01, -2.51119226e-01, -2.60694213e-02,
        -5.83202988e-02, -3.62024069e-01, -6.86652958e-02,
        -1.22302786e-01,  5.32626994e-02, -4.19449568e-01,
        -8.04334134e-02,  1.52107105e-01, -2.27280140e-01,
         4.36966568e-01, -1.31659973e-02, -1.83356211e-01,
        -4.09488022e-01, -5.90812825e-02,  1.18003778e-01,
         2.56697182e-02,  8.80348757e-02,  7.95947194e-01,
         1.30832801e-03, -1.02694400e-01, -2.69681901e-01],
       [-2.90844381e-01,  5.94153963e-02, -8.44556332e-01,
         1.59819603e+00,  3.89924854e-01, -3.45950216e-01,
        -4.50074881e-01,  4.45470661e-01, -1.60127789e-01,
         2.65661448e-01, -2.34905317e-01,  3.26735765e-01,
        -3.81930247e-02, -1.26697063e-01, -2.81642586e-01,
        -3.57449502e-02, -1.41874373e-01, -1.73586369e-01,
         9.64417234e-02, -4.86020565e-01,  1.37437046e-01,
        -5.11107981e-01, -1.87444448e-01, -1.01692334e-01,
        -3.78855884e-01,  1.35278508e-01,  3.59634578e-01,
         5.56225665e-02,  6.77927732e-02,  5.07642999e-02],
       [ 3.16668808e-01, -1.53521374e-01, -1.83991298e-01,
         4.34106559e-01,  3.99684936e-01,  3.77338529e-01,
        -9.73896757e-02,  2.02758506e-01,  2.09273025e-01,
        -4.71721999e-02,  2.89793611e-01, -1.14636971e-02,
        -3.65642868e-02, -1.52922142e-02,  4.89941359e-01,
        -2.34678745e-01,  2.78961003e-01,  2.74079621e-01,
        -1.96885288e-01, -2.56521195e-01,  8.14618617e-02,
         9.61490989e-01,  1.23598039e-01, -5.31155616e-02,
         2.78970867e-01, -1.91070791e-02, -3.36527288e-01,
        -1.79970637e-01,  1.60065636e-01, -2.73518354e-01],
       [ 2.04983175e-01, -1.94825619e-01,  2.25981817e-01,
        -4.55809385e-01, -3.12677249e-02,  3.82350743e-01,
        -4.53327596e-02, -1.76409408e-01,  3.71724010e-01,
        -2.56351858e-01, -9.45020244e-02,  7.70281479e-02,
         2.57267635e-02, -3.01604092e-01,  4.45686102e-01,
         3.71882737e-01, -5.95206358e-02,  3.35086465e-01,
         2.25417763e-02, -1.43488154e-01,  6.74097538e-02,
         4.74474370e-01, -5.32811821e-01, -2.02989101e-01,
         9.55461264e-02, -7.92993680e-02, -4.46519852e-01,
         2.65733123e-01, -2.06176072e-01,  3.93414110e-01],
       [-3.52598399e-01,  1.82832286e-01, -1.16899066e-01,
         2.03549609e-01, -1.05928741e-01, -3.17366391e-01,
        -1.62403807e-01, -5.02148449e-01, -2.25274548e-01,
        -3.85996521e-01, -4.78211999e-01, -1.10793203e-01,
         1.50569707e-01,  8.15742090e-02, -3.25149000e-01,
        -7.99407810e-02,  1.23031750e-01, -2.68433273e-01,
         5.03017865e-02,  2.03003064e-01, -1.91752501e-02,
        -5.50696671e-01,  2.69484967e-01,  7.18317032e-02,
         2.08748445e-01,  1.97747350e-02,  8.23556662e-01,
        -4.84387912e-02,  1.92918435e-01, -1.35172278e-01],
       [ 5.84234774e-01,  1.76644117e-01,  6.81196332e-01,
        -8.90013218e-01, -1.21823534e-01,  5.33275127e-01,
         4.14555818e-01,  1.80663653e-02,  8.56966525e-03,
        -9.10831466e-02,  1.57342460e-02, -8.50082189e-03,
         1.59489989e-01,  6.71482980e-02,  1.78191170e-01,
         1.69673804e-02, -4.92933057e-02,  2.97604352e-01,
        -1.53561607e-01,  9.51525643e-02, -2.97735743e-02,
         3.40741247e-01, -1.15121968e-01, -1.10782929e-01,
         3.01784519e-02, -3.82903852e-02, -3.76045287e-01,
         1.02190726e-01,  2.14764759e-01,  3.11101109e-01],
       [ 4.76881295e-01,  2.30624271e-03,  6.12809479e-01,
        -6.20294809e-01, -1.17511898e-01,  3.16784024e-01,
         2.25539923e-01, -6.66156411e-01,  3.45541909e-02,
         1.46615669e-01,  7.55247235e-01,  4.04453576e-02,
         8.53589997e-02,  3.14055197e-02, -1.22103222e-01,
        -3.90356965e-02,  1.50040174e-02,  6.28817007e-02,
         2.23169252e-01,  7.51545727e-01, -3.62621993e-01,
         2.55154192e-01, -1.30145829e-02,  1.57613102e-02,
         1.74438134e-01, -1.76972941e-01, -3.72005701e-01,
         3.47750336e-01,  1.60312369e-01,  1.70139894e-01],
       [ 5.93998991e-02,  2.18024269e-01,  4.62279826e-01,
        -3.88209343e-01,  2.05057442e-01,  4.57392514e-01,
        -7.26740360e-02, -3.16005439e-01,  1.08012125e-01,
         1.75168477e-02,  4.27693844e-01, -1.09735973e-01,
        -7.33587220e-02, -1.24847241e-01,  2.25232244e-01,
         1.23579100e-01, -1.35227770e-01,  3.93321484e-01,
         1.14295714e-01, -5.76075539e-02,  1.58460170e-01,
         4.39002901e-01, -1.41182438e-01,  1.10704996e-01,
         1.29459307e-01, -7.22645670e-02, -3.93813163e-01,
        -3.45417075e-02, -1.34914741e-01,  1.07647918e-01],
       [ 5.57036579e-01,  1.53165057e-01, -2.31806666e-01,
         1.95533723e-01,  3.99385452e-01,  2.51566201e-01,
         3.46942335e-01,  3.65351915e-01,  2.97700107e-01,
         8.63955542e-02,  1.28480420e-01, -1.90564066e-01,
         1.69338789e-02, -3.48444432e-02, -1.46043077e-01,
        -2.59702086e-01, -1.07453287e-01,  2.85459071e-01,
        -3.72354947e-02, -3.57816428e-01,  7.65420273e-02,
         8.80703986e-01, -5.41114360e-02, -3.62503678e-01,
        -2.39577338e-01,  1.03284210e-01, -2.42022291e-01,
         2.26256013e-01, -2.12241858e-01,  1.86018765e-01],
       [-7.51332402e-01, -1.48702897e-02, -6.00932956e-01,
         8.88183247e-03, -9.19382200e-02, -6.88557565e-01,
        -9.31440070e-02,  7.83449650e-01, -1.37994722e-01,
         1.05786629e-01, -3.92563313e-01, -2.41317779e-01,
         1.97698057e-01,  4.98205245e-01, -8.10651183e-02,
        -3.74401957e-02,  7.49632865e-02, -2.75777400e-01,
         2.63469249e-01, -4.66802120e-01,  4.27889705e-01,
        -5.96759953e-02, -2.17638314e-01,  1.18853867e-01,
        -2.12367907e-01,  2.98187822e-01,  6.50441885e-01,
        -3.08871001e-01,  1.72414899e-01, -8.96949619e-02],
       [ 8.45221952e-02, -7.75240511e-02,  9.10879374e-02,
        -1.65073812e-01,  1.50477678e-01,  2.15542823e-01,
         1.49266437e-01, -3.78784351e-02, -4.48410213e-02,
         1.24307349e-02,  2.34232888e-01,  2.82044888e-01,
        -5.07463813e-01, -1.11917324e-01,  5.99523962e-01,
        -3.15963060e-01,  1.80655736e-02,  8.17619488e-02,
        -2.64962882e-01, -6.04772449e-01, -2.98196580e-02,
         3.80170703e-01, -4.27615941e-02, -4.17363524e-01,
         5.46953380e-02,  3.87209244e-02, -7.40241468e-01,
         1.24995157e-01, -6.49634749e-02,  5.07365912e-02],
       [ 5.98758347e-02, -7.08677294e-03,  1.17408685e-01,
         3.13658826e-02, -3.11669230e-01, -6.10094331e-02,
        -2.64127672e-01, -4.18146044e-01,  1.22780599e-01,
        -1.78480625e-01,  1.42536521e-01,  1.89745128e-02,
         1.14082582e-01, -1.04195893e-01, -3.53692323e-01,
         9.97865796e-02, -8.98048207e-02,  1.34680003e-01,
        -2.93566268e-02,  9.16789293e-01,  1.56375617e-01,
        -3.17319214e-01,  4.87650841e-01, -1.60625279e-02,
         2.14295894e-01, -5.18001132e-02,  3.08745712e-01,
         2.99930751e-01, -2.02643201e-01,  1.57723539e-02],
       [ 6.88939691e-02, -2.35369116e-01,  6.98480129e-01,
        -1.04352379e+00, -1.99163589e-03, -1.25484928e-01,
         3.62428159e-01, -2.37861708e-01,  2.07814485e-01,
         3.24151099e-01,  2.41554350e-01, -3.03668052e-01,
        -3.37110847e-01,  3.39820050e-02,  5.85768044e-01,
         2.18722552e-01, -2.94321209e-01, -1.85608894e-01,
        -9.80971009e-02, -2.01547518e-01,  2.08025780e-02,
         4.61117774e-01, -3.67364675e-01,  1.18547343e-01,
         1.53180808e-01, -1.64034426e-01, -2.11319894e-01,
         1.28314048e-01,  1.57271668e-01,  9.57490578e-02],
       [-5.26594937e-01,  5.12734428e-02, -3.19091022e-01,
         4.74970996e-01,  2.80569583e-01,  2.90745143e-02,
        -1.44683570e-01,  6.99678600e-01,  1.51746511e-01,
        -1.99874863e-01, -4.51164305e-01,  9.67097469e-03,
        -3.86151969e-01,  2.17679068e-01,  2.42549852e-02,
        -5.85865229e-02, -2.73317154e-02, -7.80593827e-02,
         2.55905632e-02, -5.22244334e-01,  3.24229658e-01,
        -3.15576762e-01, -4.35760498e-01, -3.00001264e-01,
        -1.82913586e-01, -1.71133548e-01, -9.73243415e-02,
        -1.18104778e-01, -3.13094445e-02, -4.08772409e-01],
       [-7.01394737e-01, -1.95350125e-01, -3.31269987e-02,
        -1.77030787e-02,  1.84537191e-02, -5.70817053e-01,
         2.61440307e-01,  4.62836027e-01, -3.17388356e-01,
        -1.99388862e-01, -8.05018008e-01, -3.03869605e-01,
         1.86086535e-01,  2.34654024e-01, -8.49320292e-02,
        -2.11287990e-01, -1.13843858e-01, -8.83035958e-02,
         8.08216408e-02,  5.16133234e-02,  2.08489165e-01,
        -4.21788394e-01,  2.10569687e-02,  2.60374755e-01,
        -1.09050289e-01,  1.29995421e-01,  4.91383284e-01,
        -3.00293807e-02,  3.64085853e-01, -1.40846729e-01],
       [ 4.74623479e-02, -2.10472077e-01,  5.17958939e-01,
        -2.13925987e-01,  2.59851485e-01,  1.54584974e-01,
        -5.62598631e-02, -5.14727354e-01,  1.49355084e-01,
         1.15222216e-01,  5.31228423e-01,  1.78170070e-01,
         2.26875171e-01,  1.08221725e-01, -5.10061793e-02,
        -1.13917060e-01, -1.06630154e-01,  7.43356720e-02,
         1.34600839e-02,  4.52167898e-01, -3.66695404e-01,
         1.66029304e-01,  1.03343867e-01, -4.28988673e-02,
         9.43330899e-02, -2.90267557e-01,  1.82783268e-02,
        -8.56757089e-02,  1.18343858e-02,  1.94317941e-02],
       [-9.37892646e-02,  4.20647293e-01,  4.43223953e-01,
        -6.06682062e-01, -4.88423586e-01, -1.16235971e-01,
         2.02635944e-01, -7.29953408e-01, -4.72001731e-02,
         4.80932072e-02, -6.77905530e-02,  2.74611980e-01,
         2.64911771e-01,  1.63638264e-01,  2.52102036e-02,
         7.55092949e-02,  1.08038243e-02, -3.59435469e-01,
         2.01941982e-01,  8.00194144e-01, -3.82294148e-01,
        -7.30837226e-01,  3.33052903e-01,  1.41516924e-01,
        -5.17640710e-02, -2.49783456e-01, -2.66804487e-01,
         1.00658052e-01, -1.15960762e-01, -1.42226130e-01],
       [ 2.49688551e-01, -2.59772271e-01, -3.55859939e-03,
         1.93792790e-01,  4.00910199e-01,  1.52198821e-01,
         4.04368080e-02, -5.03461242e-01,  4.44339179e-02,
         1.23318039e-01,  3.53205323e-01,  2.34067634e-01,
         9.87083688e-02, -3.28206778e-01, -2.25704268e-01,
        -4.37296741e-02, -1.34900466e-01,  9.60112661e-02,
        -3.67663741e-01,  1.28290355e-01,  4.72436771e-02,
         4.87117618e-01, -1.85051396e-01, -1.27614647e-01,
         2.34029852e-02,  2.07781523e-01,  1.42292678e-01,
         2.14550182e-01, -7.60155618e-02,  5.25728092e-02],
       [ 2.58543283e-01,  1.59638703e-01,  2.57716477e-01,
        -2.85241455e-01, -3.09300646e-02,  1.78492546e-01,
         2.22007576e-02, -5.47382057e-01,  1.70461088e-02,
        -1.26725852e-01,  1.45464465e-01,  1.97019354e-01,
         5.56862533e-01, -8.53467640e-03, -5.26590347e-01,
         2.15031326e-01, -1.33941278e-01,  9.17212963e-02,
        -2.03053147e-01,  2.67526537e-01, -5.33378087e-02,
         8.86566341e-02,  2.30928630e-01,  2.89474845e-01,
        -4.00537699e-02,  1.41800985e-01, -1.37446418e-01,
        -1.30043045e-01, -1.30913869e-01,  1.84614897e-01],
       [-1.97390523e-02, -2.40428776e-01,  3.51991435e-03,
        -2.11206302e-02, -1.08492069e-01, -2.69100457e-01,
         3.84954661e-01,  3.72695923e-01,  2.22984806e-01,
        -1.57122537e-01, -5.03712773e-01, -8.37794617e-02,
        -2.74641067e-01, -1.29567936e-01,  3.57654124e-01,
        -1.59336463e-01, -1.31408498e-01, -1.76060840e-01,
         5.77329211e-02, -1.13361711e-02,  7.18150809e-02,
         3.97252649e-01, -9.60260183e-02,  1.99116692e-01,
        -7.37498282e-03, -3.53400081e-01, -8.11337605e-02,
        -2.31911495e-01,  2.52648145e-01,  9.50635150e-02],
       [ 4.49821472e-01,  3.18898298e-02,  2.13039547e-01,
        -6.66667297e-02,  1.02535076e-01,  1.62618160e-01,
         1.00454882e-01,  3.88481408e-01, -7.13228136e-02,
        -9.72314104e-02, -1.41193762e-01, -1.35982223e-02,
        -4.73274112e-01, -5.79536408e-02,  2.57912517e-01,
         6.53209910e-02,  2.77345091e-01, -1.42091783e-02,
        -1.57090485e-01, -4.20350522e-01, -5.79898097e-02,
         3.32758844e-01, -3.23556960e-01, -6.05599023e-02,
         2.59795990e-02,  1.00043938e-01, -2.31448516e-01,
        -1.35012597e-01,  1.60044059e-01,  2.36553684e-01],
       [ 3.69000465e-01, -1.04704432e-01, -3.79193574e-01,
         1.68282136e-01,  9.40566603e-03,  3.04496557e-01,
        -1.45197973e-01,  8.57257247e-02,  9.01405811e-02,
         6.38778284e-02,  3.28037202e-01,  1.57765090e-01,
         1.44290417e-01, -4.79011357e-01,  9.63270068e-02,
         2.85410196e-01, -2.49330297e-01,  1.55911356e-01,
        -1.17382534e-01, -2.72053897e-01,  1.81160178e-02,
