Weights_k:
[array([[-5.2151661e-03,  2.7970403e-01,  4.6518169e-02,  1.5445911e+00,
         2.3156792e-01, -2.6744273e-01, -4.3780923e-01,  6.5432841e-01,
        -6.4498490e-01,  5.4700089e-01, -2.8313786e-01, -7.2972745e-01,
         8.1777906e-01, -2.8389904e-01,  3.1174892e-01, -5.3726566e-01,
         2.0716292e-01,  7.4348736e-01, -2.7159241e-01, -7.8631151e-01,
         6.3415930e-02,  4.3400863e-01, -3.6683613e-01,  5.1299858e-01,
         4.3808511e-01, -6.8428123e-01, -2.5317293e-01, -6.9811583e-01,
         3.6856836e-01,  1.2583760e+00,  6.3410741e-01,  9.9686965e-02,
         5.2451473e-01, -6.3601181e-02, -3.0155683e-01,  4.9795154e-01,
         5.1753378e-01, -6.8042707e-01,  1.7519192e-01, -6.8581551e-01,
        -5.0021821e-01, -8.6411309e-01, -8.6405033e-01,  3.3655116e-01,
         6.2153649e-01,  4.7620592e-01,  6.2929088e-01,  5.1455933e-01,
         1.2830722e-01,  2.4036406e-01, -4.5884453e-02, -8.1170690e-01,
         4.4605395e-01,  1.1985373e-01, -6.9289011e-01, -1.3584429e+00,
        -1.4983284e-01,  7.7782446e-01,  1.0284249e-01, -2.0979546e-01,
         2.7830070e-01, -2.1245690e-01,  3.6576074e-01, -5.8657646e-01,
        -4.5992870e-02,  9.3373525e-01,  5.6959808e-01,  3.5456100e-01,
        -5.7814288e-01, -6.4656806e-01,  3.2330501e-01,  6.2372434e-01,
        -4.8785838e-01, -6.0888517e-01, -4.5965183e-01, -3.3122301e-01,
         7.7086109e-01, -3.2249236e-01, -5.7204831e-01,  6.6630405e-01,
        -3.0566278e-01, -5.7054782e-01,  4.6069312e-01, -7.4876422e-01,
         7.8092051e-01, -4.7219914e-01,  4.8954096e-02, -5.6631554e-02,
        -2.7863529e-01, -3.4874636e-01,  2.5419652e-01,  8.9193657e-02,
         7.1979177e-01,  3.4125349e-01, -4.9031955e-01, -4.9879062e-01,
         3.0790834e-02,  4.5319769e-01, -4.0305406e-01, -1.0713743e-03],
       [-7.9797870e-01, -4.5485604e-01, -7.7402252e-01, -9.4745345e-02,
        -3.8787296e-01,  3.5387391e-01, -4.3253514e-01,  3.2315892e-01,
         4.0557195e-02,  4.8442863e-02,  5.7492441e-01, -5.7052547e-01,
         1.4876437e-01, -9.2668706e-01, -3.2701692e-01,  1.9616729e-01,
        -4.7167817e-01, -2.5434107e-01,  5.1019776e-01, -1.9914825e-01,
        -7.3860073e-01,  4.5604038e-01, -9.0166944e-01, -7.2209185e-01,
        -9.4470037e-03,  3.6945266e-01,  7.9053003e-01,  5.8015966e-01,
         5.5439484e-01, -7.8250453e-02, -2.0877205e-01,  5.5281264e-01,
         1.3440302e-01, -9.3380892e-01,  5.9943122e-01, -2.7860805e-01,
         5.5665046e-01, -7.4250090e-01,  8.2882535e-01,  1.2854709e-01,
         5.9919345e-01,  2.9337719e-02, -3.2460067e-01, -2.1973619e-01,
         5.9918277e-02,  6.1947685e-01, -1.6482484e-02,  6.3488640e-02,
         7.5894392e-01,  9.4499147e-01, -5.0709796e-01, -3.7159544e-01,
        -3.7061009e-01,  6.1021012e-01,  2.2679751e-01,  1.4355908e-01,
        -9.9028319e-01,  3.0611476e-01,  6.8268716e-01, -4.2042625e-01,
        -5.8827710e-01, -5.2032924e-01, -3.7198755e-01, -4.0966782e-01,
         5.1317924e-01, -1.6969739e-01, -4.3270776e-01,  1.0360147e+00,
        -2.5234863e-01, -1.3846328e-02, -5.5909806e-01,  7.0859909e-01,
         2.9711404e-03, -1.4950314e-01, -6.3261652e-01,  1.2056648e+00,
         1.7182255e-01, -7.9100728e-01, -4.6679011e-01,  3.8655853e-01,
         2.3920426e-01, -8.1047229e-02,  8.7371059e-02,  8.8153459e-02,
        -2.6627302e-01, -6.7258501e-01, -9.1028494e-01,  7.0534271e-01,
         6.5938634e-01, -3.8867167e-01, -5.6818777e-01, -5.7106096e-01,
         5.2669346e-01,  6.3613558e-01,  1.0227643e-02, -1.5695583e-02,
         3.8939017e-01,  1.2501083e-01, -3.8119450e-01, -5.7402384e-01]],
      dtype=float32), array([[ 2.34395877e-01, -2.79636215e-02,  2.59358317e-01, ...,
        -1.58842668e-01,  1.15206391e-01, -9.64736789e-02],
       [ 1.75561577e-01, -8.85071158e-02,  1.38584495e-01, ...,
        -3.90900113e-03, -4.33094520e-03, -7.90841058e-02],
       [ 2.89153576e-01, -1.04501791e-01,  6.09859731e-03, ...,
         2.70477012e-02,  6.12632409e-02, -7.59319961e-02],
       ...,
       [-1.33006468e-01, -3.36677544e-02, -3.55812609e-01, ...,
        -8.83980319e-02, -2.05747619e-01, -4.91842441e-02],
       [ 2.36309096e-01, -1.21925764e-01,  2.51023263e-01, ...,
        -8.19872972e-03,  2.22929474e-02,  6.00015633e-02],
       [ 4.47246730e-02, -1.42005054e-04, -7.09460378e-02, ...,
        -3.13047506e-02,  1.35547653e-01,  8.19547102e-02]], dtype=float32), array([[ 0.44043046, -0.1794413 ,  0.13322891, ...,  0.20554908,
        -0.05656383,  0.09525601],
       [-0.01737499,  0.11197226, -0.03182484, ...,  0.06849507,
        -0.15388736, -0.00444838],
       [ 0.09016342,  0.04349232, -0.09355577, ...,  0.08754138,
        -0.11921534,  0.39080042],
       ...,
       [-0.09607713,  0.12122611,  0.01737214, ...,  0.13690008,
         0.01071237,  0.09763271],
       [-0.07335005,  0.10584702,  0.04672882, ..., -0.11647418,
         0.16973461, -0.0156093 ],
       [-0.00440675,  0.14624189,  0.00532988, ...,  0.01496292,
         0.10892395, -0.08317059]], dtype=float32), array([[ 2.49492690e-01],
       [ 6.27973452e-02],
       [-2.98372516e-03],
       [ 1.27066916e-04],
       [-1.50150459e-04],
       [ 1.53326362e-01],
       [ 1.13437660e-01],
       [ 7.13999048e-02],
       [-5.79017587e-02],
       [ 6.40042126e-02],
       [ 1.72250703e-01],
       [-2.03056782e-01],
       [ 2.34860403e-04],
       [ 3.78174300e-05],
       [ 2.18313158e-01],
       [ 9.34877545e-02],
       [-1.62001431e-01],
       [-5.25902979e-05],
       [ 4.05119965e-03],
       [ 1.07564196e-01],
       [-1.24526203e-01],
       [-1.35027379e-01],
       [-3.97761837e-02],
       [-9.29514691e-02],
       [-5.52752241e-02],
       [-2.59190351e-02],
       [ 1.76159695e-01],
       [-1.96361580e-05],
       [ 2.95968000e-02],
       [-1.02693960e-01],
       [-8.83832648e-02],
       [ 8.01567063e-02],
       [-1.67159160e-05],
       [ 9.70094502e-02],
       [ 3.25348303e-02],
       [ 1.00046903e-01],
       [ 1.57312572e-01],
       [-8.37324260e-05],
       [ 1.10849239e-01],
       [-1.62293717e-01],
       [-1.91533387e-01],
       [ 1.01440571e-01],
       [-1.82402447e-01],
       [ 2.41450801e-01],
       [-2.49495059e-01],
       [ 6.26337854e-03],
       [ 8.50210059e-03],
       [-5.85815646e-02],
       [-4.90988158e-02],
       [ 5.26447445e-02],
       [-1.60986111e-01],
       [ 9.87114534e-02],
       [-1.30076557e-01],
       [-1.68155208e-01],
       [ 2.43123576e-01],
       [-2.00021043e-01],
       [-3.04828543e-04],
       [-8.19362849e-02],
       [-1.46232322e-01],
       [-1.41604483e-01],
       [-1.42626852e-01],
       [-7.33321235e-02],
       [-1.13988571e-01],
       [-2.13178835e-04],
       [ 4.56298962e-02],
       [ 1.37445182e-01],
       [ 2.14331925e-01],
       [-1.68073624e-01],
       [-2.39416972e-01],
       [-5.28567694e-02],
       [-5.53692579e-02],
       [ 1.77923694e-01],
       [ 2.44315833e-01],
       [-1.91489443e-01],
       [-1.58444300e-01],
       [-1.95451602e-01],
       [-1.80663094e-01],
       [ 1.55349717e-01],
       [-1.42547563e-01],
       [ 2.96656098e-02],
       [ 2.41268674e-04],
       [-8.45385343e-03],
       [-1.45283163e-01],
       [ 1.53319124e-05],
       [ 7.62963537e-05],
       [ 8.86996090e-02],
       [-4.08337437e-05],
       [ 3.64240408e-01],
       [-7.52022341e-02],
       [ 2.43059948e-01],
       [ 5.02254926e-02],
       [ 1.60885230e-01],
       [ 7.80316889e-02],
       [-4.30727005e-02],
       [ 7.76781738e-02],
       [ 1.58446455e-05],
       [-2.07731858e-01],
       [-1.27320409e-01],
       [ 3.43156606e-02],
       [-1.95978671e-01]], dtype=float32)]


Weights_h:
[array([[ 0.14568856,  0.0427883 , -0.24494357, -0.34768084,  0.12403906,
        -0.08453072,  0.13545074, -0.04501846, -0.10312223, -0.13585359,
         0.30502224,  0.33671856,  0.10827706,  0.11763223, -0.12222837,
         0.39696944, -0.03577499,  0.08426218, -0.07125954,  0.00613714,
        -0.23424527, -0.04163045, -0.08416878,  0.30254552, -0.34226817,
        -0.23766267, -0.04486886, -0.20879053,  0.0101837 ,  0.07206345,
         0.16564794,  0.17375416],
       [ 0.00346856,  0.39501163, -0.04247865,  0.05718492, -0.46294108,
         0.15985963,  0.08958366,  0.06815035, -0.21758986, -0.245652  ,
         0.04290448, -0.28693548,  0.10382438, -0.24541831, -0.33473513,
        -0.22370315, -0.28881592, -0.32878292,  0.19366924, -0.0243009 ,
        -0.02153269,  0.00258307, -0.43086967, -0.09275589, -0.32401958,
        -0.11621533,  0.22480007, -0.08678791,  0.20522231,  0.08635533,
         0.13053833, -0.12524052]], dtype=float32), array([[ 0.14613502,  0.13872388,  0.1402741 , ...,  0.251899  ,
         0.19029291,  0.08356266],
       [ 0.2909089 ,  0.012693  ,  0.14056441, ..., -0.22259322,
         0.17874275, -0.3493558 ],
       [ 0.00450856,  0.2582141 ,  0.09719661, ...,  0.06585601,
         0.27156398, -0.07380354],
       ...,
       [-0.13177583,  0.13860631,  0.320436  , ...,  0.22266309,
         0.11515298,  0.09497961],
       [-0.32934234, -0.06933061,  0.16701901, ...,  0.23945828,
        -0.04170385, -0.21546309],
       [ 0.01153392, -0.1474798 , -0.08698559, ..., -0.18199755,
        -0.10279488,  0.05231684]], dtype=float32), array([[ 7.05821216e-02, -5.46152852e-02, -1.89709201e-01, ...,
        -2.75937468e-01, -2.03610852e-01, -1.38038620e-01],
       [-6.36903048e-02,  8.44612252e-03, -1.03535384e-01, ...,
        -3.22719038e-01, -1.41772922e-04, -7.48106092e-03],
       [ 1.97661653e-01,  1.44059375e-01, -8.65310654e-02, ...,
        -1.39062628e-02,  7.18802810e-02, -7.87372515e-02],
       ...,
       [ 2.23957852e-01,  7.22172782e-02, -1.61669962e-02, ...,
        -6.46444559e-02,  1.65832117e-02, -4.95307110e-02],
       [ 2.76551485e-01,  5.90382963e-02,  1.41858488e-01, ...,
        -1.93446189e-01,  2.73978382e-01, -1.90457731e-01],
       [-7.44643584e-02, -2.15930268e-01,  1.40060276e-01, ...,
         1.87460482e-01,  1.40545100e-01,  1.02962419e-01]], dtype=float32), array([[-0.09848686],
       [-0.18843706],
       [ 0.20386577],
       [-0.10627208],
       [ 0.10532624],
       [-0.19488737],
       [ 0.05369253],
       [ 0.35077465],
       [-0.28267416],
       [ 0.18323849],
       [ 0.35219964],
       [ 0.1987451 ],
       [-0.25650328],
       [-0.3942111 ],
       [-0.04799478],
       [ 0.13988715],
       [ 0.00692682],
       [-0.4145102 ],
       [-0.41573158],
       [ 0.42574856],
       [-0.19519965],
       [-0.38440022],
       [ 0.10127336],
       [-0.12720051],
       [ 0.01412332],
       [ 0.1001907 ],
       [-0.4699128 ],
       [-0.09748092],
       [ 0.2031211 ],
       [-0.27913523],
       [ 0.10445727],
       [ 0.34600475]], dtype=float32)]


Weights_c:
[array([[-0.436551  , -0.19577149, -0.14908943, -0.23251636,  0.21020836,
         0.01899168, -0.18862444,  0.07153811, -0.28318742,  0.08614405,
         0.16644958, -0.05243946,  0.1033326 ,  0.35956657,  0.12489102,
         0.11240142, -0.44272956,  0.18902408,  0.2457999 , -0.37412995,
         0.18249556, -0.22759682, -0.09805822,  0.23432578, -0.44437405,
        -0.07873162,  0.33763906, -0.18306339,  0.34050578,  0.34015605,
         0.10902152, -0.29574654],
       [-0.36611027,  0.2716988 , -0.297845  , -0.14435045,  0.34210795,
         0.10336805, -0.30717757, -0.18570022, -0.2744148 ,  0.07295002,
         0.08316567, -0.1886442 , -0.04990215, -0.3336338 , -0.2549983 ,
        -0.0923717 , -0.17328607,  0.4468056 , -0.2635115 , -0.21491107,
         0.10679378, -0.13244447,  0.27923778,  0.1546878 ,  0.01163447,
        -0.04222929, -0.0029199 ,  0.11461112, -0.0541359 , -0.2994231 ,
        -0.00919068, -0.14721985]], dtype=float32), array([[ 0.11665306,  0.2537795 , -0.11705668, ...,  0.00697507,
         0.07209751, -0.03910639],
       [ 0.13674262,  0.20050101, -0.04953763, ...,  0.02222706,
         0.02070728,  0.19853294],
       [ 0.3518492 ,  0.20398915,  0.08312125, ...,  0.03551027,
         0.3447903 ,  0.08161815],
       ...,
       [ 0.02204326, -0.26413402,  0.01505016, ..., -0.13244654,
        -0.00846231, -0.22384918],
       [ 0.21933721, -0.03704536, -0.1586929 , ...,  0.18279529,
        -0.08279106,  0.21981505],
       [-0.22208689,  0.041264  ,  0.201325  , ..., -0.0835606 ,
        -0.1985827 , -0.04760926]], dtype=float32), array([[-0.03064156, -0.26161763, -0.15255532, ...,  0.05586261,
         0.01343352,  0.04425788],
       [ 0.0712921 , -0.16796869, -0.09860854, ..., -0.03465192,
        -0.03304254, -0.06419692],
       [ 0.13349235,  0.1533324 ,  0.07535215, ..., -0.13567074,
        -0.10419467, -0.12308176],
       ...,
       [ 0.27622157, -0.24120644,  0.02672122, ...,  0.0235175 ,
        -0.13245907,  0.09059867],
       [-0.07116906, -0.16041829, -0.0282239 , ...,  0.19553743,
        -0.04006693,  0.11770446],
       [ 0.01839904, -0.19303663,  0.24373351, ...,  0.04492711,
        -0.00136926, -0.10089289]], dtype=float32), array([[ 0.01475844],
       [-0.06276604],
       [-0.44945487],
       [-0.01337795],
       [ 0.02571248],
       [ 0.09547279],
       [ 0.14328891],
       [-0.20065366],
       [-0.06742534],
       [ 0.00947275],
       [-0.0857871 ],
       [-0.07455337],
       [-0.09628659],
       [ 0.0506513 ],
       [ 0.02637007],
       [ 0.10461706],
       [-0.09704024],
       [-0.26791316],
       [-0.01533256],
       [-0.29926658],
       [ 0.07074825],
       [-0.00978785],
       [ 0.20001294],
       [ 0.08812054],
       [ 0.2354673 ],
       [-0.02420573],
       [ 0.10969929],
       [ 0.15924199],
       [-0.18883389],
       [ 0.0879006 ],
       [ 0.30827   ],
       [ 0.13382424]], dtype=float32)]


Weights_k:
[array([[-0.49873975,  0.16208453, -0.1565647 , -0.48806548, -0.17951185,
         0.11312003, -0.51735544, -0.32904938, -0.25058958,  1.1439673 ,
        -0.23400104, -0.29590642, -0.7032074 , -0.65369326, -0.4321398 ,
        -0.1154523 , -0.39322713, -0.51388407,  0.5721829 , -0.7340129 ,
         0.42017308, -0.32748267,  0.29489738, -0.20166521,  0.10549401,
        -0.41396934, -0.3286165 , -0.05134072, -1.2241291 ,  0.10060792,
        -0.8705287 ,  0.7278268 , -0.2695806 , -0.34866872, -0.7982582 ,
         0.5677192 , -0.44442675, -0.5796102 ,  0.40103433, -0.665149  ,
         0.47293162,  0.21079879,  1.8078935 ,  0.31076086,  0.30945396,
         0.12766738, -0.6506214 ,  0.6259601 ,  0.5261902 ,  0.4338672 ,
         0.82705134,  0.1318059 , -0.2020699 ,  0.28084356,  0.29952255,
         0.2213733 ,  0.6456084 , -0.11287162,  0.4104579 ,  0.41401565,
         0.6376718 ,  0.42836735, -0.68515337,  0.638844  , -0.62558544,
        -0.04255736, -0.6515694 , -0.57480043,  0.6054246 ,  0.6999118 ,
        -0.32510346,  0.3223818 ,  1.1282262 , -0.5423339 , -0.7555787 ,
        -0.44011518, -0.08274074,  0.47987932,  0.62556493, -0.771729  ,
        -0.45400628,  0.5340445 ,  0.58162993, -0.6029097 , -0.5167383 ,
         0.13449699,  0.46912277,  0.91253746,  0.57712394,  0.28930235,
        -0.43609846, -0.73887485,  0.24987805,  0.612392  , -0.27508557,
         0.10566548, -0.46070966, -0.57631665, -0.1557765 ,  0.89831865],
       [-0.07200638,  0.2657917 , -0.8431599 , -0.7414929 ,  0.43827343,
        -0.6233407 , -0.25928017, -1.0410504 ,  0.60083795,  0.4714575 ,
        -0.7471542 , -1.1105534 , -0.3282198 ,  0.43792436, -0.64264053,
         0.5370739 , -0.9898433 , -0.04118425,  0.05036201, -0.24480817,
         0.5867371 , -0.93559366,  0.7808886 ,  0.6539376 , -0.9101728 ,
         0.5316279 ,  0.21755317,  0.48459345, -0.09563918, -0.6346357 ,
         0.01779321,  0.3601793 ,  0.49634755,  0.19182478, -0.09580499,
         0.01725309, -0.06628769,  0.43511212, -0.47450534,  0.07411775,
         0.62192804,  0.71739477, -0.3532429 , -0.41949877, -0.6266821 ,
         0.93007   ,  0.03362581,  0.13100281, -0.25411016, -0.34469914,
        -0.6764201 ,  0.13615434,  0.25687683, -0.47954646,  0.9854953 ,
        -0.8277693 , -0.13161463, -0.5757682 , -0.48617327, -0.46358287,
        -0.49211556, -0.09356883, -0.68146497,  0.7640848 , -0.05293222,
         1.1235077 , -0.2672699 , -0.2974814 ,  0.16472784,  0.7113683 ,
         0.7617502 ,  0.60304457, -0.17135066,  0.00245127,  0.2660333 ,
         0.19083148, -0.7567347 ,  1.0344647 , -0.4718837 , -0.6972661 ,
         0.6676092 , -0.24445707, -0.17612132, -0.8889872 ,  0.42983276,
        -0.8233742 , -0.5459301 ,  0.05617727, -0.15517849, -0.6306203 ,
         0.09009415,  0.00561071,  0.42454842, -0.10880527,  0.02563888,
        -0.43894917, -0.5951626 , -1.1829746 ,  0.807441  ,  0.72453326]],
      dtype=float32), array([[ 0.29633272, -0.03830999, -0.14823036, ..., -0.13272315,
        -0.03123793,  0.18435386],
       [-0.10561507,  0.12747034, -0.13206197, ...,  0.02270136,
        -0.36811727,  0.13651197],
       [ 0.09067605,  0.10517672,  0.04825214, ...,  0.11767836,
         0.25213808,  0.11608004],
       ...,
       [ 0.05275552,  0.12662156, -0.27198318, ...,  0.09517424,
         0.21102099,  0.12414617],
       [ 0.12177466, -0.1296521 ,  0.2121199 , ...,  0.07805105,
         0.01010426, -0.05315967],
       [-0.36697966, -0.1626045 , -0.00779496, ..., -0.11907636,
        -0.8113948 , -0.05855967]], dtype=float32), array([[-0.00060487,  0.13033935, -0.13278706, ..., -0.00476446,
         0.02356328, -0.14536244],
       [-0.2697289 ,  0.03854527,  0.20133142, ..., -0.00520921,
         0.04007034, -0.04429238],
       [ 0.00338636,  0.07844193,  0.05249932, ..., -0.05013165,
         0.11664069,  0.17985207],
       ...,
       [ 0.03109082, -0.03115997,  0.02896359, ...,  0.05616949,
         0.04698149,  0.0071094 ],
       [ 0.02297007, -0.07824407, -0.19524615, ..., -0.01259969,
        -0.01563517,  0.0298474 ],
       [-0.28387424, -0.03060685, -0.02901264, ...,  0.00383972,
         0.05517735, -0.07401032]], dtype=float32), array([[ 3.27161252e-01],
       [-1.28367499e-01],
       [ 4.08775173e-02],
       [ 1.13049701e-01],
       [ 2.72366609e-02],
       [ 6.68235938e-04],
       [-1.60599947e-01],
       [ 1.76214740e-01],
       [ 2.14469314e-01],
       [ 1.92562893e-05],
       [-1.95568159e-01],
       [ 4.35395651e-02],
       [ 1.72842741e-01],
       [-7.18813681e-05],
       [ 1.44674763e-01],
       [ 7.34685883e-02],
       [-3.36923607e-04],
       [-8.31775740e-02],
       [-2.31651691e-04],
       [-1.74616009e-01],
       [-8.51535574e-02],
       [-1.09458201e-01],
       [-6.77883327e-02],
       [ 8.15996528e-02],
       [-9.86676142e-02],
       [ 4.11654291e-05],
       [ 2.19342615e-02],
       [ 7.95599481e-05],
       [ 8.86167254e-05],
       [-2.85486728e-01],
       [ 2.42008075e-01],
       [-2.11461931e-01],
       [-6.27435893e-02],
       [ 2.02041209e-01],
       [ 5.88829294e-02],
       [ 8.06910172e-03],
       [ 3.33685857e-05],
       [-3.18724953e-04],
       [-3.79617363e-02],
       [ 7.29468241e-02],
       [ 7.06661493e-02],
       [ 1.41200319e-01],
       [ 7.20388219e-02],
       [ 8.59728269e-03],
       [ 9.72001031e-02],
       [ 2.32290535e-04],
       [-8.20690244e-02],
       [-1.19874448e-01],
       [ 7.44621828e-02],
       [ 7.42583256e-03],
       [-2.19227120e-01],
       [ 2.49675989e-01],
       [-7.85112679e-02],
       [ 9.67548767e-05],
       [-1.62219815e-02],
       [-1.64045841e-01],
       [-2.25721970e-01],
       [-6.22634739e-02],
       [ 1.67530030e-01],
       [ 6.91448513e-05],
       [-8.71262252e-02],
       [-1.43695727e-01],
       [ 4.12119844e-04],
       [ 6.98574334e-02],
       [ 9.29422528e-02],
       [ 4.79772761e-02],
       [ 1.40401006e-01],
       [-5.12786093e-04],
       [-9.01708528e-02],
       [ 1.25730589e-01],
       [ 6.86408207e-02],
       [-2.30104983e-01],
       [-6.34724200e-02],
       [ 2.56329821e-03],
       [-7.79485777e-02],
       [ 5.73539000e-05],
       [-5.29427566e-02],
       [ 3.26361775e-01],
       [ 1.74655095e-01],
       [-1.18576614e-02],
       [ 1.58385083e-01],
       [ 4.78871982e-04],
       [ 2.06236362e-01],
       [ 4.72789258e-02],
       [ 2.93731958e-01],
       [-1.99345380e-01],
       [ 1.03141874e-01],
       [ 1.80762365e-01],
       [ 6.24224022e-02],
       [ 1.74396249e-04],
       [ 2.18919992e-01],
       [-2.13949606e-02],
       [-6.13075172e-05],
       [ 8.11553672e-02],
       [ 1.77160069e-01],
       [-5.14976382e-02],
       [-1.43582635e-02],
       [-2.23040421e-04],
       [-2.30122489e-04],
       [ 9.50350463e-02]], dtype=float32)]


Weights_h:
[array([[-0.16667257, -0.14098442, -0.3371081 , -0.2938103 ,  0.31038827,
        -0.14485466, -0.39948893, -0.19172153, -0.07195195, -0.13461772,
        -0.06295788, -0.0570878 , -0.37470177,  0.04423603,  0.04003348,
        -0.25131515, -0.01828348, -0.00286655,  0.1424687 , -0.13803023,
        -0.14099388, -0.21372865,  0.06265498,  0.15111043,  0.0637881 ,
        -0.3842567 ,  0.0814514 ,  0.18488625,  0.27293012, -0.33196145,
         0.08002225,  0.00258938],
       [-0.1605048 ,  0.02642943,  0.36064792, -0.17233297,  0.07286545,
        -0.02350812, -0.2233314 ,  0.0720048 , -0.2646986 ,  0.23810387,
         0.13817751,  0.10486013, -0.06275598,  0.26177916, -0.09759831,
        -0.06965747, -0.13328612, -0.18019493,  0.40985096,  0.26168475,
        -0.14401527, -0.06207142,  0.0236031 ,  0.2072142 , -0.16891477,
        -0.20640516, -0.25395337, -0.0079886 ,  0.25706634,  0.28898326,
         0.06174295, -0.2862478 ]], dtype=float32), array([[-0.07952387,  0.05601887, -0.08114199, ...,  0.11496942,
         0.19842498, -0.15626514],
       [ 0.11576866, -0.10636358, -0.08431379, ..., -0.00401743,
        -0.11238188,  0.06086915],
       [ 0.01921429,  0.01835847,  0.02887561, ...,  0.02435638,
        -0.22979145,  0.02017415],
       ...,
       [-0.05570672, -0.10275162, -0.1165124 , ...,  0.08928961,
        -0.09025579,  0.02382337],
       [-0.06906956,  0.09112208, -0.25459448, ...,  0.24982288,
         0.1087403 ,  0.22040321],
       [-0.07558201, -0.06508206, -0.0545749 , ..., -0.08113257,
         0.29554686, -0.03057962]], dtype=float32), array([[ 0.02318055,  0.05314887, -0.04771667, ..., -0.01551351,
         0.00785696, -0.03070415],
       [ 0.13580392,  0.05563123,  0.20735967, ...,  0.16661893,
        -0.12942342, -0.31691745],
       [-0.26552325,  0.00763791, -0.16814883, ...,  0.02892022,
        -0.08468611, -0.1496304 ],
       ...,
       [ 0.04030946,  0.2339986 , -0.03834746, ...,  0.34941235,
         0.0725353 , -0.12587303],
       [-0.12964258, -0.23612624,  0.04492943, ..., -0.20143577,
         0.05992046, -0.15391302],
       [ 0.05161038,  0.11051093,  0.05691123, ...,  0.07618581,
         0.08538087,  0.20506121]], dtype=float32), array([[ 0.0320239 ],
       [ 0.4047919 ],
       [ 0.18547758],
       [-0.21642125],
       [ 0.1385907 ],
       [ 0.23560646],
       [ 0.01003942],
       [ 0.15534581],
       [-0.34430084],
       [-0.09889951],
       [ 0.16910109],
       [-0.17811348],
       [-0.1813838 ],
       [ 0.04572342],
       [ 0.2650643 ],
       [-0.33143377],
       [-0.05705164],
       [-0.02489571],
       [ 0.06294405],
       [-0.36889884],
       [-0.36486503],
       [-0.12024207],
       [-0.07027923],
       [-0.2844021 ],
       [-0.17836797],
       [ 0.06579563],
       [-0.01477459],
       [ 0.05191774],
       [ 0.03581678],
       [ 0.17893302],
       [-0.01134045],
       [-0.0713635 ]], dtype=float32)]


Weights_c:
[array([[-0.21855539,  0.0859611 ,  0.05785949,  0.03408356, -0.26873392,
        -0.32596388, -0.15043454,  0.05110978,  0.2057415 ,  0.1840395 ,
         0.15383962,  0.06026912, -0.09147272,  0.21124363,  0.33002204,
         0.34283423, -0.17870584,  0.01213983, -0.12984097, -0.04075257,
        -0.1937536 ,  0.13131702,  0.16435657, -0.40805823,  0.24011712,
        -0.45250282, -0.33970827,  0.3708952 , -0.09278612, -0.01306805,
         0.22326714,  0.10213867],
       [ 0.11809128, -0.0710515 ,  0.2212445 ,  0.2186606 , -0.13785253,
        -0.2892435 ,  0.30449   , -0.16764356, -0.440934  ,  0.2386299 ,
        -0.07764255, -0.45592225, -0.02357369, -0.32781643,  0.2455445 ,
        -0.3175778 ,  0.16144939, -0.1766583 , -0.08357299,  0.1619325 ,
        -0.26791215, -0.20170535,  0.15934452,  0.0870991 , -0.47853336,
        -0.33869752,  0.04722012,  0.17251417, -0.3157648 ,  0.15438317,
         0.07247742,  0.05817201]], dtype=float32), array([[-0.24019612,  0.0827605 ,  0.01939048, ..., -0.12124392,
         0.18913004,  0.11859066],
       [ 0.05264084, -0.30364797, -0.01070906, ..., -0.12660529,
         0.12226996, -0.25589588],
       [-0.11217719, -0.03921169,  0.0298625 , ...,  0.05651135,
         0.32999423,  0.18216631],
       ...,
       [ 0.26271546,  0.03622009, -0.16955745, ..., -0.1253519 ,
        -0.3051682 , -0.3070884 ],
       [ 0.20045432, -0.04249988,  0.1049904 , ...,  0.08221284,
        -0.28102383,  0.1154396 ],
       [-0.23891878, -0.00117731, -0.24787971, ..., -0.10705197,
         0.08746094, -0.10448793]], dtype=float32), array([[ 0.17363116, -0.12426404, -0.17871502, ..., -0.19528589,
         0.10295632,  0.16921656],
       [ 0.12246761,  0.2982503 , -0.11576544, ..., -0.23412669,
        -0.32905295, -0.05344482],
       [-0.04027465,  0.1161852 ,  0.22676595, ...,  0.17424907,
        -0.11921091, -0.10175683],
       ...,
       [-0.06329535, -0.00970055, -0.19573528, ...,  0.01615715,
         0.08141179, -0.20318405],
       [ 0.01822933, -0.25670868, -0.0882322 , ...,  0.02180021,
         0.22569056, -0.26289797],
       [ 0.07283358, -0.02597342,  0.2827217 , ...,  0.15197377,
         0.18653478, -0.09254892]], dtype=float32), array([[-0.04721677],
       [-0.31539735],
       [-0.21153095],
       [-0.05498205],
       [ 0.01665216],
       [-0.30080187],
       [ 0.19519201],
       [ 0.07675136],
       [-0.23347901],
       [ 0.21684225],
       [-0.13655867],
       [-0.11660205],
       [ 0.04123694],
       [-0.2378426 ],
       [ 0.34194967],
       [-0.08872461],
       [ 0.03502812],
       [ 0.04867774],
       [-0.01781973],
       [ 0.30306286],
       [-0.14985946],
       [ 0.1092234 ],
       [-0.37867755],
       [-0.02122351],
       [-0.05504847],
       [-0.11220027],
       [-0.19101469],
       [ 0.02976434],
       [-0.07292032],
       [ 0.15512271],
       [-0.32558522],
       [ 0.26215994]], dtype=float32)]


Weights_k:
[array([[ 0.3324572 ,  0.3731307 , -0.09076101, -0.42753905, -0.18146941,
        -0.6411492 , -0.5042463 , -0.69737804, -0.80565566,  0.23900561,
        -0.13869004,  0.18114722, -0.6751486 ,  0.50280946,  0.5472016 ,
        -0.4020168 , -0.08244975, -0.5163251 , -0.24351358,  0.08417458,
        -0.40264913, -0.35040775, -0.01346143,  0.40171373, -0.2229622 ,
         0.2014149 ,  0.47659478,  0.12873952, -0.57263964, -0.59700996,
        -0.00194952, -0.49542257, -0.19410896, -0.5886023 ,  0.04369903,
         0.40066555,  0.5371391 , -0.12525019, -0.34039298, -0.7290169 ,
        -0.40628412,  0.42855495, -0.3987436 , -0.5514751 , -0.54373664,
         0.5622504 ,  0.59488344,  0.17887852,  1.3274082 , -0.29223105,
        -0.48214808, -0.23004758,  0.6206186 ,  1.2635198 ,  0.52080226,
         0.62040097, -0.27246752,  0.34893218, -0.74922097,  0.5724015 ,
        -0.57063395, -0.45744875,  0.6638212 , -0.4997758 , -0.16208091,
        -0.22368236,  0.44675106, -0.47018245,  0.50393265, -0.08410967,
        -0.44952193, -0.5550483 , -0.548931  , -0.37989622, -0.54120994,
         0.44731644, -0.37595448, -0.08120938,  0.8893428 , -0.33130398,
        -0.13648735,  0.1241715 , -0.45827338,  0.68199587,  0.69774467,
        -0.25304747,  0.45848447, -0.7011113 , -0.9220247 , -0.5540849 ,
         0.15006211,  0.41380584,  0.8696491 ,  0.58051455, -0.4607595 ,
         0.54745984, -0.5227485 , -0.15415964,  0.58968025,  0.6512554 ],
       [ 0.82688606, -0.24253616, -0.7382483 ,  0.18731816,  0.6872715 ,
        -0.15999475, -0.13039006, -0.4299062 , -0.4431635 , -0.9241589 ,
         0.9369071 ,  1.0310801 ,  0.26438278,  0.53006244,  0.06765975,
         0.26070917, -0.8736178 ,  0.6148707 ,  0.59693813, -0.93394953,
        -0.6220114 ,  0.384096  , -0.9443816 , -0.00932981, -1.029616  ,
         1.0074385 ,  0.20205307, -0.8396367 ,  0.10161252, -0.23613036,
        -0.2894305 , -0.49441442,  0.4205799 ,  0.16971889,  0.54360026,
         0.8639339 , -0.6127589 , -0.65803534, -0.7581569 , -0.27703747,
         0.31934157,  0.16496733,  0.5388528 ,  0.01382315,  0.43628192,
         0.612329  , -0.48076606, -0.13854186, -0.28102785, -0.5655621 ,
        -0.30788893,  0.7374544 ,  0.13820371,  0.01821356,  0.04290567,
         0.10975111,  0.23724633, -0.46049324,  0.13594957, -0.08105358,
         0.02401453, -0.0716182 , -0.15724987, -0.03573481, -0.5710972 ,
        -0.64097404,  0.38379067, -0.5180287 ,  0.3233213 ,  0.67695695,
        -0.63505125, -0.28481403, -0.00439316, -0.8942733 ,  0.23029082,
         0.4931641 ,  0.53607684, -0.6824134 , -0.8311385 ,  0.4594502 ,
         0.742669  ,  0.8044815 , -0.09925228, -0.06639636, -0.00414288,
        -0.3760833 , -0.09354292, -0.36114722, -0.43831035,  0.23308897,
         0.55700535, -0.32573694,  0.51402885, -0.59869826, -0.73261017,
        -0.4600413 , -0.43302187,  0.33376148, -0.32562703, -0.22935808]],
      dtype=float32), array([[-0.2887369 , -0.10356046,  0.06159033, ..., -0.1499669 ,
         0.18757895,  0.07375706],
       [-0.01971841, -0.7733409 ,  0.16601819, ..., -0.06849435,
         0.13713138,  0.58029974],
       [ 0.02975094, -0.07311399, -0.07687444, ..., -0.01743294,
         0.00692818, -0.08560759],
       ...,
       [-0.03911712,  0.41497293,  0.02761757, ...,  0.08959445,
         0.06977972, -0.18893918],
       [ 0.01943823, -0.49678394, -0.05441595, ...,  0.1637041 ,
         0.05875082,  0.24409391],
       [-0.04698834, -1.3408327 , -0.05451638, ...,  0.00750909,
         0.09042598,  1.0393215 ]], dtype=float32), array([[-2.18047034e-02,  6.88624084e-02, -1.59207791e-01, ...,
         1.12452835e-01,  4.27743280e-03,  3.83571489e-03],
       [ 1.78180009e-01, -3.66361201e-01,  2.78551847e-01, ...,
        -3.44051942e-02,  8.48919600e-02, -6.83355778e-02],
       [ 9.27877948e-02,  1.90410018e-01, -3.17652225e-02, ...,
        -9.26303491e-02, -5.07679135e-02, -8.29444453e-03],
       ...,
       [ 1.26090469e-02,  7.27494359e-02,  1.31731808e-01, ...,
         4.48140390e-02, -1.05418317e-01,  7.52855614e-02],
       [-2.20827591e-02,  1.87572427e-02,  1.41486671e-04, ...,
         7.24184141e-02, -1.19887047e-01,  4.32656966e-02],
       [-1.56988911e-02,  2.43389040e-01, -3.78959149e-01, ...,
        -4.35391702e-02,  5.04989214e-02, -3.87543738e-02]], dtype=float32), array([[-1.95323825e-01],
       [-1.00564465e-01],
       [-2.93970913e-01],
       [-4.01956998e-02],
       [-1.46673903e-01],
       [ 6.35173274e-05],
       [-1.51314273e-01],
       [ 1.81846499e-01],
       [ 1.49318148e-04],
       [ 7.49406219e-02],
       [-3.80486771e-02],
       [-8.47417340e-02],
       [ 3.09945972e-05],
       [ 5.07991724e-02],
       [ 1.62356690e-01],
       [-7.49606565e-02],
       [ 1.84438124e-01],
       [ 1.88046679e-01],
       [-7.09265843e-02],
       [-1.38105705e-01],
       [ 2.20221341e-01],
       [-1.80807754e-01],
       [ 2.62937903e-01],
       [ 1.80116258e-04],
       [-6.66166171e-02],
       [ 6.32452294e-02],
       [-1.09249383e-01],
       [ 1.71120897e-01],
       [ 1.94254666e-04],
       [ 2.74480522e-01],
       [-8.89996227e-05],
       [ 2.29584277e-01],
       [-8.09823722e-02],
       [-1.39147162e-01],
       [ 1.68384518e-02],
       [-1.73685403e-05],
       [-1.09352820e-01],
       [-7.74695203e-02],
       [ 2.40383223e-02],
       [-1.07523650e-01],
       [ 1.48725482e-02],
       [-8.31855983e-02],
       [ 1.57049477e-01],
       [-1.38444617e-01],
       [ 4.66728024e-03],
       [ 1.38680801e-01],
       [-5.21527864e-02],
       [ 8.01311657e-02],
       [-3.82896252e-02],
       [-5.62509149e-02],
       [-1.29173655e-04],
       [-5.81860095e-02],
       [ 7.39410520e-02],
       [ 1.72282636e-01],
       [-1.56668611e-02],
       [-1.24885589e-01],
       [ 1.79417074e-01],
       [ 1.26305774e-01],
       [-2.50362136e-05],
       [-3.18015404e-02],
       [ 8.26121718e-02],
       [-1.86447141e-04],
       [-1.77214384e-01],
       [ 2.86896318e-01],
       [ 1.69467434e-01],
       [-4.80839908e-02],
       [ 1.20512769e-01],
       [-4.40087989e-02],
       [-1.65041987e-04],
       [-2.39082765e-05],
       [-2.10946232e-01],
       [ 1.59423307e-01],
       [-1.11483715e-01],
       [-1.83351919e-01],
       [ 1.44173756e-01],
       [ 6.32221922e-02],
       [ 8.74063969e-02],
       [ 2.85085607e-02],
       [-8.64773840e-02],
       [ 5.83490506e-02],
       [ 1.63268130e-02],
       [-4.47354978e-03],
       [-1.65576071e-01],
       [ 1.27361000e-01],
       [-1.08730674e-01],
       [ 5.56779606e-03],
       [-6.76034763e-02],
       [ 7.37390801e-05],
       [-5.83796091e-02],
       [ 1.04024962e-01],
       [ 9.55246578e-05],
       [ 2.54281610e-01],
       [-4.41373810e-02],
       [ 2.24090993e-01],
       [ 1.25507087e-01],
       [ 1.12278864e-01],
       [ 5.13545310e-05],
       [-3.31055890e-05],
       [-7.24766360e-05],
       [-2.40665078e-01]], dtype=float32)]


Weights_h:
[array([[-0.3847942 , -0.04948629,  0.24677642, -0.23875709,  0.05156523,
        -0.20742881, -0.21824352, -0.06401967, -0.27852044, -0.02240024,
         0.25755304,  0.18873529, -0.03202347,  0.23602533, -0.03530238,
         0.16433482, -0.05650025,  0.05088195, -0.06550679, -0.1382626 ,
         0.11936234,  0.02564701,  0.06707189, -0.26239616, -0.10346323,
         0.09673453, -0.21234682, -0.09207831, -0.17807688,  0.15526433,
        -0.29707652, -0.03676382],
       [-0.33513674, -0.18489185,  0.06239164, -0.19025156, -0.0101442 ,
        -0.04081805, -0.11376446, -0.04229528, -0.24654998,  0.2349803 ,
         0.20441197,  0.17320421, -0.1103617 ,  0.3836468 , -0.00348098,
        -0.35042274,  0.00902804, -0.3705562 ,  0.2899864 ,  0.18666182,
        -0.02002633, -0.37947112, -0.01253294, -0.12768048, -0.3302281 ,
        -0.01156785,  0.14746457,  0.0364135 ,  0.25202355, -0.25384378,
        -0.04984818, -0.2113126 ]], dtype=float32), array([[ 0.09194116, -0.17335773,  0.09601409, ..., -0.07172847,
         0.09723873, -0.12559257],
       [ 0.0792105 ,  0.03344706,  0.11776788, ...,  0.12338252,
         0.20829958, -0.05623387],
       [ 0.02874343,  0.02338286, -0.04900435, ...,  0.12100572,
         0.03710907,  0.0522728 ],
       ...,
       [-0.25116593, -0.08184017,  0.24272752, ...,  0.10158588,
         0.32422888, -0.23551747],
       [-0.17285287, -0.3381873 ,  0.03805894, ..., -0.09182721,
         0.16076602,  0.16624102],
       [-0.02222054, -0.21406713,  0.03391899, ...,  0.11497474,
        -0.12312885, -0.03046631]], dtype=float32), array([[ 0.01018026, -0.03925708,  0.21420872, ...,  0.09495685,
        -0.18163879, -0.11779539],
       [ 0.0113268 , -0.2960281 , -0.26057416, ..., -0.11653978,
         0.02164994, -0.21261981],
       [ 0.0042045 ,  0.07931965, -0.3090617 , ...,  0.05754375,
        -0.03637549,  0.07554075],
       ...,
       [-0.09785339,  0.19730261,  0.19000147, ...,  0.1329379 ,
         0.18629673,  0.0533314 ],
       [ 0.03400845, -0.0655346 , -0.08878192, ..., -0.00805781,
         0.00066319, -0.08710948],
       [ 0.01120411, -0.20655243,  0.07101776, ...,  0.01610675,
         0.1589889 , -0.32596985]], dtype=float32), array([[-0.01565349],
       [ 0.11162023],
       [-0.3251682 ],
       [-0.03965157],
       [ 0.05331318],
       [-0.00968867],
       [ 0.3363216 ],
       [-0.07715577],
       [ 0.4663127 ],
       [ 0.3354981 ],
       [ 0.06902552],
       [-0.24426116],
       [-0.13933954],
       [-0.0180802 ],
       [-0.18084541],
       [ 0.1622704 ],
       [ 0.16364646],
       [ 0.24967502],
       [ 0.20082943],
       [ 0.04129044],
       [ 0.37992406],
       [ 0.08060747],
       [-0.2853554 ],
       [ 0.0861797 ],
       [-0.32356298],
       [ 0.10788144],
       [-0.34842527],
       [-0.17330487],
       [-0.03875805],
       [-0.43936598],
       [-0.35634166],
       [-0.08395713]], dtype=float32)]


Weights_c:
[array([[-0.13622867,  0.42338312, -0.15675224, -0.32363656, -0.17980838,
         0.05629794, -0.07583773,  0.30347443, -0.1349772 ,  0.24305099,
        -0.4092207 , -0.3735009 ,  0.09488913, -0.33440706, -0.05949428,
        -0.29759374, -0.19795848, -0.35358143, -0.06076776, -0.05803337,
         0.15161946, -0.04768752, -0.2998307 , -0.15278476, -0.35588375,
        -0.08726347,  0.00589391,  0.28316075, -0.13023134,  0.41367993,
         0.4020938 , -0.1483381 ],
       [ 0.08978734, -0.00890773,  0.11880561,  0.23088348, -0.0555931 ,
        -0.14995074,  0.273828  ,  0.17952684,  0.21569912,  0.10075775,
        -0.21407801, -0.04635951, -0.19050644,  0.24149464, -0.2934903 ,
        -0.32948896, -0.02040687,  0.4164493 , -0.0814971 ,  0.45980972,
         0.00654618,  0.3216357 , -0.25729465, -0.10112642,  0.2957573 ,
         0.31495658, -0.12426634,  0.2900583 , -0.27321368, -0.19987638,
         0.2101588 ,  0.1513096 ]], dtype=float32), array([[ 0.29732078,  0.03540108,  0.1635939 , ...,  0.19236319,
        -0.1472768 ,  0.0139805 ],
       [ 0.19454236, -0.08634178,  0.10947739, ...,  0.03405735,
        -0.14790235, -0.0009466 ],
       [-0.0088187 , -0.21634892, -0.01317325, ..., -0.04822404,
         0.01997719,  0.07304514],
       ...,
       [-0.11606478,  0.09968559, -0.1909063 , ...,  0.02873203,
         0.19393866,  0.06193072],
       [ 0.00252427, -0.2394489 , -0.12123157, ..., -0.05189986,
        -0.17629506,  0.18243061],
       [-0.05971986,  0.19113524,  0.05141175, ...,  0.07302216,
        -0.01481896, -0.04089622]], dtype=float32), array([[-0.00089215,  0.1211469 , -0.05319216, ...,  0.16930425,
         0.12946188,  0.0407088 ],
       [-0.08425625, -0.33784568, -0.06500454, ..., -0.18562123,
         0.13479383, -0.00340043],
       [ 0.10126544,  0.0596708 , -0.3345778 , ..., -0.0576431 ,
         0.12685978, -0.22224922],
       ...,
       [-0.11011127, -0.05950799,  0.22059968, ..., -0.02914822,
        -0.03456303,  0.02283335],
       [-0.18414769,  0.20103744,  0.3129413 , ..., -0.17992538,
        -0.14682287, -0.0979409 ],
       [ 0.09176545, -0.15499635, -0.13979758, ..., -0.01998837,
         0.21740592, -0.00665311]], dtype=float32), array([[-0.02168288],
       [-0.03359716],
       [-0.34869012],
       [ 0.38278785],
       [-0.07443333],
       [ 0.12078632],
       [-0.05771888],
       [-0.21379422],
       [ 0.07108034],
       [-0.37464947],
       [ 0.37116486],
       [-0.1801672 ],
       [-0.12809238],
       [ 0.03691423],
       [ 0.01316369],
       [ 0.2842414 ],
       [-0.06493585],
       [ 0.09263818],
       [-0.15633747],
       [-0.15200108],
       [-0.30846697],
       [ 0.21564965],
       [-0.48064598],
       [-0.33955863],
       [ 0.13439439],
       [-0.00347315],
       [-0.2916215 ],
       [-0.20961083],
       [ 0.09588093],
       [-0.06549325],
       [ 0.19615898],
       [ 0.06145195]], dtype=float32)]


Weights_k:
[array([[-1.18603231e-02,  2.10846007e-01, -7.14321062e-02,
        -7.80827045e-01,  5.36608934e-01,  4.60836440e-01,
        -3.67925197e-01, -9.02715102e-02,  5.65068007e-01,
         8.51241112e-01,  1.39120668e-01, -1.07950890e+00,
        -4.76428688e-01, -2.51972049e-01, -5.44903517e-01,
        -2.71688402e-01, -5.93828499e-01, -5.39338946e-01,
         3.57105762e-01, -5.54675877e-01,  4.46143508e-01,
         5.17131269e-01,  5.17066419e-01, -5.18206060e-01,
         3.05983752e-01,  2.48268709e-01,  2.29930937e-01,
        -4.84935313e-01, -2.49829188e-01,  5.03868520e-01,
         4.09223765e-01,  4.96998221e-01, -5.39086580e-01,
        -7.09747139e-04,  7.22545803e-01, -5.53152449e-02,
        -2.47194678e-01,  5.53382397e-01,  4.42801923e-01,
        -3.58079165e-01, -1.28472596e-01, -1.11840554e-02,
         3.51108760e-01, -1.06026875e-02,  5.25972366e-01,
         4.60640967e-01,  1.06714594e+00, -4.92351592e-01,
         4.53795046e-01,  9.36148241e-02,  4.80650842e-01,
        -5.43294191e-01, -3.76003861e-01, -4.59911972e-01,
         4.30853188e-01, -9.20460045e-01, -4.74496603e-01,
        -6.06364191e-01, -5.88554561e-01,  6.27907634e-01,
        -5.34359217e-01,  4.73241091e-01, -4.06679064e-02,
        -6.64379299e-01, -4.76199120e-01,  4.43829060e-01,
        -7.78954148e-01, -3.34543854e-01, -4.61908370e-01,
        -5.68226218e-01,  4.28119898e-01, -4.53777850e-01,
        -3.47421914e-01, -6.44686818e-01,  4.60271418e-01,
        -7.28070021e-01,  5.23711383e-01,  9.36960280e-02,
         1.64556310e-01,  4.89066303e-01,  8.05278003e-01,
         5.34393132e-01,  1.37109950e-01, -3.29700053e-01,
        -7.10646093e-01, -4.66742933e-01,  3.61106634e-01,
         5.72086692e-01, -5.14386535e-01, -5.50553024e-01,
        -7.23015368e-02,  1.28608435e-01,  6.21433556e-01,
        -1.84654072e-01, -6.05184436e-01,  1.56446800e-01,
        -6.36385679e-01, -4.50811207e-01, -6.04435802e-01,
         2.06444487e-01],
       [ 1.46121129e-01, -6.98563814e-01,  8.39063883e-01,
         6.43397868e-01, -2.71616310e-01, -3.91661376e-01,
        -5.95256090e-01, -6.29180014e-01,  1.30130276e-01,
        -5.52881241e-01, -8.79645526e-01,  2.32584566e-01,
         1.39062986e-01, -7.25550532e-01, -2.31064901e-01,
         4.25042182e-01,  1.71323791e-01, -6.45970404e-02,
        -1.83699742e-01, -1.33502626e+00,  3.80928457e-01,
         6.03062749e-01,  2.05986332e-02, -9.09967601e-01,
        -7.75360942e-01, -4.17464226e-01,  6.52485907e-01,
         5.60975447e-02, -3.65705192e-01,  4.24414724e-01,
         9.70990881e-02, -4.08382118e-02, -2.67171144e-01,
         5.91409922e-01,  1.56205386e-01, -1.24540949e+00,
         5.69584787e-01,  3.70072007e-01,  2.87943870e-01,
         3.60533416e-01,  7.81252921e-01, -8.96754682e-01,
         6.00301147e-01, -4.53315556e-01, -1.64250970e-01,
         4.33178514e-01, -3.39892298e-01,  2.60735720e-01,
         6.23866022e-01, -7.75299847e-01,  1.04906714e+00,
        -5.18683195e-01,  1.39156297e-01,  5.41960597e-01,
         1.59839708e-02, -3.60602707e-01,  2.77449101e-01,
         2.04745978e-01, -1.72170982e-01, -3.16366881e-01,
         2.18951732e-01,  1.50972515e-01,  4.00273263e-01,
        -7.55370140e-01,  2.44989738e-01,  1.98435724e-01,
         1.48334473e-01,  2.03966424e-01, -7.06442952e-01,
        -5.32391846e-01, -3.41044545e-01,  4.07732487e-01,
        -3.74808788e-01,  2.03689456e-01,  2.50085354e-01,
         3.18768948e-01,  4.38972592e-01, -7.35932529e-01,
         7.13791966e-01,  3.07318717e-01,  1.15676001e-01,
        -3.01453233e-01, -3.02881926e-01, -3.55663985e-01,
         4.22380306e-02, -5.72947264e-01, -5.45490324e-01,
        -1.70894057e-01,  1.58105806e-01,  2.88489908e-01,
         4.84735876e-01, -6.30268514e-01,  4.64846104e-01,
         7.11580455e-01, -3.18703383e-01,  1.05139208e+00,
        -2.28251427e-01, -4.45013463e-01, -2.75664479e-01,
         2.95230925e-01]], dtype=float32), array([[-0.1843245 ,  0.17343318, -0.24852249, ...,  0.1866008 ,
        -0.03324937,  0.13611707],
       [-0.01534388, -0.01296347,  0.12188638, ..., -0.16217002,
        -0.10319876, -0.00998976],
       [-0.02368524,  0.02420253, -0.31180754, ...,  0.03382456,
         0.0103599 ,  0.07579126],
       ...,
       [-0.17299446, -0.0171434 ,  0.00968801, ...,  0.28110647,
         0.04797439, -0.13531026],
       [-0.05796191,  0.0515834 , -0.20983669, ...,  0.42032456,
         0.13397205, -0.09699564],
       [ 0.21693823, -0.16477059, -0.13114278, ..., -0.01416263,
        -0.12067449,  0.0901088 ]], dtype=float32), array([[-0.02094441,  0.08321235,  0.05862596, ..., -0.22422445,
        -0.149016  ,  0.01540508],
       [ 0.05934083,  0.02006652,  0.0252207 , ..., -0.01943876,
        -0.04355397,  0.02207591],
       [ 0.02279905, -0.09617495,  0.04156234, ..., -0.04854277,
         0.11952786, -0.09184608],
       ...,
       [-0.10253635,  0.02779478, -0.05467794, ...,  0.25323504,
        -0.06543773, -0.1979965 ],
       [ 0.0834052 ,  0.03786125, -0.09087738, ..., -0.08443771,
        -0.17497288, -0.02264047],
       [-0.09747936,  0.076179  ,  0.19361132, ..., -0.09629337,
        -0.00880494,  0.01300375]], dtype=float32), array([[-9.82956772e-05],
       [-1.63298294e-01],
       [ 6.34936690e-02],
       [ 6.24565482e-02],
       [-1.30373329e-01],
       [ 6.25307187e-02],
       [ 1.21102647e-04],
       [ 6.63328767e-02],
       [ 1.89775661e-01],
       [-8.36130418e-03],
       [ 1.54611513e-01],
       [-9.58880931e-02],
       [-1.31837165e-04],
       [-1.91720262e-01],
       [ 2.43421644e-01],
       [ 6.54219766e-05],
       [-5.97707890e-02],
       [-2.13953286e-01],
       [-8.20161849e-02],
       [-7.85224512e-02],
       [-2.75436174e-02],
       [-1.48782596e-01],
       [-2.22974941e-02],
       [-4.55830195e-05],
       [ 9.61140543e-02],
       [-1.88455284e-01],
       [-3.26215588e-02],
       [-5.97669482e-02],
       [ 1.06215084e-04],
       [-9.28868130e-02],
       [ 5.01327887e-02],
       [-2.33280987e-01],
       [-3.79571989e-02],
       [ 1.03518724e-01],
       [ 1.23349763e-01],
       [-1.07437953e-01],
       [-8.06207284e-02],
       [-8.02699700e-02],
       [ 2.68830806e-01],
       [-1.62916884e-01],
       [-3.25587019e-02],
       [-1.81245342e-01],
       [ 4.51682601e-03],
       [-1.49787009e-01],
       [ 8.74113466e-05],
       [-3.74739587e-01],
       [ 1.33481110e-03],
       [ 1.79870367e-01],
       [ 8.40766504e-02],
       [ 9.66735855e-02],
       [ 7.48063475e-02],
       [-5.45056462e-02],
       [-1.61107033e-01],
       [ 5.44000723e-05],
       [-2.87158471e-02],
       [ 1.47948354e-01],
       [ 8.59832913e-02],
       [-9.12400037e-02],
       [ 1.99513569e-01],
       [-4.01852594e-06],
       [-1.32901981e-01],
       [-2.24493057e-01],
       [ 2.82097846e-01],
       [-1.67742118e-01],
       [ 1.21123724e-01],
       [-7.02555105e-02],
       [ 6.24368340e-02],
       [-7.69369900e-02],
       [-2.11903080e-02],
       [ 7.70006254e-02],
       [ 3.06995541e-01],
       [-1.49687380e-01],
       [ 1.38923571e-01],
       [-1.30187720e-01],
       [ 1.45207131e-02],
       [-9.85286906e-02],
       [-4.50298190e-02],
       [ 2.08895415e-01],
       [ 7.95751959e-02],
       [-7.60132596e-02],
       [-1.11655474e-01],
       [ 6.66648522e-02],
       [ 7.99883346e-05],
       [ 2.12199494e-01],
       [-6.35099262e-02],
       [-3.41513951e-05],
       [-8.08143914e-02],
       [-1.75729543e-01],
       [ 2.00587600e-01],
       [ 2.13355795e-01],
       [-2.85869173e-04],
       [-5.35410009e-02],
       [ 1.31116897e-01],
       [ 2.25721046e-01],
       [ 1.07370988e-01],
       [-7.75407106e-02],
       [-1.21298304e-04],
       [-5.65701164e-02],
       [ 4.71833795e-02],
       [ 2.20916849e-02]], dtype=float32)]


Weights_h:
[array([[-0.30400786,  0.01792022,  0.06938045,  0.02330546, -0.06868703,
         0.37080288,  0.01202486,  0.01886149,  0.10361246, -0.15670668,
        -0.03693129, -0.2700748 ,  0.06063279, -0.04794429, -0.18770742,
        -0.43031457,  0.0885537 , -0.03981707, -0.08119503, -0.16214885,
         0.11414637, -0.3256369 ,  0.278451  ,  0.2964988 ,  0.11967512,
         0.32852736,  0.4801364 , -0.19182198,  0.1929253 , -0.03105825,
         0.21247259,  0.12212262],
       [-0.08988723,  0.07390318,  0.05101496, -0.20506227,  0.26010945,
        -0.01923952, -0.23306885, -0.21306822,  0.12720756,  0.13766392,
        -0.21740034, -0.15015253, -0.3117034 ,  0.01175536,  0.29495478,
        -0.13960005, -0.14602302, -0.05989897, -0.09021899, -0.08428376,
        -0.0036646 , -0.266173  ,  0.26125628,  0.09124697,  0.01502525,
         0.06828384, -0.28480273, -0.00621608, -0.3989994 ,  0.00568015,
         0.43112308,  0.03681706]], dtype=float32), array([[ 0.11569422, -0.04723977,  0.3084169 , ..., -0.07265962,
         0.22303168, -0.21699463],
       [-0.11422396,  0.17824996, -0.0464906 , ..., -0.19711742,
         0.01816284,  0.02020247],
       [ 0.17763181, -0.25119373, -0.1642591 , ..., -0.25231907,
         0.03841883, -0.05415213],
       ...,
       [ 0.18433015,  0.23024501, -0.3433169 , ..., -0.11828477,
         0.17955808,  0.16050485],
       [-0.2366715 ,  0.0713651 , -0.25627568, ...,  0.27950966,
         0.28516105,  0.07738235],
       [-0.05673158, -0.27202567, -0.13438535, ..., -0.06205755,
        -0.12946098,  0.01012141]], dtype=float32), array([[ 0.05054799,  0.05766766,  0.25051004, ...,  0.03549561,
         0.15792166,  0.23611781],
       [-0.17571624,  0.1661249 , -0.31310213, ..., -0.27999386,
        -0.01309361, -0.04667158],
       [-0.21247248,  0.14322577,  0.05542572, ..., -0.09773356,
         0.13901141, -0.23091306],
       ...,
       [ 0.29810798,  0.16447218,  0.09788392, ..., -0.14747761,
        -0.31281254, -0.13939558],
       [ 0.0925322 ,  0.05173494,  0.20474224, ..., -0.19036953,
        -0.19046192, -0.27849728],
       [ 0.0337874 ,  0.23531835, -0.05128616, ..., -0.20331149,
        -0.14286007,  0.06216659]], dtype=float32), array([[-0.12511268],
       [-0.1893171 ],
       [-0.31220916],
       [ 0.2434964 ],
       [ 0.23665056],
       [ 0.0123227 ],
       [ 0.47079128],
       [-0.2175555 ],
       [-0.01930456],
       [-0.21869287],
       [ 0.20425278],
       [ 0.30568588],
       [ 0.21341772],
       [-0.08333297],
       [ 0.2469635 ],
       [-0.12570496],
       [ 0.04697948],
       [-0.3927118 ],
       [ 0.48104247],
       [-0.08670194],
       [-0.23502035],
       [ 0.06826956],
       [ 0.20307343],
       [-0.04939986],
       [ 0.30004272],
       [-0.252164  ],
       [-0.04778063],
       [-0.14081118],
       [ 0.1551775 ],
       [ 0.26574823],
       [-0.00438787],
       [ 0.06894805]], dtype=float32)]


Weights_c:
[array([[-0.13442113,  0.19845286,  0.09708432,  0.40922683, -0.36279464,
        -0.29366985,  0.13334762,  0.19582412, -0.36474195, -0.00639213,
         0.16563483, -0.07134784,  0.10933784,  0.16500331,  0.05301572,
        -0.21443018, -0.22199033,  0.19119225,  0.3372994 ,  0.35366562,
         0.1364199 , -0.18138339,  0.04972997, -0.16778229, -0.16920207,
        -0.12581487,  0.12767327, -0.14963128,  0.3119879 , -0.14133012,
         0.23281942,  0.25819734],
       [ 0.1487653 , -0.32936358, -0.07373161,  0.13086993, -0.370247  ,
        -0.02450482, -0.19813125, -0.33103657,  0.07152235,  0.10551912,
        -0.03737341, -0.28994802, -0.08255294,  0.25516197, -0.16769898,
        -0.03791162, -0.15366833,  0.08617391,  0.01770783,  0.3197725 ,
         0.10101067,  0.02484412, -0.08822213, -0.00227069, -0.05929791,
        -0.22289096,  0.34699023, -0.47490385,  0.32694906, -0.30304962,
        -0.23912951,  0.00561153]], dtype=float32), array([[ 0.06139038, -0.14951885,  0.12830696, ..., -0.07389957,
        -0.26557326,  0.14496595],
       [ 0.2894069 , -0.266369  , -0.03214949, ..., -0.01776998,
         0.05788056, -0.06198962],
       [ 0.02053292,  0.01680291, -0.0542418 , ..., -0.15697622,
        -0.05625335,  0.13148633],
       ...,
       [-0.30171463,  0.2308341 , -0.0315115 , ..., -0.00481637,
         0.11398295,  0.07938053],
       [ 0.06103221, -0.05772445,  0.12204749, ...,  0.17899142,
         0.1825149 ,  0.10094772],
       [ 0.18110369,  0.10372639,  0.12031326, ..., -0.03262603,
        -0.04672311, -0.17034456]], dtype=float32), array([[-0.1871115 , -0.02301693, -0.06045176, ..., -0.00649628,
         0.14063711,  0.07507982],
       [ 0.17728989,  0.107947  ,  0.07035647, ...,  0.29785442,
        -0.09396828,  0.18469846],
       [ 0.14216708,  0.13490656,  0.1967732 , ..., -0.09733833,
         0.15251693,  0.00948957],
       ...,
       [-0.17658044,  0.23159759, -0.3381804 , ..., -0.10576715,
         0.14067194,  0.05445183],
       [ 0.04000979, -0.1588569 , -0.1999719 , ..., -0.17903924,
        -0.05965688,  0.13578263],
       [-0.10473091, -0.00378662,  0.2004241 , ...,  0.27385694,
         0.29562017, -0.01813447]], dtype=float32), array([[-0.00594524],
       [-0.254245  ],
       [-0.1919461 ],
       [ 0.07142402],
       [ 0.02193999],
       [-0.11047361],
       [ 0.12381399],
       [-0.20115456],
       [ 0.16134983],
       [-0.10313765],
       [ 0.1157281 ],
       [ 0.12451386],
       [ 0.19572425],
       [-0.45730788],
       [ 0.36600986],
       [ 0.01748684],
       [-0.34259507],
       [ 0.10353127],
       [-0.18891682],
       [ 0.10702197],
       [ 0.11450938],
       [ 0.25676802],
       [-0.26005375],
       [-0.11707489],
       [ 0.310538  ],
       [ 0.2419247 ],
       [-0.33584556],
       [-0.03312165],
       [ 0.29492825],
       [-0.04745822],
       [ 0.28261483],
       [-0.01298675]], dtype=float32)]


Weights_k:
[array([[-0.53887296, -0.1684163 ,  0.6315086 , -0.4484516 ,  0.75941   ,
        -0.5009438 ,  0.76945215,  1.2093433 , -0.1836914 , -0.687582  ,
         0.60896957, -0.25094274,  0.11023918,  0.35156557, -0.05062124,
        -0.48696566, -0.6835988 ,  0.27533236, -0.6557116 , -0.5642403 ,
        -0.46780428,  0.42286757,  0.755601  , -0.3740369 , -0.1881739 ,
        -0.8853515 , -0.5018591 , -0.33595175,  0.28573704, -0.5975157 ,
        -1.3649552 , -0.789529  , -0.7890219 , -0.6095472 , -0.35870928,
         0.4349651 ,  0.21679756,  0.17461893,  0.57685584,  0.44148424,
        -0.31682247, -0.48244512, -0.38564026,  0.16150281,  0.6199947 ,
         0.67073506,  0.54812175,  0.3403937 ,  0.2512628 ,  1.1742538 ,
        -0.19215994,  0.16161025,  0.47888744,  0.49601707, -0.41692844,
         0.02083224,  0.24695763,  0.6375971 ,  0.36259174,  0.6186817 ,
        -0.34254274,  0.6309245 ,  0.20641601,  0.609685  ,  0.5006648 ,
        -0.12402807,  0.8720724 ,  0.59635484, -0.14804769,  0.21006814,
         0.1258475 ,  0.66110367,  0.4667747 ,  0.40929765, -0.3487986 ,
         0.7135544 , -0.5121796 ,  0.28421685, -0.44897714,  0.7607263 ,
        -0.7922886 ,  0.12070989, -0.04071168,  0.5555848 ,  0.51398283,
        -0.23058984,  0.5835333 , -0.5668626 ,  0.90813035, -0.5735756 ,
         0.42419901,  0.45718163,  0.3707581 , -0.53634423,  0.02266765,
         0.36531487, -0.2446902 ,  0.10543706, -0.7658466 , -0.10544594],
       [ 0.48978162,  0.7782146 , -0.450044  ,  0.45525834, -0.12346314,
         0.14241323,  0.4639393 ,  0.40707928, -0.5840933 ,  0.6034557 ,
         0.3607978 , -0.5699765 ,  0.60744524,  1.0314884 , -0.7768138 ,
         0.33550936, -0.27172795,  0.6844516 , -0.6086048 , -0.2272761 ,
        -0.7578752 ,  0.0853318 ,  0.65170985,  0.3423929 ,  0.51543367,
        -0.0915535 , -0.12771861,  0.4981147 , -0.89002043, -0.3419865 ,
         0.47243375, -0.31427884, -0.01694465,  0.15427308,  0.08821544,
        -0.5483485 , -0.43663543, -0.7430462 , -0.3785458 ,  0.52063227,
         0.15117759,  0.5655064 , -0.02230159,  0.2716023 ,  0.47790462,
         0.86318153,  0.59006053,  1.2372757 , -0.5643572 ,  0.5984323 ,
         0.5718871 , -0.49119565,  0.07511615, -0.19335066,  0.10678615,
        -0.19590457, -0.7180718 ,  0.85072374, -0.15564072, -0.7085905 ,
        -0.1897697 , -0.46363044, -0.54962564,  0.27444738, -0.33090553,
        -0.5427641 ,  0.12387518,  0.2478554 ,  0.84622556,  0.7496962 ,
        -0.4028518 ,  0.19885091,  0.02071257,  0.6249975 , -0.51378554,
         0.30796215,  0.24800843, -0.7445271 ,  0.5481713 ,  0.44133335,
        -0.6158244 , -0.5085683 , -0.77989846, -0.13118865,  1.0053229 ,
        -0.98739886,  0.5145054 , -0.41852835, -0.096666  ,  0.378975  ,
         0.29247767, -0.3542653 , -0.46919626,  0.21853766,  1.0830356 ,
         0.7572747 ,  0.40105733, -0.10291169, -0.611943  ,  0.7111199 ]],
      dtype=float32), array([[ 0.04760222,  0.04639314, -0.16675463, ..., -0.06760797,
         0.08865738,  0.50899416],
       [ 0.01900166, -0.2389147 ,  0.02396967, ...,  0.11992239,
         0.2311091 ,  0.540599  ],
       [ 0.10692006,  0.1150468 ,  0.00095597, ...,  0.13943562,
        -0.04005757, -0.49673718],
       ...,
       [ 0.29391858, -0.11281768, -0.05666475, ...,  0.07886275,
         0.04646006,  0.01017344],
       [-0.14809184,  0.16674699,  0.0692219 , ...,  0.09471152,
        -0.37026525,  0.06348623],
       [-0.01519812, -0.05591774, -0.14058927, ...,  0.03177014,
         0.13052547,  0.23096761]], dtype=float32), array([[ 0.11069154,  0.02352156, -0.06036901, ..., -0.11920365,
         0.01033706,  0.13665822],
       [ 0.06276969,  0.11489612, -0.15623048, ..., -0.10308339,
        -0.09611382, -0.0139665 ],
       [ 0.1622612 ,  0.09737187,  0.1437242 , ...,  0.1029643 ,
         0.14797851, -0.01642207],
       ...,
       [-0.03909609, -0.05191984, -0.06063641, ..., -0.05036762,
        -0.02429664, -0.14149667],
       [-0.036564  , -0.0346    ,  0.03048077, ..., -0.03253509,
         0.12190361,  0.13371745],
       [ 0.04263599, -0.136349  , -0.02258134, ...,  0.0151438 ,
        -0.0290999 , -0.05148601]], dtype=float32), array([[ 1.09627574e-04],
       [ 5.72302006e-03],
       [ 1.90617953e-04],
       [-1.94509588e-02],
       [-2.59438604e-01],
       [ 1.37254450e-04],
       [-6.34661987e-02],
       [-1.37267197e-02],
       [-1.26078457e-01],
       [-8.85441154e-02],
       [-1.04187481e-01],
       [-3.35398883e-01],
       [-8.59656036e-02],
       [ 5.61937056e-02],
       [ 4.56196023e-03],
       [ 2.02586569e-04],
       [-2.80949980e-01],
       [-1.46571621e-01],
       [-7.91578460e-03],
       [ 2.68478185e-01],
       [-2.13599011e-01],
       [-2.49760178e-05],
       [ 1.93969794e-02],
       [-7.97733446e-05],
       [-2.10308313e-01],
       [-3.41818231e-05],
       [-3.75738442e-02],
       [-1.07262023e-01],
       [ 5.83590954e-05],
       [-9.53519940e-02],
       [-1.04119636e-05],
       [-6.55598417e-02],
       [ 2.64677015e-04],
       [-2.71487068e-02],
       [ 1.18328623e-01],
       [ 2.31007100e-04],
       [-5.16541563e-02],
       [ 1.85155790e-04],
       [-1.36685660e-02],
       [ 1.57262579e-01],
       [-5.52056283e-02],
       [-1.11700222e-01],
       [ 1.23998063e-04],
       [-8.53819074e-06],
       [-1.53281644e-01],
       [ 1.15709774e-01],
       [-1.77472420e-02],
       [-2.01655537e-01],
       [ 1.36353061e-01],
       [ 1.23462953e-01],
       [-6.06171526e-02],
       [ 2.18829378e-01],
       [-8.00035596e-02],
       [-1.93432719e-01],
       [ 1.02769351e-02],
       [ 1.17616557e-01],
       [-3.53256182e-05],
       [-1.70253783e-01],
       [-4.86410968e-03],
       [-1.11434408e-01],
       [-8.53565037e-02],
       [ 1.49278814e-04],
       [ 1.86743930e-01],
       [ 8.84205326e-02],
       [-3.53716165e-02],
       [-6.96355402e-02],
       [ 2.19192356e-01],
       [-2.38663748e-01],
       [ 3.59560587e-02],
       [ 2.08550826e-01],
       [ 4.70251702e-02],
       [ 2.68798888e-01],
       [ 1.63174510e-01],
       [-8.58867392e-02],
       [-1.11869611e-02],
       [ 1.64356574e-01],
       [ 7.64163360e-02],
       [-1.28021896e-01],
       [ 1.29530075e-04],
       [-1.39604984e-02],
       [-2.18589246e-01],
       [-5.64249940e-02],
       [-3.36040102e-05],
       [-2.00385034e-01],
       [ 1.20025150e-01],
       [ 3.25227201e-01],
       [ 6.89788212e-05],
       [-1.10366158e-01],
       [-1.82619393e-01],
       [-1.30626932e-01],
       [-1.38505444e-01],
       [-3.31098825e-04],
       [ 8.27814639e-02],
       [ 2.12628409e-01],
       [-2.22495776e-02],
       [ 1.66961819e-01],
       [-1.05686046e-01],
       [ 1.92106134e-04],
       [ 8.22221488e-02],
       [-1.83053121e-01]], dtype=float32)]


Weights_h:
[array([[ 0.21761176, -0.06866745, -0.1568707 ,  0.01163642,  0.23694262,
        -0.3583775 , -0.1254417 ,  0.18340953, -0.03919468,  0.13551612,
         0.06590401,  0.00784959, -0.14344597,  0.20329988,  0.08609977,
        -0.04263502,  0.2112599 , -0.19337872, -0.16948462,  0.0635085 ,
         0.21023078,  0.4606883 , -0.19543542,  0.30974808,  0.08987384,
        -0.10368224,  0.09751139, -0.24336322,  0.10676917,  0.11090305,
        -0.12117792, -0.18344821],
       [-0.06623748,  0.3326226 , -0.03918875, -0.17474748,  0.03005263,
         0.382488  ,  0.00332448, -0.04954591, -0.01753859, -0.43648535,
        -0.28214735, -0.01858219,  0.15916474, -0.05888181, -0.2932501 ,
        -0.22194889, -0.1412111 ,  0.34414494, -0.09136651, -0.1726395 ,
         0.3205803 ,  0.31963515, -0.23500647,  0.14209367, -0.01877834,
        -0.0736273 , -0.04039801, -0.08810985, -0.3979339 , -0.33061746,
        -0.3859166 ,  0.16417502]], dtype=float32), array([[-0.31348026, -0.09603777, -0.00605665, ..., -0.27864516,
        -0.04771524,  0.3164231 ],
       [-0.11479451,  0.11294184, -0.10407682, ..., -0.05251154,
        -0.06626305,  0.31422135],
       [-0.17162123, -0.01299953,  0.22427683, ...,  0.16681981,
        -0.23973568,  0.0182342 ],
       ...,
       [ 0.04825148, -0.03999862,  0.05611135, ...,  0.01072962,
        -0.04241518, -0.1318942 ],
       [-0.01337449, -0.09352002,  0.20202766, ..., -0.04658755,
         0.25717378, -0.30073008],
       [ 0.22533484, -0.0842543 ,  0.03436501, ..., -0.0337697 ,
         0.17285144,  0.00769653]], dtype=float32), array([[ 0.00070873, -0.09612991, -0.08668564, ..., -0.16653763,
        -0.01368161, -0.00373128],
       [-0.02081122, -0.01263396,  0.1091    , ...,  0.10281656,
         0.04255705, -0.02786921],
       [-0.21672575,  0.05605174, -0.32428974, ..., -0.04200837,
         0.26970264, -0.271437  ],
       ...,
       [ 0.0216892 ,  0.23742533, -0.17781271, ...,  0.25779969,
        -0.04728901,  0.09846446],
       [ 0.10556652, -0.251843  ,  0.05399964, ...,  0.16026028,
        -0.10508182, -0.07755994],
       [-0.25969392, -0.2540061 , -0.343167  , ..., -0.05324988,
        -0.22797397,  0.12224432]], dtype=float32), array([[-0.29859096],
       [-0.12805055],
       [ 0.01005595],
       [-0.32689485],
       [-0.04857918],
       [ 0.00875255],
       [-0.1196961 ],
       [-0.06431265],
       [-0.3851508 ],
       [-0.25443295],
       [-0.14194065],
       [ 0.11982951],
       [-0.12796186],
       [ 0.1563057 ],
       [-0.11836494],
       [-0.3212594 ],
       [ 0.3208776 ],
       [ 0.05173323],
       [-0.01375938],
       [ 0.02027991],
       [ 0.26122308],
       [ 0.20663449],
       [-0.13485418],
       [-0.2246924 ],
       [ 0.01677882],
       [ 0.22474578],
       [ 0.33265752],
       [ 0.03274905],
       [ 0.14458646],
       [ 0.13426332],
       [ 0.4807502 ],
       [ 0.01078109]], dtype=float32)]


Weights_c:
[array([[-0.02773894, -0.02238187,  0.21106188, -0.04069914, -0.17352179,
         0.07246035, -0.04314454,  0.03694176,  0.2564744 ,  0.06800909,
         0.18002336, -0.36544546, -0.21775676,  0.04824789,  0.20188303,
        -0.2734754 ,  0.25981113, -0.01752807, -0.46116522, -0.21952274,
        -0.02799732,  0.17632742, -0.2516311 ,  0.306759  , -0.15132926,
         0.2539523 , -0.0382761 , -0.37671953,  0.31306678, -0.2784782 ,
        -0.09871036,  0.18954185],
       [-0.04505695,  0.26984042,  0.42244646,  0.08894147,  0.41332003,
        -0.18850683,  0.0195058 ,  0.07561946,  0.3693138 , -0.0629966 ,
        -0.1460936 ,  0.05240527, -0.0884099 , -0.17930648,  0.14684425,
         0.39418563, -0.28095478,  0.10409319, -0.00095421,  0.18695545,
         0.09041143,  0.23027728,  0.057171  , -0.11877465, -0.09786086,
        -0.28330937,  0.2471343 , -0.35242116, -0.0344678 ,  0.07418243,
        -0.3059995 , -0.3026282 ]], dtype=float32), array([[-0.09376832,  0.05604881,  0.20350385, ...,  0.08695684,
         0.31278467,  0.00997129],
       [-0.26797202,  0.03841998, -0.09305635, ..., -0.26779708,
        -0.0029179 , -0.29075247],
       [-0.08340988,  0.06215201, -0.13043395, ..., -0.2037869 ,
        -0.03482126,  0.16955835],
       ...,
       [-0.12846291, -0.07543447, -0.18251508, ...,  0.20554353,
        -0.07856128,  0.13175283],
       [ 0.08770239, -0.07662755, -0.3470475 , ...,  0.2993582 ,
        -0.00894539,  0.19255957],
       [ 0.02059019,  0.26415154, -0.04832577, ..., -0.03868418,
        -0.05232628, -0.20270042]], dtype=float32), array([[ 0.02891468,  0.20150585, -0.14556527, ..., -0.03954394,
         0.06996314, -0.10403655],
       [-0.02890217, -0.10630672, -0.14136542, ...,  0.07433087,
         0.03790386, -0.00475042],
       [-0.3085963 ,  0.24910669, -0.00959708, ...,  0.03975948,
        -0.12678383, -0.01123672],
       ...,
       [ 0.18684956,  0.06893972,  0.30750975, ..., -0.1435334 ,
         0.16136357,  0.07172196],
       [ 0.00605324,  0.03754336,  0.11350088, ...,  0.02075126,
         0.09186033, -0.16736029],
       [-0.08266553, -0.1671539 , -0.12203153, ...,  0.1265494 ,
        -0.01370834, -0.251923  ]], dtype=float32), array([[ 2.94102907e-01],
       [-4.16558614e-04],
       [ 9.80608165e-03],
       [-4.34766412e-02],
       [ 1.90041095e-01],
       [-3.32134634e-01],
       [-2.64160067e-01],
       [ 2.29354471e-01],
       [-1.45829305e-01],
       [ 2.44389847e-01],
       [ 1.24667585e-01],
       [-2.11100310e-01],
       [ 4.19094473e-01],
       [-1.63462877e-01],
       [ 1.93111777e-01],
       [ 2.56596327e-01],
       [-3.60058755e-01],
       [-3.85673314e-01],
       [ 4.69617367e-01],
       [-1.00910343e-01],
       [ 1.82702839e-01],
       [ 8.35569426e-02],
       [-1.88650310e-01],
       [-5.02467416e-02],
       [ 2.33310059e-01],
       [ 4.18203324e-02],
       [-3.35680485e-01],
       [ 2.02316537e-01],
       [ 2.52752960e-01],
       [ 4.90336925e-01],
       [ 1.72318891e-01],
       [ 6.36678189e-02]], dtype=float32)]


Weights_k:
[array([[-0.45254052,  0.16619043,  0.5606878 ,  0.07924427, -0.84909093,
        -0.44413716,  0.67790246,  0.30497736,  1.1738268 , -0.71484405,
         0.42355764,  0.1248484 , -0.8149369 ,  0.6781209 ,  0.17819887,
        -0.703811  , -0.6913    , -0.4213606 ,  0.00148148,  0.20081256,
        -0.6276577 ,  0.63725954, -0.27795646,  0.9265589 , -0.35051173,
        -0.1772279 ,  0.7882619 ,  0.29235604, -0.7797662 ,  0.7279082 ,
        -0.07997817,  0.603638  , -0.40903145,  0.4995304 , -0.6969039 ,
         0.5877127 ,  0.7769536 ,  0.542094  ,  0.91234773,  0.64220697,
         0.6134033 ,  0.62766874,  0.9418095 , -0.40497747,  0.2827113 ,
        -0.55781275, -0.48438907, -0.7640217 ,  0.9533876 , -0.41607815,
         0.65802664,  0.37321854, -0.5286408 , -0.3761957 ,  0.9749541 ,
        -0.86128366, -0.81022966, -0.6801682 , -1.0866314 ,  1.22075   ,
        -0.28787875, -0.30855632,  0.82919794,  0.00480464,  0.7307341 ,
        -0.24699481,  0.85604006, -0.06348345, -0.5770519 ,  0.4824642 ,
        -0.30074978,  0.61565924, -0.66026384, -0.42984658, -0.85528076,
        -0.24100827,  0.2147736 , -0.51227534, -0.40766513, -0.16734794,
         0.05877895,  0.31613007, -0.72211826, -0.63425463,  0.5467108 ,
         0.28629526,  0.8996932 , -0.30827996, -0.37236238,  0.8432769 ,
         0.3619916 ,  0.34359252,  0.05225497, -0.618031  , -0.41453937,
        -0.5184605 , -0.6785654 ,  0.6502654 ,  0.6500055 , -0.406107  ],
       [-0.56187034, -0.5257818 ,  0.4733097 ,  0.7598643 ,  0.2285902 ,
         0.61487126,  0.5440545 , -0.98691064,  0.40557957,  0.12253628,
        -0.29490638, -1.0119413 ,  0.29462102,  0.751197  , -0.240896  ,
         0.38146892, -0.34257483, -0.6237354 ,  0.6235929 ,  0.46907622,
         0.3312717 ,  0.31479916,  0.4771062 , -0.44576395,  0.60622036,
         0.4935446 , -0.47375324, -0.30379224, -0.67030287, -0.00521635,
         0.79219055,  0.5138199 ,  0.50784075,  0.7663544 ,  0.13616675,
        -0.39075354, -0.03089736, -0.51344144, -0.8317079 ,  0.33882102,
         0.50196123,  0.5182363 , -0.03053745, -0.02580306, -0.53599495,
         0.67933416,  0.3461627 , -0.37294212,  0.11450697, -0.26326215,
         0.02212699,  0.4899455 , -0.75006104,  0.69776624,  0.08911933,
        -0.01059489,  0.14502071, -0.56664234,  0.00942375, -0.29443747,
         0.4319634 , -0.28874844, -0.00330261, -0.76516515,  0.01260749,
         0.9274596 ,  0.21687998, -0.5757255 , -0.48031884,  0.7223897 ,
         0.48081276, -0.43659243,  0.1674837 ,  0.8960402 ,  0.35965887,
        -0.2847261 , -0.5255093 ,  0.727864  ,  0.08359993,  0.54743105,
         0.60693115,  0.4255201 , -0.11051403, -0.6767303 ,  0.71859   ,
        -0.37890807, -0.5602039 , -1.2751837 , -0.14847402,  0.33850905,
         0.9101911 , -0.6336519 , -0.80724865,  0.39810947, -0.52686   ,
         0.74479395, -0.13689694, -0.6514295 , -0.01201842, -0.8004982 ]],
      dtype=float32), array([[-0.03789672,  0.12191104, -0.32177842, ..., -0.33850384,
        -0.06804544, -0.08825138],
       [-0.21219851,  0.14066277, -0.11856004, ...,  0.01295886,
        -0.475806  ,  0.02826723],
       [ 0.08632905,  0.09200715,  0.21039782, ...,  0.5950569 ,
        -0.0788746 ,  0.08161033],
       ...,
       [-0.03979564, -0.01495623,  0.2173619 , ...,  0.269436  ,
        -0.00098625, -0.06624418],
       [ 0.10057113,  0.07533424,  0.8133553 , ...,  0.3213861 ,
        -0.04302171,  0.14228943],
       [-0.06141809, -0.13954495, -0.1598299 , ..., -0.17954667,
        -0.1732304 , -0.10653772]], dtype=float32), array([[-0.13088877, -0.14416948,  0.03627108, ...,  0.11265873,
         0.05124043,  0.15814206],
       [ 0.03915012, -0.13788061, -0.15515764, ..., -0.00898421,
        -0.12195084, -0.00674522],
       [-0.35072953, -0.0472971 , -0.02847601, ...,  0.25183594,
         0.10281794, -0.11840384],
       ...,
       [-0.16375208, -0.11404338, -0.14404312, ..., -0.1716504 ,
        -0.02932479, -0.26297075],
       [ 0.26955935,  0.01328093,  0.14020847, ...,  0.03333321,
         0.08054087,  0.29887557],
       [ 0.03465887,  0.10584219, -0.03649177, ...,  0.0297343 ,
         0.10222712, -0.15497589]], dtype=float32), array([[-3.58993500e-01],
       [ 2.24188462e-01],
       [ 1.63897589e-01],
       [-9.72876251e-02],
       [ 6.76612630e-02],
       [ 1.23611175e-01],
       [-8.17604885e-02],
       [ 1.77532285e-01],
       [ 2.50067741e-01],
       [-1.54097900e-01],
       [-1.56505615e-01],
       [-1.38063952e-01],
       [-3.59923404e-04],
       [ 2.30087638e-01],
       [ 1.43427536e-01],
       [ 1.26524121e-01],
       [ 1.04695782e-01],
       [-5.18711731e-02],
       [-9.36056599e-02],
       [ 1.89685971e-01],
       [-2.43659034e-01],
       [ 3.57121462e-05],
       [ 8.66846070e-02],
       [ 1.18634075e-01],
       [-1.58694610e-01],
       [ 1.62570365e-02],
       [-1.02016656e-02],
       [-3.12663577e-02],
       [-1.64564833e-01],
       [ 2.24321280e-02],
       [ 2.76585221e-02],
       [-1.02124363e-01],
       [-2.02546880e-01],
       [-4.60259393e-02],
       [-1.21891117e-05],
       [ 2.56908629e-02],
       [-8.26506540e-02],
       [-2.36084434e-05],
       [ 9.96676274e-03],
       [ 8.79040882e-02],
       [-7.26832310e-03],
       [ 1.53606859e-04],
       [-2.45204866e-01],
       [ 9.12754461e-02],
       [-8.34190175e-02],
       [ 1.28493761e-04],
       [-2.37234160e-01],
       [ 8.90988667e-06],
       [ 1.58802122e-01],
       [-2.65372992e-01],
       [ 3.21946323e-01],
       [ 2.68573494e-04],
       [ 3.55531797e-02],
       [ 8.92425254e-02],
       [-2.34129623e-01],
       [ 7.65340179e-02],
       [ 2.58798655e-02],
       [-3.24786706e-05],
       [-1.03763588e-04],
       [ 2.33319271e-02],
       [-5.49703203e-02],
       [ 8.90376493e-02],
       [-1.14709049e-01],
       [ 2.14928543e-04],
       [ 1.96654742e-04],
       [ 1.35160074e-01],
       [ 5.74584939e-02],
       [ 1.67359431e-05],
       [-1.60998970e-01],
       [-2.70345956e-01],
       [-6.58113204e-05],
       [-8.03003460e-02],
       [ 6.37586713e-02],
       [ 3.66090164e-02],
       [-1.33433118e-01],
       [-6.61179349e-02],
       [ 1.12891890e-01],
       [ 1.30539120e-05],
       [-4.78818901e-02],
       [-6.11048415e-02],
       [ 7.06029981e-02],
       [-2.54652500e-01],
       [ 7.00701103e-02],
       [ 1.66359190e-02],
       [ 2.19344512e-01],
       [ 1.13347531e-04],
       [ 2.30610102e-01],
       [ 1.59015268e-01],
       [-5.44185787e-05],
       [ 1.97788507e-01],
       [-2.16430813e-01],
       [-1.15374334e-01],
       [ 2.19798550e-01],
       [-1.90431282e-01],
       [ 4.49878424e-02],
       [ 6.67069326e-05],
       [-2.65133800e-04],
       [-1.24363914e-01],
       [-4.65467237e-02],
       [ 3.09264600e-01]], dtype=float32)]


Weights_h:
[array([[ 4.5985198e-01,  3.1653088e-02, -9.4610095e-02,  2.9936381e-02,
         4.4416822e-02, -3.5678452e-01,  6.4765714e-02, -3.1960491e-02,
        -1.4181523e-01,  1.0354892e-01, -2.9966846e-01, -1.4293289e-01,
        -2.7292227e-02, -1.4529186e-02,  5.6072205e-02, -1.7751355e-01,
        -2.8846401e-01,  8.4634908e-02,  6.9677420e-02,  1.3474733e-01,
        -1.4507805e-01,  1.4786313e-01, -8.6261205e-02, -1.6822034e-01,
         1.7393834e-04, -4.1912919e-01,  3.4297634e-02,  3.5141623e-01,
         1.2131183e-01, -1.4974408e-01, -8.0398485e-02,  7.3297671e-03],
       [ 1.6548507e-01,  5.2168310e-02, -6.8092979e-02, -1.2759571e-01,
        -1.0013059e-01,  4.0918535e-01, -1.0014458e-04, -6.6912852e-02,
        -2.4814112e-01, -3.1258050e-01, -7.6035924e-02, -2.8104445e-01,
         1.2894349e-01, -1.9795634e-01, -1.2509815e-01,  5.1197100e-02,
        -2.3502448e-01, -2.2410347e-01,  3.0440360e-01,  4.8023928e-02,
        -7.6954593e-03, -4.6104953e-01,  4.5458329e-01, -3.1720391e-01,
         4.9215383e-03,  1.8161684e-01,  2.1115033e-02,  4.4258296e-01,
         2.5403532e-01, -3.0889186e-01,  1.6401905e-01, -3.0117527e-02]],
      dtype=float32), array([[-0.14303827,  0.02500917,  0.18917075, ..., -0.26461425,
         0.27748534,  0.03598652],
       [-0.02527359,  0.21100533,  0.08008699, ...,  0.14482719,
        -0.3511928 ,  0.29364157],
       [-0.09825195,  0.23041983,  0.20214812, ..., -0.16752832,
         0.06339921,  0.24940279],
       ...,
       [ 0.1659406 ,  0.06657028,  0.1193921 , ..., -0.1901631 ,
        -0.17676897,  0.22207469],
       [-0.18908185,  0.11093511, -0.15214474, ...,  0.04514555,
         0.10254516,  0.21312883],
       [ 0.31004855, -0.07135854, -0.12175947, ..., -0.11701073,
         0.28254333,  0.26543143]], dtype=float32), array([[ 0.19732043, -0.02829042,  0.14722571, ...,  0.2249647 ,
         0.07514738,  0.14194442],
       [ 0.33618668, -0.10528748,  0.04579602, ...,  0.12039438,
        -0.01748417, -0.13059057],
       [ 0.00781166, -0.26281735, -0.06113457, ...,  0.1732497 ,
         0.06874599,  0.16462028],
       ...,
       [ 0.09670289,  0.00574799,  0.05655579, ...,  0.03004449,
        -0.10422017,  0.19211134],
       [-0.03666924, -0.12673613,  0.04829501, ...,  0.2804445 ,
         0.10213619,  0.23199117],
       [-0.02485989,  0.07086693, -0.15266843, ..., -0.19834419,
         0.21654856, -0.1987142 ]], dtype=float32), array([[-0.06137362],
       [-0.24803077],
       [-0.14744101],
       [-0.27761987],
       [ 0.2951694 ],
       [ 0.07357154],
       [ 0.09882187],
       [ 0.2523106 ],
       [-0.19725755],
       [ 0.09623801],
       [-0.04581695],
       [ 0.28250656],
       [-0.11330771],
       [-0.00854755],
       [ 0.0618971 ],
       [-0.2719617 ],
       [-0.25745457],
       [-0.270398  ],
       [-0.27933082],
       [-0.0238261 ],
       [ 0.06151662],
       [ 0.23762152],
       [-0.2251945 ],
       [-0.20362206],
       [ 0.42528883],
       [ 0.15711048],
       [ 0.18522464],
       [-0.03827386],
       [ 0.17197673],
       [ 0.01234831],
       [-0.2516409 ],
       [-0.30535644]], dtype=float32)]


Weights_c:
[array([[ 0.04592385,  0.0418089 , -0.15129656, -0.13814618, -0.23305169,
        -0.25480327,  0.01989048, -0.1483743 , -0.13565724, -0.36851734,
        -0.05889921, -0.06366038, -0.336444  ,  0.03559427,  0.0354824 ,
        -0.01093947,  0.07018314,  0.1757688 , -0.13342184,  0.09266233,
        -0.14229353, -0.12295419,  0.10899246,  0.24183625, -0.11995822,
         0.3918303 , -0.25143793, -0.25314468,  0.17165169,  0.15363759,
         0.42438057,  0.20305945],
       [-0.15831798, -0.2557335 , -0.25931358,  0.12498111,  0.05328231,
         0.18446666,  0.34211543, -0.34436855,  0.12894766,  0.24522151,
         0.41924432,  0.07781219, -0.08171586, -0.03925864,  0.03001134,
         0.04588576,  0.10129904,  0.13561499,  0.14207675, -0.07735906,
        -0.17474242, -0.0308746 ,  0.25568584,  0.16379921,  0.45067108,
         0.2862476 , -0.182468  ,  0.06175597, -0.38036403, -0.0662001 ,
         0.3700039 ,  0.2506681 ]], dtype=float32), array([[ 5.5860728e-03,  1.8663917e-01, -2.8088749e-03, ...,
         3.9347537e-02,  6.2974785e-03, -1.1739839e-04],
       [ 7.8547329e-02,  9.4252639e-02, -1.5123378e-01, ...,
        -1.4751449e-01,  2.4177167e-01, -2.4494991e-01],
       [ 8.3280541e-02, -2.2533220e-01, -1.6298127e-01, ...,
         2.0429784e-01, -2.8757444e-01, -1.0693876e-01],
       ...,
       [-5.7727811e-03, -7.5999156e-02,  1.8906625e-01, ...,
        -6.8691783e-02, -1.9626567e-01, -1.2075148e-01],
       [ 6.0660108e-03, -7.2046109e-02, -2.8932514e-03, ...,
        -8.4790237e-02,  4.0415067e-02, -5.3564098e-02],
       [ 7.4008100e-02,  6.3014194e-02, -2.9262972e-01, ...,
        -1.6109335e-01,  6.8137810e-02, -5.5234708e-02]], dtype=float32), array([[-0.26464853, -0.1623153 ,  0.14151794, ...,  0.29842633,
        -0.0845253 ,  0.25036973],
       [-0.02985864,  0.14098378, -0.28290546, ..., -0.0161836 ,
         0.2712229 , -0.05202908],
       [-0.02243061,  0.01313352, -0.26123488, ...,  0.07003565,
         0.06863834,  0.09160221],
       ...,
       [ 0.3330193 ,  0.03742538,  0.09860221, ..., -0.00636405,
         0.2939863 ,  0.00210162],
       [-0.34872168, -0.17082694, -0.16700354, ...,  0.2548975 ,
         0.06301641, -0.02045715],
       [-0.26555872, -0.11161312, -0.1389981 , ..., -0.02893323,
         0.08425467, -0.06004058]], dtype=float32), array([[-0.04897578],
       [-0.24575524],
       [-0.00441061],
       [-0.38141105],
       [-0.3174321 ],
       [-0.10020119],
       [ 0.04259241],
       [ 0.19539478],
       [-0.0869453 ],
       [ 0.09390261],
       [-0.4087574 ],
       [-0.18379037],
       [ 0.04728005],
       [ 0.10562174],
       [-0.21612433],
       [ 0.22322008],
       [-0.03883009],
       [-0.06274892],
       [-0.12052643],
       [-0.02456137],
       [ 0.27942243],
       [ 0.07991317],
       [-0.17268063],
       [-0.10754759],
       [ 0.42694205],
       [-0.2489393 ],
       [-0.00896281],
       [ 0.27990142],
       [ 0.01765898],
       [ 0.20190835],
       [ 0.34650674],
       [ 0.14097689]], dtype=float32)]


Weights_k:
[array([[ 0.24745727, -0.5086571 , -0.73281884,  0.7302291 , -0.02175512,
         0.3345919 ,  0.46139628,  1.207631  , -0.00186414,  0.41630414,
         0.6505089 , -0.91241115, -0.40214312, -0.63001376,  0.7615611 ,
         0.8738494 ,  0.4475514 , -0.21174118, -0.38607663, -0.6399527 ,
        -0.32078362,  0.6858929 , -0.38186437,  0.4206643 ,  0.32504252,
        -0.14261429,  0.43571526,  0.33663657, -0.02856882,  1.2211708 ,
         0.08597453,  0.64235896, -0.300193  , -0.04788321, -0.42413908,
         0.5082438 , -0.65942186, -0.764724  , -0.38933313,  0.59819394,
        -0.3841685 ,  0.25622898,  0.14015795, -0.7983637 , -0.7121182 ,
        -1.0010816 , -0.6726126 ,  0.52334267, -0.2828465 ,  0.41190344,
         0.6693802 , -0.6473342 ,  0.4493863 , -0.5290664 ,  0.19425654,
        -0.7653476 , -0.1384552 ,  0.1823608 ,  0.742851  , -0.5587999 ,
         0.54818505,  0.31703523, -0.2407826 ,  0.41668597,  0.5421151 ,
         0.4827    ,  0.25664905,  0.6767214 ,  0.5340663 , -0.2903384 ,
        -0.61781174,  0.60045826, -0.13511898,  0.06752105, -0.33307788,
        -0.2909798 ,  0.8621875 , -0.490541  , -0.46843013,  0.42249426,
         1.5311762 , -0.5903368 ,  0.2350302 ,  0.11237676,  0.32204318,
        -0.46029264, -0.01736188,  0.5398725 ,  0.724373  ,  0.6848176 ,
         0.72173357,  0.08680747,  0.5219014 ,  0.02895818,  0.5070286 ,
        -0.6904856 ,  0.51386046,  0.20739594,  0.3386368 ,  0.6668729 ],
       [ 0.6128154 ,  0.13628764, -0.0582413 , -0.11676663,  0.48031655,
        -1.2483555 , -0.55459255, -0.23433688, -0.74555665, -0.46596745,
         0.59264547,  0.36087352,  0.8460309 ,  0.48348865,  0.16908456,
        -0.13032433,  0.54117393,  0.60144407, -0.2275625 , -0.27721873,
        -0.7545502 ,  0.23973863,  0.6681019 ,  0.34501445,  0.22848706,
        -0.8813127 ,  0.39341906,  0.18336193,  1.1594586 , -0.5596827 ,
         1.0743176 , -0.2577105 , -0.66850364, -0.7664807 ,  0.00708153,
        -0.44289476,  0.3570174 , -0.28039572,  0.6522459 ,  0.7521556 ,
        -0.22209786, -0.5872289 ,  1.1049645 , -0.2179836 , -0.41499072,
        -0.38243073, -0.13974322, -0.18320788, -0.29365912,  0.20393036,
         0.5112657 ,  0.56476784,  0.35352257,  0.13297829, -0.34476304,
         0.25307763,  0.5262666 , -0.6024635 , -0.1422397 , -0.22197857,
         0.04985904, -0.79676974,  0.20670716,  0.7660596 ,  0.13495065,
         0.08789159,  0.8767694 ,  0.0500532 , -0.43171105, -0.7426129 ,
         0.19641565, -0.11498427,  1.1738929 ,  0.8927155 , -0.25926813,
         0.9587246 , -0.08844484,  0.40321106, -0.69824886,  0.06329911,
        -0.15838891, -0.09540687,  1.0727315 , -0.51330745, -0.6608594 ,
        -0.03241782,  0.750487  , -0.30216464, -0.40456992, -0.28747472,
        -0.43833756, -0.6737146 ,  0.79362565, -1.0301048 ,  0.14645435,
        -0.18285304,  0.4177196 ,  0.58484745,  0.7633201 ,  0.03549933]],
      dtype=float32), array([[-1.2383051 ,  0.0683367 ,  0.10290541, ..., -0.04448758,
         1.0331334 , -0.0894298 ],
       [ 0.2007176 ,  0.00280947, -0.27785423, ...,  0.17305976,
        -0.04332104, -0.03899817],
       [ 0.471102  ,  0.01506125, -0.45261645, ...,  0.23850387,
        -0.31288898,  0.03062319],
       ...,
       [-1.0534207 , -0.13666193, -0.0776158 , ...,  0.0541961 ,
         0.9368795 ,  0.03520428],
       [-0.7875324 ,  0.04574162,  0.06189534, ...,  0.03342269,
         0.72854733, -0.10695192],
       [-0.36161664, -0.03179752,  0.40711564, ...,  0.00620353,
         0.39399567,  0.1632853 ]], dtype=float32), array([[ 2.0106901e-01, -6.2286709e-02,  4.9939424e-01, ...,
        -3.1625435e-02,  1.8270589e-01, -4.3245012e-01],
       [ 1.3819969e-01,  2.0031419e-02,  7.1646363e-02, ...,
         9.8517917e-02, -1.0050980e-01, -1.1157940e-01],
       [ 8.1358284e-02,  1.2774326e-01, -1.0959032e-02, ...,
         5.9381142e-02, -1.9111177e-02, -6.7617588e-02],
       ...,
       [-2.7604788e-04, -1.9231478e-02,  1.4447567e-01, ...,
        -3.0921930e-02,  1.6835012e-01,  5.4080140e-02],
       [-9.5656566e-02,  6.8033390e-02, -4.1795763e-01, ...,
        -5.7348028e-02, -5.4066267e-02, -3.6075488e-01],
       [ 9.7584911e-02,  4.4691354e-02,  6.6892892e-02, ...,
         2.0655930e-02,  3.7309349e-02, -1.0122847e-01]], dtype=float32), array([[ 5.04930392e-02],
       [ 9.62538272e-02],
       [ 3.07074666e-01],
       [-1.05843674e-02],
       [-1.96957961e-02],
       [-2.87317842e-01],
       [-8.03105906e-02],
       [ 1.14333786e-01],
       [-9.77385715e-02],
       [ 2.02778459e-01],
       [ 1.70676887e-01],
       [ 5.33486120e-02],
       [ 1.12110436e-04],
       [-1.62001833e-01],
       [-4.01663408e-02],
       [-4.33442593e-02],
       [ 5.27915321e-02],
       [ 3.08485299e-01],
       [-2.10244150e-04],
       [ 2.11259291e-01],
       [-2.45470908e-02],
       [ 2.64692396e-01],
       [ 1.92841762e-05],
       [-3.12483433e-04],
       [-2.52593942e-02],
       [ 3.74870077e-02],
       [-1.84322096e-04],
       [-5.28713826e-05],
       [ 1.97180837e-01],
       [-3.05473332e-05],
       [ 1.45179272e-01],
       [-6.47822395e-02],
       [-3.82574981e-05],
       [-5.48197404e-02],
       [-2.12784246e-01],
       [-1.69066610e-04],
       [ 8.21805522e-02],
       [ 5.95620833e-02],
       [ 1.65145621e-01],
       [-8.85624215e-02],
       [ 1.24315433e-01],
       [ 1.15214899e-01],
       [ 1.32703438e-01],
       [ 4.24048922e-05],
       [-1.35477453e-01],
       [-1.43902257e-01],
       [ 9.09705684e-02],
       [-3.37713427e-05],
       [ 8.57993513e-02],
       [-8.57310079e-05],
       [-3.99627570e-05],
       [-1.67692140e-01],
       [-8.47544298e-02],
       [-1.87675378e-05],
       [-5.39521202e-02],
       [ 1.73027278e-04],
       [-1.36530906e-01],
       [ 2.56584244e-05],
       [ 2.03278691e-01],
       [-1.17591515e-01],
       [ 5.32165723e-06],
       [-2.50874341e-01],
       [-7.63400570e-02],
       [ 2.79540896e-01],
       [ 2.11966243e-02],
       [ 1.46011442e-01],
       [-4.88484055e-02],
       [ 1.02133192e-01],
       [-2.52207071e-01],
       [-1.66920111e-01],
       [ 1.75593957e-01],
       [ 1.05471335e-01],
       [ 1.77832365e-01],
       [ 1.92240596e-01],
       [ 4.72376384e-02],
       [-1.83811095e-02],
       [-2.20917761e-01],
       [ 4.09077369e-02],
       [-8.56319964e-02],
       [-5.89795895e-02],
       [-1.62072927e-01],
       [ 3.10065914e-02],
       [-1.31280103e-05],
       [ 2.31379792e-02],
       [-5.62281311e-02],
       [ 1.98610942e-05],
       [-1.48650099e-04],
       [ 1.63015693e-01],
       [-8.12443031e-05],
       [ 7.37926364e-02],
       [-8.27040374e-02],
       [-5.07810488e-02],
       [-1.76974550e-01],
       [ 4.94821630e-02],
       [ 5.68761230e-02],
       [ 8.71617049e-02],
       [ 1.53433299e-04],
       [-1.64540023e-01],
       [-8.03716183e-02],
       [-1.95364431e-01]], dtype=float32)]


Weights_h:
[array([[ 1.5552828e-01, -1.1548480e-02, -1.6207969e-01,  1.3235476e-03,
         8.1754327e-02,  2.3658185e-01,  2.5378183e-01, -8.1035927e-02,
         1.6852993e-01,  4.4150227e-01, -2.3855504e-01,  2.3212178e-01,
         3.5063496e-01,  1.2645373e-01, -4.1935412e-04,  1.4389719e-01,
         2.0184129e-01, -6.0957227e-02,  1.1724079e-01,  5.2241530e-02,
        -8.6581834e-02,  2.2397016e-01, -2.0651679e-01,  1.6269978e-02,
        -1.1380990e-01, -4.0435016e-02,  1.1496022e-01,  1.1597490e-01,
        -8.0702655e-02,  1.8885431e-03,  4.2252496e-01,  1.8910949e-01],
       [-1.1196329e-01,  1.4413401e-01,  9.3730651e-02,  1.1044976e-01,
        -1.6705917e-01,  4.5468576e-02,  1.2718847e-01,  1.6720940e-01,
        -1.2910876e-02,  8.0172300e-02, -1.7632933e-01, -4.8867557e-02,
         1.4700533e-01, -3.4762337e-03,  1.0277905e-01,  9.1302834e-02,
         3.3724400e-01, -3.9640795e-02,  2.2209059e-01, -4.2001811e-01,
        -1.4507537e-01, -1.7779216e-01,  3.7716317e-01,  1.3297774e-01,
         3.4843314e-01,  1.7773725e-01,  1.2001168e-01,  2.0996894e-01,
        -1.3425569e-01,  2.0726646e-01,  3.7136402e-02, -4.0367147e-01]],
      dtype=float32), array([[ 0.22082266, -0.05677303,  0.28164664, ...,  0.11814401,
         0.04945686,  0.04444103],
       [ 0.12245174,  0.03758034,  0.02619482, ...,  0.04253716,
        -0.0494669 , -0.3482883 ],
       [ 0.15456516,  0.1377463 ,  0.3003883 , ...,  0.20641635,
        -0.0335812 , -0.2510453 ],
       ...,
       [-0.1346014 , -0.03169771,  0.1592409 , ..., -0.17717026,
        -0.20019571,  0.29073727],
       [ 0.12481645, -0.13146435,  0.3363038 , ...,  0.18749739,
        -0.16380243, -0.12862617],
       [-0.10075154,  0.05603448, -0.27963197, ...,  0.09459075,
        -0.23705444, -0.02715261]], dtype=float32), array([[-0.35128292, -0.2218832 , -0.26517895, ..., -0.19981778,
         0.06071639,  0.19858997],
       [-0.17046727, -0.244133  , -0.18059851, ...,  0.00832856,
        -0.06238608,  0.11112276],
       [-0.0809162 , -0.02861832, -0.31773937, ..., -0.29773763,
        -0.05322012, -0.03194536],
       ...,
       [-0.19433716, -0.00248658, -0.11294396, ...,  0.08956148,
         0.01541783, -0.08462741],
       [ 0.01282337,  0.03531352,  0.09694158, ..., -0.0456789 ,
        -0.18591687, -0.1416591 ],
       [ 0.0411277 ,  0.01714656, -0.26857227, ..., -0.03190125,
         0.08459588,  0.28972268]], dtype=float32), array([[-0.28240418],
       [ 0.1125057 ],
       [ 0.2927575 ],
       [ 0.4047762 ],
       [-0.13679433],
       [-0.172494  ],
       [-0.09840836],
       [ 0.06217964],
       [ 0.2699088 ],
       [ 0.05094178],
       [-0.4395863 ],
       [-0.07212071],
       [-0.08490133],
       [ 0.26143774],
       [ 0.15354061],
       [-0.13456596],
       [-0.19864246],
       [-0.3431897 ],
       [ 0.19174005],
       [ 0.1853083 ],
       [-0.25411168],
       [ 0.21960227],
       [ 0.04068709],
       [ 0.1287294 ],
       [ 0.34149268],
       [-0.15133168],
       [-0.15512349],
       [ 0.35480282],
       [-0.17325163],
       [-0.04281875],
       [-0.3607363 ],
       [-0.11027752]], dtype=float32)]


Weights_c:
[array([[ 9.7153848e-03, -5.5456635e-02, -3.6009213e-01, -3.9738479e-01,
         1.9763087e-01, -1.8932123e-01,  3.6570776e-02,  2.0465988e-01,
        -3.3344021e-01,  2.2680697e-01, -6.4003676e-02,  1.8413971e-01,
        -1.0204903e-01, -1.9982150e-01, -1.4626618e-01, -1.4208350e-01,
         1.8931317e-01,  2.0739883e-01,  1.8751206e-01, -3.1136385e-01,
        -1.8412383e-01,  5.1189464e-02,  1.5545608e-01,  1.3148056e-02,
        -3.5600194e-01, -4.7043297e-01,  1.0184944e-01, -7.7709235e-02,
        -4.7491256e-02,  3.7117168e-01,  1.3306753e-02, -2.6769376e-01],
       [-2.0391406e-01,  2.4424565e-01,  2.0225786e-01,  9.4125733e-02,
         1.1730316e-01, -3.9386671e-02,  1.9925314e-01,  2.9267382e-04,
        -1.3619070e-01,  2.2112033e-01,  1.1545697e-01,  3.4489900e-01,
         2.2891974e-01,  3.5937765e-01, -5.8660794e-02,  1.9125837e-01,
         8.0735339e-03,  8.7829605e-02, -1.2378151e-03,  4.3032214e-02,
        -3.8329754e-02, -1.3411783e-01, -1.5073495e-01, -3.2827917e-01,
        -5.0664108e-05, -4.2701952e-02,  6.0706489e-02, -4.6222925e-01,
         1.2678432e-01, -5.9105210e-02,  3.9712837e-01, -1.5666662e-01]],
      dtype=float32), array([[ 0.17305948, -0.05242923,  0.13039201, ...,  0.254439  ,
         0.01548668,  0.02816551],
       [-0.2945672 , -0.24087122, -0.1626728 , ..., -0.10922339,
        -0.11124414,  0.00631726],
       [ 0.14929238,  0.06051737,  0.08123555, ...,  0.1325741 ,
         0.17448589, -0.04374857],
       ...,
       [ 0.11540306,  0.13660194, -0.11530485, ...,  0.06641854,
         0.04139338,  0.03751474],
       [ 0.06938518,  0.02708964,  0.26265728, ..., -0.12408066,
        -0.04616734, -0.10042616],
       [-0.28173628,  0.01237739, -0.21065512, ...,  0.16855673,
         0.1827748 ,  0.04680277]], dtype=float32), array([[-0.22545354, -0.07187547, -0.14442419, ...,  0.11584321,
        -0.2038995 ,  0.31835875],
       [-0.30080193,  0.02214817,  0.10380074, ..., -0.23845765,
        -0.33495492, -0.05100659],
       [-0.05400572, -0.06240096,  0.1800163 , ..., -0.19848675,
         0.06801064,  0.07409856],
       ...,
       [ 0.03126961,  0.16752546,  0.0644073 , ...,  0.20145148,
        -0.20542438,  0.25677338],
       [-0.12060466, -0.15554702, -0.0442339 , ...,  0.27785528,
         0.21819408,  0.11419685],
       [ 0.03869557, -0.09189226, -0.07247018, ..., -0.19166638,
        -0.02177585,  0.11387041]], dtype=float32), array([[ 0.08609298],
       [ 0.04049498],
       [ 0.02245416],
       [-0.05016258],
       [-0.03790698],
       [ 0.31485328],
       [-0.06405962],
       [ 0.15032955],
       [-0.07535892],
       [-0.11362389],
       [-0.08638325],
       [ 0.20707814],
       [ 0.04710513],
       [-0.16217473],
       [ 0.4483355 ],
       [ 0.13482639],
       [ 0.20239249],
       [-0.05658853],
       [-0.15529232],
       [ 0.02467447],
       [-0.36174905],
       [ 0.18982193],
       [ 0.4835285 ],
       [ 0.16275583],
       [ 0.09216779],
       [ 0.13862066],
       [-0.06015594],
       [ 0.00589642],
       [ 0.23751388],
       [-0.19204564],
       [-0.15273528],
       [ 0.06234562]], dtype=float32)]


Weights_k:
[array([[-0.3393691 ,  0.24858905, -0.11520465,  0.7914034 , -0.70791954,
         0.67829454,  0.44719452, -0.09772544, -0.40712395, -0.54921067,
         0.5958194 ,  0.52180064,  0.01977468,  0.32899442,  0.44322333,
        -0.2695359 ,  0.40286198, -0.47300032,  0.38022715,  0.4536025 ,
        -0.71508276,  0.09314089,  0.36349064,  0.6445882 , -0.5572013 ,
         0.37758029, -0.49479124,  0.25468403, -0.5223137 ,  0.58700866,
         0.6013904 , -0.44476414, -0.23803996,  0.5178997 ,  0.53865564,
         0.46840942, -0.7076822 ,  0.17201613,  0.10837227,  0.6311397 ,
        -0.44339713, -0.21502045, -0.3935284 ,  0.38034236,  0.14040798,
         0.20691058,  0.17316817,  0.78495485,  0.6691774 , -0.45979345,
        -0.7462641 ,  0.7256242 , -0.460413  , -0.602157  ,  0.47285572,
        -0.56756574,  1.1165789 ,  0.78158027, -0.5900711 , -0.00842734,
         0.6494089 ,  0.2820081 ,  0.6875684 , -0.12819539,  0.63562834,
         0.59953326, -0.18395196,  0.00641718,  0.6039145 ,  0.24402182,
         0.173658  ,  0.21699259, -0.46638513, -0.37969548,  0.49644873,
         0.69166195,  0.12329391,  0.3555254 ,  0.55873054,  0.14611109,
        -0.75453144,  0.35010087, -0.6486859 , -0.63203365, -0.406568  ,
        -0.11814573, -0.6232834 ,  0.39042765, -0.3955032 ,  0.8908674 ,
        -0.6070161 , -0.6575727 , -0.1826681 ,  0.5052648 , -0.5623046 ,
        -0.46766275,  0.20558758, -0.40646106, -0.43612587, -0.6637284 ],
       [-0.22707655, -0.5800613 ,  0.7587112 , -0.44561335,  0.062927  ,
         0.03160309,  0.57672554, -0.48623842,  0.32610062, -0.8654565 ,
         0.37717846,  0.27514488, -0.7753992 ,  1.0094339 , -0.12108663,
         0.5951376 , -0.2708102 ,  0.31513262,  0.94315267,  0.8523149 ,
         0.3717546 , -0.46475682, -0.01636144,  0.37397993,  0.45764855,
        -0.4289343 ,  0.02209482, -0.5321721 ,  0.35484818,  0.3529    ,
         0.47935405, -0.77585024,  0.72941303, -0.29509303,  0.20519304,
         0.567813  , -0.46911493, -0.7697935 ,  0.5387256 ,  0.28502345,
        -0.6653292 ,  0.46989846,  0.3409645 ,  0.43220076,  0.93258095,
         1.0715349 , -0.53017896, -0.0044515 , -0.20422421, -0.7675156 ,
         0.05310864, -0.30830604, -0.40213245, -0.02068987, -0.481624  ,
        -0.41601217,  0.04031691, -0.23657428,  0.1470344 ,  0.42623517,
        -0.31833723,  0.65220207,  0.33125567,  0.5163883 ,  0.03442227,
        -0.40820843, -0.81727284,  0.72649807,  0.05376844,  0.9972641 ,
        -0.6421465 , -0.5697849 , -0.12263364,  0.0341007 ,  0.26571733,
        -0.03494221, -0.5305565 , -0.36845446,  0.6236421 , -0.66775423,
         0.24168602, -0.5458217 , -0.11547029, -0.76762986,  0.13223113,
         0.185028  , -0.29428416, -0.17878668,  0.23916723,  0.38904983,
        -0.9007907 ,  0.47733438,  0.5026366 , -0.14725299, -0.5777648 ,
         0.38524675, -0.74819624,  0.22454396,  0.5561071 ,  0.2174608 ]],
      dtype=float32), array([[-0.11836147, -0.1861556 , -0.06061146, ..., -0.48724893,
        -0.22289278,  0.28182495],
       [ 0.00901107,  0.07969987,  0.7561139 , ...,  0.0080362 ,
         0.1166269 ,  0.05088265],
       [ 0.10925784,  0.20034266, -0.36201653, ...,  0.1766544 ,
         0.0073829 ,  0.04759058],
       ...,
       [-0.00152481,  0.05196487, -0.15303066, ...,  0.08014555,
        -0.18439251,  0.37528518],
       [ 0.07814648,  0.15251394, -0.12086649, ...,  0.25907853,
        -0.03118091,  0.07955286],
       [ 0.03163967, -0.06684445, -0.22491033, ..., -0.08878765,
        -0.03378026, -0.01076807]], dtype=float32), array([[ 0.14234893,  0.01700178,  0.13825195, ..., -0.06247222,
        -0.0142028 , -0.01327334],
       [-0.15341757, -0.02862334,  0.04041862, ..., -0.04228841,
         0.02988168,  0.08807604],
       [ 0.24799475, -0.02574866, -0.04673826, ..., -0.12935665,
         0.08164299, -0.0633027 ],
       ...,
       [-0.07927494, -0.10332142,  0.03371442, ...,  0.05939543,
         0.07174958, -0.15215892],
       [-0.02440874, -0.03211299,  0.02478803, ...,  0.11728175,
        -0.22235379,  0.07971354],
       [ 0.16219996,  0.23085079, -0.02001395, ...,  0.16844068,
         0.18957134, -0.02345216]], dtype=float32), array([[ 1.45682022e-01],
       [ 1.61893383e-01],
       [-1.01646788e-01],
       [ 7.64260292e-02],
       [ 9.27324444e-02],
       [ 7.53274262e-02],
       [ 2.53056705e-01],
       [ 8.13798383e-02],
       [-1.57283694e-01],
       [ 1.79513127e-01],
       [ 2.82652020e-01],
       [ 1.84431121e-01],
       [ 2.50820449e-04],
       [ 7.74300173e-02],
       [ 8.85685980e-02],
       [-1.52600795e-01],
       [ 4.30567889e-05],
       [-1.53590739e-01],
       [ 5.62382811e-05],
       [-2.11198872e-04],
       [ 4.14966792e-02],
       [-6.23375672e-06],
       [ 9.77758393e-02],
       [-2.05614008e-02],
       [ 3.18047896e-05],
       [ 2.54694838e-02],
       [-1.77453727e-01],
       [ 1.25771284e-01],
       [-6.50743544e-02],
       [-1.17412979e-04],
       [-1.76965445e-01],
       [-4.72112074e-02],
       [ 1.08307205e-01],
       [ 1.64602444e-01],
       [-7.03548789e-02],
       [-2.40797386e-01],
       [ 8.17199722e-02],
       [-5.99109679e-02],
       [ 1.43542603e-01],
       [ 1.37143920e-03],
       [-7.52084255e-02],
       [-1.78321672e-04],
       [-1.79067836e-04],
       [ 1.05674811e-01],
       [-1.08287483e-01],
       [-2.99231052e-01],
       [ 6.43794984e-02],
       [-1.50599048e-01],
       [ 2.80322747e-05],
       [-4.12154623e-05],
       [-2.65178998e-04],
       [ 4.88275364e-02],
       [-1.69267136e-04],
       [ 2.43209720e-01],
       [ 6.56287223e-02],
       [-2.33703777e-01],
       [ 1.77016735e-01],
       [ 3.50683957e-04],
       [-1.06512487e-01],
       [-1.27816319e-01],
       [-1.53472815e-02],
       [-1.09521933e-01],
       [-3.36256417e-05],
       [-8.54516327e-02],
       [ 2.68465579e-01],
       [ 2.38173467e-04],
       [-1.00665808e-01],
       [ 8.92752942e-05],
       [-2.76614018e-02],
       [ 5.16710654e-02],
       [ 1.00752455e-04],
       [ 6.01329394e-02],
       [ 8.88061002e-02],
       [ 1.99411370e-04],
       [-7.19835386e-02],
       [-2.65341908e-01],
       [-2.16549393e-02],
       [-2.19462793e-02],
       [ 2.25394790e-04],
       [ 1.49811000e-01],
       [-8.20853040e-02],
       [ 1.76016867e-01],
       [ 4.91870455e-02],
       [-1.84932113e-01],
       [ 1.19691022e-01],
       [ 8.19585100e-02],
       [-3.71429860e-03],
       [ 1.41507179e-01],
       [-9.57612246e-02],
       [-2.74916917e-01],
       [-1.51739657e-01],
       [-1.89436242e-01],
       [ 1.13453209e-01],
       [ 8.31320137e-02],
       [ 7.74325235e-06],
       [-1.14579171e-01],
       [-1.22979537e-01],
       [-1.85418367e-01],
       [-1.20505832e-01],
       [ 1.41783472e-04]], dtype=float32)]


Weights_h:
[array([[ 1.33413941e-01, -2.57467091e-01, -2.98276931e-01,
         4.84093040e-01, -1.68937907e-01, -1.74281701e-01,
        -1.19346604e-02,  1.72100082e-01, -1.42576238e-02,
         2.83984601e-01, -9.45583731e-03,  1.70933288e-02,
        -3.59939188e-01, -3.18084538e-01,  3.62746239e-01,
         2.86121300e-04,  2.41618767e-01, -2.07917944e-01,
         2.06867918e-01,  3.52102369e-01, -8.52321759e-02,
         3.96233916e-01, -2.14078784e-01, -8.65665302e-02,
         3.94103378e-02,  1.26810730e-01, -9.67567861e-02,
        -1.10526800e-01,  9.29000899e-02, -2.42853373e-01,
        -2.42233828e-01,  1.94416329e-01],
       [-2.26941586e-01,  9.65584293e-02,  7.82252401e-02,
        -2.45745972e-01, -5.57164755e-03,  1.19128361e-01,
         1.05141491e-01,  1.51517615e-01,  1.18049115e-01,
