Weights_k:
[array([[-0.23439786,  1.779568  , -0.19810653,  0.90359604,  1.0157444 ,
        -0.51570624, -0.07240579,  1.9107327 , -0.9008349 ,  0.8129413 ,
        -0.87507784, -1.5608945 ,  0.01319569, -1.2131499 , -0.09723815,
        -0.7482305 ,  0.0383807 ,  0.7330748 ,  0.60441685, -0.5801968 ,
        -0.1382873 ,  0.4775457 ,  0.2161651 ,  0.19131443,  0.85284364,
        -1.0209728 , -0.77407104, -1.1182613 ,  0.54326355,  1.500375  ],
       [ 0.6625841 ,  0.5367993 ,  1.1205053 , -0.00610894, -0.6076496 ,
         0.8452388 ,  1.3697709 , -0.78064686,  0.52488536, -1.7083284 ,
        -0.7671199 , -0.8496452 , -1.1299856 , -0.22210851,  0.31497616,
         0.592032  ,  0.7803926 ,  1.5242949 , -0.53945255,  0.28532442,
        -0.4028602 , -0.56944966, -0.45581046,  1.0675929 , -0.86005855,
        -0.9356646 , -0.47972006, -0.36922202,  0.97876376,  0.22780794]],
      dtype=float32), array([[-1.78178772e-02, -3.57702494e-01, -1.97014481e-01,
         2.66439524e-02, -2.22762808e-01,  2.59780854e-01,
        -7.93609679e-01, -6.46415770e-01,  1.88294835e-02,
        -5.02045393e-01, -6.93122327e-01, -2.23256946e-01,
         5.29459529e-02,  3.14855009e-01,  8.38059962e-01,
        -8.48681107e-02, -1.68302357e-01, -5.13390422e-01,
        -7.69048393e-01,  1.52993038e-01, -4.67844754e-02,
        -9.95117128e-01,  5.98599110e-03, -2.12062418e-01,
        -2.11844698e-01,  2.25118563e-01,  5.80029301e-02,
         1.08320452e-01, -9.01350915e-01, -2.68815253e-02],
       [ 8.79323065e-01,  3.21408659e-01,  2.80727416e-01,
        -2.68895298e-01, -4.26467583e-02,  6.62522078e-01,
        -8.34204257e-01, -3.77527982e-01,  1.20499335e-01,
        -6.82181716e-01, -1.28914133e-01, -1.07801884e-01,
         2.55320221e-01,  1.71698660e-01,  2.14515820e-01,
         5.01820028e-01, -2.56238461e-01, -7.64542639e-01,
        -9.68306512e-02,  9.75723863e-02, -9.75376219e-02,
        -2.14857027e-01,  1.13747168e+00,  1.68307328e+00,
         3.97912636e-02, -6.10231757e-01,  5.02972677e-02,
        -1.05013251e-01,  1.05797775e-01, -1.70373142e-01],
       [ 2.10394949e-01, -3.75610024e-01, -3.00227493e-01,
         1.21995181e-01,  7.03309923e-02,  5.08645892e-01,
        -4.87227201e-01, -9.18750286e-01,  4.53191787e-01,
        -7.41490662e-01, -3.36437553e-01,  3.60658944e-01,
        -2.77414620e-01, -9.44386274e-02,  2.73692250e-01,
        -1.96521938e-01,  2.93579370e-01, -3.09551775e-01,
        -8.52489173e-01,  3.29896249e-02,  2.83331871e-01,
        -1.16950244e-01, -3.11072618e-01, -1.90109879e-01,
        -1.21245205e-01,  5.94875455e-01, -9.67756286e-02,
         8.77852812e-02, -6.86913610e-01, -1.02669507e-01],
       [ 8.12784553e-01,  6.57079935e-01,  3.84854645e-01,
        -1.27094701e-01,  1.24514401e-01,  5.78811765e-02,
        -1.28837720e-01, -5.72648704e-01,  5.64995706e-01,
        -3.74033839e-01,  1.29852623e-01,  9.05766245e-03,
         5.62868774e-01, -3.48304771e-02, -5.18268526e-01,
         4.35982049e-01,  1.99510232e-01, -3.19497824e-01,
        -2.56741196e-01, -2.01564729e-02,  1.25265010e-02,
         8.11392188e-01,  1.36302143e-01,  4.05707359e-01,
        -4.41274494e-02, -1.71529055e-02, -2.32234616e-02,
        -2.03572825e-01,  2.58422613e-01, -2.08246820e-02],
       [-1.97065100e-01,  4.93983984e-01,  2.93508738e-01,
        -6.77813515e-02, -6.16427092e-03, -1.40010104e-01,
        -2.19034120e-01,  5.22633016e-01,  2.41020605e-01,
         8.72319341e-02,  1.20434754e-01, -3.98164392e-02,
         2.87263513e-01,  9.96663123e-02,  1.30747959e-01,
         3.55690829e-02, -1.24696493e-01, -1.42095700e-01,
         4.19092685e-01,  9.96481441e-03,  2.18749702e-01,
        -1.98498338e-01,  2.94924664e+00,  2.84019589e-01,
         1.26176998e-01, -7.19855726e-01, -1.89935893e-01,
         4.81208637e-02,  3.96447808e-01, -1.56450734e-01],
       [-9.75038558e-02, -5.49083829e-01, -5.43674469e-01,
         1.05979167e-01, -2.82694846e-02,  9.17609930e-02,
        -7.34681368e-01, -1.50785953e-01,  8.76026079e-02,
        -5.72915971e-01, -6.00626230e-01, -4.98611592e-02,
        -1.61351189e-01,  1.73967481e-01,  4.13859636e-01,
        -2.63776869e-01,  8.66324529e-02, -2.75706142e-01,
        -1.67300373e-01,  2.46953100e-01,  8.61854777e-02,
        -7.94996738e-01,  2.21713424e-01, -2.63977677e-01,
        -7.89914131e-02,  1.75629273e-01,  2.36525103e-01,
         1.19653448e-01, -1.12513995e+00,  8.66810381e-02],
       [ 1.74784854e-01, -7.39526898e-02,  2.80066137e-03,
        -1.98885590e-01,  3.32002580e-01,  4.97162163e-01,
        -1.72107887e+00, -7.60804832e-01,  3.06750000e-01,
        -1.64239383e+00, -6.96955860e-01, -1.25492990e-01,
         5.87802418e-02,  7.35936701e-01,  1.15370882e+00,
         2.78922349e-01, -3.29190105e-01, -4.97333407e-01,
        -1.09838593e+00,  1.10388093e-01,  3.46929014e-01,
        -1.46028435e+00,  1.33168384e-01, -1.26025617e-01,
        -1.08223883e-02,  2.95643508e-01, -1.22164689e-01,
         1.22105047e-01, -1.62993204e-02, -1.49248138e-01],
       [ 9.43291709e-02,  5.63712239e-01,  4.18050557e-01,
        -2.60280639e-01, -2.07183301e-03, -3.53830814e-01,
        -9.62734967e-02,  4.39971685e-02, -3.59284617e-02,
        -2.36106347e-02,  5.65453917e-02,  4.89598177e-02,
         6.02160275e-01, -3.73447627e-01,  1.13325551e-01,
         6.02290154e-01, -6.95933923e-02, -3.37479860e-01,
         8.20076317e-02, -1.47770047e-01, -7.56043755e-03,
         4.18219008e-02,  2.01971507e+00,  9.05144393e-01,
         1.84833944e-01,  6.55130222e-02, -3.80737893e-02,
         2.89355040e-01,  9.46939826e-01,  6.59654811e-02],
       [-8.46802533e-01, -6.92427635e-01, -3.51185054e-01,
         2.05279976e-01, -1.36627033e-01, -2.12345153e-01,
        -6.63895011e-01,  2.89316714e-01, -8.33435476e-01,
        -4.44723070e-01, -6.74133956e-01, -2.86224782e-01,
         1.51359797e-01,  2.18623847e-01,  2.60335732e+00,
         2.67396450e-01, -5.06116450e-01, -1.18660666e-01,
        -4.09001499e-01, -4.45704162e-02,  7.66170099e-02,
        -4.22888279e+00,  1.82013288e-01, -7.30643049e-02,
        -1.73021808e-01, -1.03137866e-01, -7.39455596e-02,
        -1.32026270e-01, -1.72216371e-01, -9.15001705e-02],
       [ 1.21844910e-01,  5.75268149e-01,  3.73738378e-01,
        -3.95925269e-02, -3.07505783e-02,  6.90661045e-03,
         5.23816645e-01,  3.80157679e-02,  6.51812926e-02,
         7.93836474e-01,  6.15501046e-01, -9.75284278e-02,
        -7.98926130e-02,  2.94173080e-02, -3.77156496e-01,
         4.70428646e-01,  8.26655105e-02, -1.72036305e-01,
         8.21881711e-01, -3.78529102e-01, -3.77369523e-02,
         3.16227406e-01,  4.65062022e-01,  8.72076929e-01,
         7.57528916e-02, -2.88783699e-01,  8.03886428e-02,
        -4.91738059e-02,  1.47334623e+00,  1.28960540e-03],
       [-7.15029478e-01, -4.98356193e-01, -1.58313543e-01,
         5.55543303e-01, -8.91899392e-02, -5.96359074e-01,
         6.22909129e-01,  6.48823977e-01, -8.51131439e-01,
         7.22727060e-01,  3.36189687e-01, -4.08053577e-01,
        -3.73118699e-01, -9.85150039e-02,  2.39525124e-01,
        -2.66196191e-01, -1.50849298e-01,  1.00428784e+00,
         7.66984999e-01, -6.09295927e-02,  3.01808655e-01,
        -6.71788096e-01, -3.52879345e-01, -1.43463194e+00,
        -3.31052504e-02, -1.14354067e-01,  3.64005476e-01,
        -1.08285725e-01,  7.99902678e-02, -1.68475747e-01],
       [-1.29533088e+00, -4.38724130e-01, -3.81559193e-01,
         8.37276757e-01, -1.34179443e-01, -8.65407646e-01,
         5.20845711e-01,  3.38096082e-01, -6.14454687e-01,
         2.91422635e-01,  3.84727448e-01, -2.90152967e-01,
        -4.97519225e-01, -1.00188613e-01,  2.79812336e-01,
        -6.90169811e-01,  2.87785195e-02,  1.10564661e+00,
         3.89581710e-01, -3.22226919e-02,  9.23827812e-02,
        -4.01573181e-01, -1.21759737e+00, -2.47014499e+00,
        -5.02919741e-02, -2.79251277e-01,  4.80971724e-01,
        -1.12337433e-01,  8.85063037e-02, -3.65701020e-01],
       [-5.42779416e-02,  1.78399146e-01,  2.65238911e-01,
        -4.89323065e-02, -5.03418557e-02, -5.59668422e-01,
         5.87409854e-01,  4.89941657e-01, -2.60896266e-01,
         4.12550002e-01,  4.46982175e-01, -5.94291724e-02,
         1.87520936e-01, -1.69502214e-01, -1.24048688e-01,
         1.48328980e-02,  4.34278607e-01,  3.19360852e-01,
         9.88728344e-01, -1.41653523e-01, -1.03289299e-01,
         3.15381616e-01,  1.74568728e-01, -3.29425521e-02,
        -5.24457209e-02, -1.00348544e+00, -1.37933478e-01,
         1.02712736e-01,  9.05329943e-01,  1.54879661e-02],
       [-1.09705782e+00, -1.09558380e+00, -4.99692738e-01,
         3.81707639e-01, -2.38922700e-01, -6.05782092e-01,
        -9.06992331e-02,  1.70771912e-01, -6.94881976e-01,
         2.00856000e-01, -3.86786200e-02, -5.44605196e-01,
        -2.39466488e-01,  2.14787915e-01,  9.64730144e-01,
        -3.25522304e-01, -5.94566017e-02,  2.59014994e-01,
         3.65482748e-01, -3.50344777e-02,  1.09855220e-01,
        -1.12846851e+00, -1.70609534e-01, -4.55969602e-01,
        -2.10943714e-01, -7.43273914e-01,  1.58431400e-02,
        -4.23593849e-01, -5.73150337e-01, -1.38696596e-01],
       [ 1.23878658e-01, -1.82857096e-01, -1.86718449e-01,
         2.39189461e-01, -5.57130352e-02, -2.60928810e-01,
        -7.80591667e-01,  2.07505241e-01, -4.33812112e-01,
        -1.96293965e-01, -2.49866366e-01, -1.77063614e-01,
         1.40501000e-02,  1.24214374e-01,  8.38196203e-02,
         3.62986922e-01, -2.26892576e-01, -4.95923877e-01,
         3.62023190e-02,  6.79605678e-02,  1.04711764e-01,
        -5.88850141e-01,  2.89242238e-01,  9.61975753e-01,
        -3.09335053e-01, -1.80390120e-01, -8.75624046e-02,
         1.44304663e-01,  1.84784427e-01,  1.12911528e-02],
       [-2.77369022e-01, -9.69715118e-01, -5.54225504e-01,
         3.16592634e-01, -5.93633018e-03, -3.56928974e-01,
        -4.25195634e-01,  6.75789937e-02,  6.47655427e-02,
        -3.36478680e-01, -3.04902405e-01, -4.41068292e-01,
        -8.05781782e-02,  2.17342433e-02,  7.14334071e-01,
        -1.85738593e-01, -1.60681114e-01, -1.69772565e-01,
        -4.19690460e-03,  1.33131504e-01,  8.44796225e-02,
        -6.86242044e-01, -1.63060084e-01, -9.93308723e-02,
        -2.27827691e-02, -1.14259899e-01,  2.27328539e-01,
         2.98573017e-01, -1.28439558e+00,  2.00242519e-01],
       [ 2.25803897e-01,  1.63540915e-01, -6.39817119e-02,
        -3.83930683e-01,  5.87893352e-02,  7.46821463e-01,
        -6.01860344e-01, -9.47238684e-01,  3.69500518e-01,
        -1.45214880e+00, -4.14910525e-01,  1.39234317e-02,
        -4.41220522e-01,  2.83536673e-01,  4.30561334e-01,
        -1.12114161e-01, -1.47657678e-01, -5.19837499e-01,
        -9.94539440e-01,  3.82828027e-01,  5.21957055e-02,
        -1.95802107e-01, -5.49977601e-01,  5.78181028e-01,
         1.41386658e-01,  7.59833038e-01,  1.04125075e-01,
         4.72053997e-02, -6.03689253e-01, -7.71035105e-02],
       [ 8.65426660e-01,  3.35423559e-01,  5.34960888e-02,
        -7.84758389e-01,  3.29361111e-01,  1.46058512e+00,
        -7.54899859e-01, -2.00749612e+00,  1.53120673e+00,
        -9.94672477e-01, -2.05508843e-01,  4.06333715e-01,
         2.56422460e-02, -6.90717697e-02, -2.84770042e-01,
        -1.28737867e-01, -2.47964829e-01, -9.28890109e-02,
        -1.19459760e+00,  3.00686657e-01,  2.47600347e-01,
         1.15984774e+00, -3.18096876e-01,  1.53774369e+00,
         3.11740607e-01,  6.79426253e-01,  7.63119757e-03,
        -1.52216345e-01, -1.34978741e-01,  3.42904553e-02],
       [-6.03714287e-02,  5.42414248e-01,  2.80843556e-01,
        -9.35774967e-02, -4.26040947e-01, -2.64932185e-01,
         2.70792782e-01,  3.10001999e-01,  1.34894580e-01,
        -3.81094217e-02,  1.80518225e-01, -1.81067958e-01,
         2.86178976e-01,  1.23899490e-01, -9.59790573e-02,
         1.72587410e-01, -8.06244463e-02, -2.61512607e-01,
         2.87519723e-01, -1.39907405e-01, -2.29552388e-01,
         1.38294116e-01,  1.79463983e+00,  6.30433321e-01,
        -9.51410979e-02, -8.84225607e-01,  5.72864227e-02,
        -2.58951336e-02,  8.56238246e-01, -1.14052184e-01],
       [-2.12458998e-01, -6.94400072e-01, -6.72898114e-01,
         1.57904357e-01,  3.54267627e-01, -2.09241167e-01,
        -2.31222540e-01, -8.21613148e-02, -3.66004765e-01,
        -1.61039203e-01, -1.33052021e-01, -1.90235257e-01,
        -4.03481662e-01, -1.96426973e-01,  2.90437251e-01,
        -1.90682054e-01, -1.66495293e-01,  3.41665782e-02,
        -3.28924656e-01,  2.86812067e-01,  1.51958674e-01,
        -4.22096223e-01, -7.61419415e-01, -5.55941522e-01,
         2.33170688e-01,  6.17838323e-01, -3.84771638e-02,
        -2.03881547e-01, -1.16690564e+00, -1.17299609e-01],
       [-3.02688658e-01,  1.25397712e-01,  2.37368047e-02,
         8.43629092e-02, -2.50137299e-01, -1.88344330e-01,
         4.25455749e-01,  9.16995943e-01, -4.41659033e-01,
         9.01371956e-01,  3.00552070e-01,  5.21014482e-02,
        -6.46344647e-02, -3.62841964e-01, -1.68323010e-01,
         3.20637897e-02, -2.12797791e-01,  3.17658156e-01,
         8.43982220e-01,  1.54666781e-01, -2.16496348e-01,
         3.33449058e-02,  1.10089682e-01, -1.28362584e+00,
        -4.54039313e-02, -2.51032442e-01,  2.70878345e-01,
        -2.73180604e-01, -8.62178504e-02,  7.42519051e-02],
       [ 1.88527972e-01,  5.82671463e-01,  6.03860915e-01,
         1.26683697e-01,  6.64451569e-02, -7.81299472e-02,
         2.44359210e-01,  2.44488448e-01,  4.20508027e-01,
         4.09531772e-01,  4.42100972e-01,  1.12910800e-01,
         6.85922801e-02, -4.33833390e-01, -5.13751447e-01,
         1.88994080e-01,  2.70521253e-01,  2.34062001e-01,
         5.21608710e-01, -5.56069836e-02,  8.97462387e-03,
         7.16762841e-01,  2.84771830e-01, -1.39663562e-01,
         8.21234882e-02, -3.00209999e-01, -2.40436625e-02,
         9.94131342e-02,  1.21720827e+00,  3.56323719e-01],
       [ 2.79691190e-01,  8.41976628e-02,  4.31530410e-03,
        -7.41126668e-03, -1.61799774e-01,  4.63829696e-01,
         1.36261821e-01, -3.35428476e-01,  3.58719379e-01,
         2.66152740e-01,  1.98392347e-01,  1.64341509e-01,
        -3.46188486e-01, -2.09121481e-01, -3.25039923e-01,
         4.80747372e-02,  3.99587333e-01,  4.90998387e-01,
         3.53855938e-01, -3.06249648e-01, -1.75761148e-01,
         7.13038146e-01, -3.22821140e-01, -6.57982171e-01,
         8.36167783e-02,  1.81542411e-01,  1.73008546e-01,
         3.13466400e-01, -5.53162536e-03, -7.36199692e-02],
       [ 5.20661771e-01, -1.36739686e-01, -8.85610431e-02,
        -2.18796402e-01,  1.58415269e-02,  8.88619244e-01,
        -8.51656675e-01, -1.69285035e+00,  7.19721675e-01,
        -1.34110093e+00, -6.86672509e-01,  1.11009322e-01,
        -2.10646212e-01,  2.73687154e-01,  1.10304140e-01,
         5.76922297e-02, -2.54879177e-01, -3.83807629e-01,
        -1.31408906e+00,  3.74147117e-01, -2.67174542e-01,
        -1.36935249e-01, -6.82845950e-01,  8.69963586e-01,
         2.73140728e-01,  6.99750066e-01,  2.31666192e-02,
         4.04824428e-02, -8.14442754e-01,  4.88222800e-02],
       [ 3.61571103e-01,  6.46403551e-01,  3.41483891e-01,
        -2.51052119e-02,  6.02682494e-02,  3.02301496e-01,
         6.39363766e-01,  3.81333008e-02,  9.87053290e-02,
         6.72576129e-01,  5.03811300e-01,  1.54141426e-01,
         1.83202282e-01, -1.98260546e-01, -1.57513714e+00,
        -1.83327179e-02,  3.06894779e-01,  1.10159256e-01,
         7.11553693e-01, -5.52845299e-02, -2.31598973e-01,
         1.71057069e+00, -2.77019978e-01,  1.14496663e-01,
         4.72985387e-01,  2.52930522e-01,  3.57855577e-03,
         2.37713918e-01,  3.62535506e-01,  3.96931432e-02],
       [-1.32671821e+00, -3.66825968e-01,  2.76625633e-01,
         7.77904809e-01, -3.97863477e-01, -2.06289959e+00,
         2.58464783e-01,  1.12688982e+00, -2.19524217e+00,
         1.03866410e+00,  2.82748938e-01, -6.71373129e-01,
        -1.22718647e-01,  8.70195702e-02,  1.26404476e+00,
         1.60178363e-01, -2.92207152e-01,  1.13927513e-01,
         9.25640762e-01, -1.78646252e-01, -1.87637620e-02,
        -1.96049619e+00,  2.09130749e-01, -6.47842288e-01,
        -5.95440567e-01, -5.20551920e-01,  1.97311789e-01,
        -1.68486670e-01,  1.54680923e-01, -3.43890667e-01],
       [-2.70710111e-01, -6.70020282e-02, -3.35397005e-01,
         2.46281117e-01,  1.50770202e-01, -5.77925444e-02,
         2.68948019e-01,  3.60994339e-01,  1.36076003e-01,
        -9.23789963e-02,  3.21666390e-01, -6.79065585e-02,
        -1.33964837e-01, -7.61875510e-02, -1.22880071e-01,
        -4.57982689e-01,  2.29658931e-01,  6.78571701e-01,
         2.47440189e-01,  2.64708214e-02,  2.15060875e-01,
         1.83485337e-02, -6.09364450e-01, -2.21133447e+00,
        -3.01570266e-01,  1.61356449e-01,  2.43103087e-01,
         6.73814341e-02, -3.10412765e-01, -5.72776869e-02],
       [-1.63852000e+00, -7.05984533e-01, -3.60376567e-01,
         5.25015354e-01, -8.31412375e-02, -1.33742225e+00,
        -1.93761270e-02,  8.40575337e-01, -1.98776627e+00,
         1.86449543e-01, -2.73617983e-01, -5.79712629e-01,
        -1.80351660e-02, -3.65671702e-02,  1.98832667e+00,
        -1.34595066e-01, -1.35773540e-01,  5.89644685e-02,
         4.34071839e-01, -6.30980432e-02,  1.24554932e-01,
        -2.76315951e+00, -1.00700237e-01, -1.39672697e-01,
        -3.11202109e-01, -1.69712231e-01,  2.83628732e-01,
        -4.43192214e-01, -4.03860331e-01, -4.91445124e-01],
       [ 3.77943784e-01, -6.56481683e-02,  1.47662342e-01,
        -1.07599884e-01, -2.66095579e-01,  1.75198093e-01,
        -6.24658883e-01, -4.24618661e-01,  8.75746890e-04,
        -4.97815460e-01, -1.31945029e-01,  6.32323185e-03,
         1.04520649e-01,  3.32715482e-01,  4.99067336e-01,
         2.47881770e-01, -2.04032466e-01, -5.38761735e-01,
        -3.41413528e-01,  2.84036472e-02,  1.60548523e-01,
        -5.77031136e-01,  3.00626397e-01,  6.83044314e-01,
         4.74504475e-03,  9.74446386e-02, -2.00798422e-01,
        -1.59242526e-01,  1.59909397e-01,  1.12333998e-01],
       [ 1.71416140e+00,  9.81769562e-02,  5.04068136e-01,
        -7.24853694e-01,  3.77713442e-01,  5.30698538e-01,
        -5.06737292e-01, -5.73007762e-01,  4.73894149e-01,
        -4.81232464e-01, -2.14641690e-01,  4.32205379e-01,
         6.76023960e-01, -8.12971219e-02, -2.81051725e-01,
         5.85255206e-01,  1.03966638e-01, -8.48352134e-01,
        -2.36588642e-01,  2.57406980e-02, -1.15561508e-01,
         3.32971752e-01,  1.95284343e+00,  1.30479074e+00,
         8.36533830e-02,  1.24434300e-01, -1.72059149e-01,
         1.55646026e-01,  2.16459826e-01,  3.49868774e-01]], dtype=float32), array([[ 5.09904444e-01, -3.55911762e-01, -3.58221501e-01,
        -4.39550996e-01, -3.33994627e-02, -4.93746966e-01,
         1.81458239e-02, -1.19590476e-01, -3.66340280e-01,
         2.69461479e-02, -1.93846673e-01, -1.46704212e-01,
         6.04158282e-01, -6.35510683e-03,  2.94283569e-01,
        -1.73072115e-01, -1.00720204e-01, -4.73883897e-01,
        -5.28494418e-01, -1.32977694e-01, -2.09490702e-01,
        -1.97207220e-02, -2.55682021e-01, -9.69816446e-02,
        -1.18107619e-02,  7.34892488e-01,  2.49123305e-01,
         1.33440927e-01,  3.57185816e-03,  5.04612625e-02],
       [ 2.88931783e-02,  3.68980289e-01,  2.94210404e-01,
        -6.76128030e-01,  1.94551256e-02, -5.65811694e-01,
         1.31944984e-01, -2.07835600e-01,  2.30816647e-01,
         3.11651886e-01,  4.60380912e-02, -2.32867986e-01,
        -1.62283212e-01,  7.76273608e-02,  2.57820010e-01,
         4.33135122e-01,  1.79578915e-01, -2.80345436e-02,
        -3.30566049e-01,  1.32131591e-01, -6.58893347e-01,
        -1.68192253e-01, -2.44376599e-03, -1.24893650e-01,
         1.04901595e-02,  3.61995310e-01,  9.28028584e-01,
        -1.24293812e-01,  9.15973186e-02,  9.86537188e-02],
       [-1.82542145e-01, -1.10915348e-01,  6.61186278e-01,
        -7.92791605e-01, -1.70514822e-01, -1.37500763e-01,
        -6.39337078e-02,  6.46788701e-02, -1.66023791e-01,
        -1.32354617e-01, -4.08588909e-02,  4.45786454e-02,
        -1.95333466e-01, -1.60228983e-01,  3.76258314e-01,
        -2.90419757e-02, -1.05507754e-01,  2.50546932e-01,
        -2.14875892e-01, -1.37928575e-01, -4.48865950e-01,
        -1.81154191e-01, -5.07325754e-02, -2.61860788e-01,
         3.20900381e-01,  2.33160555e-01,  6.58396900e-01,
         1.72291771e-01, -5.23926765e-02, -4.45607454e-02],
       [-2.21356656e-02, -2.48066306e-01, -2.87276775e-01,
        -1.42083421e-01,  1.41268363e-02,  3.33642185e-01,
        -3.66077721e-02,  3.38482201e-01, -1.67049125e-01,
         1.18868113e-01, -7.65433386e-02,  5.42431235e-01,
        -1.21301703e-01,  8.35496411e-02, -3.54539216e-01,
        -3.10099483e-01, -1.66993231e-01,  2.09503114e-01,
         3.03584307e-01,  2.25976720e-01, -2.52358112e-02,
        -2.29192108e-01,  2.88093388e-01,  1.82020500e-01,
         3.19970071e-01, -1.19219609e-01, -8.78638268e-01,
        -2.67395020e-01, -2.64117360e-01, -5.34104891e-02],
       [ 1.06301390e-01,  2.95295298e-01,  1.35988504e-01,
         7.98062906e-02, -2.20122576e-01, -2.00583652e-01,
        -1.91799313e-01,  1.75372615e-01, -1.58890516e-01,
        -3.18300873e-02, -5.25890477e-02, -3.37606281e-01,
        -1.33105749e-02, -5.13982534e-01,  2.22388014e-01,
         4.37845081e-01,  6.93352073e-02, -4.91074622e-01,
        -1.34395257e-01, -7.15676844e-02, -7.56264254e-02,
         1.76737890e-01, -1.72685489e-01, -4.40500155e-02,
        -3.39133710e-01,  2.04276279e-01, -6.05154783e-02,
        -1.68208331e-01,  8.41147453e-02, -3.43346864e-01],
       [ 1.88505918e-01, -2.66335309e-01, -4.19083297e-01,
         6.97779000e-01, -9.75786671e-02,  6.74901724e-01,
        -4.19215322e-01,  1.83847457e-01,  4.93082181e-02,
        -1.05638608e-01, -1.66638345e-01, -6.93210512e-02,
        -7.18540847e-02, -8.77167106e-01,  6.65682912e-01,
         5.61061129e-02,  2.23877996e-01, -1.78295135e-01,
         1.23144686e-01, -3.06925803e-01,  8.49099159e-02,
        -2.96689756e-02,  4.13664281e-01, -2.19520345e-01,
         4.36441839e-01,  1.59791157e-01,  3.16388935e-01,
         9.45516154e-02, -2.69098252e-01,  1.08478837e-01],
       [ 1.11205071e-01, -3.96024168e-01, -3.55251729e-01,
         3.15234929e-01, -1.86400637e-01,  6.29149824e-02,
        -6.47783056e-02,  3.44101310e-01, -7.56733865e-02,
        -1.96131229e-01,  6.35826364e-02,  5.12907684e-01,
        -2.69446880e-01, -1.59050375e-01,  4.50425655e-01,
        -3.48584443e-01, -1.49131805e-01,  6.68209493e-01,
         4.00367141e-01, -1.48570538e-02, -4.20065187e-02,
         1.29121810e-01,  6.86757863e-02,  3.27235252e-01,
         2.69949496e-01,  2.35733524e-01,  3.36236894e-01,
         6.72455072e-01,  3.21432829e-01, -1.10701900e-02],
       [ 7.48272613e-02, -1.99610069e-01,  4.56746109e-03,
        -2.53506958e-01, -2.93238251e-03, -3.60330343e-02,
         1.75578743e-01,  6.69433624e-02,  5.82488142e-02,
         1.96569294e-01,  2.62837112e-01,  6.00333452e-01,
        -3.99764270e-01,  3.07684392e-01,  2.50899643e-01,
        -2.15865090e-01, -1.37530416e-01,  7.27339387e-01,
         7.92457163e-01,  9.45068710e-03,  2.27855116e-01,
        -4.58959758e-01, -4.29860502e-01,  2.44795963e-01,
        -3.56403971e-03, -8.58597457e-02,  3.31306159e-01,
         2.85854101e-01, -7.92874694e-02,  1.98738992e-01],
       [-1.06003247e-01, -1.34129137e-01,  3.21260661e-01,
        -5.49022675e-01,  2.90418062e-02,  3.15152228e-01,
        -3.23710710e-01, -1.55618355e-01, -1.79123774e-01,
        -9.66946036e-02, -7.30094761e-02, -1.78438082e-01,
         2.86362022e-01, -9.71920550e-01,  9.17664886e-01,
         2.85702646e-01, -2.41834819e-01, -4.16595966e-01,
        -4.26882982e-01,  1.54392704e-01, -2.44350880e-01,
         3.06167632e-01,  6.28728390e-01, -4.14538383e-02,
         7.22527206e-02, -2.43338615e-01,  4.28447813e-01,
         4.04493123e-01, -2.06118315e-01, -1.49723934e-02],
       [-2.62693286e-01,  5.65894581e-02, -2.55151659e-01,
        -6.11446463e-02, -2.83815935e-02,  9.37488899e-02,
        -1.64581954e-01,  4.04190063e-01,  9.23368335e-02,
         5.24442084e-02, -3.16649042e-02,  2.84732044e-01,
         5.52993780e-03,  2.02527523e-01,  1.78165704e-01,
        -1.17721511e-02, -2.16618091e-01,  2.52383530e-01,
         3.60774368e-01,  1.90867156e-01, -1.22758873e-01,
         1.05292320e-01,  2.02557027e-01, -1.69656545e-01,
         3.50774080e-02,  3.49564880e-01,  9.29306843e-04,
         6.29652619e-01, -2.43699327e-01,  6.31690085e-01],
       [-3.95844914e-02, -1.24567516e-01, -1.18633352e-01,
         2.40357384e-01, -6.76454306e-02, -3.27812761e-01,
         3.88215572e-01,  3.41819435e-01,  1.28975987e-01,
         1.70844309e-02,  6.14702031e-02,  2.12116212e-01,
        -1.27611756e-01, -4.17719781e-03,  4.72305685e-01,
         2.02387825e-01,  1.31827980e-01,  3.82275432e-01,
         3.18303436e-01,  7.60539249e-02, -7.68845677e-02,
        -5.60882203e-02,  1.19317189e-01, -3.02293688e-01,
        -3.62891197e-01, -1.19470840e-03, -1.62167922e-01,
         6.21641934e-01,  3.79763573e-01,  4.23844755e-01],
       [-2.72016019e-01,  2.69413561e-01, -7.63003454e-02,
        -2.19475284e-01,  2.66244020e-02, -1.12698257e-01,
        -2.27817938e-01,  7.70384371e-02,  1.84186921e-01,
        -8.67035985e-02, -4.27453250e-01, -5.58040679e-01,
         6.62731588e-01, -5.86966097e-01,  6.35161281e-01,
        -6.62739575e-02,  2.29365453e-02, -4.68149662e-01,
        -4.04951051e-02,  4.22681570e-02, -3.90738696e-01,
         1.78852245e-01, -2.67834783e-01, -4.88045253e-02,
        -1.07266093e-02,  1.87749006e-02,  2.12443531e-01,
         2.77356416e-01, -1.46553248e-01,  3.66041899e-01],
       [-3.86226058e-01,  6.23694919e-02,  6.47390544e-01,
        -4.90968883e-01, -1.87632680e-01, -3.46457213e-01,
         1.56106368e-01, -5.12891710e-02, -2.46993564e-02,
        -1.96955726e-01,  1.07767032e-02,  2.68273707e-02,
         7.51489699e-01,  3.67570281e-01, -1.08143143e-01,
        -6.96127415e-02,  4.10489291e-01,  8.27005208e-02,
        -6.95993751e-02,  2.84311742e-01, -2.07572221e-03,
         7.16766417e-02,  1.06221728e-01, -2.36821085e-01,
         2.32500389e-01, -2.20379964e-01,  2.68448323e-01,
         2.97500849e-01, -4.87369448e-01, -2.93969344e-02],
       [-1.95889756e-01,  2.26956651e-01, -3.48267227e-01,
        -5.12529016e-02, -1.46517158e-01,  2.11504102e-01,
        -2.74577886e-01, -3.18764716e-01,  1.14402585e-01,
         9.41849500e-02, -1.71932861e-01, -1.49931069e-02,
        -5.18671051e-02,  2.77272612e-01, -3.03403974e-01,
        -5.04430234e-02, -1.11350641e-01, -3.54744524e-01,
         5.44314146e-01, -7.40463212e-02,  1.67833641e-01,
         8.67909342e-02, -3.17977369e-01, -7.03649893e-02,
         2.06746295e-01,  1.77135929e-01, -1.47602141e-01,
        -3.93045753e-01, -4.61999297e-01,  2.25155085e-01],
       [ 5.87040633e-02, -2.14005068e-01, -1.40607161e-02,
         5.43041788e-02, -1.21197989e-02,  1.71383530e-01,
         2.56782901e-02, -2.70149950e-03, -1.48875743e-01,
        -2.01974869e-01, -5.60783260e-02,  2.70692497e-01,
        -4.12470520e-01,  5.84711850e-01, -7.94932008e-01,
        -1.06192663e-01, -2.04008549e-01,  2.60891140e-01,
         5.80340266e-01,  2.73422658e-01,  5.07754326e-01,
         1.05452128e-01, -3.44692439e-01, -3.51356119e-01,
         9.88845602e-02, -3.37828755e-01, -1.40815541e-01,
         9.03083608e-02,  1.36266589e-01, -2.17553318e-01],
       [ 2.02385768e-01,  6.29712567e-02,  8.74064043e-02,
        -2.53532737e-01, -4.40292805e-02,  2.06332803e-02,
        -1.51787758e-01, -5.41932106e-01,  1.88037112e-01,
         1.80977076e-01,  4.76520628e-01, -5.57264779e-03,
         2.16395482e-01,  2.32320786e-01, -1.23926245e-01,
         3.25156599e-01,  4.89648245e-02, -5.91370091e-02,
        -5.41309454e-02,  1.29857466e-01, -9.02239680e-02,
        -9.20411497e-02,  3.20280910e-01, -3.67001414e-01,
         1.01544015e-01,  1.05595760e-01,  3.10641855e-01,
         2.44075194e-01, -4.51634407e-01, -1.94312364e-01],
       [ 1.39626235e-01,  8.81113335e-02, -7.30714351e-02,
         4.17529680e-02, -1.34230271e-01, -5.46886086e-01,
         2.32924625e-01,  6.43815339e-01, -1.22182608e-01,
        -5.38879447e-02,  2.11337268e-01,  6.09494187e-02,
        -1.89575851e-01, -2.15796888e-01,  3.10246646e-01,
         3.73928666e-01, -8.14975351e-02, -1.00356750e-01,
        -4.07030731e-01,  3.03312205e-02, -4.56081361e-01,
        -5.72431721e-02,  3.99159081e-02,  1.41167894e-01,
         1.63017944e-01,  2.22303276e-03,  8.57592523e-02,
         5.02009213e-01,  1.96022540e-01, -1.70896620e-01],
       [-2.04405531e-01,  1.34523541e-01,  1.35954738e-01,
         1.32155597e-01,  1.62081748e-01,  1.31254375e-01,
        -7.87794814e-02,  1.92603454e-01, -5.07335439e-02,
        -1.50830656e-01, -3.05165146e-02,  2.19204724e-01,
        -8.30227509e-02,  8.61303359e-02,  2.84108222e-01,
        -1.68094307e-01, -6.87372759e-02,  7.75543004e-02,
        -1.00093223e-01, -9.74392071e-02,  1.46739125e-01,
         7.08123446e-02, -1.57712102e-01,  2.04632103e-01,
        -3.12807458e-03,  6.20610677e-02, -3.20701867e-01,
         2.27310091e-01,  4.48409259e-01,  4.66690212e-02],
       [-2.03029439e-01,  9.12606344e-02, -1.51296213e-01,
         3.18544358e-01,  5.23104612e-03, -6.57448530e-01,
         4.26836550e-01,  5.50016090e-02,  7.53166676e-01,
        -4.76024076e-02,  1.29416257e-01,  3.54261816e-01,
        -8.07508081e-02, -1.56890899e-01,  2.30243281e-01,
        -3.24065626e-01, -7.57176280e-02,  1.93696156e-01,
         6.09729290e-01, -4.38652858e-02,  3.95205796e-01,
         1.05160894e-02, -7.38694817e-02, -1.38509825e-01,
        -1.38545528e-01,  8.80518928e-02,  4.25327420e-01,
         1.88715667e-01,  1.36857897e-01, -7.03574270e-02],
       [ 2.07942650e-01,  2.47912869e-01, -7.32125901e-03,
         1.14737622e-01,  2.24035248e-01,  4.61455956e-02,
        -1.29072607e-01, -5.95871747e-01, -4.08460170e-01,
         8.91128853e-02, -8.75727832e-02, -3.96293193e-01,
         3.19580466e-01,  3.50452698e-04, -1.61295142e-02,
        -2.29062244e-01, -1.22041162e-02, -1.80887446e-01,
        -8.77594203e-02,  2.20086247e-01,  1.05507068e-01,
        -3.70436162e-02, -1.41422331e-01,  5.66050075e-02,
        -1.27201527e-01, -4.47522968e-01,  6.01307452e-02,
        -3.68388854e-02, -2.32895330e-01, -2.09339410e-01],
       [-2.50713170e-01,  1.21100796e-02, -4.00241435e-01,
         3.60128671e-01,  2.19625458e-01,  3.55611891e-01,
        -2.27807224e-01, -2.67328858e-01, -1.55012384e-01,
        -3.20643544e-01, -5.42988665e-02,  2.15019390e-01,
        -5.63297197e-02, -1.30877376e-01, -2.45945215e-01,
        -9.35485661e-02,  3.95842999e-01, -8.71900693e-02,
         3.60783398e-01,  1.31884918e-01,  4.92656380e-01,
        -6.12232797e-02, -2.80131519e-01, -8.33983496e-02,
        -2.17554867e-01,  1.39453888e-01, -5.74758984e-02,
        -1.18766263e-01, -1.70113593e-02, -2.36603878e-02],
       [ 2.45540425e-01,  3.15731138e-01,  1.04807533e-01,
        -1.22264922e-01,  2.30588853e-01, -1.19818024e-01,
        -4.78816815e-02, -3.51326793e-01, -2.31931299e-01,
        -3.44433933e-01, -3.76213305e-02, -5.91330588e-01,
         6.79926872e-01, -1.19519937e+00,  3.48967105e-01,
         1.44423380e-01, -2.49663163e-02, -3.16623271e-01,
        -9.22584355e-01, -2.94580966e-01, -8.81846130e-01,
         4.39805239e-02,  5.36831379e-01,  1.29103184e-01,
         8.56256783e-02, -1.38607115e-01,  1.63536463e-02,
         1.03839111e+00, -1.01187900e-01,  2.88672984e-01],
       [-3.42103273e-01, -1.00673558e-02,  2.58590162e-01,
        -4.63113040e-01,  2.51447111e-01, -6.63110763e-02,
         8.70803595e-02, -5.77274039e-02, -1.42810211e-01,
         1.30317919e-02,  2.74219215e-01, -7.57034542e-03,
         9.52377975e-01,  1.35853797e-01,  7.00860023e-02,
         4.99477983e-02,  3.12011570e-01, -1.05621234e-01,
        -3.35867494e-01, -1.70306548e-01,  4.48022895e-02,
         1.01526640e-01, -3.28780800e-01,  3.63057368e-02,
        -6.30861372e-02,  8.07504654e-02,  5.54974318e-01,
        -1.21838264e-01, -1.17424570e-01, -9.13909897e-02],
       [ 1.49414316e-01, -3.91354144e-01,  6.74968302e-01,
        -2.58987010e-01,  1.79068685e-01, -3.97505879e-01,
        -1.07639477e-01, -4.05253023e-01, -1.06797621e-01,
         1.43018484e-01,  3.91684085e-01,  5.35692573e-01,
        -2.10248847e-02,  2.77472943e-01, -3.64772469e-01,
        -1.98071629e-01,  2.02563703e-01, -2.23291337e-01,
        -4.98955369e-01,  2.76705712e-01,  8.16892087e-02,
         2.82027513e-01, -1.96864545e-01,  1.04342036e-01,
        -7.57883638e-02, -1.31052807e-01,  4.17511761e-01,
        -1.26464546e-01,  8.04426968e-02, -8.71503353e-02],
       [-1.51360124e-01,  2.78743505e-01,  2.74165839e-01,
        -1.90577358e-01,  1.49663270e-01, -4.87536639e-01,
         7.79170319e-02, -1.95256516e-01,  3.18279453e-02,
        -1.16551138e-01,  7.90987909e-02, -1.16000570e-01,
         5.21071970e-01, -3.10550332e-01,  3.91004890e-01,
         1.64791659e-01, -1.37406334e-01, -1.88119903e-01,
        -5.04921138e-01,  2.91217595e-01,  1.21089414e-01,
        -5.29686734e-02, -2.99057201e-03, -1.27054200e-01,
         8.48744437e-02, -1.00241892e-01,  2.45212913e-01,
         3.73956442e-01,  3.02780926e-01,  3.34782489e-02],
       [-4.20999117e-02, -6.13079816e-02, -2.88656592e-01,
         3.67422700e-01,  2.90652007e-01, -3.52685079e-02,
        -1.53134629e-01, -3.22457850e-01, -5.14101163e-02,
        -1.52106717e-01, -3.91820073e-01, -9.31967348e-02,
         5.42507589e-01,  2.18930721e-01,  1.06766887e-01,
         4.13702071e-01, -3.22631039e-02, -2.04564765e-01,
        -1.50645673e-01,  3.16232115e-01,  4.57862616e-02,
        -3.52678001e-02, -7.75334015e-02,  1.59812067e-02,
        -6.27069175e-02, -1.48069292e-01, -1.61404777e-02,
         5.02444291e-03, -1.15791447e-01, -8.43889788e-02],
       [-1.17694847e-01, -2.31911227e-01, -4.14822221e-01,
         2.58484781e-01, -2.10370068e-02,  1.77472889e-01,
         3.63822073e-01,  2.56856889e-01,  2.21747667e-01,
         5.25479056e-02,  1.24251887e-01,  1.19677633e-01,
        -3.95614058e-02, -2.53240973e-01, -1.12857847e-02,
        -2.52760410e-01,  2.89116800e-02,  2.68875510e-01,
        -1.55225933e-01, -7.47784972e-02, -6.08026013e-02,
         3.21308285e-01, -1.60285383e-01,  2.31286064e-01,
        -9.31509286e-02,  1.65928721e-01, -1.12824120e-01,
         1.29159600e-01,  2.22765759e-01,  3.49860460e-01],
       [-3.67716819e-01,  1.04785897e-01,  1.21635385e-01,
        -5.75463772e-02, -1.97365493e-01, -7.90739059e-01,
        -3.08612943e-01,  2.60602832e-01,  1.06105842e-01,
        -1.62250876e-01, -7.86364898e-02,  8.24968517e-03,
         6.87428415e-02, -2.06844181e-01, -2.93125153e-01,
         2.57980734e-01,  8.06526244e-02,  1.02420442e-01,
        -5.69943488e-01,  2.45368347e-01, -4.10794513e-03,
         1.45654827e-01, -8.61987397e-02,  5.36063313e-02,
         4.74380292e-02,  5.76049164e-02,  1.24367036e-01,
         7.15605617e-01,  3.51954699e-01,  1.71414807e-01],
       [ 2.50805259e-01,  3.69695015e-02,  7.21408367e-01,
        -6.41126812e-01, -7.51307189e-01, -7.60672390e-02,
        -6.40435591e-02,  2.00187206e-01,  1.09538294e-01,
        -1.55201688e-01, -1.43248767e-01,  1.89086571e-01,
        -8.94095451e-02,  9.41685140e-02, -2.43352681e-01,
         1.55253276e-01,  7.47537613e-02,  1.57032475e-01,
        -1.62219986e-01, -1.37263849e-01, -1.80746406e-01,
         2.57033378e-01,  1.26337446e-02,  2.74808139e-01,
        -2.56037842e-02,  1.45716935e-01, -1.76172212e-01,
        -2.11246729e-01, -3.28529850e-02, -4.39660579e-01],
       [ 7.80885220e-02,  1.54959306e-01,  1.98362082e-01,
        -1.29296541e-01, -1.84485331e-01, -2.61955112e-01,
         1.15942061e-01, -5.82529232e-02, -2.01784432e-01,
        -1.15819082e-01,  2.35192850e-01, -4.51872289e-01,
         3.56521755e-01, -3.74934107e-01,  4.80401576e-01,
         3.74540277e-02,  2.76792254e-02, -1.11773059e-01,
         1.14883631e-01,  2.41496488e-01, -2.43024766e-01,
         1.68785810e-01,  7.67671466e-02, -4.28678602e-01,
        -5.36474865e-03,  1.67448655e-01,  3.77128154e-01,
         5.75241208e-01, -6.51844293e-02, -1.52146246e-03]], dtype=float32), array([[ 0.24061027],
       [ 0.286942  ],
       [-0.17671002],
       [-0.25312692],
       [-0.05799432],
       [ 0.41588536],
       [ 0.31097296],
       [ 0.2739421 ],
       [-0.07123829],
       [ 0.18057163],
       [ 0.3528253 ],
       [-0.5176416 ],
       [-0.26843044],
       [ 0.27031457],
       [ 0.53564894],
       [ 0.38471255],
       [-0.33174333],
       [-0.17180462],
       [ 0.2839734 ],
       [ 0.24056149],
       [-0.3946826 ],
       [-0.43218875],
       [-0.25222993],
       [-0.23543249],
       [-0.41006052],
       [-0.20501733],
       [ 0.28387186],
       [-0.17785448],
       [ 0.23447967],
       [-0.36997223]], dtype=float32)]


Weights_h:
[array([[ 0.14568856,  0.0427883 , -0.24494357, -0.34768084,  0.12403906,
        -0.08453072,  0.13545074, -0.04501846, -0.10312223, -0.13585359,
         0.30502224,  0.33671856,  0.10827706,  0.11763223, -0.12222837,
         0.39696944, -0.03577499,  0.08426218, -0.07125954,  0.00613714,
        -0.23424527, -0.04163045, -0.08416878,  0.30254552, -0.34226817,
        -0.23766267, -0.04486886, -0.20879053,  0.0101837 ,  0.07206345,
         0.16564794,  0.17375416],
       [ 0.00346856,  0.39501163, -0.04247865,  0.05718492, -0.46294108,
         0.15985963,  0.08958366,  0.06815035, -0.21758986, -0.245652  ,
         0.04290448, -0.28693548,  0.10382438, -0.24541831, -0.33473513,
        -0.22370315, -0.28881592, -0.32878292,  0.19366924, -0.0243009 ,
        -0.02153269,  0.00258307, -0.43086967, -0.09275589, -0.32401958,
        -0.11621533,  0.22480007, -0.08678791,  0.20522231,  0.08635533,
         0.13053833, -0.12524052]], dtype=float32), array([[ 0.14613502,  0.13872388,  0.1402741 , ...,  0.251899  ,
         0.19029291,  0.08356266],
       [ 0.2909089 ,  0.012693  ,  0.14056441, ..., -0.22259322,
         0.17874275, -0.3493558 ],
       [ 0.00450856,  0.2582141 ,  0.09719661, ...,  0.06585601,
         0.27156398, -0.07380354],
       ...,
       [-0.13177583,  0.13860631,  0.320436  , ...,  0.22266309,
         0.11515298,  0.09497961],
       [-0.32934234, -0.06933061,  0.16701901, ...,  0.23945828,
        -0.04170385, -0.21546309],
       [ 0.01153392, -0.1474798 , -0.08698559, ..., -0.18199755,
        -0.10279488,  0.05231684]], dtype=float32), array([[ 7.05821216e-02, -5.46152852e-02, -1.89709201e-01, ...,
        -2.75937468e-01, -2.03610852e-01, -1.38038620e-01],
       [-6.36903048e-02,  8.44612252e-03, -1.03535384e-01, ...,
        -3.22719038e-01, -1.41772922e-04, -7.48106092e-03],
       [ 1.97661653e-01,  1.44059375e-01, -8.65310654e-02, ...,
        -1.39062628e-02,  7.18802810e-02, -7.87372515e-02],
       ...,
       [ 2.23957852e-01,  7.22172782e-02, -1.61669962e-02, ...,
        -6.46444559e-02,  1.65832117e-02, -4.95307110e-02],
       [ 2.76551485e-01,  5.90382963e-02,  1.41858488e-01, ...,
        -1.93446189e-01,  2.73978382e-01, -1.90457731e-01],
       [-7.44643584e-02, -2.15930268e-01,  1.40060276e-01, ...,
         1.87460482e-01,  1.40545100e-01,  1.02962419e-01]], dtype=float32), array([[-0.09848686],
       [-0.18843706],
       [ 0.20386577],
       [-0.10627208],
       [ 0.10532624],
       [-0.19488737],
       [ 0.05369253],
       [ 0.35077465],
       [-0.28267416],
       [ 0.18323849],
       [ 0.35219964],
       [ 0.1987451 ],
       [-0.25650328],
       [-0.3942111 ],
       [-0.04799478],
       [ 0.13988715],
       [ 0.00692682],
       [-0.4145102 ],
       [-0.41573158],
       [ 0.42574856],
       [-0.19519965],
       [-0.38440022],
       [ 0.10127336],
       [-0.12720051],
       [ 0.01412332],
       [ 0.1001907 ],
       [-0.4699128 ],
       [-0.09748092],
       [ 0.2031211 ],
       [-0.27913523],
       [ 0.10445727],
       [ 0.34600475]], dtype=float32)]


Weights_c:
[array([[-0.436551  , -0.19577149, -0.14908943, -0.23251636,  0.21020836,
         0.01899168, -0.18862444,  0.07153811, -0.28318742,  0.08614405,
         0.16644958, -0.05243946,  0.1033326 ,  0.35956657,  0.12489102,
         0.11240142, -0.44272956,  0.18902408,  0.2457999 , -0.37412995,
         0.18249556, -0.22759682, -0.09805822,  0.23432578, -0.44437405,
        -0.07873162,  0.33763906, -0.18306339,  0.34050578,  0.34015605,
         0.10902152, -0.29574654],
       [-0.36611027,  0.2716988 , -0.297845  , -0.14435045,  0.34210795,
         0.10336805, -0.30717757, -0.18570022, -0.2744148 ,  0.07295002,
         0.08316567, -0.1886442 , -0.04990215, -0.3336338 , -0.2549983 ,
        -0.0923717 , -0.17328607,  0.4468056 , -0.2635115 , -0.21491107,
         0.10679378, -0.13244447,  0.27923778,  0.1546878 ,  0.01163447,
        -0.04222929, -0.0029199 ,  0.11461112, -0.0541359 , -0.2994231 ,
        -0.00919068, -0.14721985]], dtype=float32), array([[ 0.11665306,  0.2537795 , -0.11705668, ...,  0.00697507,
         0.07209751, -0.03910639],
       [ 0.13674262,  0.20050101, -0.04953763, ...,  0.02222706,
         0.02070728,  0.19853294],
       [ 0.3518492 ,  0.20398915,  0.08312125, ...,  0.03551027,
         0.3447903 ,  0.08161815],
       ...,
       [ 0.02204326, -0.26413402,  0.01505016, ..., -0.13244654,
        -0.00846231, -0.22384918],
       [ 0.21933721, -0.03704536, -0.1586929 , ...,  0.18279529,
        -0.08279106,  0.21981505],
       [-0.22208689,  0.041264  ,  0.201325  , ..., -0.0835606 ,
        -0.1985827 , -0.04760926]], dtype=float32), array([[-0.03064156, -0.26161763, -0.15255532, ...,  0.05586261,
         0.01343352,  0.04425788],
       [ 0.0712921 , -0.16796869, -0.09860854, ..., -0.03465192,
        -0.03304254, -0.06419692],
       [ 0.13349235,  0.1533324 ,  0.07535215, ..., -0.13567074,
        -0.10419467, -0.12308176],
       ...,
       [ 0.27622157, -0.24120644,  0.02672122, ...,  0.0235175 ,
        -0.13245907,  0.09059867],
       [-0.07116906, -0.16041829, -0.0282239 , ...,  0.19553743,
        -0.04006693,  0.11770446],
       [ 0.01839904, -0.19303663,  0.24373351, ...,  0.04492711,
        -0.00136926, -0.10089289]], dtype=float32), array([[ 0.01475844],
       [-0.06276604],
       [-0.44945487],
       [-0.01337795],
       [ 0.02571248],
       [ 0.09547279],
       [ 0.14328891],
       [-0.20065366],
       [-0.06742534],
       [ 0.00947275],
       [-0.0857871 ],
       [-0.07455337],
       [-0.09628659],
       [ 0.0506513 ],
       [ 0.02637007],
       [ 0.10461706],
       [-0.09704024],
       [-0.26791316],
       [-0.01533256],
       [-0.29926658],
       [ 0.07074825],
       [-0.00978785],
       [ 0.20001294],
       [ 0.08812054],
       [ 0.2354673 ],
       [-0.02420573],
       [ 0.10969929],
       [ 0.15924199],
       [-0.18883389],
       [ 0.0879006 ],
       [ 0.30827   ],
       [ 0.13382424]], dtype=float32)]


Weights_k:
[array([[ 0.16385634,  0.66589665, -1.0182695 , -1.0748824 , -1.7964523 ,
        -0.21915706, -1.9748343 ,  0.5523306 , -0.9853235 ,  1.0561097 ,
         0.31104007, -0.19452572, -0.3128346 , -1.3077831 , -1.3420776 ,
         0.47543308, -0.7370983 , -1.1792514 ,  0.88981605, -1.3272146 ,
         0.49738017, -0.68741924,  0.802817  ,  0.46150815,  1.3788024 ,
        -1.1112651 , -0.47850335, -0.65506244, -1.4463803 , -0.34344718],
       [-0.94306314,  1.6167465 , -0.6769048 ,  0.0762668 , -2.1457214 ,
         1.4717718 ,  0.07619373, -1.841853  ,  0.46632898, -0.6594978 ,
         1.1447625 ,  0.7129346 ,  0.5568456 ,  0.28651464,  0.4817614 ,
         0.6109987 , -0.87134856,  0.3246017 ,  0.73230153,  0.7604932 ,
         1.0121121 ,  0.3813183 ,  0.02338937, -0.37547037,  0.39966273,
         0.41361445,  0.67522913, -0.55314183,  0.41028976,  0.69280255]],
      dtype=float32), array([[-8.74319226e-02, -3.29300433e-01, -1.57145277e-01,
         3.74254351e-03, -4.65267301e-01,  1.72955126e-01,
         7.77517781e-02, -1.93910375e-01, -2.77233273e-01,
        -4.20544177e-01, -2.54411519e-01, -1.21901631e-01,
        -5.44383407e-01,  4.74483520e-02, -3.04313540e-01,
        -3.49706531e-01, -3.24771255e-01,  3.36045742e-01,
        -2.30401739e-01,  4.61663842e-01, -3.40618610e-01,
        -7.37689883e-02,  5.15038788e-01, -2.88649917e-01,
         1.09850645e+00,  1.26183152e-01, -3.93698037e-01,
         2.51372188e-01, -1.55563146e-01,  3.61101031e-01],
       [ 2.20762551e-01,  3.87068242e-01,  2.08552942e-01,
         3.67235988e-01,  5.24193823e-01,  1.22292161e-01,
        -9.50335786e-02,  4.35376883e-01,  8.64669323e-01,
         1.36822653e+00,  1.00658727e+00,  6.79711401e-01,
         6.75863549e-02, -1.94930226e-01, -9.27984416e-02,
         8.44165504e-01,  1.09524667e+00,  1.71457782e-01,
        -3.07418227e-01, -1.32247537e-01,  7.29809344e-01,
         2.45379210e-01, -7.82474041e-01,  2.71714300e-01,
        -8.61465812e-01,  9.33791697e-02,  2.61952788e-01,
         1.48444697e-01, -1.74569368e-01, -3.66181672e-01],
       [ 5.47202408e-01, -3.70837152e-01, -2.24575415e-01,
        -6.49234504e-02,  9.59966004e-01,  2.70351499e-01,
        -4.40060422e-02, -8.63915980e-01, -5.69818377e-01,
        -4.88984674e-01, -9.01670098e-01, -1.07195508e+00,
        -3.50435846e-03,  1.20326377e-01, -7.32761621e-02,
        -2.77747840e-01, -1.05641830e+00, -9.41430852e-02,
         3.16127419e-01, -5.29962718e-01, -1.13149405e+00,
         4.80135567e-02,  1.01105511e+00,  1.20383322e-01,
        -1.12705290e-01,  1.91269383e-01, -2.25178748e-01,
        -5.21688640e-01,  9.36681628e-02, -6.87214034e-03],
       [ 1.70418933e-01, -6.79793179e-01,  3.21340442e-01,
        -3.34655315e-01, -2.15446502e-01,  1.03205658e-01,
        -1.46192595e-01, -4.56879556e-01,  5.56631505e-01,
        -3.65908146e-01, -3.70818615e-01,  4.46330875e-01,
        -1.57412156e-01, -7.99161866e-02, -1.26375377e-01,
         5.81995308e-01, -5.09130836e-01, -1.37041330e+00,
        -4.08043981e-01, -2.39636207e+00, -4.03255038e-02,
        -5.57406805e-02,  7.49900639e-02,  1.95704192e-01,
         2.99778849e-01,  9.53239053e-02,  4.96258736e-02,
        -3.76960903e-01,  6.92209423e-01,  3.70051473e-01],
       [ 3.48467320e-01, -4.81485188e-01, -1.29590094e-01,
        -1.62596315e-01,  8.22904825e-01,  3.29176098e-01,
        -9.09313187e-02, -6.14921451e-01, -1.06602550e+00,
        -5.15141249e-01, -5.88617086e-01, -1.39850605e+00,
        -2.98081875e-01,  3.11099380e-01, -1.60620302e-01,
        -3.30941737e-01, -6.49084568e-01,  2.97784775e-01,
        -9.54022110e-02, -2.12806970e-01, -9.10082757e-01,
        -2.75222898e-01,  5.90055168e-01, -3.44946198e-02,
         7.41895512e-02, -2.13572621e-01, -1.59923947e+00,
        -5.38066626e-01, -2.43203994e-02,  1.70546398e-01],
       [-1.40091190e-02, -3.67428586e-02,  1.86711941e-02,
         8.66007209e-02, -7.60356337e-02, -1.53356463e-01,
        -2.08909363e-01,  3.17584842e-01,  1.13167393e+00,
         4.16933224e-02,  3.62391740e-01,  3.66226822e-01,
        -6.92899944e-03, -1.04149759e-01,  6.98053956e-01,
         1.82492268e+00,  6.92904413e-01, -3.43639463e-01,
         1.35789275e-01, -7.05622554e-01,  6.07757568e-01,
         3.51336151e-02, -9.47091281e-01,  5.12044728e-01,
        -3.76097023e-01, -3.31416011e-01,  5.30035377e-01,
        -3.13180923e-01,  4.08743992e-02, -1.02057025e-01],
       [ 6.71147525e-01, -2.91467816e-01, -1.06470831e-01,
        -1.05995163e-01,  2.53152943e+00,  2.26581171e-01,
        -2.05364794e-01, -1.89746276e-01, -6.95763707e-01,
         2.90879965e-01, -2.07776546e-01, -1.51171017e+00,
        -1.44864857e-01, -2.06972882e-02,  1.67736933e-02,
        -3.78361829e-02, -1.76430956e-01, -1.46992475e-01,
        -3.91637594e-01, -1.47361472e-01, -4.94218975e-01,
         3.32470164e-02,  5.26721358e-01,  2.52881348e-01,
        -4.52147633e-01,  1.03997305e-01,  2.38993272e-01,
        -7.89299965e-01,  2.00693607e-02, -7.23224655e-02],
       [ 2.87262440e-01,  1.10318504e-01, -2.24492908e-01,
         8.62990692e-02,  2.55403489e-01, -9.00281407e-03,
         1.80345431e-01, -3.21381807e-01, -1.12958992e+00,
         9.61620267e-03, -7.34622553e-02, -5.36626101e-01,
        -4.46236402e-01,  1.67158887e-01, -8.35757613e-01,
        -4.45620626e-01, -5.47567189e-01,  1.12958416e-01,
         3.43475863e-02,  6.90889001e-01, -4.18292850e-01,
         9.69424471e-02,  6.10500038e-01, -3.30057621e-01,
         7.30069935e-01,  1.51918344e-02, -6.20297492e-01,
         3.68761659e-01, -1.86059743e-01,  8.47262591e-02],
       [ 1.61062554e-01, -2.31320947e-01,  1.13977969e-01,
         7.82115459e-02,  3.45221581e-03,  7.90363476e-02,
        -2.61553794e-01, -1.44125044e-01,  3.47432226e-01,
        -7.01448768e-02,  1.24903042e-02, -1.01563618e-01,
        -1.44884929e-01, -2.36615062e-01,  2.53282398e-01,
         2.26058036e-01, -7.54138827e-02, -7.85915673e-01,
        -1.57425135e-01, -1.07925618e+00,  5.19260913e-02,
        -1.46128163e-01,  1.74269721e-01,  4.40630406e-01,
        -2.92838484e-01, -1.28257990e-01,  9.82313156e-01,
        -6.01989388e-01,  1.76406667e-01, -2.24061996e-01],
       [-2.21254051e-01,  3.39891538e-02, -3.08962047e-01,
         2.48036906e-02, -6.12882018e-01,  1.83248848e-01,
         2.80092329e-01,  1.57653093e-01,  7.92918056e-02,
        -5.61165512e-02, -1.30147457e-01,  9.30398703e-01,
        -1.38101414e-01, -2.27754071e-01, -1.53514549e-01,
        -4.33703884e-02,  1.60447016e-01,  1.96996301e-01,
         3.06532443e-01, -1.19650349e-01,  1.49250433e-01,
         1.01660945e-01,  4.56612604e-03, -7.52013981e-01,
         2.01198888e+00,  7.75225535e-02, -9.88957405e-01,
         8.22386205e-01,  2.98873074e-02,  6.51671410e-01],
       [ 1.97373703e-01,  1.41801178e-01, -5.43197878e-02,
        -1.42526641e-01,  1.52317286e+00, -2.59252548e-01,
        -1.31627128e-01,  3.10333133e-01,  6.67100847e-01,
         7.29802370e-01,  6.94587231e-01,  2.02117130e-01,
         1.85334474e-01, -3.57140213e-01,  1.90214530e-01,
         7.54556775e-01,  7.95891225e-01,  2.10731272e-02,
         4.77467179e-02,  5.37340045e-01,  3.95941257e-01,
        -1.55585445e-02, -9.71121371e-01,  1.14910588e-01,
        -1.03015029e+00, -6.10116124e-02, -1.30604267e-01,
         2.10377455e-01, -1.04901686e-01, -4.52899039e-01],
       [ 2.41815329e-01,  2.56521285e-01,  7.38988295e-02,
        -1.37674987e-01,  1.11735499e+00, -4.15569335e-01,
         1.29823210e-02, -3.01704593e-02, -1.12336732e-01,
         5.59747458e-01, -1.64121501e-02, -7.56063759e-01,
         1.54502422e-01,  9.27464440e-02,  2.80471504e-01,
        -7.41653293e-02,  5.80703676e-01,  3.82130951e-01,
        -1.30969778e-01,  6.93038881e-01, -1.08283475e-01,
         1.48327544e-01, -1.14205159e-01,  4.86722449e-04,
        -4.35921460e-01, -6.45959228e-02, -8.65438674e-03,
        -1.21420220e-01, -2.63704956e-01, -3.26965660e-01],
       [ 3.46689552e-01,  4.17924374e-01,  2.31288046e-01,
        -1.82752982e-01,  6.17785037e-01, -1.07227266e-01,
        -4.19556767e-01, -7.32166925e-04,  1.58772424e-01,
         8.73507082e-01, -5.05247228e-02, -2.55757540e-01,
        -1.04118541e-01,  6.40507340e-02, -6.46610633e-02,
         5.02580106e-01,  1.40970349e-01,  9.95828658e-02,
         1.68177158e-01, -1.62413016e-01, -6.36873171e-02,
        -8.35343264e-03, -2.54346699e-01,  3.43572944e-01,
        -2.77745271e+00, -2.07295850e-01,  7.71868944e-01,
        -4.80747253e-01,  5.51896952e-02, -4.19109046e-01],
       [-1.01218872e-01, -7.93087006e-01,  3.86489332e-02,
        -1.28529817e-01, -1.28238052e-01, -2.49957051e-02,
        -2.44161651e-01, -2.01712295e-01,  8.86934519e-01,
         2.26886151e-03, -4.97777939e-01,  1.50063902e-01,
         1.35955796e-01, -8.58099163e-02,  1.87650681e-01,
         4.66783643e-01, -1.33859903e-01, -2.12821102e+00,
         5.88233657e-02, -2.60786653e+00, -2.20781624e-01,
        -3.62566620e-01,  1.67739809e-01,  1.53139487e-01,
        -1.53663293e-01,  1.15583390e-01,  4.65129375e-01,
        -4.89155322e-01,  7.32503712e-01, -2.67036080e-01],
       [ 4.38918412e-01,  2.26005346e-01, -1.45309977e-02,
        -9.55106467e-02,  9.63055372e-01, -1.36458343e-02,
        -1.07914738e-01, -1.53390720e-01, -2.53533304e-01,
         1.09327070e-01,  9.07495394e-02, -1.18388271e+00,
         2.03605354e-01, -2.04134881e-01,  3.11157964e-02,
         2.35238552e-01,  8.70899707e-02, -1.49632856e-01,
         1.99781284e-01, -3.09559971e-01, -2.65153348e-01,
        -2.79023260e-01,  3.32378149e-01,  2.63114750e-01,
        -8.70702326e-01,  1.89930782e-01,  1.44989049e+00,
        -7.00172842e-01, -1.76792428e-01, -8.75536025e-01],
       [-4.63458925e-01,  2.25060791e-01, -4.00552191e-02,
         1.99091509e-01, -2.24132985e-01, -1.92398727e-01,
        -6.17739744e-02,  7.40861237e-01,  9.57006931e-01,
         5.14971375e-01,  4.10575747e-01,  2.37570429e+00,
         1.15330242e-01,  1.68676227e-01,  4.33867902e-01,
         5.23137510e-01,  5.76978207e-01,  2.85532661e-02,
         7.02025741e-02, -5.45054197e-01,  6.00242913e-01,
         8.43761414e-02, -1.40970886e-01, -2.18921095e-01,
         1.93463508e-02,  8.52389932e-02, -2.51904093e-02,
         1.34452209e-02, -2.63113767e-01,  1.98091239e-01],
       [ 1.57819271e-01, -2.38715023e-01,  5.42957000e-02,
        -1.55289203e-01, -7.85345733e-02,  1.87176585e-01,
        -4.12084386e-02, -1.53176069e+00, -4.64114815e-01,
        -6.78377986e-01, -8.32764208e-01, -8.44673038e-01,
        -4.56405848e-01,  2.47589853e-02, -2.47378111e-01,
        -6.97266638e-01, -7.85516202e-01, -2.76273489e-01,
        -1.12506613e-01, -8.67705405e-01, -9.35270071e-01,
        -3.97610888e-02,  8.29574704e-01, -1.18493713e-01,
         4.31104660e-01, -1.81679636e-01,  8.57766792e-02,
        -7.93934822e-01,  4.16189462e-01, -3.62236351e-02],
       [ 3.41699660e-01, -1.91713423e-01,  2.29826011e-02,
        -6.48313910e-02,  3.75661302e+00, -6.00900128e-03,
        -3.71556789e-01, -6.31769821e-02, -2.47926667e-01,
         8.16095695e-02,  2.08152533e-02, -1.67041683e+00,
        -1.53215319e-01,  1.29310578e-01,  2.45281845e-01,
         1.03655644e-01, -9.70265716e-02,  2.07108647e-01,
        -9.19384733e-02, -8.75291750e-02, -5.63028097e-01,
        -1.23628497e-01,  3.50147486e-01,  1.10361084e-01,
        -6.46392107e-01,  2.08154730e-02,  6.99331284e-01,
        -6.48345470e-01, -1.43095121e-01, -1.94823056e-01],
       [-4.27648962e-01,  7.20437840e-02,  1.95023149e-01,
         2.10510105e-01, -5.08387148e-01, -1.13043517e-01,
         2.04807520e-01,  1.00375891e+00,  6.06311917e-01,
         5.14534175e-01,  9.22656178e-01,  1.11485517e+00,
         1.77437454e-01,  1.32669285e-01,  2.60894060e-01,
         5.66621542e-01,  8.34070027e-01,  1.98411107e-01,
        -1.34953260e-01,  8.67317438e-01,  8.13453496e-01,
        -1.88560169e-02, -7.25962698e-01,  1.69099852e-01,
         1.70767307e-01,  3.44501063e-02, -2.71797568e-01,
         6.91383660e-01, -3.29734713e-01,  4.45903949e-02],
       [ 1.11596368e-01, -5.48868179e-01,  7.29138777e-02,
        -1.03342973e-01, -3.79626930e-01,  1.16918266e-01,
        -3.53862017e-01, -5.86717613e-02,  3.72737318e-01,
         1.17594495e-01, -3.18867743e-01,  4.75525111e-01,
        -2.11316898e-01,  1.70934256e-02,  8.23979974e-02,
         3.52957487e-01,  5.90257272e-02, -1.19910908e+00,
        -1.13003835e-01, -2.10228872e+00,  1.34582102e-01,
        -1.57600746e-01, -1.22210883e-01,  5.29438615e-01,
        -5.52469790e-01, -2.22579464e-01,  3.66508454e-01,
        -7.76481032e-01,  4.55271214e-01,  5.46441451e-02],
       [-3.54150653e-01,  7.04096198e-01, -2.58003175e-02,
         2.66036540e-01,  4.16393578e-01, -1.72369435e-01,
         6.74973726e-02,  8.85238945e-01,  5.47246099e-01,
         1.07471919e+00,  8.42526019e-01,  3.12470883e-01,
         1.65847600e-01, -1.70189604e-01,  1.66006744e-01,
         5.95921993e-01,  1.04916358e+00, -3.15550327e-01,
         3.63735586e-01,  3.24747264e-01,  2.65249342e-01,
        -1.50003374e-01, -1.24824691e+00,  4.80739415e-01,
        -8.26955914e-01, -1.06656022e-01, -1.54618472e-01,
         1.36188909e-01, -2.62251824e-01, -1.53646037e-01],
       [ 2.97576129e-01, -1.54420346e-01,  3.02534699e-01,
        -2.51514405e-01,  3.67604405e-01,  1.38624743e-01,
        -5.87397367e-02,  1.49234012e-01,  3.81513655e-01,
         3.97905916e-01, -2.07718566e-01, -4.95378286e-01,
        -1.30248412e-01, -8.70292857e-02,  5.17899156e-01,
        -9.17388871e-02, -4.41004261e-02, -3.56044561e-01,
         6.01856299e-02, -3.12023342e-01, -5.42357266e-02,
        -2.88873792e-01, -2.63971269e-01,  7.10255802e-01,
        -9.47348237e-01,  1.00636490e-01,  1.24429655e+00,
        -6.02861047e-01,  3.76573563e-01, -3.95583391e-01],
       [-1.60356298e-01,  3.07375401e-01, -7.67391101e-02,
        -1.28273532e-01, -3.39277357e-01,  8.90013650e-02,
         3.13447297e-01,  5.58937430e-01, -2.31568709e-01,
        -9.36601907e-02,  7.50291467e-01,  3.73161048e-01,
         3.16425920e-01,  6.00411855e-02, -2.16848440e-02,
        -2.83759892e-01,  1.63427994e-01,  3.41498584e-01,
        -3.01371545e-01,  8.26581359e-01,  2.11958036e-01,
         3.83691311e-01,  9.96850058e-02, -9.45698097e-02,
         2.54743695e-01,  8.23352113e-02, -1.26339531e+00,
         1.04858112e+00, -6.11240745e-01,  1.96881592e-01],
       [ 1.21942103e-01,  4.31099981e-01, -5.62455170e-02,
         3.57357017e-03,  3.78689557e-01, -1.83011100e-01,
         2.79234111e-01, -1.59691945e-01, -4.08300787e-01,
         1.72125295e-01,  9.25465822e-02, -1.06839836e+00,
        -1.67143956e-01,  3.29062730e-01, -1.63654014e-01,
        -2.73316681e-01, -2.48427540e-02,  1.52196407e-01,
         1.68475673e-01,  7.51870632e-01, -4.55491394e-01,
        -8.23927373e-02,  1.65199131e-01,  9.96703506e-02,
        -3.07697266e-01, -9.49538276e-02, -1.24789495e-02,
        -5.45651130e-02, -3.13794851e-01, -1.92260221e-01],
       [-3.40981722e-01,  6.37173712e-01, -9.79954079e-02,
         1.68422699e-01,  1.21411672e-02,  5.39595783e-02,
         4.38839011e-02,  7.31794536e-01, -2.33275428e-01,
         3.03674459e-01,  5.70888638e-01, -8.90670195e-02,
         4.67214853e-01,  1.46500230e-01, -2.36947015e-01,
        -1.66696697e-01,  3.11693013e-01,  7.33186364e-01,
         7.33603090e-02,  1.04314125e+00,  1.10674292e-01,
        -3.72123756e-02,  1.98890731e-01, -1.75815985e-01,
         1.08744361e-01,  5.30099310e-02, -8.32456708e-01,
         9.84475315e-01, -5.21996200e-01,  1.02445640e-01],
       [-1.84413016e-01, -4.34783459e-01,  3.56157690e-01,
         1.11836419e-01, -1.51581421e-01,  1.43969372e-01,
        -4.26747888e-01, -2.86187917e-01,  8.29581499e-01,
        -2.93595105e-01, -4.97363120e-01,  4.53264058e-01,
         5.95452413e-02,  1.21634126e-01,  4.58565295e-01,
         6.52251422e-01, -1.43337741e-01, -1.18095124e+00,
        -2.48563081e-01, -2.15593028e+00,  3.25237632e-01,
        -9.59542692e-02,  2.62211472e-01, -8.70786533e-02,
         1.20056748e-01,  3.48491967e-01,  1.73987392e-02,
        -2.31490299e-01,  2.57227927e-01, -6.11461848e-02],
       [ 3.40794057e-01, -1.86902657e-01,  1.54283240e-01,
        -4.42201830e-03,  4.82441902e-01,  4.43009324e-02,
        -5.55511639e-02,  9.03332308e-02,  3.76504898e-01,
         3.38711947e-01,  1.68861091e-01, -2.14152247e-01,
        -3.77887972e-02, -2.45013550e-01,  3.24584961e-01,
         3.66142005e-01,  1.75351307e-01, -5.01581371e-01,
         1.43176064e-01, -5.76546729e-01, -9.18686315e-02,
         7.74555206e-02, -2.97156930e-01,  7.33329356e-01,
        -6.41291976e-01, -2.18523085e-01,  2.32896417e-01,
        -4.73787636e-01,  2.74987191e-01, -2.89342493e-01],
       [ 4.67906654e-01, -1.80365935e-01, -4.33414541e-02,
        -1.94412977e-01,  7.71999061e-01,  1.70826092e-01,
        -1.67541251e-01, -3.05531561e-01, -6.51667595e-01,
        -4.56471801e-01, -3.33497226e-01, -1.45512533e+00,
        -1.89389512e-01,  8.66168924e-03, -8.63580257e-02,
        -2.98761398e-01, -6.80755138e-01,  2.04794351e-02,
        -1.20005563e-01,  3.01274806e-01, -7.95695603e-01,
         1.79396123e-01,  7.71233022e-01, -2.96174526e-01,
         1.45962104e-01,  2.11072624e-01, -4.32359390e-02,
        -9.02619064e-02, -1.79250585e-03, -3.46980512e-01],
       [ 6.97865427e-01, -1.67419344e-01,  1.86335295e-02,
        -1.51230976e-01,  1.51444757e+00,  9.91252065e-02,
         5.93388826e-02, -1.19938359e-01, -5.81026316e-01,
        -1.56663154e-04,  2.86410935e-02, -1.72981501e+00,
        -2.61245649e-02,  1.24148004e-01,  1.53021738e-01,
        -1.13046125e-01, -4.82295379e-02, -1.56115443e-01,
        -3.62742059e-02, -6.03523672e-01, -2.43781492e-01,
        -4.15303648e-01, -1.73980761e-02,  2.95995414e-01,
        -5.13146818e-01, -1.94109946e-01,  1.48618555e+00,
        -7.68441796e-01,  1.26980096e-01, -5.44729292e-01],
       [ 4.21445787e-01,  2.90727794e-01, -1.62375551e-02,
         8.79238993e-02,  3.38816428e+00,  1.61197111e-01,
        -3.02661866e-01, -3.77218537e-02,  1.21940233e-01,
         7.08240211e-01,  1.50300145e-01, -2.80913621e-01,
        -5.21927886e-02, -2.03298539e-01, -7.51117915e-02,
         2.02529609e-01,  5.44121623e-01,  1.14105545e-01,
        -4.39904891e-02,  3.93124431e-01,  1.23410441e-01,
        -8.18362907e-02, -3.62034589e-01, -7.66824037e-02,
        -8.41597378e-01, -1.52278766e-01,  6.28863394e-01,
        -2.70141244e-01, -5.94587363e-02, -9.35267061e-02]], dtype=float32), array([[-1.64569616e-01,  8.97109360e-02, -3.74473840e-01,
        -1.90893129e-01, -2.87086934e-01,  6.94003880e-01,
         1.96704119e-01,  5.54539189e-02, -3.76929641e-02,
         5.88181876e-02,  2.23838672e-01, -2.08354160e-01,
        -5.87519817e-02, -5.00629067e-01, -1.29987970e-01,
         1.39158353e-01,  8.63289535e-01,  3.03760648e-01,
        -2.52669096e-01, -5.41697741e-02,  3.80635679e-01,
        -2.71457076e-01,  3.04441637e-04, -7.03153193e-01,
        -3.62228125e-01,  3.07302177e-01, -6.20207414e-02,
         5.60218580e-02,  4.46787886e-02,  1.94795728e-01],
       [ 1.83081135e-01,  1.49031430e-01,  5.23356209e-03,
        -6.33733928e-01, -2.37462908e-01, -4.06616360e-01,
        -4.39350754e-02, -4.52483654e-01, -7.30313659e-02,
        -2.92419285e-01,  1.74476624e-01,  6.81052282e-02,
        -3.38211298e-01,  5.63301086e-01, -4.12406027e-01,
        -4.02542613e-02,  5.92610419e-01, -5.72786927e-01,
        -2.44731288e-02, -1.61779374e-02,  2.36925021e-01,
         3.29409570e-01,  1.81782972e-02,  3.22720081e-01,
        -1.46947265e-01, -6.79161027e-02,  7.63378069e-02,
        -3.52447331e-01,  8.08634311e-02, -4.42506790e-01],
       [-7.54906014e-02, -2.63606012e-01, -5.48696667e-02,
        -2.34632231e-02, -1.34724909e-02,  3.32373351e-01,
         1.30358294e-01,  1.84473068e-01, -1.59259051e-01,
        -8.66782442e-02, -6.91513792e-02,  1.95013992e-02,
         2.01060064e-02,  2.49913901e-01, -9.43129361e-02,
        -2.08682388e-01, -3.29506457e-01,  1.04580715e-01,
         6.30314425e-02,  6.07958622e-02,  4.45809737e-02,
         3.50701921e-02,  7.58093409e-03, -5.33461213e-01,
         3.62616509e-01,  4.33748841e-01,  1.20358847e-01,
         6.46624789e-02,  3.56203794e-01, -2.17535682e-02],
       [-1.33276477e-01, -1.81691527e-01,  1.09123297e-01,
        -4.14410643e-02,  9.69514437e-03, -1.58321094e-02,
        -1.90120980e-01,  3.76097821e-02, -1.66653678e-01,
        -5.74314110e-02, -2.33770579e-01,  3.12034994e-01,
         2.42393911e-01,  1.95167080e-01,  8.79448926e-05,
         1.09959543e-01, -2.70388722e-01, -8.78185034e-02,
         3.74680370e-01,  2.17965469e-01,  2.42670104e-01,
         1.19608007e-01,  1.18573658e-01,  2.78854996e-01,
         2.44551614e-01, -3.38554144e-01, -8.37812185e-01,
        -1.70631975e-01,  4.90352809e-02, -2.25260481e-02],
       [-1.82074364e-02,  2.25377053e-01, -3.14146876e-01,
        -1.93638310e-01,  1.93087235e-01,  5.91611624e-01,
         8.16659257e-02, -5.72403409e-02,  1.04996271e-01,
         1.33543074e-01, -1.33059984e-02,  2.83505380e-01,
        -1.75549183e-03, -6.78320765e-01, -1.45875677e-01,
         1.45066932e-01,  5.43281287e-02,  5.23717940e-01,
        -1.26944751e-01,  3.90519440e-01, -3.14810336e-01,
        -1.94077119e-01, -1.40966758e-01, -1.53144300e-01,
        -5.21895349e-01,  1.02996476e-01,  4.30319756e-02,
        -8.10870305e-02, -3.30987692e-01, -1.90347672e-01],
       [ 8.44134297e-03,  3.87449503e-01, -1.20236747e-01,
         1.41217470e-01,  1.29288271e-01,  4.29464847e-01,
         8.79189819e-02, -2.01084986e-01, -1.87604606e-01,
        -1.43097773e-01,  1.10728025e-01, -4.69957471e-01,
         2.20691875e-01, -7.54928812e-02,  4.71278131e-02,
        -1.49396360e-01,  3.62518936e-01,  3.67583811e-01,
        -5.01367152e-01, -2.75605261e-01,  5.34390192e-03,
        -2.73506846e-02,  2.19212830e-01, -2.25528374e-01,
        -2.48873442e-01, -1.99642237e-02,  4.48724329e-01,
         1.03180707e-01,  6.07246011e-02,  1.84537932e-01],
       [ 2.15007383e-02,  1.92778513e-01,  6.58146665e-02,
         6.57369718e-02,  1.12527966e-01, -5.28230183e-02,
        -2.96390682e-01, -6.09662890e-01, -1.00607477e-01,
         1.20809272e-01, -1.16452761e-01, -2.79005408e-01,
        -2.55959947e-02,  6.82262555e-02,  8.56487751e-02,
         5.59114665e-02,  2.58836538e-01, -1.44347131e-01,
         2.04971507e-01,  2.52949689e-02, -1.86867088e-01,
         4.10537869e-01,  1.46337166e-01,  4.15593386e-01,
        -4.15423065e-02, -4.17937934e-01,  4.84172404e-02,
         9.59282964e-02, -3.92044038e-01,  2.68386099e-02],
       [ 1.13193572e-01, -1.84531305e-02, -1.70522615e-01,
        -4.19414490e-01,  2.37867460e-01,  3.11908573e-01,
        -1.20445877e-01, -3.95439044e-02, -7.59116188e-02,
         4.22574908e-01,  3.18483263e-01, -5.06318174e-02,
        -4.53646123e-01, -9.64238197e-02, -3.04280698e-01,
        -5.32389209e-02, -2.67874096e-02, -2.43966639e-01,
         3.58558536e-01, -1.30438775e-01, -1.73660945e-02,
         2.49231920e-01,  1.37037188e-01,  2.51976520e-01,
         5.26519604e-02,  1.48597956e-01,  4.44895446e-01,
        -7.55633712e-02, -3.16412777e-01, -4.48088087e-02],
       [-6.89288080e-02, -1.79207698e-01, -2.47485191e-01,
        -9.17283222e-02,  5.60669482e-01, -5.37316978e-01,
        -3.08168102e-02,  2.54014768e-02, -2.75123585e-03,
        -3.51066440e-01, -1.43593783e-02,  1.37963831e-01,
         3.11535507e-01,  4.21322465e-01, -1.75530259e-02,
         2.80150831e-01, -4.45626080e-01, -2.10391432e-01,
         1.82755247e-01, -5.76653751e-03,  3.96977901e-01,
         5.34660101e-01,  2.00099722e-01,  1.33316830e-01,
         1.94342464e-01, -2.22956792e-01, -7.82330215e-01,
         1.50713861e-01,  3.66621614e-01, -2.85349339e-01],
       [-8.11217502e-02, -3.61996859e-01, -1.42637834e-01,
        -7.32191056e-02,  6.72707185e-02, -1.07083529e-01,
        -1.86590418e-01,  6.62928298e-02,  2.39248797e-01,
         3.91948193e-01, -5.63057547e-04,  1.76797882e-01,
        -1.54042006e-01, -9.08434764e-02, -2.93017387e-01,
        -3.24893534e-01, -1.51065648e-01,  6.61557242e-02,
         1.79210342e-02,  3.60237867e-01,  4.31924522e-01,
         6.78130537e-02, -1.40590042e-01, -1.56866729e-01,
        -1.33720785e-01,  3.01481515e-01,  1.58616543e-01,
        -1.91911444e-01,  2.03000084e-01,  2.46079251e-01],
       [ 1.07195079e-01, -3.62677932e-01,  8.98634940e-02,
        -3.05456161e-01,  1.70747936e-01, -5.88014126e-01,
        -2.92506367e-01, -4.16880369e-01, -1.59329295e-01,
         1.67291105e-01,  3.18255275e-01, -6.90405443e-02,
        -3.16723436e-01,  4.58216965e-01, -3.69967729e-01,
         4.00231816e-02,  2.16343537e-01, -4.83671367e-01,
         3.70630085e-01, -2.53210217e-01, -1.63206428e-01,
         7.11135924e-01,  2.68462926e-01,  2.19740734e-01,
         2.20282421e-01, -3.61250252e-01,  1.06644773e+00,
        -1.02280922e-01, -9.78013501e-02, -4.82790738e-01],
       [ 1.47685990e-01, -3.82352710e-01,  4.25177783e-01,
         1.73996001e-01,  6.78577553e-03, -6.64048791e-01,
        -1.95650905e-02,  6.93571493e-02, -2.13289410e-01,
        -4.86838162e-01,  4.99365814e-02,  3.04209679e-01,
        -1.38028249e-01,  9.32578370e-02, -2.13913217e-01,
        -1.18589774e-01, -4.93323267e-01, -7.78744459e-01,
        -1.86853752e-01, -2.81142518e-02, -3.53866458e-01,
         5.59548326e-02, -1.22085787e-01, -1.36874437e-01,
         4.69400108e-01,  1.55364737e-01, -2.55544484e-01,
        -3.77385877e-02,  1.06818688e+00, -5.40343881e-01],
       [-2.08396837e-01, -1.94473431e-01,  5.98144755e-02,
        -9.70798079e-03,  1.58381224e-01, -6.81168884e-02,
        -1.34848133e-01, -3.47911060e-01,  1.38822079e-01,
        -2.71347433e-01,  2.39110455e-01,  3.85270625e-01,
        -5.89279793e-02,  2.19505936e-01,  3.04677640e-03,
        -3.57291624e-02,  3.07608664e-01, -4.77869391e-01,
         2.08883941e-01, -2.64590442e-01, -1.02055550e-01,
         3.70692730e-01,  3.48372124e-02,  6.93036675e-01,
         4.54994999e-02,  3.26668844e-02, -1.89386591e-01,
         6.11767955e-02, -3.07526384e-02,  9.37100872e-02],
       [ 1.63973764e-01,  1.36634648e-01,  1.58734731e-02,
        -5.03510870e-02, -3.22853252e-02, -3.21505517e-02,
         3.04859191e-01,  1.42419964e-01,  1.68109953e-01,
         3.20780575e-01,  5.67907887e-03, -1.11824319e-01,
        -2.94752359e-01, -2.83587396e-01,  1.56191394e-01,
        -2.66790420e-01,  4.44031090e-01,  3.43133509e-02,
        -1.73972324e-01,  1.87052369e-01, -1.65206656e-01,
         1.17467612e-01,  1.34232759e-01,  1.34863436e-01,
        -2.05905706e-01, -6.01651706e-03,  4.01228040e-01,
         2.06358448e-01,  1.86482444e-01,  7.83681199e-02],
       [-1.64371371e-01, -2.39311695e-01, -2.88102776e-01,
         8.70290175e-02, -2.88516749e-02, -2.88318902e-01,
        -1.07484907e-01,  7.10801259e-02, -1.14667349e-01,
        -1.17471904e-01, -3.14219017e-03,  3.93097758e-01,
         1.73441634e-01,  1.16878495e-01,  1.19705006e-01,
         2.92565227e-01, -7.80047953e-01, -4.19143140e-02,
         2.62018502e-01,  2.31693804e-01,  2.31100217e-01,
        -1.63218841e-01,  1.05954960e-01, -4.18786377e-01,
         2.85239607e-01, -1.86603948e-01, -3.57444525e-01,
        -1.99916050e-01, -1.85387060e-02, -1.05186224e-01],
       [ 1.29251108e-01, -2.00641915e-01,  2.70932585e-01,
        -1.12622669e-02,  1.32033959e-01, -1.88718483e-01,
         1.04846157e-01,  2.92727977e-01,  1.77198991e-01,
         3.00989896e-01, -3.40475440e-01,  1.13692947e-01,
        -3.71136904e-01,  1.50288463e-01, -2.62016505e-01,
        -1.60869956e-01, -3.39490205e-01,  3.41374159e-01,
        -9.57166106e-02,  5.22041738e-01,  4.51156616e-01,
        -2.18923822e-01, -4.29337770e-02,  2.53531963e-01,
         2.92475689e-02, -7.78307691e-02, -8.20163369e-01,
         1.13887422e-01,  3.02876085e-01, -3.01470965e-01],
       [ 1.75595313e-01, -4.01972383e-01,  2.67818153e-01,
        -3.03678870e-01,  8.80450767e-04,  8.06023896e-01,
         3.41832079e-03,  4.61164303e-02, -1.78904980e-02,
         4.47711051e-01,  3.23020816e-02,  2.19040558e-01,
        -6.96444869e-01,  3.77385080e-01, -4.83994007e-01,
         1.23248838e-01, -1.39827907e-01,  9.64319985e-03,
        -2.29026992e-02,  2.90148079e-01,  4.37149525e-01,
         1.19171172e-01,  9.08982754e-02,  1.56375319e-01,
         1.55004755e-01,  3.08719203e-02,  4.66768116e-01,
        -2.47439325e-01,  3.35045546e-01, -2.93670952e-01],
       [ 6.59793988e-02,  5.64928770e-01, -1.88657776e-01,
        -6.13761008e-01, -1.16674185e-01, -4.32325155e-03,
        -2.00110346e-01, -4.72352989e-02, -8.45623463e-02,
         1.53078184e-01, -6.82759285e-02,  1.06953561e-01,
        -5.74165761e-01,  5.53115830e-02, -2.24152997e-01,
         2.20289841e-01,  1.67669222e-01, -7.18372047e-01,
         1.75368592e-01,  4.45762798e-02, -1.90371796e-02,
         1.90607235e-01, -2.27148443e-01,  6.62869439e-02,
        -1.20190188e-01, -1.64355949e-01,  1.35040367e+00,
        -2.08734900e-01, -4.65207577e-01, -2.83720016e-01],
       [-9.13978890e-02, -2.01792847e-02,  2.44079344e-02,
        -5.57103038e-01,  2.90488992e-02, -1.41216829e-01,
         1.34559810e-01, -6.59979209e-02, -1.10731386e-01,
        -1.56749859e-01, -1.08724326e-01,  3.59057784e-01,
        -4.09652084e-01,  2.31827274e-01, -1.56484917e-01,
         2.29477599e-01,  2.22604543e-01, -2.75796838e-02,
         1.28978699e-01, -2.54566614e-02, -1.74385875e-01,
         2.32809559e-01,  8.97796750e-02,  1.77598849e-01,
        -1.47487298e-01, -3.26805681e-01, -4.51881178e-02,
         2.19463766e-01, -1.93363562e-01,  3.45109329e-02],
       [ 2.41536155e-01, -6.64100200e-02,  2.48577043e-01,
        -6.45176351e-01, -1.36364266e-01, -8.52329507e-02,
        -1.99474186e-01, -6.46539092e-01, -1.58620384e-02,
         1.75928518e-01, -3.49684954e-01,  1.01821691e-01,
        -2.09623706e-02,  7.65824974e-01, -9.31272358e-02,
         7.69173950e-02,  6.92774832e-01, -6.14632189e-01,
         3.32129836e-01, -7.85505533e-01, -3.25826585e-01,
         1.73690513e-01, -1.15502834e-01,  1.00640565e-01,
        -6.97939098e-02,  1.65710047e-01,  7.35033154e-01,
         8.85709748e-02, -4.00297731e-01, -1.01718640e+00],
       [ 5.13560809e-02, -1.72953352e-01,  1.05729727e-02,
         1.71288118e-01,  2.84836054e-01, -2.92140216e-01,
         1.67263150e-02,  9.43589211e-02, -3.81707639e-01,
         3.19106318e-02,  1.07066082e-02,  3.28066021e-01,
         1.55505165e-02,  9.93346944e-02, -1.54119223e-01,
         2.46733278e-01,  4.15429249e-02, -4.43384260e-01,
         1.58369437e-01, -3.45895551e-02,  3.01002473e-01,
         3.31273526e-01,  3.12400252e-01,  5.60187757e-01,
         1.50505453e-01,  1.25848293e-01, -8.37752163e-01,
        -3.90002996e-01,  4.33221847e-01,  1.58261672e-01],
       [ 3.79828550e-02, -3.80992681e-01,  8.93141795e-03,
         9.14022047e-03,  3.11760694e-01, -4.12619114e-01,
        -4.91087185e-03, -3.32813531e-01,  7.73745030e-02,
        -1.94655403e-01,  3.60187352e-01,  9.34356637e-03,
        -2.82732338e-01,  6.63228393e-01, -1.81193307e-01,
         6.24385960e-02,  2.70459682e-01, -1.96311891e-01,
        -4.46644276e-02,  6.61801323e-02,  2.00995997e-01,
         5.80037177e-01,  9.27030146e-02,  3.56098533e-01,
        -4.63439152e-02, -5.04118443e-01,  1.21039234e-01,
        -6.59499690e-02,  1.42533118e-02, -2.23193645e-01],
       [ 3.50291692e-02,  2.38454252e-01, -1.14569806e-01,
         1.56526178e-01, -3.63992453e-02, -7.63084218e-02,
         2.58449227e-01, -4.71348405e-01,  7.79697150e-02,
        -2.88723528e-01, -8.60883966e-02, -3.90922338e-01,
         2.06168383e-01, -4.19972092e-01,  1.94381014e-03,
         1.70802951e-01,  5.58280587e-01, -7.29871867e-03,
         2.51391307e-02, -3.74768406e-01, -3.49267125e-02,
        -3.98096919e-01,  1.20829046e-01, -4.68455672e-01,
        -7.06312731e-02,  1.04159430e-01, -1.04723060e+00,
         2.28517041e-01, -3.13073359e-02,  5.47067165e-01],
       [ 1.23100951e-01, -2.73941103e-02,  9.00930241e-02,
        -8.81452411e-02,  6.78362325e-02,  3.48065495e-01,
        -7.43459538e-02,  3.47456932e-01, -1.85018983e-02,
         8.14075917e-02,  2.77423467e-02,  2.31989428e-01,
        -1.06345348e-01,  1.86358437e-01,  7.18853325e-02,
        -2.43708361e-02, -9.10503790e-02,  2.81582505e-01,
        -1.91509604e-01, -5.01156747e-02,  2.06985235e-01,
        -1.22632235e-02,  1.33735940e-01, -5.34976125e-01,
        -3.00891255e-03,  2.00882271e-01, -1.55082822e-01,
        -2.33261421e-01,  2.28008777e-01,  7.39117712e-02],
       [ 3.16443473e-01,  5.42748161e-02,  2.31462047e-01,
        -8.59786570e-02,  8.00362676e-02,  1.52842835e-01,
        -1.56869832e-02, -8.14595893e-02,  1.62347779e-01,
        -2.49456942e-01, -1.36385232e-01, -9.95664671e-02,
         5.87373301e-02, -4.03972000e-01,  1.10438481e-01,
        -1.04483820e-01,  1.67885303e-01, -7.07923695e-02,
        -2.98308041e-02,  3.20542932e-01,  2.32341409e-01,
         3.11011076e-02, -4.99349385e-02,  2.70943284e-01,
        -1.83751136e-01, -2.43147314e-01, -1.25334561e-01,
         4.28533167e-01,  1.05272546e-01,  2.95785427e-01],
       [-1.14876196e-01, -8.42303485e-02, -3.06085870e-02,
         2.42434233e-01,  3.49935770e-01, -1.27256468e-01,
         1.89008191e-01, -8.39071125e-02,  1.27279297e-01,
         3.55715789e-02, -5.43322265e-02,  6.18012920e-02,
         2.86578715e-01,  2.48165950e-01, -2.06041738e-01,
         1.31956428e-01,  2.40251079e-01, -3.57418060e-02,
         9.61206406e-02, -2.42272109e-01, -2.10154697e-01,
         1.08159110e-01, -1.57482252e-01,  3.52016211e-01,
        -1.31955609e-01, -1.86238572e-01,  1.67437340e-03,
         3.25230733e-02, -3.25982161e-02, -1.36699617e-01],
       [ 5.97974062e-02,  1.07847348e-01, -8.87148798e-01,
        -9.08122510e-02,  2.45835915e-01,  5.18402338e-01,
        -2.48216707e-02,  1.98522493e-01, -2.28332877e-01,
         5.88091947e-02, -1.12388872e-01,  2.60750324e-01,
        -2.70645052e-01,  2.45217919e-01, -1.12861007e-01,
         3.15233678e-01,  1.28267035e-01,  9.88734141e-02,
         1.14894979e-01, -2.76566267e-01, -1.14043742e-01,
        -7.05058038e-01, -3.29690099e-01, -7.36091137e-01,
        -5.37824988e-01,  1.45326247e-02,  5.83966970e-01,
        -4.94961664e-02, -1.28310397e-01, -2.45721772e-01],
       [ 6.97716027e-02,  1.40011609e-01, -2.31725983e-02,
         5.79193160e-02, -5.42311296e-02,  4.41475481e-01,
         1.75716504e-01, -2.01818123e-01, -4.36629683e-01,
         7.20419660e-02, -6.33336753e-02, -5.88145196e-01,
        -1.16558470e-01,  4.26629364e-01, -2.52759695e-01,
        -9.15577263e-02, -2.40798861e-01, -5.75068831e-01,
        -1.58940688e-01, -4.46263142e-02,  6.85867071e-02,
         6.84803307e-01, -6.40241504e-02,  4.67653237e-02,
        -2.99422681e-01, -7.50819206e-01,  1.35010809e-01,
        -1.63773999e-01,  2.58612484e-01,  4.89424944e-01],
       [-8.93011969e-03,  5.23492508e-03, -3.42907906e-01,
        -7.78757632e-02, -2.16503486e-01,  3.08277130e-01,
         2.28797480e-01,  1.55487061e-01, -2.26638973e-01,
         1.14238739e-01,  2.56497592e-01,  7.04928786e-02,
         6.22171499e-02, -5.00583947e-01, -3.11337292e-01,
        -5.23604490e-02, -1.86167926e-01,  6.55986667e-01,
        -4.18305010e-01, -6.88742334e-03,  1.21155180e-01,
        -2.44282424e-01, -6.89434335e-02, -1.80679291e-01,
         1.53637096e-01, -2.84182876e-01,  2.85766304e-01,
         4.08909246e-02, -1.13870397e-01,  4.80657816e-01],
       [-1.09951003e-02,  2.12790996e-01, -7.32491165e-02,
        -2.23374695e-01, -1.60909340e-01, -1.48526765e-02,
         5.09747341e-02, -1.71407118e-01,  4.92049269e-02,
        -1.35388747e-01,  9.39236507e-02,  1.23285055e-01,
         6.06355481e-02,  5.15652239e-01,  6.72823414e-02,
         2.95628369e-01,  2.66828924e-01, -2.19851956e-01,
        -1.66251987e-01,  2.97251284e-01, -3.69137466e-01,
        -1.89189374e-01, -2.97111422e-01,  5.71846306e-01,
         9.98628326e-03,  6.82855397e-02,  3.21517438e-01,
         2.91177183e-01,  1.84154987e-01, -1.75566748e-01]], dtype=float32), array([[ 0.25756335],
       [-0.41072586],
       [ 0.1440342 ],
       [ 0.3118018 ],
       [ 0.11890924],
       [ 0.2515272 ],
       [-0.5481052 ],
       [ 0.22262385],
       [ 0.5690988 ],
       [ 0.23555003],
       [-0.4170925 ],
       [ 0.24744906],
       [ 0.550856  ],
       [-0.2569814 ],
       [ 0.32242686],
       [-0.19115561],
       [-0.20920096],
       [-0.39816406],
       [ 0.34663388],
       [-0.4964678 ],
       [-0.27300268],
       [-0.22995026],
       [-0.05158797],
       [ 0.40527147],
       [-0.19302903],
       [ 0.14492033],
       [-0.30062896],
       [ 0.1038081 ],
       [ 0.15591681],
       [-0.5718859 ]], dtype=float32)]


Weights_h:
[array([[-0.16667257, -0.14098442, -0.3371081 , -0.2938103 ,  0.31038827,
        -0.14485466, -0.39948893, -0.19172153, -0.07195195, -0.13461772,
        -0.06295788, -0.0570878 , -0.37470177,  0.04423603,  0.04003348,
        -0.25131515, -0.01828348, -0.00286655,  0.1424687 , -0.13803023,
        -0.14099388, -0.21372865,  0.06265498,  0.15111043,  0.0637881 ,
        -0.3842567 ,  0.0814514 ,  0.18488625,  0.27293012, -0.33196145,
         0.08002225,  0.00258938],
       [-0.1605048 ,  0.02642943,  0.36064792, -0.17233297,  0.07286545,
        -0.02350812, -0.2233314 ,  0.0720048 , -0.2646986 ,  0.23810387,
         0.13817751,  0.10486013, -0.06275598,  0.26177916, -0.09759831,
        -0.06965747, -0.13328612, -0.18019493,  0.40985096,  0.26168475,
        -0.14401527, -0.06207142,  0.0236031 ,  0.2072142 , -0.16891477,
        -0.20640516, -0.25395337, -0.0079886 ,  0.25706634,  0.28898326,
         0.06174295, -0.2862478 ]], dtype=float32), array([[-0.07952387,  0.05601887, -0.08114199, ...,  0.11496942,
         0.19842498, -0.15626514],
       [ 0.11576866, -0.10636358, -0.08431379, ..., -0.00401743,
        -0.11238188,  0.06086915],
       [ 0.01921429,  0.01835847,  0.02887561, ...,  0.02435638,
        -0.22979145,  0.02017415],
       ...,
       [-0.05570672, -0.10275162, -0.1165124 , ...,  0.08928961,
        -0.09025579,  0.02382337],
       [-0.06906956,  0.09112208, -0.25459448, ...,  0.24982288,
         0.1087403 ,  0.22040321],
       [-0.07558201, -0.06508206, -0.0545749 , ..., -0.08113257,
         0.29554686, -0.03057962]], dtype=float32), array([[ 0.02318055,  0.05314887, -0.04771667, ..., -0.01551351,
         0.00785696, -0.03070415],
       [ 0.13580392,  0.05563123,  0.20735967, ...,  0.16661893,
        -0.12942342, -0.31691745],
       [-0.26552325,  0.00763791, -0.16814883, ...,  0.02892022,
        -0.08468611, -0.1496304 ],
       ...,
       [ 0.04030946,  0.2339986 , -0.03834746, ...,  0.34941235,
         0.0725353 , -0.12587303],
       [-0.12964258, -0.23612624,  0.04492943, ..., -0.20143577,
         0.05992046, -0.15391302],
       [ 0.05161038,  0.11051093,  0.05691123, ...,  0.07618581,
         0.08538087,  0.20506121]], dtype=float32), array([[ 0.0320239 ],
       [ 0.4047919 ],
       [ 0.18547758],
       [-0.21642125],
       [ 0.1385907 ],
       [ 0.23560646],
       [ 0.01003942],
       [ 0.15534581],
       [-0.34430084],
       [-0.09889951],
       [ 0.16910109],
       [-0.17811348],
       [-0.1813838 ],
       [ 0.04572342],
       [ 0.2650643 ],
       [-0.33143377],
       [-0.05705164],
       [-0.02489571],
       [ 0.06294405],
       [-0.36889884],
       [-0.36486503],
       [-0.12024207],
       [-0.07027923],
       [-0.2844021 ],
       [-0.17836797],
       [ 0.06579563],
       [-0.01477459],
       [ 0.05191774],
       [ 0.03581678],
       [ 0.17893302],
       [-0.01134045],
       [-0.0713635 ]], dtype=float32)]


Weights_c:
[array([[-0.21855539,  0.0859611 ,  0.05785949,  0.03408356, -0.26873392,
        -0.32596388, -0.15043454,  0.05110978,  0.2057415 ,  0.1840395 ,
         0.15383962,  0.06026912, -0.09147272,  0.21124363,  0.33002204,
         0.34283423, -0.17870584,  0.01213983, -0.12984097, -0.04075257,
        -0.1937536 ,  0.13131702,  0.16435657, -0.40805823,  0.24011712,
        -0.45250282, -0.33970827,  0.3708952 , -0.09278612, -0.01306805,
         0.22326714,  0.10213867],
       [ 0.11809128, -0.0710515 ,  0.2212445 ,  0.2186606 , -0.13785253,
        -0.2892435 ,  0.30449   , -0.16764356, -0.440934  ,  0.2386299 ,
        -0.07764255, -0.45592225, -0.02357369, -0.32781643,  0.2455445 ,
        -0.3175778 ,  0.16144939, -0.1766583 , -0.08357299,  0.1619325 ,
        -0.26791215, -0.20170535,  0.15934452,  0.0870991 , -0.47853336,
        -0.33869752,  0.04722012,  0.17251417, -0.3157648 ,  0.15438317,
         0.07247742,  0.05817201]], dtype=float32), array([[-0.24019612,  0.0827605 ,  0.01939048, ..., -0.12124392,
         0.18913004,  0.11859066],
       [ 0.05264084, -0.30364797, -0.01070906, ..., -0.12660529,
         0.12226996, -0.25589588],
       [-0.11217719, -0.03921169,  0.0298625 , ...,  0.05651135,
         0.32999423,  0.18216631],
       ...,
       [ 0.26271546,  0.03622009, -0.16955745, ..., -0.1253519 ,
        -0.3051682 , -0.3070884 ],
       [ 0.20045432, -0.04249988,  0.1049904 , ...,  0.08221284,
        -0.28102383,  0.1154396 ],
       [-0.23891878, -0.00117731, -0.24787971, ..., -0.10705197,
         0.08746094, -0.10448793]], dtype=float32), array([[ 0.17363116, -0.12426404, -0.17871502, ..., -0.19528589,
         0.10295632,  0.16921656],
       [ 0.12246761,  0.2982503 , -0.11576544, ..., -0.23412669,
        -0.32905295, -0.05344482],
       [-0.04027465,  0.1161852 ,  0.22676595, ...,  0.17424907,
        -0.11921091, -0.10175683],
       ...,
       [-0.06329535, -0.00970055, -0.19573528, ...,  0.01615715,
         0.08141179, -0.20318405],
       [ 0.01822933, -0.25670868, -0.0882322 , ...,  0.02180021,
         0.22569056, -0.26289797],
       [ 0.07283358, -0.02597342,  0.2827217 , ...,  0.15197377,
         0.18653478, -0.09254892]], dtype=float32), array([[-0.04721677],
       [-0.31539735],
       [-0.21153095],
       [-0.05498205],
       [ 0.01665216],
       [-0.30080187],
       [ 0.19519201],
       [ 0.07675136],
       [-0.23347901],
       [ 0.21684225],
       [-0.13655867],
       [-0.11660205],
       [ 0.04123694],
       [-0.2378426 ],
       [ 0.34194967],
       [-0.08872461],
       [ 0.03502812],
       [ 0.04867774],
       [-0.01781973],
       [ 0.30306286],
       [-0.14985946],
       [ 0.1092234 ],
       [-0.37867755],
       [-0.02122351],
       [-0.05504847],
       [-0.11220027],
       [-0.19101469],
       [ 0.02976434],
       [-0.07292032],
       [ 0.15512271],
       [-0.32558522],
       [ 0.26215994]], dtype=float32)]


Weights_k:
[array([[ 0.13971774,  1.5265735 ,  0.25187826, -1.0952971 ,  0.44360864,
        -0.9855762 , -0.52071494, -1.7101527 , -0.6929532 ,  1.6167355 ,
        -0.465161  , -0.24564761, -1.1322438 ,  0.4005542 ,  1.0614777 ,
        -1.6318444 , -0.02818271, -0.71046174, -0.5018667 ,  0.17329909,
        -1.6723841 , -0.9932194 , -0.21827535,  0.61137575, -0.70847356,
         0.50390804,  1.2949173 ,  0.49426687, -0.94703794, -0.9573495 ],
       [ 0.7111605 , -0.3228168 , -0.85054845, -0.39826053,  1.0023637 ,
         0.39130864,  0.5679838 , -0.19712026, -0.35824254, -0.937112  ,
        -1.0800856 ,  1.0571663 , -0.8204503 , -1.049669  , -0.54274225,
         0.78318834,  2.2766054 ,  0.13075393,  1.1269073 , -0.48897836,
        -1.0754988 , -0.060683  ,  0.11761336,  1.7254086 ,  0.72710234,
         1.9527055 ,  0.5527495 ,  0.5445253 , -1.4410478 ,  0.14664981]],
      dtype=float32), array([[ 1.86381802e-01, -5.65505549e-02, -1.80055454e-01,
        -3.20515037e-01, -4.29233134e-01, -1.62573278e-01,
        -6.02523386e-01,  7.37498626e-02,  8.81465301e-02,
        -1.92416757e-01, -6.45218313e-01,  1.04759179e-01,
        -4.70013678e-01,  3.04897800e-02, -6.25574052e-01,
         6.75038248e-03, -1.52261123e-01,  5.14678180e-01,
         3.40478927e-01,  1.74575672e-01, -1.31543413e-01,
         3.18937540e-01,  2.24297658e-01,  3.62150848e-01,
         8.02630186e-02,  1.22544833e-01,  4.01116103e-01,
         1.89512640e-01, -9.60328817e-01, -7.08344519e-01],
       [-8.91380072e-01,  6.75781863e-03, -5.89326918e-02,
         1.53656793e+00,  1.78073004e-01, -1.53472394e-01,
        -3.90128732e-01,  1.78665459e-01, -2.04996645e-01,
         3.30670267e-01, -2.04306751e-01,  4.66659427e-01,
         1.14670920e+00, -1.17741294e-01,  2.08698660e-02,
        -3.76806080e-01, -3.26390594e-01,  3.00314695e-01,
         5.35614610e-01, -1.01802361e+00, -3.67638818e-03,
        -1.18877077e+00, -6.38508856e-01,  2.17043217e-02,
        -5.79504192e-01,  1.27480268e-01, -4.09921050e-01,
        -1.96116030e-01,  3.56141591e+00, -2.30189770e-01],
       [-4.64299291e-01, -2.33790725e-01,  3.14926714e-01,
         5.20869672e-01,  1.67342350e-01,  5.17439246e-01,
         1.92178145e-01, -2.70123594e-02, -2.47923750e-02,
         7.97440261e-02,  1.77650467e-01, -1.23591729e-01,
         3.55656773e-01,  1.96423501e-01,  4.46882188e-01,
        -4.18270320e-01,  4.43527341e-01,  3.13295931e-01,
        -1.39186993e-01, -4.12678838e-01,  3.37006412e-02,
        -4.28748399e-01, -3.29491526e-01,  9.46149081e-02,
         3.09786826e-01,  9.42737460e-02, -4.31395382e-01,
        -6.23640060e-01,  9.22671676e-01, -5.64071536e-01],
       [-1.76416591e-01, -2.27296442e-01,  2.35076129e-01,
        -4.91677433e-01,  5.04754722e-01,  5.94306052e-01,
         7.32479513e-01, -1.73250496e-01,  4.22359079e-01,
        -2.34215662e-01,  8.56143832e-01, -5.47631562e-01,
        -4.56849523e-02, -5.69014728e-01,  4.52326953e-01,
         5.46903729e-01,  1.88179806e-01, -8.14840734e-01,
        -2.95242488e-01,  3.63527387e-01,  5.62926531e-02,
         2.84539431e-01, -5.31738281e-01, -6.54747069e-01,
         2.83689916e-01, -2.50078470e-01, -3.80699307e-01,
        -9.37966332e-02, -7.09469676e-01,  1.09785271e+00],
       [ 3.08270067e-01,  2.49394730e-01, -9.96902227e-01,
         9.87001657e-01, -1.95072740e-01, -1.14891417e-01,
        -4.43111122e-01, -7.19340086e-01, -1.45133600e-01,
        -2.82243788e-01,  2.61818349e-01,  1.67525262e-01,
         9.85805988e-01, -4.94179502e-02, -3.00542146e-01,
        -7.12203979e-02, -1.54710665e-01, -2.76669383e-01,
         3.35259199e-01, -4.70363945e-02, -2.99941935e-02,
        -1.56025559e-01,  1.99509561e-01, -1.73105657e-01,
         5.67560084e-02,  1.07073998e-02,  1.07025242e+00,
         7.95241773e-01,  8.85643959e-01,  1.55399606e-01],
       [ 7.72768617e-01,  1.98889211e-01, -6.67987943e-01,
         1.99705362e-02,  1.69635564e-01,  3.54629874e-01,
         6.14034414e-01, -1.43150821e-01,  1.03803009e-01,
        -6.40369579e-02,  2.78801656e+00, -2.78250933e-01,
         2.39017949e-01, -1.33562371e-01,  3.20705205e-01,
         3.43236148e-01,  4.50937301e-02, -5.30162382e+00,
        -1.20147467e-01,  2.62881428e-01,  1.12224586e-01,
         2.88805097e-01, -9.81404632e-02, -9.09843564e-01,
         6.20152354e-02, -1.31115466e-01,  4.66537386e-01,
         1.01885867e+00,  3.20614964e-01,  2.58869314e+00],
       [ 8.15893471e-01,  5.61845005e-02, -5.14255285e-01,
        -2.84786075e-01, -1.47717983e-01, -9.87390876e-02,
         3.11755210e-01, -4.42216218e-01,  1.72206149e-01,
         1.16060585e-01,  9.44955468e-01, -1.43275380e-01,
        -1.87677339e-01, -1.81209058e-01,  6.81036040e-02,
         4.81072009e-01,  1.39955804e-01, -9.95804250e-01,
         2.89280057e-01,  9.37082350e-01, -1.59676626e-01,
         5.88422239e-01,  8.71495456e-02, -2.71583706e-01,
         2.32291207e-01, -3.12634766e-01,  7.48902261e-01,
         8.88905764e-01,  3.88225317e-02,  4.99814987e-01],
       [ 3.67049783e-01,  1.78462356e-01,  8.39114308e-01,
        -9.92310882e-01,  5.59803724e-01,  3.17273706e-01,
         1.71978742e-01, -2.04744011e-01,  1.82359561e-01,
        -6.04450628e-02,  5.40588439e-01, -4.26736116e-01,
        -1.74022770e+00, -1.31242096e-01, -2.00194083e-02,
         5.02218306e-01,  2.45757431e-01, -1.18106231e-01,
        -4.00155455e-01,  5.74758649e-01,  1.74906135e-01,
         7.69191265e-01,  1.78188458e-01, -7.01984623e-03,
         3.90425533e-01, -1.30796030e-01,  2.74657547e-01,
        -1.50195286e-01, -2.58756852e+00,  3.76102775e-01],
       [ 2.10975751e-01,  1.33868620e-01,  1.75395489e-01,
        -1.70437573e-03,  6.71179473e-01,  4.48536485e-01,
         1.29977071e+00, -5.84530868e-02,  3.13477099e-01,
         2.73118198e-01,  2.00320315e+00, -6.03840768e-01,
        -8.59044045e-02, -9.88809764e-02,  8.54361132e-02,
        -1.02684714e-01,  1.51884362e-01, -2.47902632e+00,
         4.29926217e-02,  6.28055185e-02,  9.63363796e-03,
         2.93234468e-01, -3.88171434e-01, -1.27939904e+00,
        -6.81733117e-02, -5.51581047e-02, -1.63171828e-01,
         1.43689299e-02, -2.48778731e-01,  1.60768485e+00],
       [-9.10312533e-01, -1.06385134e-01, -3.54979217e-01,
         7.81388283e-01,  4.90161628e-02, -1.06457859e-01,
        -7.40346983e-02,  6.86635301e-02, -1.38422057e-01,
         1.91791713e-01, -8.72630477e-02, -1.08903125e-01,
         1.06243598e+00,  3.95522952e-01,  7.46146142e-02,
        -2.85485506e-01, -1.67826056e-01,  1.95435449e-01,
         5.37020326e-01, -9.34583604e-01,  2.39146516e-01,
        -8.04265440e-01, -5.73392868e-01,  1.48034617e-01,
        -3.46960694e-01,  3.08314502e-01, -6.13005102e-01,
        -4.53286111e-01,  2.24514270e+00, -2.16940865e-01],
       [-6.36543691e-01, -1.50849730e-01,  9.09520447e-01,
        -6.46434784e-01,  9.22649622e-01,  6.69903398e-01,
         7.09216058e-01,  2.07369417e-01, -1.55879691e-01,
         1.14507563e-01,  6.83499455e-01, -6.85118958e-02,
        -8.58883440e-01,  3.15585406e-04,  4.99443561e-01,
        -3.25723886e-01,  3.45175743e-01,  1.51386216e-01,
        -7.24148870e-01, -5.91524839e-01, -1.49867162e-01,
        -3.88876861e-03, -1.22683629e-01, -3.53168875e-01,
         2.67667979e-01,  7.50786215e-02, -8.85183573e-01,
        -8.78554642e-01, -4.20048892e-01, -4.95144486e-01],
       [ 1.27301121e+00,  6.89644888e-02, -7.37205625e-01,
         2.46491149e-01, -6.11331761e-01, -2.91575640e-01,
        -4.43408757e-01, -3.55934501e-01,  2.90318370e-01,
        -3.03401440e-01,  1.53347269e-01, -4.74793045e-03,
        -9.87835750e-02, -2.63409287e-01, -4.30432782e-02,
         3.50660682e-01, -2.03986228e-01, -2.99149871e-01,
         8.74841586e-02,  4.54771608e-01,  3.79348904e-01,
         7.82595932e-01,  3.73843670e-01, -1.97557867e-01,
         1.67479455e-01, -1.76624745e-01,  1.13620615e+00,
         1.28367293e+00, -2.16755010e-02,  5.30550539e-01],
       [-9.04317796e-02, -2.87672430e-01,  5.71708143e-01,
        -7.58959830e-01,  6.33142292e-01,  1.46752611e-01,
         8.05958092e-01, -1.41593199e-02,  2.95889109e-01,
         3.45017791e-01,  7.47042954e-01, -8.83322001e-01,
        -1.20322740e+00, -1.62905365e-01,  2.86861986e-01,
         4.64109987e-01,  1.46340057e-01, -7.70814002e-01,
        -7.72466123e-01,  3.40245843e-01,  1.05522247e-03,
         4.28818345e-01, -1.75109863e-01, -1.38267368e-01,
         4.24845964e-01, -2.96680629e-01, -1.23232998e-01,
        -2.74181992e-01, -6.19368255e-01,  5.06911993e-01],
       [-1.05721593e+00, -1.16675328e-02,  8.87887657e-01,
         9.31090117e-02,  4.54785168e-01,  4.80373859e-01,
        -7.84336999e-02,  4.53738451e-01,  5.54395933e-03,
        -1.77460030e-01, -5.02567887e-01,  1.28077224e-01,
        -2.87118405e-01,  3.57752621e-01, -1.77965939e-01,
        -3.69981229e-01, -6.63846582e-02,  1.17871618e+00,
        -1.07436247e-01, -3.67198795e-01,  1.28810868e-01,
        -7.51058519e-01, -4.67857867e-01, -4.95532819e-04,
        -1.69864774e-01, -6.65817633e-02, -1.75538373e+00,
        -1.30859923e+00, -3.63407373e-01, -1.22149289e+00],
       [-7.74599850e-01, -2.53415525e-01,  7.00018525e-01,
        -4.11771461e-02,  2.18124658e-01, -1.87906861e-01,
         5.75794131e-02,  1.58882529e-01, -4.28740799e-01,
        -1.96923822e-01, -1.04519856e+00, -8.80003124e-02,
         2.32878894e-01,  4.45795327e-01, -2.51869023e-01,
        -8.18010032e-01, -2.21453443e-01,  1.05674124e+00,
        -9.58834216e-02, -1.07578754e+00, -1.02172773e-02,
        -5.66555023e-01, -9.47882831e-02,  5.12360394e-01,
        -2.31314763e-01,  3.42029989e-01,  2.07960993e-01,
        -2.92278260e-01,  2.78757364e-01, -6.32120252e-01],
       [ 5.28738320e-01, -1.79326832e-01,  2.62801021e-01,
        -8.34964752e-01,  1.44624889e-01, -1.81833819e-01,
        -7.98829272e-02, -6.98571578e-02,  2.32553467e-01,
         1.21923387e-02,  2.49035925e-01, -2.37043621e-03,
        -7.54849672e-01,  1.16842404e-01, -8.64229649e-02,
         1.44498557e-01,  1.01660378e-01, -2.43987501e-01,
        -2.44996101e-01,  8.15566123e-01, -1.80643633e-01,
         1.14361525e+00,  4.80016589e-01, -1.38362408e-01,
         2.74206996e-01, -3.35067987e-01,  6.75491571e-01,
         1.80734679e-01, -1.83627212e+00,  1.28101781e-01],
       [ 9.30077195e-01,  4.68076080e-01, -6.88136399e-01,
        -9.58528444e-02, -4.63133156e-01, -5.14244199e-01,
        -2.33751580e-01, -1.53588548e-01,  1.19208030e-01,
        -1.81286910e-03, -7.08111525e-01,  3.95486265e-01,
         3.58215988e-01,  4.65267338e-03,  1.92659527e-01,
         8.46713260e-02, -9.88555029e-02, -9.58586097e-01,
         9.10742730e-02,  4.60816801e-01, -1.57238364e-01,
         4.28039998e-01,  4.27948207e-01,  6.84558004e-02,
        -2.38166004e-01, -3.06293070e-01,  1.09712827e+00,
         1.66399014e+00,  8.97860944e-01,  1.06282651e+00],
       [ 1.65790498e-01, -2.55057037e-01, -3.77617538e-01,
         2.84535974e-01,  4.03649837e-01, -1.41935766e-01,
         4.06210214e-01, -5.18273234e-01,  1.47250116e-01,
         1.85884193e-01,  3.12013578e+00, -1.33935511e-01,
         1.25282452e-01, -4.88713235e-01, -3.30122039e-02,
         2.67654240e-01,  7.60795698e-02, -3.78762817e+00,
        -8.54296759e-02,  7.41058767e-01,  1.40396580e-01,
         2.37670153e-01, -2.83682108e-01, -1.01048696e+00,
         1.26560181e-01,  8.56380071e-03,  6.17099524e-01,
         7.05154538e-01, -7.11088926e-02,  2.20600605e+00],
       [ 8.63551199e-01,  2.03690082e-01, -1.27941465e+00,
         1.78911477e-01, -1.58403024e-01, -6.52764961e-02,
         9.50576589e-02, -1.08370662e+00,  1.17538974e-01,
        -7.73973167e-02,  8.52442920e-01,  2.35219058e-02,
         6.73125207e-01, -1.89341486e-01, -1.25922278e-01,
         4.62083578e-01, -1.11161217e-01, -1.81550229e+00,
         4.27189916e-02,  2.29688063e-02,  6.53197020e-02,
         3.34336221e-01,  6.57351613e-02, -1.09867588e-01,
        -5.35732247e-02,  3.84484418e-02,  8.17667365e-01,
         1.16417146e+00,  5.28761268e-01,  1.30964422e+00],
       [-8.67651105e-01, -2.70638376e-01,  8.62661839e-01,
        -2.37215921e-01,  4.65911664e-02,  6.04744591e-02,
         1.55784845e-01,  8.23529243e-01,  9.93646830e-02,
        -1.51527762e-01, -1.01275182e+00,  5.51185803e-03,
        -5.04634142e-01,  8.78293663e-02, -2.77342908e-02,
        -3.06576073e-01, -2.03969359e-01,  7.78842986e-01,
        -3.42351973e-01, -2.79491872e-01, -3.26753175e-03,
         1.74215749e-01,  8.02099705e-03,  5.53871274e-01,
        -2.75132321e-02, -1.37165844e-01, -9.84077156e-01,
        -1.33837676e+00, -1.57464594e-01, -7.32523561e-01],
       [ 3.96469384e-01, -4.37014410e-03,  1.64832711e+00,
        -9.96474743e-01,  4.60822046e-01,  3.28083545e-01,
         3.78682405e-01,  4.95235056e-01, -7.98528194e-02,
        -9.71153080e-02, -7.89753422e-02, -2.48830155e-01,
        -1.76081479e+00, -2.82608960e-02, -1.57535598e-01,
         2.87652493e-01,  5.05547822e-01, -5.08532450e-02,
        -8.76896381e-01,  8.99885222e-02, -1.21840715e-01,
         2.34579414e-01, -3.18592042e-02,  4.73956876e-02,
         2.35021174e-01,  1.08992316e-01, -1.16759747e-01,
        -7.88760900e-01, -9.81536508e-01,  2.22688988e-01],
       [-2.86763310e-02, -9.52640250e-02, -4.27050531e-01,
         1.98039889e-01,  1.61692888e-01,  3.28449100e-01,
         7.33054101e-01, -3.12901318e-01,  1.03650108e-01,
         1.44716918e-01,  3.08239913e+00, -2.69117266e-01,
         2.27679640e-01, -6.05499983e-01,  4.33074564e-01,
         4.74819034e-01,  1.03371860e-02, -4.00475740e+00,
         8.40316489e-02,  1.45995140e-01,  2.76629850e-02,
         1.86019123e-01, -5.22047698e-01, -1.55597591e+00,
         2.72289962e-01,  1.99293550e-02, -4.37929958e-01,
