Weights_k:
[array([[ 0.1103144 ,  0.8978911 , -0.32923108,  0.7572066 ,  0.7229484 ,
         0.28053275, -0.309171  ,  0.3399585 , -0.53851813,  0.73167944,
        -0.39205086, -0.4575883 ,  0.6496842 , -0.43655196,  0.3506123 ,
        -0.4461909 ,  0.13025722,  0.16698204,  0.46816128, -0.7323215 ,
        -0.2262231 ,  0.4761314 , -0.6300245 ,  0.15406165,  0.4888062 ,
        -0.47985047, -0.30016786, -0.45594344,  0.40590578,  0.57771736,
         0.5312323 , -0.01326563,  0.42022893,  0.2335525 , -0.97472197,
         0.44978973,  0.59504074, -0.5544934 ,  0.3438645 , -0.62679726,
        -0.6931863 , -0.60071474, -0.70076084,  0.1884448 , -0.01496143,
         0.39835873,  0.33920017,  0.51864755, -0.5654806 ,  0.2809162 ,
        -0.17592302, -0.7418865 ,  0.5490951 ,  0.14034171, -0.69215727,
        -0.51854646,  0.4158007 ,  0.4519638 ,  0.15073809,  0.11127034,
         0.05793184, -0.7967281 ,  0.418093  , -0.2384454 , -0.28586972,
         0.4566238 ,  0.55031186,  0.6831041 , -0.4350469 , -0.48699808,
         0.14791021,  0.47604784, -0.32781082, -0.6942039 , -0.19589968,
        -0.44796634,  0.48036456, -0.16029093, -0.06072879,  0.81938964,
         0.3538538 , -0.42204973,  0.3814218 , -0.3872921 ,  0.16134118,
        -0.2588312 , -0.07752638,  0.1000501 , -0.45042706,  0.07374621],
       [-0.4344465 , -0.3875183 ,  0.47006974,  0.7995783 , -0.43637553,
        -0.29201484,  0.42503098,  0.19718473, -0.51034087,  0.7148692 ,
        -0.8799266 , -0.248363  , -0.20141563, -0.3967218 , -0.41609594,
         0.04774881, -0.5784116 ,  1.0417862 ,  0.54158896,  0.18123743,
         0.7963384 , -0.0781424 , -0.16491018, -0.5770821 ,  0.37338284,
         0.01117679,  0.10640406, -0.79025924,  0.7576381 ,  0.0320247 ,
         0.17174019,  0.7158548 , -0.68933266, -0.4584061 , -0.27826488,
         0.35185593,  0.12221207,  0.5095629 ,  0.9827458 , -0.40449348,
        -1.1926023 ,  0.55581725, -0.26953655, -0.8958887 ,  0.7871277 ,
        -0.5240146 ,  0.61450994, -0.27129927,  0.5885221 ,  0.44888985,
         1.1538132 , -0.25347623,  0.01275281, -1.4671688 , -0.10579793,
         0.17096093, -0.00455833, -0.13631429,  1.0689135 ,  0.9464752 ,
        -0.59256923, -0.66258144, -0.390215  ,  0.72934586,  0.3891823 ,
        -0.17101431, -0.20403934,  0.00982528,  0.32064828, -0.29391488,
        -0.71538854, -0.2975155 , -0.9068655 , -0.2263642 ,  0.3250592 ,
        -0.16340604, -0.29647905,  0.5724067 , -0.8959172 ,  0.3873154 ,
        -0.20690802,  0.22139546,  0.12280216, -0.2940535 , -0.18425333,
         0.6155064 , -0.6469521 , -0.5517501 , -0.6860792 ,  0.2339125 ]],
      dtype=float32), array([[ 0.14969565, -0.28972983, -0.00425579, ...,  0.05543211,
         0.49670693, -0.04843644],
       [ 0.19652143, -0.03435775, -0.04874145, ...,  0.09013205,
         0.44545394,  0.03155647],
       [-0.12736589,  0.10005405,  0.0754382 , ..., -0.10257819,
        -1.0807527 ,  0.03157489],
       ...,
       [ 0.04343933, -0.21868353, -0.10552444, ...,  0.11229103,
         0.49058592,  0.14795288],
       [ 0.00538899,  0.09729607,  0.23250604, ...,  0.07463555,
         0.00683661,  0.23649774],
       [ 0.11198656, -0.10263756,  0.03241488, ..., -0.13460073,
        -0.08002406,  0.12463281]], dtype=float32), array([[ 0.15405785, -0.21484907,  0.11306466, ...,  0.00405832,
        -0.0164858 , -0.24444406],
       [ 0.06666701, -0.06177061, -0.00201009, ...,  0.05053047,
        -0.11054585,  0.12698181],
       [ 0.18186209, -0.18532065, -0.03113994, ...,  0.16778877,
        -0.10810634,  0.1125896 ],
       ...,
       [-0.21408731,  0.00570103,  0.02062372, ...,  0.12326839,
        -0.15682767,  0.0278481 ],
       [-0.09828475, -0.00843789, -0.13075498, ..., -0.03398442,
         0.07648348, -0.11398961],
       [-0.01451065,  0.08507022, -0.03666807, ..., -0.041251  ,
         0.00764991,  0.20880786]], dtype=float32), array([[ 1.69075742e-01],
       [ 2.67096013e-02],
       [-5.41059114e-03],
       [ 1.43040642e-01],
       [-2.69847829e-03],
       [ 1.59992069e-01],
       [ 1.60500199e-01],
       [ 9.24262181e-02],
       [-3.95283625e-02],
       [ 1.80838406e-02],
       [ 1.56272799e-01],
       [-1.60149127e-01],
       [-3.23743734e-05],
       [-9.80950892e-04],
       [ 2.17439368e-01],
       [ 1.89410478e-01],
       [-1.38308868e-01],
       [-1.67243896e-04],
       [ 2.21431212e-04],
       [ 1.21738687e-01],
       [-8.27981159e-02],
       [-1.38196573e-01],
       [-2.11639971e-01],
       [-1.55837163e-01],
       [-1.30139694e-01],
       [-1.25822975e-04],
       [ 1.70928493e-01],
       [-5.91147691e-02],
       [ 1.21393390e-01],
       [-1.60018608e-01],
       [-2.55689528e-02],
       [ 7.87491724e-02],
       [-7.99632107e-06],
       [ 2.01452654e-02],
       [ 8.59450027e-02],
       [ 7.55785480e-02],
       [ 3.90797496e-01],
       [-1.52147962e-02],
       [ 6.99611083e-02],
       [-1.64002120e-01],
       [-1.64982811e-01],
       [ 1.01660192e-01],
       [-2.45177865e-01],
       [ 1.10045761e-01],
       [-3.05570960e-01],
       [ 2.17495835e-04],
       [-6.53713718e-02],
       [-3.40629965e-02],
       [-1.07635580e-01],
       [ 7.38454834e-02],
       [-2.29349724e-04],
       [ 6.34344742e-02],
       [-1.73066765e-01],
       [-2.80233413e-01],
       [ 2.00668246e-01],
       [-1.43991917e-01],
       [-9.65039362e-05],
       [-4.97599576e-05],
       [-2.09213659e-01],
       [-8.85898173e-02],
       [-1.60176054e-01],
       [-7.56406337e-02],
       [-1.44100383e-01],
       [-1.87064204e-02],
       [ 1.56035814e-02],
       [ 5.40015660e-02],
       [ 2.38146484e-01],
       [-2.83466914e-04],
       [-2.96815038e-01],
       [ 5.62457208e-05],
       [-3.99408862e-04],
       [ 1.53230861e-01],
       [ 2.12483630e-01],
       [-1.93286657e-01],
       [-1.13531411e-01],
       [-1.74377948e-01],
       [-1.60525724e-01],
       [ 1.98652148e-01],
       [-2.60415405e-01],
       [ 6.18319325e-02],
       [ 2.80869566e-03],
       [ 3.86823267e-02],
       [-1.57133527e-02],
       [ 4.99063171e-02],
       [-3.65943968e-04],
       [ 1.08057871e-01],
       [-1.88913094e-04],
       [ 2.54134148e-01],
       [-1.17828995e-01],
       [ 2.87079722e-01]], dtype=float32)]


Weights_h:
[array([[ 0.14568856,  0.0427883 , -0.24494357, -0.34768084,  0.12403906,
        -0.08453072,  0.13545074, -0.04501846, -0.10312223, -0.13585359,
         0.30502224,  0.33671856,  0.10827706,  0.11763223, -0.12222837,
         0.39696944, -0.03577499,  0.08426218, -0.07125954,  0.00613714,
        -0.23424527, -0.04163045, -0.08416878,  0.30254552, -0.34226817,
        -0.23766267, -0.04486886, -0.20879053,  0.0101837 ,  0.07206345,
         0.16564794,  0.17375416],
       [ 0.00346856,  0.39501163, -0.04247865,  0.05718492, -0.46294108,
         0.15985963,  0.08958366,  0.06815035, -0.21758986, -0.245652  ,
         0.04290448, -0.28693548,  0.10382438, -0.24541831, -0.33473513,
        -0.22370315, -0.28881592, -0.32878292,  0.19366924, -0.0243009 ,
        -0.02153269,  0.00258307, -0.43086967, -0.09275589, -0.32401958,
        -0.11621533,  0.22480007, -0.08678791,  0.20522231,  0.08635533,
         0.13053833, -0.12524052]], dtype=float32), array([[ 0.14613502,  0.13872388,  0.1402741 , ...,  0.251899  ,
         0.19029291,  0.08356266],
       [ 0.2909089 ,  0.012693  ,  0.14056441, ..., -0.22259322,
         0.17874275, -0.3493558 ],
       [ 0.00450856,  0.2582141 ,  0.09719661, ...,  0.06585601,
         0.27156398, -0.07380354],
       ...,
       [-0.13177583,  0.13860631,  0.320436  , ...,  0.22266309,
         0.11515298,  0.09497961],
       [-0.32934234, -0.06933061,  0.16701901, ...,  0.23945828,
        -0.04170385, -0.21546309],
       [ 0.01153392, -0.1474798 , -0.08698559, ..., -0.18199755,
        -0.10279488,  0.05231684]], dtype=float32), array([[ 7.05821216e-02, -5.46152852e-02, -1.89709201e-01, ...,
        -2.75937468e-01, -2.03610852e-01, -1.38038620e-01],
       [-6.36903048e-02,  8.44612252e-03, -1.03535384e-01, ...,
        -3.22719038e-01, -1.41772922e-04, -7.48106092e-03],
       [ 1.97661653e-01,  1.44059375e-01, -8.65310654e-02, ...,
        -1.39062628e-02,  7.18802810e-02, -7.87372515e-02],
       ...,
       [ 2.23957852e-01,  7.22172782e-02, -1.61669962e-02, ...,
        -6.46444559e-02,  1.65832117e-02, -4.95307110e-02],
       [ 2.76551485e-01,  5.90382963e-02,  1.41858488e-01, ...,
        -1.93446189e-01,  2.73978382e-01, -1.90457731e-01],
       [-7.44643584e-02, -2.15930268e-01,  1.40060276e-01, ...,
         1.87460482e-01,  1.40545100e-01,  1.02962419e-01]], dtype=float32), array([[-0.09848686],
       [-0.18843706],
       [ 0.20386577],
       [-0.10627208],
       [ 0.10532624],
       [-0.19488737],
       [ 0.05369253],
       [ 0.35077465],
       [-0.28267416],
       [ 0.18323849],
       [ 0.35219964],
       [ 0.1987451 ],
       [-0.25650328],
       [-0.3942111 ],
       [-0.04799478],
       [ 0.13988715],
       [ 0.00692682],
       [-0.4145102 ],
       [-0.41573158],
       [ 0.42574856],
       [-0.19519965],
       [-0.38440022],
       [ 0.10127336],
       [-0.12720051],
       [ 0.01412332],
       [ 0.1001907 ],
       [-0.4699128 ],
       [-0.09748092],
       [ 0.2031211 ],
       [-0.27913523],
       [ 0.10445727],
       [ 0.34600475]], dtype=float32)]


Weights_c:
[array([[-0.436551  , -0.19577149, -0.14908943, -0.23251636,  0.21020836,
         0.01899168, -0.18862444,  0.07153811, -0.28318742,  0.08614405,
         0.16644958, -0.05243946,  0.1033326 ,  0.35956657,  0.12489102,
         0.11240142, -0.44272956,  0.18902408,  0.2457999 , -0.37412995,
         0.18249556, -0.22759682, -0.09805822,  0.23432578, -0.44437405,
        -0.07873162,  0.33763906, -0.18306339,  0.34050578,  0.34015605,
         0.10902152, -0.29574654],
       [-0.36611027,  0.2716988 , -0.297845  , -0.14435045,  0.34210795,
         0.10336805, -0.30717757, -0.18570022, -0.2744148 ,  0.07295002,
         0.08316567, -0.1886442 , -0.04990215, -0.3336338 , -0.2549983 ,
        -0.0923717 , -0.17328607,  0.4468056 , -0.2635115 , -0.21491107,
         0.10679378, -0.13244447,  0.27923778,  0.1546878 ,  0.01163447,
        -0.04222929, -0.0029199 ,  0.11461112, -0.0541359 , -0.2994231 ,
        -0.00919068, -0.14721985]], dtype=float32), array([[ 0.11665306,  0.2537795 , -0.11705668, ...,  0.00697507,
         0.07209751, -0.03910639],
       [ 0.13674262,  0.20050101, -0.04953763, ...,  0.02222706,
         0.02070728,  0.19853294],
       [ 0.3518492 ,  0.20398915,  0.08312125, ...,  0.03551027,
         0.3447903 ,  0.08161815],
       ...,
       [ 0.02204326, -0.26413402,  0.01505016, ..., -0.13244654,
        -0.00846231, -0.22384918],
       [ 0.21933721, -0.03704536, -0.1586929 , ...,  0.18279529,
        -0.08279106,  0.21981505],
       [-0.22208689,  0.041264  ,  0.201325  , ..., -0.0835606 ,
        -0.1985827 , -0.04760926]], dtype=float32), array([[-0.03064156, -0.26161763, -0.15255532, ...,  0.05586261,
         0.01343352,  0.04425788],
       [ 0.0712921 , -0.16796869, -0.09860854, ..., -0.03465192,
        -0.03304254, -0.06419692],
       [ 0.13349235,  0.1533324 ,  0.07535215, ..., -0.13567074,
        -0.10419467, -0.12308176],
       ...,
       [ 0.27622157, -0.24120644,  0.02672122, ...,  0.0235175 ,
        -0.13245907,  0.09059867],
       [-0.07116906, -0.16041829, -0.0282239 , ...,  0.19553743,
        -0.04006693,  0.11770446],
       [ 0.01839904, -0.19303663,  0.24373351, ...,  0.04492711,
        -0.00136926, -0.10089289]], dtype=float32), array([[ 0.01475844],
       [-0.06276604],
       [-0.44945487],
       [-0.01337795],
       [ 0.02571248],
       [ 0.09547279],
       [ 0.14328891],
       [-0.20065366],
       [-0.06742534],
       [ 0.00947275],
       [-0.0857871 ],
       [-0.07455337],
       [-0.09628659],
       [ 0.0506513 ],
       [ 0.02637007],
       [ 0.10461706],
       [-0.09704024],
       [-0.26791316],
       [-0.01533256],
       [-0.29926658],
       [ 0.07074825],
       [-0.00978785],
       [ 0.20001294],
       [ 0.08812054],
       [ 0.2354673 ],
       [-0.02420573],
       [ 0.10969929],
       [ 0.15924199],
       [-0.18883389],
       [ 0.0879006 ],
       [ 0.30827   ],
       [ 0.13382424]], dtype=float32)]


Weights_k:
[array([[-0.12525928,  0.2897212 , -0.39422005, -0.48321202, -0.34457663,
        -0.07526685, -0.5597179 , -0.09916034, -0.49835193,  0.59182364,
        -0.6136667 ,  0.09471658, -0.50699884, -0.516362  , -0.51817185,
         0.5128541 ,  0.11266281, -0.13516857,  0.44144   , -0.5861546 ,
         0.35648292,  0.14763132,  0.5613356 ,  0.1652741 ,  0.4083996 ,
        -0.8124461 ,  0.10916163, -0.54792035, -0.6782889 ,  0.3473969 ,
        -0.8651858 ,  0.66786844, -0.47433087,  0.24953553, -0.79358727,
         0.26606438, -0.45739013, -0.8998062 ,  0.42030203, -0.5289501 ,
         0.7188425 ,  0.22484474,  0.5426188 ,  0.78095216, -0.18035024,
         0.5280546 , -0.6856847 ,  0.29044795,  0.60603255,  0.7411403 ,
         0.71580404,  0.54364854,  0.22624654,  0.03150517,  0.04638864,
         0.50627583,  0.9142039 , -0.17241366,  0.9096843 ,  0.55312604,
         0.8700474 ,  0.78976446, -0.6078407 ,  0.6347167 , -0.9738278 ,
        -0.39214432, -1.0419791 , -0.6763116 ,  0.61710906,  0.78818643,
        -0.3206683 ,  0.61151564,  0.64771867, -0.26111364, -0.65342116,
        -0.22942978, -0.9066148 ,  0.4966463 ,  0.7857624 , -0.4917489 ,
        -0.5971311 ,  0.61469305,  1.2957233 , -0.5088911 , -1.1221029 ,
         0.36644763,  0.64127225,  0.61143744, -0.22471634,  0.20391744],
       [-0.4907841 , -0.4303726 ,  0.20848587,  0.5340767 , -0.50128245,
         0.51142704, -0.45591286, -1.090148  , -0.74667627,  0.02473518,
        -0.0588176 , -0.89279574, -0.5164518 , -0.4946732 ,  0.6768983 ,
        -0.6428287 , -0.90955627, -0.7456048 ,  0.14930335,  0.6659491 ,
         0.7802772 , -0.83263487,  0.1630288 ,  0.9645387 , -0.3290273 ,
         0.63065743, -0.6873707 , -0.6563984 , -0.23653099, -0.43625134,
        -0.10352633, -0.13460024,  0.75302094,  0.47188914, -0.5028397 ,
         0.8730615 ,  0.58142257,  0.4261177 ,  0.21923392, -0.49522465,
         0.20262983,  0.4705466 ,  0.6122704 ,  0.46912828, -0.5483316 ,
         1.0047153 , -0.1333193 ,  0.88626903, -0.5774591 ,  0.28390673,
         1.1857362 ,  1.2611656 , -0.4521549 , -0.8374065 , -0.58814424,
         0.46363688, -0.03699928, -0.43411568,  0.05839271,  0.18884581,
        -0.46729663,  0.03276163,  0.5546217 , -0.3402683 ,  0.19540042,
        -0.03453939, -0.27380207, -1.1543105 , -0.20634376, -0.24318534,
        -0.69165134,  0.20615637,  0.18573402,  0.6636995 , -0.18610983,
         0.417938  ,  0.05323455, -0.02336464,  0.70350814,  0.5014752 ,
         0.5485816 ,  0.52957064, -0.0823935 ,  0.261099  ,  0.08638491,
         0.25878572,  0.15783967,  0.517698  ,  0.2657338 , -0.50735545]],
      dtype=float32), array([[ 0.04918573, -0.11444155,  0.5535009 , ..., -0.02688048,
        -0.18488637,  0.02365294],
       [ 0.6249565 , -0.16882025,  0.4314597 , ...,  0.35663304,
         0.04272335, -0.02058021],
       [-1.4867724 , -0.01587479, -0.32962644, ..., -0.60058457,
        -0.05298874, -0.13568461],
       ...,
       [ 0.07010239,  0.16057055, -0.4126761 , ...,  0.1626316 ,
         0.18227805,  0.23218997],
       [ 0.09089985,  0.00393679, -0.75414735, ..., -0.10121912,
         0.0466868 , -0.17632192],
       [ 0.25845703,  0.17307952,  0.04306021, ...,  0.36088625,
         0.15426114,  0.0431895 ]], dtype=float32), array([[-0.08549265,  0.30705914, -0.01462592, ...,  0.06103328,
         0.15592816,  0.0341877 ],
       [-0.05649043, -0.0458196 ,  0.03807485, ...,  0.04983027,
        -0.00668535,  0.09116867],
       [ 0.13040368,  0.03988697,  0.03000143, ...,  0.01628738,
         0.02767686, -0.03262513],
       ...,
       [ 0.01465397,  0.03642863,  0.07273982, ...,  0.13695031,
        -0.06097851,  0.01208995],
       [ 0.00588747,  0.04346335, -0.08515515, ..., -0.13075677,
        -0.05712724, -0.12092747],
       [-0.14176476,  0.0643251 ,  0.09084206, ...,  0.02696601,
         0.12409815,  0.00745899]], dtype=float32), array([[ 2.05662802e-01],
       [-2.49210864e-01],
       [-3.63365019e-04],
       [ 2.91296333e-01],
       [-3.81962806e-02],
       [ 4.62745922e-03],
       [-2.67667592e-01],
       [ 4.69187014e-02],
       [ 2.94205219e-01],
       [ 7.24648461e-02],
       [-1.61353290e-01],
       [ 6.04847148e-02],
       [ 2.79213071e-01],
       [-3.48949579e-05],
       [ 1.76447019e-01],
       [-1.74043351e-04],
       [-1.65069345e-04],
       [-8.57173204e-02],
       [ 4.70146202e-02],
       [-3.73905361e-01],
       [-1.00335598e-01],
       [-1.04589209e-01],
       [-3.51944380e-02],
       [ 1.72092274e-01],
       [-1.09624103e-01],
       [ 5.15599065e-02],
       [ 5.77371567e-02],
       [-5.75224913e-05],
       [ 3.73269841e-02],
       [-1.19845748e-01],
       [ 2.65044093e-01],
       [-1.92472026e-01],
       [-7.53602386e-02],
       [ 1.70862898e-01],
       [ 7.03519881e-02],
       [ 5.05371690e-02],
       [ 2.97185528e-04],
       [ 1.04547806e-01],
       [-5.30999526e-02],
       [ 4.25657891e-02],
       [ 1.84449539e-01],
       [ 1.24672368e-01],
       [-3.14196863e-04],
       [ 1.30642161e-01],
       [-1.55998743e-04],
       [ 2.26535946e-02],
       [-1.21567607e-01],
       [-1.64312616e-01],
       [ 5.98375015e-02],
       [ 3.45286884e-04],
       [-1.56495973e-01],
       [ 2.54576355e-01],
       [-3.59043814e-02],
       [ 1.70881197e-01],
       [-3.37705277e-02],
       [-1.87828213e-01],
       [-1.13865159e-01],
       [-1.21678725e-01],
       [ 2.51001805e-01],
       [-1.41069554e-02],
       [ 1.81786672e-05],
       [-1.26780465e-01],
       [-7.94640835e-03],
       [ 2.23703329e-02],
       [ 6.36290386e-02],
       [ 2.80411690e-02],
       [ 9.28918496e-02],
       [-2.50637357e-04],
       [-9.61608142e-02],
       [ 1.07738912e-01],
       [ 5.83416037e-02],
       [-2.06260815e-01],
       [-9.17068124e-02],
       [ 2.57105567e-04],
       [-5.30091487e-02],
       [ 8.89371242e-03],
       [-5.98722622e-02],
       [ 2.21465275e-01],
       [ 1.52425855e-01],
       [-3.45983766e-02],
       [ 1.33100480e-01],
       [ 6.46736398e-02],
       [ 2.02563226e-01],
       [ 5.48856224e-05],
       [ 2.90026963e-01],
       [-3.38858247e-01],
       [ 1.59235671e-01],
       [ 2.32230559e-01],
       [ 7.63372481e-02],
       [ 9.09725641e-05]], dtype=float32)]


Weights_h:
[array([[-0.16667257, -0.14098442, -0.3371081 , -0.2938103 ,  0.31038827,
        -0.14485466, -0.39948893, -0.19172153, -0.07195195, -0.13461772,
        -0.06295788, -0.0570878 , -0.37470177,  0.04423603,  0.04003348,
        -0.25131515, -0.01828348, -0.00286655,  0.1424687 , -0.13803023,
        -0.14099388, -0.21372865,  0.06265498,  0.15111043,  0.0637881 ,
        -0.3842567 ,  0.0814514 ,  0.18488625,  0.27293012, -0.33196145,
         0.08002225,  0.00258938],
       [-0.1605048 ,  0.02642943,  0.36064792, -0.17233297,  0.07286545,
        -0.02350812, -0.2233314 ,  0.0720048 , -0.2646986 ,  0.23810387,
         0.13817751,  0.10486013, -0.06275598,  0.26177916, -0.09759831,
        -0.06965747, -0.13328612, -0.18019493,  0.40985096,  0.26168475,
        -0.14401527, -0.06207142,  0.0236031 ,  0.2072142 , -0.16891477,
        -0.20640516, -0.25395337, -0.0079886 ,  0.25706634,  0.28898326,
         0.06174295, -0.2862478 ]], dtype=float32), array([[-0.07952387,  0.05601887, -0.08114199, ...,  0.11496942,
         0.19842498, -0.15626514],
       [ 0.11576866, -0.10636358, -0.08431379, ..., -0.00401743,
        -0.11238188,  0.06086915],
       [ 0.01921429,  0.01835847,  0.02887561, ...,  0.02435638,
        -0.22979145,  0.02017415],
       ...,
       [-0.05570672, -0.10275162, -0.1165124 , ...,  0.08928961,
        -0.09025579,  0.02382337],
       [-0.06906956,  0.09112208, -0.25459448, ...,  0.24982288,
         0.1087403 ,  0.22040321],
       [-0.07558201, -0.06508206, -0.0545749 , ..., -0.08113257,
         0.29554686, -0.03057962]], dtype=float32), array([[ 0.02318055,  0.05314887, -0.04771667, ..., -0.01551351,
         0.00785696, -0.03070415],
       [ 0.13580392,  0.05563123,  0.20735967, ...,  0.16661893,
        -0.12942342, -0.31691745],
       [-0.26552325,  0.00763791, -0.16814883, ...,  0.02892022,
        -0.08468611, -0.1496304 ],
       ...,
       [ 0.04030946,  0.2339986 , -0.03834746, ...,  0.34941235,
         0.0725353 , -0.12587303],
       [-0.12964258, -0.23612624,  0.04492943, ..., -0.20143577,
         0.05992046, -0.15391302],
       [ 0.05161038,  0.11051093,  0.05691123, ...,  0.07618581,
         0.08538087,  0.20506121]], dtype=float32), array([[ 0.0320239 ],
       [ 0.4047919 ],
       [ 0.18547758],
       [-0.21642125],
       [ 0.1385907 ],
       [ 0.23560646],
       [ 0.01003942],
       [ 0.15534581],
       [-0.34430084],
       [-0.09889951],
       [ 0.16910109],
       [-0.17811348],
       [-0.1813838 ],
       [ 0.04572342],
       [ 0.2650643 ],
       [-0.33143377],
       [-0.05705164],
       [-0.02489571],
       [ 0.06294405],
       [-0.36889884],
       [-0.36486503],
       [-0.12024207],
       [-0.07027923],
       [-0.2844021 ],
       [-0.17836797],
       [ 0.06579563],
       [-0.01477459],
       [ 0.05191774],
       [ 0.03581678],
       [ 0.17893302],
       [-0.01134045],
       [-0.0713635 ]], dtype=float32)]


Weights_c:
[array([[-0.21855539,  0.0859611 ,  0.05785949,  0.03408356, -0.26873392,
        -0.32596388, -0.15043454,  0.05110978,  0.2057415 ,  0.1840395 ,
         0.15383962,  0.06026912, -0.09147272,  0.21124363,  0.33002204,
         0.34283423, -0.17870584,  0.01213983, -0.12984097, -0.04075257,
        -0.1937536 ,  0.13131702,  0.16435657, -0.40805823,  0.24011712,
        -0.45250282, -0.33970827,  0.3708952 , -0.09278612, -0.01306805,
         0.22326714,  0.10213867],
       [ 0.11809128, -0.0710515 ,  0.2212445 ,  0.2186606 , -0.13785253,
        -0.2892435 ,  0.30449   , -0.16764356, -0.440934  ,  0.2386299 ,
        -0.07764255, -0.45592225, -0.02357369, -0.32781643,  0.2455445 ,
        -0.3175778 ,  0.16144939, -0.1766583 , -0.08357299,  0.1619325 ,
        -0.26791215, -0.20170535,  0.15934452,  0.0870991 , -0.47853336,
        -0.33869752,  0.04722012,  0.17251417, -0.3157648 ,  0.15438317,
         0.07247742,  0.05817201]], dtype=float32), array([[-0.24019612,  0.0827605 ,  0.01939048, ..., -0.12124392,
         0.18913004,  0.11859066],
       [ 0.05264084, -0.30364797, -0.01070906, ..., -0.12660529,
         0.12226996, -0.25589588],
       [-0.11217719, -0.03921169,  0.0298625 , ...,  0.05651135,
         0.32999423,  0.18216631],
       ...,
       [ 0.26271546,  0.03622009, -0.16955745, ..., -0.1253519 ,
        -0.3051682 , -0.3070884 ],
       [ 0.20045432, -0.04249988,  0.1049904 , ...,  0.08221284,
        -0.28102383,  0.1154396 ],
       [-0.23891878, -0.00117731, -0.24787971, ..., -0.10705197,
         0.08746094, -0.10448793]], dtype=float32), array([[ 0.17363116, -0.12426404, -0.17871502, ..., -0.19528589,
         0.10295632,  0.16921656],
       [ 0.12246761,  0.2982503 , -0.11576544, ..., -0.23412669,
        -0.32905295, -0.05344482],
       [-0.04027465,  0.1161852 ,  0.22676595, ...,  0.17424907,
        -0.11921091, -0.10175683],
       ...,
       [-0.06329535, -0.00970055, -0.19573528, ...,  0.01615715,
         0.08141179, -0.20318405],
       [ 0.01822933, -0.25670868, -0.0882322 , ...,  0.02180021,
         0.22569056, -0.26289797],
       [ 0.07283358, -0.02597342,  0.2827217 , ...,  0.15197377,
         0.18653478, -0.09254892]], dtype=float32), array([[-0.04721677],
       [-0.31539735],
       [-0.21153095],
       [-0.05498205],
       [ 0.01665216],
       [-0.30080187],
       [ 0.19519201],
       [ 0.07675136],
       [-0.23347901],
       [ 0.21684225],
       [-0.13655867],
       [-0.11660205],
       [ 0.04123694],
       [-0.2378426 ],
       [ 0.34194967],
       [-0.08872461],
       [ 0.03502812],
       [ 0.04867774],
       [-0.01781973],
       [ 0.30306286],
       [-0.14985946],
       [ 0.1092234 ],
       [-0.37867755],
       [-0.02122351],
       [-0.05504847],
       [-0.11220027],
       [-0.19101469],
       [ 0.02976434],
       [-0.07292032],
       [ 0.15512271],
       [-0.32558522],
       [ 0.26215994]], dtype=float32)]


Weights_k:
[array([[ 1.98342815e-01,  5.59211016e-01, -2.89785475e-01,
        -4.37005252e-01, -1.30929381e-01, -2.52719492e-01,
        -2.31782392e-01, -7.60269463e-01, -5.60605466e-01,
         7.18797445e-01, -4.18707967e-01,  2.43439361e-01,
        -7.61100650e-01,  4.10219699e-01,  7.09175229e-01,
        -3.51564437e-01,  5.77215672e-01, -4.54667717e-01,
         6.34439886e-02, -1.42561235e-02, -3.11757177e-01,
        -3.93786788e-01, -6.10283587e-06,  1.10814643e+00,
        -3.90712529e-01,  5.11850595e-01,  5.01870811e-01,
         1.53570458e-01, -7.74549663e-01, -8.23894382e-01,
         3.49107720e-02, -4.07545835e-01, -3.13787669e-01,
        -6.85995281e-01,  8.69414732e-02,  5.58444440e-01,
         1.26857376e+00,  1.23983555e-01, -6.00024939e-01,
        -8.98228884e-01, -4.65838671e-01,  6.02956891e-01,
        -6.58483267e-01, -7.08750367e-01, -4.02198792e-01,
         4.41059887e-01,  1.37116623e+00,  1.35089681e-01,
         9.22281742e-01, -2.03068644e-01, -6.73818648e-01,
        -4.94934559e-01,  4.23563361e-01,  8.47609341e-01,
         1.85533851e-01,  7.92207479e-01, -1.10398881e-01,
         4.09547746e-01, -8.16386878e-01,  6.10226989e-01,
        -4.93291974e-01, -3.01856361e-02,  7.12022841e-01,
        -5.95860720e-01, -2.40474686e-01, -5.13738215e-01,
         7.79743254e-01, -5.15110373e-01,  4.52427089e-01,
         7.03273863e-02, -4.43212956e-01, -8.83180976e-01,
        -5.89774132e-01, -5.76368332e-01, -6.04576349e-01,
         5.15724599e-01, -6.10879123e-01,  2.20769018e-01,
         5.25275409e-01, -5.13076663e-01, -2.98472255e-01,
         2.67215580e-01, -1.11992037e+00,  3.91985834e-01,
         7.39241064e-01, -3.20025861e-01,  4.49387968e-01,
        -7.12441444e-01, -6.99335873e-01, -5.25623143e-01],
       [ 2.93663442e-01,  3.31747502e-01,  4.58830446e-01,
         3.19997460e-01, -1.08792388e+00,  4.68507260e-01,
        -1.12384784e+00, -4.49077278e-01,  6.67471886e-01,
         9.10442352e-01,  3.53110045e-01, -5.88124275e-01,
        -3.18695992e-01,  6.83910489e-01,  4.83161956e-01,
        -3.53274405e-01,  5.25384724e-01,  1.73199847e-02,
        -5.83404481e-01, -7.47991920e-01,  7.17670202e-01,
         3.07004303e-01,  7.86824226e-01,  6.21324778e-01,
        -6.48764849e-01,  4.48744267e-01, -7.38091171e-02,
         9.05156076e-01,  1.59871310e-01, -4.34033155e-01,
        -6.23482108e-01,  6.21369064e-01, -8.10593605e-01,
        -2.72399902e-01, -8.32511723e-01,  6.36877775e-01,
         3.13890027e-03, -8.24808240e-01,  8.74898732e-02,
        -1.08545393e-01, -4.06359911e-01, -4.47583795e-01,
         4.61085826e-01,  6.16810501e-01,  3.75855327e-01,
         6.93429768e-01, -5.31849742e-01, -5.70709527e-01,
        -1.53339416e-01, -3.35048258e-01,  2.16225058e-01,
         7.68621936e-02,  9.75111902e-01,  1.65395707e-01,
         1.24233806e+00,  4.54159796e-01, -1.09332359e+00,
        -3.63809079e-01, -4.09175247e-01, -3.06081712e-01,
        -5.64927876e-01,  8.42045069e-01, -4.90853526e-02,
        -1.81311131e-01, -5.98298788e-01,  3.61966401e-01,
         9.10320282e-02, -4.89510983e-01,  1.02608718e-01,
        -5.27509391e-01,  2.85368621e-01, -2.26725973e-02,
        -4.62321311e-01,  4.11883205e-01, -3.58563006e-01,
        -4.85575259e-01,  2.07825169e-01, -6.76283062e-01,
         2.29685664e-01,  3.09942156e-01, -1.15293014e+00,
        -3.51692647e-01, -4.91759703e-02, -5.23111582e-01,
         7.36920297e-01,  5.23955345e-01,  3.57301295e-01,
        -7.95492232e-01, -3.10388535e-01,  5.53294539e-01]], dtype=float32), array([[-2.6804095e-02, -1.1400561e-02,  5.0840601e-02, ...,
         2.0902050e-01,  1.2682538e-01, -2.0029469e-01],
       [ 3.4870051e-02,  2.2029255e-02,  3.2290265e-01, ...,
        -8.2586640e-01,  1.1651602e+00,  1.5395661e-01],
       [ 3.3844361e-01, -6.0677767e-04,  3.7115097e-02, ...,
         1.0085579e-01,  1.7016552e-01,  6.1899410e-03],
       ...,
       [-3.7141372e-02, -2.0085026e-01, -2.7913243e-01, ...,
         4.8801500e-01, -2.1865377e+00, -1.4506114e-01],
       [ 1.7788110e-02, -1.8111509e-01, -3.7180024e-01, ...,
         9.2080051e-01, -1.1832043e+00,  6.8329796e-02],
       [ 2.2938755e-01, -1.7780690e-02, -4.7443333e-01, ...,
         3.1444639e-01, -6.0335469e-02, -9.8671690e-02]], dtype=float32), array([[ 4.94208485e-02,  1.29181251e-01, -2.49664605e-01, ...,
        -4.95203538e-03,  5.25503159e-02, -1.04115121e-01],
       [ 3.91987637e-02, -1.08041346e-01,  4.35470864e-02, ...,
         1.98726244e-02, -1.12415113e-01, -2.00530231e-01],
       [ 1.16322987e-01,  2.08341759e-02,  1.95974916e-01, ...,
         9.70830545e-02, -2.05993376e-04,  8.92176926e-02],
       ...,
       [ 2.14876905e-02,  7.36848190e-02, -1.54793605e-01, ...,
        -6.28175661e-02,  6.36844933e-02, -7.12557435e-02],
       [-5.27893752e-02,  6.08611628e-02,  1.72550023e-01, ...,
        -1.78670809e-02, -1.69826448e-01, -5.20538306e-03],
       [ 5.54905273e-02,  1.53140232e-01, -3.81513238e-02, ...,
        -3.98542061e-02, -1.86865367e-02,  8.98323655e-02]], dtype=float32), array([[-2.3306957e-01],
       [-9.3781002e-02],
       [-3.4189823e-01],
       [-9.2248887e-02],
       [-1.6643812e-01],
       [ 4.7737114e-02],
       [-1.8144944e-01],
       [ 8.7580696e-02],
       [-9.7837474e-05],
       [ 8.9322805e-02],
       [-6.2737875e-02],
       [ 3.7418021e-04],
       [ 1.3278639e-04],
       [ 1.5487602e-02],
       [ 1.3146915e-01],
       [-1.5286836e-01],
       [ 5.3850401e-02],
       [ 1.7048141e-01],
       [-1.8848209e-01],
       [-8.6220689e-02],
       [ 3.1276846e-01],
       [-2.2924262e-01],
       [ 3.0776927e-01],
       [ 8.0816606e-03],
       [-1.3433470e-01],
       [ 6.3462637e-02],
       [-2.6435288e-02],
       [ 1.8447980e-01],
       [-1.5836921e-04],
       [ 2.4244620e-01],
       [-4.0884286e-02],
       [ 2.8539205e-01],
       [-3.7844356e-02],
       [-1.1553748e-01],
       [ 6.2213803e-05],
       [ 3.7582733e-02],
       [-1.6052407e-01],
       [-9.1566406e-02],
       [-7.7279881e-05],
       [-9.2832185e-02],
       [ 5.3100668e-02],
       [-3.9109567e-04],
       [ 7.2375901e-02],
       [-2.5829423e-04],
       [ 2.5111275e-02],
       [ 1.4354996e-01],
       [-1.0488399e-01],
       [ 4.3665584e-02],
       [-2.2001578e-02],
       [-1.5440455e-01],
       [ 5.8116493e-05],
       [-4.5846581e-02],
       [ 8.0327049e-02],
       [ 1.9286911e-01],
       [-4.5543228e-04],
       [-8.4409617e-02],
       [ 2.0997183e-01],
       [ 1.6218238e-01],
       [ 1.9912310e-02],
       [-3.5483923e-02],
       [ 1.3895670e-01],
       [ 2.2755848e-06],
       [-1.0419046e-01],
       [ 2.4417686e-01],
       [ 2.1585239e-01],
       [-2.1998081e-04],
       [ 1.5814528e-01],
       [-5.2069146e-02],
       [ 1.1240240e-04],
       [-6.7018040e-02],
       [-3.8351843e-01],
       [ 1.7038462e-01],
       [-1.6762711e-01],
       [-2.5336057e-01],
       [ 1.1170197e-02],
       [ 6.8068512e-02],
       [ 1.8924935e-04],
       [ 8.2095526e-02],
       [-2.3017341e-01],
       [ 2.6748158e-02],
       [ 8.0871455e-02],
       [-6.4333975e-02],
       [-1.2953962e-01],
       [ 1.1182039e-01],
       [-2.2972645e-01],
       [ 1.3760754e-02],
       [-6.5749258e-02],
       [ 1.9390340e-04],
       [-1.1765250e-01],
       [ 9.3595013e-02]], dtype=float32)]


Weights_h:
[array([[-0.3847942 , -0.04948629,  0.24677642, -0.23875709,  0.05156523,
        -0.20742881, -0.21824352, -0.06401967, -0.27852044, -0.02240024,
         0.25755304,  0.18873529, -0.03202347,  0.23602533, -0.03530238,
         0.16433482, -0.05650025,  0.05088195, -0.06550679, -0.1382626 ,
         0.11936234,  0.02564701,  0.06707189, -0.26239616, -0.10346323,
         0.09673453, -0.21234682, -0.09207831, -0.17807688,  0.15526433,
        -0.29707652, -0.03676382],
       [-0.33513674, -0.18489185,  0.06239164, -0.19025156, -0.0101442 ,
        -0.04081805, -0.11376446, -0.04229528, -0.24654998,  0.2349803 ,
         0.20441197,  0.17320421, -0.1103617 ,  0.3836468 , -0.00348098,
        -0.35042274,  0.00902804, -0.3705562 ,  0.2899864 ,  0.18666182,
        -0.02002633, -0.37947112, -0.01253294, -0.12768048, -0.3302281 ,
        -0.01156785,  0.14746457,  0.0364135 ,  0.25202355, -0.25384378,
        -0.04984818, -0.2113126 ]], dtype=float32), array([[ 0.09194116, -0.17335773,  0.09601409, ..., -0.07172847,
         0.09723873, -0.12559257],
       [ 0.0792105 ,  0.03344706,  0.11776788, ...,  0.12338252,
         0.20829958, -0.05623387],
       [ 0.02874343,  0.02338286, -0.04900435, ...,  0.12100572,
         0.03710907,  0.0522728 ],
       ...,
       [-0.25116593, -0.08184017,  0.24272752, ...,  0.10158588,
         0.32422888, -0.23551747],
       [-0.17285287, -0.3381873 ,  0.03805894, ..., -0.09182721,
         0.16076602,  0.16624102],
       [-0.02222054, -0.21406713,  0.03391899, ...,  0.11497474,
        -0.12312885, -0.03046631]], dtype=float32), array([[ 0.01018026, -0.03925708,  0.21420872, ...,  0.09495685,
        -0.18163879, -0.11779539],
       [ 0.0113268 , -0.2960281 , -0.26057416, ..., -0.11653978,
         0.02164994, -0.21261981],
       [ 0.0042045 ,  0.07931965, -0.3090617 , ...,  0.05754375,
        -0.03637549,  0.07554075],
       ...,
       [-0.09785339,  0.19730261,  0.19000147, ...,  0.1329379 ,
         0.18629673,  0.0533314 ],
       [ 0.03400845, -0.0655346 , -0.08878192, ..., -0.00805781,
         0.00066319, -0.08710948],
       [ 0.01120411, -0.20655243,  0.07101776, ...,  0.01610675,
         0.1589889 , -0.32596985]], dtype=float32), array([[-0.01565349],
       [ 0.11162023],
       [-0.3251682 ],
       [-0.03965157],
       [ 0.05331318],
       [-0.00968867],
       [ 0.3363216 ],
       [-0.07715577],
       [ 0.4663127 ],
       [ 0.3354981 ],
       [ 0.06902552],
       [-0.24426116],
       [-0.13933954],
       [-0.0180802 ],
       [-0.18084541],
       [ 0.1622704 ],
       [ 0.16364646],
       [ 0.24967502],
       [ 0.20082943],
       [ 0.04129044],
       [ 0.37992406],
       [ 0.08060747],
       [-0.2853554 ],
       [ 0.0861797 ],
       [-0.32356298],
       [ 0.10788144],
       [-0.34842527],
       [-0.17330487],
       [-0.03875805],
       [-0.43936598],
       [-0.35634166],
       [-0.08395713]], dtype=float32)]


Weights_c:
[array([[-0.13622867,  0.42338312, -0.15675224, -0.32363656, -0.17980838,
         0.05629794, -0.07583773,  0.30347443, -0.1349772 ,  0.24305099,
        -0.4092207 , -0.3735009 ,  0.09488913, -0.33440706, -0.05949428,
        -0.29759374, -0.19795848, -0.35358143, -0.06076776, -0.05803337,
         0.15161946, -0.04768752, -0.2998307 , -0.15278476, -0.35588375,
        -0.08726347,  0.00589391,  0.28316075, -0.13023134,  0.41367993,
         0.4020938 , -0.1483381 ],
       [ 0.08978734, -0.00890773,  0.11880561,  0.23088348, -0.0555931 ,
        -0.14995074,  0.273828  ,  0.17952684,  0.21569912,  0.10075775,
        -0.21407801, -0.04635951, -0.19050644,  0.24149464, -0.2934903 ,
        -0.32948896, -0.02040687,  0.4164493 , -0.0814971 ,  0.45980972,
         0.00654618,  0.3216357 , -0.25729465, -0.10112642,  0.2957573 ,
         0.31495658, -0.12426634,  0.2900583 , -0.27321368, -0.19987638,
         0.2101588 ,  0.1513096 ]], dtype=float32), array([[ 0.29732078,  0.03540108,  0.1635939 , ...,  0.19236319,
        -0.1472768 ,  0.0139805 ],
       [ 0.19454236, -0.08634178,  0.10947739, ...,  0.03405735,
        -0.14790235, -0.0009466 ],
       [-0.0088187 , -0.21634892, -0.01317325, ..., -0.04822404,
         0.01997719,  0.07304514],
       ...,
       [-0.11606478,  0.09968559, -0.1909063 , ...,  0.02873203,
         0.19393866,  0.06193072],
       [ 0.00252427, -0.2394489 , -0.12123157, ..., -0.05189986,
        -0.17629506,  0.18243061],
       [-0.05971986,  0.19113524,  0.05141175, ...,  0.07302216,
        -0.01481896, -0.04089622]], dtype=float32), array([[-0.00089215,  0.1211469 , -0.05319216, ...,  0.16930425,
         0.12946188,  0.0407088 ],
       [-0.08425625, -0.33784568, -0.06500454, ..., -0.18562123,
         0.13479383, -0.00340043],
       [ 0.10126544,  0.0596708 , -0.3345778 , ..., -0.0576431 ,
         0.12685978, -0.22224922],
       ...,
       [-0.11011127, -0.05950799,  0.22059968, ..., -0.02914822,
        -0.03456303,  0.02283335],
       [-0.18414769,  0.20103744,  0.3129413 , ..., -0.17992538,
        -0.14682287, -0.0979409 ],
       [ 0.09176545, -0.15499635, -0.13979758, ..., -0.01998837,
         0.21740592, -0.00665311]], dtype=float32), array([[-0.02168288],
       [-0.03359716],
       [-0.34869012],
       [ 0.38278785],
       [-0.07443333],
       [ 0.12078632],
       [-0.05771888],
       [-0.21379422],
       [ 0.07108034],
       [-0.37464947],
       [ 0.37116486],
       [-0.1801672 ],
       [-0.12809238],
       [ 0.03691423],
       [ 0.01316369],
       [ 0.2842414 ],
       [-0.06493585],
       [ 0.09263818],
       [-0.15633747],
       [-0.15200108],
       [-0.30846697],
       [ 0.21564965],
       [-0.48064598],
       [-0.33955863],
       [ 0.13439439],
       [-0.00347315],
       [-0.2916215 ],
       [-0.20961083],
       [ 0.09588093],
       [-0.06549325],
       [ 0.19615898],
       [ 0.06145195]], dtype=float32)]


Weights_k:
[array([[ 0.02899461,  0.5880044 , -0.28067076, -0.7910448 ,  0.71353906,
         0.40470335, -0.18739903, -0.13332422,  0.2793171 ,  0.65659946,
         0.4114716 , -0.67173195, -0.8113728 ,  0.0618758 , -0.5234685 ,
        -0.35428134, -0.87936205, -0.24822897,  0.72787666, -0.04696594,
         0.2823675 , -0.37432566,  0.6903212 , -0.45901313,  1.2470165 ,
         0.5451547 , -0.01415691, -1.0801737 , -0.14399464,  0.7776121 ,
         0.29678544, -0.22563863, -0.73896873,  0.57035184,  0.4962747 ,
         0.09031126, -0.4843131 ,  0.53273994,  0.50793505, -0.00338555,
        -0.66923153,  0.7538655 ,  0.39084095, -0.24947089,  0.7202931 ,
         0.53335506,  0.4063142 , -0.2816391 ,  0.16158049,  0.49757808,
        -0.27788857, -0.6065473 , -0.438493  ,  0.02276712,  1.2075894 ,
        -0.52144736, -0.79155153, -0.6006214 , -0.83099264,  0.7321509 ,
        -0.6774556 ,  0.5374436 ,  0.04635686, -0.8973599 , -1.0355377 ,
         0.49537912, -0.66979396, -0.72207594, -0.5920791 , -0.39033687,
         0.22898707, -0.72933424, -0.39115393, -0.5933022 ,  0.8019594 ,
        -0.4574178 ,  0.6310708 ,  0.18546149,  0.05678272, -0.7763564 ,
         0.4955048 ,  0.7089468 ,  0.6670189 , -0.75109684, -0.74223644,
        -0.8278304 ,  0.49450746,  0.7724859 , -0.5595545 , -0.82001436],
       [ 0.08869456,  0.4310461 ,  0.5302666 , -0.11883032, -0.42585576,
         0.5791321 , -0.7832393 , -0.72757757, -0.4669053 ,  0.09931999,
         0.37985876, -0.8680554 ,  0.22008248,  0.64197993, -0.54720825,
        -0.43284348, -0.7096806 , -0.67279965, -0.3275374 , -0.8079761 ,
        -0.96286225,  0.29751688,  0.16614392, -0.55361956, -0.5342232 ,
         0.9859666 ,  0.83056074, -0.11092426, -0.875614  , -1.2064837 ,
         0.35782644,  0.5403475 , -0.41480803, -0.51504165, -0.5112637 ,
         0.36815915, -0.04231327,  0.05540824, -0.5663039 ,  0.9233478 ,
         0.12261131,  0.09743524,  0.419805  ,  0.58241045,  0.17687021,
        -0.46988305,  1.29975   ,  0.7235667 ,  0.80239075,  0.7883399 ,
         0.6253036 , -0.9378971 ,  0.5152095 , -0.590352  ,  0.21217455,
         0.3222902 ,  0.04966768, -0.01654537,  0.12153555, -0.3647239 ,
         0.5218085 , -0.46936196,  0.62173474,  0.15560606,  0.22345862,
        -0.12855788,  0.48131293,  1.2087346 , -0.23841411, -0.72948515,
         0.5043734 ,  0.09894868,  0.41032457, -0.69220716,  0.18116085,
         0.38825533,  0.163267  ,  0.8244225 , -0.78308004,  0.35787046,
        -0.34963927,  0.91993105, -0.05748559,  0.27996618,  0.28109753,
         0.0800317 ,  0.60847104, -0.27346036,  0.24969617,  0.11039772]],
      dtype=float32), array([[-2.1673414e-01,  1.8187199e-02,  1.4129444e-03, ...,
         7.5769164e-02,  3.0665122e-02, -3.6290067e-01],
       [ 2.0575684e-02, -1.4870997e-01,  8.2334709e-01, ...,
         3.1024110e-02, -8.8247545e-02, -8.2480824e-01],
       [-4.1208197e-03, -1.7956901e-01, -5.9938643e-02, ...,
        -1.7535065e-01,  1.9688159e-02, -5.7253740e-03],
       ...,
       [ 2.0917701e-02, -3.0616757e-01,  2.9826817e-01, ...,
        -4.8409630e-02,  1.0333207e-01, -7.7765650e-01],
       [ 9.5446825e-02,  1.3449018e-01, -1.2963259e-01, ...,
        -4.3373134e-02,  1.2525879e-01,  1.7571739e+00],
       [ 1.9881381e-01, -7.7268451e-02, -5.9444863e-01, ...,
        -1.4298381e-01, -1.0659314e-01,  1.9313633e-01]], dtype=float32), array([[ 0.07900643,  0.07476676,  0.11377325, ...,  0.01984137,
        -0.0260755 ,  0.05121588],
       [ 0.0767893 , -0.00099604,  0.07897802, ...,  0.01212836,
        -0.03895966,  0.07312807],
       [-0.11365104,  0.21131426,  0.12032894, ..., -0.04863209,
        -0.04409964, -0.09820976],
       ...,
       [-0.01269424, -0.00558594,  0.06089631, ..., -0.13070543,
         0.04734235,  0.00807012],
       [ 0.17191982, -0.07921118,  0.02613281, ...,  0.06008426,
         0.01808016,  0.00553453],
       [ 0.1540294 ,  0.0421463 ,  0.06266388, ...,  0.01188749,
         0.02918191, -0.16072729]], dtype=float32), array([[ 1.56517059e-01],
       [-1.83464706e-01],
       [ 2.82097012e-02],
       [ 8.38779435e-02],
       [-1.41200542e-01],
       [-4.18542513e-05],
       [ 1.80867122e-04],
       [ 9.64015275e-02],
       [ 1.70602128e-01],
       [-5.62320565e-06],
       [ 1.93437502e-01],
       [-9.37418416e-02],
       [-2.87769318e-01],
       [-2.12991476e-01],
       [ 1.72353864e-01],
       [-1.42928271e-04],
       [-5.21460623e-02],
       [-1.43772855e-01],
       [-4.29582968e-02],
       [-5.19549251e-02],
       [-4.41709422e-02],
       [-2.60505617e-01],
       [-9.03722644e-03],
       [ 5.72710559e-02],
       [ 1.61491960e-01],
       [-2.04421535e-01],
       [-8.60646367e-02],
       [-8.15811232e-02],
       [-3.13717355e-05],
       [-9.30784419e-02],
       [ 1.89442728e-02],
       [-2.06225768e-01],
       [-7.52710700e-02],
       [ 1.21893637e-01],
       [ 6.38342053e-02],
       [-1.30762443e-01],
       [-1.04636744e-01],
       [ 2.59220978e-05],
       [ 1.58030838e-01],
       [-1.62425399e-01],
       [-1.55583154e-02],
       [-1.42232835e-01],
       [ 1.13917813e-02],
       [-1.39157802e-01],
       [-3.40324943e-04],
       [-4.22492057e-01],
       [-1.31971872e-04],
       [ 2.72901297e-01],
       [ 1.14018150e-01],
       [ 7.86394849e-02],
       [ 2.50447920e-04],
       [-1.03969000e-01],
       [-3.24302584e-01],
       [ 3.08780545e-05],
       [-4.74012569e-02],
       [ 4.60462682e-02],
       [ 1.66107714e-01],
       [-6.00148849e-02],
       [ 2.53758997e-01],
       [ 7.79260099e-02],
       [-3.00643686e-03],
       [-2.77012646e-01],
       [ 2.16354385e-01],
       [-1.72995999e-01],
       [ 2.32316628e-02],
       [-1.28169209e-01],
       [ 6.84459284e-02],
       [-5.82020395e-02],
       [-7.49861673e-02],
       [ 1.29191175e-01],
       [ 2.47223750e-01],
       [-2.18160659e-01],
       [ 2.59324700e-01],
       [-8.51724371e-02],
       [ 6.23583719e-02],
       [-2.24203974e-01],
       [-6.12736717e-02],
       [ 1.15097865e-01],
       [ 1.04825407e-01],
       [-4.21662927e-02],
       [-1.35373354e-01],
       [ 7.00516999e-02],
       [-7.71580189e-02],
       [ 8.71696696e-02],
       [-4.79204804e-02],
       [ 6.00407049e-02],
       [-6.87033385e-02],
       [-1.53052375e-01],
       [ 1.02075770e-01],
       [ 2.05338001e-01]], dtype=float32)]


Weights_h:
[array([[-0.30400786,  0.01792022,  0.06938045,  0.02330546, -0.06868703,
         0.37080288,  0.01202486,  0.01886149,  0.10361246, -0.15670668,
        -0.03693129, -0.2700748 ,  0.06063279, -0.04794429, -0.18770742,
        -0.43031457,  0.0885537 , -0.03981707, -0.08119503, -0.16214885,
         0.11414637, -0.3256369 ,  0.278451  ,  0.2964988 ,  0.11967512,
         0.32852736,  0.4801364 , -0.19182198,  0.1929253 , -0.03105825,
         0.21247259,  0.12212262],
       [-0.08988723,  0.07390318,  0.05101496, -0.20506227,  0.26010945,
        -0.01923952, -0.23306885, -0.21306822,  0.12720756,  0.13766392,
        -0.21740034, -0.15015253, -0.3117034 ,  0.01175536,  0.29495478,
        -0.13960005, -0.14602302, -0.05989897, -0.09021899, -0.08428376,
        -0.0036646 , -0.266173  ,  0.26125628,  0.09124697,  0.01502525,
         0.06828384, -0.28480273, -0.00621608, -0.3989994 ,  0.00568015,
         0.43112308,  0.03681706]], dtype=float32), array([[ 0.11569422, -0.04723977,  0.3084169 , ..., -0.07265962,
         0.22303168, -0.21699463],
       [-0.11422396,  0.17824996, -0.0464906 , ..., -0.19711742,
         0.01816284,  0.02020247],
       [ 0.17763181, -0.25119373, -0.1642591 , ..., -0.25231907,
         0.03841883, -0.05415213],
       ...,
       [ 0.18433015,  0.23024501, -0.3433169 , ..., -0.11828477,
         0.17955808,  0.16050485],
       [-0.2366715 ,  0.0713651 , -0.25627568, ...,  0.27950966,
         0.28516105,  0.07738235],
       [-0.05673158, -0.27202567, -0.13438535, ..., -0.06205755,
        -0.12946098,  0.01012141]], dtype=float32), array([[ 0.05054799,  0.05766766,  0.25051004, ...,  0.03549561,
         0.15792166,  0.23611781],
       [-0.17571624,  0.1661249 , -0.31310213, ..., -0.27999386,
        -0.01309361, -0.04667158],
       [-0.21247248,  0.14322577,  0.05542572, ..., -0.09773356,
         0.13901141, -0.23091306],
       ...,
       [ 0.29810798,  0.16447218,  0.09788392, ..., -0.14747761,
        -0.31281254, -0.13939558],
       [ 0.0925322 ,  0.05173494,  0.20474224, ..., -0.19036953,
        -0.19046192, -0.27849728],
       [ 0.0337874 ,  0.23531835, -0.05128616, ..., -0.20331149,
        -0.14286007,  0.06216659]], dtype=float32), array([[-0.12511268],
       [-0.1893171 ],
       [-0.31220916],
       [ 0.2434964 ],
       [ 0.23665056],
       [ 0.0123227 ],
       [ 0.47079128],
       [-0.2175555 ],
       [-0.01930456],
       [-0.21869287],
       [ 0.20425278],
       [ 0.30568588],
       [ 0.21341772],
       [-0.08333297],
       [ 0.2469635 ],
       [-0.12570496],
       [ 0.04697948],
       [-0.3927118 ],
       [ 0.48104247],
       [-0.08670194],
       [-0.23502035],
       [ 0.06826956],
       [ 0.20307343],
       [-0.04939986],
       [ 0.30004272],
       [-0.252164  ],
       [-0.04778063],
       [-0.14081118],
       [ 0.1551775 ],
       [ 0.26574823],
       [-0.00438787],
       [ 0.06894805]], dtype=float32)]


Weights_c:
[array([[-0.13442113,  0.19845286,  0.09708432,  0.40922683, -0.36279464,
        -0.29366985,  0.13334762,  0.19582412, -0.36474195, -0.00639213,
         0.16563483, -0.07134784,  0.10933784,  0.16500331,  0.05301572,
        -0.21443018, -0.22199033,  0.19119225,  0.3372994 ,  0.35366562,
         0.1364199 , -0.18138339,  0.04972997, -0.16778229, -0.16920207,
        -0.12581487,  0.12767327, -0.14963128,  0.3119879 , -0.14133012,
         0.23281942,  0.25819734],
       [ 0.1487653 , -0.32936358, -0.07373161,  0.13086993, -0.370247  ,
        -0.02450482, -0.19813125, -0.33103657,  0.07152235,  0.10551912,
        -0.03737341, -0.28994802, -0.08255294,  0.25516197, -0.16769898,
        -0.03791162, -0.15366833,  0.08617391,  0.01770783,  0.3197725 ,
         0.10101067,  0.02484412, -0.08822213, -0.00227069, -0.05929791,
        -0.22289096,  0.34699023, -0.47490385,  0.32694906, -0.30304962,
        -0.23912951,  0.00561153]], dtype=float32), array([[ 0.06139038, -0.14951885,  0.12830696, ..., -0.07389957,
        -0.26557326,  0.14496595],
       [ 0.2894069 , -0.266369  , -0.03214949, ..., -0.01776998,
         0.05788056, -0.06198962],
       [ 0.02053292,  0.01680291, -0.0542418 , ..., -0.15697622,
        -0.05625335,  0.13148633],
       ...,
       [-0.30171463,  0.2308341 , -0.0315115 , ..., -0.00481637,
         0.11398295,  0.07938053],
       [ 0.06103221, -0.05772445,  0.12204749, ...,  0.17899142,
         0.1825149 ,  0.10094772],
       [ 0.18110369,  0.10372639,  0.12031326, ..., -0.03262603,
        -0.04672311, -0.17034456]], dtype=float32), array([[-0.1871115 , -0.02301693, -0.06045176, ..., -0.00649628,
         0.14063711,  0.07507982],
       [ 0.17728989,  0.107947  ,  0.07035647, ...,  0.29785442,
        -0.09396828,  0.18469846],
       [ 0.14216708,  0.13490656,  0.1967732 , ..., -0.09733833,
         0.15251693,  0.00948957],
       ...,
       [-0.17658044,  0.23159759, -0.3381804 , ..., -0.10576715,
         0.14067194,  0.05445183],
       [ 0.04000979, -0.1588569 , -0.1999719 , ..., -0.17903924,
        -0.05965688,  0.13578263],
       [-0.10473091, -0.00378662,  0.2004241 , ...,  0.27385694,
         0.29562017, -0.01813447]], dtype=float32), array([[-0.00594524],
       [-0.254245  ],
       [-0.1919461 ],
       [ 0.07142402],
       [ 0.02193999],
       [-0.11047361],
       [ 0.12381399],
       [-0.20115456],
       [ 0.16134983],
       [-0.10313765],
       [ 0.1157281 ],
       [ 0.12451386],
       [ 0.19572425],
       [-0.45730788],
       [ 0.36600986],
       [ 0.01748684],
       [-0.34259507],
       [ 0.10353127],
       [-0.18891682],
       [ 0.10702197],
       [ 0.11450938],
       [ 0.25676802],
       [-0.26005375],
       [-0.11707489],
       [ 0.310538  ],
       [ 0.2419247 ],
       [-0.33584556],
       [-0.03312165],
       [ 0.29492825],
       [-0.04745822],
       [ 0.28261483],
       [-0.01298675]], dtype=float32)]


Weights_k:
[array([[-0.99160576, -0.36444587,  0.9385337 ,  0.08975502,  0.6860715 ,
        -0.408858  ,  0.90400445,  0.67705494, -0.16899146, -0.04368007,
         0.41444144, -0.08427608,  0.03625165,  0.5991588 ,  0.18125688,
        -0.8460752 , -0.62219554,  0.20457864, -0.7597456 , -0.68036735,
        -0.61551404,  0.22039294,  0.09684145, -0.3419767 ,  0.02970593,
        -0.53927875, -0.49769488, -0.48574126, -0.02804169, -0.61823314,
        -0.44335365, -0.46699086, -0.25618768, -0.3685087 , -0.20964889,
         0.8154648 ,  0.40710363,  0.432163  ,  0.57068   ,  0.66035527,
        -0.31001225, -0.87767124, -0.42191538, -0.22133219,  0.5752821 ,
         0.5903694 ,  0.6486178 ,  0.36429852,  0.45444632,  0.5987603 ,
        -0.41053256,  0.24966355,  0.42234024,  0.3285161 , -0.5367719 ,
         0.03590386,  0.21128738,  0.44778028,  0.5345582 ,  0.580657  ,
        -0.31886256,  0.3709584 ,  0.64051527,  0.5530654 ,  0.6095358 ,
        -0.4632948 ,  0.515855  ,  0.66570616, -0.35453448, -0.24066325,
        -0.17309214,  0.25830978,  0.40015754,  0.5674799 , -0.17718807,
         0.75058234, -0.44255862, -0.4066292 , -0.557789  ,  0.5539222 ,
        -0.47856054,  0.27560258,  0.00473168,  0.4589779 ,  0.24388838,
        -0.1503171 ,  0.70842224, -0.6083007 ,  0.3893587 , -0.3908034 ],
       [ 0.41080064,  0.3114944 ,  0.10847094, -0.32889858,  0.02315692,
         0.2519551 , -0.13357885, -0.06543939, -0.7082757 , -0.68305176,
         0.85931104,  0.82874185, -0.55826646,  0.31819874, -0.6533918 ,
        -0.07043753, -0.05884608,  0.68434227, -0.6331765 ,  0.49968842,
         0.332093  , -0.4457296 ,  0.38363534,  0.53021204, -0.6745534 ,
         0.6196055 , -0.74245995,  0.3036811 , -0.4878534 , -0.38104978,
        -0.42982414, -0.66920036,  0.88947594,  0.6422936 ,  0.5776234 ,
         0.04484517, -0.07367998,  0.65861195, -0.32684642,  0.3905443 ,
         0.37258038, -0.09768675, -0.06994326,  0.50232553,  0.10927485,
        -0.18336666, -0.3666701 , -0.9812032 , -0.7401054 ,  0.54075915,
         0.2606423 ,  0.95303965, -0.14964408,  0.24609593,  0.31401414,
         0.5765182 ,  0.98571855,  0.8369203 , -0.28506783,  0.6351913 ,
         0.19600599, -0.46756798, -0.25337112, -0.16493759,  0.7298746 ,
        -0.03028304, -0.12259953,  0.6261091 , -1.01393   , -0.96483266,
        -0.47498366, -0.7513512 , -0.3991532 ,  0.31411162, -0.8344955 ,
        -0.29361132,  0.49665016,  0.14791103,  0.58592784,  0.33042976,
        -0.38721874,  0.9648604 , -0.34064418,  0.49411094, -0.25714418,
         0.7329608 ,  0.11070792, -0.5894973 ,  0.66496867,  0.51530206]],
      dtype=float32), array([[ 0.06954015,  0.11926   , -0.19798085, ..., -0.01466812,
         0.12295689,  0.09289093],
       [-0.6848877 , -0.1643235 ,  0.00546202, ...,  0.3564164 ,
        -0.12598528,  0.12685525],
       [ 0.16235541, -0.0764411 , -0.14368217, ...,  0.06577653,
        -0.02606755,  0.03205722],
       ...,
       [-0.16345647, -0.11068547,  0.5705249 , ..., -0.595232  ,
        -0.00767277,  0.2054986 ],
       [ 0.10804899,  0.2811041 , -0.5426089 , ...,  0.6808118 ,
        -0.23720239,  0.13909745],
       [-0.05664081, -0.09806807, -0.27746508, ...,  0.13711168,
        -0.0158632 ,  0.28027585]], dtype=float32), array([[ 0.0189037 ,  0.00757451,  0.0585346 , ..., -0.09723303,
         0.11738881, -0.28993887],
       [ 0.03259339,  0.09906907, -0.05677997, ..., -0.22181047,
        -0.11872505, -0.23132627],
       [ 0.03165013,  0.0039255 , -0.2228726 , ..., -0.25607547,
        -0.05820047,  0.23217654],
       ...,
       [-0.01005074, -0.03998543,  0.09740572, ...,  0.19708294,
         0.12718418, -0.11798292],
       [-0.08967498, -0.0182495 , -0.06173062, ..., -0.05815655,
         0.11577769,  0.1279121 ],
       [-0.10627068,  0.05097262, -0.07463067, ...,  0.05663449,
         0.02206836, -0.0156991 ]], dtype=float32), array([[ 5.98273473e-05],
       [-9.79522156e-05],
       [-1.45284057e-01],
       [-7.90398866e-02],
       [-2.40321890e-01],
       [-1.27332404e-01],
       [-3.15495543e-02],
       [ 3.87585460e-05],
       [-9.83038768e-02],
       [-1.31159887e-01],
       [-3.62537772e-04],
       [-2.72107333e-01],
       [-1.06290378e-01],
       [ 1.00475594e-01],
       [ 2.88103782e-02],
       [-1.51170995e-02],
       [-3.39643985e-01],
       [-1.40143931e-01],
       [-7.48696700e-02],
       [ 2.82287896e-01],
       [-1.85785368e-01],
       [ 6.32563457e-02],
       [-2.74094898e-04],
       [-1.72765926e-02],
       [-2.23070920e-01],
       [ 1.61021977e-04],
       [ 6.92049414e-02],
       [-9.61535498e-02],
       [-1.41927516e-02],
       [-5.12062982e-02],
       [-2.04711425e-04],
       [-6.24375120e-02],
       [ 4.23889644e-02],
       [-6.36582002e-02],
       [ 1.35878965e-01],
       [ 2.34634746e-04],
       [-7.23485649e-02],
       [ 8.34771708e-05],
       [-1.65907586e-05],
       [ 7.92269185e-02],
       [-9.98186618e-02],
       [-9.40761268e-02],
       [-7.98519701e-02],
       [ 3.76141816e-02],
       [-1.83094323e-01],
       [ 1.57378867e-01],
       [-1.40712858e-04],
       [-3.08228612e-01],
       [ 1.86132565e-01],
       [ 6.25708476e-02],
       [-1.69791467e-02],
       [ 1.92048237e-01],
       [-1.47655487e-01],
       [-2.15846375e-01],
       [ 3.07994131e-02],
       [ 1.27113640e-01],
       [ 2.02180613e-02],
       [-2.05409527e-01],
       [ 2.19638277e-05],
       [-1.05187029e-01],
       [-3.11216768e-02],
       [ 2.19603098e-05],
       [ 1.42012507e-01],
       [-7.16765178e-04],
       [-4.56085603e-04],
       [-2.41690539e-02],
       [ 2.05403745e-01],
       [-1.67305857e-01],
       [ 2.39472806e-01],
       [ 2.09909916e-01],
       [-1.37130974e-05],
       [ 2.42910862e-01],
       [ 2.91869998e-01],
       [-1.52550519e-01],
       [-2.86519207e-04],
       [ 2.32485682e-01],
       [ 4.65676747e-03],
       [-1.50175855e-01],
       [-6.27790723e-06],
       [-1.75411418e-01],
       [-2.30825558e-01],
       [ 1.90026069e-04],
       [-2.25444622e-02],
       [-1.30586699e-01],
       [ 3.91393751e-02],
       [ 2.31593817e-01],
       [-1.61410804e-04],
       [-1.24917757e-02],
       [-2.08884120e-01],
       [-1.58097699e-01]], dtype=float32)]


Weights_h:
[array([[ 0.21761176, -0.06866745, -0.1568707 ,  0.01163642,  0.23694262,
        -0.3583775 , -0.1254417 ,  0.18340953, -0.03919468,  0.13551612,
         0.06590401,  0.00784959, -0.14344597,  0.20329988,  0.08609977,
        -0.04263502,  0.2112599 , -0.19337872, -0.16948462,  0.0635085 ,
         0.21023078,  0.4606883 , -0.19543542,  0.30974808,  0.08987384,
        -0.10368224,  0.09751139, -0.24336322,  0.10676917,  0.11090305,
        -0.12117792, -0.18344821],
       [-0.06623748,  0.3326226 , -0.03918875, -0.17474748,  0.03005263,
         0.382488  ,  0.00332448, -0.04954591, -0.01753859, -0.43648535,
        -0.28214735, -0.01858219,  0.15916474, -0.05888181, -0.2932501 ,
        -0.22194889, -0.1412111 ,  0.34414494, -0.09136651, -0.1726395 ,
         0.3205803 ,  0.31963515, -0.23500647,  0.14209367, -0.01877834,
        -0.0736273 , -0.04039801, -0.08810985, -0.3979339 , -0.33061746,
        -0.3859166 ,  0.16417502]], dtype=float32), array([[-0.31348026, -0.09603777, -0.00605665, ..., -0.27864516,
        -0.04771524,  0.3164231 ],
       [-0.11479451,  0.11294184, -0.10407682, ..., -0.05251154,
        -0.06626305,  0.31422135],
       [-0.17162123, -0.01299953,  0.22427683, ...,  0.16681981,
        -0.23973568,  0.0182342 ],
       ...,
       [ 0.04825148, -0.03999862,  0.05611135, ...,  0.01072962,
        -0.04241518, -0.1318942 ],
       [-0.01337449, -0.09352002,  0.20202766, ..., -0.04658755,
         0.25717378, -0.30073008],
       [ 0.22533484, -0.0842543 ,  0.03436501, ..., -0.0337697 ,
         0.17285144,  0.00769653]], dtype=float32), array([[ 0.00070873, -0.09612991, -0.08668564, ..., -0.16653763,
        -0.01368161, -0.00373128],
       [-0.02081122, -0.01263396,  0.1091    , ...,  0.10281656,
         0.04255705, -0.02786921],
       [-0.21672575,  0.05605174, -0.32428974, ..., -0.04200837,
         0.26970264, -0.271437  ],
       ...,
       [ 0.0216892 ,  0.23742533, -0.17781271, ...,  0.25779969,
        -0.04728901,  0.09846446],
       [ 0.10556652, -0.251843  ,  0.05399964, ...,  0.16026028,
        -0.10508182, -0.07755994],
       [-0.25969392, -0.2540061 , -0.343167  , ..., -0.05324988,
        -0.22797397,  0.12224432]], dtype=float32), array([[-0.29859096],
       [-0.12805055],
       [ 0.01005595],
       [-0.32689485],
       [-0.04857918],
       [ 0.00875255],
       [-0.1196961 ],
       [-0.06431265],
       [-0.3851508 ],
       [-0.25443295],
       [-0.14194065],
       [ 0.11982951],
       [-0.12796186],
       [ 0.1563057 ],
       [-0.11836494],
       [-0.3212594 ],
       [ 0.3208776 ],
       [ 0.05173323],
       [-0.01375938],
       [ 0.02027991],
       [ 0.26122308],
       [ 0.20663449],
       [-0.13485418],
       [-0.2246924 ],
       [ 0.01677882],
       [ 0.22474578],
       [ 0.33265752],
       [ 0.03274905],
       [ 0.14458646],
       [ 0.13426332],
       [ 0.4807502 ],
       [ 0.01078109]], dtype=float32)]


Weights_c:
[array([[-0.02773894, -0.02238187,  0.21106188, -0.04069914, -0.17352179,
         0.07246035, -0.04314454,  0.03694176,  0.2564744 ,  0.06800909,
         0.18002336, -0.36544546, -0.21775676,  0.04824789,  0.20188303,
        -0.2734754 ,  0.25981113, -0.01752807, -0.46116522, -0.21952274,
        -0.02799732,  0.17632742, -0.2516311 ,  0.306759  , -0.15132926,
         0.2539523 , -0.0382761 , -0.37671953,  0.31306678, -0.2784782 ,
        -0.09871036,  0.18954185],
       [-0.04505695,  0.26984042,  0.42244646,  0.08894147,  0.41332003,
        -0.18850683,  0.0195058 ,  0.07561946,  0.3693138 , -0.0629966 ,
        -0.1460936 ,  0.05240527, -0.0884099 , -0.17930648,  0.14684425,
         0.39418563, -0.28095478,  0.10409319, -0.00095421,  0.18695545,
         0.09041143,  0.23027728,  0.057171  , -0.11877465, -0.09786086,
        -0.28330937,  0.2471343 , -0.35242116, -0.0344678 ,  0.07418243,
        -0.3059995 , -0.3026282 ]], dtype=float32), array([[-0.09376832,  0.05604881,  0.20350385, ...,  0.08695684,
         0.31278467,  0.00997129],
       [-0.26797202,  0.03841998, -0.09305635, ..., -0.26779708,
        -0.0029179 , -0.29075247],
       [-0.08340988,  0.06215201, -0.13043395, ..., -0.2037869 ,
        -0.03482126,  0.16955835],
       ...,
       [-0.12846291, -0.07543447, -0.18251508, ...,  0.20554353,
        -0.07856128,  0.13175283],
       [ 0.08770239, -0.07662755, -0.3470475 , ...,  0.2993582 ,
        -0.00894539,  0.19255957],
       [ 0.02059019,  0.26415154, -0.04832577, ..., -0.03868418,
        -0.05232628, -0.20270042]], dtype=float32), array([[ 0.02891468,  0.20150585, -0.14556527, ..., -0.03954394,
         0.06996314, -0.10403655],
       [-0.02890217, -0.10630672, -0.14136542, ...,  0.07433087,
         0.03790386, -0.00475042],
       [-0.3085963 ,  0.24910669, -0.00959708, ...,  0.03975948,
        -0.12678383, -0.01123672],
       ...,
       [ 0.18684956,  0.06893972,  0.30750975, ..., -0.1435334 ,
         0.16136357,  0.07172196],
       [ 0.00605324,  0.03754336,  0.11350088, ...,  0.02075126,
         0.09186033, -0.16736029],
       [-0.08266553, -0.1671539 , -0.12203153, ...,  0.1265494 ,
        -0.01370834, -0.251923  ]], dtype=float32), array([[ 2.94102907e-01],
       [-4.16558614e-04],
       [ 9.80608165e-03],
       [-4.34766412e-02],
       [ 1.90041095e-01],
       [-3.32134634e-01],
       [-2.64160067e-01],
       [ 2.29354471e-01],
       [-1.45829305e-01],
       [ 2.44389847e-01],
       [ 1.24667585e-01],
       [-2.11100310e-01],
       [ 4.19094473e-01],
       [-1.63462877e-01],
       [ 1.93111777e-01],
       [ 2.56596327e-01],
       [-3.60058755e-01],
       [-3.85673314e-01],
       [ 4.69617367e-01],
       [-1.00910343e-01],
       [ 1.82702839e-01],
       [ 8.35569426e-02],
       [-1.88650310e-01],
       [-5.02467416e-02],
       [ 2.33310059e-01],
       [ 4.18203324e-02],
       [-3.35680485e-01],
       [ 2.02316537e-01],
       [ 2.52752960e-01],
       [ 4.90336925e-01],
       [ 1.72318891e-01],
       [ 6.36678189e-02]], dtype=float32)]


Weights_k:
[array([[-0.22635248,  0.8651688 ,  0.837604  ,  0.8625424 , -0.8363525 ,
        -0.56759   ,  0.6379547 ,  0.44018054,  0.83505684, -0.5484186 ,
         0.49590886, -0.26118296, -0.3836816 ,  0.8711171 , -0.03148128,
        -0.9345456 , -0.8889888 , -0.28189477, -0.7364269 , -0.04161569,
        -0.23820913,  0.4121874 , -0.07112894,  0.8333446 ,  0.4269505 ,
        -1.115833  ,  0.66327506,  0.5601329 , -1.1678247 ,  0.7203823 ,
        -0.419044  ,  0.35069713, -0.19321658,  0.14148171, -0.561224  ,
         0.02916243,  0.3439585 ,  0.3366446 ,  0.04037133,  0.83160454,
         0.6078086 ,  0.654811  ,  0.6715624 , -0.22288084, -0.7193994 ,
        -0.625049  , -0.48000464, -0.66535705,  0.35420638, -0.6448985 ,
         0.2782587 ,  0.25708336, -0.79130006, -0.6676823 ,  0.7256797 ,
        -0.37583238, -0.5802175 , -0.84506565, -0.6992013 ,  0.8227018 ,
         0.4493398 , -0.08789959,  0.8528805 ,  0.24323148,  0.3796486 ,
        -0.4009279 ,  0.4779663 ,  0.13454607, -1.0957624 ,  0.44312814,
        -0.2622239 ,  0.52984536, -0.44240233, -0.11550321, -0.7851744 ,
        -0.183067  ,  0.08166061, -0.2448681 , -0.45217216, -0.19924156,
         0.19103532, -0.36162698, -0.48812068, -0.5835629 ,  0.8130677 ,
         0.56414783,  0.37318996, -0.45556802, -0.66992533,  0.5025959 ],
       [ 0.5393213 ,  0.28440428, -0.05386386, -0.26253003, -0.5923728 ,
        -1.0049307 , -0.3554249 ,  0.8339965 ,  0.13221447, -0.36899865,
        -0.3557177 , -1.471424  ,  0.57422805,  0.09659489,  0.64032733,
        -0.07136428,  0.31647474, -1.3220677 ,  0.30215403,  0.56528366,
        -0.80155784, -0.35772887,  0.3324604 ,  0.25185317,  0.06120161,
         0.19413526,  0.00164147, -0.14160392,  0.22622427,  0.14325108,
         0.21358442,  0.6026123 ,  0.77818406, -0.83266574,  0.04020737,
         0.68215454, -0.5147908 , -0.28776497, -0.3894096 ,  0.05769688,
         1.1995382 ,  0.5744032 ,  0.3983079 ,  0.40222317, -0.09280683,
        -0.21279131, -0.44571722, -0.42726934, -0.9011426 ,  0.39285782,
         1.1246109 ,  1.0400119 , -0.5999415 ,  0.11318371, -0.15385856,
         0.41788608,  0.18400805, -0.24714859,  0.06205808,  0.04494376,
        -0.01772437,  0.97313803, -0.30879733,  1.0887381 ,  0.26602575,
        -0.17307124,  0.41395432, -0.65238667, -0.17932971, -0.24437343,
         0.5561193 , -0.02057772,  0.24189384, -0.570042  , -0.54276747,
         0.44472483,  0.51725936, -0.89923733, -1.4446933 ,  0.35297704,
         1.1646432 , -0.7641148 ,  0.20683321,  0.2169418 ,  0.4127587 ,
        -0.02091756, -0.6091266 ,  0.43679556,  0.2501645 ,  0.58526164]],
      dtype=float32), array([[-4.5788518e-01,  1.8088990e-01, -1.0571999e-01, ...,
         7.0741616e-02,  7.3339415e-01, -9.7511932e-02],
       [-2.1222343e-01, -1.2159687e-01,  1.2971839e-01, ...,
         1.6134384e-01,  4.9532643e-03, -6.0338613e-02],
       [ 5.9158993e-01, -7.6161548e-02,  2.2519117e-02, ...,
         1.1520597e-01, -1.2758427e+00, -2.3698477e-01],
       ...,
       [ 1.3895755e-01, -4.4016127e-02, -5.9810549e-04, ...,
        -5.4593612e-02,  2.0377097e-01, -2.1450575e-01],
       [-7.7753794e-01,  8.6382903e-02, -1.0830351e-02, ...,
        -1.4052194e-01,  1.7607222e+00,  1.6844942e-01],
       [-3.2071972e-01,  1.1374824e-01,  7.0000216e-02, ...,
        -3.3424150e-02, -1.1300374e-02, -1.3501672e-01]], dtype=float32), array([[-0.13007335, -0.21307045,  0.13270989, ...,  0.01400512,
         0.03523717,  0.08175701],
       [ 0.05086948, -0.12361667, -0.07078268, ..., -0.06127377,
        -0.06619009,  0.16741858],
       [-0.08273048, -0.0808498 ,  0.16033028, ..., -0.14325993,
        -0.11703672, -0.26099643],
       ...,
       [ 0.08839793, -0.00925405,  0.08938856, ...,  0.0301848 ,
        -0.00757675, -0.20737264],
       [-0.02559227,  0.20721936, -0.29080158, ..., -0.11264601,
        -0.02475033,  0.1871138 ],
       [ 0.10211881, -0.0912716 ,  0.1414793 , ...,  0.03018125,
        -0.03674526, -0.1518467 ]], dtype=float32), array([[-2.46760190e-01],
       [ 2.68465221e-01],
       [ 2.17225805e-01],
       [-1.05712980e-01],
       [ 1.46363363e-01],
       [ 1.16681293e-01],
       [-1.49621861e-02],
       [ 3.34435962e-02],
       [ 2.59839296e-01],
       [-1.28320739e-01],
       [-2.86187291e-01],
       [-5.48806377e-02],
       [ 8.72411911e-05],
       [ 1.87222838e-01],
       [ 1.03970096e-01],
       [ 1.35179326e-01],
       [ 2.44327188e-01],
       [ 1.54016569e-04],
       [-4.63742875e-02],
       [ 1.53328031e-01],
       [-2.60091782e-01],
       [-1.83879631e-04],
       [ 8.62264261e-02],
       [ 8.68625566e-02],
       [-1.33640692e-01],
       [ 5.49292602e-02],
       [ 1.61366814e-04],
       [-1.47324696e-01],
       [-1.17300935e-01],
       [ 7.66711682e-02],
       [ 3.05307154e-02],
       [-6.01840355e-02],
       [-1.79736406e-01],
       [-1.17543556e-01],
       [-6.63159564e-02],
       [ 1.07798897e-01],
       [-6.50995746e-02],
       [ 9.80385467e-02],
       [-1.10278059e-04],
       [ 1.13755777e-01],
       [-8.57668892e-02],
       [ 3.98415723e-05],
       [-1.44311562e-01],
       [ 2.12622192e-02],
       [-3.47496569e-02],
       [-2.13913154e-02],
       [-2.56670654e-01],
       [ 7.38826348e-05],
       [ 1.77449420e-01],
       [-1.83704615e-01],
       [ 2.95676291e-01],
       [-2.83534639e-04],
       [-4.50562075e-05],
       [ 8.01684335e-02],
       [-2.30707854e-01],
       [ 5.01636527e-02],
       [ 1.70142967e-02],
       [ 1.07221447e-01],
       [ 2.96832137e-02],
       [ 8.56481940e-02],
       [-1.14117779e-01],
       [ 1.04093395e-01],
       [-1.49732038e-01],
       [-1.17778771e-01],
       [ 1.39081776e-01],
       [ 1.60462990e-01],
       [ 2.30661929e-01],
       [-2.76155043e-02],
       [-1.68954998e-01],
       [-3.40356082e-01],
       [-2.47575380e-02],
       [-1.56795919e-01],
       [ 1.42452314e-01],
       [ 3.10570613e-05],
       [-8.14815164e-02],
       [-6.95274866e-05],
       [ 1.21158779e-01],
       [-7.47753084e-02],
       [-1.24533959e-01],
       [-1.75618038e-01],
       [ 5.60389012e-02],
       [-2.01234713e-01],
       [ 1.22132050e-02],
       [ 8.31737667e-02],
       [ 2.90366113e-01],
       [ 1.48967316e-04],
       [ 3.80711615e-01],
       [ 1.13679372e-01],
       [ 4.97798696e-02],
       [ 3.03217560e-01]], dtype=float32)]


Weights_h:
[array([[ 4.5985198e-01,  3.1653088e-02, -9.4610095e-02,  2.9936381e-02,
         4.4416822e-02, -3.5678452e-01,  6.4765714e-02, -3.1960491e-02,
        -1.4181523e-01,  1.0354892e-01, -2.9966846e-01, -1.4293289e-01,
        -2.7292227e-02, -1.4529186e-02,  5.6072205e-02, -1.7751355e-01,
        -2.8846401e-01,  8.4634908e-02,  6.9677420e-02,  1.3474733e-01,
        -1.4507805e-01,  1.4786313e-01, -8.6261205e-02, -1.6822034e-01,
         1.7393834e-04, -4.1912919e-01,  3.4297634e-02,  3.5141623e-01,
         1.2131183e-01, -1.4974408e-01, -8.0398485e-02,  7.3297671e-03],
       [ 1.6548507e-01,  5.2168310e-02, -6.8092979e-02, -1.2759571e-01,
        -1.0013059e-01,  4.0918535e-01, -1.0014458e-04, -6.6912852e-02,
        -2.4814112e-01, -3.1258050e-01, -7.6035924e-02, -2.8104445e-01,
         1.2894349e-01, -1.9795634e-01, -1.2509815e-01,  5.1197100e-02,
        -2.3502448e-01, -2.2410347e-01,  3.0440360e-01,  4.8023928e-02,
        -7.6954593e-03, -4.6104953e-01,  4.5458329e-01, -3.1720391e-01,
         4.9215383e-03,  1.8161684e-01,  2.1115033e-02,  4.4258296e-01,
         2.5403532e-01, -3.0889186e-01,  1.6401905e-01, -3.0117527e-02]],
      dtype=float32), array([[-0.14303827,  0.02500917,  0.18917075, ..., -0.26461425,
         0.27748534,  0.03598652],
       [-0.02527359,  0.21100533,  0.08008699, ...,  0.14482719,
        -0.3511928 ,  0.29364157],
       [-0.09825195,  0.23041983,  0.20214812, ..., -0.16752832,
         0.06339921,  0.24940279],
       ...,
       [ 0.1659406 ,  0.06657028,  0.1193921 , ..., -0.1901631 ,
        -0.17676897,  0.22207469],
       [-0.18908185,  0.11093511, -0.15214474, ...,  0.04514555,
         0.10254516,  0.21312883],
       [ 0.31004855, -0.07135854, -0.12175947, ..., -0.11701073,
         0.28254333,  0.26543143]], dtype=float32), array([[ 0.19732043, -0.02829042,  0.14722571, ...,  0.2249647 ,
         0.07514738,  0.14194442],
       [ 0.33618668, -0.10528748,  0.04579602, ...,  0.12039438,
        -0.01748417, -0.13059057],
       [ 0.00781166, -0.26281735, -0.06113457, ...,  0.1732497 ,
         0.06874599,  0.16462028],
       ...,
       [ 0.09670289,  0.00574799,  0.05655579, ...,  0.03004449,
        -0.10422017,  0.19211134],
       [-0.03666924, -0.12673613,  0.04829501, ...,  0.2804445 ,
         0.10213619,  0.23199117],
       [-0.02485989,  0.07086693, -0.15266843, ..., -0.19834419,
         0.21654856, -0.1987142 ]], dtype=float32), array([[-0.06137362],
       [-0.24803077],
       [-0.14744101],
       [-0.27761987],
       [ 0.2951694 ],
       [ 0.07357154],
       [ 0.09882187],
       [ 0.2523106 ],
       [-0.19725755],
       [ 0.09623801],
       [-0.04581695],
       [ 0.28250656],
       [-0.11330771],
       [-0.00854755],
       [ 0.0618971 ],
       [-0.2719617 ],
       [-0.25745457],
       [-0.270398  ],
       [-0.27933082],
       [-0.0238261 ],
       [ 0.06151662],
       [ 0.23762152],
       [-0.2251945 ],
       [-0.20362206],
       [ 0.42528883],
       [ 0.15711048],
       [ 0.18522464],
       [-0.03827386],
       [ 0.17197673],
       [ 0.01234831],
       [-0.2516409 ],
       [-0.30535644]], dtype=float32)]


Weights_c:
[array([[ 0.04592385,  0.0418089 , -0.15129656, -0.13814618, -0.23305169,
        -0.25480327,  0.01989048, -0.1483743 , -0.13565724, -0.36851734,
        -0.05889921, -0.06366038, -0.336444  ,  0.03559427,  0.0354824 ,
        -0.01093947,  0.07018314,  0.1757688 , -0.13342184,  0.09266233,
        -0.14229353, -0.12295419,  0.10899246,  0.24183625, -0.11995822,
         0.3918303 , -0.25143793, -0.25314468,  0.17165169,  0.15363759,
         0.42438057,  0.20305945],
       [-0.15831798, -0.2557335 , -0.25931358,  0.12498111,  0.05328231,
         0.18446666,  0.34211543, -0.34436855,  0.12894766,  0.24522151,
         0.41924432,  0.07781219, -0.08171586, -0.03925864,  0.03001134,
         0.04588576,  0.10129904,  0.13561499,  0.14207675, -0.07735906,
        -0.17474242, -0.0308746 ,  0.25568584,  0.16379921,  0.45067108,
         0.2862476 , -0.182468  ,  0.06175597, -0.38036403, -0.0662001 ,
         0.3700039 ,  0.2506681 ]], dtype=float32), array([[ 5.5860728e-03,  1.8663917e-01, -2.8088749e-03, ...,
         3.9347537e-02,  6.2974785e-03, -1.1739839e-04],
       [ 7.8547329e-02,  9.4252639e-02, -1.5123378e-01, ...,
        -1.4751449e-01,  2.4177167e-01, -2.4494991e-01],
       [ 8.3280541e-02, -2.2533220e-01, -1.6298127e-01, ...,
         2.0429784e-01, -2.8757444e-01, -1.0693876e-01],
       ...,
       [-5.7727811e-03, -7.5999156e-02,  1.8906625e-01, ...,
        -6.8691783e-02, -1.9626567e-01, -1.2075148e-01],
       [ 6.0660108e-03, -7.2046109e-02, -2.8932514e-03, ...,
        -8.4790237e-02,  4.0415067e-02, -5.3564098e-02],
       [ 7.4008100e-02,  6.3014194e-02, -2.9262972e-01, ...,
        -1.6109335e-01,  6.8137810e-02, -5.5234708e-02]], dtype=float32), array([[-0.26464853, -0.1623153 ,  0.14151794, ...,  0.29842633,
        -0.0845253 ,  0.25036973],
       [-0.02985864,  0.14098378, -0.28290546, ..., -0.0161836 ,
         0.2712229 , -0.05202908],
       [-0.02243061,  0.01313352, -0.26123488, ...,  0.07003565,
         0.06863834,  0.09160221],
       ...,
       [ 0.3330193 ,  0.03742538,  0.09860221, ..., -0.00636405,
         0.2939863 ,  0.00210162],
       [-0.34872168, -0.17082694, -0.16700354, ...,  0.2548975 ,
         0.06301641, -0.02045715],
       [-0.26555872, -0.11161312, -0.1389981 , ..., -0.02893323,
         0.08425467, -0.06004058]], dtype=float32), array([[-0.04897578],
       [-0.24575524],
       [-0.00441061],
       [-0.38141105],
       [-0.3174321 ],
       [-0.10020119],
       [ 0.04259241],
       [ 0.19539478],
       [-0.0869453 ],
       [ 0.09390261],
       [-0.4087574 ],
       [-0.18379037],
       [ 0.04728005],
       [ 0.10562174],
       [-0.21612433],
       [ 0.22322008],
       [-0.03883009],
       [-0.06274892],
       [-0.12052643],
       [-0.02456137],
       [ 0.27942243],
       [ 0.07991317],
       [-0.17268063],
       [-0.10754759],
       [ 0.42694205],
       [-0.2489393 ],
       [-0.00896281],
       [ 0.27990142],
       [ 0.01765898],
       [ 0.20190835],
       [ 0.34650674],
       [ 0.14097689]], dtype=float32)]


Weights_k:
[array([[ 0.03831251, -0.6592299 , -0.55788046,  0.71802366, -0.2157949 ,
         0.37461743,  0.648667  ,  0.9317467 ,  0.22362572,  0.09884775,
         0.368783  , -0.32026118, -0.4445764 , -0.5575131 ,  0.41167653,
         0.3521334 ,  0.3620965 , -0.52403015, -0.4037565 , -0.77866286,
        -0.58797497,  0.60019726, -0.42372954, -0.06059705, -0.0906973 ,
        -0.5887519 ,  0.50481707,  0.4093979 , -0.0764119 ,  0.49207968,
         0.16540709,  0.6164693 , -0.2633551 , -0.36024162,  0.3080666 ,
         0.27883804, -0.77779007, -0.55246663, -0.47195494,  0.6764356 ,
        -0.21252452,  0.02398688,  0.3029806 , -0.65991306, -0.6056466 ,
        -0.68340784, -0.6952116 ,  0.6322028 , -0.12280371,  0.28741986,
         0.250079  , -0.77015746,  0.35688406, -0.8719049 ,  0.38580942,
        -0.4675734 , -0.10979182,  0.07671807,  0.40058804, -0.6209302 ,
        -0.09415937,  0.54064226, -0.23680548,  0.505495  ,  0.89663416,
         0.5821719 ,  0.08629916,  0.605819  ,  0.54470783, -0.47163284,
        -0.85984355,  0.3405695 , -0.5539701 ,  0.08273514,  0.23158789,
        -0.47107154,  0.6182561 , -0.34617403, -0.3430091 ,  0.36860052,
         0.6032112 , -0.64873695,  0.3714616 , -0.06394693,  0.18273911,
        -0.64717025, -0.3673509 ,  0.20101191,  0.77597654,  0.6582303 ],
       [ 1.0025434 ,  0.00187576,  0.3583772 ,  0.24970633,  1.0680408 ,
        -0.46830434,  0.62800384,  0.30628282,  0.6665338 ,  0.9954889 ,
         1.1958055 ,  0.41324553, -0.1521945 , -0.1371093 ,  0.7143414 ,
        -0.4829915 , -0.04796976,  0.01038514, -1.0530782 , -0.11640781,
         0.44593337,  0.2876436 ,  0.3144352 ,  0.9463792 ,  0.9846955 ,
         0.08781332,  0.18894961,  0.97388166, -0.78104687, -0.40148997,
        -0.46519884, -0.03427793,  0.515968  ,  0.553081  ,  0.58586997,
        -0.12462704,  0.1795621 ,  0.08448865,  0.44808117, -0.1142069 ,
         0.44696543, -1.0749185 , -0.91092616, -0.51700395,  0.11380105,
        -0.45504037,  0.20232871,  0.00737239,  0.5617236 ,  0.8578326 ,
        -0.48969153, -0.19375427,  0.60149646,  0.18054298, -0.40815866,
        -1.1057794 , -0.47582752, -0.42321017, -0.03560263,  0.38813832,
         0.76412463,  0.41038597,  0.7415095 ,  0.07198942, -0.67512137,
         0.19728857,  0.7305067 , -0.11900375,  0.0720811 , -0.21112305,
        -0.11254161, -0.42969474, -0.01343552,  0.7887082 ,  0.306762  ,
         0.41604704,  0.43106106,  0.14452009, -0.55707365, -0.36111107,
         0.17114328,  0.00759576,  0.82003814,  0.60731995, -0.35967028,
         0.37061876,  0.2592762 ,  1.1117553 , -0.10344242,  0.06310506]],
      dtype=float32), array([[-0.27913573,  0.56070894, -0.05437611, ...,  0.0330066 ,
        -0.3071551 , -0.10327337],
       [-0.03412655,  0.0327015 ,  0.27508694, ...,  0.23856899,
        -0.17248781, -0.02998639],
       [-0.09269292,  0.03957263, -0.06423035, ...,  0.07628012,
         0.0278829 , -0.22690357],
       ...,
       [-0.27452916,  1.7430549 , -0.02604316, ...,  0.02773488,
        -0.46830732, -0.03158842],
       [ 0.02547476,  0.12612621,  0.01011046, ..., -0.17759669,
         0.09672993,  0.45806178],
       [-0.18639553, -0.3641071 , -0.11712054, ...,  0.06960663,
         0.13183892,  0.2591499 ]], dtype=float32), array([[ 2.4197072e-01, -6.7251943e-02,  2.9511815e-01, ...,
         8.0564633e-02,  2.9497057e-02, -1.3140620e-01],
       [ 4.4866271e-02,  1.3771579e-01,  8.9592226e-02, ...,
        -1.4164896e-01, -1.0081381e-03, -4.3203873e-03],
       [ 1.0167287e-01,  1.1605171e-01, -8.7097049e-02, ...,
         4.8184164e-02,  9.7575590e-02,  7.2740771e-02],
       ...,
       [-8.9866228e-02, -4.9966067e-02, -6.4492352e-02, ...,
         1.8961057e-01, -1.8105713e-01,  1.8557610e-01],
       [ 5.8189797e-04, -1.4882948e-01,  4.9990136e-02, ...,
        -2.0826766e-03,  9.7444244e-02,  2.0097807e-01],
       [-1.4228402e-01, -1.8311277e-01, -1.7871685e-01, ...,
         2.2667035e-05,  4.0572416e-02, -2.0982582e-02]], dtype=float32), array([[ 2.47372072e-02],
       [ 1.35065466e-01],
       [ 2.11115003e-01],
       [-2.52762083e-02],
       [-1.14236653e-01],
       [-5.67648709e-02],
       [-2.30534866e-01],
       [ 2.85519987e-01],
       [-1.19416736e-01],
       [ 1.52489200e-01],
       [ 2.17239261e-01],
       [ 8.04259554e-02],
       [-5.45042045e-02],
       [-2.51113236e-01],
       [ 1.06514737e-04],
       [-6.93527237e-02],
       [ 7.01109739e-03],
       [ 2.32067883e-01],
       [ 2.17952911e-04],
       [ 2.20788449e-01],
       [-3.82089391e-02],
       [ 2.14195400e-01],
       [-1.11917801e-01],
       [-5.36499768e-02],
       [-3.67176235e-02],
       [-3.11109266e-04],
       [-2.61246283e-02],
       [ 6.15616882e-05],
       [ 2.32985511e-01],
       [ 7.32836124e-05],
       [ 2.58091867e-01],
       [-3.06106973e-02],
       [-2.49876786e-04],
       [-2.02353507e-01],
       [ 4.00018471e-04],
       [ 9.05126929e-02],
       [ 5.45151867e-02],
       [ 1.32018860e-04],
       [ 2.30194360e-01],
       [-1.49701744e-01],
       [ 1.04026377e-01],
       [ 2.03066126e-01],
       [ 8.96551609e-02],
       [ 1.34982681e-02],
       [-1.05168596e-01],
       [-1.33368492e-01],
       [ 9.58878547e-02],
       [ 5.81652042e-04],
       [ 1.01436153e-01],
       [-1.76548883e-01],
       [-1.24977436e-04],
       [-1.65014997e-01],
       [-9.55969617e-02],
       [ 1.62627488e-01],
       [ 3.02801520e-04],
       [-1.20135519e-04],
       [-1.82420850e-01],
       [ 2.13937572e-04],
       [ 2.84377128e-01],
       [-1.07005507e-01],
       [-3.48605327e-02],
       [-1.90015584e-01],
       [-1.00716226e-01],
       [ 2.44998515e-01],
       [ 1.86904581e-04],
       [ 1.61205053e-01],
       [-6.79992884e-02],
       [ 8.14720616e-02],
       [-2.18645170e-01],
       [-1.38124079e-01],
       [ 2.64129758e-01],
       [ 1.14279702e-01],
       [ 1.60072729e-01],
       [ 2.70957112e-01],
       [-1.42967081e-04],
       [-8.50913450e-02],
       [-1.71255395e-01],
       [ 5.39157307e-03],
       [-5.06088808e-02],
       [-9.06975716e-02],
       [-1.93947583e-01],
       [ 1.58124030e-01],
       [ 1.27824927e-02],
       [ 5.29437857e-05],
       [-4.60894220e-02],
       [ 7.43753985e-02],
       [-1.42935256e-04],
       [ 1.37500301e-01],
       [-9.72041637e-02],
       [ 5.87965071e-04]], dtype=float32)]


Weights_h:
[array([[ 1.5552828e-01, -1.1548480e-02, -1.6207969e-01,  1.3235476e-03,
         8.1754327e-02,  2.3658185e-01,  2.5378183e-01, -8.1035927e-02,
         1.6852993e-01,  4.4150227e-01, -2.3855504e-01,  2.3212178e-01,
         3.5063496e-01,  1.2645373e-01, -4.1935412e-04,  1.4389719e-01,
         2.0184129e-01, -6.0957227e-02,  1.1724079e-01,  5.2241530e-02,
        -8.6581834e-02,  2.2397016e-01, -2.0651679e-01,  1.6269978e-02,
        -1.1380990e-01, -4.0435016e-02,  1.1496022e-01,  1.1597490e-01,
        -8.0702655e-02,  1.8885431e-03,  4.2252496e-01,  1.8910949e-01],
       [-1.1196329e-01,  1.4413401e-01,  9.3730651e-02,  1.1044976e-01,
        -1.6705917e-01,  4.5468576e-02,  1.2718847e-01,  1.6720940e-01,
        -1.2910876e-02,  8.0172300e-02, -1.7632933e-01, -4.8867557e-02,
         1.4700533e-01, -3.4762337e-03,  1.0277905e-01,  9.1302834e-02,
         3.3724400e-01, -3.9640795e-02,  2.2209059e-01, -4.2001811e-01,
        -1.4507537e-01, -1.7779216e-01,  3.7716317e-01,  1.3297774e-01,
         3.4843314e-01,  1.7773725e-01,  1.2001168e-01,  2.0996894e-01,
        -1.3425569e-01,  2.0726646e-01,  3.7136402e-02, -4.0367147e-01]],
      dtype=float32), array([[ 0.22082266, -0.05677303,  0.28164664, ...,  0.11814401,
         0.04945686,  0.04444103],
       [ 0.12245174,  0.03758034,  0.02619482, ...,  0.04253716,
        -0.0494669 , -0.3482883 ],
       [ 0.15456516,  0.1377463 ,  0.3003883 , ...,  0.20641635,
        -0.0335812 , -0.2510453 ],
       ...,
       [-0.1346014 , -0.03169771,  0.1592409 , ..., -0.17717026,
        -0.20019571,  0.29073727],
       [ 0.12481645, -0.13146435,  0.3363038 , ...,  0.18749739,
        -0.16380243, -0.12862617],
       [-0.10075154,  0.05603448, -0.27963197, ...,  0.09459075,
        -0.23705444, -0.02715261]], dtype=float32), array([[-0.35128292, -0.2218832 , -0.26517895, ..., -0.19981778,
         0.06071639,  0.19858997],
       [-0.17046727, -0.244133  , -0.18059851, ...,  0.00832856,
        -0.06238608,  0.11112276],
       [-0.0809162 , -0.02861832, -0.31773937, ..., -0.29773763,
        -0.05322012, -0.03194536],
       ...,
       [-0.19433716, -0.00248658, -0.11294396, ...,  0.08956148,
         0.01541783, -0.08462741],
       [ 0.01282337,  0.03531352,  0.09694158, ..., -0.0456789 ,
        -0.18591687, -0.1416591 ],
       [ 0.0411277 ,  0.01714656, -0.26857227, ..., -0.03190125,
         0.08459588,  0.28972268]], dtype=float32), array([[-0.28240418],
       [ 0.1125057 ],
       [ 0.2927575 ],
       [ 0.4047762 ],
       [-0.13679433],
       [-0.172494  ],
       [-0.09840836],
       [ 0.06217964],
       [ 0.2699088 ],
       [ 0.05094178],
       [-0.4395863 ],
       [-0.07212071],
       [-0.08490133],
       [ 0.26143774],
       [ 0.15354061],
       [-0.13456596],
       [-0.19864246],
       [-0.3431897 ],
       [ 0.19174005],
       [ 0.1853083 ],
       [-0.25411168],
       [ 0.21960227],
       [ 0.04068709],
       [ 0.1287294 ],
       [ 0.34149268],
       [-0.15133168],
       [-0.15512349],
       [ 0.35480282],
       [-0.17325163],
       [-0.04281875],
       [-0.3607363 ],
       [-0.11027752]], dtype=float32)]


Weights_c:
[array([[ 9.7153848e-03, -5.5456635e-02, -3.6009213e-01, -3.9738479e-01,
         1.9763087e-01, -1.8932123e-01,  3.6570776e-02,  2.0465988e-01,
        -3.3344021e-01,  2.2680697e-01, -6.4003676e-02,  1.8413971e-01,
        -1.0204903e-01, -1.9982150e-01, -1.4626618e-01, -1.4208350e-01,
         1.8931317e-01,  2.0739883e-01,  1.8751206e-01, -3.1136385e-01,
        -1.8412383e-01,  5.1189464e-02,  1.5545608e-01,  1.3148056e-02,
        -3.5600194e-01, -4.7043297e-01,  1.0184944e-01, -7.7709235e-02,
        -4.7491256e-02,  3.7117168e-01,  1.3306753e-02, -2.6769376e-01],
       [-2.0391406e-01,  2.4424565e-01,  2.0225786e-01,  9.4125733e-02,
         1.1730316e-01, -3.9386671e-02,  1.9925314e-01,  2.9267382e-04,
        -1.3619070e-01,  2.2112033e-01,  1.1545697e-01,  3.4489900e-01,
         2.2891974e-01,  3.5937765e-01, -5.8660794e-02,  1.9125837e-01,
         8.0735339e-03,  8.7829605e-02, -1.2378151e-03,  4.3032214e-02,
        -3.8329754e-02, -1.3411783e-01, -1.5073495e-01, -3.2827917e-01,
        -5.0664108e-05, -4.2701952e-02,  6.0706489e-02, -4.6222925e-01,
         1.2678432e-01, -5.9105210e-02,  3.9712837e-01, -1.5666662e-01]],
      dtype=float32), array([[ 0.17305948, -0.05242923,  0.13039201, ...,  0.254439  ,
         0.01548668,  0.02816551],
       [-0.2945672 , -0.24087122, -0.1626728 , ..., -0.10922339,
        -0.11124414,  0.00631726],
       [ 0.14929238,  0.06051737,  0.08123555, ...,  0.1325741 ,
         0.17448589, -0.04374857],
       ...,
       [ 0.11540306,  0.13660194, -0.11530485, ...,  0.06641854,
         0.04139338,  0.03751474],
       [ 0.06938518,  0.02708964,  0.26265728, ..., -0.12408066,
        -0.04616734, -0.10042616],
       [-0.28173628,  0.01237739, -0.21065512, ...,  0.16855673,
         0.1827748 ,  0.04680277]], dtype=float32), array([[-0.22545354, -0.07187547, -0.14442419, ...,  0.11584321,
        -0.2038995 ,  0.31835875],
       [-0.30080193,  0.02214817,  0.10380074, ..., -0.23845765,
        -0.33495492, -0.05100659],
       [-0.05400572, -0.06240096,  0.1800163 , ..., -0.19848675,
         0.06801064,  0.07409856],
       ...,
       [ 0.03126961,  0.16752546,  0.0644073 , ...,  0.20145148,
        -0.20542438,  0.25677338],
       [-0.12060466, -0.15554702, -0.0442339 , ...,  0.27785528,
         0.21819408,  0.11419685],
       [ 0.03869557, -0.09189226, -0.07247018, ..., -0.19166638,
        -0.02177585,  0.11387041]], dtype=float32), array([[ 0.08609298],
       [ 0.04049498],
       [ 0.02245416],
       [-0.05016258],
       [-0.03790698],
       [ 0.31485328],
       [-0.06405962],
       [ 0.15032955],
       [-0.07535892],
       [-0.11362389],
       [-0.08638325],
       [ 0.20707814],
       [ 0.04710513],
       [-0.16217473],
       [ 0.4483355 ],
       [ 0.13482639],
       [ 0.20239249],
       [-0.05658853],
       [-0.15529232],
       [ 0.02467447],
       [-0.36174905],
       [ 0.18982193],
       [ 0.4835285 ],
       [ 0.16275583],
       [ 0.09216779],
       [ 0.13862066],
       [-0.06015594],
       [ 0.00589642],
       [ 0.23751388],
       [-0.19204564],
       [-0.15273528],
       [ 0.06234562]], dtype=float32)]


Weights_k:
[array([[ 0.08331478,  0.29509237,  0.06759695,  0.64847344, -0.49397328,
         0.4585384 ,  0.50290406, -0.26955038, -0.43285656, -0.48910278,
         0.49117228,  0.42338634, -0.18751948,  0.84185   ,  0.28712395,
        -0.64920914,  0.35382628, -0.20686492,  0.6717457 ,  0.3538655 ,
        -0.6660429 , -0.43355414,  0.3957349 ,  0.47511923, -0.12436413,
        -0.12932813, -0.4962841 ,  0.42073402, -0.4119106 ,  0.7547151 ,
         0.5730685 , -0.0793132 , -0.6074254 ,  0.7419052 ,  0.25967157,
         0.58453274, -0.5764162 ,  0.72542274, -0.06550037,  0.6163624 ,
        -0.5469075 ,  0.38184562, -0.04457035,  0.5462231 ,  0.26654094,
         0.15883084,  0.28365397,  0.69303435,  0.5129325 , -0.43069947,
        -0.5041054 ,  0.5818041 , -0.60595024, -0.5239235 ,  0.5442182 ,
        -0.52404785,  0.62563354,  0.7318262 , -0.65050846,  0.18883191,
         0.05987539,  0.2989431 ,  0.41585046, -0.53742313,  0.8773411 ,
         0.3752617 ,  0.37595344,  0.48050654,  0.49764684,  0.55901945,
         0.04240249,  0.5558843 , -0.65513957, -0.60386366,  0.3342041 ,
         0.8243836 ,  0.1723906 ,  0.4092352 ,  0.4840855 ,  0.27990565,
        -0.45932722,  0.39314628, -0.53348047, -0.46530226, -0.51127017,
         0.03210147, -0.611238  ,  0.97687614, -0.22941586,  0.03151945],
       [-0.714949  , -0.24305253, -0.49338067,  0.7570095 , -0.5642325 ,
        -0.5564376 , -0.02668574, -0.42204422, -0.6454699 , -0.32408056,
        -0.09638409, -0.1437147 ,  0.6964717 , -0.6128995 ,  0.82290345,
         0.21251574,  0.47645092, -1.1339499 ,  0.4038548 , -0.5087464 ,
         0.1836817 ,  0.283399  ,  0.08460288,  0.5691085 , -0.34838223,
         0.96439934, -0.67227376,  0.3608683 ,  0.7774222 ,  0.5715544 ,
         0.24346186,  0.12005797, -0.21040128,  0.59205043,  0.8474884 ,
        -0.401393  , -0.37971625, -0.6585041 ,  0.42309195,  0.46413517,
         0.17225648, -0.3229014 ,  0.44604447,  0.15237753,  0.49400038,
         0.66013545, -0.5036642 , -0.28822246,  0.24924007, -0.40724164,
        -0.5027315 ,  0.19621038,  0.2722535 ,  0.34394187,  0.71077114,
         0.26709527, -0.21179634, -0.46188304, -0.6610802 , -0.8583001 ,
         1.1185352 , -0.5640105 , -0.08570242,  0.1456616 , -0.25783524,
        -0.6866993 ,  0.70609534, -0.42878276, -0.0862666 ,  0.99873304,
        -0.21218608,  0.3850247 , -0.2606774 ,  0.28329065,  0.09918757,
        -0.37454277, -0.38864866,  0.983468  ,  0.0258451 ,  0.6651854 ,
        -0.5213333 , -0.45210075, -0.3418631 ,  0.13764884,  0.357153  ,
        -0.7597334 , -0.7268887 ,  0.2096333 ,  0.73483956, -0.5915809 ]],
      dtype=float32), array([[-0.1409047 , -0.57452095, -0.15165852, ...,  0.28799912,
        -0.3191708 ,  0.05887001],
       [-0.21830934,  0.4895796 , -0.10175317, ...,  0.07977506,
        -0.15760429,  0.03611318],
       [ 0.13388446, -0.13686658,  0.02900468, ...,  0.00509573,
        -0.3274105 , -0.16276027],
       ...,
       [-0.0089746 ,  0.1676644 , -0.07249013, ...,  0.12970631,
         0.12953457,  0.01096117],
       [ 0.05072393,  0.14407113, -0.08637405, ..., -0.43725902,
         0.04640501, -0.02776244],
       [-0.03221812, -0.02803096, -0.10279168, ...,  0.02381856,
        -0.18593463,  0.09696595]], dtype=float32), array([[ 0.04039557, -0.032286  ,  0.12423421, ...,  0.04545276,
        -0.01054693, -0.00859993],
       [ 0.0560035 ,  0.06741663,  0.12165877, ...,  0.02928217,
         0.19092132, -0.04144066],
       [ 0.05680422,  0.19614764, -0.14128762, ...,  0.15576816,
        -0.2195872 ,  0.21244597],
       ...,
       [-0.00194663,  0.13813868,  0.11323741, ..., -0.07322528,
         0.04715841, -0.0473083 ],
       [ 0.08036351,  0.01133452,  0.01651288, ...,  0.0823165 ,
         0.03220945, -0.01868589],
       [ 0.13920307, -0.01066733, -0.01281507, ...,  0.04677916,
         0.03914879, -0.12267213]], dtype=float32), array([[ 9.95635986e-02],
       [ 1.19340368e-01],
       [-1.69587463e-01],
       [ 3.36036757e-02],
       [ 7.16171637e-02],
       [-1.11273504e-04],
       [ 1.09066702e-01],
       [ 8.94756094e-02],
       [-3.28266859e-01],
       [ 2.64673203e-01],
       [ 2.33304366e-01],
       [ 1.52264252e-01],
       [-1.77334761e-04],
       [ 1.19160585e-01],
       [ 1.49491921e-01],
       [-1.04467966e-01],
       [ 3.18718405e-04],
       [-4.48747799e-02],
       [ 9.94773072e-05],
       [ 9.82816964e-02],
       [ 2.07423642e-02],
       [ 8.74023288e-02],
       [ 1.16121419e-01],
       [-3.76980901e-02],
       [ 9.79353338e-02],
       [ 1.80033166e-02],
       [-3.14892620e-01],
       [ 7.55158737e-02],
       [-8.25996399e-02],
       [-1.01135343e-01],
       [-1.19186819e-01],
       [-3.74091387e-01],
       [ 9.61838290e-02],
       [ 2.68719256e-01],
       [-7.98106939e-02],
       [-8.44312757e-02],
       [ 2.95291102e-04],
       [-5.55635616e-02],
       [-5.84022491e-05],
       [ 7.35909864e-02],
       [-9.42421257e-02],
       [-4.35619040e-05],
       [-1.47182401e-02],
       [ 8.35570619e-02],
       [-9.21598747e-02],
       [-1.19862504e-01],
       [ 1.02751724e-01],
       [-1.58612460e-01],
       [-8.01538816e-04],
       [ 7.49165788e-02],
       [ 1.11512780e-01],
       [ 4.50306460e-02],
       [-5.23053110e-02],
       [ 2.96224385e-01],
       [ 6.24137633e-02],
       [-2.01484561e-01],
       [ 1.63777068e-01],
       [-5.48259988e-02],
       [-5.45629151e-02],
       [-1.71919808e-01],
       [-2.56050229e-02],
       [-9.74751338e-02],
       [ 1.65898725e-01],
       [ 1.71257852e-04],
       [ 2.27314293e-01],
       [-4.10768539e-02],
       [ 7.56325796e-02],
       [-2.25712429e-04],
       [-7.51586780e-02],
       [ 4.72118296e-02],
       [-2.27998957e-04],
       [-8.22109077e-03],
       [ 1.04392417e-01],
       [ 1.50579900e-01],
       [-2.08863929e-01],
       [-2.00073227e-01],
       [-2.99598631e-02],
       [-3.89583351e-04],
       [-4.59764861e-02],
       [ 1.16991054e-04],
       [-1.35451583e-02],
       [ 2.49114037e-01],
       [ 1.00442804e-01],
       [-9.88798290e-02],
       [ 2.16899455e-01],
       [ 1.11274540e-01],
       [-6.59387410e-02],
       [ 1.93602324e-01],
       [-8.42003226e-02],
       [-2.79550254e-01]], dtype=float32)]


Weights_h:
[array([[ 1.33413941e-01, -2.57467091e-01, -2.98276931e-01,
         4.84093040e-01, -1.68937907e-01, -1.74281701e-01,
        -1.19346604e-02,  1.72100082e-01, -1.42576238e-02,
         2.83984601e-01, -9.45583731e-03,  1.70933288e-02,
        -3.59939188e-01, -3.18084538e-01,  3.62746239e-01,
         2.86121300e-04,  2.41618767e-01, -2.07917944e-01,
         2.06867918e-01,  3.52102369e-01, -8.52321759e-02,
         3.96233916e-01, -2.14078784e-01, -8.65665302e-02,
         3.94103378e-02,  1.26810730e-01, -9.67567861e-02,
        -1.10526800e-01,  9.29000899e-02, -2.42853373e-01,
        -2.42233828e-01,  1.94416329e-01],
       [-2.26941586e-01,  9.65584293e-02,  7.82252401e-02,
        -2.45745972e-01, -5.57164755e-03,  1.19128361e-01,
         1.05141491e-01,  1.51517615e-01,  1.18049115e-01,
        -9.79629308e-02, -2.36335799e-01, -1.03922658e-01,
         1.60265818e-01,  1.49214894e-01, -2.43754283e-01,
        -5.09549724e-03, -1.84286386e-01,  2.87370294e-01,
         4.31450307e-01, -4.49577093e-01,  2.13697657e-01,
        -2.20381647e-01, -1.74786717e-01, -1.86598629e-01,
         1.67360649e-01, -3.47694010e-03,  1.01985253e-01,
         9.42669511e-02, -1.98613703e-01,  1.23232834e-01,
        -7.03811944e-02,  2.08967060e-01]], dtype=float32), array([[-0.16051981, -0.03172033, -0.14623612, ...,  0.00625344,
         0.03869114,  0.25693503],
       [-0.10506209,  0.07975081,  0.05791577, ...,  0.09135875,
         0.02632286, -0.16613103],
       [-0.28537905, -0.02920446, -0.04829635, ...,  0.01626302,
         0.01131269, -0.0605102 ],
       ...,
       [-0.14452499,  0.26190254,  0.0195742 , ...,  0.20312881,
         0.12981355, -0.07938602],
       [ 0.07443239,  0.1939757 , -0.14501853, ...,  0.04964448,
         0.22768153,  0.14350417],
       [-0.0380691 , -0.07565996, -0.18330203, ..., -0.01425912,
         0.02932328,  0.0602267 ]], dtype=float32), array([[-0.18858628, -0.01499291, -0.00283174, ...,  0.06264907,
        -0.01406983,  0.00449619],
       [ 0.10439749, -0.04995112,  0.15284765, ...,  0.03754403,
        -0.03796028,  0.00881071],
       [-0.00962966, -0.12573889, -0.08784255, ..., -0.13685594,
         0.13860005, -0.10153686],
       ...,
       [ 0.24010655,  0.18509021,  0.04528935, ..., -0.1265875 ,
         0.18611175,  0.30073696],
       [ 0.04977816, -0.05632941, -0.00134981, ..., -0.28142297,
         0.093381  , -0.14462101],
       [-0.22560616,  0.26504856,  0.0143928 , ...,  0.07292166,
         0.27497074, -0.11464224]], dtype=float32), array([[ 0.0271161 ],
       [-0.23940264],
       [ 0.17537147],
       [ 0.22159088],
       [-0.05524469],
       [ 0.47433946],
       [-0.02129691],
       [-0.09409378],
       [-0.36765158],
       [-0.31332576],
       [ 0.45199823],
       [ 0.0141751 ],
       [-0.11863557],
       [-0.2411208 ],
       [-0.20935029],
       [ 0.3545497 ],
       [ 0.3944783 ],
       [-0.27307603],
       [-0.20184182],
       [-0.38534915],
       [ 0.25498736],
       [-0.28897062],
       [ 0.21345483],
       [-0.11492411],
       [-0.37209937],
       [ 0.21672937],
       [ 0.04404161],
       [-0.46836096],
       [ 0.26793942],
       [-0.34275627],
       [ 0.27000788],
       [ 0.13801   ]], dtype=float32)]


Weights_c:
[array([[-2.91012079e-02, -1.19081922e-02,  4.57314923e-02,
         3.47021013e-01, -3.46620440e-01, -3.05266589e-01,
        -1.04496166e-01, -1.13082439e-01,  7.26575851e-02,
         4.07259613e-01,  1.54576257e-01, -6.35376275e-02,
         3.50396298e-02,  4.11731750e-01,  1.22196525e-01,
         5.17050289e-02,  7.34213665e-02,  7.13780224e-02,
        -2.14392707e-01, -3.66569757e-02,  2.47727007e-01,
        -3.65377992e-01,  2.39864558e-01,  3.98151018e-02,
         3.83513600e-01, -1.20864170e-05,  3.52072448e-01,
        -2.43953630e-01, -2.22482290e-02, -1.23931304e-01,
        -7.44719729e-02, -5.90128750e-02],
       [-3.73102725e-02,  3.13711882e-01, -2.87394047e-01,
         6.74897730e-02,  2.30789676e-01,  4.73277986e-01,
         1.63457334e-01,  2.67834842e-01,  2.83210874e-01,
        -2.61291891e-01, -4.11990546e-02, -2.39355654e-01,
         4.27950434e-02, -6.05939813e-02,  5.55565506e-02,
        -6.45225570e-02, -2.71812588e-01, -9.93955955e-02,
         3.13019514e-01,  1.37336060e-01,  7.43802190e-02,
         3.78049910e-01,  1.36458099e-01, -7.79619440e-02,
        -3.76276940e-01, -1.65787220e-01, -1.65926516e-02,
        -3.29334736e-02,  1.68400466e-01,  2.75152951e-01,
         3.62108380e-01,  2.87380934e-01]], dtype=float32), array([[-0.06897471, -0.14033914, -0.08509406, ...,  0.00373188,
         0.02345668,  0.10007627],
       [ 0.08284986,  0.23735324,  0.08701025, ...,  0.05696561,
         0.22953779,  0.08127859],
       [ 0.13336061,  0.07286844, -0.12113136, ..., -0.26364285,
        -0.07715853, -0.13199969],
       ...,
       [ 0.12709369,  0.13581015, -0.02872263, ..., -0.23031557,
        -0.21964395, -0.08711708],
       [-0.02345105, -0.03322603, -0.2532483 , ...,  0.0850331 ,
         0.15466884, -0.15350112],
       [-0.10025895,  0.06888474, -0.22291927, ...,  0.15423627,
         0.12420404, -0.24055295]], dtype=float32), array([[ 0.02029868,  0.3192651 , -0.00569276, ..., -0.31451884,
        -0.19011174,  0.28018382],
       [-0.28842342, -0.20227672, -0.02752836, ...,  0.14017715,
         0.09212122,  0.09328289],
       [ 0.3487366 ,  0.03304384,  0.20333795, ..., -0.13394374,
         0.20021689,  0.22986616],
       ...,
       [ 0.05326884,  0.07421836,  0.25597316, ..., -0.05583486,
        -0.26382214,  0.1762018 ],
       [-0.06411157, -0.02629099, -0.17724735, ..., -0.07552465,
        -0.10284863, -0.08849195],
       [-0.0466877 ,  0.01486115,  0.17077021, ...,  0.05851194,
         0.07460685, -0.16065331]], dtype=float32), array([[ 0.08705557],
       [ 0.35492632],
       [-0.01082919],
       [ 0.24442615],
       [ 0.01295359],
