Weights_k:
[array([[-0.08135719,  0.06556715, -0.01205988,  0.36310196,  0.20449328,
        -0.03458231,  0.07781105,  0.27560067, -0.4089709 ,  0.18494925,
        -0.07352281, -0.24825285,  0.13336053, -0.14397539,  0.09926131,
        -0.10710745, -0.02694118,  0.02427966,  0.07361215, -0.39698866,
        -0.05538677,  0.2805283 , -0.14815778,  0.4125418 ,  0.15993847,
        -0.19804925, -0.15089948, -0.28811848,  0.2073658 ,  0.17574711,
         0.2299122 , -0.00510568,  0.3689749 ,  0.08896368, -0.17053838,
         0.22039813,  0.6010915 , -0.2697503 ,  0.21375817, -0.306341  ,
        -0.09430937, -0.395443  , -0.41355285,  0.22747104,  0.03295256,
         0.137774  ,  0.15450796,  0.24113262, -0.15069185,  0.21325375,
        -0.00184062, -0.34850973,  0.31746393,  0.10175525, -0.27928787,
        -0.31520587, -0.00523556,  0.13616988,  0.05766663, -0.00554586,
        -0.04121923, -0.2575113 ,  0.18683894, -0.09434945,  0.09044101,
         0.07931091,  0.1949943 ,  0.2660695 , -0.31564927, -0.34896576,
         0.07043482,  0.32266417, -0.03713398, -0.3481972 , -0.10202744,
        -0.22574557,  0.22892632, -0.21918444, -0.1379778 ,  0.43603542],
       [-0.0630528 , -0.23502415,  0.11210677, -0.1191153 ,  0.01506185,
        -0.08990464, -0.06920054, -0.0668873 ,  0.04728627, -0.0201528 ,
        -0.10726624, -0.14560151,  0.1230914 , -0.12430299, -0.1907119 ,
        -0.1269783 ,  0.01045312,  0.09370796, -0.04913918,  0.22585239,
        -0.11001348, -0.14121564, -0.16691536, -0.16534705, -0.29521325,
         0.04035039, -0.01709557,  0.07983317,  0.23038626, -0.01453283,
         0.2750909 , -0.02739482, -0.1523081 , -0.32611114, -0.18533273,
         0.0053434 , -0.15386978, -0.10923321,  0.08804513, -0.09711855,
        -0.11507601,  0.23654324, -0.10981826, -0.13121851,  0.0286824 ,
         0.33085296,  0.04486996,  0.2510434 ,  0.28080174, -0.15641645,
        -0.17548127,  0.22376175, -0.05009235, -0.28059843,  0.30382797,
        -0.04247307,  0.26399016, -0.21392019,  0.2188304 ,  0.17803009,
         0.36153236,  0.12654276, -0.05886307, -0.2824665 , -0.09668627,
         0.12777849,  0.00220845, -0.02637676,  0.12675202,  0.44148123,
        -0.19170803, -0.02124267, -0.34181204,  0.16384445,  0.20446791,
         0.03705519, -0.27212027, -0.02974892,  0.29827246, -0.19581044]],
      dtype=float32), array([[ 0.08047549, -0.12654445,  0.0431064 , ..., -0.06437425,
        -0.07166561, -0.1209302 ],
       [ 0.14583962,  0.17676078,  0.0053507 , ...,  0.11625938,
         0.01380962, -0.06216551],
       [-0.08498264, -0.15184706,  0.00616927, ...,  0.03908644,
         0.07536286,  0.01721659],
       ...,
       [-0.15872867, -0.33065796,  0.14227132, ..., -0.04326463,
         0.04251531,  0.00394214],
       [-0.00735437, -0.23109032,  0.02852746, ..., -0.00587629,
         0.10307489,  0.20169473],
       [ 0.15786128,  0.2689308 , -0.01819551, ...,  0.1467981 ,
        -0.1171698 , -0.00402656]], dtype=float32), array([[ 0.17414558, -0.2243637 ,  0.12354334, ...,  0.2393816 ,
         0.01361682, -0.05882477],
       [-0.12446062, -0.15944901, -0.03973484, ...,  0.13062567,
        -0.02982087,  0.0722191 ],
       [-0.05652662, -0.16177154, -0.07543277, ...,  0.09474906,
        -0.09787804,  0.05178169],
       ...,
       [-0.12076234, -0.06763719, -0.08137891, ..., -0.10631531,
         0.09230309, -0.07237516],
       [ 0.06720962,  0.13614987,  0.10201036, ...,  0.00680061,
        -0.21292193,  0.01927265],
       [ 0.18357347, -0.04885005, -0.01769425, ..., -0.07051983,
         0.01457789, -0.01213363]], dtype=float32), array([[ 1.59031942e-01],
       [ 6.36029392e-02],
       [-9.25322529e-03],
       [ 1.26424665e-02],
       [-4.35616076e-02],
       [ 1.30017236e-01],
       [ 1.92909956e-01],
       [ 7.26942867e-02],
       [-6.69655576e-02],
       [ 1.95209645e-02],
       [ 1.80396944e-01],
       [-1.56820253e-01],
       [-5.80681860e-02],
       [ 3.74913774e-02],
       [ 2.55608588e-01],
       [ 2.03708217e-01],
       [-2.00509712e-01],
       [-6.33390173e-02],
       [ 4.87609506e-02],
       [ 1.53154120e-01],
       [-1.75003633e-01],
       [-2.02455416e-01],
       [-1.07168816e-01],
       [-8.72923583e-02],
       [-1.99108720e-01],
       [-2.10530497e-02],
       [ 1.94456741e-01],
       [ 4.47964558e-05],
       [ 1.32739455e-01],
       [-2.19584316e-01],
       [ 2.34758554e-05],
       [ 1.54926762e-01],
       [ 2.87001543e-02],
       [ 2.02125590e-02],
       [ 1.21710002e-01],
       [ 1.23153292e-01],
       [ 2.36741349e-01],
       [-1.23362958e-01],
       [ 1.20655932e-01],
       [-3.12040061e-01],
       [-1.62385017e-01],
       [ 6.97312430e-02],
       [-3.20890933e-01],
       [ 2.41054431e-01],
       [-2.18676597e-01],
       [ 9.87499058e-02],
       [ 7.19894050e-03],
       [-5.90897463e-02],
       [-2.58957557e-02],
       [ 1.44439802e-01],
       [ 2.24279152e-04],
       [ 6.11532144e-02],
       [-1.17678240e-01],
       [-2.23360017e-01],
       [ 2.14261606e-01],
       [-1.82129622e-01],
       [-1.98779642e-04],
       [-1.49561703e-01],
       [-1.79199949e-01],
       [-1.54007331e-01],
       [-2.41287827e-01],
       [-3.05363983e-01],
       [-2.37197980e-01],
       [-8.55074972e-02],
       [ 5.85916303e-02],
       [ 1.59356400e-01],
       [ 1.70939580e-01],
       [ 3.40681057e-04],
       [-2.62567818e-01],
       [-7.10928962e-02],
       [-4.51644734e-02],
       [ 1.52309626e-01],
       [ 2.72690326e-01],
       [-2.45290637e-01],
       [-1.95614263e-01],
       [-2.29776159e-01],
       [-2.17116371e-01],
       [ 2.54569232e-01],
       [-1.80813983e-01],
       [ 6.71695545e-03]], dtype=float32)]


Weights_h:
[array([[ 0.14568856,  0.0427883 , -0.24494357, -0.34768084,  0.12403906,
        -0.08453072,  0.13545074, -0.04501846, -0.10312223, -0.13585359,
         0.30502224,  0.33671856,  0.10827706,  0.11763223, -0.12222837,
         0.39696944, -0.03577499,  0.08426218, -0.07125954,  0.00613714,
        -0.23424527, -0.04163045, -0.08416878,  0.30254552, -0.34226817,
        -0.23766267, -0.04486886, -0.20879053,  0.0101837 ,  0.07206345,
         0.16564794,  0.17375416],
       [ 0.00346856,  0.39501163, -0.04247865,  0.05718492, -0.46294108,
         0.15985963,  0.08958366,  0.06815035, -0.21758986, -0.245652  ,
         0.04290448, -0.28693548,  0.10382438, -0.24541831, -0.33473513,
        -0.22370315, -0.28881592, -0.32878292,  0.19366924, -0.0243009 ,
        -0.02153269,  0.00258307, -0.43086967, -0.09275589, -0.32401958,
        -0.11621533,  0.22480007, -0.08678791,  0.20522231,  0.08635533,
         0.13053833, -0.12524052]], dtype=float32), array([[ 0.14613502,  0.13872388,  0.1402741 , ...,  0.251899  ,
         0.19029291,  0.08356266],
       [ 0.2909089 ,  0.012693  ,  0.14056441, ..., -0.22259322,
         0.17874275, -0.3493558 ],
       [ 0.00450856,  0.2582141 ,  0.09719661, ...,  0.06585601,
         0.27156398, -0.07380354],
       ...,
       [-0.13177583,  0.13860631,  0.320436  , ...,  0.22266309,
         0.11515298,  0.09497961],
       [-0.32934234, -0.06933061,  0.16701901, ...,  0.23945828,
        -0.04170385, -0.21546309],
       [ 0.01153392, -0.1474798 , -0.08698559, ..., -0.18199755,
        -0.10279488,  0.05231684]], dtype=float32), array([[ 7.05821216e-02, -5.46152852e-02, -1.89709201e-01, ...,
        -2.75937468e-01, -2.03610852e-01, -1.38038620e-01],
       [-6.36903048e-02,  8.44612252e-03, -1.03535384e-01, ...,
        -3.22719038e-01, -1.41772922e-04, -7.48106092e-03],
       [ 1.97661653e-01,  1.44059375e-01, -8.65310654e-02, ...,
        -1.39062628e-02,  7.18802810e-02, -7.87372515e-02],
       ...,
       [ 2.23957852e-01,  7.22172782e-02, -1.61669962e-02, ...,
        -6.46444559e-02,  1.65832117e-02, -4.95307110e-02],
       [ 2.76551485e-01,  5.90382963e-02,  1.41858488e-01, ...,
        -1.93446189e-01,  2.73978382e-01, -1.90457731e-01],
       [-7.44643584e-02, -2.15930268e-01,  1.40060276e-01, ...,
         1.87460482e-01,  1.40545100e-01,  1.02962419e-01]], dtype=float32), array([[-0.09848686],
       [-0.18843706],
       [ 0.20386577],
       [-0.10627208],
       [ 0.10532624],
       [-0.19488737],
       [ 0.05369253],
       [ 0.35077465],
       [-0.28267416],
       [ 0.18323849],
       [ 0.35219964],
       [ 0.1987451 ],
       [-0.25650328],
       [-0.3942111 ],
       [-0.04799478],
       [ 0.13988715],
       [ 0.00692682],
       [-0.4145102 ],
       [-0.41573158],
       [ 0.42574856],
       [-0.19519965],
       [-0.38440022],
       [ 0.10127336],
       [-0.12720051],
       [ 0.01412332],
       [ 0.1001907 ],
       [-0.4699128 ],
       [-0.09748092],
       [ 0.2031211 ],
       [-0.27913523],
       [ 0.10445727],
       [ 0.34600475]], dtype=float32)]


Weights_c:
[array([[-0.436551  , -0.19577149, -0.14908943, -0.23251636,  0.21020836,
         0.01899168, -0.18862444,  0.07153811, -0.28318742,  0.08614405,
         0.16644958, -0.05243946,  0.1033326 ,  0.35956657,  0.12489102,
         0.11240142, -0.44272956,  0.18902408,  0.2457999 , -0.37412995,
         0.18249556, -0.22759682, -0.09805822,  0.23432578, -0.44437405,
        -0.07873162,  0.33763906, -0.18306339,  0.34050578,  0.34015605,
         0.10902152, -0.29574654],
       [-0.36611027,  0.2716988 , -0.297845  , -0.14435045,  0.34210795,
         0.10336805, -0.30717757, -0.18570022, -0.2744148 ,  0.07295002,
         0.08316567, -0.1886442 , -0.04990215, -0.3336338 , -0.2549983 ,
        -0.0923717 , -0.17328607,  0.4468056 , -0.2635115 , -0.21491107,
         0.10679378, -0.13244447,  0.27923778,  0.1546878 ,  0.01163447,
        -0.04222929, -0.0029199 ,  0.11461112, -0.0541359 , -0.2994231 ,
        -0.00919068, -0.14721985]], dtype=float32), array([[ 0.11665306,  0.2537795 , -0.11705668, ...,  0.00697507,
         0.07209751, -0.03910639],
       [ 0.13674262,  0.20050101, -0.04953763, ...,  0.02222706,
         0.02070728,  0.19853294],
       [ 0.3518492 ,  0.20398915,  0.08312125, ...,  0.03551027,
         0.3447903 ,  0.08161815],
       ...,
       [ 0.02204326, -0.26413402,  0.01505016, ..., -0.13244654,
        -0.00846231, -0.22384918],
       [ 0.21933721, -0.03704536, -0.1586929 , ...,  0.18279529,
        -0.08279106,  0.21981505],
       [-0.22208689,  0.041264  ,  0.201325  , ..., -0.0835606 ,
        -0.1985827 , -0.04760926]], dtype=float32), array([[-0.03064156, -0.26161763, -0.15255532, ...,  0.05586261,
         0.01343352,  0.04425788],
       [ 0.0712921 , -0.16796869, -0.09860854, ..., -0.03465192,
        -0.03304254, -0.06419692],
       [ 0.13349235,  0.1533324 ,  0.07535215, ..., -0.13567074,
        -0.10419467, -0.12308176],
       ...,
       [ 0.27622157, -0.24120644,  0.02672122, ...,  0.0235175 ,
        -0.13245907,  0.09059867],
       [-0.07116906, -0.16041829, -0.0282239 , ...,  0.19553743,
        -0.04006693,  0.11770446],
       [ 0.01839904, -0.19303663,  0.24373351, ...,  0.04492711,
        -0.00136926, -0.10089289]], dtype=float32), array([[ 0.01475844],
       [-0.06276604],
       [-0.44945487],
       [-0.01337795],
       [ 0.02571248],
       [ 0.09547279],
       [ 0.14328891],
       [-0.20065366],
       [-0.06742534],
       [ 0.00947275],
       [-0.0857871 ],
       [-0.07455337],
       [-0.09628659],
       [ 0.0506513 ],
       [ 0.02637007],
       [ 0.10461706],
       [-0.09704024],
       [-0.26791316],
       [-0.01533256],
       [-0.29926658],
       [ 0.07074825],
       [-0.00978785],
       [ 0.20001294],
       [ 0.08812054],
       [ 0.2354673 ],
       [-0.02420573],
       [ 0.10969929],
       [ 0.15924199],
       [-0.18883389],
       [ 0.0879006 ],
       [ 0.30827   ],
       [ 0.13382424]], dtype=float32)]


Weights_k:
[array([[-4.89290729e-02,  5.70346601e-02, -1.43445432e-01,
        -7.57687241e-02, -4.53804284e-02,  6.15242822e-03,
        -2.93953180e-01, -8.11689198e-02, -1.64688915e-01,
         4.55625027e-01, -2.13651005e-02,  7.70156682e-02,
        -7.87346736e-02, -3.96304429e-01, -8.36239830e-02,
        -2.60897011e-01, -1.75474770e-02, -1.31245703e-01,
         1.51092961e-01, -2.06129238e-01,  7.35115558e-02,
        -3.74089107e-02,  4.19545054e-01,  8.52679759e-02,
        -7.70202205e-02,  1.62713765e-03,  5.46127697e-03,
         2.53216829e-02, -5.24523616e-01, -1.84040088e-02,
        -2.18030214e-01,  3.29716802e-01,  4.75279201e-04,
        -2.74944216e-01, -2.16064140e-01,  6.42321259e-02,
        -1.20531328e-01, -2.90990680e-01,  1.31367221e-01,
        -2.87690669e-01,  2.18974859e-01,  1.79551497e-01,
         2.20123067e-01,  8.16713646e-02,  5.22245206e-02,
         2.34962657e-01, -4.17147934e-01,  5.28153963e-02,
         2.32968569e-01,  2.47736275e-01,  4.06351537e-01,
         9.41819325e-03,  7.33695924e-02, -2.19810471e-01,
        -9.79615282e-03,  2.48127893e-01,  2.31681287e-01,
        -1.12767503e-01,  1.51353657e-01, -3.89971212e-02,
         1.29495248e-01,  1.44164473e-01, -1.69402078e-01,
         2.50186771e-01, -2.42828086e-01, -1.24389097e-01,
        -2.79661268e-01, -3.30213904e-01,  3.33835453e-01,
         1.64281845e-01, -6.34433478e-02,  2.24159695e-02,
         3.83147895e-01, -8.87601450e-02, -3.19455385e-01,
        -1.35135189e-01, -2.38218997e-02,  3.54941010e-01,
         1.15857385e-01, -1.17805310e-01],
       [-1.46168992e-01,  1.68822497e-01,  2.21664697e-01,
        -1.01649493e-01, -1.40365198e-01,  5.19561954e-02,
         3.15832555e-01,  2.50543386e-01,  3.10693592e-01,
         1.07913688e-01, -1.48638248e-01, -2.68011272e-01,
         7.72977993e-02,  1.62891552e-01, -7.13909194e-02,
         6.56418800e-02, -1.35761186e-01, -2.47357830e-01,
        -1.69080496e-01, -5.89900743e-03,  4.06090766e-02,
        -6.72381967e-02, -3.96724716e-02, -3.14059317e-01,
         1.31131873e-01, -2.59328544e-01, -3.76962125e-02,
        -2.92901129e-01,  4.95637655e-02,  1.91828087e-01,
         1.36579489e-02, -1.68685243e-01,  5.66508854e-03,
         1.28687918e-01, -8.16304311e-02,  2.54442245e-01,
        -1.65980130e-01,  2.28739362e-02,  2.58810073e-02,
        -1.00504473e-01,  4.92272824e-02, -2.51204967e-01,
         3.92154276e-01,  8.78454372e-02, -1.74014166e-01,
         3.22576255e-01,  1.88788831e-01,  1.29088953e-01,
        -3.32241654e-02, -1.49416208e-01, -3.63235809e-02,
         2.04475686e-01, -2.78491855e-01, -4.97423261e-02,
        -3.31711844e-02, -9.11928341e-02, -6.69327676e-02,
         2.75078952e-01, -2.15038374e-01, -1.09115370e-01,
         9.31146741e-02,  2.64227986e-01, -5.27775586e-02,
        -1.73645809e-01, -2.03355163e-01,  1.99663103e-01,
        -2.42708381e-02,  1.87234893e-01, -1.50822341e-01,
        -7.98434541e-02, -1.90302104e-01, -1.23856239e-01,
        -8.00851136e-02, -8.27487260e-02,  1.22055598e-01,
        -2.25074720e-02, -6.90527707e-02, -4.07810688e-01,
        -1.34371430e-01, -1.61559358e-01]], dtype=float32), array([[ 0.00161043, -0.04461866, -0.02960048, ...,  0.01835671,
         0.2242407 , -0.05750436],
       [-0.08479829,  0.37099862,  0.04002503, ...,  0.0868563 ,
         0.12197302, -0.13475546],
       [-0.06616777, -0.06514081, -0.1688103 , ...,  0.15012403,
        -0.09316971,  0.0509012 ],
       ...,
       [ 0.14327   , -0.16015027,  0.17986797, ..., -0.14992903,
        -0.2020301 ,  0.01129401],
       [ 0.15619613, -0.18452331, -0.03192201, ..., -0.03699375,
        -0.04720736,  0.15177087],
       [-0.06505269,  0.10644998, -0.02221245, ...,  0.04740492,
        -0.15340598,  0.04828611]], dtype=float32), array([[-0.06787004,  0.08380928, -0.08976135, ..., -0.10084782,
         0.12557378,  0.04243911],
       [ 0.06905213,  0.09485252,  0.02359625, ..., -0.12415413,
        -0.21867187, -0.05754621],
       [ 0.05521715, -0.11518081, -0.0373673 , ...,  0.06801396,
        -0.08655951, -0.03919078],
       ...,
       [ 0.16892248, -0.11709757,  0.06633472, ..., -0.0735454 ,
        -0.04814376,  0.0314705 ],
       [ 0.13167985, -0.12272932,  0.03914709, ...,  0.1037031 ,
         0.06241468, -0.05886684],
       [ 0.1803955 ,  0.11294003,  0.03264285, ...,  0.11032026,
        -0.20238923,  0.06081578]], dtype=float32), array([[ 3.62167805e-01],
       [-1.04246028e-01],
       [-1.44033096e-04],
       [ 1.47579208e-01],
       [ 4.30602068e-03],
       [ 9.84201282e-02],
       [-3.68949562e-01],
       [ 1.54891610e-01],
       [ 3.24210405e-01],
       [ 1.99001789e-01],
       [-6.63447082e-02],
       [ 1.55475244e-01],
       [ 2.61466056e-01],
       [ 2.44993658e-04],
       [ 2.22143158e-01],
       [ 9.11246017e-02],
       [-2.53268605e-04],
       [-9.11537111e-02],
       [ 3.00941467e-02],
       [-2.24209309e-01],
       [-1.55824274e-01],
       [-1.72475651e-01],
       [ 1.47638157e-01],
       [ 1.55302420e-01],
       [-6.42707455e-05],
       [-2.08536949e-04],
       [ 4.34131436e-02],
       [ 1.43635962e-05],
       [ 6.44898489e-02],
       [-2.26013586e-01],
       [ 2.56961018e-01],
       [-1.78208679e-01],
       [-1.47256821e-01],
       [ 2.43944779e-01],
       [ 5.99145405e-02],
       [ 2.58040079e-03],
       [ 8.67914706e-02],
       [-1.32221001e-04],
       [-5.26792295e-02],
       [ 8.26719329e-02],
       [ 2.27249488e-01],
       [ 1.41133741e-01],
       [ 6.26368448e-02],
       [ 1.11892454e-01],
       [ 2.50129908e-01],
       [ 8.67436247e-05],
       [-1.28453135e-01],
       [-1.79879829e-01],
       [ 5.75703420e-02],
       [-1.36332149e-02],
       [-1.99009001e-01],
       [ 2.05666438e-01],
       [-4.69423868e-02],
       [ 3.65631543e-02],
       [-9.71265882e-02],
       [-1.91776425e-01],
       [-1.31151229e-01],
       [-1.97085738e-01],
       [ 2.82932729e-01],
       [ 8.39256682e-03],
       [-9.57383141e-02],
       [-1.33214056e-01],
       [ 6.39115945e-02],
       [ 1.29335731e-01],
       [ 5.73525429e-02],
       [ 8.79011303e-02],
       [ 1.41707927e-01],
       [ 6.32104054e-02],
       [-1.36594489e-01],
       [ 1.44040048e-01],
       [ 1.36449546e-01],
       [-2.37648398e-01],
       [-1.16277225e-01],
       [ 1.01512186e-01],
       [-3.17968763e-02],
       [ 5.90139702e-02],
       [-8.98533240e-02],
       [ 3.02263618e-01],
       [ 2.63289064e-01],
       [-7.19976947e-02]], dtype=float32)]


Weights_h:
[array([[-0.16667257, -0.14098442, -0.3371081 , -0.2938103 ,  0.31038827,
        -0.14485466, -0.39948893, -0.19172153, -0.07195195, -0.13461772,
        -0.06295788, -0.0570878 , -0.37470177,  0.04423603,  0.04003348,
        -0.25131515, -0.01828348, -0.00286655,  0.1424687 , -0.13803023,
        -0.14099388, -0.21372865,  0.06265498,  0.15111043,  0.0637881 ,
        -0.3842567 ,  0.0814514 ,  0.18488625,  0.27293012, -0.33196145,
         0.08002225,  0.00258938],
       [-0.1605048 ,  0.02642943,  0.36064792, -0.17233297,  0.07286545,
        -0.02350812, -0.2233314 ,  0.0720048 , -0.2646986 ,  0.23810387,
         0.13817751,  0.10486013, -0.06275598,  0.26177916, -0.09759831,
        -0.06965747, -0.13328612, -0.18019493,  0.40985096,  0.26168475,
        -0.14401527, -0.06207142,  0.0236031 ,  0.2072142 , -0.16891477,
        -0.20640516, -0.25395337, -0.0079886 ,  0.25706634,  0.28898326,
         0.06174295, -0.2862478 ]], dtype=float32), array([[-0.07952387,  0.05601887, -0.08114199, ...,  0.11496942,
         0.19842498, -0.15626514],
       [ 0.11576866, -0.10636358, -0.08431379, ..., -0.00401743,
        -0.11238188,  0.06086915],
       [ 0.01921429,  0.01835847,  0.02887561, ...,  0.02435638,
        -0.22979145,  0.02017415],
       ...,
       [-0.05570672, -0.10275162, -0.1165124 , ...,  0.08928961,
        -0.09025579,  0.02382337],
       [-0.06906956,  0.09112208, -0.25459448, ...,  0.24982288,
         0.1087403 ,  0.22040321],
       [-0.07558201, -0.06508206, -0.0545749 , ..., -0.08113257,
         0.29554686, -0.03057962]], dtype=float32), array([[ 0.02318055,  0.05314887, -0.04771667, ..., -0.01551351,
         0.00785696, -0.03070415],
       [ 0.13580392,  0.05563123,  0.20735967, ...,  0.16661893,
        -0.12942342, -0.31691745],
       [-0.26552325,  0.00763791, -0.16814883, ...,  0.02892022,
        -0.08468611, -0.1496304 ],
       ...,
       [ 0.04030946,  0.2339986 , -0.03834747, ...,  0.34941235,
         0.0725353 , -0.12587303],
       [-0.12964258, -0.23612624,  0.04492943, ..., -0.20143577,
         0.05992046, -0.15391302],
       [ 0.05161038,  0.11051093,  0.05691123, ...,  0.07618581,
         0.08538087,  0.20506121]], dtype=float32), array([[ 0.0320239 ],
       [ 0.4047919 ],
       [ 0.18547758],
       [-0.21642125],
       [ 0.1385907 ],
       [ 0.23560646],
       [ 0.01003942],
       [ 0.15534581],
       [-0.34430084],
       [-0.09889951],
       [ 0.16910109],
       [-0.17811348],
       [-0.1813838 ],
       [ 0.04572342],
       [ 0.2650643 ],
       [-0.33143377],
       [-0.05705164],
       [-0.02489571],
       [ 0.06294405],
       [-0.36889884],
       [-0.36486503],
       [-0.12024207],
       [-0.07027923],
       [-0.2844021 ],
       [-0.17836797],
       [ 0.06579563],
       [-0.01477459],
       [ 0.05191774],
       [ 0.03581678],
       [ 0.17893302],
       [-0.01134045],
       [-0.0713635 ]], dtype=float32)]


Weights_c:
[array([[-0.21855539,  0.0859611 ,  0.05785949,  0.03408356, -0.26873392,
        -0.32596388, -0.15043454,  0.05110978,  0.2057415 ,  0.1840395 ,
         0.15383962,  0.06026912, -0.09147272,  0.21124363,  0.33002204,
         0.34283423, -0.17870584,  0.01213983, -0.12984097, -0.04075257,
        -0.1937536 ,  0.13131702,  0.16435657, -0.40805823,  0.24011712,
        -0.45250282, -0.33970827,  0.3708952 , -0.09278612, -0.01306805,
         0.22326714,  0.10213867],
       [ 0.11809128, -0.0710515 ,  0.2212445 ,  0.2186606 , -0.13785253,
        -0.2892435 ,  0.30449   , -0.16764356, -0.440934  ,  0.2386299 ,
        -0.07764255, -0.45592225, -0.02357369, -0.32781643,  0.2455445 ,
        -0.3175778 ,  0.16144939, -0.1766583 , -0.08357299,  0.1619325 ,
        -0.26791215, -0.20170535,  0.15934452,  0.0870991 , -0.47853336,
        -0.33869752,  0.04722012,  0.17251417, -0.3157648 ,  0.15438317,
         0.07247742,  0.05817201]], dtype=float32), array([[-0.24019612,  0.0827605 ,  0.01939048, ..., -0.12124392,
         0.18913004,  0.11859066],
       [ 0.05264084, -0.30364797, -0.01070906, ..., -0.12660529,
         0.12226996, -0.25589588],
       [-0.11217719, -0.03921169,  0.0298625 , ...,  0.05651135,
         0.32999423,  0.18216631],
       ...,
       [ 0.26271546,  0.03622009, -0.16955745, ..., -0.1253519 ,
        -0.3051682 , -0.3070884 ],
       [ 0.20045432, -0.04249988,  0.1049904 , ...,  0.08221284,
        -0.28102383,  0.1154396 ],
       [-0.23891878, -0.00117731, -0.24787971, ..., -0.10705197,
         0.08746094, -0.10448793]], dtype=float32), array([[ 0.17363116, -0.12426404, -0.17871502, ..., -0.19528589,
         0.10295632,  0.16921656],
       [ 0.12246761,  0.2982503 , -0.11576544, ..., -0.23412669,
        -0.32905295, -0.05344482],
       [-0.04027465,  0.1161852 ,  0.22676595, ...,  0.17424907,
        -0.11921091, -0.10175683],
       ...,
       [-0.06329535, -0.00970055, -0.19573528, ...,  0.01615715,
         0.08141179, -0.20318405],
       [ 0.01822933, -0.25670868, -0.0882322 , ...,  0.02180021,
         0.22569056, -0.26289797],
       [ 0.07283358, -0.02597342,  0.2827217 , ...,  0.15197377,
         0.18653478, -0.09254892]], dtype=float32), array([[-0.04721677],
       [-0.31539735],
       [-0.21153095],
       [-0.05498205],
       [ 0.01665216],
       [-0.30080187],
       [ 0.19519201],
       [ 0.07675136],
       [-0.23347901],
       [ 0.21684225],
       [-0.13655867],
       [-0.11660205],
       [ 0.04123694],
       [-0.2378426 ],
       [ 0.34194967],
       [-0.08872461],
       [ 0.03502812],
       [ 0.04867774],
       [-0.01781973],
       [ 0.30306286],
       [-0.14985946],
       [ 0.1092234 ],
       [-0.37867755],
       [-0.02122351],
       [-0.05504847],
       [-0.11220027],
       [-0.19101469],
       [ 0.02976434],
       [-0.07292032],
       [ 0.15512271],
       [-0.32558522],
       [ 0.26215994]], dtype=float32)]


Weights_k:
[array([[ 1.35783464e-01,  4.20228511e-01, -7.54565150e-02,
        -3.90095681e-01, -1.14985287e-01, -1.09094307e-01,
        -2.73468941e-01, -2.27704942e-01, -2.23706275e-01,
         2.15881377e-01, -1.76078111e-01,  1.66088298e-01,
        -3.46627861e-01,  5.24947494e-02,  3.13275218e-01,
        -1.42996356e-01,  3.47133614e-02, -1.65374726e-01,
        -2.99898647e-02, -5.13537005e-02, -1.25528038e-01,
        -1.98349744e-01,  2.60874070e-03,  1.94041103e-01,
        -1.24556370e-01,  1.11020438e-01,  2.53628671e-01,
         2.40633786e-01, -1.72331601e-01, -2.38095477e-01,
        -1.92446578e-02, -3.39336485e-01, -1.61582559e-01,
        -1.20933190e-01, -1.92639846e-02,  5.83687536e-02,
         3.01874936e-01, -6.70312420e-02, -1.12612858e-01,
        -1.98343486e-01, -8.10153857e-02,  2.61638731e-01,
        -6.74198344e-02, -2.68075228e-01, -2.98080534e-01,
         1.85794309e-01,  6.32586896e-01,  5.89069203e-02,
         3.93499821e-01,  5.83451986e-02, -2.39657536e-01,
        -1.01557322e-01,  1.28069848e-01,  2.85604019e-02,
         5.33678420e-02,  3.68941128e-01,  8.62631015e-03,
         1.01552688e-01, -6.79061353e-01,  4.07324046e-01,
        -2.28694037e-01, -1.28913850e-01,  2.32059792e-01,
        -2.68776864e-01, -7.26121366e-02, -7.11066127e-02,
         2.87791610e-01, -3.78216475e-01,  3.15170914e-01,
        -9.74586420e-03, -2.02602044e-01, -2.70754904e-01,
        -3.41153711e-01, -3.23163241e-01, -7.96223760e-01,
         3.12738150e-01, -2.72118896e-01,  1.47198379e-01,
         2.39123970e-01, -2.35437796e-01],
       [-4.12000865e-02, -9.04150382e-02, -2.45354891e-01,
         1.36894882e-01,  3.50777507e-01,  1.09198995e-01,
         2.52005666e-01, -2.39916056e-01, -2.80623436e-01,
        -1.11120991e-01,  9.15143639e-03,  1.22409575e-01,
         8.95185545e-02,  1.78800672e-01, -1.98247477e-01,
         2.24798784e-01, -2.35679924e-01, -4.67086434e-02,
         2.69723356e-01,  3.93420070e-01,  1.69850454e-01,
        -1.68195754e-01, -1.45043328e-01,  1.98655471e-01,
         1.01445757e-01,  1.02090828e-01, -1.28184231e-02,
        -7.89677799e-02, -6.30882382e-03, -3.00125599e-01,
         3.53109300e-01,  2.91130930e-01,  3.89648914e-01,
         1.21318828e-02, -4.79411185e-02,  4.60433960e-02,
        -1.85792610e-01,  3.63249987e-01,  1.42775625e-01,
        -1.45018443e-01, -2.54894048e-01,  2.13377759e-01,
        -1.55768603e-01, -3.96944173e-02, -1.52877748e-01,
         3.79202425e-01,  7.59009868e-02, -2.99879789e-01,
        -2.44232137e-02, -1.14846490e-02, -6.90429136e-02,
        -1.59397349e-01,  2.22494557e-01,  1.91987082e-01,
         2.20653877e-01,  1.93598002e-01, -2.61738777e-01,
        -1.24861673e-01,  8.49658847e-02, -1.93169937e-01,
         4.45983931e-02, -7.93417543e-02, -7.03713968e-02,
         7.91656822e-02,  2.94908464e-01,  2.27721423e-01,
        -3.78080994e-01, -1.72723874e-01, -2.16091141e-01,
        -1.95722029e-01,  8.24673772e-02,  2.80649096e-01,
         9.34510902e-02, -5.54595143e-04,  1.61164161e-02,
        -2.29925457e-02, -5.94057068e-02, -1.99303165e-01,
        -1.32798282e-02,  4.61292900e-02]], dtype=float32), array([[ 0.03138315, -0.08171364,  0.05031305, ...,  0.02964073,
         0.07178142,  0.01723749],
       [ 0.15109198,  0.14781901,  0.16931522, ...,  0.10027039,
         0.02860333, -0.04489418],
       [ 0.02078305, -0.04912977,  0.03787751, ..., -0.05311584,
         0.012438  , -0.01179989],
       ...,
       [ 0.09450985, -0.00976624,  0.11572656, ...,  0.20199223,
         0.14649816, -0.14650492],
       [ 0.19726406, -0.11268753, -0.05748991, ..., -0.01169423,
         0.07145087,  0.17393349],
       [-0.1340717 ,  0.09957886,  0.00605563, ..., -0.0149046 ,
        -0.02846234, -0.25893426]], dtype=float32), array([[ 0.04065319,  0.05519516, -0.13167965, ...,  0.07134615,
         0.12402117,  0.16426611],
       [ 0.03705287,  0.20706642,  0.02303547, ...,  0.14011596,
        -0.03663681, -0.15986939],
       [-0.01579358, -0.0298257 ,  0.16699837, ..., -0.02481064,
         0.08857599,  0.03658555],
       ...,
       [-0.06920607, -0.13192599,  0.02680445, ..., -0.09874131,
         0.06795704,  0.07372333],
       [ 0.09464885,  0.02775737,  0.10779124, ...,  0.0788188 ,
        -0.11222781, -0.08281537],
       [ 0.03282116,  0.18259227, -0.14207292, ..., -0.07641705,
        -0.0552564 ,  0.04247991]], dtype=float32), array([[-2.48487905e-01],
       [-9.51112509e-02],
       [-2.21121490e-01],
       [-7.06137717e-02],
       [-3.21748257e-02],
       [-1.52352415e-02],
       [-1.75067574e-01],
       [ 2.18472570e-01],
       [ 3.27477610e-04],
       [ 9.26982015e-02],
       [-4.59656529e-02],
       [-2.72960570e-02],
       [ 3.16875288e-04],
       [ 3.33479531e-02],
       [ 2.04215094e-01],
       [-1.71967506e-01],
       [ 1.59604013e-01],
       [ 2.50716031e-01],
       [-1.18491292e-01],
       [-2.40433186e-01],
       [ 2.65718967e-01],
       [-2.51692683e-01],
       [ 2.86020219e-01],
       [-5.88971379e-05],
       [-8.04781541e-02],
       [ 5.73023893e-02],
       [-8.22151974e-02],
       [ 2.14560464e-01],
       [ 4.68106195e-02],
       [ 2.44461328e-01],
       [-2.63901856e-02],
       [ 3.01118612e-01],
       [-1.04306221e-01],
       [-1.10381901e-01],
       [ 3.78457422e-04],
       [ 2.94777974e-02],
       [-1.50714234e-01],
       [-1.38163269e-01],
       [ 7.29778856e-02],
       [-1.49707526e-01],
       [ 1.55398294e-01],
       [ 1.79092988e-01],
       [ 1.22284450e-01],
       [ 3.37744132e-02],
       [ 2.71453168e-02],
       [ 1.31679684e-01],
       [-8.53559673e-02],
       [ 9.62660760e-02],
       [-2.69981771e-04],
       [-1.32589474e-01],
       [ 1.16837032e-01],
       [-3.09969168e-02],
       [ 1.25386328e-01],
       [ 1.88213676e-01],
       [-4.42679748e-02],
       [-1.38889402e-01],
       [ 3.11944515e-01],
       [ 2.04679459e-01],
       [ 1.43511459e-01],
       [-9.90828350e-02],
       [ 1.64111629e-01],
       [-4.16224711e-02],
       [-2.21003592e-01],
       [ 2.27120861e-01],
       [ 2.31953070e-01],
       [-6.53170794e-02],
       [ 1.46949485e-01],
       [-8.98204818e-02],
       [-2.66406331e-02],
       [-9.96042714e-02],
       [-3.07031333e-01],
       [ 2.35085845e-01],
       [-1.08797699e-01],
       [-2.36370310e-01],
       [ 1.23042129e-02],
       [ 6.17597885e-02],
       [ 1.08095907e-01],
       [ 2.79441737e-02],
       [-1.64328441e-01],
       [ 1.09951109e-01]], dtype=float32)]


Weights_h:
[array([[-0.3847942 , -0.04948629,  0.24677642, -0.23875709,  0.05156523,
        -0.20742881, -0.21824352, -0.06401967, -0.27852044, -0.02240024,
         0.25755304,  0.18873529, -0.03202347,  0.23602533, -0.03530238,
         0.16433482, -0.05650025,  0.05088195, -0.06550679, -0.1382626 ,
         0.11936234,  0.02564701,  0.06707189, -0.26239616, -0.10346323,
         0.09673453, -0.21234682, -0.09207831, -0.17807688,  0.15526433,
        -0.29707652, -0.03676382],
       [-0.33513674, -0.18489185,  0.06239164, -0.19025156, -0.0101442 ,
        -0.04081805, -0.11376446, -0.04229528, -0.24654998,  0.2349803 ,
         0.20441197,  0.17320421, -0.1103617 ,  0.3836468 , -0.00348098,
        -0.35042274,  0.00902804, -0.3705562 ,  0.2899864 ,  0.18666182,
        -0.02002633, -0.37947112, -0.01253294, -0.12768048, -0.3302281 ,
        -0.01156785,  0.14746457,  0.0364135 ,  0.25202355, -0.25384378,
        -0.04984817, -0.21131259]], dtype=float32), array([[ 0.09194116, -0.17335773,  0.09601409, ..., -0.07172847,
         0.09723873, -0.12559257],
       [ 0.0792105 ,  0.03344706,  0.11776788, ...,  0.12338252,
         0.20829958, -0.05623387],
       [ 0.02874343,  0.02338286, -0.04900435, ...,  0.12100572,
         0.03710907,  0.0522728 ],
       ...,
       [-0.25116593, -0.08184017,  0.24272752, ...,  0.10158588,
         0.32422888, -0.23551747],
       [-0.17285287, -0.3381873 ,  0.03805894, ..., -0.09182721,
         0.16076602,  0.16624102],
       [-0.02222054, -0.21406713,  0.03391899, ...,  0.11497474,
        -0.12312885, -0.03046631]], dtype=float32), array([[ 0.01018026, -0.03925708,  0.21420872, ...,  0.09495685,
        -0.18163879, -0.11779539],
       [ 0.0113268 , -0.2960281 , -0.26057416, ..., -0.11653978,
         0.02164994, -0.21261981],
       [ 0.0042045 ,  0.07931965, -0.3090617 , ...,  0.05754375,
        -0.03637549,  0.07554075],
       ...,
       [-0.09785339,  0.19730261,  0.19000147, ...,  0.1329379 ,
         0.18629673,  0.0533314 ],
       [ 0.03400845, -0.0655346 , -0.08878192, ..., -0.00805781,
         0.00066319, -0.08710948],
       [ 0.01120411, -0.20655243,  0.07101776, ...,  0.01610675,
         0.1589889 , -0.32596985]], dtype=float32), array([[-0.01565349],
       [ 0.11162023],
       [-0.3251682 ],
       [-0.03965157],
       [ 0.05331318],
       [-0.00968867],
       [ 0.3363216 ],
       [-0.07715577],
       [ 0.4663127 ],
       [ 0.3354981 ],
       [ 0.06902552],
       [-0.24426116],
       [-0.13933954],
       [-0.0180802 ],
       [-0.18084541],
       [ 0.1622704 ],
       [ 0.16364646],
       [ 0.24967502],
       [ 0.20082943],
       [ 0.04129044],
       [ 0.37992406],
       [ 0.08060747],
       [-0.2853554 ],
       [ 0.0861797 ],
       [-0.32356298],
       [ 0.10788144],
       [-0.34842527],
       [-0.17330487],
       [-0.03875805],
       [-0.43936598],
       [-0.35634166],
       [-0.08395713]], dtype=float32)]


Weights_c:
[array([[-0.13622867,  0.42338312, -0.15675224, -0.32363656, -0.17980838,
         0.05629794, -0.07583773,  0.30347443, -0.1349772 ,  0.24305099,
        -0.4092207 , -0.3735009 ,  0.09488913, -0.33440706, -0.05949428,
        -0.29759374, -0.19795848, -0.35358143, -0.06076776, -0.05803337,
         0.15161946, -0.04768752, -0.2998307 , -0.15278476, -0.35588375,
        -0.08726347,  0.00589391,  0.28316075, -0.13023134,  0.41367993,
         0.4020938 , -0.1483381 ],
       [ 0.08978734, -0.00890773,  0.11880561,  0.23088348, -0.0555931 ,
        -0.14995074,  0.273828  ,  0.17952684,  0.21569912,  0.10075775,
        -0.21407801, -0.04635951, -0.19050644,  0.24149464, -0.2934903 ,
        -0.32948896, -0.02040687,  0.4164493 , -0.0814971 ,  0.45980972,
         0.00654618,  0.3216357 , -0.25729465, -0.10112642,  0.2957573 ,
         0.31495658, -0.12426634,  0.2900583 , -0.27321368, -0.19987638,
         0.2101588 ,  0.1513096 ]], dtype=float32), array([[ 0.29732078,  0.03540108,  0.1635939 , ...,  0.19236319,
        -0.1472768 ,  0.0139805 ],
       [ 0.19454236, -0.08634178,  0.10947739, ...,  0.03405735,
        -0.14790235, -0.0009466 ],
       [-0.0088187 , -0.21634892, -0.01317325, ..., -0.04822404,
         0.01997719,  0.07304514],
       ...,
       [-0.11606478,  0.09968559, -0.1909063 , ...,  0.02873203,
         0.19393866,  0.06193072],
       [ 0.00252427, -0.2394489 , -0.12123157, ..., -0.05189986,
        -0.17629506,  0.18243061],
       [-0.05971986,  0.19113524,  0.05141175, ...,  0.07302216,
        -0.01481896, -0.04089622]], dtype=float32), array([[-0.00089215,  0.1211469 , -0.05319216, ...,  0.16930425,
         0.12946188,  0.0407088 ],
       [-0.08425625, -0.33784568, -0.06500454, ..., -0.18562123,
         0.13479383, -0.00340043],
       [ 0.10126544,  0.0596708 , -0.3345778 , ..., -0.0576431 ,
         0.12685978, -0.22224922],
       ...,
       [-0.11011127, -0.05950799,  0.22059968, ..., -0.02914822,
        -0.03456303,  0.02283335],
       [-0.18414769,  0.20103744,  0.3129413 , ..., -0.17992538,
        -0.14682287, -0.0979409 ],
       [ 0.09176545, -0.15499635, -0.13979758, ..., -0.01998837,
         0.21740592, -0.00665311]], dtype=float32), array([[-0.02168287],
       [-0.03359716],
       [-0.34869012],
       [ 0.38278785],
       [-0.07443333],
       [ 0.12078632],
       [-0.05771888],
       [-0.21379422],
       [ 0.07108034],
       [-0.37464947],
       [ 0.37116486],
       [-0.1801672 ],
       [-0.12809238],
       [ 0.03691423],
       [ 0.01316369],
       [ 0.2842414 ],
       [-0.06493585],
       [ 0.09263818],
       [-0.15633747],
       [-0.15200108],
       [-0.30846697],
       [ 0.21564965],
       [-0.48064598],
       [-0.33955863],
       [ 0.13439439],
       [-0.00347315],
       [-0.2916215 ],
       [-0.20961083],
       [ 0.09588093],
       [-0.06549325],
       [ 0.19615898],
       [ 0.06145195]], dtype=float32)]


Weights_k:
[array([[ 0.15368994,  0.4352237 , -0.0525847 , -0.22119434,  0.35395932,
         0.2069014 , -0.06407972, -0.06779484,  0.2003777 ,  0.23650263,
         0.12640157, -0.62646735, -0.16325614,  0.13086736, -0.228673  ,
        -0.25547096, -0.28977647, -0.10504626,  0.41515917,  0.02862881,
         0.20362464, -0.01604444,  0.23332112, -0.30973512,  0.14471734,
         0.23456044,  0.02343382, -0.23135358, -0.09664755,  0.30539346,
         0.11720337,  0.07043616, -0.14012882,  0.16653275,  0.24871844,
        -0.08353251, -0.29087803,  0.26805216,  0.1945691 , -0.04741925,
        -0.271685  ,  0.1258752 ,  0.16564813,  0.21752968,  0.24028297,
         0.13888952,  0.07084911, -0.12424953,  0.03792733,  0.03362511,
         0.07917259, -0.1977458 , -0.17953445, -0.01309242,  0.2107529 ,
        -0.0932577 , -0.12313151, -0.3211769 , -0.3093595 ,  0.21326534,
        -0.44290578,  0.2071976 , -0.05450319, -0.4494889 , -0.08486515,
         0.20729995, -0.31753665, -0.13896748, -0.26419124, -0.14128493,
         0.15693164, -0.30973443, -0.179206  , -0.28830323,  0.30011016,
        -0.1828519 ,  0.06317729,  0.4652584 ,  0.01009768,  0.13283493],
       [ 0.13643882,  0.18971707,  0.0945387 ,  0.01502195, -0.23478927,
        -0.07802799,  0.22986999,  0.20574895, -0.05588581, -0.27674335,
        -0.00658556, -0.06796698,  0.15397386,  0.00707898, -0.39515266,
        -0.01070608, -0.17162614, -0.11420031, -0.2709583 ,  0.07530432,
         0.09836435, -0.23698819,  0.12476434,  0.23022945, -0.21139084,
        -0.17912567, -0.25304815, -0.28407755, -0.20001967, -0.31491554,
        -0.40740752,  0.11323188,  0.15402369, -0.14329691, -0.0505272 ,
         0.11293288,  0.13354556,  0.04174002, -0.02658438, -0.3146524 ,
         0.11621226,  0.0444081 ,  0.04607465, -0.19962646, -0.38653126,
         0.0032264 ,  0.08352677, -0.00961572, -0.1045642 ,  0.22677639,
         0.0468525 , -0.02789531,  0.05499107,  0.3059948 ,  0.06486237,
        -0.33275965,  0.26698223,  0.06657166,  0.06389567,  0.0748672 ,
         0.2937081 , -0.11532165,  0.2892123 , -0.06405302, -0.01551024,
         0.06625245, -0.00443678,  0.0984574 ,  0.14037523, -0.14304878,
         0.19004592, -0.13907462,  0.04828472,  0.0681477 , -0.00709912,
        -0.13080594,  0.1312865 ,  0.24721946, -0.00600442, -0.15291151]],
      dtype=float32), array([[-0.25717762,  0.2164349 ,  0.03044707, ..., -0.04040726,
         0.0616066 ,  0.02355242],
       [-0.11505488, -0.01868206, -0.02269483, ..., -0.14699394,
        -0.04660177, -0.06549926],
       [ 0.05777686,  0.07578553, -0.08054724, ..., -0.01031412,
        -0.05704207, -0.09685049],
       ...,
       [ 0.03077466,  0.08006984,  0.13141166, ..., -0.11046399,
         0.0879643 ,  0.19561519],
       [-0.00816806,  0.03766194, -0.03386943, ..., -0.01583598,
         0.15444387,  0.12257305],
       [ 0.07413767, -0.11204932,  0.06685307, ..., -0.22100084,
         0.04325924,  0.11878828]], dtype=float32), array([[-0.03994423,  0.11090184,  0.04172619, ...,  0.20130098,
        -0.02645696,  0.11488724],
       [ 0.21021478,  0.11093719, -0.02138257, ...,  0.03163262,
         0.00146652,  0.01027618],
       [ 0.06693281, -0.07021464, -0.16297701, ..., -0.08960944,
         0.11226851, -0.16467011],
       ...,
       [ 0.15805507, -0.03831949,  0.06238864, ...,  0.02825044,
         0.16393605,  0.12817942],
       [ 0.24842717, -0.08300913, -0.21545717, ..., -0.05445669,
        -0.00401622, -0.2076266 ],
       [ 0.01456096,  0.05092616, -0.07757459, ..., -0.07068387,
        -0.20527945,  0.06049163]], dtype=float32), array([[ 6.14003465e-02],
       [-2.10913837e-01],
       [ 6.57241493e-02],
       [ 5.90618141e-02],
       [-1.62242413e-01],
       [ 1.39832571e-01],
       [ 1.40757356e-02],
       [ 1.19347408e-01],
       [ 2.19484955e-01],
       [-3.65114916e-04],
       [ 2.52047509e-01],
       [-6.73186928e-02],
       [-2.46609151e-01],
       [-2.35214889e-01],
       [ 2.32112825e-01],
       [-2.14006901e-02],
       [-3.45453471e-02],
       [-2.11365089e-01],
       [-8.27402174e-02],
       [-9.56222489e-02],
       [-1.01010457e-01],
       [-1.28147155e-01],
       [-1.34832663e-02],
       [ 2.60840356e-02],
       [ 1.04758196e-01],
       [-2.57300347e-01],
       [-5.33629097e-02],
       [-1.37858495e-01],
       [-4.87008467e-02],
       [-6.75330758e-02],
       [ 8.98469165e-02],
       [-2.91261762e-01],
       [-9.91114527e-02],
       [-2.07869554e-04],
       [ 1.86899841e-01],
       [-1.31624058e-01],
       [-1.24959461e-01],
       [-7.15749860e-02],
       [ 2.08751142e-01],
       [-2.06074923e-01],
       [-2.42043175e-02],
       [-1.77939340e-01],
       [ 6.51566461e-02],
       [-1.55549914e-01],
       [-1.13800671e-02],
       [-3.01898807e-01],
       [ 3.37445468e-04],
       [ 2.16243669e-01],
       [-1.80485047e-04],
       [ 1.59621060e-01],
       [ 5.27125085e-03],
       [-1.13589332e-01],
       [-2.86593854e-01],
       [ 2.07029996e-04],
       [-6.93930197e-05],
       [ 3.48695703e-02],
       [ 1.19275302e-01],
       [-1.25256581e-02],
       [ 2.45877609e-01],
       [ 4.38900515e-02],
       [-3.38675641e-02],
       [-2.76765168e-01],
       [ 2.62130141e-01],
       [-1.81259215e-01],
       [ 1.51754647e-01],
       [-5.00391200e-02],
       [ 2.80456364e-01],
       [-8.71325955e-02],
       [-5.78515269e-02],
       [ 1.91803649e-01],
       [ 2.32256174e-01],
       [-2.15523139e-01],
       [ 2.05623776e-01],
       [-9.03650895e-02],
       [ 3.16361664e-04],
       [-1.40548646e-01],
       [-4.36981488e-03],
       [ 1.57136023e-01],
       [ 9.00204629e-02],
       [-7.14711174e-02]], dtype=float32)]


Weights_h:
[array([[-0.30400786,  0.01792022,  0.06938045,  0.02330546, -0.06868703,
         0.37080288,  0.01202486,  0.01886149,  0.10361246, -0.15670668,
        -0.03693129, -0.2700748 ,  0.06063279, -0.04794429, -0.18770742,
        -0.43031457,  0.0885537 , -0.03981707, -0.08119503, -0.16214885,
         0.11414637, -0.3256369 ,  0.278451  ,  0.2964988 ,  0.11967512,
         0.32852736,  0.4801364 , -0.19182198,  0.19292532, -0.03105825,
         0.21247259,  0.12212262],
       [-0.08988723,  0.07390318,  0.05101496, -0.20506227,  0.26010945,
        -0.01923952, -0.23306885, -0.21306822,  0.12720756,  0.13766392,
        -0.21740034, -0.15015253, -0.3117034 ,  0.01175536,  0.29495478,
        -0.13960005, -0.14602302, -0.05989897, -0.09021899, -0.08428376,
        -0.0036646 , -0.266173  ,  0.26125628,  0.09124697,  0.01502525,
         0.06828384, -0.28480273, -0.00621608, -0.3989994 ,  0.00568015,
         0.43112308,  0.03681706]], dtype=float32), array([[ 0.11569422, -0.04723977,  0.3084169 , ..., -0.07265962,
         0.22303168, -0.21699463],
       [-0.11422396,  0.17824996, -0.0464906 , ..., -0.19711742,
         0.01816284,  0.02020247],
       [ 0.17763181, -0.25119373, -0.1642591 , ..., -0.25231907,
         0.03841883, -0.05415213],
       ...,
       [ 0.18433015,  0.23024501, -0.3433169 , ..., -0.11828477,
         0.17955808,  0.16050485],
       [-0.2366715 ,  0.0713651 , -0.25627568, ...,  0.27950966,
         0.28516105,  0.07738235],
       [-0.05673158, -0.27202567, -0.13438535, ..., -0.06205755,
        -0.12946098,  0.01012141]], dtype=float32), array([[ 0.05054799,  0.05766766,  0.25051004, ...,  0.03549561,
         0.15792166,  0.23611781],
       [-0.17571624,  0.1661249 , -0.31310213, ..., -0.27999386,
        -0.01309361, -0.04667158],
       [-0.21247248,  0.14322577,  0.05542572, ..., -0.09773356,
         0.13901141, -0.23091306],
       ...,
       [ 0.29810798,  0.16447218,  0.09788392, ..., -0.14747761,
        -0.31281254, -0.13939558],
       [ 0.0925322 ,  0.05173494,  0.20474224, ..., -0.19036953,
        -0.19046192, -0.27849728],
       [ 0.0337874 ,  0.23531835, -0.05128616, ..., -0.20331149,
        -0.14286007,  0.06216659]], dtype=float32), array([[-0.12511268],
       [-0.1893171 ],
       [-0.31220916],
       [ 0.2434964 ],
       [ 0.23665056],
       [ 0.0123227 ],
       [ 0.47079128],
       [-0.2175555 ],
       [-0.01930456],
       [-0.21869287],
       [ 0.20425278],
       [ 0.30568588],
       [ 0.21341772],
       [-0.08333297],
       [ 0.2469635 ],
       [-0.12570496],
       [ 0.04697948],
       [-0.3927118 ],
       [ 0.48104247],
       [-0.08670194],
       [-0.23502035],
       [ 0.06826956],
       [ 0.20307343],
       [-0.04939986],
       [ 0.30004272],
       [-0.252164  ],
       [-0.04778063],
       [-0.14081118],
       [ 0.1551775 ],
       [ 0.26574823],
       [-0.00438787],
       [ 0.06894805]], dtype=float32)]


Weights_c:
[array([[-0.13442113,  0.19845286,  0.09708432,  0.40922683, -0.36279464,
        -0.29366985,  0.13334762,  0.19582412, -0.36474195, -0.00639213,
         0.16563483, -0.07134784,  0.10933784,  0.16500331,  0.05301572,
        -0.21443018, -0.22199033,  0.19119225,  0.3372994 ,  0.35366562,
         0.1364199 , -0.18138339,  0.04972997, -0.16778229, -0.16920207,
        -0.12581487,  0.12767327, -0.14963128,  0.3119879 , -0.14133012,
         0.23281942,  0.25819734],
       [ 0.1487653 , -0.32936358, -0.07373161,  0.13086993, -0.370247  ,
        -0.02450482, -0.19813125, -0.33103657,  0.07152235,  0.10551912,
        -0.03737341, -0.28994802, -0.08255294,  0.25516197, -0.16769898,
        -0.03791162, -0.15366833,  0.08617391,  0.01770783,  0.3197725 ,
         0.10101067,  0.02484412, -0.08822213, -0.00227069, -0.05929791,
        -0.22289096,  0.34699023, -0.47490385,  0.32694906, -0.30304962,
        -0.23912951,  0.00561153]], dtype=float32), array([[ 0.06139038, -0.14951885,  0.12830696, ..., -0.07389957,
        -0.26557326,  0.14496595],
       [ 0.2894069 , -0.266369  , -0.03214949, ..., -0.01776998,
         0.05788056, -0.06198962],
       [ 0.02053292,  0.01680291, -0.0542418 , ..., -0.15697622,
        -0.05625335,  0.13148633],
       ...,
       [-0.30171463,  0.2308341 , -0.0315115 , ..., -0.00481637,
         0.11398295,  0.07938053],
       [ 0.06103221, -0.05772445,  0.12204749, ...,  0.17899142,
         0.1825149 ,  0.10094772],
       [ 0.18110369,  0.10372639,  0.12031326, ..., -0.03262603,
        -0.04672311, -0.17034456]], dtype=float32), array([[-0.1871115 , -0.02301693, -0.06045176, ..., -0.00649628,
         0.14063711,  0.07507982],
       [ 0.17728989,  0.107947  ,  0.07035647, ...,  0.29785442,
        -0.09396828,  0.18469846],
       [ 0.14216708,  0.13490656,  0.1967732 , ..., -0.09733833,
         0.15251693,  0.00948957],
       ...,
       [-0.17658044,  0.23159759, -0.3381804 , ..., -0.10576715,
         0.14067194,  0.05445183],
       [ 0.04000979, -0.1588569 , -0.1999719 , ..., -0.17903924,
        -0.05965688,  0.13578263],
       [-0.10473091, -0.00378662,  0.2004241 , ...,  0.27385694,
         0.29562017, -0.01813447]], dtype=float32), array([[-0.00594524],
       [-0.254245  ],
       [-0.1919461 ],
       [ 0.07142402],
       [ 0.02193999],
       [-0.11047361],
       [ 0.12381399],
       [-0.20115456],
       [ 0.16134983],
       [-0.10313765],
       [ 0.1157281 ],
       [ 0.12451386],
       [ 0.19572425],
       [-0.45730788],
       [ 0.36600986],
       [ 0.01748684],
       [-0.34259507],
       [ 0.10353127],
       [-0.18891682],
       [ 0.10702197],
       [ 0.11450938],
       [ 0.25676802],
       [-0.26005375],
       [-0.11707489],
       [ 0.310538  ],
       [ 0.2419247 ],
       [-0.33584556],
       [-0.03312165],
       [ 0.29492825],
       [-0.04745822],
       [ 0.28261483],
       [-0.01298675]], dtype=float32)]


Weights_k:
[array([[-2.03456152e-02, -1.61195993e-01,  3.16080838e-01,
        -1.15229301e-01,  4.29448456e-01, -9.00732949e-02,
         2.90324807e-01,  2.90942609e-01, -1.08888090e-01,
        -1.97250862e-02,  2.09335446e-01,  3.82396542e-02,
        -2.18076613e-02,  3.63548964e-01,  1.45712355e-02,
        -3.43223393e-01, -5.78487515e-01,  1.58618584e-01,
        -2.80057937e-01, -2.48999536e-01, -2.56071180e-01,
         5.18411696e-02,  6.62998185e-02, -2.80305684e-01,
        -6.09916970e-02, -3.89482945e-01, -1.38401330e-01,
        -2.90824145e-01,  1.59108639e-01, -1.16893530e-01,
        -1.39636561e-01, -1.36863813e-01, -2.11103618e-01,
        -1.12011544e-01, -1.16502851e-01,  3.16329598e-02,
         1.51260957e-01,  2.09333941e-01,  3.78370643e-01,
         2.65769988e-01, -2.15616412e-02, -2.34731346e-01,
        -1.58004686e-01,  2.23715920e-02,  2.70910591e-01,
         3.11591327e-01,  4.40937370e-01,  1.18109867e-01,
         1.52239785e-01,  3.02826315e-01,  1.14700973e-01,
         3.07602942e-01,  1.93192869e-01,  1.45574465e-01,
        -3.07603002e-01,  2.28730515e-02,  1.33384809e-01,
         3.39408010e-01,  1.84273094e-01,  2.66822398e-01,
        -1.29891053e-01,  2.30816737e-01,  1.23792335e-01,
         3.59290123e-01,  1.68810308e-01, -1.24212824e-01,
         1.84648752e-01,  2.75033712e-01, -3.41676734e-02,
        -3.02734878e-02,  1.28645441e-02,  3.86399657e-01,
         2.87431955e-01,  3.43630731e-01, -8.80742893e-02,
         5.15634120e-01,  3.93845625e-02, -3.42391804e-02,
        -1.47552043e-01,  3.97155702e-01],
       [-7.51408339e-02,  1.44916072e-01, -1.31618544e-01,
         1.65357098e-01, -8.34551677e-02, -1.89522758e-01,
         2.61974007e-01, -3.63421768e-01,  9.96436179e-02,
        -8.55470970e-02,  1.24781966e-01,  1.22543015e-01,
         1.22865111e-01,  2.18935870e-02,  1.12228678e-03,
        -2.48341840e-02,  3.23973596e-02, -1.44197159e-02,
        -2.38626391e-01,  4.36736532e-02,  2.80835450e-01,
         3.03174168e-01, -2.57830799e-01,  5.70360273e-02,
        -1.01788178e-01,  9.41550508e-02,  7.42633045e-02,
         1.29089713e-01, -3.30374420e-01,  2.20723897e-01,
         6.46732077e-02, -3.30049992e-01,  1.78430662e-01,
         1.92198262e-01, -2.48486489e-01,  3.10786963e-01,
        -1.04031034e-01,  2.25215852e-01, -3.85707647e-01,
        -8.89808014e-02,  4.04117815e-02, -2.39880644e-02,
         2.38245130e-01,  1.72249690e-01,  9.75311846e-02,
        -1.27267381e-02, -1.91791698e-01,  1.42475769e-01,
        -1.81071714e-01,  1.62735509e-04, -1.24387942e-01,
        -1.28714576e-01,  1.02939844e-01, -9.94209386e-03,
         1.24210551e-01, -8.07972997e-02, -1.70529932e-01,
        -2.32188612e-01, -2.15248421e-01,  4.08996582e-01,
         5.75390384e-02,  1.34749964e-01, -3.25776227e-02,
        -1.01635419e-01,  2.29500234e-01,  2.98958182e-01,
         1.13166705e-01,  3.25520188e-01,  3.71395126e-02,
         3.17161053e-01,  8.01255554e-02, -1.12583801e-01,
        -4.27634120e-02, -1.16442442e-01,  2.80702800e-01,
        -1.71893701e-01, -1.11469831e-02,  2.06346169e-01,
        -5.48226573e-02, -4.28809643e-01]], dtype=float32), array([[ 0.10084067,  0.15890624, -0.17270951, ..., -0.01940043,
         0.17887907, -0.22955127],
       [-0.12891535, -0.00366293,  0.05300085, ..., -0.08335882,
        -0.14322053,  0.08738777],
       [ 0.07858729,  0.19813633,  0.15157342, ...,  0.0784933 ,
        -0.2181299 , -0.05222229],
       ...,
       [ 0.18014035,  0.00857836,  0.15191557, ..., -0.18922795,
        -0.15218656,  0.11233258],
       [-0.10223132,  0.16537412, -0.17188972, ..., -0.01691166,
        -0.02935073,  0.01338109],
       [-0.10436189,  0.079381  , -0.06663661, ...,  0.07608791,
        -0.05496748, -0.04375097]], dtype=float32), array([[ 0.01913111,  0.02803093, -0.03894095, ..., -0.16360626,
         0.31387216,  0.19920737],
       [-0.09542406,  0.02943983, -0.16182765, ..., -0.10687371,
        -0.33588845, -0.07888453],
       [-0.11945067, -0.21575122, -0.05013567, ...,  0.13797002,
         0.0827352 ,  0.07206721],
       ...,
       [-0.03703354, -0.04277268,  0.02367071, ...,  0.09477267,
        -0.06328782, -0.02236329],
       [ 0.01295947,  0.02837788, -0.07361331, ...,  0.00411539,
        -0.33473423,  0.00156908],
       [ 0.0545385 ,  0.13580886,  0.06458431, ...,  0.04656608,
        -0.13202769, -0.11661983]], dtype=float32), array([[-2.5529542e-04],
       [ 8.0844667e-03],
       [-9.0832077e-02],
       [-1.1601804e-01],
       [-2.6986670e-01],
       [-7.6906011e-02],
       [-1.7519524e-02],
       [ 6.2186678e-05],
       [-1.5567212e-01],
       [-1.8243675e-01],
       [-1.0440469e-01],
       [-2.1174513e-01],
       [-1.5627669e-01],
       [ 6.7312099e-02],
       [ 2.0466553e-02],
       [ 2.6575424e-02],
       [-3.7383029e-01],
       [-1.8357618e-01],
       [-3.2300055e-02],
       [ 2.2839989e-01],
       [-1.9841886e-01],
       [ 1.2986980e-02],
       [ 2.1857359e-04],
       [ 2.6677961e-02],
       [-2.3477414e-01],
       [ 7.5171571e-05],
       [ 3.6404207e-02],
       [-2.1224442e-01],
       [-1.3419575e-04],
       [-7.2825506e-02],
       [-2.7160777e-03],
       [-8.7379508e-02],
       [ 2.4797399e-05],
       [-2.1131806e-02],
       [ 1.3049912e-01],
       [-1.3302885e-02],
       [ 3.7938560e-04],
       [-8.7864464e-05],
       [-7.3401421e-02],
       [ 9.6207343e-02],
       [-6.3637830e-02],
       [-8.9170402e-03],
       [-2.7157651e-02],
       [ 2.6301667e-04],
       [-2.6818231e-01],
       [ 1.8458949e-01],
       [ 5.4054808e-02],
       [-2.1243198e-01],
       [ 2.0586565e-01],
       [ 1.2962916e-01],
       [-6.6202722e-02],
       [ 2.3149319e-01],
       [-1.0061690e-01],
       [-1.8906000e-01],
       [ 9.4704628e-02],
       [ 1.1831074e-01],
       [ 5.0884675e-02],
       [-1.8562087e-01],
       [-6.5197490e-02],
       [-1.5620245e-01],
       [-3.5623607e-04],
       [-2.8711934e-02],
       [ 2.0143834e-01],
       [ 9.1397744e-03],
       [-1.4788100e-05],
       [-1.1464491e-01],
       [ 1.8717776e-01],
       [-1.6419134e-01],
       [ 9.6827731e-02],
       [ 2.3619923e-01],
       [ 3.1356227e-02],
       [ 1.7696552e-01],
       [ 1.3933288e-01],
       [-1.8597478e-01],
       [-2.3280393e-02],
       [ 2.4140288e-01],
       [ 1.3144483e-01],
       [-1.5763620e-01],
       [ 9.1248840e-02],
       [-5.0583448e-02]], dtype=float32)]


Weights_h:
[array([[ 0.21761176, -0.06866745, -0.1568707 ,  0.01163642,  0.23694262,
        -0.3583775 , -0.1254417 ,  0.18340953, -0.03919468,  0.13551612,
         0.06590401,  0.00784959, -0.14344597,  0.20329988,  0.08609977,
        -0.04263502,  0.2112599 , -0.19337872, -0.16948462,  0.0635085 ,
         0.21023078,  0.4606883 , -0.19543542,  0.30974808,  0.08987384,
        -0.10368224,  0.09751139, -0.24336322,  0.10676917,  0.11090305,
        -0.12117792, -0.18344821],
       [-0.06623748,  0.3326226 , -0.03918875, -0.17474748,  0.03005263,
         0.382488  ,  0.00332448, -0.04954591, -0.01753859, -0.43648535,
        -0.28214735, -0.01858219,  0.15916474, -0.05888181, -0.2932501 ,
        -0.22194889, -0.1412111 ,  0.34414494, -0.09136651, -0.1726395 ,
         0.3205803 ,  0.31963515, -0.23500647,  0.14209367, -0.01877834,
        -0.0736273 , -0.04039801, -0.08810985, -0.3979339 , -0.33061746,
        -0.3859166 ,  0.16417502]], dtype=float32), array([[-0.31348026, -0.09603777, -0.00605665, ..., -0.27864516,
        -0.04771524,  0.3164231 ],
       [-0.11479451,  0.11294184, -0.10407682, ..., -0.05251154,
        -0.06626305,  0.31422135],
       [-0.17162123, -0.01299953,  0.22427683, ...,  0.16681981,
        -0.23973568,  0.0182342 ],
       ...,
       [ 0.04825148, -0.03999862,  0.05611136, ...,  0.01072962,
        -0.04241518, -0.1318942 ],
       [-0.01337449, -0.09352002,  0.20202766, ..., -0.04658755,
         0.25717378, -0.30073008],
       [ 0.22533484, -0.0842543 ,  0.03436501, ..., -0.0337697 ,
         0.17285144,  0.00769653]], dtype=float32), array([[ 0.00070873, -0.09612991, -0.08668564, ..., -0.16653763,
        -0.01368161, -0.00373128],
       [-0.02081122, -0.01263396,  0.1091    , ...,  0.10281656,
         0.04255705, -0.02786921],
       [-0.21672575,  0.05605174, -0.32428974, ..., -0.04200837,
         0.26970264, -0.271437  ],
       ...,
       [ 0.0216892 ,  0.23742533, -0.17781271, ...,  0.25779969,
        -0.04728901,  0.09846446],
       [ 0.10556652, -0.251843  ,  0.05399964, ...,  0.16026028,
        -0.10508182, -0.07755994],
       [-0.25969392, -0.2540061 , -0.343167  , ..., -0.05324988,
        -0.22797397,  0.12224432]], dtype=float32), array([[-0.29859096],
       [-0.12805055],
       [ 0.01005595],
       [-0.32689485],
       [-0.04857918],
       [ 0.00875255],
       [-0.1196961 ],
       [-0.06431265],
       [-0.3851508 ],
       [-0.25443295],
       [-0.14194065],
       [ 0.11982951],
       [-0.12796186],
       [ 0.1563057 ],
       [-0.11836494],
       [-0.3212594 ],
       [ 0.3208776 ],
       [ 0.05173323],
       [-0.01375938],
       [ 0.02027991],
       [ 0.26122308],
       [ 0.20663449],
       [-0.13485418],
       [-0.2246924 ],
       [ 0.01677882],
       [ 0.22474578],
       [ 0.33265752],
       [ 0.03274905],
       [ 0.14458646],
       [ 0.13426332],
       [ 0.4807502 ],
       [ 0.01078109]], dtype=float32)]


Weights_c:
[array([[-0.02773894, -0.02238187,  0.21106188, -0.04069914, -0.17352179,
         0.07246035, -0.04314454,  0.03694176,  0.2564744 ,  0.06800909,
         0.18002336, -0.36544546, -0.21775676,  0.04824789,  0.20188303,
        -0.2734754 ,  0.25981113, -0.01752807, -0.46116522, -0.21952274,
        -0.02799732,  0.17632742, -0.2516311 ,  0.306759  , -0.15132926,
         0.2539523 , -0.0382761 , -0.37671953,  0.31306678, -0.2784782 ,
        -0.09871036,  0.18954185],
       [-0.04505695,  0.26984042,  0.42244646,  0.08894147,  0.41332003,
        -0.18850683,  0.0195058 ,  0.07561946,  0.3693138 , -0.0629966 ,
        -0.1460936 ,  0.05240527, -0.0884099 , -0.17930648,  0.14684425,
         0.39418563, -0.28095478,  0.10409319, -0.00095421,  0.18695545,
         0.09041143,  0.23027728,  0.057171  , -0.11877465, -0.09786086,
        -0.28330937,  0.2471343 , -0.35242116, -0.0344678 ,  0.07418243,
        -0.3059995 , -0.3026282 ]], dtype=float32), array([[-0.09376832,  0.05604881,  0.20350385, ...,  0.08695684,
         0.31278467,  0.00997129],
       [-0.26797202,  0.03841998, -0.09305635, ..., -0.26779708,
        -0.0029179 , -0.29075247],
       [-0.08340988,  0.06215201, -0.13043395, ..., -0.2037869 ,
        -0.03482126,  0.16955835],
       ...,
       [-0.12846291, -0.07543447, -0.18251508, ...,  0.20554353,
        -0.07856128,  0.13175283],
       [ 0.08770239, -0.07662755, -0.3470475 , ...,  0.2993582 ,
        -0.00894539,  0.19255957],
       [ 0.02059019,  0.26415154, -0.04832577, ..., -0.03868418,
        -0.05232628, -0.20270042]], dtype=float32), array([[ 0.02891468,  0.20150585, -0.14556527, ..., -0.03954394,
         0.06996314, -0.10403655],
       [-0.02890217, -0.10630672, -0.14136542, ...,  0.07433087,
         0.03790386, -0.00475042],
       [-0.3085963 ,  0.24910669, -0.00959708, ...,  0.03975948,
        -0.12678383, -0.01123672],
       ...,
       [ 0.18684956,  0.06893972,  0.30750975, ..., -0.1435334 ,
         0.16136357,  0.07172196],
       [ 0.00605324,  0.03754336,  0.11350088, ...,  0.02075126,
         0.09186033, -0.16736029],
       [-0.08266553, -0.1671539 , -0.12203153, ...,  0.1265494 ,
        -0.01370834, -0.251923  ]], dtype=float32), array([[ 2.94102907e-01],
       [-4.16558614e-04],
       [ 9.80608165e-03],
       [-4.34766412e-02],
       [ 1.90041095e-01],
       [-3.32134634e-01],
       [-2.64160067e-01],
       [ 2.29354471e-01],
       [-1.45829305e-01],
       [ 2.44389847e-01],
       [ 1.24667585e-01],
       [-2.11100310e-01],
       [ 4.19094473e-01],
       [-1.63462877e-01],
       [ 1.93111777e-01],
       [ 2.56596327e-01],
       [-3.60058755e-01],
       [-3.85673314e-01],
       [ 4.69617367e-01],
       [-1.00910343e-01],
       [ 1.82702839e-01],
       [ 8.35569426e-02],
       [-1.88650310e-01],
       [-5.02467416e-02],
       [ 2.33310059e-01],
       [ 4.18203324e-02],
       [-3.35680485e-01],
       [ 2.02316537e-01],
       [ 2.52752960e-01],
       [ 4.90336925e-01],
       [ 1.72318891e-01],
       [ 6.36678189e-02]], dtype=float32)]


Weights_k:
[array([[-0.31832585,  0.04490305,  0.34580728,  0.2115913 , -0.49938488,
        -0.09519789,  0.15942225,  0.03973173,  0.37349334, -0.17208156,
         0.2667441 , -0.1550487 , -0.22152317,  0.55151224, -0.06349181,
        -0.02577542, -0.10105505, -0.23216735,  0.0578507 ,  0.02541832,
        -0.24603112,  0.30330503, -0.05967395,  0.45708317, -0.02294492,
        -0.09026378,  0.14226985,  0.07110386, -0.316113  ,  0.35071343,
        -0.02046619,  0.06320299, -0.10358293,  0.02853914, -0.25944448,
         0.06202125,  0.204538  ,  0.12813804,  0.31426084,  0.29329056,
         0.11826248,  0.22830878,  0.32104284, -0.25184545,  0.261223  ,
        -0.13432287, -0.05780291, -0.27446637,  0.22594437, -0.2419158 ,
         0.16137391,  0.21046501, -0.35260838, -0.14093164,  0.3861799 ,
        -0.3613092 , -0.37583646, -0.28902355, -0.1841441 ,  0.29575044,
         0.24674217, -0.10127934,  0.26268145,  0.32494578,  0.11051654,
        -0.13424976,  0.05207451, -0.05288146, -0.31390914,  0.15189236,
         0.00265018,  0.13012314, -0.05476024, -0.14397603, -0.26691514,
        -0.03313717,  0.05681175, -0.08041061, -0.07569984, -0.50499994],
       [ 0.0019082 ,  0.11714654, -0.11598638, -0.48489624,  0.21679386,
         0.29120198,  0.33615825, -0.2990305 , -0.12830265,  0.35388756,
         0.16857618,  0.21887438, -0.12030161, -0.09635024, -0.18790978,
        -0.00320376,  0.0649984 ,  0.25917572,  0.15203424, -0.2643147 ,
        -0.31586397, -0.21734026,  0.45645648,  0.04429004,  0.21984403,
         0.11413831,  0.10018539, -0.34194025,  0.0770317 ,  0.02900076,
        -0.13519283, -0.25075725,  0.2932405 ,  0.15337324, -0.01764119,
         0.06692069, -0.28809634, -0.0631137 ,  0.12785365,  0.09630357,
         0.09232151,  0.0416815 ,  0.16688168, -0.23663007,  0.22601147,
         0.13880749, -0.20231809,  0.00219095, -0.22841677, -0.05828948,
         0.22594823,  0.28387198,  0.16447884,  0.13580333, -0.01003486,
        -0.02376022, -0.00457243, -0.18113717, -0.4546106 ,  0.17575869,
         0.08821373,  0.19691059, -0.06381748, -0.05461727, -0.12961105,
         0.36090213,  0.12799847, -0.16665645, -0.02733445, -0.17163496,
         0.01227075,  0.17745967, -0.17854379,  0.25575948,  0.00297418,
        -0.13677396,  0.15120052, -0.21489066, -0.00936733,  0.02384038]],
      dtype=float32), array([[ 0.05855861,  0.15552133, -0.09709683, ...,  0.09740875,
        -0.18273135, -0.05989513],
       [ 0.05284594,  0.11274769,  0.18586554, ..., -0.06308632,
         0.11024555,  0.21069218],
       [-0.16691652,  0.09773497, -0.02279262, ...,  0.14208522,
         0.03067315,  0.11985968],
       ...,
       [ 0.13995825,  0.02127546, -0.06803755, ..., -0.0208063 ,
        -0.13703491, -0.00873105],
       [-0.02028836, -0.07278021, -0.16339369, ...,  0.09028131,
        -0.02739288, -0.23697309],
       [ 0.13829243, -0.01703345,  0.11528501, ..., -0.13248275,
        -0.19026816, -0.20518   ]], dtype=float32), array([[-0.15691656, -0.13100326,  0.09324884, ..., -0.2036454 ,
        -0.01365695,  0.04774926],
       [-0.08689155,  0.1283927 , -0.06026085, ..., -0.16026752,
         0.03825635,  0.11125145],
       [ 0.13422647, -0.00822234, -0.013583  , ..., -0.03427562,
        -0.06920685, -0.02115431],
       ...,
       [ 0.03202251, -0.12536949, -0.1668717 , ..., -0.06430744,
        -0.03821085, -0.00304122],
       [-0.18320103, -0.09660964,  0.03145878, ..., -0.18081753,
        -0.2335925 , -0.1669381 ],
       [-0.12907976, -0.18493026,  0.08734062, ...,  0.08082673,
        -0.01136691, -0.06344596]], dtype=float32), array([[-3.02500010e-01],
       [ 2.64995337e-01],
       [ 1.59025803e-01],
       [-1.99162781e-01],
       [ 1.57267183e-01],
       [ 1.78616017e-01],
       [-9.35521424e-02],
       [ 1.59326091e-01],
       [ 2.87391186e-01],
       [-1.57430619e-01],
       [-1.55962780e-01],
       [-1.10671557e-01],
       [-1.18172029e-04],
       [ 2.68036574e-01],
       [ 1.35233060e-01],
       [ 1.77167714e-01],
       [ 1.55074626e-01],
       [-2.85659581e-02],
       [-1.26448661e-01],
       [ 1.44848168e-01],
       [-2.68728495e-01],
       [-2.32866630e-02],
       [ 6.95449561e-02],
       [ 1.49648771e-01],
       [-3.36281955e-02],
       [ 4.60543595e-02],
       [-1.42300148e-02],
       [-1.09508134e-01],
       [-1.77401960e-01],
       [ 4.80371527e-03],
       [-4.32046145e-05],
       [-1.28217503e-01],
       [-2.49485597e-01],
       [-1.03720702e-01],
       [-8.41888320e-03],
       [ 1.18407115e-01],
       [-1.53095275e-01],
       [ 3.15089002e-02],
       [-4.01466241e-06],
       [ 1.82341412e-01],
       [-1.64061800e-01],
       [-4.53276210e-04],
       [-2.13173389e-01],
       [ 4.47362289e-02],
       [-8.39857161e-02],
       [-6.59754872e-02],
       [-2.78628170e-01],
       [ 2.66935764e-04],
       [ 2.23707572e-01],
       [-1.95180252e-01],
       [ 3.22107524e-01],
       [-1.01375595e-01],
       [ 9.65941884e-03],
       [ 8.73644054e-02],
       [-1.69417307e-01],
       [ 4.14489470e-02],
       [ 1.57448390e-04],
       [ 1.67222276e-01],
       [-7.33183479e-05],
       [ 1.11944042e-03],
       [-1.33227453e-01],
       [ 1.10833883e-01],
       [-1.37091622e-01],
       [-1.87801588e-02],
       [ 1.25425816e-01],
       [ 2.38862440e-01],
       [ 9.25073847e-02],
       [-5.52292578e-02],
       [-1.95134863e-01],
       [-2.77706832e-01],
       [ 2.32196786e-02],
       [-1.26369521e-01],
       [ 6.93712607e-02],
       [ 9.67622474e-02],
       [-1.06508754e-01],
       [-8.12081844e-02],
       [ 1.39524311e-01],
       [-4.47209179e-02],
       [-7.61836767e-02],
       [-5.77505715e-02]], dtype=float32)]


Weights_h:
[array([[ 4.5985198e-01,  3.1653088e-02, -9.4610095e-02,  2.9936377e-02,
         4.4416822e-02, -3.5678452e-01,  6.4765714e-02, -3.1960491e-02,
        -1.4181523e-01,  1.0354892e-01, -2.9966846e-01, -1.4293289e-01,
        -2.7292227e-02, -1.4529186e-02,  5.6072205e-02, -1.7751355e-01,
        -2.8846401e-01,  8.4634908e-02,  6.9677420e-02,  1.3474733e-01,
        -1.4507805e-01,  1.4786313e-01, -8.6261205e-02, -1.6822034e-01,
         1.7393834e-04, -4.1912919e-01,  3.4297634e-02,  3.5141623e-01,
         1.2131183e-01, -1.4974408e-01, -8.0398485e-02,  7.3297671e-03],
       [ 1.6548507e-01,  5.2168310e-02, -6.8092979e-02, -1.2759571e-01,
        -1.0013059e-01,  4.0918535e-01, -1.0014458e-04, -6.6912852e-02,
        -2.4814112e-01, -3.1258050e-01, -7.6035924e-02, -2.8104445e-01,
         1.2894349e-01, -1.9795634e-01, -1.2509815e-01,  5.1197100e-02,
        -2.3502448e-01, -2.2410347e-01,  3.0440360e-01,  4.8023928e-02,
        -7.6954593e-03, -4.6104953e-01,  4.5458329e-01, -3.1720391e-01,
         4.9215383e-03,  1.8161684e-01,  2.1115033e-02,  4.4258296e-01,
         2.5403532e-01, -3.0889186e-01,  1.6401905e-01, -3.0117527e-02]],
      dtype=float32), array([[-0.14303827,  0.02500917,  0.18917075, ..., -0.26461425,
         0.27748534,  0.03598652],
       [-0.02527359,  0.21100533,  0.08008699, ...,  0.14482719,
        -0.3511928 ,  0.29364157],
       [-0.09825195,  0.23041983,  0.20214812, ..., -0.16752832,
         0.06339921,  0.24940279],
       ...,
       [ 0.1659406 ,  0.06657028,  0.1193921 , ..., -0.1901631 ,
        -0.17676897,  0.22207469],
       [-0.18908185,  0.11093511, -0.15214474, ...,  0.04514555,
         0.10254516,  0.21312883],
       [ 0.31004855, -0.07135854, -0.12175947, ..., -0.11701073,
         0.28254333,  0.26543143]], dtype=float32), array([[ 0.19732043, -0.02829042,  0.14722571, ...,  0.2249647 ,
         0.07514738,  0.14194442],
       [ 0.33618668, -0.10528748,  0.04579602, ...,  0.12039438,
        -0.01748417, -0.13059057],
       [ 0.00781166, -0.26281735, -0.06113457, ...,  0.1732497 ,
         0.06874599,  0.16462028],
       ...,
       [ 0.09670289,  0.00574799,  0.05655579, ...,  0.03004449,
        -0.10422017,  0.19211134],
       [-0.03666924, -0.12673613,  0.04829501, ...,  0.2804445 ,
         0.10213619,  0.23199117],
       [-0.02485989,  0.07086693, -0.15266843, ..., -0.19834419,
         0.21654856, -0.1987142 ]], dtype=float32), array([[-0.06137362],
       [-0.24803077],
       [-0.14744101],
       [-0.27761987],
       [ 0.2951694 ],
       [ 0.07357154],
       [ 0.09882187],
       [ 0.2523106 ],
       [-0.19725755],
       [ 0.09623801],
       [-0.04581695],
       [ 0.28250656],
       [-0.11330771],
       [-0.00854755],
       [ 0.0618971 ],
       [-0.2719617 ],
       [-0.25745457],
       [-0.270398  ],
       [-0.27933082],
       [-0.0238261 ],
       [ 0.06151662],
       [ 0.23762152],
       [-0.2251945 ],
       [-0.20362206],
       [ 0.42528883],
       [ 0.15711048],
       [ 0.18522464],
       [-0.03827386],
       [ 0.17197673],
       [ 0.01234831],
       [-0.2516409 ],
       [-0.30535644]], dtype=float32)]


Weights_c:
[array([[ 0.04592385,  0.0418089 , -0.15129656, -0.13814618, -0.23305169,
        -0.25480327,  0.01989048, -0.1483743 , -0.13565724, -0.36851734,
        -0.05889921, -0.06366038, -0.336444  ,  0.03559427,  0.0354824 ,
        -0.01093947,  0.07018314,  0.1757688 , -0.13342184,  0.09266233,
        -0.14229353, -0.12295419,  0.10899246,  0.24183625, -0.11995822,
         0.3918303 , -0.25143793, -0.25314468,  0.17165169,  0.15363759,
         0.42438057,  0.20305945],
       [-0.15831798, -0.2557335 , -0.25931358,  0.12498111,  0.05328231,
         0.18446666,  0.34211543, -0.34436855,  0.12894766,  0.24522151,
         0.41924432,  0.07781219, -0.08171586, -0.03925864,  0.03001134,
         0.04588576,  0.10129904,  0.13561499,  0.14207675, -0.07735906,
        -0.17474242, -0.0308746 ,  0.25568584,  0.16379921,  0.45067108,
         0.2862476 , -0.182468  ,  0.06175597, -0.38036403, -0.0662001 ,
         0.3700039 ,  0.2506681 ]], dtype=float32), array([[ 5.5860728e-03,  1.8663917e-01, -2.8088749e-03, ...,
         3.9347537e-02,  6.2974785e-03, -1.1739839e-04],
       [ 7.8547329e-02,  9.4252639e-02, -1.5123378e-01, ...,
        -1.4751449e-01,  2.4177167e-01, -2.4494991e-01],
       [ 8.3280541e-02, -2.2533220e-01, -1.6298127e-01, ...,
         2.0429784e-01, -2.8757444e-01, -1.0693876e-01],
       ...,
       [-5.7727811e-03, -7.5999156e-02,  1.8906625e-01, ...,
        -6.8691783e-02, -1.9626567e-01, -1.2075148e-01],
       [ 6.0660108e-03, -7.2046109e-02, -2.8932514e-03, ...,
        -8.4790237e-02,  4.0415067e-02, -5.3564098e-02],
       [ 7.4008100e-02,  6.3014194e-02, -2.9262972e-01, ...,
        -1.6109335e-01,  6.8137810e-02, -5.5234708e-02]], dtype=float32), array([[-0.26464853, -0.1623153 ,  0.14151794, ...,  0.29842633,
        -0.0845253 ,  0.25036973],
       [-0.02985864,  0.14098378, -0.28290546, ..., -0.0161836 ,
         0.2712229 , -0.05202908],
       [-0.02243061,  0.01313352, -0.26123488, ...,  0.07003565,
         0.06863834,  0.09160221],
       ...,
       [ 0.3330193 ,  0.03742538,  0.09860221, ..., -0.00636405,
         0.2939863 ,  0.00210162],
       [-0.34872168, -0.17082694, -0.16700354, ...,  0.2548975 ,
         0.06301641, -0.02045715],
       [-0.26555872, -0.11161312, -0.1389981 , ..., -0.02893323,
         0.08425467, -0.06004058]], dtype=float32), array([[-0.04897578],
       [-0.24575524],
       [-0.00441061],
       [-0.38141105],
       [-0.3174321 ],
       [-0.10020119],
       [ 0.04259241],
       [ 0.19539478],
       [-0.0869453 ],
       [ 0.09390261],
       [-0.4087574 ],
       [-0.18379037],
       [ 0.04728005],
       [ 0.10562174],
       [-0.21612433],
       [ 0.22322008],
       [-0.03883009],
       [-0.06274892],
       [-0.12052643],
       [-0.02456137],
       [ 0.27942243],
       [ 0.07991317],
       [-0.17268063],
       [-0.10754759],
       [ 0.42694205],
       [-0.2489393 ],
       [-0.00896281],
       [ 0.27990142],
       [ 0.01765898],
       [ 0.20190835],
       [ 0.34650674],
       [ 0.14097689]], dtype=float32)]


Weights_k:
[array([[ 0.12186864, -0.18687303, -0.49329123,  0.39214638, -0.00417291,
         0.12635271,  0.28545076,  0.53378874, -0.02269178,  0.09093568,
         0.17491202, -0.12334234, -0.13094729, -0.32992464,  0.25772154,
         0.13651003,  0.0891957 , -0.5984233 , -0.18732469, -0.418838  ,
        -0.17717542,  0.32555476, -0.16669428,  0.05984325,  0.09974808,
        -0.04073383,  0.23817647,  0.15991148,  0.0475065 ,  0.22373982,
         0.18607125,  0.24415103, -0.16815092, -0.00320353,  0.12413526,
         0.14812689, -0.3595588 , -0.2831293 , -0.26600623,  0.648797  ,
        -0.09170212, -0.05708756,  0.0629401 , -0.23477541, -0.1597027 ,
        -0.24671414, -0.47367188,  0.2668745 , -0.22894277,  0.03158366,
         0.22569552, -0.21988085,  0.12932073, -0.387602  ,  0.19402753,
        -0.35308993, -0.04232721, -0.08213334,  0.04867868, -0.07718985,
         0.45796245,  0.0748416 ,  0.27289787,  0.07067363,  0.32249436,
         0.14541969,  0.08264703,  0.43096933,  0.23062406, -0.1791661 ,
        -0.20857765,  0.16312173, -0.15690887,  0.0559987 , -0.02415749,
        -0.05872145,  0.32362324, -0.51774025, -0.5937468 ,  0.125059  ],
       [ 0.32817215, -0.15534444,  0.09621483, -0.14307454,  0.17474419,
        -0.15873289,  0.01622646,  0.13306728,  0.398318  ,  0.32827613,
         0.17515019,  0.069271  ,  0.43591145,  0.04363158,  0.0741033 ,
        -0.16227645,  0.24567322,  0.08748719,  0.19900428,  0.2742647 ,
         0.289218  ,  0.04689036,  0.05426067, -0.08991299,  0.03346219,
        -0.24319912, -0.1961615 , -0.04261617, -0.2281652 , -0.07200508,
         0.1942592 , -0.03015157,  0.1817894 ,  0.3259581 ,  0.02888088,
        -0.04015864,  0.07793238,  0.40544644, -0.15777214, -0.29227817,
        -0.22400378,  0.08756326,  0.1659993 ,  0.0691928 ,  0.06458642,
        -0.05782219,  0.26823437,  0.0634947 ,  0.23019966, -0.20528889,
         0.12807827, -0.13239783, -0.17919494, -0.12251821,  0.10787226,
         0.05943397,  0.1276369 , -0.10515346,  0.3166518 ,  0.32482144,
        -0.07713082, -0.07055382,  0.6719749 , -0.16920957, -0.22341666,
        -0.16719607, -0.11774014, -0.11462814, -0.21055493,  0.06396065,
         0.09974714,  0.25592077,  0.13482493,  0.18946514, -0.199327  ,
         0.06729344,  0.3543717 , -0.24360108, -0.01557271, -0.05654448]],
      dtype=float32), array([[-0.1347278 ,  0.10566986,  0.03481989, ...,  0.03765632,
         0.14484233, -0.09571384],
       [ 0.33417138, -0.05322789, -0.0122406 , ...,  0.19679278,
        -0.10021205, -0.15590091],
       [-0.03041796,  0.18780968, -0.04959922, ...,  0.15715827,
         0.00535446,  0.09055495],
       ...,
       [-0.00603205, -0.0557107 ,  0.21603526, ..., -0.02667513,
        -0.15431957, -0.08767915],
       [-0.06444596,  0.06137792, -0.00152502, ...,  0.01593276,
        -0.07759445, -0.15386918],
       [ 0.03632735, -0.08894192, -0.03496354, ..., -0.02880499,
        -0.03718923,  0.1348335 ]], dtype=float32), array([[ 0.15004645, -0.08762871,  0.16683005, ..., -0.10043962,
         0.10621735, -0.02019925],
       [ 0.02939027,  0.01831425, -0.10607663, ..., -0.18357123,
         0.08489025,  0.02844272],
       [-0.08184525, -0.04106819,  0.21975125, ..., -0.07160711,
        -0.01363039, -0.10252138],
       ...,
       [ 0.0254258 ,  0.12185904, -0.15237507, ..., -0.03316015,
        -0.14287291, -0.0346813 ],
       [ 0.055065  , -0.02352652,  0.02878555, ...,  0.06289762,
        -0.00204225,  0.11931951],
       [-0.17186522, -0.16603337, -0.21999884, ...,  0.11157493,
         0.03430937, -0.07181229]], dtype=float32), array([[ 3.6475684e-02],
       [ 7.7833042e-02],
       [ 2.5518617e-01],
       [-7.7719130e-02],
       [-1.1480140e-01],
       [-1.9282509e-02],
       [-9.0180188e-02],
       [ 2.3937041e-01],
       [-8.1483200e-02],
       [ 1.5719260e-01],
       [ 2.0119105e-01],
       [ 9.1102906e-02],
       [-1.2820770e-02],
       [-1.0188614e-04],
       [ 4.8254737e-05],
       [-9.3284294e-02],
       [ 8.8096738e-02],
       [ 2.7431729e-01],
       [ 4.4908788e-02],
       [ 1.4640896e-01],
       [-8.7453857e-02],
       [ 2.5230792e-01],
       [-1.2998709e-01],
       [-5.2906863e-02],
       [ 2.5894637e-05],
       [ 8.9301817e-02],
       [-5.3706903e-02],
       [ 1.0470933e-01],
       [ 1.8709324e-01],
       [ 6.0905822e-02],
       [ 3.8809904e-01],
       [-7.0194319e-02],
       [-5.9657417e-02],
       [-1.3750364e-02],
       [-2.3114806e-01],
       [-1.1491715e-05],
       [ 3.2916825e-02],
       [ 1.3192086e-01],
       [ 2.6293513e-01],
       [-7.0287332e-02],
       [ 1.6379558e-01],
       [ 1.2421895e-01],
       [ 6.1197788e-02],
       [ 3.8734756e-02],
       [ 1.5854003e-04],
       [-1.9390520e-01],
       [ 6.3197426e-02],
       [ 5.7064958e-02],
       [ 1.4098661e-01],
       [-1.5783764e-04],
       [ 3.7049685e-05],
       [-1.2019261e-01],
       [-1.4941089e-01],
       [ 4.5140155e-02],
       [-8.1736408e-02],
       [-3.7185643e-02],
       [-1.8657269e-01],
       [-1.3710895e-01],
       [ 3.0082175e-01],
       [-1.0082006e-01],
       [-9.0582602e-02],
       [-2.5699252e-01],
       [-1.4501877e-01],
       [ 2.7527186e-01],
       [ 6.2762335e-02],
       [ 1.5572114e-01],
       [-5.4782119e-02],
       [ 1.3475391e-01],
       [-3.1848618e-01],
       [-1.8953434e-01],
       [ 1.9371106e-01],
       [ 1.6856174e-01],
       [-1.1634815e-04],
       [ 2.2086082e-01],
       [ 5.6665260e-02],
       [ 1.8998978e-04],
       [-2.4765226e-01],
       [-2.0644316e-04],
       [-9.4914988e-02],
       [-7.6940618e-02]], dtype=float32)]


Weights_h:
[array([[ 1.5552828e-01, -1.1548480e-02, -1.6207969e-01,  1.3235476e-03,
         8.1754327e-02,  2.3658185e-01,  2.5378183e-01, -8.1035927e-02,
         1.6852993e-01,  4.4150227e-01, -2.3855504e-01,  2.3212178e-01,
         3.5063496e-01,  1.2645373e-01, -4.1935412e-04,  1.4389719e-01,
         2.0184129e-01, -6.0957227e-02,  1.1724079e-01,  5.2241530e-02,
        -8.6581834e-02,  2.2397016e-01, -2.0651679e-01,  1.6269978e-02,
        -1.1380990e-01, -4.0435016e-02,  1.1496022e-01,  1.1597490e-01,
        -8.0702655e-02,  1.8885431e-03,  4.2252496e-01,  1.8910949e-01],
       [-1.1196329e-01,  1.4413401e-01,  9.3730651e-02,  1.1044976e-01,
        -1.6705917e-01,  4.5468576e-02,  1.2718847e-01,  1.6720940e-01,
        -1.2910876e-02,  8.0172300e-02, -1.7632933e-01, -4.8867557e-02,
         1.4700533e-01, -3.4762337e-03,  1.0277905e-01,  9.1302834e-02,
         3.3724400e-01, -3.9640795e-02,  2.2209059e-01, -4.2001811e-01,
        -1.4507537e-01, -1.7779216e-01,  3.7716317e-01,  1.3297774e-01,
         3.4843314e-01,  1.7773725e-01,  1.2001168e-01,  2.0996894e-01,
        -1.3425569e-01,  2.0726646e-01,  3.7136402e-02, -4.0367147e-01]],
      dtype=float32), array([[ 0.22082266, -0.05677303,  0.28164664, ...,  0.11814401,
         0.04945686,  0.04444103],
       [ 0.12245174,  0.03758034,  0.02619482, ...,  0.04253716,
        -0.0494669 , -0.3482883 ],
       [ 0.15456516,  0.1377463 ,  0.3003883 , ...,  0.20641635,
        -0.0335812 , -0.2510453 ],
       ...,
       [-0.1346014 , -0.03169771,  0.1592409 , ..., -0.17717026,
        -0.20019571,  0.29073727],
       [ 0.12481645, -0.13146435,  0.3363038 , ...,  0.18749739,
        -0.16380243, -0.12862617],
       [-0.10075154,  0.05603448, -0.27963197, ...,  0.09459075,
        -0.23705444, -0.02715261]], dtype=float32), array([[-0.35128292, -0.2218832 , -0.26517895, ..., -0.19981778,
         0.06071639,  0.19858997],
       [-0.17046727, -0.244133  , -0.18059851, ...,  0.00832856,
        -0.06238608,  0.11112276],
       [-0.0809162 , -0.02861832, -0.31773937, ..., -0.29773763,
        -0.05322012, -0.03194536],
       ...,
       [-0.19433716, -0.00248658, -0.11294396, ...,  0.08956148,
         0.01541783, -0.08462741],
       [ 0.01282337,  0.03531352,  0.09694158, ..., -0.0456789 ,
        -0.18591687, -0.1416591 ],
       [ 0.0411277 ,  0.01714656, -0.26857227, ..., -0.03190125,
         0.08459588,  0.28972268]], dtype=float32), array([[-0.28240418],
       [ 0.1125057 ],
       [ 0.2927575 ],
       [ 0.4047762 ],
       [-0.13679433],
       [-0.172494  ],
       [-0.09840836],
       [ 0.06217964],
       [ 0.2699088 ],
       [ 0.05094178],
       [-0.4395863 ],
       [-0.07212071],
       [-0.08490133],
       [ 0.26143774],
       [ 0.15354061],
       [-0.13456596],
       [-0.19864246],
       [-0.3431897 ],
       [ 0.19174005],
       [ 0.1853083 ],
       [-0.25411168],
       [ 0.21960227],
       [ 0.04068709],
       [ 0.1287294 ],
       [ 0.34149268],
       [-0.15133168],
       [-0.15512349],
       [ 0.35480282],
       [-0.17325163],
       [-0.04281875],
       [-0.3607363 ],
       [-0.11027752]], dtype=float32)]


Weights_c:
[array([[ 9.7153848e-03, -5.5456635e-02, -3.6009213e-01, -3.9738479e-01,
         1.9763087e-01, -1.8932123e-01,  3.6570776e-02,  2.0465988e-01,
        -3.3344021e-01,  2.2680697e-01, -6.4003676e-02,  1.8413971e-01,
        -1.0204903e-01, -1.9982150e-01, -1.4626618e-01, -1.4208350e-01,
         1.8931317e-01,  2.0739883e-01,  1.8751206e-01, -3.1136385e-01,
        -1.8412383e-01,  5.1189464e-02,  1.5545608e-01,  1.3148056e-02,
        -3.5600194e-01, -4.7043297e-01,  1.0184944e-01, -7.7709235e-02,
        -4.7491256e-02,  3.7117168e-01,  1.3306753e-02, -2.6769376e-01],
       [-2.0391406e-01,  2.4424565e-01,  2.0225786e-01,  9.4125733e-02,
         1.1730316e-01, -3.9386671e-02,  1.9925314e-01,  2.9267382e-04,
        -1.3619070e-01,  2.2112033e-01,  1.1545697e-01,  3.4489900e-01,
         2.2891974e-01,  3.5937765e-01, -5.8660794e-02,  1.9125837e-01,
         8.0735339e-03,  8.7829605e-02, -1.2378150e-03,  4.3032210e-02,
        -3.8329754e-02, -1.3411783e-01, -1.5073495e-01, -3.2827917e-01,
        -5.0664108e-05, -4.2701952e-02,  6.0706489e-02, -4.6222925e-01,
         1.2678432e-01, -5.9105210e-02,  3.9712837e-01, -1.5666662e-01]],
      dtype=float32), array([[ 0.17305948, -0.05242923,  0.13039201, ...,  0.254439  ,
         0.01548668,  0.02816551],
       [-0.2945672 , -0.24087122, -0.1626728 , ..., -0.10922339,
        -0.11124414,  0.00631726],
       [ 0.14929238,  0.06051737,  0.08123555, ...,  0.1325741 ,
         0.17448589, -0.04374857],
       ...,
       [ 0.11540306,  0.13660194, -0.11530485, ...,  0.06641854,
         0.04139338,  0.03751474],
       [ 0.06938518,  0.02708964,  0.26265728, ..., -0.12408066,
        -0.04616734, -0.10042616],
       [-0.28173628,  0.01237739, -0.21065512, ...,  0.16855673,
         0.1827748 ,  0.04680277]], dtype=float32), array([[-0.22545354, -0.07187547, -0.14442419, ...,  0.11584321,
        -0.2038995 ,  0.31835875],
       [-0.30080193,  0.02214817,  0.10380074, ..., -0.23845765,
        -0.33495492, -0.05100659],
       [-0.05400572, -0.06240096,  0.1800163 , ..., -0.19848675,
         0.06801064,  0.07409856],
       ...,
       [ 0.03126961,  0.16752546,  0.0644073 , ...,  0.20145148,
        -0.20542438,  0.25677338],
       [-0.12060466, -0.15554702, -0.0442339 , ...,  0.27785528,
         0.21819408,  0.11419685],
       [ 0.03869557, -0.09189226, -0.07247018, ..., -0.19166638,
        -0.02177585,  0.11387041]], dtype=float32), array([[ 0.08609298],
       [ 0.04049498],
       [ 0.02245416],
       [-0.05016258],
       [-0.03790698],
       [ 0.31485328],
       [-0.06405962],
       [ 0.15032955],
       [-0.07535892],
       [-0.11362389],
       [-0.08638325],
       [ 0.20707814],
       [ 0.04710513],
       [-0.16217473],
       [ 0.4483355 ],
       [ 0.13482639],
       [ 0.20239249],
       [-0.05658853],
       [-0.15529232],
       [ 0.02467447],
       [-0.36174905],
       [ 0.18982193],
       [ 0.4835285 ],
       [ 0.16275583],
       [ 0.09216779],
       [ 0.13862066],
       [-0.06015594],
       [ 0.00589642],
       [ 0.23751388],
       [-0.19204564],
       [-0.15273528],
       [ 0.06234562]], dtype=float32)]


Weights_k:
[array([[ 5.76772029e-03,  2.25939732e-02,  1.12354299e-02,
         3.28992695e-01, -2.37991378e-01,  1.53013706e-01,
         4.12722230e-01, -1.02259040e-01, -3.44160855e-01,
        -2.60475755e-01,  3.00567746e-01,  3.59538086e-02,
        -5.11383638e-03,  1.24262169e-01,  9.29939076e-02,
        -8.70496705e-02,  8.44207332e-02,  1.04181422e-03,
         1.47228345e-01,  1.64551079e-01, -1.86883032e-01,
         1.01939030e-01,  1.10297114e-01,  3.11280996e-01,
        -1.58956066e-01,  5.72352968e-02, -2.10300609e-01,
         6.21177964e-02, -3.19441050e-01,  3.71629119e-01,
         2.37622038e-01, -1.75181404e-01, -1.70227736e-01,
         1.41610309e-01,  6.95592090e-02, -2.45658234e-02,
        -1.94743112e-01,  3.07111945e-02, -8.85498673e-02,
         3.75158459e-01, -1.06677480e-01,  8.47491175e-02,
        -1.97008833e-01, -3.00118104e-02, -7.90867880e-02,
         1.91889882e-01,  1.55529892e-02,  6.46137655e-01,
         9.83466730e-02,  3.45261511e-03, -2.15253398e-01,
         2.67746150e-01, -2.55817682e-01, -2.62973398e-01,
        -1.79217443e-01, -3.52631330e-01,  4.21766132e-01,
         4.65918809e-01, -3.21761966e-01,  4.24921066e-02,
         3.80168736e-01, -5.30991107e-02,  2.58665740e-01,
        -1.64365634e-01,  3.21266681e-01,  1.32318765e-01,
         4.82584983e-02,  2.39322498e-01,  4.11747813e-01,
         9.54458416e-02,  1.89903542e-01,  2.12505311e-01,
        -2.76007891e-01, -3.10039204e-02,  1.67723104e-01,
         2.39770919e-01,  3.86222936e-02, -8.22611973e-02,
         1.70756370e-01,  8.99499282e-02],
       [-3.34150910e-01,  3.07243299e-02, -1.27581671e-01,
        -1.73305616e-01, -7.30276704e-02,  3.81408371e-02,
        -7.57730454e-02,  2.00147048e-01, -1.32275775e-01,
         1.46454081e-01, -2.47324765e-01,  2.27177981e-02,
        -8.68977234e-02,  1.78865328e-01, -2.35234246e-01,
        -2.18594879e-01, -2.92867459e-02, -8.60100091e-02,
        -2.85809606e-01, -2.48687014e-01, -5.93002245e-04,
        -3.21755074e-02,  2.70802408e-01, -3.46502483e-01,
         1.93420038e-01, -3.29988413e-02,  1.35712296e-01,
        -2.64406800e-01,  2.44856566e-01, -1.93370968e-01,
         4.30857800e-02, -2.73214523e-02, -5.23833334e-02,
         3.04216206e-01, -2.49598056e-01,  7.77466595e-02,
        -2.36184463e-01,  5.67548573e-02,  1.28585160e-01,
         3.20932679e-02,  1.32945985e-01, -1.33657604e-01,
         1.43884584e-01, -5.15848733e-02,  1.06243461e-01,
        -3.25373799e-01,  2.59411763e-02, -1.27099961e-01,
         1.46307260e-01,  2.32423410e-01,  1.06629819e-01,
        -8.15320089e-02,  3.76048505e-01, -1.26808584e-01,
         5.08196540e-02,  1.09397724e-01, -1.00426055e-01,
        -1.59527227e-01,  3.54978219e-02, -3.47123519e-02,
        -8.16822797e-02,  1.98145166e-01,  1.58190563e-01,
         2.02982992e-01,  6.44901693e-02,  2.17965707e-01,
        -8.08239803e-02, -1.41803533e-01, -1.79424345e-01,
        -2.63218850e-01,  9.53838900e-02, -6.93779364e-02,
        -2.92141028e-02,  4.49847803e-02, -2.48656109e-01,
        -9.41864401e-02, -3.40265371e-02, -1.89785153e-01,
        -5.61205745e-02, -4.60711904e-02]], dtype=float32), array([[-0.12077497, -0.20904472, -0.09681594, ...,  0.03214709,
        -0.06334879, -0.05798544],
       [ 0.09477558,  0.01743917,  0.02801886, ...,  0.20244281,
         0.18950522,  0.13121936],
       [-0.20146212, -0.07682016,  0.01795793, ..., -0.04419266,
         0.04922378, -0.11561288],
       ...,
       [-0.06745377, -0.14744641, -0.14318271, ..., -0.01877891,
         0.29954973, -0.13932104],
       [ 0.01785768,  0.12914647, -0.15551393, ...,  0.0991182 ,
         0.17690393, -0.050033  ],
       [-0.1231641 , -0.17078337,  0.05527475, ...,  0.12047001,
         0.17463112,  0.02724228]], dtype=float32), array([[ 0.22253223,  0.01198843,  0.06531236, ..., -0.00985647,
        -0.13537027, -0.06431416],
       [-0.01204635,  0.05469875,  0.04959591, ...,  0.12360279,
        -0.09584145, -0.10692771],
       [ 0.05982984, -0.14878723, -0.10628843, ..., -0.03278125,
        -0.14446135, -0.14095052],
       ...,
       [-0.03968351, -0.1272973 , -0.03978752, ...,  0.03915643,
        -0.03014622, -0.16051865],
       [ 0.00118112,  0.00527431, -0.13872944, ...,  0.06758612,
        -0.09603423,  0.0977117 ],
       [-0.01332006, -0.12148084, -0.07627513, ..., -0.0989062 ,
        -0.12620611, -0.07475492]], dtype=float32), array([[ 1.81675375e-01],
       [ 2.02463835e-01],
       [-2.12977692e-01],
       [ 7.73063675e-02],
       [ 9.00688246e-02],
       [ 1.47562549e-01],
       [ 6.21433295e-02],
       [ 4.41705026e-02],
       [-3.28522772e-01],
       [ 2.23339543e-01],
       [ 2.90252298e-01],
       [ 2.59187251e-01],
       [ 2.76169594e-04],
       [ 9.75783840e-02],
       [ 1.02794997e-01],
       [-1.41612723e-01],
       [ 9.73365922e-03],
       [-5.68026789e-02],
       [-2.36981139e-02],
       [ 8.57279077e-02],
       [ 3.43400277e-02],
       [ 9.22938660e-02],
       [ 9.41687748e-02],
       [-3.23158503e-02],
       [ 4.17926982e-02],
       [ 2.37246081e-02],
       [-3.26942861e-01],
       [ 1.28580272e-01],
       [-1.64395154e-01],
       [ 3.71341780e-02],
       [-8.55112001e-02],
       [-1.54945314e-01],
       [ 1.91026538e-06],
       [ 1.51989192e-01],
       [-1.08362503e-01],
       [-1.61339656e-01],
       [ 2.73975190e-02],
       [-1.64996892e-01],
       [ 2.62525212e-02],
       [ 1.54488057e-01],
       [-1.61051363e-01],
       [ 9.68948603e-02],
       [ 9.46803630e-06],
       [ 2.05095097e-01],
       [-8.39098245e-02],
       [-1.36285231e-01],
       [ 2.12514982e-01],
       [-2.79061288e-01],
       [ 6.52387813e-02],
       [ 1.64385796e-01],
       [ 7.05035105e-02],
       [ 3.77886258e-02],
       [-1.37738287e-01],
       [ 3.42923611e-01],
       [ 1.15413174e-01],
       [-1.46920651e-01],
       [ 1.90929487e-01],
       [-4.98661101e-02],
       [-1.33590296e-01],
       [-2.41905048e-01],
       [-6.68702349e-02],
       [-7.11758435e-02],
       [ 4.74622287e-02],
       [ 5.45326002e-05],
       [ 1.48523346e-01],
       [-7.17790052e-02],
       [-8.83502588e-02],
       [-2.76637511e-05],
       [-1.91017725e-02],
       [ 1.26009867e-01],
       [-4.00977915e-05],
       [-7.05975369e-02],
       [ 1.71543658e-01],
       [ 9.90866870e-02],
       [-2.41463229e-01],
       [-2.58366972e-01],
       [-2.40969323e-02],
       [-1.08543493e-01],
       [ 7.89786936e-05],
       [ 1.41278505e-01]], dtype=float32)]


Weights_h:
[array([[ 1.33413941e-01, -2.57467091e-01, -2.98276931e-01,
         4.84093040e-01, -1.68937907e-01, -1.74281701e-01,
        -1.19346604e-02,  1.72100082e-01, -1.42576238e-02,
         2.83984601e-01, -9.45583731e-03,  1.70933288e-02,
        -3.59939188e-01, -3.18084538e-01,  3.62746239e-01,
         2.86121300e-04,  2.41618767e-01, -2.07917944e-01,
         2.06867918e-01,  3.52102369e-01, -8.52321759e-02,
         3.96233916e-01, -2.14078784e-01, -8.65665302e-02,
         3.94103378e-02,  1.26810730e-01, -9.67567861e-02,
        -1.10526800e-01,  9.29000899e-02, -2.42853373e-01,
        -2.42233828e-01,  1.94416329e-01],
       [-2.26941586e-01,  9.65584293e-02,  7.82252401e-02,
        -2.45745972e-01, -5.57164755e-03,  1.19128361e-01,
         1.05141491e-01,  1.51517615e-01,  1.18049115e-01,
        -9.79629308e-02, -2.36335799e-01, -1.03922658e-01,
         1.60265818e-01,  1.49214894e-01, -2.43754283e-01,
        -5.09549724e-03, -1.84286386e-01,  2.87370294e-01,
         4.31450307e-01, -4.49577093e-01,  2.13697657e-01,
        -2.20381647e-01, -1.74786717e-01, -1.86598629e-01,
         1.67360649e-01, -3.47694010e-03,  1.01985253e-01,
         9.42669511e-02, -1.98613703e-01,  1.23232834e-01,
        -7.03811944e-02,  2.08967060e-01]], dtype=float32), array([[-0.16051981, -0.03172033, -0.14623612, ...,  0.00625344,
         0.03869114,  0.25693503],
       [-0.10506209,  0.07975081,  0.05791577, ...,  0.09135875,
         0.02632286, -0.16613103],
       [-0.28537908, -0.02920447, -0.04829635, ...,  0.01626302,
         0.01131269, -0.0605102 ],
       ...,
       [-0.14452499,  0.26190254,  0.0195742 , ...,  0.20312881,
         0.12981355, -0.07938602],
       [ 0.07443239,  0.1939757 , -0.14501853, ...,  0.04964448,
         0.22768153,  0.14350417],
       [-0.0380691 , -0.07565996, -0.18330203, ..., -0.01425912,
         0.02932328,  0.0602267 ]], dtype=float32), array([[-0.18858628, -0.01499291, -0.00283174, ...,  0.06264907,
        -0.01406983,  0.00449619],
       [ 0.10439749, -0.04995112,  0.15284765, ...,  0.03754403,
        -0.03796028,  0.00881071],
       [-0.00962966, -0.12573889, -0.08784255, ..., -0.13685594,
         0.13860005, -0.10153686],
       ...,
       [ 0.24010655,  0.18509021,  0.04528935, ..., -0.1265875 ,
         0.18611175,  0.30073696],
       [ 0.04977816, -0.05632941, -0.00134981, ..., -0.28142297,
         0.093381  , -0.14462101],
       [-0.22560616,  0.26504856,  0.0143928 , ...,  0.07292166,
         0.27497074, -0.11464224]], dtype=float32), array([[ 0.0271161 ],
       [-0.23940264],
       [ 0.17537147],
       [ 0.22159088],
       [-0.05524469],
       [ 0.47433946],
       [-0.02129691],
       [-0.09409378],
       [-0.36765158],
       [-0.31332576],
       [ 0.45199823],
       [ 0.0141751 ],
       [-0.11863557],
       [-0.2411208 ],
       [-0.20935029],
       [ 0.3545497 ],
       [ 0.3944783 ],
       [-0.27307603],
       [-0.20184182],
       [-0.38534915],
       [ 0.25498736],
       [-0.28897062],
       [ 0.21345483],
       [-0.11492411],
       [-0.37209937],
       [ 0.21672937],
       [ 0.04404161],
       [-0.46836096],
       [ 0.26793942],
       [-0.34275627],
       [ 0.27000788],
       [ 0.13801   ]], dtype=float32)]


Weights_c:
[array([[-2.91012079e-02, -1.19081922e-02,  4.57314923e-02,
         3.47021013e-01, -3.46620440e-01, -3.05266589e-01,
        -1.04496166e-01, -1.13082439e-01,  7.26575851e-02,
         4.07259613e-01,  1.54576257e-01, -6.35376275e-02,
         3.50396298e-02,  4.11731750e-01,  1.22196525e-01,
         5.17050289e-02,  7.34213665e-02,  7.13780224e-02,
        -2.14392707e-01, -3.66569757e-02,  2.47727007e-01,
        -3.65377992e-01,  2.39864558e-01,  3.98151018e-02,
         3.83513600e-01, -1.20864170e-05,  3.52072448e-01,
        -2.43953630e-01, -2.22482290e-02, -1.23931304e-01,
        -7.44719729e-02, -5.90128750e-02],
       [-3.73102725e-02,  3.13711882e-01, -2.87394047e-01,
         6.74897730e-02,  2.30789676e-01,  4.73277986e-01,
         1.63457334e-01,  2.67834842e-01,  2.83210874e-01,
        -2.61291891e-01, -4.11990546e-02, -2.39355654e-01,
         4.27950434e-02, -6.05939813e-02,  5.55565506e-02,
        -6.45225570e-02, -2.71812588e-01, -9.93955955e-02,
         3.13019514e-01,  1.37336060e-01,  7.43802190e-02,
         3.78049910e-01,  1.36458099e-01, -7.79619440e-02,
        -3.76276940e-01, -1.65787220e-01, -1.65926516e-02,
        -3.29334736e-02,  1.68400466e-01,  2.75152951e-01,
         3.62108380e-01,  2.87380934e-01]], dtype=float32), array([[-0.06897471, -0.14033914, -0.08509406, ...,  0.00373188,
         0.02345668,  0.10007627],
       [ 0.08284986,  0.23735324,  0.08701025, ...,  0.05696561,
         0.22953779,  0.08127859],
       [ 0.13336061,  0.07286844, -0.12113136, ..., -0.26364285,
        -0.07715853, -0.13199969],
       ...,
       [ 0.12709369,  0.13581015, -0.02872263, ..., -0.23031557,
        -0.21964395, -0.08711708],
       [-0.02345105, -0.03322603, -0.2532483 , ...,  0.0850331 ,
         0.15466884, -0.15350112],
       [-0.10025895,  0.06888474, -0.22291927, ...,  0.15423627,
         0.12420404, -0.24055295]], dtype=float32), array([[ 0.02029868,  0.3192651 , -0.00569276, ..., -0.31451884,
        -0.19011174,  0.28018382],
       [-0.28842342, -0.20227672, -0.02752836, ...,  0.14017715,
         0.09212122,  0.09328289],
       [ 0.3487366 ,  0.03304384,  0.20333795, ..., -0.13394374,
         0.20021689,  0.22986616],
       ...,
       [ 0.05326884,  0.07421836,  0.25597316, ..., -0.05583486,
        -0.26382214,  0.1762018 ],
       [-0.06411157, -0.02629099, -0.17724735, ..., -0.07552465,
        -0.10284863, -0.08849195],
       [-0.0466877 ,  0.01486115,  0.17077021, ...,  0.05851194,
         0.07460685, -0.16065331]], dtype=float32), array([[ 0.08705557],
       [ 0.35492632],
       [-0.01082919],
       [ 0.24442615],
       [ 0.01295359],
       [ 0.16554616],
       [ 0.04306936],
       [ 0.34584057],
       [-0.00474943],
       [-0.23388876],
       [-0.11247019],
       [-0.03161738],
       [ 0.15242586],
       [-0.46479538],
       [ 0.27992603],
       [ 0.18838924],
       [ 0.04346547],
       [ 0.06784711],
       [-0.17293993],
       [-0.1815389 ],
       [-0.19919388],
       [-0.2520189 ],
       [ 0.10371193],
       [-0.30759397],
       [ 0.3485531 ],
       [-0.05587621],
       [ 0.07745821],
       [-0.31474692],
       [ 0.12912977],
       [-0.06280432],
       [ 0.13428992],
       [ 0.19495922]], dtype=float32)]


Weights_k:
[array([[ 0.06022148, -0.288509  , -0.02389165, -0.08447793, -0.28363484,
        -0.16351849,  0.03887397,  0.05138531,  0.48625252,  0.2671504 ,
        -0.17691231, -0.47805107,  0.08919812,  0.34812   ,  0.24875905,
         0.152497  , -0.23950826, -0.22411667, -0.24135415,  0.04426355,
        -0.14437829,  0.06138643, -0.14105693, -0.36727205,  0.00618997,
         0.21545158, -0.08282075, -0.09973582, -0.03425775,  0.14427836,
         0.22083353,  0.08496602, -0.44177738,  0.22501631,  0.15838344,
        -0.12807815, -0.3851262 ,  0.31500018,  0.26605317,  0.20819469,
        -0.43306533, -0.06863534,  0.332419  ,  0.22481488,  0.20231251,
         0.28418192,  0.10601512, -0.06576603,  0.04089381, -0.02455961,
        -0.16368563,  0.02398557, -0.061062  ,  0.20060588, -0.19812961,
         0.22617045,  0.09153333,  0.37450147,  0.14206769,  0.0906021 ,
         0.01519497, -0.29663318, -0.10707693, -0.1830568 , -0.13208258,
        -0.1247235 , -0.3315293 ,  0.00500305, -0.30783668, -0.32369205,
         0.23142529, -0.18242174, -0.11171386,  0.2448563 ,  0.09932987,
         0.25285256,  0.08553088,  0.17252122,  0.157884  ,  0.15820001],
       [ 0.06852189,  0.0200345 , -0.14690942,  0.48267987,  0.09695261,
        -0.15782137, -0.02636963,  0.05728408, -0.07343232, -0.0832413 ,
         0.02603062,  0.1386002 ,  0.29382306, -0.09677885,  0.3608923 ,
         0.05337103,  0.01173017,  0.02019999, -0.14814243, -0.23336916,
         0.03872899,  0.14787105, -0.26890352,  0.15060411, -0.15501066,
         0.100304  , -0.13157646,  0.14533672,  0.17954023, -0.26896837,
        -0.20441411, -0.12821683,  0.18050312, -0.06021591,  0.11810785,
        -0.11326101,  0.03078424, -0.0833483 , -0.06110109, -0.20916015,
         0.1145278 ,  0.07097739, -0.24251802, -0.14643191, -0.07635565,
        -0.24041829,  0.06685066,  0.05952318, -0.3004771 , -0.11468793,
        -0.37955716, -0.3132711 ,  0.05369116, -0.161581  ,  0.18962899,
        -0.00075227,  0.02499302, -0.08505949,  0.14989638, -0.20490272,
