Weights_k:
[array([[ 0.15270616,  0.00365942,  0.66240317,  0.8780398 ,  0.58157635,
         0.01051901, -0.08006795,  0.45358792, -0.6681016 ,  0.40272567,
        -0.04118935, -0.7776225 ,  0.21110143, -0.89211875,  0.42460522,
        -0.41403607,  0.06531886,  0.36501187,  0.19490473, -0.28344703],
       [-0.26915666,  0.3333589 , -0.2272189 , -0.2945247 , -0.18114157,
        -0.27771118, -0.19779226, -0.44252017,  0.31569672,  0.19208075,
         0.3285773 ,  0.4608918 ,  0.6666145 ,  0.41718644,  0.04930037,
         0.27323335,  0.49738032, -0.64476997,  0.19516626, -0.41289222]],
      dtype=float32), array([[ 1.56713158e-01, -1.12464547e-01,  9.58753303e-02,
         2.68526047e-01, -3.62736940e-01,  1.70705065e-01,
        -2.55782232e-02, -3.44325215e-01,  1.36509508e-01,
         6.34719253e-01, -2.34575331e-01, -1.18226275e-01,
         5.80995321e-01,  1.48153484e-01,  3.46005797e-01,
        -1.07623555e-01,  5.89839891e-02, -2.84907013e-01,
        -1.57238156e-01, -1.14201419e-01],
       [-5.96381612e-02,  4.79620621e-02,  7.32558519e-02,
        -3.24979693e-01, -2.78575480e-01, -1.11015625e-01,
         1.33459225e-01,  1.56656176e-01, -2.35270113e-01,
        -9.57382396e-02,  3.59485298e-01,  1.09963425e-01,
         3.79296318e-02, -1.77076850e-02, -1.16367631e-01,
         3.88697386e-01, -1.85044676e-01, -6.34648502e-02,
         9.99973714e-02, -2.68325001e-01],
       [ 2.62479454e-01,  1.84293780e-02,  2.81738918e-02,
         5.27432144e-01,  2.93426931e-01,  3.27275366e-01,
        -2.68775076e-01, -1.35450527e-01,  9.03172195e-02,
        -2.58210674e-03, -9.39507857e-02, -1.03887834e-01,
        -1.75581593e-02, -1.58774436e-01, -3.11797881e-03,
        -6.37349069e-01,  4.82118368e-01, -2.80512065e-01,
        -1.64142624e-02, -4.44954097e-01],
       [ 1.64389729e-01,  1.27712160e-01, -1.41443759e-01,
         8.89827192e-01,  1.35265393e-02,  1.67103305e-01,
        -7.62973726e-02, -4.33933020e-01,  3.38826776e-01,
        -2.31269956e-01, -6.97209612e-02,  3.83431166e-01,
        -3.08601558e-01, -2.85733461e-01,  1.72783867e-01,
        -2.79383212e-01,  6.78104877e-01, -3.15662920e-01,
        -1.85074806e-01, -3.51773888e-01],
       [ 5.21605432e-01,  9.05374214e-02, -8.00136700e-02,
         2.99682796e-01, -2.19644293e-01, -1.29910797e-01,
        -1.52504385e-01,  2.05790121e-02,  3.60114545e-01,
        -2.36306474e-01,  3.40540111e-01, -1.77833214e-01,
         6.78351894e-02,  1.44384384e-01,  1.43612504e-01,
        -5.73053837e-01,  2.63889343e-01, -4.28231388e-01,
         9.04185474e-02, -3.93948317e-01],
       [ 1.63685918e-01, -3.32255989e-01,  4.19596612e-01,
        -9.61279497e-02, -8.29549506e-02,  5.11967205e-02,
         2.46050701e-01,  2.84735523e-02,  4.28410098e-02,
        -6.15223832e-02,  1.58268020e-01,  2.79833943e-01,
        -6.98000908e-01, -6.62304386e-02, -2.98398286e-01,
        -3.68462861e-01,  5.29957004e-02, -5.10536492e-01,
        -3.69508684e-01, -1.54461488e-01],
       [-4.63233411e-01,  3.89920831e-01,  1.29383028e-01,
        -4.31731418e-02,  1.39805764e-01, -3.04448098e-01,
        -2.63701558e-01,  2.82197386e-01,  2.78481990e-01,
        -2.87543416e-01,  1.09865196e-01, -7.36344233e-02,
        -7.76677310e-01,  7.54590631e-02,  4.19280156e-02,
        -4.53791738e-01, -2.19079852e-01, -9.59715843e-02,
         1.12417251e-01,  3.43944654e-02],
       [ 4.07619476e-01, -5.55072241e-02,  2.55451351e-01,
         4.86474097e-01,  2.42686883e-01, -2.26020843e-01,
        -1.75504878e-01,  5.01192622e-02, -1.35375425e-01,
        -3.12524706e-01,  3.08658872e-02, -1.02036983e-01,
        -4.80770886e-01,  1.12739608e-01, -1.38443410e-01,
        -2.42694318e-01, -4.18602005e-02,  4.63837478e-03,
         1.21955127e-01, -2.75935829e-01],
       [-3.66543651e-01, -5.88178635e-02, -1.57160182e-02,
        -5.50697744e-01, -1.70215458e-01, -2.30591834e-01,
         1.51510432e-01, -1.24271065e-01,  1.46169767e-01,
         2.12874219e-01,  7.79556052e-04, -2.17716977e-01,
         5.82557440e-01,  8.49026069e-02, -1.46717820e-02,
         8.30655769e-02,  1.11529842e-01,  2.80334651e-01,
        -6.46869764e-02,  3.80380839e-01],
       [ 6.24513812e-02,  2.65478462e-01, -4.93177027e-02,
         2.32154384e-01,  4.09368932e-01,  5.88707626e-01,
        -6.76020831e-02, -2.94796884e-01, -2.94734519e-02,
        -2.91615248e-01, -4.81942261e-04, -1.84611946e-01,
         2.19829500e-01,  3.12834471e-01,  1.52782425e-01,
         2.36386046e-01,  2.53862709e-01, -5.75884432e-02,
        -3.95590924e-02, -2.16728449e-01],
       [ 2.94938684e-01, -3.38881552e-01, -1.65919200e-01,
        -5.18427908e-01,  7.01574385e-02,  1.87647969e-01,
        -6.81343377e-02,  1.69214919e-01,  1.41336069e-01,
        -1.47041127e-01,  7.90625289e-02,  2.76595563e-01,
         5.45163117e-02, -9.96553227e-02,  3.11273560e-02,
        -1.44865647e-01, -3.05890232e-01, -1.54758394e-01,
        -2.89135687e-02, -7.12909326e-02],
       [-9.65120941e-02, -1.35361597e-01,  1.87487230e-01,
        -9.03295875e-01,  2.05905318e-01,  2.14337826e-01,
        -1.71132982e-01, -1.45476431e-01, -3.90186548e-01,
         8.36456642e-02,  1.88415684e-02, -5.24721146e-02,
         7.20916510e-01,  1.52811334e-01,  4.49178427e-01,
         6.38225317e-01, -6.05116189e-02,  4.38202679e-01,
         1.94222435e-01,  2.37786531e-01],
       [-2.09950373e-01, -2.45746002e-01, -5.81102222e-02,
         4.45245296e-01, -3.28879580e-02,  5.49513638e-01,
        -3.85298878e-01,  8.56766775e-02,  1.40771151e-01,
         2.20596585e-02, -3.35365444e-01, -1.28385112e-01,
         1.29252315e+00,  1.45038173e-01,  2.96359390e-01,
         5.49080610e-01, -1.58048660e-01, -1.01082385e-01,
        -1.66019469e-01, -3.42947751e-01],
       [-2.39413217e-01, -5.27351141e-01,  1.35138676e-01,
        -8.03791523e-01, -5.90328011e-04,  1.18445843e-01,
        -1.82738885e-01, -9.14020911e-02, -1.23243965e-03,
         1.70834273e-01, -1.11482423e-02, -4.29846644e-02,
         1.68582335e-01,  4.92272414e-02,  6.82368279e-02,
         3.57942909e-01, -1.31072983e-01, -5.26741557e-02,
         1.01907052e-01,  5.79341471e-01],
       [ 4.98943597e-01, -2.07887679e-01, -3.08236152e-01,
         5.71824253e-01, -3.06066982e-02,  5.43559015e-01,
        -5.69539592e-02, -4.10773903e-01,  2.53793091e-01,
        -6.05869628e-02, -4.40143049e-02, -2.97083765e-01,
         7.16206253e-01,  2.23331049e-01,  4.20473427e-01,
         9.62897465e-02,  3.56484562e-01, -5.40373428e-03,
         5.81769682e-02, -2.49741688e-01],
       [ 1.30363584e-01, -3.41093451e-01,  8.66844654e-02,
        -5.32588065e-01, -8.03845674e-02, -6.12623841e-02,
         1.58033505e-01,  6.06433153e-02, -4.76056695e-01,
         3.04099977e-01,  7.50412717e-02, -3.22849959e-01,
        -2.47624912e-03,  7.83324018e-02,  1.06860876e-01,
         3.87870997e-01, -3.74285042e-01,  3.87267053e-01,
         2.32543573e-01,  1.94315761e-01],
       [ 3.48956764e-01, -3.55997384e-01,  1.18449442e-01,
        -1.20660715e-01,  3.81085835e-03,  1.96218789e-01,
         2.29722604e-01, -1.91212762e-02,  1.77960664e-01,
        -6.55555278e-02, -1.28528802e-02, -1.10169709e-01,
         1.26455665e-01,  5.02983630e-01, -3.31068709e-02,
        -3.83929349e-02, -2.45490402e-01, -2.46298417e-01,
        -2.80643310e-02, -3.08288932e-01],
       [ 3.34352016e-01, -1.96124062e-01, -3.38357389e-01,
         2.98593730e-01,  9.78681743e-02, -4.55813497e-01,
         2.02922728e-02,  1.64352506e-01,  3.98472846e-02,
         2.27023531e-02,  7.65954256e-02, -1.78439245e-02,
        -5.52209139e-01, -4.47037607e-01, -8.26903582e-02,
        -4.84466970e-01,  4.99447703e-01, -1.63885921e-01,
         3.57580520e-02, -3.42486024e-01],
       [ 2.39061058e-01, -2.84286402e-02, -4.40578535e-02,
         2.75165178e-02,  3.66696976e-02, -3.96285951e-02,
        -2.37356573e-02, -6.61028922e-02,  2.43948642e-02,
        -4.60935295e-01,  6.98760599e-02, -2.26667188e-02,
         3.83599401e-01, -7.55831599e-02,  2.70586640e-01,
        -1.20642491e-01,  5.89441836e-01,  1.51073053e-01,
         2.68992841e-01, -6.28706738e-02],
       [-1.62526220e-01, -5.17037399e-02,  1.05585277e-01,
        -5.10361910e-01, -5.10055013e-02, -5.77126861e-01,
        -9.36442986e-02,  1.16330788e-01, -2.58200280e-02,
        -1.41529933e-01,  2.42170423e-01, -7.80414864e-02,
        -9.86544549e-01,  8.39871317e-02, -4.12565649e-01,
        -1.50513679e-01, -4.53847125e-02, -2.40856096e-01,
        -1.24297976e-01,  1.78512961e-01]], dtype=float32), array([[ 3.59514892e-01, -5.25041699e-01,  2.21549809e-01,
        -1.41299963e-01, -1.83100536e-01, -2.55415700e-02,
        -2.35553116e-01, -3.07379037e-01, -2.68899918e-01,
        -1.89974997e-02, -3.39087695e-01, -2.20479429e-01,
         4.30749208e-01, -2.95735240e-01,  2.40369499e-01,
        -3.79820347e-01, -4.20048982e-02, -1.44063532e-01,
        -2.47999832e-01, -3.36768001e-01],
       [-9.67459530e-02, -1.79268122e-01, -3.61072868e-01,
        -8.00930262e-02, -7.69365877e-02,  4.82922792e-01,
         1.83867514e-01, -2.31251009e-02, -2.88212877e-02,
         5.35185076e-02,  8.76455975e-04, -4.80464064e-02,
        -9.99732465e-02, -3.10387313e-01, -5.31616360e-02,
        -1.39076591e-01,  5.84980883e-02, -2.70963848e-01,
         2.51168877e-01,  1.67259872e-01],
       [-9.83659830e-03,  1.11795720e-02, -5.30320518e-02,
         8.06255639e-02,  8.01586658e-02,  2.40268648e-01,
         3.14553589e-01,  2.72695035e-01, -2.58357227e-01,
         1.72374979e-01, -3.58355977e-02, -1.37132183e-01,
        -5.13912439e-02, -4.72286120e-02, -4.08450216e-01,
         3.99050623e-01,  2.52509296e-01, -2.91206926e-01,
         8.06372985e-02,  3.65676843e-02],
       [-2.02548638e-01, -1.13180168e-01,  1.45703629e-02,
         4.43952829e-02, -3.93902630e-01,  3.19029123e-01,
        -5.03730681e-03,  1.66751817e-02, -3.99294287e-01,
        -1.31268770e-01,  3.01992409e-02, -3.64309847e-02,
        -1.09952696e-01, -1.10755011e-01,  6.07234359e-01,
        -9.32113454e-02, -1.19167551e-01,  2.88049847e-01,
         7.59668276e-02, -1.28622055e-01],
       [-2.07096770e-01, -3.06019455e-01, -1.07680030e-01,
        -3.39788705e-01,  3.93970758e-01,  2.01104328e-01,
         1.93986133e-01,  8.91327783e-02, -8.23604688e-02,
        -1.08714744e-01,  1.04053982e-01, -2.69968271e-01,
         4.07573208e-02, -7.55047500e-02,  1.32408768e-01,
         2.49068379e-01, -6.47847950e-02,  4.44177657e-01,
        -1.33911222e-01, -1.94386137e-03],
       [-2.64700793e-06,  3.09821129e-01, -5.39623834e-02,
        -7.73951560e-02, -1.94243684e-01, -2.77730040e-02,
        -1.90775499e-01,  3.48983318e-01,  2.42576465e-01,
         3.48106444e-01, -3.99464108e-02, -1.43674791e-01,
         1.54534087e-01,  1.09217651e-01,  7.91563690e-01,
        -1.71999317e-02, -1.37884498e-01, -2.52220511e-01,
        -2.96550632e-01,  2.25473598e-01],
       [-3.81214395e-02,  1.82641774e-01,  2.89882477e-02,
         1.26472622e-01, -2.32440785e-01, -2.10243270e-01,
        -8.22650790e-02,  3.57646018e-01, -5.21372119e-03,
        -1.00531839e-02, -9.97383893e-02, -2.10326150e-01,
         3.86356443e-01, -9.88232866e-02, -1.88795939e-01,
         4.43100542e-01, -1.08728781e-02,  1.46640450e-01,
        -2.37227514e-01, -2.02273175e-01],
       [-4.27280627e-02,  1.90865904e-01, -2.39628945e-02,
         1.21442638e-01, -4.71886158e-01,  2.85843998e-01,
        -1.64582178e-01, -1.26272738e-01,  8.66318122e-02,
        -3.37748051e-01,  3.95911276e-01, -2.36821488e-01,
        -3.37483078e-01,  3.96423459e-01, -4.16306436e-01,
         2.34773874e-01, -2.73569912e-01,  1.97457835e-01,
        -2.82415729e-02,  1.28211483e-01],
       [-8.27955678e-02, -3.66927087e-01, -2.09471047e-01,
        -2.94382811e-01,  5.87760881e-02,  1.10228442e-01,
         7.21168071e-02,  1.41773894e-01, -5.30268215e-02,
        -1.07689351e-01, -1.60484597e-01, -4.59589571e-01,
         4.91036614e-03, -3.69896621e-01,  5.68514049e-01,
         4.56342511e-02,  6.78440090e-03,  1.85031407e-02,
        -2.56686747e-01,  1.43506318e-01],
       [ 3.07576805e-01, -3.81702483e-01, -2.54840832e-02,
         2.54981875e-01, -3.49460095e-01, -1.20753281e-01,
         1.07056238e-01,  3.79921973e-01, -6.50349259e-02,
        -1.05301440e-01,  9.47033837e-02,  4.59703475e-01,
         9.30984691e-02, -1.43709987e-01,  5.72850555e-02,
        -3.00587714e-01, -1.73876375e-01,  1.31761014e-01,
         4.68741078e-03,  2.51607120e-01],
       [ 4.60239016e-02,  5.82106821e-02, -2.31222689e-01,
         2.79886335e-01,  2.71116525e-01,  3.38009328e-01,
         3.49625707e-01,  2.64118016e-01,  3.26054618e-02,
         3.07428390e-02,  1.72014222e-01, -3.09237480e-01,
        -2.08153799e-01,  8.26399028e-02, -2.29640752e-01,
        -6.26787320e-02,  4.16063070e-02, -9.10891071e-02,
        -1.81315348e-01,  4.56206612e-02],
       [ 5.60729112e-03,  2.44710326e-01, -2.32614934e-01,
         4.85725440e-02,  1.16202654e-02, -2.04139933e-01,
         6.82690460e-03,  5.73049337e-02, -2.35455260e-02,
         6.31839558e-02,  4.50967073e-01, -5.26467085e-01,
        -4.55702692e-01,  1.95567846e-01, -9.69609544e-02,
        -1.21306002e-01, -1.85398936e-01, -6.78524282e-03,
        -2.01779813e-01,  6.54961541e-02],
       [-7.24081770e-02, -2.31064245e-01,  1.70182914e-01,
        -2.37034246e-01, -1.81426946e-02, -5.39575778e-02,
        -2.05403000e-01, -1.33092761e-01, -2.98488051e-01,
        -5.14731146e-02, -1.03820704e-01,  1.28598154e-01,
         1.07131489e-01, -6.09066002e-02,  4.86452460e-01,
        -7.38059431e-02, -3.19334716e-01, -9.63575169e-02,
        -1.84119672e-01,  3.57570052e-01],
       [ 3.26775283e-01,  4.21307802e-01,  2.91679800e-01,
        -5.44745438e-02,  1.35715649e-01, -7.80516788e-02,
         9.62746814e-02,  2.33093619e-01, -1.89995155e-01,
        -2.81283278e-02, -2.21484318e-01,  2.08957121e-01,
        -8.28123465e-02, -2.43769586e-01,  3.92791480e-02,
         1.03384480e-01, -1.73549533e-01,  1.64026380e-01,
         7.30760098e-02,  1.35208920e-01],
       [ 1.04180472e-02, -5.35514206e-02, -9.96456370e-02,
         1.30006671e-01,  3.29569876e-02,  2.35467985e-01,
        -2.98637897e-01,  3.19163268e-03,  3.07780236e-01,
         2.31716424e-01, -1.69722423e-01,  8.92951116e-02,
         2.97449827e-01, -2.13185087e-01,  2.96797335e-01,
         2.36838758e-01,  1.79679086e-03,  1.55638322e-01,
        -2.06130296e-01,  4.65710193e-01],
       [-5.41419052e-02, -1.13061011e-01, -1.48326069e-01,
         3.52457970e-01, -1.58268362e-01,  4.59038652e-02,
         4.52850223e-01,  3.08298990e-02,  2.10075855e-01,
         5.82778640e-02,  7.50162154e-02,  3.38673815e-02,
        -2.46404290e-01,  8.92593786e-02,  2.56794065e-01,
         4.71820652e-01,  1.65864646e-01, -2.07007714e-02,
         2.15685323e-01,  2.65293658e-01],
       [ 5.34754768e-02, -9.95038301e-02,  9.88565609e-02,
        -4.64483947e-01, -5.44909239e-01,  2.22656190e-01,
        -3.36585104e-01,  3.46279770e-01,  1.28390312e-01,
         3.08655351e-01, -4.84726965e-01, -8.44787136e-02,
        -7.38406628e-02, -3.30621719e-01,  4.55686748e-02,
        -4.24632192e-01, -3.64885926e-02,  6.79236948e-02,
         1.78629786e-01, -1.59308270e-01],
       [-4.75825489e-01, -2.40039662e-01,  3.83069605e-01,
        -2.50962138e-01,  4.17143047e-01, -3.77100825e-01,
         5.82170226e-02, -2.80916631e-01,  1.12722730e-02,
         1.22946780e-02, -8.22139457e-02,  4.22331929e-01,
        -5.17022125e-02,  3.12004536e-02, -2.99818045e-03,
         5.50111867e-02,  1.25042707e-01,  1.87305912e-01,
        -2.49517560e-01,  3.49672645e-01],
       [-5.18020988e-01,  4.07798849e-02,  2.31478840e-01,
        -2.67910987e-01,  1.88314751e-01, -3.80093366e-01,
         1.70884565e-01, -5.60327210e-02, -6.81077838e-02,
        -3.14862192e-01, -1.48670882e-01,  3.54681432e-01,
         3.23915064e-01,  2.35220701e-01, -3.62914018e-02,
        -1.64322168e-01,  4.97836053e-01,  2.07449183e-01,
        -9.71641019e-02,  3.10961515e-01],
       [ 1.32232876e-02,  6.56020567e-02,  2.16155678e-01,
         2.02271435e-02,  4.76348758e-01, -3.88339490e-01,
        -4.50182855e-02,  3.02666634e-01, -3.97601485e-01,
         8.12809914e-02, -2.59332091e-01,  5.05857050e-01,
        -1.06703207e-01, -2.21074328e-01, -4.14334089e-01,
         3.84309366e-02, -2.78958589e-01,  7.61055127e-02,
         1.00791171e-01,  1.69460312e-01]], dtype=float32), array([[ 0.31981295],
       [ 0.19688553],
       [-0.13136436],
       [ 0.08048308],
       [-0.206208  ],
       [ 0.47082812],
       [ 0.42226756],
       [ 0.19476254],
       [-0.05324807],
       [ 0.09259563],
       [ 0.46904805],
       [-0.3777186 ],
       [-0.09592837],
       [ 0.1890232 ],
       [ 0.60046685],
       [ 0.45183516],
       [-0.4331106 ],
       [ 0.03612835],
       [ 0.0709086 ],
       [ 0.27813056]], dtype=float32)]


Weights_h:
[array([[ 0.14568856,  0.0427883 , -0.24494357, -0.34768084,  0.12403906,
        -0.08453072,  0.13545074, -0.04501846, -0.10312223, -0.13585359,
         0.30502224,  0.33671856,  0.10827706,  0.11763223, -0.12222837,
         0.39696944, -0.03577499,  0.08426218, -0.07125954,  0.00613714,
        -0.23424527, -0.04163045, -0.08416878,  0.30254552, -0.34226817,
        -0.23766267, -0.04486886, -0.20879053,  0.0101837 ,  0.07206345,
         0.16564794,  0.17375416],
       [ 0.00346856,  0.39501163, -0.04247865,  0.05718492, -0.46294108,
         0.15985963,  0.08958366,  0.06815035, -0.21758986, -0.245652  ,
         0.04290448, -0.28693548,  0.10382438, -0.24541831, -0.33473513,
        -0.22370315, -0.28881592, -0.32878292,  0.19366924, -0.0243009 ,
        -0.02153269,  0.00258307, -0.43086967, -0.09275589, -0.32401958,
        -0.11621533,  0.22480007, -0.08678791,  0.20522231,  0.08635533,
         0.13053833, -0.12524052]], dtype=float32), array([[ 0.14613502,  0.13872388,  0.1402741 , ...,  0.251899  ,
         0.19029291,  0.08356266],
       [ 0.2909089 ,  0.012693  ,  0.14056441, ..., -0.22259322,
         0.17874275, -0.3493558 ],
       [ 0.00450856,  0.2582141 ,  0.09719661, ...,  0.06585601,
         0.27156398, -0.07380354],
       ...,
       [-0.13177583,  0.13860631,  0.320436  , ...,  0.22266309,
         0.11515298,  0.09497961],
       [-0.32934234, -0.06933061,  0.16701901, ...,  0.23945828,
        -0.04170385, -0.21546309],
       [ 0.01153392, -0.1474798 , -0.08698559, ..., -0.18199755,
        -0.10279488,  0.05231684]], dtype=float32), array([[ 7.05821216e-02, -5.46152852e-02, -1.89709201e-01, ...,
        -2.75937468e-01, -2.03610852e-01, -1.38038620e-01],
       [-6.36903048e-02,  8.44612252e-03, -1.03535384e-01, ...,
        -3.22719038e-01, -1.41772922e-04, -7.48106092e-03],
       [ 1.97661653e-01,  1.44059375e-01, -8.65310654e-02, ...,
        -1.39062628e-02,  7.18802810e-02, -7.87372515e-02],
       ...,
       [ 2.23957852e-01,  7.22172782e-02, -1.61669962e-02, ...,
        -6.46444559e-02,  1.65832117e-02, -4.95307110e-02],
       [ 2.76551485e-01,  5.90382963e-02,  1.41858488e-01, ...,
        -1.93446189e-01,  2.73978382e-01, -1.90457731e-01],
       [-7.44643584e-02, -2.15930268e-01,  1.40060276e-01, ...,
         1.87460482e-01,  1.40545100e-01,  1.02962419e-01]], dtype=float32), array([[-0.09848686],
       [-0.18843706],
       [ 0.20386577],
       [-0.10627208],
       [ 0.10532624],
       [-0.19488737],
       [ 0.05369253],
       [ 0.35077465],
       [-0.28267416],
       [ 0.18323849],
       [ 0.35219964],
       [ 0.1987451 ],
       [-0.25650328],
       [-0.3942111 ],
       [-0.04799478],
       [ 0.13988715],
       [ 0.00692682],
       [-0.4145102 ],
       [-0.41573158],
       [ 0.42574856],
       [-0.19519965],
       [-0.38440022],
       [ 0.10127336],
       [-0.12720051],
       [ 0.01412332],
       [ 0.1001907 ],
       [-0.4699128 ],
       [-0.09748092],
       [ 0.2031211 ],
       [-0.27913523],
       [ 0.10445727],
       [ 0.34600475]], dtype=float32)]


Weights_c:
[array([[-0.436551  , -0.19577149, -0.14908943, -0.23251636,  0.21020836,
         0.01899168, -0.18862444,  0.07153811, -0.28318742,  0.08614405,
         0.16644958, -0.05243946,  0.1033326 ,  0.35956657,  0.12489102,
         0.11240142, -0.44272956,  0.18902408,  0.2457999 , -0.37412995,
         0.18249556, -0.22759682, -0.09805822,  0.23432578, -0.44437405,
        -0.07873162,  0.33763906, -0.18306339,  0.34050578,  0.34015605,
         0.10902152, -0.29574654],
       [-0.36611027,  0.2716988 , -0.297845  , -0.14435045,  0.34210795,
         0.10336805, -0.30717757, -0.18570022, -0.2744148 ,  0.07295002,
         0.08316567, -0.1886442 , -0.04990215, -0.3336338 , -0.2549983 ,
        -0.0923717 , -0.17328607,  0.4468056 , -0.2635115 , -0.21491107,
         0.10679378, -0.13244447,  0.27923778,  0.1546878 ,  0.01163447,
        -0.04222929, -0.0029199 ,  0.11461112, -0.0541359 , -0.2994231 ,
        -0.00919068, -0.14721985]], dtype=float32), array([[ 0.11665306,  0.2537795 , -0.11705668, ...,  0.00697507,
         0.07209751, -0.03910639],
       [ 0.13674262,  0.20050101, -0.04953763, ...,  0.02222706,
         0.02070728,  0.19853294],
       [ 0.3518492 ,  0.20398915,  0.08312125, ...,  0.03551027,
         0.3447903 ,  0.08161815],
       ...,
       [ 0.02204326, -0.26413402,  0.01505016, ..., -0.13244654,
        -0.00846231, -0.22384918],
       [ 0.21933721, -0.03704536, -0.1586929 , ...,  0.18279529,
        -0.08279106,  0.21981505],
       [-0.22208689,  0.041264  ,  0.201325  , ..., -0.0835606 ,
        -0.1985827 , -0.04760926]], dtype=float32), array([[-0.03064156, -0.26161763, -0.15255532, ...,  0.05586261,
         0.01343352,  0.04425788],
       [ 0.0712921 , -0.16796869, -0.09860854, ..., -0.03465192,
        -0.03304254, -0.06419692],
       [ 0.13349235,  0.1533324 ,  0.07535215, ..., -0.13567074,
        -0.10419467, -0.12308176],
       ...,
       [ 0.27622157, -0.24120644,  0.02672122, ...,  0.0235175 ,
        -0.13245907,  0.09059867],
       [-0.07116906, -0.16041829, -0.0282239 , ...,  0.19553743,
        -0.04006693,  0.11770446],
       [ 0.01839904, -0.19303663,  0.24373351, ...,  0.04492711,
        -0.00136926, -0.10089289]], dtype=float32), array([[ 0.01475844],
       [-0.06276604],
       [-0.44945487],
       [-0.01337795],
       [ 0.02571248],
       [ 0.09547279],
       [ 0.14328891],
       [-0.20065366],
       [-0.06742534],
       [ 0.00947275],
       [-0.0857871 ],
       [-0.07455337],
       [-0.09628659],
       [ 0.0506513 ],
       [ 0.02637007],
       [ 0.10461706],
       [-0.09704024],
       [-0.26791316],
       [-0.01533256],
       [-0.29926658],
       [ 0.07074825],
       [-0.00978785],
       [ 0.20001294],
       [ 0.08812054],
       [ 0.2354673 ],
       [-0.02420573],
       [ 0.10969929],
       [ 0.15924199],
       [-0.18883389],
       [ 0.0879006 ],
       [ 0.30827   ],
       [ 0.13382424]], dtype=float32)]


Weights_k:
[array([[-0.14635476,  1.3218337 , -0.21637414, -0.41179386, -0.46006876,
         0.28637904, -0.48547384, -0.32180628, -0.13374779,  0.76765096,
         0.73155034,  0.71300834, -0.52548337, -0.9778502 , -0.70868695,
        -0.3311333 , -0.05328528, -0.56115746,  0.3954469 , -0.7755065 ],
       [ 0.12102965, -0.87605524, -0.19010882,  0.1677439 ,  0.27039546,
        -0.06829864, -0.5845702 , -0.12296164, -0.6383911 , -0.07651784,
        -0.38426304,  0.64033484,  0.11262527,  0.11261072, -0.11365326,
         0.15835711, -0.00237125, -0.3459508 ,  0.19280043, -1.08635   ]],
      dtype=float32), array([[-0.21846071, -0.17452094,  0.1590804 ,  0.02203733,  0.21528755,
        -0.10406899,  0.07994943, -0.01502316,  0.45502365, -0.28888258,
         0.04009228,  0.02160699, -0.4868906 , -0.2687515 , -0.09587255,
         0.18850914,  0.33692795,  0.30866486, -0.2815729 ,  0.1489487 ],
       [ 0.41743577, -0.08600171, -0.36998338,  0.13629383, -0.00558359,
         0.48323408, -0.5446089 ,  0.29562935, -0.36286765,  0.80170214,
         0.46045107, -0.07634605,  0.21786126,  0.63355803,  0.4910454 ,
         0.30139664, -0.2794701 , -0.12706786,  0.05892709,  0.7255091 ],
       [ 0.48618144,  0.28966254, -0.22196059, -0.28282312, -0.3392641 ,
         0.07917756,  0.6068139 ,  0.08851134, -0.4644127 , -0.32278597,
         0.2838681 ,  0.26377127,  0.15557624,  0.22984439, -0.09464364,
         0.07987387, -0.32928848, -0.27414116,  0.03558366, -0.26855204],
       [-0.00955458, -0.08525697, -0.15509479,  0.04164948,  0.2941671 ,
         0.08153161,  0.50128037, -0.07543655,  0.00637797, -0.46573374,
        -0.32280725, -0.04207506,  0.2233421 ,  0.18304008, -0.02970337,
        -0.00381246, -0.46128994,  0.2104754 ,  0.44000012, -0.21630652],
       [-0.27056217,  0.2867672 ,  0.5670601 ,  0.17063609,  0.37763956,
        -0.08654833, -0.15342328,  0.07785047,  0.24148783, -0.38770238,
         0.0393575 , -0.17198299,  0.18725893, -0.8260944 , -0.14200787,
         0.09889061,  0.2060294 , -0.07368295, -0.0913185 , -0.400953  ],
       [-0.13165374,  0.24834408, -0.49394011, -0.1161007 , -0.66487503,
         0.6194806 ,  0.22062673, -0.2864346 , -0.66686094,  0.3917368 ,
         0.07747722,  0.03931863, -0.16253887,  0.55228525,  0.29402485,
        -0.1120916 , -0.30388469, -0.14957425,  0.39385092,  0.57665205],
       [-0.31730053, -0.40423483, -0.18177107, -0.04479656,  0.05649403,
         0.4187128 ,  0.41761258,  0.03581548, -0.20772806, -0.43440118,
        -0.04034656, -0.13939601, -0.14203513,  0.3756162 ,  0.04024414,
        -0.539876  , -0.21050808,  0.22588673, -0.23415054,  0.06189436],
       [-0.16371629, -0.23343676,  0.28961784,  0.08331599,  0.4753506 ,
        -0.43869084,  0.4073155 , -0.19080615, -0.0901937 , -0.11063033,
         0.28612214, -0.32031098, -0.18585998, -0.02202887, -0.04061258,
        -0.22124104,  0.01375541,  0.30835187,  0.20624587, -0.3473134 ],
       [-0.19231729, -0.18762727, -0.41322386, -0.05799056,  0.12349957,
         0.45193335,  0.34576118,  0.04003059, -0.09850936,  0.04268092,
         0.07657192, -0.11858302, -0.26606396,  0.36022958, -0.02084724,
        -0.59007704,  0.15174662, -0.18395406,  0.11391876, -0.02082617],
       [ 0.3394048 , -0.17944644, -0.24162443,  0.06198826, -0.16381058,
         0.3428386 , -0.24559589,  0.30243254, -0.28406468,  0.4683595 ,
         0.1040305 , -0.19918166, -0.09642661,  0.06958031,  0.09125543,
         0.00596033,  0.12124737, -0.18450496, -0.45698386,  0.24146359],
       [ 0.18356901,  0.1921909 , -0.09759864,  0.11665702, -0.36838737,
         0.5062274 , -0.39019164, -0.18081377, -0.11288405,  0.41260314,
         0.38000843,  0.2824101 , -0.09549433,  0.15571006,  0.29616943,
        -0.03072801, -0.01294276, -0.05532332, -0.39628878,  0.297428  ],
       [ 0.5483155 , -0.0860804 , -0.12570898,  0.16855204, -0.14083485,
        -0.49594578, -0.45996442, -0.42313907,  0.25452605,  0.00799642,
        -0.06980272,  0.17754143, -0.03233816, -0.11800387,  0.42416394,
         0.08280602,  0.05201581,  0.09435122, -0.23975918,  0.03721455],
       [-0.40637985, -0.15723068, -0.06635819,  0.1472061 ,  0.06316063,
        -0.05467795,  0.58967304, -0.02970934,  0.02627573, -0.48033318,
         0.09541957, -0.11822625, -0.19040662, -0.21434236, -0.07140674,
        -0.04001116, -0.22074737, -0.0467573 , -0.21115479, -0.5453309 ],
       [-0.3202847 , -0.17568979,  0.497088  ,  0.07088453,  0.39698315,
        -0.17978138,  0.62897694,  0.01972044, -0.03251573, -0.637206  ,
         0.10722367,  0.07085604, -0.40844885, -0.15434116, -0.01481079,
         0.00843998,  0.18997805,  0.39052215, -0.06096247,  0.08127803],
       [-0.45547715,  0.02332434, -0.0980928 , -0.43983006,  0.04329505,
        -0.04554251,  0.7450261 ,  0.03926614,  0.28158775, -0.5386655 ,
         0.27370048,  0.04485597,  0.05818909, -0.10537955,  0.03582133,
        -0.1719672 ,  0.19628502,  0.52132463, -0.05086403,  0.05835821],
       [ 0.00474452, -0.22947936,  0.33935228, -0.20359628,  0.87918174,
        -0.5565259 , -0.06390257, -0.21855429,  0.38379222, -0.7627491 ,
        -0.07139597, -0.0360621 ,  0.13074139, -0.8489674 , -0.07862282,
         0.11801303,  0.3727472 ,  0.13128057, -0.03189447,  0.25493675],
       [-0.07866409, -0.08178521,  0.08192539,  0.0124947 ,  0.24934492,
        -0.08895736, -0.25041807,  0.08806524, -0.03431955, -0.50449926,
         0.24101858,  0.09770721,  0.13227968, -0.37408397,  0.2667046 ,
        -0.44813704,  0.1676748 ,  0.1648871 , -0.13465756,  0.36826724],
       [-0.3008017 , -0.30986094,  0.32798576,  0.01479702,  0.2935194 ,
        -0.13431303,  0.21637723,  0.21650566, -0.38346887,  0.25378102,
         0.08961648,  0.18251745,  0.3286501 ,  0.03568398, -0.12926322,
        -0.05477975, -0.28714365,  0.17670651, -0.14181088, -0.31114253],
       [ 0.35838816,  0.43491402,  0.18830332, -0.13025738, -0.39397395,
        -0.06699828, -0.6977441 , -0.01455428, -0.04917042,  0.3876105 ,
        -0.32214913, -0.01747555, -0.2057734 ,  0.08282378, -0.2690255 ,
         0.4179282 , -0.19097961,  0.1200509 ,  0.19591051,  0.17565687],
       [-0.26429087,  0.07668365, -0.02088832, -0.03363564, -0.3420391 ,
        -0.02794199,  0.0667481 , -0.22050314, -0.14746062,  0.24540426,
        -0.34483457, -0.2828681 , -0.18739858,  0.00442406, -0.02920379,
        -0.14808016, -0.03941184, -0.04032653,  0.3222873 ,  0.17418604]],
      dtype=float32), array([[-1.68462470e-01,  9.18167755e-02, -2.23179355e-01,
        -1.70067191e-01, -2.34950095e-01,  2.09504619e-01,
         5.13055265e-01, -1.82939563e-02, -2.72420794e-01,
         3.54818821e-01,  2.72774279e-01, -2.25451991e-01,
         6.26561791e-02, -1.23987652e-01, -1.08127773e-01,
         4.35683802e-02,  3.92660767e-01,  7.57818893e-02,
        -8.18966106e-02,  2.53614217e-01],
       [ 3.05556893e-01, -3.61658871e-01,  1.77272528e-01,
        -4.62371230e-01, -1.80417374e-01,  2.89534360e-01,
        -4.26690519e-01,  3.03874999e-01,  1.53618470e-01,
         7.38383532e-02,  2.00891510e-01,  1.34835586e-01,
         1.91743031e-01, -5.38076349e-02, -2.99962312e-01,
        -2.23593727e-01,  6.34936035e-01, -1.22851059e-01,
        -6.37329370e-02, -2.39760220e-01],
       [ 1.95898607e-01,  8.36210549e-02, -2.94019341e-01,
         2.15505347e-01, -4.81516063e-01, -1.16899297e-01,
         5.68888724e-01, -3.99934649e-01, -2.50779152e-01,
        -1.73111096e-01,  3.91300797e-01,  1.36057243e-01,
         5.17602451e-03,  1.60339937e-01, -3.62206429e-01,
         1.74532514e-02, -4.01077211e-01, -3.61578524e-01,
         7.25433752e-02, -5.98789752e-01],
       [-2.16933221e-01, -1.00852348e-01, -2.71712661e-01,
        -3.05698235e-02, -2.17412621e-01,  1.26426935e-01,
         3.66190135e-01, -8.07761475e-02, -3.43888283e-01,
        -4.21676517e-01,  2.09323421e-01, -2.90594310e-01,
        -1.74545228e-01,  2.72294313e-01, -3.29297811e-01,
        -4.42509472e-01, -3.58934253e-01,  1.12043180e-01,
        -7.37051442e-02, -1.44995907e-02],
       [ 1.24423780e-01,  2.29853928e-01, -1.67611599e-01,
        -4.02200580e-01,  3.45014006e-01,  3.08578223e-01,
         7.13380575e-01,  6.42847642e-03,  3.23259860e-01,
        -1.38572931e-01, -7.44200423e-02, -8.00702870e-02,
         1.04276739e-01,  1.06097519e-01, -2.98837274e-01,
         1.88950554e-01, -5.54443121e-01,  1.52086198e-01,
        -1.39719963e-01, -1.57923937e-01],
       [-5.80351114e-01,  3.07592660e-01,  3.65208268e-01,
        -8.34434628e-02,  1.11910060e-01, -8.96115042e-03,
        -2.94519514e-01,  6.55460209e-02,  2.18630344e-01,
         9.33252275e-02, -5.77870905e-02, -1.44710258e-01,
        -1.14091218e-01,  3.44173089e-02,  2.04400316e-01,
        -2.96163797e-01,  1.38094604e-01,  2.27078125e-02,
         3.95715013e-02,  5.91570199e-01],
       [-1.56118497e-01,  6.07086599e-01, -4.03540105e-01,
        -3.38298023e-01,  2.85860777e-01,  2.01469474e-02,
         2.21754145e-02, -5.49748838e-01,  9.28594917e-02,
         2.10980341e-01, -1.49354897e-02,  1.05799578e-01,
        -1.00774772e-01, -5.61455607e-01, -2.27580950e-01,
         6.51659742e-02, -2.26461276e-01,  3.54968101e-01,
        -1.46968633e-01,  6.68789148e-01],
       [-3.99903148e-01,  1.35495380e-01,  1.18164718e-01,
         1.32011734e-02, -3.70125294e-01, -1.05215952e-01,
         3.18658590e-01, -9.00475457e-02, -2.58282661e-01,
        -1.89549580e-01, -6.97669014e-02,  3.14470604e-02,
        -1.20959006e-01, -1.41099870e-01,  4.47445989e-01,
         1.50331303e-01, -8.01950336e-01, -2.08595008e-01,
        -2.23911628e-01,  2.05872223e-01],
       [ 2.50360548e-01, -2.58807600e-01, -1.84827685e-01,
        -2.13257689e-02, -7.25832358e-02, -1.80910781e-01,
         3.92312497e-01,  2.12467164e-01, -2.72967488e-01,
        -2.13896900e-01,  2.78714716e-01,  3.07882074e-02,
         2.79072732e-01,  3.68706547e-02, -4.01502073e-01,
        -7.56387636e-02, -7.07192600e-01,  2.09452771e-03,
         3.19536068e-02,  6.55857846e-02],
       [ 1.11906037e-01, -2.17283085e-01,  6.34534419e-01,
         5.55442646e-02,  4.23752479e-02,  6.23592325e-02,
        -4.94529277e-01, -5.54583184e-02, -8.33284557e-02,
         5.89925170e-01, -3.85187715e-01, -3.30001533e-01,
        -2.88947541e-02,  2.36895904e-01,  3.47068071e-01,
         1.31471321e-01,  4.90771323e-01, -7.93437138e-02,
         2.23721206e-01, -1.18020661e-01],
       [-2.40493074e-01,  2.96429127e-01,  4.81280088e-01,
         3.26735079e-01,  4.37281989e-02, -5.80984294e-01,
         2.17029065e-01,  2.45279297e-01, -3.26452792e-01,
         3.47792983e-01, -1.09936185e-01,  3.25611047e-02,
        -2.56359607e-01, -2.60238707e-01,  3.23333830e-01,
         1.58666104e-01, -1.86709118e+00, -2.55815893e-01,
         4.96799573e-02,  1.38703823e-01],
       [ 3.38254094e-01, -2.63487875e-01,  6.23088032e-02,
        -3.13361704e-01, -2.99534923e-03, -1.29691496e-01,
        -8.71038064e-02,  5.61016314e-02,  2.55676776e-01,
         3.93382348e-02, -6.40879059e-03, -2.58667730e-02,
         2.48499006e-01,  3.52361798e-01,  1.77991301e-01,
         3.50553602e-01, -2.48072103e-01,  1.75103202e-01,
        -9.79438350e-02, -7.25188181e-02],
       [ 1.09740108e-01, -2.94023484e-01, -1.46825716e-01,
        -1.37340844e-01,  4.59205091e-01, -1.48312122e-01,
        -7.08773136e-02,  2.59697556e-01,  9.72314551e-02,
        -8.95691663e-02, -1.17674083e-01,  1.04082935e-01,
         4.77876693e-01,  3.96916032e-01,  1.07458957e-01,
         2.87112653e-01,  4.77796718e-02, -7.36145750e-02,
         3.81815910e-01,  1.76026970e-02],
       [ 4.84485365e-03,  4.55583990e-01,  3.57467711e-01,
        -1.20778754e-03, -5.09996600e-02, -7.52922669e-02,
        -5.53071737e-01,  3.00298542e-01,  1.39613479e-01,
        -1.91395059e-01, -3.83397818e-01, -4.60317805e-02,
        -1.96121618e-01, -5.84689230e-02,  2.20007285e-01,
        -1.18956175e-02,  3.46487612e-01, -1.72818266e-02,
         3.19740474e-01,  3.17045480e-01],
       [-9.96860191e-02, -7.64933834e-03, -5.81980646e-02,
         4.65274032e-04, -2.51279771e-01, -2.74110943e-01,
        -6.45058975e-02, -7.39653930e-02, -3.24105322e-01,
         3.82815957e-01,  3.73604745e-01, -2.48619363e-01,
        -2.10910246e-01, -1.93628326e-01, -9.95896533e-02,
         1.64589316e-01, -4.99370813e-01, -2.22466961e-01,
         3.10685724e-01,  5.73556304e-01],
       [ 6.85613677e-02, -4.84095961e-01,  1.78634763e-01,
         1.46961510e-02,  1.44077435e-01, -4.33650538e-02,
        -3.63322169e-01,  3.45085673e-02, -2.67389983e-01,
         1.16438411e-01,  4.16484237e-01, -1.52407929e-01,
        -1.11009173e-01,  1.14492707e-01, -1.71005920e-01,
        -1.54069245e-01,  2.89273083e-01, -2.64351606e-01,
         2.09516525e-01, -3.30210447e-01],
       [-1.56250462e-01,  7.03801215e-02,  1.24155566e-01,
         6.73468262e-02,  3.67938541e-02, -3.76761019e-01,
         5.51225483e-01,  1.48581654e-01, -1.40182078e-01,
        -3.69692743e-01,  3.37048084e-01, -9.83381569e-02,
         2.54461318e-01,  2.46491686e-01,  2.96074450e-02,
        -3.53894442e-01, -2.19364017e-01,  9.81948450e-02,
        -2.25479364e-01, -4.93909299e-01],
       [ 3.19382846e-02,  2.93991536e-01, -2.45406508e-01,
        -2.63120029e-02,  7.86180869e-02, -2.53963709e-01,
        -1.53975651e-01, -4.98041272e-01, -1.72507599e-01,
         1.30414721e-02,  8.33756640e-04, -1.20521471e-01,
        -3.31480980e-01,  2.79035419e-02,  2.22440865e-02,
         3.82746696e-01, -9.42013443e-01, -7.75322318e-02,
         3.92269284e-01, -4.68544275e-01],
       [-3.60350192e-01, -1.22329786e-01,  4.35326295e-03,
         5.32037579e-02,  1.25093728e-01,  1.62537605e-01,
        -2.94791102e-01, -2.89964583e-02,  3.21790755e-01,
        -2.83656269e-01,  1.49673820e-01,  3.39476526e-01,
        -1.45727351e-01, -2.15529855e-02,  1.87584937e-01,
         6.44556507e-02,  4.66359109e-01, -1.67317986e-01,
         8.66758302e-02, -3.29495490e-01],
       [-3.92335653e-01,  1.48293421e-01,  1.24076083e-01,
         2.66423285e-01, -1.79835543e-01,  2.94200450e-01,
         2.23658755e-02,  1.26221195e-01, -2.28756025e-01,
         1.56463981e-01,  1.99202403e-01,  1.28840059e-02,
        -1.81167617e-01, -3.45597684e-01, -2.34881148e-01,
        -4.77450043e-01,  2.18781069e-01,  2.61897177e-01,
        -1.00596614e-01,  5.70928156e-01]], dtype=float32), array([[ 0.56993204],
       [-0.5417242 ],
       [ 0.12117651],
       [ 0.28706974],
       [ 0.10375237],
       [-0.0223421 ],
       [-0.7435274 ],
       [ 0.41495243],
       [ 0.6383441 ],
       [ 0.23946413],
       [-0.4475271 ],
       [ 0.23414537],
       [ 0.47212985],
       [ 0.14033654],
       [ 0.39654663],
       [ 0.40322524],
       [-0.25696012],
       [-0.43230173],
       [ 0.21174766],
       [-0.53895324]], dtype=float32)]


Weights_h:
[array([[-0.16667257, -0.14098442, -0.3371081 , -0.2938103 ,  0.31038827,
        -0.14485466, -0.39948893, -0.19172153, -0.07195195, -0.13461772,
        -0.06295788, -0.0570878 , -0.37470177,  0.04423603,  0.04003348,
        -0.25131515, -0.01828348, -0.00286655,  0.1424687 , -0.13803023,
        -0.14099388, -0.21372865,  0.06265498,  0.15111043,  0.0637881 ,
        -0.3842567 ,  0.0814514 ,  0.18488625,  0.27293012, -0.33196145,
         0.08002225,  0.00258938],
       [-0.1605048 ,  0.02642943,  0.36064792, -0.17233297,  0.07286545,
        -0.02350812, -0.2233314 ,  0.0720048 , -0.2646986 ,  0.23810387,
         0.13817751,  0.10486013, -0.06275598,  0.26177916, -0.09759831,
        -0.06965747, -0.13328612, -0.18019493,  0.40985096,  0.26168475,
        -0.14401527, -0.06207142,  0.0236031 ,  0.2072142 , -0.16891477,
        -0.20640516, -0.25395337, -0.0079886 ,  0.25706634,  0.28898326,
         0.06174295, -0.2862478 ]], dtype=float32), array([[-0.07952387,  0.05601887, -0.08114199, ...,  0.11496942,
         0.19842498, -0.15626514],
       [ 0.11576866, -0.10636358, -0.08431379, ..., -0.00401743,
        -0.11238188,  0.06086915],
       [ 0.01921429,  0.01835847,  0.02887561, ...,  0.02435638,
        -0.22979145,  0.02017415],
       ...,
       [-0.05570672, -0.10275162, -0.1165124 , ...,  0.08928961,
        -0.09025579,  0.02382337],
       [-0.06906956,  0.09112208, -0.25459448, ...,  0.24982288,
         0.1087403 ,  0.22040321],
       [-0.07558201, -0.06508206, -0.0545749 , ..., -0.08113257,
         0.29554686, -0.03057962]], dtype=float32), array([[ 0.02318055,  0.05314887, -0.04771667, ..., -0.01551351,
         0.00785696, -0.03070415],
       [ 0.13580392,  0.05563123,  0.20735967, ...,  0.16661893,
        -0.12942342, -0.31691745],
       [-0.26552325,  0.00763791, -0.16814883, ...,  0.02892022,
        -0.08468611, -0.1496304 ],
       ...,
       [ 0.04030946,  0.2339986 , -0.03834747, ...,  0.34941235,
         0.0725353 , -0.12587303],
       [-0.12964258, -0.23612624,  0.04492943, ..., -0.20143577,
         0.05992046, -0.15391302],
       [ 0.05161038,  0.11051093,  0.05691123, ...,  0.07618581,
         0.08538087,  0.20506121]], dtype=float32), array([[ 0.0320239 ],
       [ 0.4047919 ],
       [ 0.18547758],
       [-0.21642125],
       [ 0.1385907 ],
       [ 0.23560646],
       [ 0.01003942],
       [ 0.15534581],
       [-0.34430084],
       [-0.09889951],
       [ 0.16910109],
       [-0.17811348],
       [-0.1813838 ],
       [ 0.04572342],
       [ 0.2650643 ],
       [-0.33143377],
       [-0.05705164],
       [-0.02489571],
       [ 0.06294405],
       [-0.36889884],
       [-0.36486503],
       [-0.12024207],
       [-0.07027923],
       [-0.2844021 ],
       [-0.17836797],
       [ 0.06579563],
       [-0.01477459],
       [ 0.05191774],
       [ 0.03581678],
       [ 0.17893302],
       [-0.01134045],
       [-0.0713635 ]], dtype=float32)]


Weights_c:
[array([[-0.21855539,  0.0859611 ,  0.05785949,  0.03408356, -0.26873392,
        -0.32596388, -0.15043454,  0.05110978,  0.2057415 ,  0.1840395 ,
         0.15383962,  0.06026912, -0.09147272,  0.21124363,  0.33002204,
         0.34283423, -0.17870584,  0.01213983, -0.12984097, -0.04075257,
        -0.1937536 ,  0.13131702,  0.16435657, -0.40805823,  0.24011712,
        -0.45250282, -0.33970827,  0.3708952 , -0.09278612, -0.01306805,
         0.22326714,  0.10213867],
       [ 0.11809128, -0.0710515 ,  0.2212445 ,  0.2186606 , -0.13785253,
        -0.2892435 ,  0.30449   , -0.16764356, -0.440934  ,  0.2386299 ,
        -0.07764255, -0.45592225, -0.02357369, -0.32781643,  0.2455445 ,
        -0.3175778 ,  0.16144939, -0.1766583 , -0.08357299,  0.1619325 ,
        -0.26791215, -0.20170535,  0.15934452,  0.0870991 , -0.47853336,
        -0.33869752,  0.04722012,  0.17251417, -0.3157648 ,  0.15438317,
         0.07247742,  0.05817201]], dtype=float32), array([[-0.24019612,  0.0827605 ,  0.01939048, ..., -0.12124392,
         0.18913004,  0.11859066],
       [ 0.05264084, -0.30364797, -0.01070906, ..., -0.12660529,
         0.12226996, -0.25589588],
       [-0.11217719, -0.03921169,  0.0298625 , ...,  0.05651135,
         0.32999423,  0.18216631],
       ...,
       [ 0.26271546,  0.03622009, -0.16955745, ..., -0.1253519 ,
        -0.3051682 , -0.3070884 ],
       [ 0.20045432, -0.04249988,  0.1049904 , ...,  0.08221284,
        -0.28102383,  0.1154396 ],
       [-0.23891878, -0.00117731, -0.24787971, ..., -0.10705197,
         0.08746094, -0.10448793]], dtype=float32), array([[ 0.17363116, -0.12426404, -0.17871502, ..., -0.19528589,
         0.10295632,  0.16921656],
       [ 0.12246761,  0.2982503 , -0.11576544, ..., -0.23412669,
        -0.32905295, -0.05344482],
       [-0.04027465,  0.1161852 ,  0.22676595, ...,  0.17424907,
        -0.11921091, -0.10175683],
       ...,
       [-0.06329535, -0.00970055, -0.19573528, ...,  0.01615715,
         0.08141179, -0.20318405],
       [ 0.01822933, -0.25670868, -0.0882322 , ...,  0.02180021,
         0.22569056, -0.26289797],
       [ 0.07283358, -0.02597342,  0.2827217 , ...,  0.15197377,
         0.18653478, -0.09254892]], dtype=float32), array([[-0.04721677],
       [-0.31539735],
       [-0.21153095],
       [-0.05498205],
       [ 0.01665216],
       [-0.30080187],
       [ 0.19519201],
       [ 0.07675136],
       [-0.23347901],
       [ 0.21684225],
       [-0.13655867],
       [-0.11660205],
       [ 0.04123694],
       [-0.2378426 ],
       [ 0.34194967],
       [-0.08872461],
       [ 0.03502812],
       [ 0.04867774],
       [-0.01781973],
       [ 0.30306286],
       [-0.14985946],
       [ 0.1092234 ],
       [-0.37867755],
       [-0.02122351],
       [-0.05504847],
       [-0.11220027],
       [-0.19101469],
       [ 0.02976434],
       [-0.07292032],
       [ 0.15512271],
       [-0.32558522],
       [ 0.26215994]], dtype=float32)]


Weights_k:
[array([[ 0.76382816,  0.19084968, -0.05317944, -0.74454683, -0.03966815,
        -0.2867519 , -0.37162763, -0.68564075, -0.5520413 ,  0.49896345,
        -0.40134975,  0.01469698, -0.9491589 ,  0.34172484,  0.76954544,
        -0.24052319,  0.13253106, -0.5350887 , -0.02592763, -0.08501681],
       [ 0.40070966, -0.35125747, -0.00272524,  0.22574197,  0.10040363,
         0.15409188,  0.50538486,  0.21221368, -0.63239795, -0.53356636,
         0.00377406, -0.40865973,  0.08028791, -0.48693684, -0.02662079,
         0.42133087,  0.48132065, -0.15464121, -0.51040816, -0.32112312]],
      dtype=float32), array([[-0.10081036, -0.45517603,  0.19940735, -0.36120084, -0.25765568,
         0.26631972, -0.7167536 , -0.01860475,  0.27463427, -0.11298651,
        -0.8094798 , -0.10929964, -0.45954984, -0.13851228,  0.04984625,
        -0.0317161 , -0.08793505, -0.13130414,  0.43122703, -0.3038338 ],
       [-0.21631783, -0.2885384 , -0.25049993, -0.12444881, -0.19057056,
         0.05789625,  0.59461373,  0.09261797, -0.23667699, -0.12658039,
        -0.19740525, -0.00371198,  0.17501003,  0.458939  ,  0.5191428 ,
        -0.0816642 , -0.53760445, -0.16995682,  0.07786209,  0.34912145],
       [ 0.03395104,  0.40629977,  0.04103374, -0.24762182, -0.06918413,
        -0.01555606, -0.26242968, -0.00486065,  0.07083961,  0.20938806,
         0.22844586, -0.23511048, -0.24563038, -0.2693743 , -0.43195248,
         0.05438397,  0.06250919,  0.3487376 , -0.16395363,  0.25390828],
       [ 0.03392915,  0.11974155, -0.04306814,  0.43040952,  0.08334628,
         0.2109621 ,  0.04525814, -0.09570838,  0.10031828, -0.02535981,
         0.64403725,  0.04393599,  0.24785253,  0.17970133,  0.109391  ,
        -0.25426736,  0.5488083 ,  0.24399516, -0.17680244,  0.01804681],
       [-0.09527606,  0.4103707 ,  0.22749661,  0.2314188 ,  0.34598458,
        -0.07124315,  0.7786011 , -0.12297701,  0.27067405, -0.42800236,
         0.01805566, -0.23666868,  0.19172986, -0.2517545 , -0.12703453,
         0.17244951, -0.2447693 , -0.34844324,  0.5375121 , -0.43848395],
       [-0.1888468 ,  0.49913967,  0.38981426, -0.0929854 ,  0.37372884,
         0.38911024,  0.20945376,  0.25538245, -0.01287771,  0.13102141,
         0.5407208 ,  0.08928197, -0.24062583, -0.1079767 , -0.14068982,
        -0.12205309,  0.25682768,  0.38761333, -0.40639094,  0.35159653],
       [-0.19421846,  0.8298887 , -0.3453864 ,  0.47146904,  0.33618987,
         0.01486206, -0.3157167 , -0.28262565, -0.10629431, -0.5061447 ,
         0.2213893 ,  0.0365061 ,  0.4030621 , -0.07922637, -0.6084116 ,
        -0.12771198,  0.21803354,  0.12291822, -0.22298995, -0.17394595],
       [-0.15922007,  0.36695522,  0.16792071,  0.09339004,  0.45102304,
         0.05761744,  0.8420473 ,  0.04283569,  0.03995303, -0.01282671,
         0.8169359 ,  0.25685412,  0.21815139, -0.20520486, -0.20094329,
         0.27031398,  0.5500494 ,  0.43276778,  0.14986636, -0.15099017],
       [-0.3161471 ,  0.15626234,  0.09619642,  0.3023785 ,  0.06795199,
        -0.01279673,  0.45168322,  0.1304649 , -0.41864732, -0.01395122,
         0.40024137,  0.23132358, -0.08517602, -0.01712216, -0.2871442 ,
         0.11149917,  0.06555822, -0.03477223,  0.13814898,  0.2652458 ],
       [ 0.1335206 , -0.6428502 ,  0.14413525, -0.32979208, -0.42066467,
        -0.04705163,  0.26828972, -0.19128807, -0.0483119 ,  0.22255898,
         0.06409135, -0.21676466, -0.32238504,  0.20005763,  0.22088179,
        -0.04284343, -0.09105918, -0.37630227,  0.45214915,  0.43690327],
       [-0.4240197 ,  0.27057555, -0.23299104,  0.2917526 ,  0.3649565 ,
        -0.12685272,  0.7780259 ,  0.26868233,  0.23149055,  0.06300576,
         0.20448501,  0.33165932,  0.44043574, -0.01072818,  0.08034663,
         0.14007434, -0.04323133, -0.15861656, -0.00722573, -0.06930564],
       [ 0.27462786, -0.64024925, -0.12245011,  0.04410891, -0.13735327,
         0.05036018,  0.33591318,  0.28570366,  0.02945366,  0.22391449,
         0.22436695,  0.03953843, -0.04400014,  0.34364367,  0.09503073,
         0.02243302, -0.01564764, -0.24270558, -0.09953298,  0.05082527],
       [ 0.14082164,  0.45676816, -0.22223023,  0.25242674,  0.2258752 ,
        -0.07335677,  1.0383368 , -0.01190409,  0.08393221,  0.1789592 ,
         0.35588476, -0.1833016 ,  0.20494981,  0.1895121 , -0.63027656,
        -0.24703352,  0.01317667,  0.12017331,  0.22990514, -0.11812297],
       [ 0.07928924, -0.5591287 ,  0.08959459, -0.23463649, -0.44097236,
         0.14714634, -0.11106103,  0.2997113 , -0.27350882,  0.15595205,
        -0.33136073, -0.06270581, -0.31786212, -0.3291298 ,  0.13599017,
        -0.09624942, -0.32387948, -0.0881246 , -0.17696598,  0.29811144],
       [ 0.19311929, -0.3067558 ,  0.4006819 ,  0.21185881, -0.21190313,
         0.00831231, -0.5781391 , -0.02748346,  0.40244037, -0.22789626,
        -0.1894705 ,  0.20731035, -0.38500288, -0.05373965,  0.03497196,
         0.2641003 , -0.19847147, -0.22059757, -0.00483112,  0.12780802],
       [-0.30594325,  0.8383896 , -0.10693912,  0.07368489,  0.27757826,
        -0.10836067,  0.29489556, -0.01346326, -0.0932359 , -0.03990363,
         0.32541692,  0.36058345, -0.0460315 ,  0.0367487 ,  0.2521505 ,
        -0.43254995,  0.21927753, -0.03338536, -0.20102471, -0.60950327],
       [-0.05488502,  0.4595993 ,  0.2395929 , -0.34403792,  0.06883831,
         0.12065683, -0.37605816,  0.04508753,  0.14599961, -0.2373404 ,
        -0.12218844, -0.16086309, -0.08764195,  0.31708142, -0.23564045,
        -0.0638602 , -0.2595686 , -0.0881797 ,  0.4111414 , -0.40177843],
       [-0.140526  , -0.22426194, -0.2747629 , -0.02387916,  0.09182024,
         0.06211817,  0.3648143 ,  0.2726614 , -0.18929638,  0.17358276,
         0.8515624 ,  0.10608329,  0.15801947, -0.11170817,  0.0122862 ,
        -0.10673582,  0.2140103 ,  0.43779117, -0.04939109,  0.10794379],
       [-0.27517408, -0.32826668,  0.02088232, -0.1782277 ,  0.04080405,
        -0.34157196,  1.1000943 , -0.06017329,  0.269075  ,  0.42280802,
         0.20394653, -0.28880394, -0.2566249 ,  0.14894894,  0.13971074,
         0.25503263, -0.37413797, -0.44515753, -0.20613813,  0.20989811],
       [-0.03924476, -0.04416913, -0.16749634,  0.26605913,  0.04639428,
        -0.15499014,  0.825837  ,  0.0418387 ,  0.154338  ,  0.12597625,
        -0.08068164,  0.16725567,  0.17513388,  0.06524414,  0.24619694,
         0.38661885, -0.3091541 ,  0.12068628,  0.10090012, -0.132015  ]],
      dtype=float32), array([[ 3.43827344e-02,  2.48769462e-01, -2.97624823e-02,
         2.70826876e-01,  1.79409084e-03, -4.51992363e-01,
        -3.64021957e-02,  9.43347737e-02,  1.74452424e-01,
        -1.14659898e-01,  2.53468871e-01, -2.39975769e-02,
         1.72297642e-01, -3.34497184e-01, -2.90089883e-02,
        -2.32761219e-01, -1.07389763e-01, -6.68352097e-02,
         9.15364549e-02,  4.00535792e-01],
       [ 1.99795857e-01, -4.10296053e-01, -2.02886522e-01,
         4.37758975e-02,  3.06411952e-01,  3.50394845e-01,
         1.47441685e-01, -2.42711902e-01, -7.58570060e-03,
         3.98497991e-02, -1.79118827e-01, -3.62520903e-01,
         3.28807414e-01,  1.71684161e-01,  4.38244760e-01,
        -7.45226815e-02, -2.49419436e-02, -3.06470431e-02,
         1.20729186e-01,  2.52755638e-02],
       [ 3.88014168e-01,  1.31170809e-01,  3.42722178e-01,
         4.73158844e-02, -4.33194816e-01,  7.52355903e-02,
        -7.01821148e-02, -3.27785909e-02,  1.24467403e-01,
        -2.54076034e-01, -1.10628987e-02,  9.85992625e-02,
         3.49397093e-01, -3.87095720e-01, -8.70848447e-02,
        -1.32034114e-02, -1.14924252e-01, -3.87740910e-01,
        -9.75193679e-02, -2.78425634e-01],
       [-7.53901750e-02, -3.17079365e-01, -5.67813516e-01,
         1.79121509e-01,  2.04105526e-01,  2.18382671e-01,
         1.84477717e-01, -2.03693509e-01, -1.67064667e-01,
         1.05133057e-01,  1.65071011e-01, -2.12024748e-01,
        -3.07394832e-01,  2.57518739e-01, -1.08227767e-01,
        -3.07672888e-01,  1.75104663e-01,  2.39112198e-01,
         2.63059616e-01,  1.40335336e-01],
       [ 3.32302511e-01,  3.05595249e-01, -7.28518069e-02,
         3.33097398e-01,  1.28717035e-01,  4.29659456e-01,
         6.70963316e-04,  9.02159065e-02, -1.00275241e-01,
        -2.69003004e-01, -3.22038718e-02, -2.15421557e-01,
        -1.41744465e-01,  2.53064841e-01,  1.34123221e-01,
         2.42798463e-01, -1.33652657e-01,  4.25277621e-01,
         5.82576729e-02, -1.07724860e-01],
       [ 4.92109984e-01, -4.09806408e-02,  3.42932105e-01,
        -1.56578161e-02, -1.01482689e-01,  2.03922957e-01,
        -3.11865788e-02, -8.60898569e-02, -3.96952301e-01,
         6.02544136e-02,  2.80193478e-01, -2.74896294e-01,
         1.59082144e-01, -9.92465615e-02, -3.73390131e-02,
         1.91155195e-01,  1.80622693e-02, -3.25627238e-01,
         2.64027566e-01, -1.75744861e-01],
       [ 1.55477062e-01,  2.05035329e-01,  3.31736058e-01,
         4.68055159e-01,  6.71907485e-01,  5.21101952e-01,
        -1.31276190e-01,  1.23243690e-01, -1.72063723e-01,
         1.10161543e-01,  1.87977463e-01,  7.19540268e-02,
        -1.08924352e-01,  2.75334194e-02, -2.78900832e-01,
        -2.94597484e-02, -2.59901509e-02, -1.21412739e-01,
         5.54427616e-02,  4.28598747e-02],
       [-2.86386281e-01,  3.30215842e-01, -1.31259248e-01,
        -2.66527012e-03, -1.25453740e-01,  9.78074223e-02,
         1.38294715e-02,  1.19339637e-01, -2.99875271e-02,
         1.59299169e-02, -2.91097403e-01, -8.61184746e-02,
         2.09560841e-01, -7.84645453e-02,  3.36382389e-01,
        -1.33629963e-01, -6.39709607e-02,  3.93735230e-01,
        -1.17060997e-01, -3.47331852e-01],
       [-4.43769656e-02, -9.55043957e-02,  5.20797193e-01,
        -1.03868388e-01, -2.11094618e-02, -1.18694454e-01,
         2.16338918e-01,  7.39601701e-02,  4.04850431e-02,
        -9.22878608e-02, -7.84753487e-02, -1.32693537e-02,
         9.69281420e-02,  4.63177934e-02, -2.22511575e-01,
         1.00486897e-01,  1.15232334e-01,  3.28438096e-02,
        -2.11580977e-01, -4.04200017e-01],
       [ 2.44434565e-01,  2.73876488e-01,  7.61156604e-02,
        -3.19875866e-01,  2.64491867e-02,  2.90562641e-02,
         4.02510643e-01, -4.12264280e-02,  3.81708257e-02,
         7.92830437e-02, -2.38822158e-02,  1.15422964e-01,
        -6.04786836e-02,  1.18962988e-01,  1.59098759e-01,
         1.24810725e-01, -5.08060791e-02, -1.50769427e-01,
         1.67297885e-01, -7.26271197e-02],
       [ 4.79189932e-01,  3.35242033e-01, -2.30929613e-01,
         6.81205988e-02,  1.01828188e-01,  3.89117002e-01,
         1.61318824e-01, -9.22658816e-02,  1.61456149e-02,
         3.29320759e-01,  2.99497265e-02, -2.89152771e-01,
         3.05546999e-01,  1.30344614e-01, -1.38145745e-01,
         2.36460030e-01, -9.02970415e-03,  2.88161188e-01,
        -2.56637961e-01, -3.44919235e-01],
       [ 4.37168851e-02, -5.91241904e-02, -1.93557844e-01,
         1.33534446e-01,  3.34529817e-01,  2.04661325e-01,
         3.01093698e-01,  1.09486863e-01, -2.11832240e-01,
        -2.19345823e-01,  1.27052246e-02,  2.13822007e-01,
        -1.21130377e-01, -2.32234165e-01,  9.13680121e-02,
         5.45019247e-02, -2.89988257e-02,  1.40793957e-02,
         1.52902156e-01,  3.57698500e-02],
       [ 3.22066724e-01, -4.47338521e-01, -4.12972033e-01,
         1.35977507e-01,  2.99120039e-01,  1.91134378e-01,
        -8.90000090e-02,  1.27990156e-01, -7.42970183e-02,
        -9.62483883e-02, -1.36211067e-01, -3.89881939e-01,
        -3.46443713e-01,  1.48501471e-01,  2.74500668e-01,
        -2.92811394e-01, -1.35686740e-01,  8.93725008e-02,
        -2.46081412e-01, -3.17722112e-01],
       [-1.21226750e-01, -1.61005229e-01, -9.45255235e-02,
        -1.84779853e-01, -2.49401783e-03, -2.71736979e-01,
         2.21310575e-02,  1.40347481e-01,  1.42457604e-01,
         2.09292501e-01, -2.94028282e-01, -1.78493932e-01,
        -1.30337134e-01,  5.58708198e-02,  1.27282545e-01,
        -2.60822535e-01, -3.61963183e-01, -4.79837060e-02,
        -8.29503015e-02, -1.42589167e-01],
       [-3.01057547e-01, -6.26252741e-02,  1.87295273e-01,
        -4.75298733e-01, -2.79219151e-01,  7.81495273e-02,
        -6.38792366e-02, -1.50592491e-01,  3.15667316e-03,
         2.55705535e-01,  5.50161414e-02,  3.46460342e-01,
        -3.63081664e-01, -2.27310702e-01, -3.17260861e-01,
        -8.11825022e-02,  1.82365388e-01, -2.09348425e-01,
        -1.15186915e-01,  6.25211895e-02],
       [-8.76914710e-02,  2.81491816e-01,  1.26960233e-01,
        -9.55061466e-02,  2.18376085e-01, -6.55061185e-01,
         3.64205837e-01,  3.07054907e-01, -4.48919870e-02,
        -2.88714439e-01,  3.07768196e-01, -2.25487635e-01,
         1.69107765e-01, -1.15230657e-01, -3.11201602e-01,
        -3.12236875e-01, -1.54112026e-01, -1.99032128e-01,
        -1.87303722e-02,  3.44062775e-01],
       [ 9.14470013e-03, -5.53958789e-02,  1.04791597e-01,
         2.28970498e-01,  1.46124303e-01,  3.94486725e-01,
         2.78892487e-01, -2.98356488e-02, -3.91626060e-01,
         3.68588984e-01, -1.37343630e-01,  1.73339114e-01,
        -6.25003055e-02, -1.56661719e-01, -4.09928858e-02,
        -6.67561293e-02, -2.58136928e-01, -2.71180570e-01,
        -1.57478556e-01, -2.67329812e-01],
       [ 5.74463964e-01,  7.99986571e-02, -7.73514658e-02,
         1.73795924e-01,  1.61908731e-01,  2.35034868e-01,
         2.55972743e-01,  2.69088835e-01, -3.77807409e-01,
         3.85968804e-01,  1.96633875e-01,  2.77366221e-01,
        -6.97028488e-02,  1.37052815e-02, -1.62589297e-01,
         6.54969364e-02, -6.40437054e-03,  3.26683782e-02,
         1.50637686e-01,  2.71338522e-01],
       [-4.34633791e-01,  4.15917516e-01,  2.87488371e-01,
        -2.66102161e-02, -7.16446191e-02, -1.00613475e-01,
        -4.09932911e-01,  1.05493724e-01,  1.99873239e-01,
         1.63023099e-01,  3.03313076e-01,  1.04905523e-01,
         3.54061127e-01,  7.27220774e-02, -4.34159845e-01,
        -7.02146068e-02, -3.28824967e-01,  6.06305972e-02,
         1.90643743e-01, -7.78422207e-02],
       [ 3.57824296e-01, -2.27095157e-01,  3.18028390e-01,
         2.77760327e-01,  9.13500339e-02, -3.54468040e-02,
         1.05197251e-01,  7.90936276e-02,  5.55086613e-01,
        -1.65992275e-01, -5.79564832e-02,  2.69186739e-02,
         1.79842576e-01, -2.40577087e-01, -3.57165247e-01,
         1.46012530e-01,  3.27715516e-01, -2.46195853e-01,
        -8.88141543e-02,  7.12852925e-02]], dtype=float32), array([[-0.5552708 ],
       [-0.19176993],
       [-0.54658306],
       [-0.34054586],
       [-0.47544482],
       [-0.1528005 ],
       [-0.40120196],
       [ 0.37765345],
       [ 0.07248548],
       [ 0.11057317],
       [-0.15547435],
       [-0.18656543],
       [-0.03103199],
       [ 0.15511033],
       [ 0.2309795 ],
       [-0.31578672],
       [ 0.25703153],
       [ 0.5133934 ],
       [-0.09764661],
       [-0.28157   ]], dtype=float32)]


Weights_h:
[array([[-0.3847942 , -0.04948629,  0.24677642, -0.23875709,  0.05156523,
        -0.20742881, -0.21824352, -0.06401967, -0.27852044, -0.02240024,
         0.25755304,  0.18873529, -0.03202347,  0.23602533, -0.03530238,
         0.16433482, -0.05650025,  0.05088195, -0.06550679, -0.1382626 ,
         0.11936234,  0.02564701,  0.06707189, -0.26239616, -0.10346323,
         0.09673453, -0.21234682, -0.09207831, -0.17807688,  0.15526433,
        -0.29707652, -0.03676382],
       [-0.33513674, -0.18489185,  0.06239164, -0.19025156, -0.0101442 ,
        -0.04081805, -0.11376446, -0.04229528, -0.24654998,  0.2349803 ,
         0.20441197,  0.17320421, -0.1103617 ,  0.3836468 , -0.00348098,
        -0.35042274,  0.00902804, -0.3705562 ,  0.2899864 ,  0.18666182,
        -0.02002633, -0.37947112, -0.01253294, -0.12768048, -0.3302281 ,
        -0.01156785,  0.14746457,  0.0364135 ,  0.25202355, -0.25384378,
        -0.04984817, -0.21131259]], dtype=float32), array([[ 0.09194116, -0.17335773,  0.09601409, ..., -0.07172847,
         0.09723873, -0.12559257],
       [ 0.0792105 ,  0.03344706,  0.11776788, ...,  0.12338252,
         0.20829958, -0.05623387],
       [ 0.02874343,  0.02338286, -0.04900435, ...,  0.12100572,
         0.03710907,  0.0522728 ],
       ...,
       [-0.25116593, -0.08184017,  0.24272752, ...,  0.10158588,
         0.32422888, -0.23551747],
       [-0.17285287, -0.3381873 ,  0.03805894, ..., -0.09182721,
         0.16076602,  0.16624102],
       [-0.02222054, -0.21406713,  0.03391899, ...,  0.11497474,
        -0.12312885, -0.03046631]], dtype=float32), array([[ 0.01018026, -0.03925708,  0.21420872, ...,  0.09495685,
        -0.18163879, -0.11779539],
       [ 0.0113268 , -0.2960281 , -0.26057416, ..., -0.11653978,
         0.02164994, -0.21261981],
       [ 0.0042045 ,  0.07931965, -0.3090617 , ...,  0.05754375,
        -0.03637549,  0.07554075],
       ...,
       [-0.09785339,  0.19730261,  0.19000147, ...,  0.1329379 ,
         0.18629673,  0.0533314 ],
       [ 0.03400845, -0.0655346 , -0.08878192, ..., -0.00805781,
         0.00066319, -0.08710948],
       [ 0.01120411, -0.20655243,  0.07101776, ...,  0.01610675,
         0.1589889 , -0.32596985]], dtype=float32), array([[-0.01565349],
       [ 0.11162023],
       [-0.3251682 ],
       [-0.03965157],
       [ 0.05331318],
       [-0.00968867],
       [ 0.3363216 ],
       [-0.07715577],
       [ 0.4663127 ],
       [ 0.3354981 ],
       [ 0.06902552],
       [-0.24426116],
       [-0.13933954],
       [-0.0180802 ],
       [-0.18084541],
       [ 0.1622704 ],
       [ 0.16364646],
       [ 0.24967502],
       [ 0.20082943],
       [ 0.04129044],
       [ 0.37992406],
       [ 0.08060747],
       [-0.2853554 ],
       [ 0.0861797 ],
       [-0.32356298],
       [ 0.10788144],
       [-0.34842527],
       [-0.17330487],
       [-0.03875805],
       [-0.43936598],
       [-0.35634166],
       [-0.08395713]], dtype=float32)]


Weights_c:
[array([[-0.13622867,  0.42338312, -0.15675224, -0.32363656, -0.17980838,
         0.05629794, -0.07583773,  0.30347443, -0.1349772 ,  0.24305099,
        -0.4092207 , -0.3735009 ,  0.09488913, -0.33440706, -0.05949428,
        -0.29759374, -0.19795848, -0.35358143, -0.06076776, -0.05803337,
         0.15161946, -0.04768752, -0.2998307 , -0.15278476, -0.35588375,
        -0.08726347,  0.00589391,  0.28316075, -0.13023134,  0.41367993,
         0.4020938 , -0.1483381 ],
       [ 0.08978734, -0.00890773,  0.11880561,  0.23088348, -0.0555931 ,
        -0.14995074,  0.273828  ,  0.17952684,  0.21569912,  0.10075775,
        -0.21407801, -0.04635951, -0.19050644,  0.24149464, -0.2934903 ,
        -0.32948896, -0.02040687,  0.4164493 , -0.0814971 ,  0.45980972,
         0.00654618,  0.3216357 , -0.25729465, -0.10112642,  0.2957573 ,
         0.31495658, -0.12426634,  0.2900583 , -0.27321368, -0.19987638,
         0.2101588 ,  0.1513096 ]], dtype=float32), array([[ 0.29732078,  0.03540108,  0.1635939 , ...,  0.19236319,
        -0.1472768 ,  0.0139805 ],
       [ 0.19454236, -0.08634178,  0.10947739, ...,  0.03405735,
        -0.14790235, -0.0009466 ],
       [-0.0088187 , -0.21634892, -0.01317325, ..., -0.04822404,
         0.01997719,  0.07304514],
       ...,
       [-0.11606478,  0.09968559, -0.1909063 , ...,  0.02873203,
         0.19393866,  0.06193072],
       [ 0.00252427, -0.2394489 , -0.12123157, ..., -0.05189986,
        -0.17629506,  0.18243061],
       [-0.05971986,  0.19113524,  0.05141175, ...,  0.07302216,
        -0.01481896, -0.04089622]], dtype=float32), array([[-0.00089215,  0.1211469 , -0.05319216, ...,  0.16930425,
         0.12946188,  0.0407088 ],
       [-0.08425625, -0.33784568, -0.06500454, ..., -0.18562123,
         0.13479383, -0.00340043],
       [ 0.10126544,  0.0596708 , -0.3345778 , ..., -0.0576431 ,
         0.12685978, -0.22224922],
       ...,
       [-0.11011127, -0.05950799,  0.22059968, ..., -0.02914822,
        -0.03456303,  0.02283335],
       [-0.18414769,  0.20103744,  0.3129413 , ..., -0.17992538,
        -0.14682287, -0.0979409 ],
       [ 0.09176545, -0.15499635, -0.13979758, ..., -0.01998837,
         0.21740592, -0.00665311]], dtype=float32), array([[-0.02168287],
       [-0.03359716],
       [-0.34869012],
       [ 0.38278785],
       [-0.07443333],
       [ 0.12078632],
       [-0.05771888],
       [-0.21379422],
       [ 0.07108034],
       [-0.37464947],
       [ 0.37116486],
       [-0.1801672 ],
       [-0.12809238],
       [ 0.03691423],
       [ 0.01316369],
       [ 0.2842414 ],
       [-0.06493585],
       [ 0.09263818],
       [-0.15633747],
       [-0.15200108],
       [-0.30846697],
       [ 0.21564965],
       [-0.48064598],
       [-0.33955863],
       [ 0.13439439],
       [-0.00347315],
       [-0.2916215 ],
       [-0.20961083],
       [ 0.09588093],
       [-0.06549325],
       [ 0.19615898],
       [ 0.06145195]], dtype=float32)]


Weights_k:
[array([[ 0.16468276,  0.51185745, -0.09357568, -0.2208923 ,  0.7061455 ,
         0.7371227 , -0.19500796,  0.1266642 ,  0.32177642,  0.47507963,
         0.22900912, -0.581337  , -0.5969184 ,  0.11510478, -0.60757613,
        -0.33057198, -0.53894347, -0.43871707,  0.38546106, -0.15590258],
       [ 0.55785644, -0.22822438,  0.34663138, -0.28492045,  0.14656529,
        -0.1810308 , -0.24181779, -0.7966704 , -0.29238012,  0.00573084,
         0.15387876,  0.25030383, -0.01654903,  0.18401916,  0.56302696,
         0.03453577,  0.08418875,  0.41352946,  0.26961732, -0.02516617]],
      dtype=float32), array([[-0.58373743,  0.59105706, -0.10143352, -0.07095025, -0.36570564,
        -0.1709857 , -0.139666  , -0.06778912,  0.04272432, -0.45295775,
        -0.43471786,  0.10942712,  0.06874228, -0.34656417, -0.19798812,
         0.02249619,  0.09492376, -0.17668393,  0.04940757,  0.27439407],
       [ 0.09194455, -0.0520155 ,  0.02878543,  0.2598591 , -0.4917124 ,
        -0.05953827,  0.18800217,  0.517913  ,  0.4786538 , -0.09612551,
         0.22112899,  0.1296491 , -0.36613232,  0.5368564 , -0.17843437,
        -0.40788218, -0.1124843 , -0.09145307,  0.45433864,  0.6330146 ],
       [-0.17473425,  0.43064246, -0.05276686,  0.29959536, -0.12706618,
        -0.00422189, -0.24222034,  0.04022995,  0.05674022, -0.17844082,
        -0.32605276,  0.01673311,  0.29376233, -0.08393294,  0.01429636,
        -0.05473598, -0.1560389 ,  0.12298889,  0.41311008, -0.03168363],
       [ 0.13908546, -0.0989341 , -0.37699178, -0.23887663,  0.09231219,
        -0.06915465, -0.27963316,  0.21277744, -0.48272434, -0.15692605,
         0.03700278,  0.19000968, -0.40682292, -0.299117  , -0.04936221,
        -0.14407626,  0.09356365, -0.2777295 ,  0.1840184 , -0.13973154],
       [-0.23316473, -0.0182634 , -0.17453177, -0.02965973, -0.03553105,
         0.07853364, -0.06062339,  0.35887688,  0.611666  ,  0.09844953,
         0.18606699, -0.00902378, -0.2637701 ,  0.60941684, -0.2856366 ,
         0.13928203, -0.16690889,  0.34361508, -0.06320444,  0.689987  ],
       [-0.15526323, -0.04153033, -0.04569198, -0.0483875 , -0.34856594,
        -0.01664001,  0.1436174 ,  0.3360854 ,  0.4771342 , -0.15670036,
         0.43332916,  0.0534074 , -0.27026555,  0.3049815 , -0.04969807,
        -0.20893756, -0.2690544 , -0.23366782, -0.2041871 ,  0.05438586],
       [ 0.21463707, -0.37501228, -0.08732788, -0.39004526,  0.11846073,
         0.332241  , -0.03572321,  0.06794945, -0.68151253,  0.08646552,
         0.00604221,  0.4897692 , -0.17442305, -0.1405219 ,  0.25558415,
        -0.07009734,  0.18943228, -0.2620059 ,  0.05827668, -0.30944136],
       [ 0.38351467,  0.10811681,  0.02113166, -1.0464504 ,  0.14749806,
         0.15334213,  0.10764066,  0.5571236 , -0.01811172, -0.14491448,
         0.22755115, -0.00805114, -0.13746825, -0.00905312, -0.15086508,
         0.15805978, -0.21773376, -0.5154191 , -0.15819508, -0.59080166],
       [ 0.21861653,  0.03872135, -0.16559896, -0.5499198 , -0.2174212 ,
         0.23326993, -0.16540061,  0.3977435 ,  0.16238199, -0.1820889 ,
         0.41279185,  0.11701006, -0.24243724,  0.6637035 ,  0.07033075,
        -0.05278276, -0.15208587, -0.2216231 , -0.18264428,  0.4944532 ],
       [ 0.02228685, -0.36182213, -0.26437256,  0.13068528, -0.15618983,
         0.37883523,  0.09418381,  0.55143404,  0.5564016 ,  0.17235291,
        -0.23511913,  0.18210623, -0.1144568 ,  0.87882805,  0.02060821,
        -0.11749966, -0.09093072, -0.37624407, -0.36183363,  0.52485615],
       [ 0.04611075,  0.12980597, -0.23242195,  0.5732619 ,  0.10525212,
         0.04048641,  0.00987077,  0.03832151,  0.5615164 , -0.04798822,
         0.17763303, -0.14164795, -0.17267935,  0.36748672, -0.05409292,
         0.06576161,  0.01006213, -0.03226796,  0.46355063,  1.0482594 ],
       [ 0.07804451, -0.10058161, -0.31863403,  0.03723887,  0.18392877,
        -0.0079017 , -0.01373387, -0.8840923 , -0.7833525 , -0.21396546,
        -0.06583449, -0.2608229 ,  0.07199286, -0.3511314 , -0.44557732,
        -0.10081496,  0.36221868, -0.08475689,  0.14811948, -0.38472995],
       [ 0.05552664,  0.00804239, -0.10478459, -0.14909993,  0.09793196,
        -0.11140673,  0.06075095, -0.4041607 , -0.8384379 ,  0.1106196 ,
        -0.19959092,  0.14161292,  0.37916672, -0.58072966,  0.05080398,
         0.0915297 , -0.1021691 , -0.02124947,  0.00147793, -0.66949725],
       [-0.03276822,  0.21581492, -0.11466554,  0.7505985 , -0.14364451,
         0.2769284 ,  0.25043866, -0.00693626,  0.27579466, -0.02788112,
        -0.19670744, -0.19640964, -0.21099213,  0.49458894,  0.06860148,
        -0.23608784,  0.15134104,  0.12201117,  0.2842666 ,  0.81607753],
       [-0.29613242, -0.05217683,  0.02390055,  0.6791644 ,  0.04259624,
        -0.01295895,  0.2176758 , -0.18804748, -0.64097285, -0.00441134,
        -0.39216593, -0.12290662, -0.05613279, -0.37516153, -0.24240293,
        -0.39613473,  0.35562262,  0.31962514,  0.17062142,  0.10322158],
       [-0.12402993, -0.03916664,  0.17059465, -0.35576978,  0.43190515,
         0.0643874 ,  0.14541706, -0.3494108 , -0.48469275, -0.08491562,
        -0.1249815 , -0.00171262,  0.26771098, -0.67988455, -0.3500243 ,
         0.22371835, -0.12831281, -0.21674745, -0.07416277, -0.8964209 ],
       [-0.22575499, -0.28072202,  0.09743614,  0.12133327,  0.34595606,
         0.00658516, -0.25356674, -0.07073439, -0.39414886, -0.04963085,
         0.04732113, -0.17317557,  0.11632518, -0.51345104, -0.09930897,
        -0.15271229,  0.16270556, -0.16844067,  0.02231205, -0.33583146],
       [ 0.08820821, -0.07905778, -0.25714335,  0.3303917 ,  0.00210028,
         0.1773476 ,  0.34365976, -0.40543988, -0.17344885, -0.2644257 ,
        -0.4396574 , -0.24354133,  0.06393   , -0.17201668, -0.02210263,
        -0.4613925 ,  0.26744226,  0.20619631,  0.02390059,  0.34529993],
       [-0.0993704 ,  0.26469195, -0.15652198, -0.32318702, -0.1869724 ,
         0.25647667,  0.15088624,  0.02451388,  0.6349497 , -0.1286184 ,
        -0.09456586,  0.18963793,  0.01303298,  0.2514713 , -0.34729147,
         0.3311733 ,  0.05398075,  0.18946871,  0.10015088,  0.45888335],
       [ 0.10131901,  0.25060573, -0.34408185,  0.01712041, -0.19194654,
        -0.04221527, -0.16099283, -0.17715761, -0.18226379,  0.29046655,
        -0.08296217,  0.08132212,  0.02698753,  0.17457135,  0.01281784,
        -0.08639357,  0.34299374, -0.11159233,  0.22423942,  0.09854401]],
      dtype=float32), array([[-0.03753979,  0.29185048,  0.08345707,  0.31839538,  0.36980277,
         0.01622801, -0.14084429, -0.22039594,  0.0021322 , -0.18909553,
        -0.42210427, -0.13393593, -0.10134442,  0.26859137, -0.3130664 ,
        -0.16833942, -0.03069888,  0.15264225,  0.1372755 ,  0.25848854],
       [-0.34811798,  0.19609903, -0.09400729, -0.10927536, -0.03733272,
         0.1613358 , -0.12215098, -0.20843574,  0.22011799,  0.10512178,
        -0.1518179 ,  0.24166004,  0.09299549,  0.11726724, -0.00558844,
         0.11244875, -0.02943052,  0.18518655,  0.51153535,  0.2918959 ],
       [ 0.20238557,  0.07288117,  0.17081226,  0.09199233,  0.04383772,
         0.34499118, -0.07277382,  0.14109144,  0.3377874 , -0.33971858,
         0.24264003,  0.33427307, -0.08538965, -0.11471162,  0.4731325 ,
        -0.36268622, -0.14953935, -0.24321775,  0.21865554, -0.18258996],
       [-0.00223189, -0.05228679,  0.00425265,  0.13929021,  0.01734362,
        -0.03303463,  0.16466865,  0.34928033,  0.08876017, -0.00150174,
         0.24023598,  0.02425827, -0.41871884, -0.17469704, -0.05389142,
         0.23626368, -0.20452169,  0.3830783 , -0.02546541,  0.17806888],
       [ 0.36502168,  0.28626096, -0.08115472, -0.07738255,  0.20599282,
         0.20631114, -0.01681703,  0.11615346, -0.10682928,  0.08868638,
         0.11753783,  0.07605267,  0.23771039, -0.25762907, -0.08997642,
         0.42837512,  0.13213423, -0.3610522 , -0.41743746, -0.02223127],
       [ 0.11804404,  0.1849433 ,  0.06570358,  0.17924368, -0.14088604,
        -0.4486338 ,  0.07182464,  0.0276981 , -0.28382418, -0.16322644,
        -0.28398263, -0.44197944,  0.11215218,  0.24806073, -0.10350415,
         0.0576639 , -0.00600537,  0.40153763, -0.31554765, -0.17514804],
       [ 0.07148159,  0.2208861 ,  0.03317855, -0.07549334, -0.29469576,
        -0.23452991,  0.02436073,  0.19547282, -0.11356732,  0.43429518,
        -0.12158275,  0.13990702, -0.00116772, -0.25007418, -0.01953701,
         0.16988315, -0.2774782 , -0.16275647, -0.00253038,  0.12254998],
       [-0.1125393 , -0.33094987, -0.11605877,  0.735438  ,  0.0683144 ,
         0.14757524, -0.3125867 , -0.01583755,  0.08516186, -0.06381442,
        -0.36445522, -0.22181286,  0.01829742, -0.06436335,  0.356445  ,
        -0.10666312, -0.21575244,  0.05120324, -0.08158903,  0.03589809],
       [ 0.16181017, -0.17145574, -0.3026741 ,  0.0902717 ,  0.01178799,
        -0.00191474, -0.39546657,  0.03438458, -0.08052403,  0.1709261 ,
        -0.42042845, -0.034996  , -0.5571019 , -0.39221424, -0.01760382,
        -0.20390444, -0.32431507,  0.02732706, -0.21552381,  0.0640716 ],
       [-0.309169  ,  0.0735034 ,  0.42085853,  0.19616234, -0.13536042,
        -0.34338796, -0.0715885 , -0.24076447,  0.28082988, -0.07323799,
        -0.23907897, -0.16522151, -0.05569817,  0.11462945, -0.17268904,
        -0.18440942, -0.25522673, -0.14807068, -0.12473711,  0.01779631],
       [ 0.01816002, -0.07841095,  0.04772542,  0.11624452, -0.1793148 ,
        -0.2597384 , -0.4297169 ,  0.20420583,  0.01903413,  0.34056902,
        -0.3317555 ,  0.21390375,  0.29885095,  0.43709403, -0.16357993,
        -0.05065003, -0.14720896, -0.00982656, -0.16286246,  0.12781091],
       [ 0.03016157, -0.20815662, -0.2070959 ,  0.5338873 ,  0.05509145,
         0.03131508,  0.07120209,  0.16773163,  0.43107554, -0.11785175,
         0.0605895 , -0.05896922,  0.131468  ,  0.1948266 ,  0.16667224,
         0.03980234,  0.16297556, -0.21936673,  0.15464602, -0.32273462],
       [ 0.10583884,  0.17163597,  0.42605892, -0.46194142, -0.11476447,
         0.09534625,  0.3820886 ,  0.13920175,  0.08571824,  0.0103591 ,
         0.4438277 , -0.23040093,  0.15471111, -0.34251177, -0.20918012,
        -0.09619566,  0.1256869 , -0.1831409 , -0.00093605, -0.09306322],
       [-0.18080088, -0.06202778,  0.11536693,  0.42053473, -0.5654205 ,
        -0.34495553, -0.05637592, -0.2295411 ,  0.01680916, -0.02105505,
        -0.5037558 ,  0.04180773, -0.54893285,  0.13252313, -0.00834719,
        -0.26062858, -0.22429092,  0.34664178, -0.0135135 ,  0.17731857],
       [ 0.18113711,  0.0765021 ,  0.37029114,  0.5517965 ,  0.26501238,
         0.17424795,  0.29835963,  0.2915546 ,  0.13785584, -0.01374859,
         0.2902874 ,  0.18473916, -0.09584762,  0.00295139,  0.08385152,
         0.02685908, -0.12118025, -0.22760439,  0.1946022 , -0.2565214 ],
       [-0.04074347, -0.07250623,  0.1039878 ,  0.22994205,  0.01819308,
         0.15863411,  0.00535504,  0.19074601,  0.01862246,  0.02771205,
         0.0121439 , -0.35078356,  0.33851752,  0.29168388,  0.11368371,
        -0.3621489 , -0.14204875, -0.12269647,  0.30544522,  0.04378348],
       [-0.03849275,  0.30683538,  0.05670948, -0.38614693,  0.02671963,
         0.19773403, -0.0705946 ,  0.04797272, -0.0490641 , -0.11613815,
        -0.10402038, -0.23228535, -0.2715397 , -0.20225284, -0.22841205,
         0.11217895, -0.06288431, -0.15411028,  0.1850822 , -0.30744484],
       [ 0.06940276, -0.27407506,  0.24080679,  0.25803757, -0.11197863,
         0.04217083, -0.02376912, -0.27975395, -0.33315495, -0.12189677,
         0.4217022 , -0.10102199, -0.18911307,  0.354848  ,  0.10264365,
        -0.03282321, -0.13201348, -0.12235082,  0.08578883,  0.10054484],
       [ 0.22907373,  0.0155967 ,  0.11260793, -0.31515646,  0.06914754,
         0.01580478,  0.06687626,  0.0812281 , -0.2741477 , -0.17217404,
        -0.32039362,  0.06915618, -0.2559102 , -0.04892383, -0.1216967 ,
        -0.27674755,  0.21432264, -0.07203934,  0.04220745,  0.12868905],
       [-0.12301872,  0.07888151, -0.2849638 ,  0.54253185, -0.32083577,
        -0.16807157,  0.01294894, -0.10458881, -0.00459251,  0.09253902,
         0.09539498,  0.36791414, -0.54232943,  0.20621113, -0.04827807,
        -0.25273043, -0.16199398, -0.16369963,  0.16445614,  0.16496347]],
      dtype=float32), array([[ 0.11203795],
       [-0.423741  ],
       [ 0.08589596],
       [ 0.33462667],
       [-0.31677288],
       [ 0.24443859],
       [ 0.04406019],
       [ 0.28201038],
       [ 0.4363283 ],
       [-0.04250195],
       [ 0.47780144],
       [-0.22285758],
       [-0.67308855],
       [-0.48765594],
       [ 0.50116915],
       [-0.05943137],
       [-0.13367315],
       [-0.47802785],
       [-0.28652948],
       [-0.19334704]], dtype=float32)]


Weights_h:
[array([[-0.30400786,  0.01792022,  0.06938045,  0.02330546, -0.06868703,
         0.37080288,  0.01202486,  0.01886149,  0.10361246, -0.15670668,
        -0.03693129, -0.2700748 ,  0.06063279, -0.04794429, -0.18770742,
        -0.43031457,  0.0885537 , -0.03981707, -0.08119503, -0.16214885,
         0.11414637, -0.3256369 ,  0.278451  ,  0.2964988 ,  0.11967512,
         0.32852736,  0.4801364 , -0.19182198,  0.19292532, -0.03105825,
         0.21247259,  0.12212262],
       [-0.08988723,  0.07390318,  0.05101496, -0.20506227,  0.26010945,
        -0.01923952, -0.23306885, -0.21306822,  0.12720756,  0.13766392,
        -0.21740034, -0.15015253, -0.3117034 ,  0.01175536,  0.29495478,
        -0.13960005, -0.14602302, -0.05989897, -0.09021899, -0.08428376,
        -0.0036646 , -0.266173  ,  0.26125628,  0.09124697,  0.01502525,
         0.06828384, -0.28480273, -0.00621608, -0.3989994 ,  0.00568015,
         0.43112308,  0.03681706]], dtype=float32), array([[ 0.11569422, -0.04723977,  0.3084169 , ..., -0.07265962,
         0.22303168, -0.21699463],
       [-0.11422396,  0.17824996, -0.0464906 , ..., -0.19711742,
         0.01816284,  0.02020247],
       [ 0.17763181, -0.25119373, -0.1642591 , ..., -0.25231907,
         0.03841883, -0.05415213],
       ...,
       [ 0.18433015,  0.23024501, -0.3433169 , ..., -0.11828477,
         0.17955808,  0.16050485],
       [-0.2366715 ,  0.0713651 , -0.25627568, ...,  0.27950966,
         0.28516105,  0.07738235],
       [-0.05673158, -0.27202567, -0.13438535, ..., -0.06205755,
        -0.12946098,  0.01012141]], dtype=float32), array([[ 0.05054799,  0.05766766,  0.25051004, ...,  0.03549561,
         0.15792166,  0.23611781],
       [-0.17571624,  0.1661249 , -0.31310213, ..., -0.27999386,
        -0.01309361, -0.04667158],
       [-0.21247248,  0.14322577,  0.05542572, ..., -0.09773356,
         0.13901141, -0.23091306],
       ...,
       [ 0.29810798,  0.16447218,  0.09788392, ..., -0.14747761,
        -0.31281254, -0.13939558],
       [ 0.0925322 ,  0.05173494,  0.20474224, ..., -0.19036953,
        -0.19046192, -0.27849728],
       [ 0.0337874 ,  0.23531835, -0.05128616, ..., -0.20331149,
        -0.14286007,  0.06216659]], dtype=float32), array([[-0.12511268],
       [-0.1893171 ],
       [-0.31220916],
       [ 0.2434964 ],
       [ 0.23665056],
       [ 0.0123227 ],
       [ 0.47079128],
       [-0.2175555 ],
       [-0.01930456],
       [-0.21869287],
       [ 0.20425278],
       [ 0.30568588],
       [ 0.21341772],
       [-0.08333297],
       [ 0.2469635 ],
       [-0.12570496],
       [ 0.04697948],
       [-0.3927118 ],
       [ 0.48104247],
       [-0.08670194],
       [-0.23502035],
       [ 0.06826956],
       [ 0.20307343],
       [-0.04939986],
       [ 0.30004272],
       [-0.252164  ],
       [-0.04778063],
       [-0.14081118],
       [ 0.1551775 ],
       [ 0.26574823],
       [-0.00438787],
       [ 0.06894805]], dtype=float32)]


Weights_c:
[array([[-0.13442113,  0.19845286,  0.09708432,  0.40922683, -0.36279464,
        -0.29366985,  0.13334762,  0.19582412, -0.36474195, -0.00639213,
         0.16563483, -0.07134784,  0.10933784,  0.16500331,  0.05301572,
        -0.21443018, -0.22199033,  0.19119225,  0.3372994 ,  0.35366562,
         0.1364199 , -0.18138339,  0.04972997, -0.16778229, -0.16920207,
        -0.12581487,  0.12767327, -0.14963128,  0.3119879 , -0.14133012,
         0.23281942,  0.25819734],
       [ 0.1487653 , -0.32936358, -0.07373161,  0.13086993, -0.370247  ,
        -0.02450482, -0.19813125, -0.33103657,  0.07152235,  0.10551912,
        -0.03737341, -0.28994802, -0.08255294,  0.25516197, -0.16769898,
        -0.03791162, -0.15366833,  0.08617391,  0.01770783,  0.3197725 ,
         0.10101067,  0.02484412, -0.08822213, -0.00227069, -0.05929791,
        -0.22289096,  0.34699023, -0.47490385,  0.32694906, -0.30304962,
        -0.23912951,  0.00561153]], dtype=float32), array([[ 0.06139038, -0.14951885,  0.12830696, ..., -0.07389957,
        -0.26557326,  0.14496595],
       [ 0.2894069 , -0.266369  , -0.03214949, ..., -0.01776998,
         0.05788056, -0.06198962],
       [ 0.02053292,  0.01680291, -0.0542418 , ..., -0.15697622,
        -0.05625335,  0.13148633],
       ...,
       [-0.30171463,  0.2308341 , -0.0315115 , ..., -0.00481637,
         0.11398295,  0.07938053],
       [ 0.06103221, -0.05772445,  0.12204749, ...,  0.17899142,
         0.1825149 ,  0.10094772],
       [ 0.18110369,  0.10372639,  0.12031326, ..., -0.03262603,
        -0.04672311, -0.17034456]], dtype=float32), array([[-0.1871115 , -0.02301693, -0.06045176, ..., -0.00649628,
         0.14063711,  0.07507982],
       [ 0.17728989,  0.107947  ,  0.07035647, ...,  0.29785442,
        -0.09396828,  0.18469846],
       [ 0.14216708,  0.13490656,  0.1967732 , ..., -0.09733833,
         0.15251693,  0.00948957],
       ...,
       [-0.17658044,  0.23159759, -0.3381804 , ..., -0.10576715,
         0.14067194,  0.05445183],
       [ 0.04000979, -0.1588569 , -0.1999719 , ..., -0.17903924,
        -0.05965688,  0.13578263],
       [-0.10473091, -0.00378662,  0.2004241 , ...,  0.27385694,
         0.29562017, -0.01813447]], dtype=float32), array([[-0.00594524],
       [-0.254245  ],
       [-0.1919461 ],
       [ 0.07142402],
       [ 0.02193999],
       [-0.11047361],
       [ 0.12381399],
       [-0.20115456],
       [ 0.16134983],
       [-0.10313765],
       [ 0.1157281 ],
       [ 0.12451386],
       [ 0.19572425],
       [-0.45730788],
       [ 0.36600986],
       [ 0.01748684],
       [-0.34259507],
       [ 0.10353127],
       [-0.18891682],
       [ 0.10702197],
       [ 0.11450938],
       [ 0.25676802],
       [-0.26005375],
       [-0.11707489],
       [ 0.310538  ],
       [ 0.2419247 ],
       [-0.33584556],
       [-0.03312165],
       [ 0.29492825],
       [-0.04745822],
       [ 0.28261483],
       [-0.01298675]], dtype=float32)]


Weights_k:
[array([[-0.07992719, -0.5333332 ,  0.46406886, -0.31176853,  0.6534547 ,
        -0.22193956,  0.63744265,  0.58061624, -0.03869092, -0.10179232,
         0.7853738 , -0.01058837,  0.05568713,  0.2579085 ,  0.04497567,
        -0.5400647 , -0.6077258 ,  0.08903837, -0.7898893 , -0.4558133 ],
       [-0.07640778,  0.09028264,  0.1030933 , -0.19318452, -0.30548367,
        -0.3927576 , -0.22501348, -0.18760361,  0.3010575 , -0.2507581 ,
         0.31386983, -0.35101047, -0.2339696 , -0.00723155, -0.35605675,
         0.5901535 ,  0.29904798,  0.22180875,  0.49092963,  0.5514253 ]],
      dtype=float32), array([[ 0.18308182,  0.17047633, -0.36701426,  0.13960916, -0.0762989 ,
        -0.19147359, -0.2629291 , -0.20491286, -0.04532674,  0.18501511,
        -0.13925084,  0.14567825,  0.09525216, -0.06251001, -0.0163901 ,
         0.43586534,  0.02126371, -0.4523942 ,  0.10013366, -0.25602686],
       [-0.3755167 , -0.61324614, -0.53005064, -0.02564715,  0.20718853,
         0.38973746, -0.27268168,  0.1910435 , -0.15788   ,  0.3721967 ,
        -0.08108455,  0.2357355 , -0.25071827, -0.0143632 , -0.13199641,
         0.03926925, -0.7763198 ,  0.0709894 ,  0.3437467 ,  0.19817299],
       [ 0.4175197 ,  0.28353196,  0.7651988 , -0.03050157, -0.38562426,
         0.06899476, -0.34743175, -0.3395198 , -0.03012509,  0.08078577,
        -0.18321213,  0.13416538, -0.01880278, -0.20396106,  0.18065642,
         0.1484541 , -0.18153882,  0.38440564, -0.15972921, -0.17664506],
       [-0.51219034, -0.35092613, -0.2924078 ,  0.0893953 , -0.1367365 ,
         0.3920336 , -0.42610303, -0.00262709,  0.16883314,  0.07788665,
         0.2288243 , -0.03972327, -0.19719101, -0.20065916, -0.17357218,
        -0.08443231, -0.42300233, -0.2937361 ,  0.29226255, -0.44400513],
       [-0.176744  ,  0.40516397,  0.49746764,  0.18961933, -0.3357285 ,
        -0.25655273,  0.08300792, -0.05585961,  0.3113743 , -0.10657045,
         0.10124309, -0.15480275,  0.09026226,  0.37612417, -0.19133808,
        -0.00342394,  0.10540115, -0.37018755, -0.13497953,  0.06994687],
       [-0.37174043, -0.07374824,  0.16662744,  0.31956568,  0.09624927,
         0.06837203, -0.3289175 ,  0.0631261 , -0.24555467, -0.22172967,
        -0.0513618 ,  0.1861184 , -0.19397874, -0.38542414,  0.11147062,
         0.20146608,  0.01789616, -0.34474123,  0.00227374, -0.2079474 ],
       [-0.05748226,  0.5141782 ,  0.25092015,  0.35861248, -0.02743042,
        -0.13079499,  0.3200681 ,  0.17238183,  0.447919  , -0.34017357,
        -0.29073846, -0.32547212,  0.10643876,  0.45172995,  0.01505228,
         0.04270539,  0.1045718 , -0.19050428,  0.16381995,  0.10800136],
       [ 0.42433262,  0.5672437 ,  1.0552121 ,  0.17201969,  0.03264655,
        -0.15584973, -0.08048908, -0.03713639,  0.3093005 , -0.14255056,
        -0.04657296, -0.01328392,  0.19157898, -0.07665056,  0.38743088,
         0.08061672,  0.6324002 , -0.1027143 , -0.4917036 ,  0.16644913],
       [ 0.27655527,  0.19050354, -0.0128734 ,  0.08797055,  0.1221135 ,
        -0.3478679 ,  0.13569605,  0.11227552, -0.1292114 ,  0.1326087 ,
        -0.12909041,  0.22679292,  0.38712475, -0.54474616,  0.01462251,
        -0.1313653 ,  0.00786708,  0.9429962 , -0.14569399,  0.01057428],
       [-0.27724725, -0.2647492 ,  0.11126705,  0.07671217,  0.12463436,
         0.23402034, -0.34333447,  0.02630736, -0.1667943 , -0.06831122,
        -0.14562783, -0.10977143, -0.06808995,  0.37942833, -0.18441692,
        -0.30110255,  0.0111405 , -0.30900073,  0.00140541,  0.2790846 ],
       [ 0.21377718,  0.5725274 ,  0.6071258 , -0.36713016, -0.285383  ,
        -0.5453468 , -0.20601109,  0.22312927, -0.16897519,  0.2900101 ,
        -0.13742109, -0.54035336,  0.21583322, -0.29648536,  0.13709486,
        -0.51577854,  0.73217905,  0.58672553, -0.25930598, -0.02394976],
       [-0.65873873,  0.25948712,  0.7039284 , -0.11557982,  0.08746197,
        -0.06711849, -0.25937647, -0.16455168,  0.03201308,  0.05111131,
         0.12687545,  0.12319361,  0.23562375,  0.434939  , -0.04855894,
        -0.02111929, -0.19863917, -0.3014464 , -0.299195  , -0.0669331 ],
       [-0.4007269 ,  0.02934795,  0.18492717, -0.14226554,  0.14111294,
        -0.02593314, -0.23147361,  0.31221744, -0.37667897, -0.20412359,
         0.10638867, -0.1931816 ,  0.3583208 , -0.00755435,  0.13521004,
        -0.18309653,  0.31947774, -0.33111355, -0.36683646,  0.19261976],
       [ 0.2253979 ,  0.50847065,  0.34791166,  0.00117978,  0.02436151,
        -0.21141678,  0.33672902, -0.15831964,  0.08375829,  0.05370376,
         0.09772886,  0.07909103, -0.19395076,  0.37813476,  0.18156141,
        -0.14054072,  0.3209726 , -0.00384041, -0.15832585,  0.1145604 ],
       [-0.0109401 ,  0.25551614,  0.39928728,  0.01788921, -0.41072857,
         0.10994159, -0.40804043,  0.11712693, -0.15145168, -0.4822334 ,
         0.3099922 , -0.02046649, -0.11666469, -0.34056833,  0.1959122 ,
        -0.6864383 ,  0.29204714,  0.21951447, -0.07743687,  0.16778144],
       [ 0.07319806, -0.5158195 , -0.90354884,  0.00579457,  0.05677492,
        -0.37114826, -0.10332369, -0.164933  ,  0.16539118,  0.45359612,
        -0.10303637,  0.35613316, -0.08506577, -0.09315944, -0.36065027,
         0.40906963, -0.5782355 ,  0.5493355 ,  0.08598998,  0.06840544],
       [-0.16681294, -0.28507167, -0.92167866,  0.19094847,  0.1499905 ,
        -0.0865531 ,  0.20216508,  0.04605902,  0.01138652,  0.19304782,
         0.01764172, -0.04760124, -0.30903527, -0.10847834,  0.01334199,
         0.03746296, -0.37224403, -0.13316317, -0.09226506, -0.30047885],
       [ 0.6664355 ,  0.14504139,  0.0754737 ,  0.2806449 ,  0.24574892,
        -0.14983252,  0.02441547, -0.1031874 , -0.14987713,  0.08931816,
         0.22780372, -0.12852556,  0.18180892,  0.15426396,  0.37298834,
         0.5050582 ,  0.22112456,  0.30249208,  0.20169757,  0.10639636],
       [ 0.12919204, -0.42426395, -0.60167533, -0.00843932,  0.21434169,
        -0.29536673,  0.2707534 ,  0.2022665 , -0.02425241,  0.40386122,
         0.31413704,  0.11703614,  0.01389807, -0.48815033,  0.01842672,
         0.33962595, -0.4527319 ,  0.63281935, -0.20872238, -0.11693664],
       [ 0.23839736, -0.38011047, -0.28264305, -0.03906513,  0.0202522 ,
        -0.58946735, -0.3669265 , -0.11526536,  0.107787  ,  0.14586373,
         0.22526443,  0.22318535, -0.21665476, -0.31645322,  0.34532303,
         0.18016979,  0.02467089,  0.59626675,  0.20910352,  0.19173035]],
      dtype=float32), array([[ 3.72018479e-02,  9.52951387e-02, -8.84271115e-02,
         2.19680974e-03, -1.00144699e-01, -3.40217978e-01,
         1.52184293e-02,  3.93812895e-01, -1.24738216e-01,
        -4.00603414e-01, -1.85845688e-01,  1.46259174e-01,
         1.98522136e-01,  1.06938347e-01,  1.81119978e-01,
         1.43627360e-01, -2.12255463e-01,  5.48022725e-02,
         3.98279428e-01,  2.12107569e-01],
       [ 2.89046347e-01,  4.44337912e-02,  1.41080901e-01,
        -1.47919208e-01,  2.80683964e-01, -1.73010807e-02,
         2.95632303e-01, -3.36311698e-01, -4.58419174e-01,
        -5.10634780e-01, -5.15796319e-02, -2.57027179e-01,
        -1.38932109e-01,  1.16322130e-01,  8.57434198e-02,
        -1.86816640e-02, -2.31783375e-01,  1.25242874e-01,
        -7.06305280e-02, -5.10545850e-01],
       [-1.72865484e-02,  2.69817561e-01,  1.01820496e-03,
         8.70617107e-03, -7.20185041e-02,  1.82869881e-01,
         3.28690372e-02,  2.41661146e-01, -1.67912873e-03,
        -3.70454818e-01,  1.73325822e-01, -2.70969123e-01,
         7.11876899e-02, -1.46580771e-01,  4.08873945e-01,
         2.10250672e-02, -1.81189641e-01, -4.74446043e-02,
        -1.73955649e-01, -4.45653163e-02],
       [-1.27472579e-01, -8.06355034e-04, -1.42585337e-01,
         3.31730932e-01,  5.61125241e-02, -2.58704424e-01,
        -2.51795471e-01,  5.58594568e-03, -3.44085470e-02,
        -1.42120317e-01, -1.37235865e-03, -3.66281942e-02,
         4.40762602e-02, -4.07789238e-02,  1.41554847e-01,
         1.26293495e-01,  8.53028446e-02, -3.04589838e-01,
        -8.84688646e-02,  4.69412863e-01],
       [-2.01081425e-01,  1.20547578e-01, -3.17976445e-01,
         7.40299448e-02, -2.51708835e-01,  1.54676571e-01,
        -4.06418949e-01, -3.49035889e-01,  1.93182528e-01,
        -6.43268153e-02,  1.66130706e-03,  6.60764202e-02,
        -2.47129470e-01,  1.49593681e-01, -5.10099888e-01,
        -2.16698535e-02, -3.46934609e-02, -2.13511705e-01,
        -1.11282431e-01,  2.92633235e-01],
       [ 1.36267275e-01,  1.16084844e-01, -2.16151193e-01,
         1.55800611e-01, -2.22174257e-01, -2.33849570e-01,
        -1.17574669e-01, -2.65164465e-01, -1.85911153e-02,
         7.06375420e-01,  2.66359180e-01,  6.78041577e-02,
        -2.43357923e-02,  1.19943477e-01, -1.58221930e-01,
        -1.03669517e-01,  1.63655132e-01,  6.25096783e-02,
        -4.77652699e-01, -4.11447257e-01],
       [ 1.03258289e-01, -2.46115521e-01, -6.77201748e-02,
         3.75979543e-01,  1.33624867e-01,  1.70636177e-01,
         4.72964227e-01,  2.12565184e-01,  1.65776953e-01,
         1.93048045e-01, -5.88387996e-02, -3.37984741e-01,
        -4.19540703e-02, -8.52923915e-02, -3.34223956e-01,
        -2.08451375e-01,  3.33786339e-01, -7.04501048e-02,
        -2.10255012e-01, -2.84799933e-01],
       [ 9.87240598e-02, -2.49939218e-01,  1.72446162e-01,
        -6.65104240e-02,  3.25177163e-02,  1.68369547e-01,
         8.69141985e-03,  9.40370187e-02,  4.20569852e-02,
        -6.54344112e-02,  1.08970389e-01,  2.67829329e-01,
        -4.71191928e-02,  5.33553697e-02,  1.42620191e-01,
         2.53065735e-01,  2.70028621e-01, -2.72700787e-01,
        -1.65406540e-01, -2.24543244e-01],
       [-1.55952841e-01, -3.80060226e-01, -1.03700541e-01,
         4.52966280e-02,  4.23984900e-02,  2.33290985e-01,
        -1.36084452e-01,  3.00510287e-01,  2.43007451e-01,
        -3.48797329e-02, -1.77245289e-02, -3.85589123e-01,
         1.79932073e-01, -1.51220173e-01, -1.45916045e-01,
         1.09415755e-01, -1.97665974e-01, -4.44049031e-01,
        -2.91156679e-01,  1.03129745e-01],
       [ 2.21861154e-01,  2.53643572e-01, -3.03490400e-01,
        -1.14051268e-01, -1.26422673e-01,  1.70185924e-01,
        -2.45808586e-01, -2.30769619e-01,  2.32323438e-01,
        -2.27124229e-01, -2.82774538e-01,  2.85230100e-01,
         1.54939160e-01,  1.21439032e-01, -1.41663551e-01,
         1.53289333e-01, -2.26663157e-01, -3.03615898e-01,
        -1.75384462e-01,  2.33079135e-01],
       [ 2.48092636e-01,  1.24146968e-01,  3.52718383e-01,
        -6.22703247e-02, -1.71328127e-01, -2.24528112e-03,
        -1.04582429e-01,  6.92216009e-02,  5.06209552e-01,
         9.69096571e-02, -5.28667755e-02,  2.95909673e-01,
        -2.49300689e-01, -2.09594280e-01,  3.90839018e-03,
        -5.72103150e-02,  4.12359908e-02,  2.26747692e-01,
         1.59144580e-01,  2.15388745e-01],
       [ 4.78216201e-01, -2.12780505e-01,  1.77777693e-01,
         2.56610751e-01,  1.42029017e-01,  1.15555245e-02,
        -4.03455012e-02,  6.18454404e-02,  1.52641162e-01,
         3.10155541e-01, -2.32186407e-01,  1.36737168e-01,
        -3.94077599e-01, -1.14267841e-02, -1.73703209e-01,
        -2.76500881e-01,  4.80722010e-01,  1.61430791e-01,
        -2.77142078e-01,  1.82282314e-01],
       [-4.57883984e-01, -1.56707525e-01, -1.75878912e-01,
         5.99877909e-02,  1.97824046e-01,  2.62506962e-01,
         3.79418612e-01, -1.58062018e-02, -1.32802740e-01,
        -4.80671048e-01,  1.77887216e-01, -1.32713933e-02,
        -1.90349579e-01,  6.78507462e-02,  5.25105476e-01,
        -2.07720399e-01,  2.88425505e-01,  4.08240020e-01,
         3.65662396e-01, -4.58725989e-01],
       [ 2.80951202e-01, -3.73626649e-01,  5.30064665e-03,
         1.43711865e-01, -6.95059299e-02, -1.52033167e-02,
        -2.48076379e-01, -4.24823284e-01, -9.98923630e-02,
         3.78897369e-01, -1.61476642e-01, -1.50913596e-01,
         5.31870313e-02,  4.17000234e-01,  3.54771227e-01,
        -1.34511903e-01, -3.94172639e-01,  1.97528213e-01,
         1.21301256e-01,  2.67736346e-01],
       [ 1.07819922e-01, -2.45688736e-01,  1.06018402e-01,
         2.53610611e-02,  3.62051010e-01, -2.53237933e-01,
        -2.16186985e-01,  3.19128960e-01,  2.36329287e-01,
        -5.53584218e-01,  4.54963297e-02,  3.88840258e-01,
         1.30023047e-01,  5.58109209e-02, -2.80844480e-01,
         8.65112096e-02,  3.63423750e-02,  3.09223831e-01,
         4.35912043e-01,  6.89586103e-02],
       [-1.30420208e-01,  1.55038148e-01,  1.30126297e-01,
         1.28784686e-01,  1.21088393e-01, -1.78366736e-01,
        -1.60548717e-01, -1.40259147e-01, -3.09299886e-01,
        -2.14584242e-03,  4.14394960e-02, -3.75886708e-02,
        -1.89980507e-01, -1.13296799e-01, -5.09378076e-01,
        -1.11645058e-01,  2.21172839e-01,  8.40207636e-02,
         1.49251372e-01,  4.17510897e-01],
       [-2.34646693e-01, -2.10203215e-01,  1.60261720e-01,
         1.00496545e-01,  5.11744581e-02, -2.97228158e-01,
        -2.61241317e-01,  2.09677309e-01,  1.78501651e-01,
        -6.22344136e-01, -8.01385343e-02, -1.39390141e-01,
         1.34777531e-01, -1.07128181e-01,  4.02952790e-01,
         1.24095259e-02, -1.11410864e-01,  3.04048657e-01,
        -2.47504532e-01, -2.83248693e-01],
       [ 1.66966200e-01,  8.67394507e-02, -2.66805440e-01,
        -7.87811205e-02, -1.50709212e-01, -2.47831985e-01,
        -3.94179106e-01,  2.85409093e-01,  2.54925311e-01,
        -9.57561791e-01,  1.07104287e-01, -1.46250501e-01,
         1.61081497e-02, -2.39990978e-03,  1.55357663e-02,
         8.17270949e-02,  2.58146405e-01, -7.64880702e-03,
        -2.10035041e-01,  3.22207421e-01],
       [-1.50133178e-01,  2.24363022e-02,  4.82440263e-01,
         2.55343735e-01, -1.37010422e-02, -5.18531203e-02,
         1.88746795e-01, -9.86909568e-02, -2.46145785e-01,
         2.56644160e-01,  1.43693760e-01,  1.11969084e-01,
        -3.07812124e-01, -2.60700166e-01,  6.54804260e-02,
         1.27635658e-01,  2.69666702e-01, -3.05645943e-01,
         1.89701095e-03,  4.02339935e-01],
       [-1.60662252e-02, -4.36767519e-01,  5.63073680e-02,
        -1.45276681e-01,  1.24397188e-01,  6.83194697e-02,
         2.76218146e-01,  3.01179290e-01,  3.05365682e-01,
        -1.25857890e-01,  4.20649022e-01,  2.86841482e-01,
        -6.99602365e-02, -4.55417810e-03,  1.21843345e-01,
        -4.02331501e-02, -1.65283486e-01,  1.05808131e-01,
        -2.51235276e-01, -1.90650150e-01]], dtype=float32), array([[ 0.14910032],
       [ 0.0871883 ],
       [-0.17357735],
       [-0.2765495 ],
       [-0.5616752 ],
       [-0.00917154],
       [-0.13305403],
       [-0.21557426],
       [-0.19621453],
       [-0.5266787 ],
       [-0.27153298],
       [-0.59476143],
       [-0.20955789],
       [ 0.16463917],
       [ 0.2638076 ],
       [-0.04568755],
       [-0.66483533],
       [-0.40654734],
       [-0.12143759],
       [ 0.5255054 ]], dtype=float32)]


Weights_h:
[array([[ 0.21761176, -0.06866745, -0.1568707 ,  0.01163642,  0.23694262,
        -0.3583775 , -0.1254417 ,  0.18340953, -0.03919468,  0.13551612,
         0.06590401,  0.00784959, -0.14344597,  0.20329988,  0.08609977,
        -0.04263502,  0.2112599 , -0.19337872, -0.16948462,  0.0635085 ,
         0.21023078,  0.4606883 , -0.19543542,  0.30974808,  0.08987384,
        -0.10368224,  0.09751139, -0.24336322,  0.10676917,  0.11090305,
        -0.12117792, -0.18344821],
       [-0.06623748,  0.3326226 , -0.03918875, -0.17474748,  0.03005263,
         0.382488  ,  0.00332448, -0.04954591, -0.01753859, -0.43648535,
        -0.28214735, -0.01858219,  0.15916474, -0.05888181, -0.2932501 ,
        -0.22194889, -0.1412111 ,  0.34414494, -0.09136651, -0.1726395 ,
         0.3205803 ,  0.31963515, -0.23500647,  0.14209367, -0.01877834,
        -0.0736273 , -0.04039801, -0.08810985, -0.3979339 , -0.33061746,
        -0.3859166 ,  0.16417502]], dtype=float32), array([[-0.31348026, -0.09603777, -0.00605665, ..., -0.27864516,
        -0.04771524,  0.3164231 ],
       [-0.11479451,  0.11294184, -0.10407682, ..., -0.05251154,
        -0.06626305,  0.31422135],
       [-0.17162123, -0.01299953,  0.22427683, ...,  0.16681981,
        -0.23973568,  0.0182342 ],
       ...,
       [ 0.04825148, -0.03999862,  0.05611136, ...,  0.01072962,
        -0.04241518, -0.1318942 ],
       [-0.01337449, -0.09352002,  0.20202766, ..., -0.04658755,
         0.25717378, -0.30073008],
       [ 0.22533484, -0.0842543 ,  0.03436501, ..., -0.0337697 ,
