Weights_k:
[array([[-3.0583766e-01,  1.3757166e-01,  5.1720876e-01,  7.8162539e-01,
         3.3969912e-01, -1.0419977e-02,  6.2912293e-02,  5.1976091e-01,
        -8.5840952e-01,  6.0098064e-01, -6.1607820e-01, -4.8304537e-01,
         7.0545185e-01, -6.2835908e-01,  4.9631324e-02, -3.7108767e-01,
        -4.6465501e-02,  2.5151226e-01,  1.6932677e-01, -3.5804504e-01,
        -2.3004119e-01,  4.7389266e-01,  7.4130252e-02, -2.3227191e-01,
         3.9026815e-01, -5.5012274e-01,  3.8803953e-03, -7.1527648e-01,
         5.3011006e-01,  7.4674290e-01],
       [ 1.8501170e-01,  2.4543120e-02,  6.9112694e-01,  6.7894250e-02,
        -2.0363574e-01,  1.9225177e-01,  4.4374079e-01, -4.9413803e-01,
         1.2516353e-01, -4.1802081e-01, -2.9777676e-01, -2.8370872e-01,
        -3.1048760e-01,  1.9342706e-01, -7.4569782e-04,  1.3079537e-01,
         3.0618331e-01,  4.0243158e-01, -1.8111962e-01,  1.1902847e-01,
        -1.0004559e-01, -3.9918038e-01,  4.1727957e-01, -3.1142630e-02,
        -4.6013090e-01, -6.2081254e-01,  1.4600947e-01,  4.0315667e-01,
         2.7270131e-02, -6.3096724e-02]], dtype=float32), array([[ 2.47526199e-01, -1.15979917e-01,  8.54908377e-02,
         2.76991516e-01, -3.29454929e-01,  1.98830590e-01,
         3.38965923e-01,  2.18464270e-01, -5.76158240e-02,
         2.28882492e-01, -3.53736520e-01, -2.11815253e-01,
         1.61388785e-01,  1.37959391e-01,  1.75648496e-01,
        -2.96538714e-02, -4.23804522e-02, -2.93641329e-01,
        -3.03704143e-01,  2.06668023e-02,  1.76402349e-02,
        -5.27409464e-03, -1.67908170e-03, -2.19934672e-01,
        -2.89760619e-01, -1.88433051e-01,  3.16203013e-02,
         7.60743245e-02, -1.94502413e-01,  8.38781521e-03],
       [ 3.14069659e-01,  1.46171287e-01, -3.18542011e-02,
        -1.32961065e-01, -3.46618965e-02,  1.82063520e-01,
        -1.53127536e-01, -3.69214535e-01,  1.46227449e-01,
        -3.58128786e-01,  2.30416074e-01, -4.58564162e-02,
         5.81504181e-02,  8.47884193e-02,  1.77287102e-01,
         2.95224071e-01, -2.39004456e-02, -6.25884682e-02,
         3.28278132e-02, -1.38723264e-02, -4.34944779e-02,
        -1.27887338e-01,  2.38661736e-01,  3.48910838e-01,
         4.00303453e-02, -4.18573827e-01,  1.54219285e-01,
        -1.20633341e-01,  1.01659536e-01, -2.22565979e-01],
       [ 1.12192877e-01, -4.12848219e-02,  2.30198689e-02,
         3.29133004e-01, -4.08674628e-02,  9.20942202e-02,
         2.27609947e-01, -4.33398187e-01,  2.49911606e-01,
        -3.90681177e-01, -5.96346185e-02,  3.23479801e-01,
        -2.11382985e-01, -2.31406644e-01,  1.19698264e-01,
        -7.03646392e-02,  5.86931407e-01, -2.30422497e-01,
        -1.10144190e-01, -1.44751340e-01,  2.76212037e-01,
        -8.27946514e-02, -2.01556496e-02,  3.38663012e-01,
        -1.92394033e-01, -3.86078000e-01, -6.28932118e-02,
        -3.88436690e-02,  1.83332741e-01, -6.39858842e-02],
       [ 3.45881641e-01, -9.76288915e-02,  1.39067322e-01,
         8.11486319e-02,  1.28827214e-01, -3.90008360e-01,
         6.65940642e-02, -6.93667889e-01,  2.48287961e-01,
        -4.89419460e-01,  4.02552724e-01, -1.86123058e-01,
         3.02749664e-01, -1.05132326e-01, -1.51615351e-01,
         2.05284268e-01,  5.15453160e-01,  6.09971881e-02,
         5.02839163e-02, -6.09605052e-02,  5.23812734e-02,
         2.04174489e-01, -1.40882015e-01,  4.45275962e-01,
        -1.00188091e-01, -4.69232053e-01,  9.47227553e-02,
        -3.60243082e-01, -2.00230524e-01, -1.29119277e-01],
       [-4.95514572e-01,  3.52247715e-01,  1.39589489e-01,
        -1.09153233e-01,  1.79083213e-01, -2.32604027e-01,
        -4.94164079e-01, -3.07526618e-01,  3.42256039e-01,
        -1.93175271e-01,  3.69382054e-01, -7.65179172e-02,
         6.39003813e-02,  5.05147204e-02,  8.22811946e-02,
        -1.96041003e-01,  2.95256879e-02,  1.05871327e-01,
         2.67722636e-01, -6.40149647e-03,  8.00212249e-02,
        -1.90075472e-01,  3.69663358e-01, -1.61936302e-02,
         2.50606567e-01, -2.09208220e-01, -1.93430513e-01,
         7.65990317e-02, -1.40278727e-01, -1.85679331e-01],
       [ 2.07379907e-01, -1.94010273e-01, -1.37244970e-01,
         3.82674962e-01, -1.52846932e-01,  5.95783964e-02,
         1.64150506e-01,  2.24677205e-01,  1.43985823e-01,
        -3.36388618e-01, -4.46524471e-01,  3.85103114e-02,
        -2.15410944e-02,  2.25735269e-02,  1.45522943e-02,
        -1.90102696e-01,  2.35937968e-01, -1.82227030e-01,
         6.20888434e-02,  1.04412355e-01,  3.57372537e-02,
        -1.21750258e-01,  2.60432959e-01,  9.73912030e-02,
        -1.90577060e-01, -2.59624183e-01,  2.65932053e-01,
         8.59173387e-02, -1.30827859e-01,  1.45821035e-01],
       [-4.95851934e-02,  8.82486105e-02, -4.75352146e-02,
        -1.94531471e-01,  3.38524282e-01,  3.51889461e-01,
         1.46348774e-01, -1.83654159e-01, -1.49444928e-02,
        -2.34654292e-01, -1.71553679e-02, -9.38090757e-02,
         2.92049665e-02,  2.89065838e-01,  1.19411930e-01,
         2.79509455e-01,  1.06539734e-01, -4.92030755e-02,
        -9.59388018e-02, -8.06068331e-02,  4.98249620e-01,
        -1.35732979e-01, -1.08656965e-01,  3.79059434e-01,
         1.25518039e-01, -4.09625098e-02, -8.05347562e-02,
         1.41990632e-01,  2.75439799e-01, -1.73483759e-01],
       [-1.35449052e-01,  3.27885598e-01,  3.39408666e-02,
        -3.20842326e-01,  1.68026254e-01, -4.07906473e-01,
        -3.92633915e-01, -7.16313839e-01,  4.39219959e-02,
        -8.45306069e-02,  2.72149235e-01,  2.44400017e-02,
         2.41884619e-01, -3.51611733e-01,  1.31227344e-01,
         1.33171663e-01, -1.94016378e-02,  4.15937528e-02,
        -4.41738665e-02, -1.83339134e-01, -9.23753828e-02,
        -8.27028453e-02,  5.22884846e-01, -4.18695472e-02,
         3.52570593e-01,  4.07753587e-01,  7.66329421e-03,
         3.21257621e-01,  1.50079072e-01,  2.04483941e-02],
       [-1.51897207e-01, -3.45830172e-01, -1.44814745e-01,
         1.42176956e-01, -1.24204129e-01,  3.91932487e-01,
        -1.53964639e-01,  4.89147991e-01, -1.70497403e-01,
         3.12207937e-02, -5.71041942e-01, -1.41021147e-01,
         1.93020567e-01,  1.24019891e-01,  7.25686625e-02,
         3.05820525e-01, -5.16887903e-01, -1.37747392e-01,
        -2.26854131e-01, -1.85361933e-02, -3.68080637e-03,
        -2.60935694e-01, -4.68892977e-02, -5.26947320e-01,
        -3.20638716e-02,  2.54867822e-01, -9.18391198e-02,
        -1.00996830e-01, -2.23062057e-02,  4.11052741e-02],
       [-2.21037000e-01,  1.05496429e-01,  6.23498149e-02,
        -3.02427381e-01,  1.07818447e-01, -1.13235012e-01,
        -2.18221173e-01, -6.94554448e-01,  1.85826704e-01,
         2.83896893e-01,  6.04937494e-01, -7.78821930e-02,
        -1.45113811e-01,  9.77100506e-02, -1.22445680e-01,
         3.42193961e-01,  1.44625992e-01, -1.30188197e-01,
         3.42888653e-01, -3.24415505e-01, -1.37379751e-01,
        -2.83711553e-01,  3.83134693e-01,  2.41656184e-01,
         2.90961891e-01,  1.33607119e-01,  9.88570899e-02,
         6.38828054e-02,  8.85000229e-02, -6.17302544e-02],
       [ 1.14071928e-01, -1.83828756e-01, -8.40707566e-04,
         5.52069768e-02,  8.45715869e-03,  1.45273721e-02,
         1.05152722e-03,  2.81232506e-01, -4.49041337e-01,
         4.32498246e-01, -2.70714588e-03, -3.03016573e-01,
        -2.16391027e-01,  4.07429673e-02,  4.83442247e-02,
         1.31004572e-01, -4.63907123e-01,  2.13527426e-01,
         5.06097376e-02,  9.44213346e-02,  2.45778337e-01,
        -3.35998356e-01,  7.95852169e-02, -3.93250883e-01,
         1.13194697e-02,  2.74550855e-01,  1.54779479e-01,
        -3.51797789e-02,  1.44255027e-01, -3.08522955e-02],
       [-3.81748900e-02, -1.05113648e-01, -2.77973302e-02,
         3.94081354e-01,  2.56968476e-03, -3.51051204e-02,
        -3.14451545e-01, -2.14909669e-02, -2.67782241e-01,
        -4.33099642e-02,  1.72998965e-01, -2.21709952e-01,
        -2.97988772e-01, -4.18273807e-02,  5.51408678e-02,
        -2.66292900e-01, -2.70092458e-01,  1.47227913e-01,
        -4.68207635e-02,  1.36330441e-01, -3.27364504e-02,
        -3.76904570e-02, -1.31426081e-01, -7.48564482e-01,
        -6.64250273e-03,  3.88018750e-02,  2.63651341e-01,
        -7.89984390e-02, -1.35632735e-02, -2.09035560e-01],
       [-1.11543827e-01, -1.13637231e-01,  6.96419552e-02,
        -2.84073263e-01,  5.45034409e-02, -3.31250876e-01,
        -2.77176440e-01, -4.71431017e-01,  1.95540383e-01,
        -3.23405415e-01,  2.76099175e-01, -1.76430363e-02,
         1.99567765e-01, -7.64579922e-02,  1.47296086e-01,
        -1.06389895e-01,  4.33228880e-01,  2.27258280e-01,
         2.36175179e-01, -8.60716775e-02, -2.19894066e-01,
         2.50150301e-02,  2.52851009e-01, -3.32445234e-01,
         1.16151962e-02, -4.82518464e-01, -9.37607139e-02,
         1.89830095e-01,  8.67024660e-02, -1.89228468e-02],
       [ 3.49876940e-01, -2.20409036e-01, -1.96127072e-01,
         3.80811810e-01, -2.77214885e-01,  5.42504750e-02,
         2.98140883e-01,  2.29348123e-01, -2.21327424e-01,
         1.30875632e-01, -2.06550837e-01, -4.08930808e-01,
        -2.54391786e-02,  2.38417864e-01,  3.97214621e-01,
        -2.01912344e-01, -6.42976761e-02, -2.50483640e-02,
        -1.91705823e-01, -4.05002646e-02,  7.97902420e-02,
        -4.99925688e-02, -9.25925076e-02, -5.45942485e-01,
        -1.77745447e-01, -3.61136854e-01,  6.61166338e-03,
        -2.64308542e-01, -1.13032877e-01, -1.62617825e-02],
       [ 1.87579855e-01, -2.14028791e-01, -1.72573119e-01,
         2.68685579e-01,  1.21565314e-03, -8.59345794e-02,
        -2.12758332e-01,  9.87356901e-02, -7.81139880e-02,
        -2.91078389e-01,  2.89413985e-02, -1.13245293e-01,
         2.15357151e-02,  2.04274114e-02, -2.25204632e-01,
         2.55246967e-01,  8.90492648e-02, -2.22530782e-01,
         2.84690261e-01, -1.38845757e-01,  2.61142030e-02,
         6.63597509e-02,  1.67155489e-01,  3.07517350e-01,
        -3.11236501e-01, -2.90666312e-01,  1.93051677e-02,
         1.86629251e-01,  1.00165911e-01,  2.56156339e-03],
       [ 4.00474876e-01, -4.15886283e-01, -2.62928978e-02,
         5.30972004e-01, -9.72327143e-02, -5.38397860e-03,
         1.67316392e-01,  4.42672580e-01,  2.47602671e-01,
        -1.89064234e-01, -3.24152619e-01, -3.22709709e-01,
         1.04685858e-01, -2.93613244e-02,  2.78138459e-01,
        -8.01030844e-02, -2.04284847e-01, -2.84114957e-01,
        -6.46469742e-02,  4.09554504e-02,  2.93876287e-02,
         1.04388520e-01, -1.20800279e-01,  7.21170232e-02,
        -9.07115489e-02, -1.14390500e-01,  1.41692400e-01,
         3.23514163e-01, -3.97431761e-01,  2.88658321e-01],
       [-5.16813807e-02,  3.46554965e-01, -4.42448072e-02,
        -2.75840342e-01, -4.27187383e-02,  1.82341605e-01,
         2.49589801e-01,  3.04049671e-01, -1.35314181e-01,
        -2.72293627e-01, -8.06867406e-02, -8.52915347e-02,
        -3.48064363e-01,  1.69419542e-01,  1.90629005e-01,
        -1.16858698e-01,  1.52700609e-02, -2.15532631e-01,
        -2.52424628e-01,  1.61954641e-01,  3.18826854e-01,
         3.49298604e-02, -3.25866997e-01,  4.18129295e-01,
         8.44484121e-02,  1.51229575e-01,  2.09383562e-01,
        -3.43812779e-02,  4.03431542e-02, -1.81794450e-01],
       [ 1.59717992e-01,  2.39146188e-01, -1.66350111e-01,
        -3.15399736e-01,  1.35049284e-01, -4.17058654e-02,
        -8.16757455e-02, -2.56967336e-01,  4.08910424e-01,
        -1.91717535e-01,  1.07566498e-01,  1.15450367e-01,
         8.98099169e-02, -1.62339330e-01,  4.34737317e-02,
        -2.75652081e-01, -2.64078155e-02,  8.35026056e-02,
        -8.99845362e-02,  5.51840104e-02,  6.73035443e-01,
         2.78687656e-01, -6.14158902e-03,  4.30925459e-01,
         2.29521602e-01, -3.87938209e-02,  1.68003827e-01,
        -1.63115025e-01,  2.11641744e-01, -1.71683937e-01],
       [-2.04909652e-01,  2.79149979e-01,  8.46353546e-02,
        -5.58843501e-02, -2.66791105e-01, -2.14862734e-01,
        -2.38743335e-01, -3.76958102e-01,  2.66565114e-01,
        -3.26891631e-01,  2.18167126e-01, -2.29805067e-01,
         6.88198209e-02,  1.53934136e-01, -2.08313316e-02,
        -1.60262898e-01, -2.54101884e-02, -2.18597054e-02,
        -1.20534059e-02, -1.42803252e-01, -3.40451270e-01,
         6.51442781e-02,  3.99898529e-01,  5.50413579e-02,
        -1.59586426e-02, -3.22245568e-01,  4.89144623e-02,
         4.05916981e-02,  6.01099245e-02, -1.56492844e-01],
       [ 7.09013864e-02, -4.69013937e-02, -2.24810526e-01,
         1.82732597e-01,  2.33768135e-01,  2.60434002e-02,
         2.36535817e-01,  5.13988972e-01, -3.34928066e-01,
         1.72712654e-01, -2.59826243e-01, -8.45193639e-02,
        -1.53295800e-01, -2.25145981e-01,  6.47681728e-02,
         4.02342565e-02, -3.96785080e-01, -2.13397756e-01,
        -1.43251404e-01,  3.17866385e-01,  1.53272405e-01,
         6.17624680e-03, -4.32959169e-01, -2.82081246e-01,
         1.80304915e-01,  3.39440137e-01, -5.93814924e-02,
        -2.09901556e-01, -1.01448953e-01, -1.47662358e-02],
       [ 1.25633270e-01,  2.86654621e-01,  1.08495615e-01,
        -2.19022840e-01, -1.99140221e-01,  1.56114087e-01,
        -2.17601553e-01,  3.92246723e-01,  1.98278695e-01,
         2.34418049e-01, -7.06813931e-02,  7.64531121e-02,
        -6.41286895e-02, -2.12957695e-01, -7.02188313e-02,
         2.28555903e-01, -5.82361698e-01, -3.93298537e-01,
        -1.07632056e-01,  4.18630123e-01, -2.96858281e-01,
        -2.59075493e-01,  5.71233220e-02, -3.59769434e-01,
         1.17976010e-01,  1.78212464e-01,  9.70773324e-02,
        -2.41326779e-01, -2.09683567e-01,  1.98282778e-01],
       [-1.71652138e-01,  1.81230739e-01,  2.50378668e-01,
        -9.45856124e-02,  1.93008989e-01, -2.21047133e-01,
        -5.52598476e-01, -4.66721892e-01,  4.51448917e-01,
         4.50614057e-02,  4.56425458e-01,  4.82487865e-02,
        -3.08377948e-02, -3.28406751e-01, -1.23311050e-01,
         8.34416598e-02,  2.78438568e-01,  2.71483332e-01,
         4.63198245e-01,  9.85406456e-04, -7.25220144e-02,
        -4.25477047e-03,  3.55553508e-01, -3.03340524e-01,
         1.87036723e-01, -3.48439850e-02,  3.24951522e-02,
         1.58647001e-01,  2.59047002e-01,  3.01978260e-01],
       [ 3.42881322e-01, -7.82183409e-02,  3.15964445e-02,
         3.17228019e-01, -3.89930338e-01,  2.22768590e-01,
         2.28954196e-01,  7.75886932e-03,  9.49474275e-02,
         1.10593876e-02, -2.02518016e-01,  8.88862088e-02,
        -2.89519936e-01, -1.48527488e-01,  8.76476169e-02,
         3.90411802e-02,  3.60192955e-01,  2.24366277e-01,
         2.63133138e-01, -2.01922074e-01, -1.23218566e-01,
         1.52423725e-01, -1.68513164e-01,  1.76712573e-01,
        -1.05296984e-01, -1.38732314e-01,  2.32668504e-01,
         2.35617951e-01,  1.14776120e-01, -9.44592282e-02],
       [-2.91861407e-02, -8.92455950e-02, -4.56552859e-03,
         2.28326917e-01, -1.38760313e-01,  2.71780223e-01,
         1.61138237e-01,  3.82318288e-01, -1.14295028e-01,
         9.96864438e-02, -1.89132422e-01,  1.99071765e-02,
        -1.93341866e-01,  1.94500491e-01, -7.53406882e-02,
         2.63680648e-02, -2.94491857e-01, -1.23647772e-01,
        -7.08479434e-02,  2.05988020e-01, -2.60142237e-01,
        -7.93199837e-02, -4.06618506e-01,  1.34035617e-01,
         1.25848606e-01,  3.13831627e-01,  7.09370822e-02,
        -4.94285934e-02, -4.08946991e-01,  1.52054895e-02],
       [-1.44086733e-01,  4.02172148e-01,  1.22386195e-01,
        -2.91220576e-01,  1.26167521e-01, -1.02356151e-02,
        -3.73228431e-01, -2.54674494e-01, -5.96109778e-02,
         4.52762663e-01,  3.22969198e-01,  1.05704993e-01,
         1.25479117e-01, -3.08248419e-02, -1.88082457e-01,
        -4.28701751e-02, -1.49509087e-02,  1.28019378e-01,
         3.73283625e-01,  3.18232141e-02, -1.46651417e-01,
         2.81269699e-02, -8.62871781e-02, -7.80842975e-02,
         4.74355429e-01,  2.56718159e-01,  1.23108868e-02,
         2.31663540e-01, -1.07095297e-02, -3.43003832e-02],
       [-2.16321290e-01,  7.86127672e-02,  2.31859982e-01,
        -8.33789632e-02, -1.67844057e-01, -2.65989661e-01,
        -3.79120469e-01,  4.18182574e-02, -1.89782694e-01,
         6.45248890e-01, -1.83017664e-02, -2.46665269e-01,
        -1.17946222e-01,  1.71460479e-01,  3.94823790e-01,
         3.16584438e-01, -5.44161201e-01,  7.05541251e-03,
        -8.80649313e-02, -2.41962187e-02, -1.57499328e-01,
         1.59669891e-01, -4.89832945e-02, -4.98548180e-01,
        -3.77076149e-01,  2.39152879e-01,  4.52526957e-02,
        -2.79945862e-02,  1.67333946e-01, -1.58712611e-01],
       [ 1.30105168e-01,  1.26286328e-01, -3.08383048e-01,
         2.20853090e-02,  1.26923814e-01,  1.82299256e-01,
        -7.39566982e-02,  3.29556108e-01,  2.28201970e-01,
        -2.43829340e-01, -1.94013678e-02, -1.71192810e-01,
         1.03824124e-01, -2.24919412e-02, -1.00296490e-01,
        -2.86523283e-01,  1.85021996e-01,  2.24124625e-01,
        -1.05374649e-01,  1.88714024e-02,  4.08823282e-01,
        -1.72733124e-02,  2.09372282e-01, -4.12484080e-01,
        -2.98059165e-01, -1.42121226e-01,  2.57685155e-01,
         1.13230139e-01,  2.96097640e-02, -9.09877494e-02],
       [-8.19258988e-02, -1.30348727e-01, -1.99554235e-01,
         2.47139856e-01, -2.58296132e-02, -1.96013287e-01,
         3.26028347e-01,  5.08375525e-01, -2.93360442e-01,
         4.41318788e-02, -4.53273267e-01, -2.79561967e-01,
         8.42242092e-02, -4.09913324e-02,  2.59673208e-01,
        -4.71763462e-02, -1.03355646e-01, -8.90901834e-02,
        -2.68803179e-01,  4.80437884e-03,  9.21659544e-02,
        -2.74976548e-02, -2.10657418e-01, -4.57994998e-01,
        -1.02161437e-01,  2.97700763e-01,  2.82661140e-01,
        -3.07293564e-01, -1.60890281e-01, -3.16897273e-01],
       [ 1.85660973e-01, -1.55957356e-01,  2.27940418e-02,
         1.29730965e-03, -2.57886350e-01, -7.99791217e-02,
         2.14927420e-01, -3.80989760e-01,  1.43157765e-01,
        -3.50961000e-01,  2.86028922e-01,  7.29633048e-02,
         6.89780265e-02,  1.80157170e-01,  2.72646576e-01,
         1.51618376e-01,  2.22679183e-01, -5.64270690e-02,
         7.98353329e-02, -1.86181456e-01,  1.54550642e-01,
        -1.02815680e-01,  6.70931563e-02,  4.08847928e-01,
        -4.41747281e-04, -2.40810215e-01, -6.83499351e-02,
        -1.28422916e-01,  2.28942648e-01,  5.73094003e-02],
       [ 1.48949444e-01, -2.36759409e-01,  1.24042571e-01,
        -4.49877292e-01,  3.29241574e-01, -2.68463582e-01,
        -1.50531694e-01, -5.82483292e-01,  6.66730404e-02,
        -2.42728144e-01,  7.95445815e-02,  3.77929121e-01,
         2.98547208e-01, -1.40238509e-01, -7.33233197e-03,
         2.08389573e-02,  3.21718007e-01,  1.25907689e-01,
         1.12015404e-01, -8.45875442e-02, -4.76215892e-02,
        -2.25104481e-01,  3.08937967e-01,  6.19598031e-01,
         9.56388861e-02, -5.08836582e-02, -4.22914475e-02,
         1.12921722e-01,  1.36673674e-01,  2.24240273e-01]], dtype=float32), array([[ 4.17071402e-01, -4.12872493e-01,  1.91540197e-01,
         3.88685986e-02, -1.58467278e-01,  6.92052245e-02,
        -4.01676930e-02, -1.53630838e-01, -2.54690796e-01,
         6.74702376e-02, -1.72688350e-01, -1.14427611e-01,
         2.64326751e-01, -3.96470755e-01,  1.25946671e-01,
        -2.38856703e-01, -1.02062538e-01, -1.54762983e-01,
        -1.07424930e-01, -1.97126821e-01, -1.53284669e-01,
        -1.73093051e-01, -2.33116984e-01, -1.31685078e-01,
         1.88925881e-02,  2.80062944e-01,  1.76366836e-01,
        -4.94366102e-02,  5.04509918e-02,  2.08047195e-03],
       [-1.48849502e-01,  2.53343701e-01, -8.22800472e-02,
        -3.51702809e-01, -4.13449621e-03, -2.46938422e-01,
         1.30286083e-01, -2.57050782e-01,  1.58065230e-01,
         2.51573771e-01,  3.00323032e-03, -2.69652065e-02,
        -6.79896399e-02,  9.42704976e-02,  1.16979152e-01,
         2.74885684e-01,  1.31426841e-01,  2.23738566e-01,
        -1.66484252e-01,  8.41247514e-02, -7.21348524e-02,
        -1.63202584e-01, -3.65370810e-02, -1.33157790e-01,
        -2.10622922e-02,  2.29134187e-01,  2.65007347e-01,
        -1.88333705e-01,  6.01619706e-02,  2.54866248e-03],
       [-3.17750782e-01, -4.34698388e-02,  1.57891482e-01,
        -1.70972988e-01, -8.12452212e-02, -1.68513626e-01,
        -1.36922281e-02, -1.20644741e-01, -2.89011836e-01,
        -1.61174282e-01, -2.04380844e-02,  1.42523289e-01,
        -1.61371846e-02, -2.30145052e-01,  3.26153338e-01,
         3.84249389e-02, -4.51247469e-02,  2.66860276e-01,
        -2.28915699e-02, -1.32185593e-01, -1.48207992e-01,
        -1.85347006e-01, -1.08448021e-01, -2.55573303e-01,
         3.05967987e-01,  1.30473524e-01,  1.56772017e-01,
         8.29722583e-02, -5.57618514e-02, -9.12897512e-02],
       [ 2.13987753e-01, -2.51978666e-01,  4.04043086e-02,
         5.46282753e-02,  2.76915617e-02,  4.27979022e-01,
        -1.01194747e-01,  4.55686688e-01, -8.82436410e-02,
         6.91489354e-02, -4.79758196e-02,  2.30229020e-01,
        -3.84849422e-02, -3.18449944e-01, -1.69600308e-01,
        -2.94003934e-01, -1.11668281e-01,  2.29431421e-01,
         1.88483506e-01,  2.85796434e-01, -3.23530361e-02,
        -1.31238103e-01,  1.92671746e-01,  1.02725334e-01,
         4.49353278e-01, -4.30768430e-02, -1.27568513e-01,
        -2.01328948e-01, -2.89627224e-01,  1.38213873e-01],
       [-5.79187833e-02,  2.07484081e-01, -5.30313216e-02,
         1.30739789e-02, -2.76866287e-01, -2.28947952e-01,
        -5.34822568e-02,  2.91167885e-01, -6.77644312e-02,
        -1.42167751e-02, -6.55310526e-02, -2.25199491e-01,
         3.31764489e-01, -1.89374257e-02,  9.95441675e-02,
         3.54888171e-01, -5.37201799e-02,  1.23433150e-01,
        -1.56214461e-01, -1.56479657e-01, -4.89906818e-02,
         1.30879879e-01, -4.75251265e-02,  2.10187063e-02,
        -3.82761627e-01,  2.80265003e-01, -1.50245324e-01,
        -1.26852393e-01,  1.42813936e-01, -3.38227600e-01],
       [ 4.07594919e-01, -1.86111659e-01, -3.02010536e-01,
         3.33733648e-01, -1.59010634e-01,  1.66368887e-01,
        -1.96833730e-01,  3.06307584e-01, -4.80413698e-02,
         1.97409436e-01, -3.81183960e-02, -2.96469122e-01,
        -1.73034042e-01, -1.35437340e-01,  9.96110216e-02,
        -2.65402514e-02,  5.17650284e-02,  1.39040798e-01,
         2.63249669e-02,  8.25303700e-03, -1.27621368e-01,
        -3.29708755e-01, -2.99831666e-02, -2.73648202e-01,
         2.67912805e-01,  1.22360691e-01,  2.41817739e-02,
         1.03786420e-02, -1.63289472e-01,  1.31652653e-01],
       [ 5.48537076e-01, -4.38506067e-01, -1.02035187e-01,
         3.14359695e-01, -3.77951235e-01,  6.17817082e-02,
         1.26572207e-01,  4.67859894e-01, -1.38789847e-01,
        -1.67152584e-02,  1.19160838e-01,  1.89780354e-01,
         3.98561321e-02, -3.67039472e-01,  1.52401656e-01,
        -4.60890949e-01, -2.25758538e-01,  7.57772848e-02,
         6.20785207e-02,  1.72202870e-01,  2.77202334e-02,
         8.38283636e-03, -2.30582684e-01,  2.46111289e-01,
         1.98369712e-01,  2.08920449e-01,  3.47150534e-01,
         2.06298500e-01,  6.54043257e-02,  3.36005762e-02],
       [ 1.48790359e-01, -2.86332518e-01, -1.84764355e-01,
         8.36286470e-02,  7.02086017e-02,  1.16206266e-01,
        -5.79049960e-02, -1.72976047e-01, -7.67864883e-02,
         1.31091416e-01, -2.15175878e-02,  1.40521243e-01,
        -1.90061241e-01,  2.85901099e-01, -1.38546601e-02,
        -3.11187387e-01, -4.81998408e-03, -2.20895349e-03,
        -3.56096104e-02,  4.42103334e-02,  3.94215196e-01,
        -3.95336568e-01, -3.09801221e-01,  1.12486027e-01,
         1.00868223e-02, -1.14466108e-01, -1.88076258e-01,
        -2.65601120e-04, -2.21156910e-01,  1.28144532e-01],
       [-2.15323698e-02, -1.95233285e-01,  1.41535059e-01,
        -1.26252338e-01, -2.26685144e-02, -5.91362491e-02,
        -5.62628806e-02, -6.19294420e-02, -3.11509967e-01,
        -2.97252573e-02, -4.66314442e-02,  1.46108314e-01,
         4.87660132e-02, -4.14509743e-01,  3.07204843e-01,
        -4.53151204e-02, -2.57580072e-01, -5.89099489e-02,
        -1.15196526e-01,  1.76965311e-01,  2.24065945e-01,
         3.34764600e-01,  2.12500736e-01, -3.83464061e-02,
         3.24475542e-02, -1.47174686e-01,  1.28322184e-01,
         1.66672170e-01, -1.20821722e-01, -5.53153902e-02],
       [-3.41230184e-01,  7.62609914e-02, -3.30113247e-02,
        -2.79807717e-01, -5.19103277e-03, -2.30057370e-02,
        -2.32145503e-01,  9.57281422e-03,  1.13031603e-01,
         3.02546676e-02, -2.36786846e-02, -2.16383711e-02,
        -6.17574826e-02,  6.81901217e-01, -4.87624928e-02,
         6.88968152e-02, -1.47497252e-01, -7.68321157e-02,
         1.83485553e-01,  1.96716383e-01, -4.28922400e-02,
         1.22182071e-01,  2.09743083e-01, -1.10571377e-01,
         9.62747112e-02,  2.03748301e-01, -8.89280885e-02,
         9.56001058e-02, -2.17666700e-01,  3.95432234e-01],
       [-1.48164794e-01,  2.12403331e-02, -2.06042424e-01,
         1.90978587e-01, -9.43529159e-02, -1.71262264e-01,
         4.51531589e-01, -1.67689230e-02,  1.25412285e-01,
         6.98560104e-02,  1.05324894e-01, -1.46277398e-02,
        -2.29254782e-01,  1.47633433e-01,  2.77748972e-01,
         5.28485894e-01,  7.50700310e-02,  3.18355262e-02,
         2.30181843e-01,  1.20992467e-01, -1.37701361e-02,
        -2.24405974e-02, -3.43032666e-02, -3.52077961e-01,
        -5.13753116e-01,  1.40699238e-01, -7.03406110e-02,
         3.36719394e-01,  2.01481089e-01,  1.95223644e-01],
       [-3.51853460e-01, -2.06837757e-03, -1.10805266e-01,
        -2.06038758e-01,  3.08104530e-02, -2.98808157e-01,
         1.60875674e-02,  4.12842818e-02,  1.53218433e-01,
        -9.42890570e-02, -3.43636036e-01, -1.53567970e-01,
         2.56930500e-01, -4.91864383e-01,  2.36855492e-01,
        -3.04583609e-01,  3.01751252e-02, -1.80506766e-01,
         2.50851251e-02, -7.72376498e-03, -1.33788899e-01,
         1.64955631e-01, -3.00671048e-02,  4.34886552e-02,
         1.25904046e-02,  7.73611804e-03,  1.19766824e-01,
         1.29712671e-01, -1.49500117e-01,  2.42518589e-01],
       [-3.73119444e-01,  5.00259139e-02,  2.00427964e-01,
        -1.37417614e-01, -1.17016315e-01, -1.94945619e-01,
         2.55080551e-01,  1.17402747e-02, -1.85336843e-01,
        -2.61995733e-01, -9.15042013e-02,  2.08608642e-01,
         2.36246422e-01,  1.23874202e-01, -7.48377352e-04,
        -2.55769603e-02,  3.61288399e-01,  6.56607598e-02,
        -7.69339278e-02,  2.30120629e-01, -5.09861298e-03,
         8.14768597e-02,  8.18213075e-02,  6.04354441e-02,
         2.18790382e-01, -2.59778112e-01, -2.24907603e-02,
         2.41719931e-01, -3.13008815e-01,  2.69546751e-02],
       [-1.50910512e-01,  2.66428202e-01, -1.34968922e-01,
        -9.60922763e-02, -2.07738221e-01,  2.34528333e-02,
        -3.29171747e-01,  3.90952043e-02,  1.33402482e-01,
         1.11963615e-01, -1.20392099e-01, -1.67291481e-02,
        -6.98505044e-02,  4.48431492e-01, -2.89979726e-01,
        -9.93770957e-02, -1.65658921e-01, -2.52765477e-01,
         1.69978470e-01, -9.20869559e-02,  1.28875822e-01,
         3.26642394e-02, -2.21999168e-01, -7.54818097e-02,
         2.46608898e-01,  1.10867277e-01, -2.22884953e-01,
         4.15161178e-02, -3.39829385e-01,  3.16332132e-01],
       [ 8.23212713e-02, -2.31038749e-01,  1.64476305e-01,
         4.17469218e-02, -2.78323442e-02,  2.45558888e-01,
        -9.38703790e-02, -2.10792482e-01, -8.08737576e-02,
        -3.08271766e-01, -1.19747609e-01, -6.42547058e-03,
        -3.14677134e-02,  5.66227660e-02, -2.61512011e-01,
        -1.28108129e-01, -1.19609594e-01, -5.41127175e-02,
        -4.37676832e-02,  2.08242655e-01,  1.66500539e-01,
         1.50186703e-01, -9.46740583e-02, -2.97358096e-01,
         2.06856325e-01, -2.42437288e-01, -8.62111747e-02,
        -9.75355208e-02,  2.85222270e-02,  9.24502686e-02],
       [ 1.17209688e-01,  1.68808654e-01, -2.33568680e-02,
        -1.42483100e-01,  4.85104993e-02, -8.29438195e-02,
        -8.41131732e-02, -3.80051464e-01,  1.19502455e-01,
         1.62038520e-01,  3.63528579e-01, -4.37791459e-03,
        -2.95277275e-02,  9.96221900e-02, -1.43364118e-02,
         4.70672160e-01, -1.33523390e-01, -9.56617519e-02,
        -4.02320586e-02,  1.05300613e-01, -1.04878969e-01,
        -1.11261174e-01,  2.32762024e-01, -3.35071534e-01,
         3.51800285e-02,  7.99574926e-02,  1.55601919e-01,
         2.81316847e-01, -2.68678069e-01, -1.00675479e-01],
       [ 3.01762700e-01,  1.38387144e-01, -3.19102228e-01,
         2.27718651e-01, -1.53622702e-01, -3.29081446e-01,
         4.11615252e-01,  5.69343150e-01, -2.48272553e-01,
         1.99994296e-02,  2.77367979e-01,  1.16939120e-01,
        -2.81061292e-01, -6.76055312e-01,  3.25526774e-01,
         4.70964879e-01, -1.31010935e-01,  2.05471236e-02,
         1.44639164e-01,  1.16989404e-01, -4.66141254e-01,
        -1.39897734e-01, -8.11012164e-02,  1.25871137e-01,
         1.62280258e-02,  5.73479347e-02,  1.83255434e-01,
         7.53332898e-02,  1.69879362e-01, -3.11138690e-01],
       [-1.90192372e-01,  1.77237198e-01,  1.52991578e-01,
        -6.20506518e-02,  1.06705002e-01,  1.12752445e-01,
        -1.68933436e-01, -2.02791005e-01, -8.73833895e-02,
        -9.65673327e-02, -7.37980232e-02,  1.37572065e-01,
        -5.59184887e-02,  3.21685076e-01,  1.86531454e-01,
        -1.25594124e-01,  1.78276710e-02, -1.28737539e-01,
        -1.05181813e-01, -4.36784420e-03,  2.02358499e-01,
         5.75709157e-02, -2.16564015e-01,  7.25276917e-02,
        -1.47281839e-02,  1.60258878e-02, -8.45040679e-02,
         1.84809357e-01,  2.21112505e-01, -6.68090060e-02],
       [-1.49956375e-01,  7.84065872e-02, -6.02064095e-02,
         1.99471593e-01,  1.25763685e-01, -3.95027965e-01,
         2.75387824e-01, -2.16184199e-01,  3.11144471e-01,
        -1.48269877e-01,  2.30100900e-01,  8.90119597e-02,
         1.53819025e-01, -2.70970553e-01,  6.72321767e-02,
        -1.99618727e-01,  7.84996152e-02,  2.96695679e-01,
        -1.53972015e-01, -1.39381155e-01,  2.39843905e-01,
         9.57358778e-02, -1.17591396e-01, -4.20413092e-02,
        -1.01339668e-01, -1.43059548e-02,  1.31205127e-01,
        -5.94938733e-02,  1.53905407e-01, -2.30099322e-04],
       [ 2.04734609e-01,  2.89612621e-01, -2.25768939e-01,
         2.41266340e-01,  7.74786994e-02,  3.96751054e-02,
        -9.31419507e-02, -1.19273044e-01, -2.38311812e-01,
         1.71095654e-01,  4.82895523e-02, -3.11220437e-01,
         2.31312320e-01,  5.58647156e-01, -1.45071059e-01,
        -2.18246430e-01, -2.11152166e-01,  8.82847905e-02,
         4.98658381e-02,  1.81919888e-01,  6.65509477e-02,
        -1.53155982e-01,  2.45725848e-02,  5.93525209e-02,
        -2.48654902e-01, -3.64134461e-01, -1.60781555e-02,
         1.05925582e-01, -3.44281308e-02, -1.97070152e-01],
       [-3.01825672e-01, -1.87384132e-02, -1.83060393e-01,
         1.65116251e-01,  5.13345189e-02,  1.79855898e-01,
        -1.21435016e-01,  6.80832937e-02, -1.73220143e-01,
        -2.68373221e-01,  9.68701839e-02,  2.53961027e-01,
        -1.50746912e-01,  2.14501873e-01, -1.85686320e-01,
        -1.07003741e-01,  2.83442140e-01,  1.26455322e-01,
         3.33553344e-01,  1.08147778e-01,  3.00235063e-01,
        -1.01325296e-01, -1.56541854e-01, -1.83759406e-01,
        -3.03048968e-01,  1.98104426e-01,  1.50772646e-01,
         1.04422480e-01,  1.70605406e-01, -3.55110951e-02],
       [ 2.42972583e-01,  1.03473552e-01,  2.91280411e-02,
        -6.51012287e-02,  3.21884930e-01, -6.40000701e-02,
        -7.20637813e-02, -3.86542790e-02, -1.79604635e-01,
        -3.43552023e-01, -9.67539325e-02, -7.36098140e-02,
         3.96005005e-01, -4.92905855e-01, -1.15859449e-01,
         5.00702895e-02,  1.83046330e-02, -1.92765638e-01,
        -9.49374959e-02, -3.36502135e-01, -2.46827886e-01,
         9.89880562e-02,  3.71971756e-01,  1.34251699e-01,
         6.35904670e-02, -2.16515169e-01, -1.62655592e-01,
        -3.80451865e-02, -6.93564117e-02,  1.49823785e-01],
       [-3.86665702e-01, -1.27443135e-01,  1.37005210e-01,
        -1.49551541e-01,  3.11545312e-01,  7.09555075e-02,
         8.13696384e-02, -3.74986917e-01, -2.01826185e-01,
        -1.03546411e-01,  1.00034580e-01,  3.17035347e-01,
         1.79166615e-01, -1.15213722e-01,  1.44514233e-01,
         8.30161795e-02,  3.68255496e-01, -1.68490499e-01,
        -2.34197661e-01, -2.42247254e-01,  1.03925020e-01,
         1.63457826e-01, -2.73672789e-01,  3.84551227e-01,
        -1.92544926e-02,  4.80626896e-02,  2.98890084e-01,
        -1.36509791e-01, -2.45881796e-01,  2.88154986e-02],
       [-1.42078400e-01, -3.57088029e-01,  4.61173981e-01,
        -1.16770893e-01,  1.57800972e-01, -1.84100941e-01,
        -2.11673960e-01, -2.55806983e-01, -2.70254254e-01,
         9.68213454e-02,  1.39378950e-01,  1.84025973e-01,
        -2.36008272e-01,  2.31778413e-01, -3.08130145e-01,
        -3.90100062e-01,  3.00795436e-02, -1.62404194e-01,
        -2.20070824e-01,  1.38253257e-01,  6.28528893e-02,
         3.53625864e-01, -1.50892824e-01,  2.24157766e-01,
         9.37496945e-02, -1.19954132e-01, -8.53476971e-02,
        -1.83225691e-01, -9.87190381e-03, -5.38705774e-02],
       [-3.01162243e-01,  2.69858241e-01,  3.21761556e-02,
        -5.41922525e-02,  1.60128966e-01, -2.89424479e-01,
         1.79029286e-01, -3.36493641e-01, -6.67113289e-02,
        -1.50658665e-02,  9.50970277e-02,  4.30211844e-03,
         1.43524081e-01,  1.11763783e-01,  3.25807005e-01,
         2.10388675e-01, -2.05605894e-01, -9.55841094e-02,
        -4.30387743e-02,  3.07932884e-01,  3.24229062e-01,
        -1.36158332e-01,  4.71639074e-02, -7.87891448e-02,
        -2.85228677e-02, -8.95137787e-02,  3.07952706e-02,
         6.72734827e-02,  3.30958724e-01, -1.17902674e-01],
       [-4.76395413e-02,  2.42955405e-02, -1.95393741e-01,
         3.14583629e-01,  1.29834607e-01, -4.63947982e-01,
        -2.07666331e-03, -1.77008331e-01,  9.76392403e-02,
        -6.32372573e-02, -2.03647166e-01, -5.84220365e-02,
        -2.03882888e-01,  6.40882313e-01, -1.28078952e-01,
         3.27111602e-01, -1.44707471e-01, -1.56402335e-01,
         5.46443909e-02,  2.15555251e-01,  4.57332730e-02,
        -8.44139326e-03, -2.01579835e-02, -5.22892699e-02,
        -3.46226618e-02,  3.79905775e-02, -6.19256683e-02,
         1.12646244e-01,  7.44368359e-02,  1.81769964e-03],
       [-4.94717322e-02, -2.55083531e-01, -2.28027195e-01,
         1.99115247e-01, -5.22995107e-02,  1.61002263e-01,
         2.53945917e-01,  1.05278611e-01,  2.77630329e-01,
         7.44704977e-02,  8.73222873e-02, -8.11046362e-02,
         8.39126110e-02,  4.11614776e-03, -1.20501794e-01,
        -2.37487137e-01,  1.57064214e-01,  1.02467261e-01,
        -2.75801897e-01,  2.65422724e-02, -3.05731874e-02,
         3.28410119e-01, -1.62492618e-01,  5.23648188e-02,
        -9.28493217e-02,  1.96033999e-01,  3.35790254e-02,
         1.37279630e-01,  5.99480793e-02,  2.80431181e-01],
       [-5.00834405e-01,  4.71233502e-02, -5.89753548e-03,
        -6.04816675e-02, -4.41774502e-02, -3.48650843e-01,
        -3.28583091e-01, -8.97372067e-02,  5.42771630e-02,
        -1.72695234e-01, -1.77668571e-01,  8.70822147e-02,
        -8.16075653e-02, -1.74247339e-01, -2.92096496e-01,
         2.18082592e-01,  1.60182342e-01,  6.89179227e-02,
        -3.12706590e-01,  2.44088799e-01,  1.51879936e-01,
         1.71974599e-01, -4.40489985e-02,  1.21434875e-01,
         5.45582771e-02,  7.76722506e-02, -5.60176894e-02,
         9.84294489e-02,  2.28564039e-01,  1.15076758e-01],
       [ 1.24254107e-01,  1.21745557e-01,  4.19790417e-01,
        -4.29856479e-01, -2.79005498e-01, -3.26550871e-01,
        -1.92119956e-01, -6.62359176e-03,  3.75065184e-03,
        -1.39508545e-01, -9.11631733e-02,  1.53742451e-02,
        -2.12074351e-02, -9.96288434e-02, -1.96473479e-01,
         3.13599437e-01,  1.34026498e-01,  1.47323549e-01,
        -7.62658045e-02, -8.48583803e-02, -9.83171687e-02,
         1.31669998e-01, -5.64531200e-02,  1.91722214e-01,
        -8.09907168e-02,  1.61825687e-01,  1.71888813e-01,
        -8.64654332e-02, -1.30028263e-01, -1.69879809e-01],
       [ 2.25560144e-02,  4.41003405e-02, -1.30980760e-01,
        -1.20302819e-01, -1.34090543e-01, -1.32706717e-01,
         2.53477067e-01,  3.61306705e-02, -2.42863163e-01,
        -1.04518525e-01,  2.09013849e-01, -1.86263740e-01,
        -1.21515151e-02, -4.85323220e-01,  3.30880195e-01,
        -1.19639732e-01,  1.76046544e-03,  1.82854314e-03,
         2.98089851e-02,  1.78935051e-01, -1.33146182e-01,
         1.03411712e-01,  1.27866298e-01, -3.14448118e-01,
        -1.89043190e-02,  5.88962510e-02,  3.92246172e-02,
         2.42104754e-01, -8.51853937e-02, -1.72222871e-02]], dtype=float32), array([[ 3.8145611e-01],
       [ 1.9833535e-01],
       [-5.3595382e-01],
       [ 7.9261497e-02],
       [-9.9235967e-02],
       [ 3.2913426e-01],
       [ 3.9626440e-01],
       [ 2.4563356e-01],
       [-8.0842376e-02],
       [ 1.3158409e-01],
       [ 3.1202045e-01],
       [-2.8645283e-01],
       [-1.0177917e-01],
       [-1.0409340e-01],
       [ 5.4860967e-01],
       [ 4.5669344e-01],
       [-3.8025126e-01],
       [ 1.1145134e-04],
       [ 1.6352420e-01],
       [ 2.3975119e-01],
       [-3.2197997e-01],
       [-5.0276768e-01],
       [-1.8224384e-01],
       [-2.3258819e-01],
       [-3.5561040e-01],
       [ 4.5712348e-02],
       [ 3.7457535e-01],
       [ 7.8911327e-02],
       [ 2.3340845e-01],
       [-3.1836918e-01]], dtype=float32)]


Weights_h:
[array([[ 0.14568856,  0.0427883 , -0.24494357, -0.34768084,  0.12403906,
        -0.08453072,  0.13545074, -0.04501846, -0.10312223, -0.13585359,
         0.30502224,  0.33671856,  0.10827706,  0.11763223, -0.12222837,
         0.39696944, -0.03577499,  0.08426218, -0.07125954,  0.00613714,
        -0.23424527, -0.04163045, -0.08416878,  0.30254552, -0.34226817,
        -0.23766267, -0.04486886, -0.20879053,  0.0101837 ,  0.07206345,
         0.16564794,  0.17375416],
       [ 0.00346856,  0.39501163, -0.04247865,  0.05718492, -0.46294108,
         0.15985963,  0.08958366,  0.06815035, -0.21758986, -0.245652  ,
         0.04290448, -0.28693548,  0.10382438, -0.24541831, -0.33473513,
        -0.22370315, -0.28881592, -0.32878292,  0.19366924, -0.0243009 ,
        -0.02153269,  0.00258307, -0.43086967, -0.09275589, -0.32401958,
        -0.11621533,  0.22480007, -0.08678791,  0.20522231,  0.08635533,
         0.13053833, -0.12524052]], dtype=float32), array([[ 0.14613502,  0.13872388,  0.1402741 , ...,  0.251899  ,
         0.19029291,  0.08356266],
       [ 0.2909089 ,  0.012693  ,  0.14056441, ..., -0.22259322,
         0.17874275, -0.3493558 ],
       [ 0.00450856,  0.2582141 ,  0.09719661, ...,  0.06585601,
         0.27156398, -0.07380354],
       ...,
       [-0.13177583,  0.13860631,  0.320436  , ...,  0.22266309,
         0.11515298,  0.09497961],
       [-0.32934234, -0.06933061,  0.16701901, ...,  0.23945828,
        -0.04170385, -0.21546309],
       [ 0.01153392, -0.1474798 , -0.08698559, ..., -0.18199755,
        -0.10279488,  0.05231684]], dtype=float32), array([[ 7.05821216e-02, -5.46152852e-02, -1.89709201e-01, ...,
        -2.75937468e-01, -2.03610852e-01, -1.38038620e-01],
       [-6.36903048e-02,  8.44612252e-03, -1.03535384e-01, ...,
        -3.22719038e-01, -1.41772922e-04, -7.48106092e-03],
       [ 1.97661653e-01,  1.44059375e-01, -8.65310654e-02, ...,
        -1.39062628e-02,  7.18802810e-02, -7.87372515e-02],
       ...,
       [ 2.23957852e-01,  7.22172782e-02, -1.61669962e-02, ...,
        -6.46444559e-02,  1.65832117e-02, -4.95307110e-02],
       [ 2.76551485e-01,  5.90382963e-02,  1.41858488e-01, ...,
        -1.93446189e-01,  2.73978382e-01, -1.90457731e-01],
       [-7.44643584e-02, -2.15930268e-01,  1.40060276e-01, ...,
         1.87460482e-01,  1.40545100e-01,  1.02962419e-01]], dtype=float32), array([[-0.09848686],
       [-0.18843706],
       [ 0.20386577],
       [-0.10627208],
       [ 0.10532624],
       [-0.19488737],
       [ 0.05369253],
       [ 0.35077465],
       [-0.28267416],
       [ 0.18323849],
       [ 0.35219964],
       [ 0.1987451 ],
       [-0.25650328],
       [-0.3942111 ],
       [-0.04799478],
       [ 0.13988715],
       [ 0.00692682],
       [-0.4145102 ],
       [-0.41573158],
       [ 0.42574856],
       [-0.19519965],
       [-0.38440022],
       [ 0.10127336],
       [-0.12720051],
       [ 0.01412332],
       [ 0.1001907 ],
       [-0.4699128 ],
       [-0.09748092],
       [ 0.2031211 ],
       [-0.27913523],
       [ 0.10445727],
       [ 0.34600475]], dtype=float32)]


Weights_c:
[array([[-0.436551  , -0.19577149, -0.14908943, -0.23251636,  0.21020836,
         0.01899168, -0.18862444,  0.07153811, -0.28318742,  0.08614405,
         0.16644958, -0.05243946,  0.1033326 ,  0.35956657,  0.12489102,
         0.11240142, -0.44272956,  0.18902408,  0.2457999 , -0.37412995,
         0.18249556, -0.22759682, -0.09805822,  0.23432578, -0.44437405,
        -0.07873162,  0.33763906, -0.18306339,  0.34050578,  0.34015605,
         0.10902152, -0.29574654],
       [-0.36611027,  0.2716988 , -0.297845  , -0.14435045,  0.34210795,
         0.10336805, -0.30717757, -0.18570022, -0.2744148 ,  0.07295002,
         0.08316567, -0.1886442 , -0.04990215, -0.3336338 , -0.2549983 ,
        -0.0923717 , -0.17328607,  0.4468056 , -0.2635115 , -0.21491107,
         0.10679378, -0.13244447,  0.27923778,  0.1546878 ,  0.01163447,
        -0.04222929, -0.0029199 ,  0.11461112, -0.0541359 , -0.2994231 ,
        -0.00919068, -0.14721985]], dtype=float32), array([[ 0.11665306,  0.2537795 , -0.11705668, ...,  0.00697507,
         0.07209751, -0.03910639],
       [ 0.13674262,  0.20050101, -0.04953763, ...,  0.02222706,
         0.02070728,  0.19853294],
       [ 0.3518492 ,  0.20398915,  0.08312125, ...,  0.03551027,
         0.3447903 ,  0.08161815],
       ...,
       [ 0.02204326, -0.26413402,  0.01505016, ..., -0.13244654,
        -0.00846231, -0.22384918],
       [ 0.21933721, -0.03704536, -0.1586929 , ...,  0.18279529,
        -0.08279106,  0.21981505],
       [-0.22208689,  0.041264  ,  0.201325  , ..., -0.0835606 ,
        -0.1985827 , -0.04760926]], dtype=float32), array([[-0.03064156, -0.26161763, -0.15255532, ...,  0.05586261,
         0.01343352,  0.04425788],
       [ 0.0712921 , -0.16796869, -0.09860854, ..., -0.03465192,
        -0.03304254, -0.06419692],
       [ 0.13349235,  0.1533324 ,  0.07535215, ..., -0.13567074,
        -0.10419467, -0.12308176],
       ...,
       [ 0.27622157, -0.24120644,  0.02672122, ...,  0.0235175 ,
        -0.13245907,  0.09059867],
       [-0.07116906, -0.16041829, -0.0282239 , ...,  0.19553743,
        -0.04006693,  0.11770446],
       [ 0.01839904, -0.19303663,  0.24373351, ...,  0.04492711,
        -0.00136926, -0.10089289]], dtype=float32), array([[ 0.01475844],
       [-0.06276604],
       [-0.44945487],
       [-0.01337795],
       [ 0.02571248],
       [ 0.09547279],
       [ 0.14328891],
       [-0.20065366],
       [-0.06742534],
       [ 0.00947275],
       [-0.0857871 ],
       [-0.07455337],
       [-0.09628659],
       [ 0.0506513 ],
       [ 0.02637007],
       [ 0.10461706],
       [-0.09704024],
       [-0.26791316],
       [-0.01533256],
       [-0.29926658],
       [ 0.07074825],
       [-0.00978785],
       [ 0.20001294],
       [ 0.08812054],
       [ 0.2354673 ],
       [-0.02420573],
       [ 0.10969929],
       [ 0.15924199],
       [-0.18883389],
       [ 0.0879006 ],
       [ 0.30827   ],
       [ 0.13382424]], dtype=float32)]


Weights_k:
[array([[-0.13381808,  0.19873066,  0.11327781, -0.7376913 , -0.23572205,
         0.09699951, -0.46427122,  0.1509877 , -0.1559773 ,  1.0159069 ,
        -0.20511037,  0.13194299, -0.15360355, -0.9420187 , -0.05739201,
        -0.0045243 , -0.20753928, -0.32747722,  0.34370625, -0.4787651 ,
         0.1398463 , -0.375514  ,  0.44132125,  0.11920446,  0.31225333,
        -0.1364678 , -0.39059904, -0.03497368, -0.62303203,  0.31785476],
       [-0.43792439,  0.48889264,  0.02210001,  0.07645556, -0.19857064,
         0.26873493, -0.02831764, -0.41751575,  0.29124257, -0.5356326 ,
         0.43348813,  0.04709192,  0.40643921,  0.38351792,  0.15860239,
         0.13432933, -0.24213153,  0.19175118,  0.17971472,  0.5005988 ,
         0.39109394,  0.21643712, -0.1345874 , -0.06281519, -0.10068081,
         0.22166589,  0.32415518, -0.12575644,  0.22517207,  0.37251523]],
      dtype=float32), array([[-5.79735972e-02, -2.50127818e-03, -7.26535171e-02,
         1.70190493e-03, -1.33081272e-01,  1.14176810e-01,
         1.58217520e-01, -6.62944615e-02,  3.06096554e-01,
         8.97969678e-02,  9.29419100e-02, -7.97120184e-02,
        -4.39012021e-01, -8.88653398e-02, -4.76372428e-03,
         1.87176749e-01,  1.96116090e-01,  3.01931053e-01,
        -3.63502651e-01,  1.90099776e-01, -2.10845098e-02,
         4.55170423e-02, -7.36952797e-02,  2.71027870e-02,
         4.55337942e-01,  1.31515330e-02, -1.27730265e-01,
         2.99032241e-01, -2.01230600e-01,  1.28235981e-01],
       [ 1.55046120e-01,  2.46775776e-01,  2.09310114e-01,
         3.97203773e-01,  1.51473552e-01,  2.40918815e-01,
        -1.02237511e+00, -1.80635631e-01,  1.26782537e-01,
         3.97587717e-01,  3.06097448e-01,  3.76511842e-01,
        -1.10862881e-01, -1.13015823e-01, -1.64483309e-01,
         1.80401817e-01,  5.59612274e-01, -1.26970470e-01,
        -2.98235357e-01, -4.52075094e-01,  2.86678523e-01,
         9.93627608e-02, -1.12494357e-01,  1.66931897e-01,
        -5.64933494e-02,  1.93905339e-01, -2.55730599e-01,
        -1.70828655e-01, -4.16237526e-02, -9.64265093e-02],
       [ 2.58874118e-01, -8.29557553e-02, -1.01489894e-01,
         8.53243321e-02,  2.21230209e-01,  1.33322179e-01,
         4.18555252e-02,  1.46969687e-02,  4.55904976e-02,
        -1.35578275e-01, -1.78370655e-01,  4.68348572e-03,
         3.50696534e-01,  7.98146650e-02, -6.60913391e-03,
        -5.23791322e-03, -3.27583492e-01, -5.46265952e-02,
         4.24261123e-01, -4.02554423e-02,  5.72227594e-03,
         2.88797081e-01,  4.19242948e-01,  9.79886353e-02,
        -4.97409970e-01,  1.82837442e-01, -2.02082768e-01,
         7.61688054e-02, -1.84280753e-01,  3.50805484e-02],
       [ 9.47338715e-02, -3.71003419e-01,  1.77822754e-01,
        -3.24333251e-01,  7.50490725e-02, -2.33738013e-02,
         1.28644392e-01, -2.16624677e-01, -7.97088519e-02,
        -2.30458289e-01, -1.05072185e-01,  1.08017989e-01,
        -2.04701453e-01, -8.37382451e-02, -2.37244919e-01,
         3.15115482e-01,  1.54650152e-01,  2.96427961e-02,
        -5.32974482e-01,  1.15119241e-01, -1.40409157e-01,
         1.02325715e-03, -4.47904587e-01,  7.86026567e-02,
         3.14057052e-01,  7.54353255e-02, -3.92020755e-02,
        -1.48427457e-01,  6.00430965e-01,  3.52091014e-01],
       [-9.86882579e-03, -3.97013783e-01, -8.06953385e-02,
        -8.18335339e-02,  1.44105479e-01,  2.10884884e-01,
         4.90261048e-01,  2.17374321e-02, -1.59619451e-01,
        -1.06241353e-01, -1.32343516e-01, -1.23594671e-01,
        -9.96372849e-02,  2.08218992e-01,  3.03444900e-02,
        -2.00664669e-01, -2.38967285e-01,  4.16114092e-01,
        -2.14024872e-01,  2.20477171e-02, -2.99612228e-02,
        -1.59453616e-01, -1.76604502e-02, -9.95638315e-03,
         1.86610729e-01, -1.78261161e-01,  9.40319151e-02,
        -1.30730435e-01, -4.60974574e-02,  1.41479105e-01],
       [ 2.28962958e-01, -4.03951854e-02, -6.58242255e-02,
         1.85379341e-01,  3.19364741e-02, -1.49734125e-01,
        -9.93216813e-01, -1.17164098e-01,  2.73244768e-01,
        -4.81778085e-02, -1.33974597e-01,  1.27619235e-02,
        -3.51112038e-01, -2.48045451e-03,  3.54234725e-01,
         6.03499055e-01,  5.91098130e-01, -3.60176504e-01,
         1.28273651e-01, -2.58336395e-01, -3.23236734e-02,
        -2.12873250e-01, -5.50780118e-01,  3.39659542e-01,
         1.51158139e-01, -2.58017659e-01, -5.67386262e-02,
        -2.95057923e-01,  1.30834822e-02, -5.46616502e-02],
       [ 1.14375278e-01, -4.99513716e-01, -9.01262090e-02,
        -5.71205514e-03,  1.48642331e-01,  1.53603822e-01,
         2.85278946e-01,  2.66077727e-01, -2.94837832e-01,
         1.45054251e-01,  6.20648079e-02, -2.53639966e-01,
        -1.58477232e-01, -1.75017864e-02,  1.02084856e-02,
        -5.91466837e-02,  3.54891494e-02,  2.99133360e-01,
        -5.31363606e-01,  1.11759581e-01,  1.04590598e-02,
         9.88392159e-02, -1.45627201e-01, -1.70989968e-02,
        -1.82771217e-02,  1.91818997e-01, -9.07530710e-02,
        -2.14932665e-01,  2.36389950e-01,  1.73337892e-01],
       [ 8.40601847e-02,  5.08055210e-01, -7.11218789e-02,
         6.88930452e-02,  1.26302212e-01,  1.49510512e-02,
         3.87022942e-01, -8.04613531e-02, -2.62366414e-01,
         9.36141834e-02,  1.93107009e-01, -1.02432385e-01,
        -2.96772838e-01,  5.83488233e-02, -2.18252391e-01,
        -1.67468384e-01, -2.73061227e-02, -2.03571588e-01,
        -5.08538075e-02, -7.58152232e-02, -3.43153961e-02,
         3.03205699e-01, -3.58710461e-03,  3.33666839e-02,
         3.96184802e-01, -1.09084658e-01, -3.51029239e-03,
         3.87185365e-01, -3.00690711e-01,  9.14063677e-02],
       [-3.07976715e-02, -3.19663316e-01, -1.10687338e-01,
         1.93019375e-01, -5.34457192e-02, -3.29762399e-02,
        -7.27399826e-01, -1.79672949e-02,  4.58932966e-02,
        -4.35352251e-02,  3.45435590e-02, -1.48924306e-01,
        -9.13661122e-02, -1.70862824e-01,  5.62561639e-02,
         4.09636050e-02, -2.70044595e-01, -3.72541815e-01,
        -1.02387495e-01, -3.77018899e-01,  6.21175356e-02,
        -2.56181210e-01,  2.45602857e-02,  9.04031694e-02,
        -1.05169872e-02, -3.88748050e-02, -4.03627567e-02,
        -2.56796837e-01,  1.58345863e-01, -6.35471568e-02],
       [ 4.04342860e-02,  3.75658423e-01, -2.50741273e-01,
        -6.60766959e-02, -1.57659367e-01,  2.29025781e-01,
         1.67909622e-01,  6.40084445e-02,  6.36810958e-02,
         1.54323727e-01, -4.63962965e-02,  1.60582185e-01,
         3.89215052e-02, -3.36399734e-01, -1.51897306e-02,
        -1.33161038e-01,  3.29864383e-01, -1.39796793e-01,
         4.04813230e-01, -1.76565677e-01,  2.42608771e-01,
         1.71917841e-01,  3.46963853e-01, -1.37818351e-01,
         6.69069961e-02,  3.58526595e-03,  1.74794361e-01,
         3.79660159e-01, -4.15953308e-01,  1.02156393e-01],
       [ 9.35224146e-02, -5.34077644e-01, -8.63670707e-02,
        -1.87783733e-01,  3.13794166e-01, -1.80874124e-01,
        -4.30922240e-01, -1.49659351e-01,  5.99637628e-02,
        -3.75727415e-01,  2.97968909e-02, -7.93182626e-02,
         1.65064812e-01, -3.00257266e-01,  4.42720242e-02,
        -4.72540781e-02,  4.18135710e-02, -5.15973642e-02,
         5.07009104e-02,  3.33564013e-01,  4.03955281e-02,
        -2.46712938e-01, -1.74813464e-01,  6.39354587e-02,
        -1.75398514e-01,  9.19516459e-02, -3.29183519e-01,
        -1.25627324e-01,  1.26970991e-01, -2.61538237e-01],
       [ 1.75496832e-01,  4.17333215e-01,  1.58980012e-01,
        -7.41846040e-02,  2.28119135e-01, -3.67969781e-01,
        -6.58586204e-01, -2.80356407e-01, -4.67165709e-02,
         4.61547494e-01, -2.74589360e-01, -1.42259508e-01,
         1.56524211e-01,  1.05825260e-01,  3.78417432e-01,
         2.51602590e-01,  4.55028087e-01, -2.61881679e-01,
        -1.24201022e-01, -6.66662380e-02,  3.80367562e-02,
         2.45196167e-02, -5.17908968e-02,  1.27267376e-01,
         4.35335934e-02, -1.03770616e-02, -3.96819681e-01,
        -9.23176184e-02, -2.66233563e-01, -1.92135528e-01],
       [ 8.37065503e-02,  1.67619273e-01,  1.40367702e-01,
        -1.16645470e-01, -2.70001650e-01, -1.39349267e-01,
        -8.85226190e-01, -3.50524597e-02, -1.22758567e-01,
         1.58929214e-01, -1.98823228e-01,  4.50760201e-02,
        -1.12123601e-01,  1.49148226e-01, -2.54357100e-01,
         1.76875830e-01, -2.18203470e-01,  1.00771494e-01,
         2.22323060e-01,  4.59358320e-02, -1.11437976e-01,
        -1.43722549e-01, -1.47742167e-01,  6.08654469e-02,
        -2.24165797e-01, -4.31619734e-02,  5.78721911e-02,
        -4.05983567e-01,  2.08973244e-01,  1.85457408e-01],
       [-2.39624128e-01, -7.12293208e-01, -1.43411115e-01,
        -8.22367519e-02,  2.41200671e-01, -1.70215160e-01,
         1.47069395e-01,  6.54175803e-02,  9.46743935e-02,
         7.00861812e-02, -3.11572492e-01, -1.87242314e-01,
         1.44991845e-01, -1.03566922e-01,  8.13681036e-02,
         4.81556617e-02,  4.17209454e-02,  2.11962968e-01,
        -2.38251463e-02, -7.14991763e-02, -1.74257755e-01,
        -3.61751050e-01, -2.08222970e-01, -8.86340961e-02,
         3.19294468e-03,  1.29491434e-01,  5.73776066e-02,
        -4.15054522e-02,  7.21185029e-01, -2.49105543e-01],
       [ 7.30764344e-02, -7.12817460e-02, -3.39599103e-02,
        -1.26149729e-02, -1.42315403e-01, -4.72113565e-02,
         9.07708630e-02,  1.37912214e-01, -8.86085853e-02,
        -1.68529600e-01,  1.91681504e-01,  7.91855529e-02,
         1.78193122e-01, -1.11197218e-01, -1.38412520e-01,
         1.19556017e-01, -2.66606249e-02,  1.56163394e-01,
         2.32416093e-01, -9.04480666e-02, -4.03820537e-02,
        -2.14859262e-01,  1.06397327e-02, -1.66706994e-01,
        -4.82631847e-02,  2.80286640e-01,  1.68586984e-01,
        -2.97170490e-01, -2.39745751e-02, -3.09210569e-01],
       [-2.58225560e-01, -6.54640933e-03, -2.22022340e-01,
         1.43360153e-01,  2.78208926e-02, -2.00843558e-01,
        -2.89820552e-01,  3.08148146e-01,  1.85214385e-01,
         1.97509810e-01,  1.23622254e-01,  1.17929868e-01,
         7.92122558e-02,  2.63950318e-01,  2.36172691e-01,
        -6.65779933e-02,  1.40302628e-01,  7.87656233e-02,
         1.31481186e-01, -2.15879664e-01,  5.00972755e-02,
        -6.29037246e-02, -6.39501736e-02, -3.09500545e-01,
         9.49153677e-02,  1.62377939e-01, -1.51627317e-01,
        -2.39691168e-01, -1.60384461e-01,  7.40691051e-02],
       [-9.56422612e-02,  5.50797582e-02,  6.51436597e-02,
         3.33169824e-03, -6.17556609e-02,  2.58771870e-02,
         3.24449509e-01, -1.73391972e-03,  2.64301270e-01,
        -7.64495209e-02,  1.19991265e-01, -5.53667024e-02,
        -4.41436112e-01, -6.74261227e-02, -1.38039932e-01,
        -1.19257770e-01,  7.25031942e-02,  1.87819496e-01,
        -1.25561103e-01, -9.63497907e-02, -2.55893797e-01,
         1.38203859e-01, -1.09280482e-01, -1.51776746e-01,
         5.65854371e-01, -2.32996270e-01, -3.55638936e-02,
        -8.61048624e-02,  2.94055760e-01,  1.42431082e-02],
       [-1.64830104e-01, -7.41337001e-01,  9.82085429e-03,
        -1.90703087e-02,  3.13788086e-01, -7.07256496e-02,
        -2.49225050e-01,  2.80464947e-01, -1.60757110e-01,
        -2.79132873e-01,  1.30875438e-01, -2.62195081e-01,
        -1.11979365e-01,  1.94841430e-01,  1.25968292e-01,
        -6.39293576e-04, -2.39899427e-01,  6.05932415e-01,
        -1.09201550e-01,  8.12173337e-02, -2.80648917e-01,
        -1.82837427e-01,  5.58166504e-02, -2.03429967e-01,
        -1.79633424e-01,  1.41513422e-01, -1.57322824e-01,
        -3.08484077e-01,  1.56428531e-01,  3.50067466e-01],
       [-9.78336185e-02,  6.34788861e-03,  1.43836856e-01,
         8.90871733e-02, -5.87884597e-02,  5.69267198e-02,
        -3.24784517e-01, -3.89934704e-02,  5.71724772e-02,
         1.46516874e-01,  1.48485780e-01,  2.41446793e-01,
         2.86612427e-03,  2.01419562e-01,  1.79057449e-01,
         2.56512016e-01,  2.28408024e-01, -3.14030826e-01,
        -7.11593702e-02,  2.20877185e-01, -6.31035417e-02,
        -1.47184178e-01,  1.14503071e-01,  2.45700434e-01,
         1.68031365e-01,  2.68487670e-02, -2.48799473e-01,
         5.24992421e-02, -2.96206564e-01,  4.22231201e-03],
       [ 5.94691746e-02, -2.62851685e-01, -8.82639810e-02,
         2.89763715e-02, -6.03458695e-02, -1.91579983e-02,
        -5.14216483e-01, -9.92493853e-02, -1.41651392e-01,
         3.06437820e-01, -3.84317368e-01,  2.08660081e-01,
        -1.85265467e-01,  7.68232159e-03,  5.28899170e-02,
         7.58777261e-02,  3.21437836e-01, -9.53559130e-02,
        -2.22368538e-01, -4.85361457e-01,  1.58288658e-01,
        -1.96273193e-01, -5.44764996e-01,  3.50610197e-01,
        -2.57680357e-01, -1.89751610e-01, -2.22013265e-01,
        -3.43095243e-01,  3.79163206e-01,  1.22448035e-01],
       [-3.17486852e-01,  2.34505996e-01, -5.99273331e-02,
         1.69325024e-01, -6.17656596e-02, -3.02643403e-02,
        -1.61836535e-01,  9.29511040e-02, -4.05393332e-01,
         1.55723363e-01,  9.33887735e-02,  1.53191537e-02,
         1.19052097e-01, -5.70610091e-02, -1.02646999e-01,
        -9.51666161e-02,  1.50059655e-01, -4.31241632e-01,
         3.87799472e-01,  2.36619394e-02, -1.04044057e-01,
        -2.99674302e-01,  2.41426632e-01,  3.82480383e-01,
        -3.79245877e-01, -4.03627520e-03, -3.42561245e-01,
        -2.36733586e-01, -1.49530381e-01, -9.51850489e-02],
       [-3.03708892e-02, -4.95894283e-01,  1.72975197e-01,
        -1.80331454e-01,  3.95528153e-02,  6.83716908e-02,
         1.33528858e-01,  2.97741681e-01,  1.59332037e-01,
         1.09309927e-01, -1.86496377e-01,  1.17211223e-01,
        -2.62317240e-01, -2.08538491e-04,  2.68792510e-01,
        -1.22658283e-01, -2.10115761e-01,  1.41865686e-01,
         1.93004459e-02,  3.52996439e-02, -9.50722396e-02,
        -3.50896895e-01, -4.53641027e-01,  1.00869454e-01,
        -1.44275025e-01,  1.90853298e-01,  3.54988456e-01,
        -7.02367797e-02,  6.64170504e-01, -6.40465170e-02],
       [ 2.00446472e-01,  3.26431304e-01,  7.00939223e-02,
        -2.42782220e-01, -2.03407899e-01,  2.09438130e-01,
        -6.73930347e-02,  1.04182795e-01, -7.09357560e-02,
         3.25733684e-02,  3.54555428e-01,  2.18103424e-01,
         2.92652696e-01,  2.44502742e-02,  5.76786473e-02,
         2.39208993e-02, -5.64693622e-02, -3.61518204e-01,
        -2.50892788e-01, -8.90753493e-02,  9.55746174e-02,
         3.01033974e-01,  5.04867673e-01,  1.96461871e-01,
        -1.19516872e-01,  5.52300178e-02, -3.57773215e-01,
         2.01301202e-01, -6.65802479e-01,  4.84546348e-02],
       [ 3.32744606e-02,  7.23626077e-01,  4.84970845e-02,
         6.20712526e-02, -3.71154174e-02, -1.53495520e-01,
         1.96614817e-01, -2.54253268e-01, -7.20730051e-02,
         1.68673337e-01,  8.39013904e-02, -2.38490477e-01,
        -1.49839476e-01,  2.62324929e-01, -3.64189968e-02,
         2.58082390e-01,  1.21985093e-01, -3.64829004e-01,
        -1.41996723e-02,  9.51680616e-02, -7.42239738e-03,
         8.02142266e-03, -9.61301327e-02,  1.48489535e-01,
        -9.02387798e-02, -7.16725737e-02, -1.44295588e-01,
         1.54472008e-01, -2.71298051e-01, -1.12496406e-01],
       [-4.68828604e-02,  8.20365548e-01,  1.23866223e-01,
         5.11869118e-02, -1.27093885e-02,  2.25797877e-01,
        -3.44482392e-01,  1.36203110e-01,  2.36708988e-02,
         2.75649160e-01,  1.21943489e-01,  3.18577178e-02,
         3.49000782e-01,  2.15413138e-01, -1.21852763e-01,
         1.75005436e-01,  1.92235291e-01, -6.80791959e-02,
         4.52504046e-02, -2.63413955e-02,  1.44380376e-01,
         4.66799960e-02,  4.65167910e-01, -3.47634479e-02,
        -3.00223753e-02, -7.75155006e-03, -1.74652845e-01,
         3.99609208e-01, -3.52500230e-01,  2.75974907e-02],
       [-1.40983477e-01,  1.93706043e-02,  2.70691961e-01,
         1.64135262e-01,  1.64360777e-01,  4.94542755e-02,
        -7.85932660e-01, -3.17011863e-01, -2.40776427e-02,
        -6.04743399e-02, -4.12884623e-01,  8.39627385e-02,
        -2.19432898e-02,  1.61109760e-01,  3.87515485e-01,
         4.27259922e-01,  4.71746415e-01, -2.94934064e-01,
        -3.16442639e-01, -4.93512332e-01,  1.50671259e-01,
        -7.03954324e-02, -1.40721649e-01, -1.56271860e-01,
         1.29565582e-01,  3.00682664e-01, -2.68735439e-01,
        -3.50121525e-03,  1.85475983e-02, -9.94398594e-02],
       [ 1.73965186e-01, -4.67826843e-01, -4.89896908e-03,
         9.99771431e-02,  2.26801440e-01, -2.51830034e-02,
        -4.74689186e-01,  4.56040613e-02,  6.99474290e-02,
         6.45383522e-02,  1.11776879e-02,  1.05180688e-01,
        -1.94442481e-01, -1.47962928e-01,  2.53410339e-02,
         3.15927982e-01, -1.41294032e-01, -2.94667065e-01,
         1.38784125e-01, -2.65265673e-01, -2.48721600e-01,
        -7.89391771e-02, -4.12987858e-01,  1.36286721e-01,
         3.68813835e-02, -8.59870017e-02,  1.91980496e-01,
        -2.93601722e-01,  4.82416272e-01,  1.59410927e-02],
       [ 1.79951116e-01, -1.80146605e-01,  1.03714943e-01,
        -1.36753321e-01,  3.13190907e-01,  1.33083820e-01,
         2.31029093e-01,  1.25861809e-01, -2.28981581e-02,
        -1.99750379e-01, -2.24310495e-02, -9.19122063e-03,
        -2.25875646e-01, -5.01736812e-02,  9.28206444e-02,
         2.78987795e-01, -2.65046567e-01,  2.54048496e-01,
        -2.32035160e-01,  1.46211043e-01,  2.59454511e-02,
         3.07606041e-01,  2.29482308e-01, -3.90129268e-01,
         5.91397762e-01,  1.81824476e-01,  1.68657988e-01,
         1.62290990e-01, -7.27333082e-03, -1.77621275e-01],
       [ 1.82737991e-01, -5.05637527e-01,  1.19090937e-02,
        -6.93246648e-02,  3.02559406e-01,  3.55759636e-02,
         4.54054832e-01,  2.52470523e-01, -4.15016711e-01,
        -1.86698541e-01,  1.91467360e-01, -3.64355773e-01,
        -6.82377592e-02,  1.90027609e-01,  4.27683294e-02,
        -2.39323720e-01, -4.68384996e-02,  3.50705028e-01,
        -1.16869166e-01, -2.22072691e-01, -8.92228410e-02,
        -4.02529001e-01, -4.84747082e-01, -1.05495125e-01,
         3.91193926e-02, -1.21766172e-01,  1.01274431e-01,
        -1.46294266e-01,  4.32011545e-01, -1.51149824e-01],
       [ 2.57419556e-01,  4.57486898e-01,  2.34157220e-02,
         1.59323439e-01, -4.73938175e-02,  1.98472381e-01,
        -1.26132512e+00, -3.05930883e-01,  8.44092667e-02,
         2.26403743e-01, -1.59826726e-01,  1.81858212e-01,
        -9.76795182e-02, -1.51579961e-01, -1.54862022e-02,
         2.89684325e-01,  4.14454818e-01, -3.96222532e-01,
         6.32541031e-02, -5.70176020e-02,  2.68525898e-01,
        -2.00795144e-01, -1.75807118e-01, -2.38930900e-02,
         2.56985351e-02, -5.63355312e-02, -1.61026847e-02,
        -2.91814148e-01, -9.20255333e-02,  1.82533652e-01]], dtype=float32), array([[-1.11668512e-01,  1.32343650e-01, -7.51090646e-02,
        -1.63715094e-01, -1.07214436e-01,  2.81839997e-01,
         1.56662881e-01,  3.57285216e-02, -5.98385073e-02,
         2.63033986e-01,  1.19630493e-01, -5.70188761e-02,
         1.60637181e-02,  1.24820851e-01, -6.28245100e-02,
         3.10489610e-02,  3.86237442e-01,  4.52970713e-02,
        -1.09941699e-01,  1.35765716e-01,  2.92870551e-01,
        -1.20394699e-01,  1.35585114e-01, -3.76130074e-01,
        -8.83157104e-02,  2.43708327e-01, -2.49617010e-01,
         1.17741652e-01,  3.86740863e-01,  9.99661535e-02],
       [ 1.02484599e-01,  1.09409884e-01,  4.27207381e-01,
        -1.64211139e-01, -2.65595943e-01, -1.33114010e-01,
         4.65847254e-02, -2.23735079e-01, -1.21553741e-01,
        -2.02996165e-01,  1.19079746e-01,  2.91362666e-02,
        -8.41522068e-02,  5.17866254e-01, -3.20230752e-01,
        -1.64018534e-02,  3.23389322e-01, -2.98098087e-01,
        -2.15152979e-01, -1.51962712e-01,  3.14313591e-01,
         1.31731406e-01,  4.75284047e-02,  1.15060911e-01,
        -2.35914141e-01,  1.72402009e-01,  5.63271018e-03,
        -3.56539696e-01,  5.36677241e-01, -3.53339851e-01],
       [-1.57322630e-01, -6.38398379e-02, -9.73262787e-02,
         1.15804859e-02, -4.96968552e-02,  1.11439303e-01,
         2.07379147e-01,  1.50619790e-01, -1.76411152e-01,
        -1.78780183e-01,  3.77882738e-03, -9.45010856e-02,
        -7.33831227e-02,  2.41787121e-01, -1.85909376e-01,
        -3.18873107e-01, -1.67198833e-02,  1.07200906e-01,
         1.58703756e-02,  1.66130006e-01,  1.49292305e-01,
         1.96781412e-01,  1.11014947e-01, -3.29766840e-01,
         3.92433286e-01,  3.35424095e-01,  3.16921234e-01,
         6.01205900e-02,  2.79130250e-01,  3.80768888e-02],
       [-1.18258461e-01, -5.16576916e-02,  1.89700976e-01,
         1.04054324e-01, -1.69664443e-01,  1.48004547e-01,
        -9.95664224e-02,  1.35321781e-01, -3.97275575e-02,
        -1.37480006e-01, -3.47819239e-01,  1.04893677e-01,
         2.69053876e-01,  1.11338623e-01,  1.29038393e-01,
         2.75925416e-02, -2.73037612e-01,  1.40748739e-01,
         1.60787389e-01,  1.28769204e-01,  6.58697262e-02,
        -6.14323840e-02, -1.99091010e-04,  1.38092428e-01,
         8.85915905e-02,  9.91914868e-02, -1.24010770e-03,
        -4.48014848e-02,  3.89080644e-01,  8.90093595e-02],
       [-4.66337651e-02,  2.21889272e-01, -3.37833166e-01,
        -2.05693856e-01,  3.17947775e-01, -4.77707684e-02,
         1.13121606e-02, -2.67073691e-01,  7.30583966e-02,
         3.83284599e-01, -3.78025919e-02,  1.91513434e-01,
         9.01649799e-03, -5.29935479e-01, -1.73171520e-01,
         4.04268168e-02,  1.66486632e-02,  2.34487236e-01,
        -2.98076752e-03,  4.14062470e-01, -3.21452916e-01,
         5.49709052e-02, -1.02770470e-01, -2.17176578e-03,
        -1.88251436e-01, -1.44235626e-01,  1.18401833e-01,
        -9.74448249e-02, -4.41337883e-01, -2.93835640e-01],
       [ 8.40578452e-02,  5.68147302e-02,  1.29133448e-01,
        -5.77279590e-02,  2.72242993e-01,  1.44244149e-01,
         5.84901869e-03, -2.17653960e-01, -2.41575196e-01,
        -7.21902102e-02,  9.87798870e-02, -2.49791533e-01,
        -6.56336471e-02,  4.04095262e-01, -9.68004111e-03,
        -4.33260463e-02,  3.59586477e-01,  1.04575731e-01,
        -2.06110165e-01, -1.91784501e-01,  1.62389651e-01,
         1.91877410e-02,  2.89667159e-01, -2.94455644e-02,
        -3.00056368e-01, -4.22597192e-02, -2.22374469e-01,
        -2.51276549e-02,  1.52656436e-01,  1.50131762e-01],
       [ 3.00771138e-03,  5.52001633e-02,  1.72806025e-01,
         4.51684464e-03,  1.13078011e-02, -2.68772319e-02,
        -2.27485746e-01, -4.95892644e-01, -1.17774665e-01,
         3.15434396e-01, -1.38949290e-01, -3.26739877e-01,
        -9.60912704e-02, -3.22597295e-01,  8.19420367e-02,
         1.19690061e-01,  2.03752354e-01, -4.21695374e-02,
         1.18078820e-01, -1.62070021e-01, -1.93189204e-01,
         2.34277695e-01,  1.19677544e-01,  1.18606858e-01,
        -3.06315664e-02, -4.31458294e-01, -3.47246341e-02,
         3.73781770e-02, -8.41972649e-01, -5.34485243e-02],
       [ 1.03761882e-01,  2.41250377e-02, -2.31615543e-01,
        -1.24116741e-01,  9.40943733e-02,  5.94011061e-02,
        -2.06170946e-01, -3.55661452e-01, -5.06013222e-02,
         1.99626476e-01,  2.26352930e-01, -1.84172601e-01,
        -4.40975316e-02, -4.03108805e-01, -3.17291804e-02,
         6.65689178e-04,  4.36969305e-04, -1.94629490e-01,
         3.23561788e-01, -2.54110396e-01, -1.04038320e-01,
        -1.27869800e-01,  3.42360102e-02,  2.49223679e-01,
         2.56355386e-02,  4.63059358e-02,  3.79619338e-02,
         2.53209233e-01, -4.56826687e-01, -1.30946234e-01],
       [ 1.07125249e-02, -4.39553484e-02, -1.60918161e-01,
        -1.38383180e-01,  3.30010235e-01, -1.81069896e-01,
         2.51564533e-02,  1.09662578e-01,  1.32163987e-01,
        -2.75171518e-01, -8.96014869e-02,  2.70920098e-02,
         2.36087278e-01,  3.64466369e-01,  2.84168404e-02,
         2.32927963e-01, -1.78912148e-01,  2.36256961e-02,
         1.69895768e-01,  1.01313151e-01,  1.35826677e-01,
         3.06185275e-01,  1.57904193e-01, -6.95607578e-03,
        -1.53213143e-01,  2.45794401e-01, -2.54188567e-01,
         2.03455299e-01,  1.38484508e-01, -2.17044622e-01],
       [-2.01587811e-01, -6.09176345e-02, -1.03922099e-01,
        -3.08373980e-02,  6.27452880e-02, -1.14669343e-02,
        -4.60826382e-02,  1.56323612e-01,  2.16813862e-01,
         1.25834169e-02,  1.51486201e-02, -7.13895657e-04,
        -1.50200695e-01,  1.64960787e-01, -1.60281956e-01,
        -2.00247616e-01, -5.20249009e-02, -3.70826609e-02,
        -2.75135428e-01,  2.53776878e-01,  3.42636764e-01,
        -1.63856685e-01, -5.63161522e-02, -8.42383355e-02,
        -8.04884061e-02,  4.80141342e-01,  2.22245092e-03,
        -2.17625722e-01,  5.42086720e-01,  2.98454821e-01],
       [ 3.52211483e-02, -2.70755231e-01,  1.89887419e-01,
         5.10563739e-02,  1.46863282e-01, -5.99550270e-02,
        -2.48798162e-01,  9.25056450e-03, -1.15765244e-01,
         3.37904729e-02,  2.37950265e-01, -1.63513124e-01,
        -1.46511495e-01,  6.00270629e-02, -1.09583922e-01,
        -2.57752649e-02,  1.26695782e-01, -2.95454025e-01,
         1.66785046e-01, -9.00022984e-02, -1.77114204e-01,
         5.97318336e-02,  2.39921615e-01,  1.08744249e-01,
         4.36787717e-02, -1.73740432e-01,  2.60122329e-01,
         1.93101153e-01,  7.34773427e-02, -2.29027241e-01],
       [ 1.66172415e-01, -4.54624929e-02,  3.52984369e-01,
         1.77779019e-01,  1.24718890e-01, -2.16958523e-01,
        -3.43107269e-03,  1.24628864e-01, -8.97412077e-02,
        -2.81177700e-01, -8.15300923e-03,  2.04588071e-01,
        -1.68061867e-01,  1.09539308e-01,  1.28391404e-02,
        -1.47035867e-01, -2.72318155e-01, -3.12500507e-01,
        -2.87358373e-01,  5.17516658e-02,  9.83364210e-02,
        -1.40991926e-01, -2.74232745e-01,  2.44622286e-02,
        -8.18641298e-03,  7.67312884e-01, -2.82364219e-01,
        -6.99129328e-03,  4.78636801e-01, -3.32877725e-01],
       [-2.94936031e-01, -1.32825136e-01, -3.56795639e-02,
        -2.28729635e-03, -1.25912167e-02,  1.01633295e-01,
        -9.00355577e-02, -7.29908049e-02,  1.49861068e-01,
        -3.48147452e-01,  2.54941702e-01,  2.19166473e-01,
        -9.80021507e-02, -3.74916941e-02,  1.39452621e-01,
        -1.45396823e-03,  1.45520076e-01, -1.69257790e-01,
         2.30485890e-02, -3.40207756e-01, -1.16353139e-01,
         2.89468747e-02,  1.30323451e-02,  2.91272044e-01,
        -9.89635661e-02,  3.06602210e-01,  6.69304430e-02,
         9.48626399e-02, -8.01051443e-04,  1.30539551e-01],
       [ 1.52154535e-01,  3.91541123e-02,  4.66973800e-03,
        -6.78872839e-02, -9.69545078e-03, -1.98553339e-01,
         2.51377314e-01,  2.05144465e-01,  8.24955329e-02,
         3.31389427e-01,  3.09168100e-02,  6.36146143e-02,
        -1.83254600e-01, -1.51509002e-01,  1.07064471e-01,
        -1.09875619e-01,  2.72764295e-01, -1.22430019e-01,
        -1.05497919e-01,  1.22748852e-01, -1.51246533e-01,
         1.43568128e-01,  2.55195111e-01,  1.23112559e-01,
         1.75736293e-01, -3.28413010e-01, -1.54521763e-01,
         1.68520808e-01,  2.63671447e-02, -1.60605144e-02],
       [-1.18884601e-01, -8.39306638e-02, -2.61354685e-01,
         6.77283704e-02, -4.82203811e-02, -3.79660316e-02,
        -9.19394940e-02,  1.07546717e-01, -1.97017137e-02,
        -1.09065555e-01, -8.06670263e-02,  2.14832664e-01,
         1.27257958e-01,  9.65466052e-02,  1.30690128e-01,
         1.02457367e-01, -3.40554476e-01,  3.82595174e-02,
         2.42860094e-01,  2.56760389e-01,  2.03191340e-01,
        -1.79789975e-01,  3.33732143e-02, -3.70598942e-01,
         5.72354160e-02, -3.90900485e-02,  7.08819926e-02,
        -1.10199936e-01,  8.57917145e-02, -1.46907596e-02],
       [ 1.56669229e-01, -2.04863116e-01,  1.51444793e-01,
        -7.84594193e-02,  1.58448711e-01, -8.47869292e-02,
         1.38155252e-01,  4.13197488e-01,  2.04913855e-01,
         1.99300930e-01, -3.20720226e-01,  2.05819398e-01,
        -1.56863123e-01, -1.41527459e-01, -2.49676466e-01,
        -1.82274178e-01, -1.09630920e-01,  2.00555667e-01,
        -1.51975557e-01,  3.29915971e-01,  8.12986046e-02,
        -4.14101779e-02, -3.61670461e-03,  3.02184857e-02,
         1.37371002e-02,  2.45321408e-01, -4.42075916e-02,
         6.92065582e-02,  1.70707479e-01, -1.04353771e-01],
       [ 1.88525975e-01,  3.74229625e-02,  9.38274860e-02,
        -1.32970959e-01, -1.25811607e-01,  2.87333935e-01,
        -1.12932958e-02,  4.29175228e-01,  3.06315944e-02,
         1.83982536e-01, -1.68417059e-02,  1.92650080e-01,
        -3.55906427e-01,  7.31139407e-02, -2.45963365e-01,
         1.34388387e-01,  9.69288647e-02,  1.18743978e-01,
        -3.70795093e-02,  3.43569487e-01,  3.84838760e-01,
        -3.04205120e-01,  9.10342783e-02,  4.10341434e-02,
         1.89346537e-01,  1.88614547e-01,  1.60665348e-01,
        -1.24953814e-01,  3.14727098e-01, -1.84684053e-01],
       [ 5.47356978e-02,  2.84164727e-01, -3.04884970e-01,
        -2.58559883e-01, -8.66510272e-02, -3.64016853e-02,
        -1.41960546e-01,  3.30515997e-03, -6.79280832e-02,
         2.79711127e-01, -1.16747923e-01,  2.23266199e-01,
        -2.06930697e-01, -3.06984663e-01, -1.33534772e-02,
         2.83935964e-01, -2.17637986e-01, -3.78893346e-01,
         1.94830090e-01, -3.27382013e-02, -1.90172717e-01,
         2.32180446e-01, -2.20062435e-01,  1.37770884e-02,
        -7.10171834e-02, -7.04896152e-01,  1.34712934e-01,
        -1.42577723e-01, -8.74424428e-02, -4.04203758e-02],
       [-1.66242629e-01, -5.94461756e-03,  3.74712944e-02,
        -4.14975643e-01, -3.82208675e-02,  8.67848378e-03,
         2.45399565e-01,  9.61560905e-02, -1.56928152e-01,
        -2.42794216e-01, -8.46044719e-02,  2.65962660e-01,
        -4.09819722e-01, -6.03756607e-02, -2.22255439e-01,
         2.86102712e-01, -5.11010997e-02,  1.15456417e-01,
        -7.92768449e-02, -2.23945692e-01, -1.98806286e-01,
         1.50254145e-01,  1.04813635e-01, -2.29195163e-01,
        -2.07320541e-01, -2.23654583e-01,  3.45264524e-02,
         1.42114118e-01,  3.65708116e-03,  1.31923601e-01],
       [ 1.11489318e-01, -5.24122939e-02,  8.85681733e-02,
        -2.04797223e-01, -3.28909099e-01, -3.59109673e-03,
         3.45209464e-02, -3.18732858e-01, -8.25125352e-02,
         2.75428355e-01, -3.06214422e-01, -9.89809334e-02,
        -7.57479966e-02, -2.23824717e-02, -1.33069918e-01,
         1.77230075e-01,  3.39796604e-03, -2.39866287e-01,
         1.48012534e-01, -3.99072468e-01, -8.35657120e-04,
        -4.26910110e-02, -1.13765020e-02, -8.77562631e-03,
        -9.53875780e-02,  2.94443034e-02,  3.05661201e-01,
         8.89840163e-03, -2.29827419e-01, -1.32319406e-01],
       [ 7.42606893e-02, -1.49435759e-01,  4.34311368e-02,
         2.38670394e-01,  6.53889999e-02, -3.24422098e-03,
         6.29561916e-02,  2.62277722e-02, -3.60745102e-01,
         1.49213314e-01, -9.17029381e-02,  8.38835388e-02,
         6.74229255e-03,  2.98366457e-01,  1.12702481e-01,
         2.36552849e-01, -9.68184546e-02,  2.00286806e-02,
         4.29066233e-02, -4.25009988e-03,  1.66559681e-01,
         1.94686562e-01,  3.28992397e-01,  4.94929031e-02,
         3.04694264e-03,  5.18128872e-01, -8.80819634e-02,
        -3.16184610e-01,  3.97278547e-01,  7.31521240e-03],
       [-9.74371040e-04, -3.28220576e-01,  1.50895566e-01,
         1.22303963e-01,  2.03365117e-01,  5.80471233e-02,
         1.35599285e-01, -2.54300267e-01,  9.02509689e-02,
        -2.31627990e-02,  3.32280666e-01, -1.46622702e-01,
        -2.60114729e-01,  9.73017141e-02, -1.16460823e-01,
         2.06568360e-01,  1.64403915e-01, -1.46283895e-01,
        -2.65163571e-01, -1.08147696e-01,  1.56286731e-01,
         1.50728643e-01,  9.56081748e-02, -1.78047821e-01,
        -1.32046983e-01, -3.61454219e-01,  4.71181311e-02,
        -8.72177258e-02,  6.50404692e-02, -1.20102458e-01],
       [ 1.02809258e-01,  2.37339944e-01,  9.37316343e-02,
         8.14082548e-02,  2.11621672e-01,  2.66527921e-01,
         2.23104060e-01, -2.79760361e-01,  1.08359553e-01,
        -2.53632933e-01, -5.42091355e-02, -2.45769426e-01,
         1.64457619e-01, -7.18333125e-02, -6.48533851e-02,
         3.67198467e-01,  2.26938725e-01, -4.40718055e-01,
         7.22781643e-02, -3.85397613e-01, -1.03434019e-01,
        -2.59132445e-01,  1.14222258e-01,  4.06601503e-02,
        -9.97572839e-02,  1.57381564e-01, -2.29099452e-01,
         6.86695650e-02,  2.69942075e-01,  2.66282409e-01],
       [ 1.72082931e-01,  3.63088995e-02,  1.72963485e-01,
         1.67334050e-01,  1.41259164e-01,  2.03209862e-01,
        -1.27484143e-01,  1.77203119e-01,  4.20656428e-02,
        -3.70212011e-02, -1.27864312e-02,  2.50457883e-01,
        -5.13262898e-02,  1.91463336e-01,  1.00140899e-01,
        -1.30438089e-01, -1.21046394e-01,  2.62589697e-02,
        -1.57262623e-01, -2.88213231e-02,  1.82599753e-01,
         1.94023073e-01,  1.65532365e-01, -1.53397873e-01,
         2.81054527e-02,  2.73031116e-01, -1.01120226e-01,
        -1.63738817e-01,  4.16848212e-01,  6.30393531e-03],
       [ 3.59045297e-01,  1.82974517e-01,  1.52544469e-01,
        -1.78255677e-01, -7.51894116e-02, -2.80595154e-01,
        -1.12857269e-02,  9.39558595e-02,  3.07619907e-02,
        -1.18320338e-01, -1.37262583e-01, -3.10242504e-01,
         4.14076746e-02,  5.10672033e-01,  8.39422122e-02,
        -6.05998263e-02,  3.41571681e-02,  3.80738042e-02,
         2.62830257e-02,  3.52249771e-01,  2.52314597e-01,
        -3.43758091e-02,  7.29338750e-02, -7.48529956e-02,
        -1.60887420e-01, -3.14987481e-01, -1.24787055e-01,
         8.26345831e-02,  2.09664911e-01,  2.13996127e-01],
       [-1.22466929e-01, -9.94113684e-02, -2.40127236e-01,
         7.52968118e-02,  1.48923993e-01,  1.54557928e-01,
         1.96880564e-01,  1.07999414e-01,  1.27758697e-01,
        -1.28373131e-01,  8.77823308e-03,  2.91835129e-01,
         2.74823338e-01, -4.86338675e-01, -6.23900592e-02,
         1.63810223e-01,  3.09140775e-02,  1.52578592e-01,
         7.05626756e-02, -2.24700764e-01, -1.58810660e-01,
         1.59870666e-02, -2.06876323e-01,  2.24900857e-01,
        -1.83672279e-01,  6.33314624e-02, -7.54053742e-02,
         9.18982478e-05, -2.60133415e-01, -6.84999004e-02],
       [ 5.24610989e-02,  1.94903035e-02, -3.73407274e-01,
         6.96794912e-02,  2.67334104e-01, -1.26393866e-02,
        -1.01822540e-02, -8.41720998e-02, -2.28511646e-01,
         1.96837723e-01, -6.76373541e-02,  8.14658180e-02,
        -5.62730841e-02,  1.36058301e-01, -7.81214982e-02,
         2.74123222e-01,  2.84379870e-01, -1.30308643e-01,
         2.00174853e-01, -1.28367886e-01, -6.03551231e-02,
        -1.39128864e-01, -3.25809985e-01, -3.10451597e-01,
        -1.41711161e-01, -4.06454086e-01,  1.97353765e-01,
         8.52269679e-03, -2.19402418e-01, -2.22850591e-01],
       [-3.72609496e-02,  1.00927137e-01,  5.04815057e-02,
         1.14671588e-02, -1.35978624e-01,  3.53879035e-02,
         1.98788345e-01, -4.99066859e-01, -3.30155581e-01,
         1.46025166e-01, -3.45316455e-02, -3.37630242e-01,
        -2.24016964e-01,  1.57471448e-01, -1.67461991e-01,
         4.77530919e-02,  7.47670382e-02, -9.08773020e-02,
        -2.37924606e-01, -2.62327969e-01, -6.32270128e-02,
        -7.24898698e-03,  9.35703814e-02, -1.80834100e-01,
        -4.06638801e-01, -3.84654373e-01,  2.39735499e-01,
        -7.59753063e-02,  2.25080907e-01,  3.43773291e-02],
       [ 3.18908915e-02,  8.43386203e-02, -7.05461919e-01,
        -1.09402932e-01, -1.90009251e-01,  1.65719643e-01,
         1.14436254e-01, -1.29675075e-01, -2.17924058e-01,
         1.77528467e-02,  3.11578602e-01,  3.97803588e-03,
         3.59388851e-02, -6.48654819e-01, -3.89848679e-01,
        -1.36633992e-01,  1.07842952e-01,  4.00726497e-01,
        -2.15732545e-01,  9.73071679e-02,  1.25668749e-01,
        -1.06343806e-01, -8.56508836e-02, -7.82015845e-02,
         2.04518765e-01, -5.70889533e-01,  8.20243359e-02,
         8.76887962e-02, -5.23207068e-01,  3.59488666e-01],
       [ 3.05991005e-02,  2.34863833e-01,  1.62388995e-01,
        -2.54876047e-01, -2.28310242e-01,  5.50225303e-02,
        -1.60863083e-02, -2.01197360e-02,  4.32767831e-02,
        -8.91521052e-02,  5.68468347e-02,  1.76647380e-01,
         1.49679989e-01,  9.35534775e-01,  1.41031250e-01,
         3.56560409e-01, -4.02216390e-02, -1.84476033e-01,
        -1.10501088e-01,  2.16720656e-01, -2.14110762e-01,
        -2.76625574e-01, -2.41142660e-01,  3.34246367e-01,
        -3.29077058e-02, -1.26325190e-01,  3.09499502e-01,
         1.89570189e-01,  7.53284469e-02, -3.28649670e-01]], dtype=float32), array([[ 0.37324676],
       [-0.2834963 ],
       [ 0.1135066 ],
       [ 0.29442212],
       [ 0.09719066],
       [ 0.01058122],
       [-0.5240357 ],
       [ 0.23770702],
       [ 0.50868994],
       [ 0.23398402],
       [-0.26509592],
       [ 0.17811826],
       [ 0.4179358 ],
       [ 0.11779955],
       [ 0.3245658 ],
       [ 0.11279275],
       [-0.04564006],
       [-0.2288706 ],
       [ 0.13063705],
       [-0.4638717 ],
       [-0.2116814 ],
       [-0.24081351],
       [-0.06939913],
       [ 0.32067388],
       [-0.15645547],
       [ 0.11828333],
       [-0.01626522],
       [ 0.0168592 ],
       [ 0.28174135],
       [-0.3169993 ]], dtype=float32)]


Weights_h:
[array([[-0.16667257, -0.14098442, -0.3371081 , -0.2938103 ,  0.31038827,
        -0.14485466, -0.39948893, -0.19172153, -0.07195195, -0.13461772,
        -0.06295788, -0.0570878 , -0.37470177,  0.04423603,  0.04003348,
        -0.25131515, -0.01828348, -0.00286655,  0.1424687 , -0.13803023,
        -0.14099388, -0.21372865,  0.06265498,  0.15111043,  0.0637881 ,
        -0.3842567 ,  0.0814514 ,  0.18488625,  0.27293012, -0.33196145,
         0.08002225,  0.00258938],
       [-0.1605048 ,  0.02642943,  0.36064792, -0.17233297,  0.07286545,
        -0.02350812, -0.2233314 ,  0.0720048 , -0.2646986 ,  0.23810387,
         0.13817751,  0.10486013, -0.06275598,  0.26177916, -0.09759831,
        -0.06965747, -0.13328612, -0.18019493,  0.40985096,  0.26168475,
        -0.14401527, -0.06207142,  0.0236031 ,  0.2072142 , -0.16891477,
        -0.20640516, -0.25395337, -0.0079886 ,  0.25706634,  0.28898326,
         0.06174295, -0.2862478 ]], dtype=float32), array([[-0.07952387,  0.05601887, -0.08114199, ...,  0.11496942,
         0.19842498, -0.15626514],
       [ 0.11576866, -0.10636358, -0.08431379, ..., -0.00401743,
        -0.11238188,  0.06086915],
       [ 0.01921429,  0.01835847,  0.02887561, ...,  0.02435638,
        -0.22979145,  0.02017415],
       ...,
       [-0.05570672, -0.10275162, -0.1165124 , ...,  0.08928961,
        -0.09025579,  0.02382337],
       [-0.06906956,  0.09112208, -0.25459448, ...,  0.24982288,
         0.1087403 ,  0.22040321],
       [-0.07558201, -0.06508206, -0.0545749 , ..., -0.08113257,
         0.29554686, -0.03057962]], dtype=float32), array([[ 0.02318055,  0.05314887, -0.04771667, ..., -0.01551351,
         0.00785696, -0.03070415],
       [ 0.13580392,  0.05563123,  0.20735967, ...,  0.16661893,
        -0.12942342, -0.31691745],
       [-0.26552325,  0.00763791, -0.16814883, ...,  0.02892022,
        -0.08468611, -0.1496304 ],
       ...,
       [ 0.04030946,  0.2339986 , -0.03834747, ...,  0.34941235,
         0.0725353 , -0.12587303],
       [-0.12964258, -0.23612624,  0.04492943, ..., -0.20143577,
         0.05992046, -0.15391302],
       [ 0.05161038,  0.11051093,  0.05691123, ...,  0.07618581,
         0.08538087,  0.20506121]], dtype=float32), array([[ 0.0320239 ],
       [ 0.4047919 ],
       [ 0.18547758],
       [-0.21642125],
       [ 0.1385907 ],
       [ 0.23560646],
       [ 0.01003942],
       [ 0.15534581],
       [-0.34430084],
       [-0.09889951],
       [ 0.16910109],
       [-0.17811348],
       [-0.1813838 ],
       [ 0.04572342],
       [ 0.2650643 ],
       [-0.33143377],
       [-0.05705164],
       [-0.02489571],
       [ 0.06294405],
       [-0.36889884],
       [-0.36486503],
       [-0.12024207],
       [-0.07027923],
       [-0.2844021 ],
       [-0.17836797],
       [ 0.06579563],
       [-0.01477459],
       [ 0.05191774],
       [ 0.03581678],
       [ 0.17893302],
       [-0.01134045],
       [-0.0713635 ]], dtype=float32)]


Weights_c:
[array([[-0.21855539,  0.0859611 ,  0.05785949,  0.03408356, -0.26873392,
        -0.32596388, -0.15043454,  0.05110978,  0.2057415 ,  0.1840395 ,
         0.15383962,  0.06026912, -0.09147272,  0.21124363,  0.33002204,
         0.34283423, -0.17870584,  0.01213983, -0.12984097, -0.04075257,
        -0.1937536 ,  0.13131702,  0.16435657, -0.40805823,  0.24011712,
        -0.45250282, -0.33970827,  0.3708952 , -0.09278612, -0.01306805,
         0.22326714,  0.10213867],
       [ 0.11809128, -0.0710515 ,  0.2212445 ,  0.2186606 , -0.13785253,
        -0.2892435 ,  0.30449   , -0.16764356, -0.440934  ,  0.2386299 ,
        -0.07764255, -0.45592225, -0.02357369, -0.32781643,  0.2455445 ,
        -0.3175778 ,  0.16144939, -0.1766583 , -0.08357299,  0.1619325 ,
        -0.26791215, -0.20170535,  0.15934452,  0.0870991 , -0.47853336,
        -0.33869752,  0.04722012,  0.17251417, -0.3157648 ,  0.15438317,
         0.07247742,  0.05817201]], dtype=float32), array([[-0.24019612,  0.0827605 ,  0.01939048, ..., -0.12124392,
         0.18913004,  0.11859066],
       [ 0.05264084, -0.30364797, -0.01070906, ..., -0.12660529,
         0.12226996, -0.25589588],
       [-0.11217719, -0.03921169,  0.0298625 , ...,  0.05651135,
         0.32999423,  0.18216631],
       ...,
       [ 0.26271546,  0.03622009, -0.16955745, ..., -0.1253519 ,
        -0.3051682 , -0.3070884 ],
       [ 0.20045432, -0.04249988,  0.1049904 , ...,  0.08221284,
        -0.28102383,  0.1154396 ],
       [-0.23891878, -0.00117731, -0.24787971, ..., -0.10705197,
         0.08746094, -0.10448793]], dtype=float32), array([[ 0.17363116, -0.12426404, -0.17871502, ..., -0.19528589,
         0.10295632,  0.16921656],
       [ 0.12246761,  0.2982503 , -0.11576544, ..., -0.23412669,
        -0.32905295, -0.05344482],
       [-0.04027465,  0.1161852 ,  0.22676595, ...,  0.17424907,
        -0.11921091, -0.10175683],
       ...,
       [-0.06329535, -0.00970055, -0.19573528, ...,  0.01615715,
         0.08141179, -0.20318405],
       [ 0.01822933, -0.25670868, -0.0882322 , ...,  0.02180021,
         0.22569056, -0.26289797],
       [ 0.07283358, -0.02597342,  0.2827217 , ...,  0.15197377,
         0.18653478, -0.09254892]], dtype=float32), array([[-0.04721677],
       [-0.31539735],
       [-0.21153095],
       [-0.05498205],
       [ 0.01665216],
       [-0.30080187],
       [ 0.19519201],
       [ 0.07675136],
       [-0.23347901],
       [ 0.21684225],
       [-0.13655867],
       [-0.11660205],
       [ 0.04123694],
       [-0.2378426 ],
       [ 0.34194967],
       [-0.08872461],
       [ 0.03502812],
       [ 0.04867774],
       [-0.01781973],
       [ 0.30306286],
       [-0.14985946],
       [ 0.1092234 ],
       [-0.37867755],
       [-0.02122351],
       [-0.05504847],
       [-0.11220027],
       [-0.19101469],
       [ 0.02976434],
       [-0.07292032],
       [ 0.15512271],
       [-0.32558522],
       [ 0.26215994]], dtype=float32)]


Weights_k:
[array([[ 2.46921964e-02,  3.83588344e-01, -2.15633903e-02,
        -3.86151761e-01,  7.10608587e-02, -1.56895483e+00,
        -6.21692717e-01, -5.61395109e-01, -9.34394896e-01,
         6.19746447e-01, -2.21207500e-01,  1.31196156e-01,
        -7.92041600e-01,  1.70048624e-01,  5.45571148e-01,
        -5.11130154e-01, -2.72754636e-02, -3.88834625e-01,
        -2.86662392e-02,  1.76082607e-02, -3.43376249e-01,
        -5.10887146e-01, -5.28985783e-02,  4.24907386e-01,
        -3.78876567e-01,  3.26706648e-01,  5.44618666e-01,
         2.34378040e-01, -7.25593626e-01, -8.50840390e-01],
       [ 5.65445125e-02, -2.10130125e-01,  8.88930410e-02,
        -3.38233411e-01,  1.15028426e-01,  1.35590225e-01,
         2.21049488e-01, -1.13721170e-01, -4.60442394e-01,
        -6.27193689e-01, -1.25152230e-01,  3.61461461e-01,
        -1.71282053e-01, -5.80263317e-01, -3.41511667e-01,
         1.15105622e-01,  5.78410923e-01,  3.02948058e-02,
         4.69271451e-01, -5.09413891e-02, -3.54949385e-01,
        -8.79907981e-02,  1.47432074e-01,  2.94877440e-01,
         1.15287327e-03,  4.57704931e-01,  2.97749741e-03,
         6.97307736e-02, -5.01031220e-01,  3.36787492e-01]], dtype=float32), array([[-0.0629984 , -0.04300441,  0.10233571, -0.14690144, -0.06173513,
         0.22161068, -0.2812622 ,  0.20729028,  0.04763512,  0.02059421,
        -0.10880589,  0.02802603, -0.17959931, -0.11164635, -0.22901197,
        -0.05639585,  0.20507132,  0.01513431,  0.39936092, -0.25870684,
        -0.24534541,  0.15849347, -0.12377296, -0.20812535,  0.06820586,
         0.13843141,  0.14013089, -0.05121546, -0.2630785 , -0.2069144 ],
       [-0.20159042,  0.09594762,  0.6620549 ,  0.3434224 ,  0.31953612,
         0.07354819, -0.3971298 ,  0.23006818, -0.23224035,  0.27561167,
        -0.03039772,  0.49819472,  0.05939046, -0.24831408, -0.15500432,
        -0.13152887, -0.2051887 ,  0.19268225, -0.0190377 ,  0.3614437 ,
         0.12297057, -0.6075733 , -0.01945815, -0.427791  , -0.31304693,
         0.11794043, -0.08561238,  0.38910717, -0.05545382,  0.1888393 ],
       [ 0.06942981, -0.05933512, -0.25514582,  0.20202948, -0.04472128,
         0.22959365, -0.14174671,  0.05003108,  0.09707014,  0.05404653,
         0.11410207, -0.03879236,  0.06238623,  0.20870806,  0.33747885,
        -0.13109054,  0.5815485 , -0.00215292,  0.05538313, -0.00114261,
        -0.01399613,  0.36015823,  0.24312578, -0.08527006,  0.35019818,
         0.02840292, -0.1478675 , -0.19853444,  0.17141542, -0.45335138],
       [-0.04890138, -0.19669437, -0.11402138, -0.32292134,  0.09258295,
         0.12570727, -0.01684546, -0.21824181,  0.2931237 , -0.28630698,
        -0.18072511,  0.03133358,  0.28475052, -0.01719634,  0.14146563,
         0.36067382,  0.20010588,  0.19220215,  0.01014388,  0.17379314,
         0.02304906, -0.00275552, -0.5506442 , -0.20542093, -0.00814904,
        -0.12429566,  0.09173252,  0.1904061 , -0.16672605,  0.28170744],
       [-0.12971292,  0.15713081, -0.231751  ,  0.4017128 , -0.00812347,
        -0.06155631, -0.28352144, -0.30759722, -0.13276581, -0.3826411 ,
         0.02317595,  0.02656742,  0.17474985, -0.15038368, -0.3709155 ,
        -0.10469217, -0.28061604, -0.042949  , -0.17564406, -0.02890768,
         0.05188415,  0.03724722,  0.27773732,  0.15525016,  0.20100181,
         0.06040693,  0.4781366 ,  0.06063493,  0.10584715,  0.01535121],
       [ 0.49776483,  0.10335158, -0.47884873, -0.2095724 ,  0.03164867,
        -0.03599805,  0.597166  , -0.22013669,  0.2643122 , -0.20834573,
        -0.1577108 , -0.34690213,  0.02869373,  0.27837732,  0.04858343,
         0.10242759,  0.00640957, -0.14206223,  0.06483224, -0.19085073,
         0.07190345,  0.52648467, -0.63286614,  0.26723272, -0.06891063,
        -0.11648022,  0.3994835 , -0.22508347,  0.43133828,  0.23403853],
       [ 0.27225038, -0.07069793, -0.34853518, -0.1916117 , -0.18698737,
        -0.20511527,  0.4023429 , -0.4195213 ,  0.14127031,  0.06642352,
         0.3590117 , -0.2899764 , -0.14463021,  0.15018055,  0.03156872,
         0.03514525,  0.14752214, -0.34799036,  0.40008956, -0.02209566,
        -0.29221678,  0.49723157, -0.3180216 ,  0.28415808,  0.15204391,
        -0.18034472,  0.21090005,  0.06361398,  0.3528323 ,  0.03517411],
       [-0.27922344,  0.22876975, -0.15640892, -0.11774246,  0.4523991 ,
         0.04975045,  0.0624952 , -0.3800157 ,  0.07609315, -0.01739289,
         0.19773115, -0.25976998, -0.14468576,  0.22779784, -0.01432483,
         0.13489726,  0.11900333,  0.04978865,  0.12284276,  0.02400804,
         0.12175248,  0.12401963, -0.49838537,  0.24667123,  0.03135771,
        -0.07570028,  0.2651495 , -0.15083703, -0.04797461, -0.07156211],
       [ 0.20956685,  0.22628129, -0.45763823, -0.04645586,  0.21959355,
        -0.10762044,  0.5368031 , -0.18397886,  0.26476523,  0.11915416,
        -0.1687079 , -0.40889916, -0.03014606,  0.35782757, -0.3115841 ,
        -0.12394955,  0.15541047, -0.1558233 ,  0.2552298 , -0.14434409,
         0.03594099,  0.23842323, -0.5588877 , -0.24998163, -0.23148732,
         0.06210981,  0.04489449,  0.17805871, -0.10487713,  0.05699437],
       [-0.29028064,  0.03264274,  0.25329462, -0.34209737,  0.12026685,
         0.0238103 , -0.20706062,  0.17669226, -0.1666458 ,  0.17506528,
        -0.01353598,  0.01103216,  0.29427654,  0.3740994 , -0.11088847,
        -0.08312222,  0.01209305,  0.1177391 ,  0.15188536, -0.02538466,
         0.3198809 , -0.12251448, -0.1723747 , -0.2771514 , -0.20583116,
         0.2586104 , -0.20019501, -0.00187433, -0.0192065 ,  0.11535966],
       [-0.23784044, -0.05652474, -0.27624092, -0.06686535,  0.20341198,
        -0.10702327,  0.1822625 , -0.04553887, -0.12286095,  0.03524769,
        -0.03991255,  0.20185   , -0.23584539,  0.20820157,  0.33473918,
        -0.26132903,  0.2819132 , -0.16757055, -0.15851556, -0.36353505,
        -0.08952565,  0.09464636, -0.05471319, -0.3480741 , -0.01458997,
         0.0194306 , -0.13123836,  0.05047965, -0.00560435, -0.08182615],
       [ 0.15677173, -0.11713819,  0.00401364,  0.3942937 , -0.45301932,
        -0.10198643, -0.3346131 , -0.0580513 ,  0.1985743 , -0.2550033 ,
         0.05750319, -0.03108011, -0.1273527 , -0.34315166, -0.03098611,
         0.0426127 , -0.19306774,  0.16462018, -0.0658199 ,  0.03784865,
         0.32632926,  0.13205703,  0.16810384,  0.06496245,  0.25861555,
        -0.00878621,  0.15448524,  0.2694492 , -0.11297593,  0.05142501],
       [-0.1454575 , -0.21249664, -0.26689085, -0.24778295,  0.2684067 ,
        -0.33379227,  0.4575314 , -0.22125697,  0.19121292,  0.3056906 ,
         0.11069422, -0.41278136, -0.273964  ,  0.33279884,  0.12153648,
         0.22489198, -0.08878157, -0.42452437, -0.171301  ,  0.10336041,
        -0.01175651,  0.14789982, -0.70654976,  0.15522023,  0.01486534,
        -0.17682832,  0.31322014, -0.0039285 ,  0.1656375 , -0.01601586],
       [-0.4212704 ,  0.1600812 ,  0.360402  , -0.00797031,  0.46856573,
         0.3868626 , -0.18940005,  0.15828343,  0.08580653, -0.10533794,
        -0.12609123,  0.19331424, -0.18668611,  0.28529087, -0.11201116,
        -0.04295591, -0.0316994 ,  0.07775928,  0.00105775,  0.09558667,
         0.17242111, -0.50277126, -0.3640299 , -0.50053805, -0.16846165,
        -0.21069786, -0.3186674 ,  0.04048937, -0.19411382, -0.32761332],
       [-0.41051942, -0.1813468 ,  0.5551283 , -0.03821832,  0.19139448,
         0.01105906,  0.01323868,  0.21153432, -0.3648201 , -0.1677433 ,
        -0.2593373 , -0.02863573,  0.2961641 ,  0.06030292, -0.10283565,
        -0.2958273 , -0.26328677,  0.34718052, -0.19824556,  0.39464527,
         0.15687634, -0.49570072,  0.27648792, -0.09170745, -0.11691777,
         0.14212833,  0.13509488,  0.32451227,  0.15833087, -0.01863566],
       [-0.14303802, -0.318776  , -0.26863667,  0.19524944,  0.12523538,
        -0.3185394 ,  0.11690742, -0.2755271 ,  0.26262733, -0.00556726,
         0.17624146, -0.11067951,  0.01554515,  0.16807373,  0.04196174,
        -0.09648328, -0.12873484, -0.18199745,  0.09613989, -0.16164379,
        -0.18977949,  0.27568102, -0.21611397,  0.26132962,  0.04642392,
        -0.33080027,  0.47764862, -0.27214336,  0.22387706, -0.00953128],
       [ 0.18253364,  0.26899323, -0.24581222,  0.02389585, -0.27621427,
        -0.15638587,  0.06928486,  0.06031232,  0.10005724, -0.04629116,
        -0.11979303,  0.30164003,  0.0989839 , -0.07962831,  0.16648643,
        -0.02258809, -0.06202583, -0.1807125 ,  0.07643846,  0.19619444,
        -0.2372387 ,  0.016152  ,  0.30673403,  0.17815928, -0.14503871,
        -0.2421165 , -0.22460966, -0.10184648, -0.0341533 , -0.0684194 ],
       [-0.18472745, -0.2616523 , -0.5853488 ,  0.11453452,  0.30892843,
        -0.39625573,  0.28835288, -0.5995062 ,  0.07078341,  0.09396836,
        -0.07931401, -0.00444752,  0.00445376, -0.01065589, -0.36819643,
         0.01158773,  0.03816901, -0.3280719 , -0.10599516,  0.0987535 ,
         0.12429474,  0.21459302, -0.7127035 ,  0.16489705, -0.02565864,
         0.13755031,  0.6193321 ,  0.02760885,  0.10858728, -0.03945136],
       [ 0.23015536,  0.07615861, -0.00365139,  0.03743508, -0.22881353,
        -0.05327011,  0.06804539, -0.3262925 ,  0.08579127, -0.22771396,
        -0.10185923,  0.08429576,  0.33114347, -0.15295644, -0.31703976,
         0.1497453 , -0.15027307, -0.02643899, -0.20185864, -0.18243228,
         0.11150809,  0.3372195 ,  0.06126157,  0.4544411 , -0.03071729,
         0.17479268, -0.07112824, -0.2020256 ,  0.0189424 ,  0.17214566],
       [-0.13070025, -0.20945692,  0.0926689 ,  0.19979669, -0.0666407 ,
        -0.13911772,  0.16096307,  0.11964841,  0.21563898, -0.12968205,
        -0.123128  ,  0.05083012, -0.10253879, -0.12305821,  0.04793212,
        -0.13361262, -0.41849798, -0.15901196, -0.16701756,  0.01929899,
         0.03878376,  0.19265534,  0.16637416,  0.33981   , -0.03195004,
        -0.32115093,  0.04353409, -0.04699275,  0.13055952,  0.11618657],
       [ 0.25219077,  0.09408371,  0.14488526, -0.07864954,  0.18281105,
         0.16309495,  0.02281955,  0.34070954, -0.21236216, -0.03447722,
        -0.205109  ,  0.07374123, -0.17772505,  0.1588265 , -0.14367767,
         0.08110514,  0.42948273, -0.06531956, -0.19345804,  0.14879608,
        -0.16668007, -0.13873735, -0.05105565, -0.15454455, -0.02968295,
         0.1042831 ,  0.10131761, -0.12119916,  0.09633753,  0.16978447],
       [ 0.07865187, -0.10007227, -0.6430217 ,  0.08160438, -0.31589553,
        -0.19268885, -0.11851389, -0.04524653,  0.03857026,  0.03518862,
        -0.15794346,  0.07244376,  0.17229503, -0.27318802,  0.02709672,
         0.3243265 ,  0.2238828 , -0.12201075,  0.16446337, -0.04945127,
         0.02410995,  0.23044501, -0.44015875, -0.49711615,  0.05064492,
         0.11496872, -0.3976765 ,  0.1225256 , -0.03481556,  0.3148325 ],
       [-0.13407978, -0.04907122, -0.1628996 , -0.01699716, -0.10668863,
         0.03872155,  0.11547529,  0.18178932, -0.01932585, -0.27919507,
         0.19458379, -0.10174275, -0.00746386,  0.07256984,  0.16114384,
        -0.09338995, -0.12939368, -0.24261698,  0.23059337, -0.21994874,
        -0.07042643,  0.21089935,  0.18695258,  0.02174282, -0.12034623,
         0.27509817,  0.08370628, -0.17888662,  0.11942598, -0.06999456],
       [ 0.05770676,  0.34257662,  0.08180295,  0.38535416, -0.22650093,
        -0.20434898, -0.13494682, -0.09250025, -0.03645626,  0.1406898 ,
         0.1511564 ,  0.34683603,  0.02448127, -0.1193711 , -0.27241787,
         0.00297534, -0.27774665,  0.29453388,  0.0297169 ,  0.12408232,
         0.21459761,  0.06281503,  0.06674576,  0.05757523,  0.1890318 ,
        -0.15227629, -0.1817207 , -0.00832966, -0.27763593, -0.07505892],
       [ 0.35425034,  0.13595498, -0.65098083, -0.25350672,  0.03381975,
        -0.19089447,  0.0877114 , -0.45800376,  0.1127227 ,  0.19200715,
         0.24605574, -0.11946686, -0.02183677,  0.45157123, -0.0701156 ,
         0.22610171,  0.08945328, -0.15925658,  0.13353498, -0.18371192,
        -0.24550356,  0.42770857, -0.58698684,  0.22953455, -0.14410806,
        -0.29313096,  0.28167892, -0.096818  , -0.10452592, -0.2172662 ],
       [ 0.34539744, -0.14096534,  0.24422017,  0.33192918, -0.0583704 ,
        -0.26031443, -0.14629057, -0.13815865, -0.08472797,  0.12620308,
         0.24099815,  0.05589616, -0.04700346, -0.34227332,  0.05518313,
        -0.07664372, -0.31768632,  0.13301781,  0.21738231, -0.01299857,
         0.04023905,  0.26392406,  0.52161336,  0.29762226, -0.06544667,
        -0.08396028,  0.07069511,  0.05827189,  0.17183119, -0.11355953],
       [-0.19303784, -0.00124415,  0.45336032,  0.09577747, -0.19380881,
         0.02930085, -0.27174354,  0.14181478, -0.07132706,  0.15404953,
        -0.02107363,  0.4343746 , -0.08382644,  0.07271269, -0.132494  ,
        -0.2586258 , -0.33166233, -0.15092003, -0.07176825,  0.07994828,
         0.23547442, -0.39771178,  0.21644846,  0.0129391 , -0.13765217,
         0.16763853, -0.13253903,  0.42993122,  0.18667805, -0.01865293],
       [-0.35017052, -0.07903808,  0.28313896, -0.27295285, -0.22120345,
        -0.18531615, -0.1312639 , -0.00546985, -0.14029533,  0.04032527,
         0.13858044, -0.02473064,  0.30370614, -0.08322243, -0.31108052,
         0.18069032, -0.45726448,  0.07419387, -0.42124414, -0.00959271,
         0.1366752 ,  0.04111011,  0.33883667,  0.09160902,  0.03585081,
        -0.14747912,  0.24854636, -0.10078656,  0.15787147,  0.05237622],
