Weights_k:
[array([[-0.55927217,  0.30126196,  0.19645844,  1.8313121 ,  0.7726159 ,
        -0.51554537,  0.25058666,  0.57557446, -0.93042916,  0.5924357 ,
        -0.4590754 ,  0.6886424 ,  0.50546384, -0.74426836, -0.19519717,
        -0.65166193, -0.4488766 ,  0.5388228 ,  0.24670911, -0.0392114 ],
       [ 0.18256953,  0.7340361 , -0.34327555,  1.1772305 ,  0.23180634,
        -0.17132008, -0.4566127 , -0.54410475,  0.51649046,  0.27181423,
         0.68267757, -0.24402405,  0.92311937,  0.47828767, -0.85733885,
         0.25125822,  1.021823  , -0.7910989 ,  0.22445278, -1.148822  ]],
      dtype=float32), array([[ 6.43172264e-02, -2.15974540e-01,  1.86948732e-01,
         1.19366312e+00, -4.63761151e-01,  1.60415888e-01,
         7.77802616e-02, -1.86746791e-01,  5.55436201e-02,
         8.46998215e-01, -2.58229673e-01, -6.43004119e-01,
         2.12296873e-01,  2.29053140e-01, -1.55528963e-01,
        -4.48019028e-01,  1.51753342e+00, -4.13202822e-01,
        -1.55188054e-01,  2.14885429e-01],
       [-2.10240230e-01, -1.72177449e-01,  9.65585932e-02,
        -6.50091052e-01, -3.68654728e-01, -6.17727339e-02,
         2.01382071e-01,  1.08566314e-01, -1.53131738e-01,
        -5.92138581e-02,  3.32011074e-01,  4.00419354e-01,
        -8.74473527e-02,  1.05215311e-01, -4.89840843e-02,
         3.32662463e-01, -5.67359090e-01,  1.48807809e-01,
        -1.09867761e-02, -7.75744200e-01],
       [ 9.85029526e-03,  3.63311887e-01, -2.85230070e-01,
         2.02229574e-01,  2.55354464e-01,  2.49073267e-01,
        -7.99274027e-01,  1.36341527e-01, -7.95730129e-02,
         1.48151042e-02, -1.12980127e-01, -7.57470071e-01,
         2.04946741e-01, -2.49515846e-01, -1.81247853e-02,
        -2.89036006e-01,  3.41721982e-01, -1.67670175e-01,
        -6.90691546e-02, -3.24016929e-01],
       [-2.96366692e-01,  2.39235505e-01, -8.33554983e-01,
        -2.52517104e-01,  1.18868006e-03, -1.14329159e-02,
        -1.35490429e+00,  3.51836234e-01,  2.14432970e-01,
        -3.73107702e-01, -6.20397180e-02,  4.41168070e-01,
        -2.89475143e-01, -2.99029768e-01,  3.44669312e-01,
         1.06726959e-01,  2.09907308e-01, -4.73509766e-02,
        -1.75519541e-01, -4.92003381e-01],
       [ 1.69040382e-01,  1.17159374e-01, -6.53497279e-01,
        -4.45813984e-01, -2.75125384e-01, -1.18317693e-01,
        -1.15540516e+00,  2.34684259e-01,  2.75838107e-01,
        -3.06725204e-01,  3.68458360e-01, -2.76050419e-01,
         2.13078484e-01,  3.06693047e-01,  1.96713075e-01,
        -3.64950210e-01, -2.33999699e-01, -2.29464322e-01,
        -1.41200453e-01, -7.98411131e-01],
       [ 3.04291070e-01, -3.64014730e-02,  6.33101940e-01,
         3.01851593e-02, -1.54482489e-02,  7.13959485e-02,
         5.36384165e-01,  1.12980597e-01, -9.81185734e-02,
         8.57947767e-02,  1.01625443e-01,  1.28158003e-01,
        -4.32011127e-01, -2.65760332e-01, -2.94655710e-01,
        -2.67409593e-01,  2.22108111e-01, -6.22141182e-01,
        -6.87601790e-02,  6.62221253e-01],
       [-2.34316275e-01,  9.91099417e-01, -1.66655421e-01,
        -3.90418142e-01,  2.39798263e-01, -3.91070753e-01,
        -5.14619052e-01,  5.20776212e-01,  1.57249644e-01,
        -4.18239772e-01,  9.69549268e-02, -3.75383735e-01,
         1.77956194e-01, -1.16548441e-01,  3.93201947e-01,
        -5.30400611e-02, -6.89673245e-01,  1.22493185e-01,
        -3.53043689e-03,  1.80351213e-01],
       [ 3.44898075e-01,  5.32200694e-01,  3.06991208e-02,
        -1.40602124e+00,  2.98747569e-01, -3.19437265e-01,
        -6.00289702e-01,  1.26714617e-01, -2.71073341e-01,
        -7.08387375e-01,  4.53452468e-02, -8.54245201e-02,
        -1.03071854e-01, -1.48115763e-02,  1.34678617e-01,
         2.40893736e-01, -1.21142209e+00,  2.30592355e-01,
         1.00348212e-01, -2.17070609e-01],
       [-3.45827848e-01, -3.47083509e-01,  2.33988687e-02,
         1.52016580e+00, -2.23187312e-01, -1.57422811e-01,
         5.13434231e-01, -8.96753520e-02,  2.81632006e-01,
         7.79450595e-01, -2.41527930e-02, -4.87408578e-01,
         4.79416221e-01,  3.06398064e-01, -4.66640443e-01,
        -5.73618531e-01,  1.96248662e+00,  7.59110367e-03,
        -1.63786963e-01,  3.61485511e-01],
       [-2.85451561e-01,  2.31592000e-01, -3.21922719e-01,
        -4.26500648e-01,  3.45087677e-01,  5.49378157e-01,
        -1.12257612e+00, -1.95461810e-01,  9.01900791e-03,
        -3.99971634e-01,  4.71518934e-02, -1.83886021e-01,
         1.94927603e-01,  4.77971435e-01,  2.45618701e-01,
         4.17711288e-01, -2.91853368e-01,  1.43515244e-01,
        -3.25258970e-01, -7.15723753e-01],
       [ 3.93887520e-01, -7.90339589e-01,  5.16270816e-01,
         6.54122770e-01,  4.69428897e-02,  3.39545190e-01,
         4.12434787e-01, -1.29439518e-01,  3.60815614e-01,
         6.85850978e-02,  1.01749830e-01,  5.30800402e-01,
        -1.08070649e-01,  7.82396793e-02, -2.78932899e-02,
        -4.94556516e-01,  3.09315294e-01, -3.75144571e-01,
         7.96045437e-02, -4.30940479e-01],
       [ 5.91692561e-03,  1.36579320e-01,  3.80533129e-01,
        -8.34111512e-01,  4.35684949e-01,  4.54857536e-02,
         1.91329375e-01, -2.38278791e-01, -2.46869206e-01,
        -4.50205773e-01,  1.54872537e-01,  2.34114349e-01,
         4.52815443e-01, -1.32072465e-02,  6.75179720e-01,
         1.07482302e+00, -1.00712144e+00,  4.14441764e-01,
         1.01861946e-01, -2.14256328e-02],
       [-1.88076958e-01, -7.55717099e-01, -8.72140452e-02,
        -1.35606244e-01, -1.98337868e-01,  3.58732074e-01,
        -2.28293780e-02,  3.08338813e-02,  3.81636731e-02,
        -4.08875912e-01, -4.04642373e-01,  2.84348458e-01,
         2.78261095e-01,  1.62631139e-01, -8.09104298e-04,
         4.05092686e-01, -8.29383135e-01,  1.92239851e-01,
        -1.77541032e-01, -4.95187759e-01],
       [ 5.66064380e-02, -6.67569041e-01,  4.22037899e-01,
         7.48935342e-01, -3.21213715e-02,  1.40595764e-01,
         4.11786437e-01, -1.81464672e-01,  1.37603804e-01,
         4.51340407e-01, -4.32520397e-02, -2.80624568e-01,
        -9.72857401e-02,  1.00543134e-01, -1.94560215e-01,
        -1.73813254e-01,  1.21532285e+00, -3.39327961e-01,
         1.54618517e-01,  5.00684559e-01],
       [ 4.08728838e-01,  3.17296654e-01, -2.10601464e-01,
         2.71017253e-01,  1.67496860e-01,  2.05203652e-01,
        -5.87443672e-02, -2.02177972e-01,  9.92854759e-02,
        -3.34522277e-01,  1.19296387e-01, -7.65958667e-01,
         2.69365102e-01,  1.23109939e-02,  2.94703424e-01,
         2.34372750e-01,  2.58893937e-01, -2.13588655e-01,
        -2.28947867e-02,  4.21574265e-01],
       [ 3.30505937e-01, -9.12862301e-01,  4.00331646e-01,
         9.13762271e-01, -6.61177784e-02,  3.11629977e-02,
         6.90143049e-01, -1.07920356e-01, -3.33836526e-01,
         6.07368112e-01,  6.85077608e-02, -2.04760969e-01,
        -3.13986957e-01,  1.85363263e-01, -1.71374530e-01,
        -1.38759807e-01,  7.24773705e-01,  6.46876544e-02,
         3.40911567e-01,  1.77842259e-01],
       [ 3.11769962e-01, -6.49389267e-01,  5.46086311e-01,
         1.39011115e-01, -6.62082881e-02,  3.31345052e-01,
         5.40652871e-01, -3.06140989e-01,  3.59499574e-01,
         1.96962971e-02, -9.99440532e-03,  8.91532749e-02,
        -1.49933502e-01,  6.82694376e-01, -1.08869642e-01,
        -2.64267802e-01, -9.84216779e-02, -3.88197988e-01,
         7.13567510e-02, -7.25817144e-01],
       [ 1.65129766e-01,  3.78604859e-01, -9.55834329e-01,
        -3.75702709e-01,  1.33698881e-01, -4.86596316e-01,
        -1.02788150e+00,  4.76519018e-01, -5.18123247e-02,
        -1.68772880e-02,  7.48559833e-02, -4.66748387e-01,
        -1.32395898e-03, -5.36006451e-01,  1.06823653e-01,
        -1.45403132e-01,  2.81441897e-01,  3.19726951e-02,
        -1.12053223e-01, -1.03340156e-01],
       [ 1.10302249e-03, -1.38708413e-01,  1.08413454e-02,
        -3.97045612e-01, -2.43359655e-02, -9.42173600e-02,
         1.12112448e-01, -1.80654630e-01,  1.05804712e-01,
        -4.68709528e-01,  1.20380491e-01,  2.33485430e-01,
         2.22039446e-01,  6.26230463e-02,  3.51612836e-01,
         1.14512313e-02, -5.88831082e-02,  4.39043194e-01,
         1.37307450e-01, -4.97028798e-01],
       [-7.30366856e-02,  3.45245540e-01,  2.91258190e-03,
        -3.89792025e-02,  1.36591703e-01, -5.99147797e-01,
        -3.74071687e-01,  2.25933760e-01, -2.80783046e-03,
         5.96162975e-02,  3.53896767e-01, -4.41935986e-01,
        -1.19387647e-02, -7.21226260e-02, -1.75994754e-01,
        -8.89891759e-03,  1.89354137e-01, -3.99024159e-01,
        -2.80209035e-01,  5.97027719e-01]], dtype=float32), array([[ 0.21702872, -0.3375267 ,  0.2771138 ,  0.00821228, -0.03616958,
         0.12423648, -0.18015268, -0.15343802, -1.0804536 ,  0.15768528,
        -0.3583945 ,  0.17618772,  0.4375951 , -0.09566719, -0.01106717,
        -0.3774787 ,  0.28137547, -0.3364132 , -0.12664892, -0.36391437],
       [-0.02417808, -0.10427283, -0.6024332 , -0.2650744 ,  0.00309656,
         0.6640458 ,  0.5366206 ,  0.12757692,  0.07264179,  0.17428492,
        -0.04052326,  0.14076772, -0.33877683, -0.394315  ,  0.16386084,
         0.21662174,  0.21880889, -0.16769035,  0.515293  ,  0.6273538 ],
       [-0.00788064, -0.302984  , -0.24309017, -0.09218368,  0.14655083,
         0.694851  ,  0.30562145,  0.08456834, -0.20764586,  0.29407772,
        -0.18208542, -0.06957085,  0.05124318, -0.12400887,  0.07327769,
         0.38521963,  0.34326598, -0.07560029,  0.24452823,  0.20391826],
       [-0.19220835, -0.1312701 ,  0.33538747, -0.15461393, -0.45727834,
         0.4175329 , -0.01887541, -0.16732463, -0.90717554, -0.13479157,
        -0.5042373 ,  0.4016406 , -0.15535332, -0.19183055,  0.42534602,
        -0.17513584, -0.20714733,  0.39049405,  0.00376263, -0.30013192],
       [-0.12653242, -0.6176001 , -0.5987086 , -0.23343349,  0.4989084 ,
         0.24555172,  0.39452487, -0.36031657, -0.00387675, -0.08771455,
         0.13499995, -0.17993116, -0.06861176,  0.03251309,  0.12492956,
         0.5138108 , -0.11490341,  0.47785407, -0.05880425,  0.22724101],
       [ 0.01005753,  0.5404486 ,  0.3028996 , -0.32936102, -0.21440148,
        -0.4769834 , -0.3982501 ,  0.25014395,  0.7245798 ,  0.52330613,
         0.05861249, -0.18308952,  0.26706386, -0.08872464,  0.48416215,
        -0.10918283, -0.0679179 , -0.07945564, -0.3587705 ,  0.06596191],
       [ 0.04663073,  0.1160779 , -0.0087108 ,  0.1772469 , -0.48354322,
        -0.28112528, -0.09457532,  0.5739028 , -0.3292064 , -0.04711364,
        -0.2446618 , -0.25841445,  0.4263286 ,  0.09872598, -0.00494761,
         0.31240615, -0.16592763,  0.06792496, -0.39272928, -0.2979549 ],
       [-0.15388612, -0.06055341, -0.20416538,  0.28633037, -0.3845495 ,
         0.6266563 , -0.17016965, -0.11661807, -0.20680045, -0.63624793,
         0.30303115, -0.20552865, -0.28340703,  0.47835597, -0.21942578,
         0.14142035, -0.3896696 ,  0.04791233, -0.05607469,  0.09784327],
       [-0.1624829 ,  0.09701567,  0.4958841 , -0.37227455, -0.13109638,
         0.07186741, -0.03840042,  0.5534299 , -0.00580988, -0.02721287,
        -0.18781586, -0.2589079 ,  0.09925776, -0.44852823,  0.32397935,
         0.11023261,  0.03375111, -0.03590127, -0.26687664,  0.21919464],
       [ 0.322244  , -0.3501086 , -0.00619621,  0.13275951, -0.70795155,
         0.00393918,  0.18600725,  1.4125139 , -0.91978306, -0.11745277,
        -0.06437337,  0.48496404,  0.0504732 , -0.10479476,  0.18398546,
        -0.37513015, -0.26081607,  0.21491729, -0.06260778,  0.02514599],
       [ 0.195974  , -0.27456966, -0.5580287 ,  0.3622135 ,  0.30395412,
         0.39382786,  0.5654438 ,  0.04961082,  0.02614799,  0.10669082,
         0.35320762, -0.2794407 , -0.38247296,  0.09702479,  0.17124672,
         0.13888691, -0.02905749, -0.0053407 , -0.03445528,  0.38879547],
       [-0.05485451,  0.05981219, -0.08516186,  0.12454362,  0.21617113,
        -0.51193976, -0.30713004,  0.07916697,  0.28165764, -0.02281353,
         0.8699316 , -0.510526  , -0.18644843,  0.05084491, -0.12564617,
        -0.3736893 , -0.12988493, -0.01420421, -0.8429713 ,  0.0360233 ],
       [-0.05830684, -0.4464473 ,  0.03715032, -0.17827119, -0.04084834,
         0.2920843 , -0.14331631, -0.13015205, -0.54233104,  0.08085307,
        -0.23102936,  0.1691161 ,  0.0246612 ,  0.2021163 ,  0.3562768 ,
        -0.1023502 , -0.40112823, -0.12386198, -0.0350286 ,  0.16223794],
       [ 0.43293488,  0.5989766 ,  0.44764158, -0.3835792 , -0.03556413,
        -0.16990387,  0.02103104,  0.2593402 ,  0.06270488,  0.2690076 ,
        -0.32190335,  0.05890288, -0.01864661, -0.41358423,  0.08242017,
         0.02703777, -0.16376583,  0.3285936 ,  0.04018414,  0.00394936],
       [ 0.08003033, -0.21491411, -0.36373383,  0.1764817 ,  0.20464614,
         0.04619882, -0.15178047, -0.6351412 ,  0.6029144 ,  0.30319715,
        -0.05196656,  0.03462441,  0.19307947, -0.16924135,  0.105043  ,
         0.47564214, -0.02257988,  0.24275403, -0.10964604,  0.7324801 ],
       [ 0.00164757, -0.32848334, -0.38463286,  0.21789151,  0.02527655,
        -0.28702942,  0.514293  , -0.37440634,  0.37627125,  0.06504259,
         0.10126266, -0.05796098, -0.25287685,  0.0259559 ,  0.19820453,
         0.43213826,  0.23006707,  0.13081528,  0.17263864,  0.315258  ],
       [ 0.14251497, -0.06322064,  0.13041498, -0.5468306 , -0.79119   ,
         0.75755423, -0.20525429,  0.69948584,  0.1589339 ,  0.46387872,
        -0.8073906 ,  0.31350163, -0.31512594, -0.2325652 ,  0.166879  ,
        -0.21643382, -0.05230966,  0.11514052,  0.36613485, -0.02015175],
       [-0.38260627, -0.53712755, -0.03191603, -0.1594284 ,  0.2665428 ,
        -0.42106766,  0.16187644, -0.39373586, -0.07715811,  0.00413362,
        -0.15855229,  0.17471996, -0.09720991,  0.13822055,  0.06214477,
         0.12720217, -0.10715993,  0.19536129, -0.25067452,  0.36613116],
       [-0.33842862, -0.06793089,  0.12222228, -0.19902594, -0.00876928,
        -0.5852597 ,  0.2908691 , -0.25989994,  0.3510768 , -0.2385308 ,
         0.09426428,  0.03114037,  0.17164202,  0.19189075, -0.01688856,
         0.04795527,  0.46214703,  0.29017094, -0.06117716,  0.5228995 ],
       [ 0.10884821, -0.55205625, -0.1939516 ,  0.02889965,  0.3616395 ,
        -0.84487003,  0.19050552,  0.6851373 , -0.58206624,  0.31101614,
        -0.60120916,  0.46704385, -0.45056435, -0.0754204 , -0.34751272,
         0.02890374, -0.35717955,  0.22081082,  0.20066923, -0.07821629]],
      dtype=float32), array([[ 0.39476728],
       [ 0.17347607],
       [-0.16862065],
       [-0.21809651],
       [-0.19769488],
       [ 0.6486666 ],
       [ 0.42496058],
       [ 0.33959252],
       [-0.23131528],
       [ 0.5900182 ],
       [ 0.5982624 ],
       [-0.2523177 ],
       [-0.09459909],
       [-0.12466668],
       [ 0.6490923 ],
       [ 0.4260917 ],
       [-0.58792436],
       [ 0.13494848],
       [ 0.22924265],
       [ 0.38612035]], dtype=float32)]


Weights_h:
[array([[ 0.14568856,  0.0427883 , -0.24494357, -0.34768084,  0.12403906,
        -0.08453072,  0.13545074, -0.04501846, -0.10312223, -0.13585359,
         0.30502224,  0.33671856,  0.10827706,  0.11763223, -0.12222837,
         0.39696944, -0.03577499,  0.08426218, -0.07125954,  0.00613714,
        -0.23424527, -0.04163045, -0.08416878,  0.30254552, -0.34226817,
        -0.23766267, -0.04486886, -0.20879053,  0.0101837 ,  0.07206345,
         0.16564794,  0.17375416],
       [ 0.00346856,  0.39501163, -0.04247865,  0.05718492, -0.46294108,
         0.15985963,  0.08958366,  0.06815035, -0.21758986, -0.245652  ,
         0.04290448, -0.28693548,  0.10382438, -0.24541831, -0.33473513,
        -0.22370315, -0.28881592, -0.32878292,  0.19366924, -0.0243009 ,
        -0.02153269,  0.00258307, -0.43086967, -0.09275589, -0.32401958,
        -0.11621533,  0.22480007, -0.08678791,  0.20522231,  0.08635533,
         0.13053833, -0.12524052]], dtype=float32), array([[ 0.14613502,  0.13872388,  0.1402741 , ...,  0.251899  ,
         0.19029291,  0.08356266],
       [ 0.2909089 ,  0.012693  ,  0.14056441, ..., -0.22259322,
         0.17874275, -0.3493558 ],
       [ 0.00450856,  0.2582141 ,  0.09719661, ...,  0.06585601,
         0.27156398, -0.07380354],
       ...,
       [-0.13177583,  0.13860631,  0.320436  , ...,  0.22266309,
         0.11515298,  0.09497961],
       [-0.32934234, -0.06933061,  0.16701901, ...,  0.23945828,
        -0.04170385, -0.21546309],
       [ 0.01153392, -0.1474798 , -0.08698559, ..., -0.18199755,
        -0.10279488,  0.05231684]], dtype=float32), array([[ 7.05821216e-02, -5.46152852e-02, -1.89709201e-01, ...,
        -2.75937468e-01, -2.03610852e-01, -1.38038620e-01],
       [-6.36903048e-02,  8.44612252e-03, -1.03535384e-01, ...,
        -3.22719038e-01, -1.41772922e-04, -7.48106092e-03],
       [ 1.97661653e-01,  1.44059375e-01, -8.65310654e-02, ...,
        -1.39062628e-02,  7.18802810e-02, -7.87372515e-02],
       ...,
       [ 2.23957852e-01,  7.22172782e-02, -1.61669962e-02, ...,
        -6.46444559e-02,  1.65832117e-02, -4.95307110e-02],
       [ 2.76551485e-01,  5.90382963e-02,  1.41858488e-01, ...,
        -1.93446189e-01,  2.73978382e-01, -1.90457731e-01],
       [-7.44643584e-02, -2.15930268e-01,  1.40060276e-01, ...,
         1.87460482e-01,  1.40545100e-01,  1.02962419e-01]], dtype=float32), array([[-0.09848686],
       [-0.18843706],
       [ 0.20386577],
       [-0.10627208],
       [ 0.10532624],
       [-0.19488737],
       [ 0.05369253],
       [ 0.35077465],
       [-0.28267416],
       [ 0.18323849],
       [ 0.35219964],
       [ 0.1987451 ],
       [-0.25650328],
       [-0.3942111 ],
       [-0.04799478],
       [ 0.13988715],
       [ 0.00692682],
       [-0.4145102 ],
       [-0.41573158],
       [ 0.42574856],
       [-0.19519965],
       [-0.38440022],
       [ 0.10127336],
       [-0.12720051],
       [ 0.01412332],
       [ 0.1001907 ],
       [-0.4699128 ],
       [-0.09748092],
       [ 0.2031211 ],
       [-0.27913523],
       [ 0.10445727],
       [ 0.34600475]], dtype=float32)]


Weights_c:
[array([[-0.436551  , -0.19577149, -0.14908943, -0.23251636,  0.21020836,
         0.01899168, -0.18862444,  0.07153811, -0.28318742,  0.08614405,
         0.16644958, -0.05243946,  0.1033326 ,  0.35956657,  0.12489102,
         0.11240142, -0.44272956,  0.18902408,  0.2457999 , -0.37412995,
         0.18249556, -0.22759682, -0.09805822,  0.23432578, -0.44437405,
        -0.07873162,  0.33763906, -0.18306339,  0.34050578,  0.34015605,
         0.10902152, -0.29574654],
       [-0.36611027,  0.2716988 , -0.297845  , -0.14435045,  0.34210795,
         0.10336805, -0.30717757, -0.18570022, -0.2744148 ,  0.07295002,
         0.08316567, -0.1886442 , -0.04990215, -0.3336338 , -0.2549983 ,
        -0.0923717 , -0.17328607,  0.4468056 , -0.2635115 , -0.21491107,
         0.10679378, -0.13244447,  0.27923778,  0.1546878 ,  0.01163447,
        -0.04222929, -0.0029199 ,  0.11461112, -0.0541359 , -0.2994231 ,
        -0.00919068, -0.14721985]], dtype=float32), array([[ 0.11665306,  0.2537795 , -0.11705668, ...,  0.00697507,
         0.07209751, -0.03910639],
       [ 0.13674262,  0.20050101, -0.04953763, ...,  0.02222706,
         0.02070728,  0.19853294],
       [ 0.3518492 ,  0.20398915,  0.08312125, ...,  0.03551027,
         0.3447903 ,  0.08161815],
       ...,
       [ 0.02204326, -0.26413402,  0.01505016, ..., -0.13244654,
        -0.00846231, -0.22384918],
       [ 0.21933721, -0.03704536, -0.1586929 , ...,  0.18279529,
        -0.08279106,  0.21981505],
       [-0.22208689,  0.041264  ,  0.201325  , ..., -0.0835606 ,
        -0.1985827 , -0.04760926]], dtype=float32), array([[-0.03064156, -0.26161763, -0.15255532, ...,  0.05586261,
         0.01343352,  0.04425788],
       [ 0.0712921 , -0.16796869, -0.09860854, ..., -0.03465192,
        -0.03304254, -0.06419692],
       [ 0.13349235,  0.1533324 ,  0.07535215, ..., -0.13567074,
        -0.10419467, -0.12308176],
       ...,
       [ 0.27622157, -0.24120644,  0.02672122, ...,  0.0235175 ,
        -0.13245907,  0.09059867],
       [-0.07116906, -0.16041829, -0.0282239 , ...,  0.19553743,
        -0.04006693,  0.11770446],
       [ 0.01839904, -0.19303663,  0.24373351, ...,  0.04492711,
        -0.00136926, -0.10089289]], dtype=float32), array([[ 0.01475844],
       [-0.06276604],
       [-0.44945487],
       [-0.01337795],
       [ 0.02571248],
       [ 0.09547279],
       [ 0.14328891],
       [-0.20065366],
       [-0.06742534],
       [ 0.00947275],
       [-0.0857871 ],
       [-0.07455337],
       [-0.09628659],
       [ 0.0506513 ],
       [ 0.02637007],
       [ 0.10461706],
       [-0.09704024],
       [-0.26791316],
       [-0.01533256],
       [-0.29926658],
       [ 0.07074825],
       [-0.00978785],
       [ 0.20001294],
       [ 0.08812054],
       [ 0.2354673 ],
       [-0.02420573],
       [ 0.10969929],
       [ 0.15924199],
       [-0.18883389],
       [ 0.0879006 ],
       [ 0.30827   ],
       [ 0.13382424]], dtype=float32)]


Weights_k:
[array([[-0.1485929 ,  0.87428075, -0.7410881 , -0.45555297, -0.36013013,
         0.09081143, -0.2203465 , -0.10168938, -0.21892841,  0.79810715,
         0.1177538 , -0.15194662, -0.78256917, -0.9428738 , -0.40438235,
        -0.07283283,  0.36839217, -0.10182792,  0.16456549, -1.2322043 ],
       [ 0.08985922, -0.28239253,  0.8144439 ,  0.0432093 ,  0.14810805,
        -0.4547657 , -1.4121121 ,  0.13198572, -1.0849702 , -0.04958016,
        -0.5474155 ,  0.7950955 ,  0.27607125, -0.38159776, -0.32907557,
         0.12948954, -0.2030301 , -2.962191  ,  0.6242506 , -1.2860503 ]],
      dtype=float32), array([[-8.20807219e-02,  5.77946715e-02,  9.82876867e-02,
         2.72768401e-02, -6.63752437e-01, -1.36422336e-01,
        -1.13321692e-01, -1.51400983e-01,  1.45416045e+00,
        -5.82786143e-01,  9.52049568e-02, -7.91530088e-02,
        -5.11246383e-01, -2.23740876e-01,  1.96462467e-01,
         3.10375005e-01,  1.95276111e-01,  6.53211400e-02,
        -2.16359124e-01,  1.20180331e-01],
       [ 7.61990473e-02, -3.04302454e-01, -1.79430619e-01,
         6.50028959e-02,  7.54920781e-01,  2.81701624e-01,
        -3.16046655e-01,  3.11050385e-01, -2.21910191e+00,
         1.20320153e+00,  2.26036936e-01,  7.82050639e-02,
         2.87937582e-01,  4.26039070e-01,  1.35671034e-01,
         2.72454560e-01, -1.02555327e-01,  1.01174368e-02,
         1.16657957e-01,  5.83024502e-01],
       [ 5.28674841e-01,  5.69127560e-01, -5.64418912e-01,
        -1.76443681e-01, -2.68394589e-01,  2.60942541e-02,
         5.19928455e-01,  1.77783877e-01, -2.49907315e-01,
        -1.19478106e-01,  2.05884263e-01,  2.69876063e-01,
         1.00130051e-01, -3.93199101e-02,  9.19216156e-01,
         3.39562058e-01, -3.42123687e-01, -1.75233245e-01,
         8.18390772e-02, -1.45029664e-01],
       [ 2.73634374e-01,  2.01715618e-01, -2.58997232e-01,
         7.04141557e-02,  1.47323897e-02, -2.86988188e-02,
         2.80463129e-01, -8.05705041e-02,  8.30616295e-01,
        -3.86235744e-01, -5.63331187e-01, -5.97842922e-03,
         2.51961023e-01, -7.89948627e-02,  7.20167696e-01,
         1.87794507e-01, -5.16676843e-01, -1.44644797e-01,
         4.00081098e-01, -2.22212747e-01],
       [-1.43451110e-01,  6.49237871e-01,  2.79009849e-01,
         1.37552008e-01, -6.93483591e-01, -4.92810877e-03,
        -2.40573049e-01,  5.03550656e-03,  1.26738286e+00,
        -8.03119242e-01,  9.32557583e-02, -2.75018215e-01,
         1.74350366e-01, -5.27432978e-01,  2.39587530e-01,
         1.24834538e-01, -1.39277149e-02, -3.52631748e-01,
        -6.00107238e-02, -4.26714569e-01],
       [-1.60612628e-01, -6.23725392e-02, -2.07835492e-02,
        -1.03743777e-01, -3.95189971e-01,  4.14565742e-01,
         3.34517539e-01, -2.81577915e-01, -9.17582333e-01,
         4.15907055e-01, -2.45503262e-01,  9.02686194e-02,
        -7.30807260e-02,  2.99931496e-01, -1.87616676e-01,
        -2.55475305e-02,  3.94941792e-02, -1.35838121e-01,
         3.68659645e-01,  6.49867833e-01],
       [-2.50538141e-02, -4.46410120e-01, -7.64179602e-02,
        -9.61516947e-02, -2.50512719e-01,  2.11824283e-01,
         3.17288071e-01, -1.49247408e-01,  1.97399586e-01,
        -2.50382096e-01, -5.41199565e-01, -1.04110770e-01,
        -3.77203785e-02,  1.54025033e-01, -2.34970585e-01,
        -2.90658563e-01,  8.49999860e-03,  7.09444210e-02,
        -5.87175973e-02,  9.93309468e-02],
       [-1.09313997e-02,  1.20691434e-02,  2.31633350e-01,
         1.34740472e-01, -3.30237001e-01, -4.60674345e-01,
         4.64961715e-02, -3.38564008e-01,  1.15104818e+00,
        -6.37609065e-01,  2.44713321e-01, -4.39742625e-01,
        -2.41670087e-01, -8.56221095e-02,  2.81810731e-01,
        -4.15977687e-02, -1.38697594e-01,  1.04999758e-01,
         2.68697858e-01, -3.06339651e-01],
       [-6.46722317e-02, -3.42674315e-01, -2.44228423e-01,
        -8.71960353e-03, -5.59473224e-02,  3.61357778e-01,
         5.33101737e-01, -1.39912926e-02,  2.78465122e-01,
        -3.65551487e-02, -3.88554245e-01, -1.29769519e-01,
        -2.28597865e-01,  1.85756370e-01, -2.44045988e-01,
        -4.26774234e-01,  4.28032070e-01, -2.98589945e-01,
         1.06188156e-01,  5.07029817e-02],
       [ 2.49266848e-01, -7.19675362e-01, -8.93918648e-02,
         4.22457270e-02,  4.88318712e-01,  3.80163103e-01,
        -1.14518687e-01,  3.88154149e-01, -1.57054842e+00,
         7.22489834e-01,  3.02943349e-01, -2.30988771e-01,
        -1.31784722e-01,  1.24838483e-02, -1.48193732e-01,
        -1.78719193e-01,  2.81987041e-01,  2.27225602e-01,
        -4.98369873e-01,  3.28388095e-01],
       [-1.85035542e-02, -2.68993109e-01,  5.74903488e-01,
         8.59529749e-02, -2.86901623e-01,  2.92729616e-01,
        -1.34921104e-01, -2.83164471e-01, -6.76146299e-02,
        -1.64864466e-01,  1.11758739e-01,  3.39367211e-01,
        -4.47816141e-02,  1.95052907e-01, -8.07728648e-01,
        -1.58669755e-01,  2.15901971e-01, -9.74633023e-02,
        -3.66528332e-01,  1.43656999e-01],
       [ 3.88174534e-01,  3.32693845e-01, -7.03699887e-01,
         1.15944959e-01, -3.36934060e-01, -3.89292151e-01,
        -2.41962284e-01, -3.69305253e-01,  2.28340551e-01,
        -8.22049007e-02,  7.57217035e-02,  1.64192855e-01,
        -1.15311205e-01, -1.07990526e-01,  1.15473175e+00,
         8.21970254e-02, -2.29077503e-01,  3.10015529e-01,
        -2.11354151e-01,  5.22380434e-02],
       [-9.40686986e-02,  5.71103953e-02,  1.05520330e-01,
         2.06366450e-01, -5.91837406e-01, -1.99859306e-01,
         1.42930523e-01, -1.23839892e-01,  1.79350781e+00,
        -1.05306602e+00,  1.14432117e-02, -1.67907238e-01,
        -1.96715251e-01, -2.68132031e-01,  1.38973415e-01,
         1.86043799e-01, -2.31088459e-01, -4.10912454e-01,
        -1.74546912e-01, -5.68679035e-01],
       [ 1.67605996e-01,  3.70633230e-02,  5.15013002e-02,
         5.65647334e-02, -2.48199835e-01, -3.20917577e-01,
         2.90265709e-01, -2.84001604e-02,  6.85801923e-01,
        -3.04200739e-01, -3.59466016e-01,  9.38111991e-02,
        -3.53843749e-01, -2.26730078e-01,  2.45999649e-01,
         1.82468861e-01,  2.30365060e-02, -7.58866817e-02,
        -3.48852947e-02,  1.89143330e-01],
       [-2.49543995e-01,  2.22911209e-01,  2.13645667e-01,
        -4.29240584e-01, -6.18331768e-02, -1.54059917e-01,
         4.47146326e-01, -9.30706598e-03,  1.02802944e+00,
        -7.11167991e-01,  3.96313109e-02,  5.10810278e-02,
         1.24339707e-01, -3.76561992e-02, -4.10276279e-03,
        -2.01633628e-02,  3.11615974e-01,  1.41832814e-01,
        -1.26077291e-02,  5.20636067e-02],
       [ 1.38291821e-01,  3.50025296e-01,  2.51765810e-02,
        -2.19540507e-01,  9.76570174e-02, -4.34508443e-01,
        -1.37712404e-01, -2.53620565e-01,  1.15279794e+00,
        -8.24042559e-01, -7.18679056e-02, -1.31670251e-01,
         7.47433454e-02, -5.31494737e-01,  3.45918834e-01,
         5.45284860e-02,  9.79646072e-02, -4.63493653e-02,
        -3.78962979e-02,  3.19968969e-01],
       [-7.80054927e-02, -1.77831024e-01,  2.80366272e-01,
         5.02124280e-02, -6.42470598e-01, -7.73823028e-03,
        -4.35425848e-01, -7.68386805e-03,  3.67061049e-01,
        -9.37815905e-01,  2.54807651e-01, -2.63705440e-02,
         8.29548016e-02, -3.32553476e-01, -1.26226693e-01,
        -4.19440210e-01,  1.69955477e-01, -6.68723956e-02,
        -1.26209036e-01,  4.10417110e-01],
       [-3.71247262e-01, -6.27399325e-01,  9.05085504e-01,
         9.61391181e-02,  4.98089731e-01, -1.26448691e-01,
         3.25645208e-01,  1.96751803e-01, -1.25254989e+00,
         3.79773080e-01, -8.35600421e-02,  1.94538280e-01,
         4.00157988e-01,  1.78650230e-01, -1.83962137e-01,
        -1.03414029e-01, -2.68295646e-01, -5.83829693e-02,
        -2.24642783e-01, -3.46661776e-01],
       [ 2.19171211e-01,  4.12005842e-01, -4.90878560e-02,
        -1.59514114e-01, -9.88813937e-02, -1.54957054e-02,
        -5.16637981e-01,  6.33446500e-02, -6.12838328e-01,
         5.57197690e-01,  6.27095923e-02,  1.72667485e-02,
        -2.38907099e-01,  1.38996303e-01, -8.03593099e-02,
         2.97503054e-01, -3.34789991e-01,  4.81715560e-01,
         1.55072778e-01,  7.56263211e-02],
       [-6.75151572e-02,  3.18415873e-02, -1.47214755e-01,
        -7.21168444e-02, -4.09131825e-01, -3.03226799e-01,
         5.87608516e-01, -2.44935319e-01,  1.01388466e+00,
        -2.33999938e-01, -7.28677273e-01, -2.30837315e-01,
        -1.38546661e-01, -2.52164900e-01,  2.41296962e-01,
        -1.82814762e-01, -2.87840288e-04, -2.65401006e-01,
         2.70712197e-01,  2.69671708e-01]], dtype=float32), array([[-2.45803386e-01,  9.17788818e-02, -3.26685458e-01,
        -3.17538708e-01, -2.43954897e-01,  2.77780831e-01,
         1.24184392e-01, -1.28311336e-01, -1.19758196e-01,
         4.86328244e-01,  2.75926977e-01, -1.18232854e-01,
         4.87372018e-02, -2.60352939e-01, -1.95097819e-01,
         3.81478830e-03,  6.86869204e-01,  1.57753929e-01,
        -9.59835649e-02,  1.15916662e-01],
       [ 2.16172427e-01, -3.14889997e-01,  5.69573380e-02,
        -4.74947661e-01, -3.16487014e-01,  1.41371205e-01,
        -6.58915222e-01,  2.02555403e-01,  3.30726802e-01,
         1.19991146e-01,  1.67208180e-01,  2.93905914e-01,
         2.53355503e-01, -3.38040262e-01, -4.33108181e-01,
        -2.16825396e-01,  8.21316019e-02, -3.32315639e-02,
        -7.87223279e-02, -9.39168707e-02],
       [ 3.43070716e-01,  2.02692553e-01,  7.94357657e-02,
         4.00825351e-01, -2.66225755e-01,  4.03234735e-02,
         4.99565810e-01, -2.57445157e-01, -1.84142694e-01,
        -2.71553755e-01,  2.11475804e-01,  1.77370459e-01,
         7.38913715e-02,  3.37832004e-01, -1.11808926e-01,
         1.24879397e-01, -3.15018147e-01, -5.32895565e-01,
         2.11059481e-01, -4.92571175e-01],
       [-1.05226291e-02,  3.27805243e-02, -1.96055606e-01,
         1.19978273e-02, -9.48958024e-02,  6.75104782e-02,
         2.76438534e-01, -8.59357938e-02, -4.10960287e-01,
        -6.66932523e-01,  1.89990029e-01, -2.21422970e-01,
        -1.24451853e-01,  2.66431838e-01, -1.87411010e-01,
        -3.60294849e-01,  4.90106642e-03,  5.97460903e-02,
         1.76945515e-02,  9.35606360e-02],
       [ 3.50983106e-02,  3.64643276e-01,  8.94785821e-02,
        -3.38565379e-01,  5.38851500e-01,  4.42049712e-01,
         2.91091084e-01,  1.27214551e-01,  6.30233586e-01,
         1.26861289e-01, -1.77578792e-01, -1.82326198e-01,
        -7.73909986e-02,  2.13378549e-01, -1.98831677e-01,
         2.85808027e-01, -9.43196192e-02,  7.30574206e-02,
         2.12685987e-02, -1.22682735e-01],
       [-7.34523475e-01, -1.34443223e-01,  4.47395861e-01,
         6.72893301e-02,  1.73104420e-01,  1.44722834e-01,
        -5.54022789e-01,  2.15921432e-01,  4.27223504e-01,
         1.51975274e-01, -1.13129862e-01, -1.76223163e-02,
        -1.06001474e-01,  3.05595219e-01,  2.00851962e-01,
        -1.03515744e-01,  7.53901154e-02, -1.24058448e-01,
         2.13010475e-01,  9.57783684e-02],
       [-2.73959547e-01,  1.86240263e-02, -2.17373669e-01,
        -4.75114673e-01,  3.77872318e-01,  9.47481096e-02,
         2.62993395e-01, -4.18578833e-01,  5.60105555e-02,
         5.33829570e-01, -1.63116798e-01,  2.16293022e-01,
         1.00028656e-01, -4.40192729e-01, -1.81572810e-01,
         1.71821415e-01,  1.60791576e-02,  3.63108546e-01,
        -5.63774332e-02,  3.05698872e-01],
       [-4.26248193e-01,  3.49874586e-01, -1.71063989e-01,
         2.57542394e-02, -3.26761395e-01, -6.54280558e-02,
        -8.43746290e-02, -1.29758820e-01, -2.08562911e-01,
        -6.53285027e-01,  1.14819631e-01,  4.42460664e-02,
        -2.88753271e-01,  8.00526422e-03,  3.82929176e-01,
         2.21046612e-01,  1.81063592e-01, -2.22571984e-01,
        -2.18746036e-01, -1.27278283e-01],
       [ 8.16828668e-01, -3.80768687e-01,  5.46636768e-02,
         9.35528502e-02, -2.78280266e-02, -1.47919714e-01,
         7.10932195e-01,  3.43439877e-01, -4.27282512e-01,
        -2.86324918e-01,  2.94357121e-01,  2.28082955e-01,
         5.99644542e-01,  5.16839838e-03, -2.40172431e-01,
        -8.25571939e-02, -3.93930256e-01, -5.71355224e-02,
         1.18771106e-01,  1.50202408e-01],
       [-1.10803418e-01, -1.57121599e-01,  3.85815427e-02,
        -1.65449515e-01, -1.15463711e-01, -1.58513606e-01,
        -3.02040875e-01, -3.98135304e-01, -6.40855357e-02,
         3.11023712e-01, -1.85695127e-01, -5.98183095e-01,
        -4.50473189e-01,  2.72472668e-02, -5.89088015e-02,
        -3.98156326e-03,  5.81589878e-01,  1.85420737e-01,
        -1.82882715e-02,  1.36635840e-01],
       [-9.43866968e-02,  5.99008799e-01, -4.37826617e-03,
         9.42179784e-02, -1.43637702e-01, -5.52197576e-01,
        -3.18427145e-01, -1.81054268e-02, -4.97627527e-01,
        -1.39879310e+00,  2.34051242e-01, -5.04059950e-03,
        -3.71797115e-01, -1.92303792e-01,  1.00082435e-01,
        -4.62947525e-02, -1.07631475e-01, -1.53934509e-01,
        -1.30576447e-01,  3.44868153e-01],
       [ 3.92316133e-01, -1.87715009e-01,  2.05039531e-02,
        -2.84587413e-01,  3.39860618e-02, -3.05208024e-02,
         2.05330998e-01, -3.47153693e-02,  6.19435847e-01,
         1.14039987e-01, -3.38434279e-01, -2.93997437e-01,
        -1.07430078e-01,  4.47863847e-01,  2.75208712e-01,
         4.09400314e-01, -3.28194946e-02,  1.01903081e-01,
        -1.07809283e-01, -1.90036818e-01],
       [ 2.57283241e-01,  2.97430754e-01, -1.50443152e-01,
         1.85219292e-02,  6.51992500e-01, -1.58021271e-01,
        -4.84513231e-02,  2.29117185e-01,  4.73238081e-01,
        -1.95231482e-01, -3.97696793e-01, -4.53730896e-02,
         1.15946464e-01,  6.24006867e-01,  3.62388700e-01,
         3.65017802e-01, -4.58700567e-01, -1.96907863e-01,
         3.93949240e-01,  4.89421710e-02],
       [-1.24266706e-01,  4.35781360e-01,  2.39466086e-01,
         5.50240725e-02, -7.72802485e-03,  1.69712882e-02,
        -6.73330665e-01,  3.05465490e-01,  3.53245497e-01,
        -1.33486256e-01, -2.77003974e-01, -8.05086493e-02,
        -3.41934651e-01,  6.87328354e-02,  8.33882242e-02,
         1.01526983e-01, -6.69170097e-02, -4.66724187e-02,
         3.60748172e-01,  1.78184416e-02],
       [-3.10067832e-03, -2.83002198e-01, -7.07082897e-02,
         5.87375015e-02, -1.79277718e-01, -4.27871235e-02,
        -4.64170501e-02, -5.59893437e-02, -3.23317081e-01,
         7.95894742e-01,  3.29622239e-01, -8.22523013e-02,
         1.09225288e-01, -3.32760692e-01, -2.34785289e-01,
         3.42996418e-01, -4.66265641e-02, -3.05196226e-01,
         4.43898827e-01,  2.99075484e-01],
       [ 1.30679756e-01, -3.76414984e-01,  2.79431999e-01,
         3.07103479e-03,  2.79125839e-01,  3.65494788e-02,
        -2.43507653e-01,  1.04614846e-01, -5.52986301e-02,
         9.54661608e-01,  2.10020691e-01, -1.23641782e-01,
        -1.02959588e-01, -8.27962831e-02, -2.33078375e-01,
         8.57110415e-03,  1.75921142e-01, -3.43090266e-01,
         3.65135193e-01, -3.50639790e-01],
       [-4.61402267e-01,  6.09470978e-02,  1.20956674e-01,
         9.52975675e-02,  1.46874005e-03, -4.45377469e-01,
        -1.13175809e-01,  1.38355449e-01, -2.02833354e-01,
        -2.31871867e+00,  4.15381759e-01,  7.64355585e-02,
         3.22017998e-01,  2.08847374e-01,  1.33250982e-01,
        -4.05297458e-01,  1.40214011e-01,  1.99809790e-01,
        -2.96048105e-01, -1.52449518e-01],
       [ 8.76873955e-02,  1.92183226e-01, -3.08075607e-01,
        -1.19051702e-01, -7.42238015e-02, -3.43511581e-01,
        -3.91973317e-01, -4.42196935e-01, -3.74866128e-01,
        -3.08674693e-01,  1.64965540e-01, -1.30335197e-01,
        -3.73760402e-01, -7.04517439e-02, -5.20265624e-02,
         2.62293279e-01, -5.37033044e-02,  4.82144207e-02,
         4.00243282e-01, -2.94706494e-01],
       [-3.54092866e-01, -4.50397462e-01,  1.41682848e-01,
         1.37387132e-02,  7.58237988e-02,  2.77615219e-01,
         1.02121331e-01,  7.58157670e-02,  2.80987233e-01,
         9.29197669e-01,  1.48152605e-01,  3.05471659e-01,
        -2.86734644e-02,  5.50108626e-02,  1.36807084e-01,
         4.19737063e-02,  1.76621929e-01, -2.15866715e-01,
         1.52903140e-01, -4.20582831e-01],
       [-7.33882844e-01,  1.44017115e-01, -1.36448160e-01,
         2.60281771e-01, -1.39858648e-01,  2.00647995e-01,
        -4.96721238e-01,  8.11728910e-02, -6.49268478e-02,
         3.95562202e-02,  1.06802322e-01,  1.51154801e-01,
        -3.57271545e-02, -2.55412072e-01, -2.35017225e-01,
        -3.75566185e-01,  7.35979915e-01,  2.52721548e-01,
        -5.07947206e-02,  3.75873417e-01]], dtype=float32), array([[ 0.58901376],
       [-0.6135008 ],
       [ 0.04117388],
       [ 0.38253284],
       [ 0.188722  ],
       [ 0.21023649],
       [-1.0385169 ],
       [ 0.710324  ],
       [ 0.74574655],
       [ 0.1898339 ],
       [-0.40301365],
       [ 0.30101368],
       [ 0.59235257],
       [ 0.488871  ],
       [ 0.3884948 ],
       [ 0.22143844],
       [-0.25665823],
       [-0.65171295],
       [ 0.47543648],
       [-0.50869787]], dtype=float32)]


Weights_h:
[array([[-0.16667257, -0.14098442, -0.3371081 , -0.2938103 ,  0.31038827,
        -0.14485466, -0.39948893, -0.19172153, -0.07195195, -0.13461772,
        -0.06295788, -0.0570878 , -0.37470177,  0.04423603,  0.04003348,
        -0.25131515, -0.01828348, -0.00286655,  0.1424687 , -0.13803023,
        -0.14099388, -0.21372865,  0.06265498,  0.15111043,  0.0637881 ,
        -0.3842567 ,  0.0814514 ,  0.18488625,  0.27293012, -0.33196145,
         0.08002225,  0.00258938],
       [-0.1605048 ,  0.02642943,  0.36064792, -0.17233297,  0.07286545,
        -0.02350812, -0.2233314 ,  0.0720048 , -0.2646986 ,  0.23810387,
         0.13817751,  0.10486013, -0.06275598,  0.26177916, -0.09759831,
        -0.06965747, -0.13328612, -0.18019493,  0.40985096,  0.26168475,
        -0.14401527, -0.06207142,  0.0236031 ,  0.2072142 , -0.16891477,
        -0.20640516, -0.25395337, -0.0079886 ,  0.25706634,  0.28898326,
         0.06174295, -0.2862478 ]], dtype=float32), array([[-0.07952387,  0.05601887, -0.08114199, ...,  0.11496942,
         0.19842498, -0.15626514],
       [ 0.11576866, -0.10636358, -0.08431379, ..., -0.00401743,
        -0.11238188,  0.06086915],
       [ 0.01921429,  0.01835847,  0.02887561, ...,  0.02435638,
        -0.22979145,  0.02017415],
       ...,
       [-0.05570672, -0.10275162, -0.1165124 , ...,  0.08928961,
        -0.09025579,  0.02382337],
       [-0.06906956,  0.09112208, -0.25459448, ...,  0.24982288,
         0.1087403 ,  0.22040321],
       [-0.07558201, -0.06508206, -0.0545749 , ..., -0.08113257,
         0.29554686, -0.03057962]], dtype=float32), array([[ 0.02318055,  0.05314887, -0.04771667, ..., -0.01551351,
         0.00785696, -0.03070415],
       [ 0.13580392,  0.05563123,  0.20735967, ...,  0.16661893,
        -0.12942342, -0.31691745],
       [-0.26552325,  0.00763791, -0.16814883, ...,  0.02892022,
        -0.08468611, -0.1496304 ],
       ...,
       [ 0.04030946,  0.2339986 , -0.03834747, ...,  0.34941235,
         0.0725353 , -0.12587303],
       [-0.12964258, -0.23612624,  0.04492943, ..., -0.20143577,
         0.05992046, -0.15391302],
       [ 0.05161038,  0.11051093,  0.05691123, ...,  0.07618581,
         0.08538087,  0.20506121]], dtype=float32), array([[ 0.0320239 ],
       [ 0.4047919 ],
       [ 0.18547758],
       [-0.21642125],
       [ 0.1385907 ],
       [ 0.23560646],
       [ 0.01003942],
       [ 0.15534581],
       [-0.34430084],
       [-0.09889951],
       [ 0.16910109],
       [-0.17811348],
       [-0.1813838 ],
       [ 0.04572342],
       [ 0.2650643 ],
       [-0.33143377],
       [-0.05705164],
       [-0.02489571],
       [ 0.06294405],
       [-0.36889884],
       [-0.36486503],
       [-0.12024207],
       [-0.07027923],
       [-0.2844021 ],
       [-0.17836797],
       [ 0.06579563],
       [-0.01477459],
       [ 0.05191774],
       [ 0.03581678],
       [ 0.17893302],
       [-0.01134045],
       [-0.0713635 ]], dtype=float32)]


Weights_c:
[array([[-0.21855539,  0.0859611 ,  0.05785949,  0.03408356, -0.26873392,
        -0.32596388, -0.15043454,  0.05110978,  0.2057415 ,  0.1840395 ,
         0.15383962,  0.06026912, -0.09147272,  0.21124363,  0.33002204,
         0.34283423, -0.17870584,  0.01213983, -0.12984097, -0.04075257,
        -0.1937536 ,  0.13131702,  0.16435657, -0.40805823,  0.24011712,
        -0.45250282, -0.33970827,  0.3708952 , -0.09278612, -0.01306805,
         0.22326714,  0.10213867],
       [ 0.11809128, -0.0710515 ,  0.2212445 ,  0.2186606 , -0.13785253,
        -0.2892435 ,  0.30449   , -0.16764356, -0.440934  ,  0.2386299 ,
        -0.07764255, -0.45592225, -0.02357369, -0.32781643,  0.2455445 ,
        -0.3175778 ,  0.16144939, -0.1766583 , -0.08357299,  0.1619325 ,
        -0.26791215, -0.20170535,  0.15934452,  0.0870991 , -0.47853336,
        -0.33869752,  0.04722012,  0.17251417, -0.3157648 ,  0.15438317,
         0.07247742,  0.05817201]], dtype=float32), array([[-0.24019612,  0.0827605 ,  0.01939048, ..., -0.12124392,
         0.18913004,  0.11859066],
       [ 0.05264084, -0.30364797, -0.01070906, ..., -0.12660529,
         0.12226996, -0.25589588],
       [-0.11217719, -0.03921169,  0.0298625 , ...,  0.05651135,
         0.32999423,  0.18216631],
       ...,
       [ 0.26271546,  0.03622009, -0.16955745, ..., -0.1253519 ,
        -0.3051682 , -0.3070884 ],
       [ 0.20045432, -0.04249988,  0.1049904 , ...,  0.08221284,
        -0.28102383,  0.1154396 ],
       [-0.23891878, -0.00117731, -0.24787971, ..., -0.10705197,
         0.08746094, -0.10448793]], dtype=float32), array([[ 0.17363116, -0.12426404, -0.17871502, ..., -0.19528589,
         0.10295632,  0.16921656],
       [ 0.12246761,  0.2982503 , -0.11576544, ..., -0.23412669,
        -0.32905295, -0.05344482],
       [-0.04027465,  0.1161852 ,  0.22676595, ...,  0.17424907,
        -0.11921091, -0.10175683],
       ...,
       [-0.06329535, -0.00970055, -0.19573528, ...,  0.01615715,
         0.08141179, -0.20318405],
       [ 0.01822933, -0.25670868, -0.0882322 , ...,  0.02180021,
         0.22569056, -0.26289797],
       [ 0.07283358, -0.02597342,  0.2827217 , ...,  0.15197377,
         0.18653478, -0.09254892]], dtype=float32), array([[-0.04721677],
       [-0.31539735],
       [-0.21153095],
       [-0.05498205],
       [ 0.01665216],
       [-0.30080187],
       [ 0.19519201],
       [ 0.07675136],
       [-0.23347901],
       [ 0.21684225],
       [-0.13655867],
       [-0.11660205],
       [ 0.04123694],
       [-0.2378426 ],
       [ 0.34194967],
       [-0.08872461],
       [ 0.03502812],
       [ 0.04867774],
       [-0.01781973],
       [ 0.30306286],
       [-0.14985946],
       [ 0.1092234 ],
       [-0.37867755],
       [-0.02122351],
       [-0.05504847],
       [-0.11220027],
       [-0.19101469],
       [ 0.02976434],
       [-0.07292032],
       [ 0.15512271],
       [-0.32558522],
       [ 0.26215994]], dtype=float32)]


Weights_k:
[array([[-4.8437661e-01,  5.5016172e-01, -3.6245936e-01, -8.5843211e-01,
         2.2962077e-01, -3.2279459e-01, -3.9505509e-01, -8.5564220e-01,
        -6.1706066e-01,  5.5203313e-01, -4.3765655e-01,  8.7497219e-02,
        -1.2236588e+00,  6.8102723e-01,  7.3051894e-01, -8.9724636e-01,
         1.5111348e-01, -8.0224043e-01,  6.5500790e-01,  4.7450203e-02],
       [-1.4451425e-01, -1.0646001e+00, -8.1565388e-02,  2.0351449e-01,
        -4.0483810e-02,  8.9889422e-02,  1.8680224e+00, -8.5467231e-03,
        -7.4773663e-01, -3.4631956e-01, -2.5207141e-01, -4.9023402e-01,
         9.4949699e-04, -3.9465809e-01, -5.1843420e-02,  3.0378732e-01,
         4.0331098e-01,  9.5848106e-02, -3.5126394e-01, -7.2880441e-01]],
      dtype=float32), array([[ 1.07897371e-01,  5.07125437e-01,  1.53334960e-01,
        -3.64889801e-01,  3.54949683e-02,  1.84901714e-01,
        -8.26113224e-02,  8.07848349e-02,  6.45173550e-01,
         2.47275978e-02, -1.73640549e-01, -6.10552430e-02,
        -1.59342214e-01,  8.60888287e-02, -3.75782639e-01,
        -1.29777148e-01,  9.58021730e-02,  8.72833431e-02,
         5.33147573e-01, -3.86680514e-01],
       [ 8.46782848e-02, -9.15213227e-01, -2.35786244e-01,
        -5.13588250e-01,  2.07344547e-01,  5.96531220e-02,
         3.04104596e-01,  1.57445312e-01, -2.15111434e-01,
        -2.65127748e-01, -3.01682860e-01,  9.07271653e-02,
         3.45353097e-01,  5.10501027e-01,  3.72999161e-01,
         8.31312761e-02, -7.24117935e-01,  1.57580957e-01,
         1.73920915e-01,  4.43222433e-01],
       [-2.10955083e-01,  1.59525442e+00, -1.54191613e-01,
        -1.19054422e-01, -3.14266741e-01,  9.60528268e-04,
         4.52578247e-01,  4.29161191e-02,  1.03670311e+00,
         4.11780804e-01,  2.43387729e-01, -3.02274495e-01,
        -1.54422402e-01, -5.49513847e-03, -1.84462920e-01,
        -1.65674999e-01,  5.62143385e-01,  5.03594518e-01,
        -3.67093459e-02,  1.63357649e-02],
       [-5.57386458e-01,  1.45608366e-01, -3.16413254e-01,
         6.73009753e-01, -4.65108246e-01,  2.66576409e-01,
         4.32832718e-01, -9.81468633e-02,  2.95760721e-01,
         3.64074931e-02,  2.93751925e-01, -3.96807976e-02,
         1.80767655e-01,  3.20839018e-01,  7.31411099e-01,
        -4.12962675e-01,  1.37362242e+00,  3.55267376e-02,
        -9.01975259e-02, -1.66369691e-01],
       [ 8.07348847e-01,  6.01272702e-01,  4.95727062e-01,
        -2.59881556e-01,  6.33102059e-01, -1.45977825e-01,
        -2.21964478e-01, -1.26191929e-01,  3.77070040e-01,
        -4.36144352e-01, -2.61044919e-01, -3.19606841e-01,
         1.34438157e-01, -1.63140863e-01, -2.11946070e-01,
         1.77810296e-01, -4.77202922e-01, -2.25791931e-01,
         5.65803409e-01, -4.17254955e-01],
       [-5.40394843e-01,  1.13308859e+00,  2.43556887e-01,
         5.66464901e-01, -1.56849220e-01,  4.18534458e-01,
         3.63435358e-01,  1.88328862e-01,  1.19625151e-01,
         2.16508940e-01,  1.96972847e-01,  4.27829474e-02,
        -4.29224610e-01, -1.80426985e-01,  2.73218840e-01,
        -3.27993333e-01,  8.95494461e-01,  1.61146373e-01,
        -4.70749140e-01,  1.77533641e-01],
       [-6.44614339e-01,  7.00817764e-01, -3.76982689e-01,
         1.57833433e+00, -1.40866071e-01,  6.79320097e-02,
         3.71253788e-02, -4.33017105e-01, -4.70967263e-01,
        -3.13884079e-01,  1.68117598e-01,  3.27814370e-02,
         9.38030034e-02, -2.43784606e-01, -5.45836747e-01,
        -1.15589865e-01,  3.25867534e-01, -9.79203582e-02,
        -5.18832505e-01, -1.07569307e-01],
       [-4.05034572e-01,  5.32199204e-01,  4.71684821e-02,
         1.48642540e-01,  2.18327832e-03,  9.80757624e-02,
         9.82770860e-01,  3.12342215e-02,  5.35565674e-01,
         6.23924471e-02,  3.93454760e-01,  2.10463554e-01,
         8.89012292e-02, -7.26063363e-03,  2.82437891e-01,
         1.36581793e-01,  1.00094080e+00,  2.99052358e-01,
        -1.17254471e-02, -3.53665203e-01],
       [-5.63071966e-01,  1.14881396e+00,  1.84859693e-01,
        -7.33665302e-02,  9.01596919e-02,  2.50369105e-02,
         4.65365678e-01,  2.59540290e-01,  1.22334957e+00,
        -9.33635235e-02,  2.89964199e-01,  2.30257049e-01,
        -1.09058358e-01,  2.44243085e-01, -1.51632443e-01,
         8.31368286e-03,  2.64296710e-01, -5.58148846e-02,
         4.64680880e-01,  8.86112452e-02],
       [ 4.29656267e-01, -1.42925000e+00,  2.10576504e-01,
        -9.48451579e-01,  7.63338134e-02, -6.25474900e-02,
         2.11144630e-02, -1.27568901e-01, -1.95554942e-02,
         4.83621284e-02,  2.81780601e-01, -1.46970496e-01,
        -6.45119175e-02,  1.95322260e-01, -1.84973851e-01,
         8.01897794e-02, -4.57723230e-01, -6.11168742e-02,
         5.27209878e-01,  4.99464184e-01],
       [-7.03496754e-01,  6.96569204e-01, -2.85789102e-01,
        -1.21618873e-02,  8.10727626e-02, -4.66678664e-02,
         4.17286336e-01,  2.87843287e-01,  1.09338939e+00,
         1.37432009e-01, -2.54638076e-01,  3.47027361e-01,
         2.57347018e-01,  1.71413377e-01,  5.64276278e-01,
         1.53403819e-01,  4.18218076e-01, -2.31679797e-01,
         1.40570134e-01, -1.74387917e-01],
       [ 5.91105580e-01, -3.73898357e-01, -1.02186482e-02,
        -8.89856935e-01,  3.02224725e-01,  6.17450327e-02,
        -1.27200941e-02,  4.30430293e-01,  5.77655256e-01,
         1.17097780e-01,  7.88082108e-02,  4.62936834e-02,
         1.69955805e-01,  7.41662681e-01,  1.33083999e-01,
         1.00300238e-01, -1.04626723e-01, -2.46616453e-02,
         2.92777240e-01, -1.71380918e-02],
       [-5.50539494e-02,  1.03526747e+00, -2.99893469e-01,
         4.75223303e-01, -8.44870359e-02,  3.81405029e-04,
         1.07350039e+00, -6.89593405e-02,  9.21613395e-01,
         3.39310586e-01, -3.95092145e-02, -2.11376235e-01,
         7.13956952e-02,  3.72325689e-01, -2.47976631e-01,
        -3.53165835e-01,  3.86461824e-01,  7.00230151e-02,
         2.67840296e-01, -2.66093820e-01],
       [ 7.83985257e-01, -2.87767351e-02,  1.90175623e-01,
        -8.33608747e-01, -5.39970538e-03,  3.52927670e-02,
        -2.76984811e-01,  3.55094254e-01,  5.15202358e-02,
         1.41253173e-01, -2.18614697e-01, -5.35334051e-02,
        -1.19555600e-01, -2.17451483e-01, -1.19923890e-01,
        -8.09085295e-02, -7.27784812e-01,  9.42009836e-02,
         1.98447585e-01,  1.72272578e-01],
       [ 4.89872098e-01, -6.98458850e-01,  5.13882339e-01,
         2.08685815e-01,  1.39727175e-01, -5.13954312e-02,
        -6.02627039e-01, -2.69401283e-03, -2.01658100e-01,
        -2.83498645e-01,  2.05534875e-01,  2.27779150e-01,
        -2.47725531e-01, -2.00796708e-01, -4.31992412e-01,
         3.61103773e-01, -6.91829264e-01, -1.55600235e-01,
         2.28661876e-02,  3.09279829e-01],
       [-1.12142098e+00,  1.20397449e-01, -2.58293360e-01,
         4.81964976e-01, -1.83587283e-01,  1.13580115e-02,
         4.71448869e-01, -5.67781664e-02, -3.50666761e-01,
         4.48852871e-03,  2.03195587e-01,  3.39272708e-01,
        -2.48407617e-01, -2.26449724e-02,  6.06407583e-01,
        -4.85790730e-01,  8.16621959e-01, -2.05815852e-01,
        -4.55287576e-01, -4.83563572e-01],
       [-4.82766181e-02,  7.38268793e-01,  3.81260335e-01,
         1.66665539e-01,  4.09487039e-02,  8.45024809e-02,
        -6.62584722e-01, -1.07303783e-02, -6.29905343e-01,
        -1.39074400e-01,  2.06055149e-01, -1.35668054e-01,
        -1.81367755e-01,  1.80621937e-01, -5.92166901e-01,
        -9.14944932e-02, -4.53293264e-01, -1.54312730e-01,
        -9.36468169e-02, -2.28258163e-01],
       [-8.22372139e-01, -8.03504229e-01, -5.86849272e-01,
        -1.75823346e-01, -3.48581761e-01,  1.63484156e-01,
         7.28668928e-01,  2.40660727e-01,  1.18045725e-01,
         1.37779132e-01,  5.26304960e-01,  1.84830930e-02,
         1.22072846e-01, -3.78552713e-02,  6.68356061e-01,
        -2.33197153e-01,  8.29961956e-01,  3.95760566e-01,
        -8.34153667e-02, -8.72550607e-02],
       [ 7.15101600e-01, -1.04328789e-01,  2.47767195e-01,
        -6.52723730e-01,  3.81326944e-01, -4.37708348e-01,
        -7.63818771e-02, -4.79604527e-02,  4.17677402e-01,
         3.92346352e-01, -7.79766217e-02, -3.48934054e-01,
        -2.48486817e-01,  2.44759127e-01, -2.67006848e-02,
         2.37343550e-01, -7.60017991e-01, -3.50673497e-01,
        -6.40234128e-02,  1.80400804e-01],
       [ 2.42826968e-01, -5.73184371e-01, -2.28060052e-01,
        -4.25403029e-01,  1.60088509e-01, -1.90959796e-01,
         4.29425597e-01,  2.47587979e-01,  7.23688543e-01,
        -1.98370125e-03, -4.90229189e-01,  9.95153263e-02,
         3.13389689e-01,  3.45079988e-01,  5.60543180e-01,
         3.80749285e-01, -3.34604114e-01,  2.21535265e-01,
         6.05287910e-01, -1.91356748e-01]], dtype=float32), array([[-9.48589891e-02,  1.04703322e-01, -3.91663611e-01,
         1.10063806e-01, -4.41373885e-01, -3.23240131e-01,
        -5.42861372e-02,  4.71625805e-01,  1.26641124e-01,
        -3.64015222e-01,  2.16209646e-02, -3.26731920e-01,
         6.67425692e-02, -1.79794237e-01,  3.18810582e-01,
        -5.04941821e-01, -5.27658593e-03,  3.08020830e-01,
        -5.33761270e-02,  6.94631487e-02],
       [ 2.08896488e-01, -4.65194255e-01, -2.11212113e-01,
         1.18529722e-02,  3.22626173e-01,  7.13582993e-01,
         1.57616213e-01, -5.54821849e-01,  2.18954623e-01,
         2.48999875e-02, -2.42269263e-01, -4.47118402e-01,
         5.69319189e-01,  1.86500344e-02,  8.11541796e-01,
        -6.72561079e-02, -1.81716159e-01, -1.48488224e-01,
         1.12819523e-01, -2.04474941e-01],
       [ 4.15580988e-01,  1.81703493e-01,  2.38102078e-01,
         1.48151755e-01, -3.14652503e-01,  3.76404464e-01,
         6.29884563e-03, -4.32088934e-02,  1.20779204e+00,
        -4.64745969e-01, -8.88890177e-02,  4.78502847e-02,
         1.45199680e+00, -3.29424739e-01, -8.67844746e-02,
        -4.07877229e-02, -1.57838300e-01, -2.70523012e-01,
        -7.55031034e-02, -1.50897071e-01],
       [-1.04703180e-01, -4.98234242e-01, -3.52021933e-01,
         1.54052749e-01,  2.92412370e-01,  3.32073659e-01,
         1.55694738e-01, -2.05316305e-01,  8.01555634e-01,
         2.93265022e-02,  2.29507908e-01, -1.23661414e-01,
        -4.09372061e-01,  9.57593098e-02, -2.02573434e-01,
        -2.83750355e-01,  6.02505207e-02,  8.14000890e-02,
         2.98536956e-01,  3.68589550e-01],
       [ 1.44610927e-01,  5.57214141e-01, -8.07812903e-03,
         2.79106170e-01, -2.43201166e-01,  5.73192537e-02,
        -8.77908543e-02,  1.74880520e-01,  4.94112819e-01,
        -2.94546306e-01, -1.32584237e-02, -1.55932054e-01,
         2.42638469e-01,  1.21311560e-01,  5.72033264e-02,
         1.88722447e-01, -1.74145594e-01,  4.08578128e-01,
         7.91976526e-02,  4.92636338e-02],
       [ 3.89444500e-01, -2.20937699e-01,  3.62759084e-01,
        -1.15607850e-01,  1.44649252e-01,  6.55236423e-01,
        -1.37696058e-01, -1.77499071e-01, -1.00705194e+00,
         3.06961834e-01,  2.42070332e-01, -3.18575084e-01,
        -3.33083063e-01, -5.14040068e-02,  8.64870846e-03,
         1.80770159e-01,  1.04700312e-01, -3.08060467e-01,
         2.36213163e-01, -5.20420134e-01],
       [ 2.13637367e-01,  2.01332234e-02,  2.27277771e-01,
         3.96369308e-01,  6.54995620e-01, -4.82816249e-02,
        -1.88018575e-01, -1.26750976e-01, -7.81264603e-02,
        -2.46158659e-01,  2.27196530e-01,  8.39568600e-02,
        -2.34434590e-01,  1.21904157e-01, -3.58987808e-01,
         9.46175605e-02,  3.84657667e-03, -1.41493857e-01,
         1.43102258e-01, -5.38094163e-01],
       [-3.23397130e-01,  5.85167766e-01, -8.59985054e-02,
         1.25948992e-02, -2.89666206e-01,  1.79751795e-02,
        -1.18206143e-01,  2.77780503e-01, -5.07489979e-01,
         3.36393639e-02, -1.66856930e-01,  6.77430676e-03,
         5.30545088e-03, -8.88432860e-02,  6.64017439e-01,
        -8.41827542e-02, -2.54501164e-01,  3.13114107e-01,
        -9.68869999e-02, -2.94595331e-01],
       [ 1.84748769e-01, -5.49915373e-01,  1.82397932e-01,
        -6.87933192e-02, -1.32555962e-01,  4.46799994e-01,
         5.34764349e-01,  1.67504475e-01, -1.02348160e-02,
        -1.35524571e-01, -3.93421855e-03, -2.24104878e-02,
        -1.94057912e-01, -2.26816833e-02,  2.47007355e-01,
         8.76307487e-02,  1.25449091e-01,  8.36043805e-02,
        -2.20203996e-01, -7.15563118e-01],
       [ 2.93592036e-01,  3.27997565e-01,  7.82917738e-02,
        -2.90601432e-01, -1.10428788e-01,  1.98926657e-01,
         4.66301113e-01, -1.06219752e-02, -4.06426460e-01,
         2.72044986e-01,  1.46106377e-01,  2.30922490e-01,
        -4.43524241e-01,  3.04735959e-01,  2.20900550e-01,
         1.95201501e-01, -2.04132348e-01, -2.52938241e-01,
         3.13276231e-01, -2.90897191e-01],
       [ 2.97801375e-01,  2.63389915e-01,  2.07985076e-03,
        -1.47584621e-02,  3.26517493e-01,  2.71292657e-01,
         4.13597263e-02, -2.93094218e-01, -4.25568707e-02,
         5.62152028e-01,  1.05552137e-01, -1.87735960e-01,
         5.06503284e-02,  1.09967440e-02, -3.09247553e-01,
         2.69074887e-01,  7.12564215e-04,  9.74213183e-02,
        -2.23124698e-01, -5.02678752e-01],
       [-2.35397518e-02, -9.98925716e-02,  3.45721506e-02,
         1.19526312e-01,  4.57830548e-01, -1.25545353e-01,
         2.75694638e-01,  8.41340050e-02, -2.03479543e-01,
        -3.28333199e-01,  1.34959579e-01,  3.82520944e-01,
        -6.92874491e-02, -2.81162709e-01, -1.20698720e-01,
         1.26382157e-01, -3.31619829e-02, -1.45945773e-01,
         2.06030995e-01,  1.02517143e-01],
       [ 2.10874766e-01, -4.27296340e-01, -1.92629963e-01,
         1.45356897e-02,  1.05277844e-01, -3.24789286e-01,
        -1.81234255e-01,  2.60011762e-01, -6.61725402e-01,
         2.15988934e-01, -5.13268150e-02, -2.69737601e-01,
        -1.27439272e+00,  8.10597464e-02,  3.52734327e-01,
        -3.21757883e-01, -1.30821913e-01, -5.61470762e-02,
        -2.45769069e-01, -2.97118902e-01],
       [-1.28940567e-02, -4.67731915e-02, -7.95198753e-02,
        -8.54695365e-02, -1.85188964e-01, -8.80774915e-01,
         1.25435829e-01,  3.94759446e-01, -2.06390366e-01,
         8.99272114e-02, -6.48205802e-02,  5.21735400e-02,
        -4.64681983e-01, -5.78140207e-02,  5.42535722e-01,
        -2.03300804e-01, -6.55392110e-01, -1.27367690e-01,
         7.64131965e-03,  6.55193254e-02],
       [-3.41234952e-01, -1.41876161e-01,  1.34968922e-01,
        -5.40441275e-01, -4.66786921e-01, -1.26877487e-01,
        -1.86998278e-01,  1.15415946e-01, -1.01615357e+00,
         6.87575996e-01, -3.00177298e-02,  1.76266074e-01,
        -1.20030260e+00, -4.62582968e-02, -4.87784967e-02,
        -1.78554058e-01,  2.93644667e-01, -9.23260823e-02,
        -2.41776466e-01, -2.12263882e-01],
       [-7.57281110e-02,  3.58767092e-01,  3.16383205e-02,
         4.37017623e-03,  1.03848234e-01, -8.09270740e-01,
         2.94953257e-01,  4.54688877e-01, -4.46845517e-02,
        -5.11971891e-01,  2.26996288e-01, -3.32893759e-01,
         4.60314184e-01,  3.58885266e-02, -2.35567957e-01,
        -3.07167530e-01, -1.51558235e-01, -9.66278687e-02,
        -1.09406531e-01,  7.76218951e-01],
       [-2.28906691e-01, -1.24628305e-01,  1.81260090e-02,
        -1.98820550e-02,  2.52795741e-02,  4.01180208e-01,
         5.99868707e-02,  4.74605244e-03, -5.55230916e-01,
         7.86851585e-01, -2.76017427e-01,  5.06464578e-02,
        -7.69267440e-01, -1.18687354e-01,  2.86303684e-02,
        -1.86875328e-01, -1.36760309e-01, -1.66372284e-01,
        -2.70138860e-01, -7.53113091e-01],
       [ 4.55519587e-01, -1.00396397e-02, -3.51168588e-02,
         1.86770950e-02,  1.19356103e-01,  1.01948470e-01,
         1.32673457e-01,  3.03832978e-01, -1.69128120e+00,
         6.98119760e-01,  2.22372994e-01,  2.98779994e-01,
        -1.06971681e+00,  3.08548883e-02, -9.56842080e-02,
         5.72713502e-02,  6.65319562e-02,  1.68019775e-02,
         1.48313329e-01,  3.51471342e-02],
       [-2.54281133e-01,  3.42979699e-01,  1.13394752e-01,
         1.78368986e-01, -7.88772404e-02, -2.68739730e-01,
        -3.16279829e-01, -1.05506852e-01,  3.64406586e-01,
         2.60409396e-02,  3.75961721e-01,  2.22163647e-01,
         7.32630670e-01,  9.18563902e-02, -3.14867586e-01,
         3.84373441e-02, -4.65489149e-01,  9.57724601e-02,
         3.02142501e-01, -5.04032075e-01],
       [ 2.67018795e-01, -2.76605695e-01,  3.32256526e-01,
         3.58812183e-01,  1.02031089e-01, -1.98489130e-01,
        -4.99058701e-02,  2.52677888e-01,  3.98283094e-01,
        -3.96458924e-01, -9.19338167e-02, -4.17618603e-02,
         2.78697997e-01, -4.58790269e-03, -4.39595491e-01,
         2.33268648e-01,  3.42267215e-01, -1.96580112e-01,
        -1.73111290e-01,  3.96700293e-01]], dtype=float32), array([[-0.6239575 ],
       [-0.34897938],
       [-0.6003646 ],
       [-0.3191414 ],
       [-0.52950114],
       [ 0.18861544],
       [-0.32440493],
       [ 0.5536711 ],
       [-0.17000568],
       [ 0.41770858],
       [-0.4559391 ],
       [-0.1788743 ],
       [-0.3218556 ],
       [-0.04567569],
       [ 0.3831468 ],
       [-0.5097988 ],
       [ 0.28638142],
       [ 0.44111907],
       [-0.37231112],
       [-0.40933073]], dtype=float32)]


Weights_h:
[array([[-0.3847942 , -0.04948629,  0.24677642, -0.23875709,  0.05156523,
        -0.20742881, -0.21824352, -0.06401967, -0.27852044, -0.02240024,
         0.25755304,  0.18873529, -0.03202347,  0.23602533, -0.03530238,
         0.16433482, -0.05650025,  0.05088195, -0.06550679, -0.1382626 ,
         0.11936234,  0.02564701,  0.06707189, -0.26239616, -0.10346323,
         0.09673453, -0.21234682, -0.09207831, -0.17807688,  0.15526433,
        -0.29707652, -0.03676382],
       [-0.33513674, -0.18489185,  0.06239164, -0.19025156, -0.0101442 ,
        -0.04081805, -0.11376446, -0.04229528, -0.24654998,  0.2349803 ,
         0.20441197,  0.17320421, -0.1103617 ,  0.3836468 , -0.00348098,
        -0.35042274,  0.00902804, -0.3705562 ,  0.2899864 ,  0.18666182,
        -0.02002633, -0.37947112, -0.01253294, -0.12768048, -0.3302281 ,
        -0.01156785,  0.14746457,  0.0364135 ,  0.25202355, -0.25384378,
        -0.04984817, -0.21131259]], dtype=float32), array([[ 0.09194116, -0.17335773,  0.09601409, ..., -0.07172847,
         0.09723873, -0.12559257],
       [ 0.0792105 ,  0.03344706,  0.11776788, ...,  0.12338252,
         0.20829958, -0.05623387],
       [ 0.02874343,  0.02338286, -0.04900435, ...,  0.12100572,
         0.03710907,  0.0522728 ],
       ...,
       [-0.25116593, -0.08184017,  0.24272752, ...,  0.10158588,
         0.32422888, -0.23551747],
       [-0.17285287, -0.3381873 ,  0.03805894, ..., -0.09182721,
         0.16076602,  0.16624102],
       [-0.02222054, -0.21406713,  0.03391899, ...,  0.11497474,
        -0.12312885, -0.03046631]], dtype=float32), array([[ 0.01018026, -0.03925708,  0.21420872, ...,  0.09495685,
        -0.18163879, -0.11779539],
       [ 0.0113268 , -0.2960281 , -0.26057416, ..., -0.11653978,
         0.02164994, -0.21261981],
       [ 0.0042045 ,  0.07931965, -0.3090617 , ...,  0.05754375,
        -0.03637549,  0.07554075],
       ...,
       [-0.09785339,  0.19730261,  0.19000147, ...,  0.1329379 ,
         0.18629673,  0.0533314 ],
       [ 0.03400845, -0.0655346 , -0.08878192, ..., -0.00805781,
         0.00066319, -0.08710948],
       [ 0.01120411, -0.20655243,  0.07101776, ...,  0.01610675,
         0.1589889 , -0.32596985]], dtype=float32), array([[-0.01565349],
       [ 0.11162023],
       [-0.3251682 ],
       [-0.03965157],
       [ 0.05331318],
       [-0.00968867],
       [ 0.3363216 ],
       [-0.07715577],
       [ 0.4663127 ],
       [ 0.3354981 ],
       [ 0.06902552],
       [-0.24426116],
       [-0.13933954],
       [-0.0180802 ],
       [-0.18084541],
       [ 0.1622704 ],
       [ 0.16364646],
       [ 0.24967502],
       [ 0.20082943],
       [ 0.04129044],
       [ 0.37992406],
       [ 0.08060747],
       [-0.2853554 ],
       [ 0.0861797 ],
       [-0.32356298],
       [ 0.10788144],
       [-0.34842527],
       [-0.17330487],
       [-0.03875805],
       [-0.43936598],
       [-0.35634166],
       [-0.08395713]], dtype=float32)]


Weights_c:
[array([[-0.13622867,  0.42338312, -0.15675224, -0.32363656, -0.17980838,
         0.05629794, -0.07583773,  0.30347443, -0.1349772 ,  0.24305099,
        -0.4092207 , -0.3735009 ,  0.09488913, -0.33440706, -0.05949428,
        -0.29759374, -0.19795848, -0.35358143, -0.06076776, -0.05803337,
         0.15161946, -0.04768752, -0.2998307 , -0.15278476, -0.35588375,
        -0.08726347,  0.00589391,  0.28316075, -0.13023134,  0.41367993,
         0.4020938 , -0.1483381 ],
       [ 0.08978734, -0.00890773,  0.11880561,  0.23088348, -0.0555931 ,
        -0.14995074,  0.273828  ,  0.17952684,  0.21569912,  0.10075775,
        -0.21407801, -0.04635951, -0.19050644,  0.24149464, -0.2934903 ,
        -0.32948896, -0.02040687,  0.4164493 , -0.0814971 ,  0.45980972,
         0.00654618,  0.3216357 , -0.25729465, -0.10112642,  0.2957573 ,
         0.31495658, -0.12426634,  0.2900583 , -0.27321368, -0.19987638,
         0.2101588 ,  0.1513096 ]], dtype=float32), array([[ 0.29732078,  0.03540108,  0.1635939 , ...,  0.19236319,
        -0.1472768 ,  0.0139805 ],
       [ 0.19454236, -0.08634178,  0.10947739, ...,  0.03405735,
        -0.14790235, -0.0009466 ],
       [-0.0088187 , -0.21634892, -0.01317325, ..., -0.04822404,
         0.01997719,  0.07304514],
       ...,
       [-0.11606478,  0.09968559, -0.1909063 , ...,  0.02873203,
         0.19393866,  0.06193072],
       [ 0.00252427, -0.2394489 , -0.12123157, ..., -0.05189986,
        -0.17629506,  0.18243061],
       [-0.05971986,  0.19113524,  0.05141175, ...,  0.07302216,
        -0.01481896, -0.04089622]], dtype=float32), array([[-0.00089215,  0.1211469 , -0.05319216, ...,  0.16930425,
         0.12946188,  0.0407088 ],
       [-0.08425625, -0.33784568, -0.06500454, ..., -0.18562123,
         0.13479383, -0.00340043],
       [ 0.10126544,  0.0596708 , -0.3345778 , ..., -0.0576431 ,
         0.12685978, -0.22224922],
       ...,
       [-0.11011127, -0.05950799,  0.22059968, ..., -0.02914822,
        -0.03456303,  0.02283335],
       [-0.18414769,  0.20103744,  0.3129413 , ..., -0.17992538,
        -0.14682287, -0.0979409 ],
       [ 0.09176545, -0.15499635, -0.13979758, ..., -0.01998837,
         0.21740592, -0.00665311]], dtype=float32), array([[-0.02168287],
       [-0.03359716],
       [-0.34869012],
       [ 0.38278785],
       [-0.07443333],
       [ 0.12078632],
       [-0.05771888],
       [-0.21379422],
       [ 0.07108034],
       [-0.37464947],
       [ 0.37116486],
       [-0.1801672 ],
       [-0.12809238],
       [ 0.03691423],
       [ 0.01316369],
       [ 0.2842414 ],
       [-0.06493585],
       [ 0.09263818],
       [-0.15633747],
       [-0.15200108],
       [-0.30846697],
       [ 0.21564965],
       [-0.48064598],
       [-0.33955863],
       [ 0.13439439],
       [-0.00347315],
       [-0.2916215 ],
       [-0.20961083],
       [ 0.09588093],
       [-0.06549325],
       [ 0.19615898],
       [ 0.06145195]], dtype=float32)]


Weights_k:
[array([[-0.01693061, -0.4106494 , -0.6745819 , -0.7935823 ,  0.65574497,
         0.45477983, -0.8739374 ,  0.25896376,  0.3232909 ,  0.23963661,
         0.21023442, -1.0716519 , -0.01858968,  0.12290309, -0.56012076,
        -0.16281518, -1.5223336 , -0.67539513,  0.38827324, -0.47913304],
       [ 0.2623326 ,  0.84078705, -0.11266571, -0.42593357,  0.10102069,
         0.26455456,  0.19818148, -1.2055035 , -0.23394838,  1.4431564 ,
         0.18458791,  0.0739779 , -0.76322913,  0.24957074,  0.79615647,
        -0.51320523, -1.2138551 ,  0.65115273,  0.3525119 ,  0.48612732]],
      dtype=float32), array([[-0.38030997,  0.54078865, -0.17750631, -0.2423568 , -0.94391584,
        -0.15747583, -0.04484298,  0.20736717, -0.204546  , -0.2225451 ,
        -0.05878747,  0.37045357, -0.20871083, -0.12909405, -0.30796993,
         0.26840553,  0.4780333 , -0.21627259, -0.6078246 , -0.10537037],
       [ 0.0802288 , -0.31620717,  0.00411651,  0.35035577, -0.19220838,
        -0.05702433,  0.3652588 ,  0.32033265,  0.98588544, -0.03035148,
        -0.16503476, -0.35635248, -0.23419817,  0.31202194, -0.44961953,
        -0.7573238 ,  0.0173297 ,  0.1279156 ,  1.0497206 ,  0.79712045],
       [ 0.0448758 , -0.06844756, -0.14300388,  0.3414253 , -0.8563703 ,
         0.11424708, -0.53216434,  0.4366476 ,  0.7695232 , -0.02184246,
        -0.5428658 , -0.02085898,  0.12936518,  0.7801483 , -0.06300001,
        -0.32296357, -0.07254473, -0.04168835,  1.0781205 ,  0.21509297],
       [ 0.06106522, -0.0775338 , -0.54315865, -0.13346362, -1.2242624 ,
         0.13374828, -1.0719435 ,  0.31852052,  0.06444409, -0.5010361 ,
        -0.15899268,  0.09248956, -0.45078927,  0.07337151, -0.12187915,
        -0.26986665, -0.04874177, -0.2890019 ,  0.7892997 ,  0.2166653 ],
       [-0.24038449,  0.40440404, -0.13100669, -0.24606062,  0.29564303,
        -0.02493019,  0.3173175 ,  0.07446976, -0.7831909 ,  0.21478823,
         0.602057  ,  0.19069625, -0.2693741 , -0.22027884, -0.43428484,
         0.5669434 ,  0.02332444,  0.36447895, -0.07003701, -0.16753432],
       [-0.09689783,  0.13574483, -0.19090883,  0.02657555, -0.7392275 ,
         0.05629109,  0.41317275,  0.03543714, -0.2352826 ,  0.00340014,
         0.5107063 ,  0.1284812 , -0.4135776 , -0.22544356, -0.28352973,
        -0.00972331,  0.16626243, -0.09322994, -1.0447222 , -0.34186032],
       [ 0.11784323, -0.47054532, -0.23402862, -0.31981564, -0.91027457,
         0.52535784, -0.4862065 ,  0.2484864 ,  0.1003677 , -0.05917122,
        -0.2884682 ,  0.4067769 , -0.24997567,  0.63024575,  0.11444078,
        -0.4907933 ,  0.1414672 , -0.29686123,  0.86938095,  0.15184402],
       [ 0.24665137,  0.08633026,  0.28705212, -0.23272161,  0.9850964 ,
        -0.0983151 , -0.0063078 , -0.03451019, -0.33276024, -0.68863803,
        -0.18959494, -0.02644562,  0.34161642, -0.28835824,  0.5678985 ,
         0.1352472 , -0.7876696 , -0.79239345, -0.03539617, -0.39737818],
       [ 0.13852146,  0.4280273 , -0.13191254, -0.5088018 ,  0.06940417,
         0.08553257,  0.11973682, -0.21593623, -0.9389271 , -0.33873543,
         0.41967437,  0.35685983, -0.1047793 , -0.48844695,  0.1913896 ,
         0.38548455, -0.04748487, -0.28698048, -0.4763416 , -0.6524738 ],
       [ 0.09251272, -0.31208816, -0.30850077, -0.1152965 ,  0.36719823,
         0.36097386,  0.5956758 ,  0.11768065, -0.03529836,  0.8107671 ,
        -0.05617828,  0.25543022, -0.2610533 ,  0.3306213 , -0.22339083,
        -0.03275223,  0.4216862 , -0.29207256, -0.7113381 ,  0.23021364],
       [ 0.09769945,  0.13244678, -0.1793526 ,  0.3128334 ,  1.011204  ,
        -0.03942741,  0.4563918 , -0.02413288,  0.14982913,  0.24366286,
         0.37226504, -0.25748146, -0.15625325, -0.14451747, -0.18338081,
         0.17751093,  0.1416411 ,  0.19912934, -0.04345   ,  0.46371987],
       [ 0.14510767, -0.31868345, -0.42262992, -0.09915977, -0.7109268 ,
         0.10610389, -0.47727728, -0.30243096,  0.09264505, -0.34111327,
        -0.1855581 , -0.24939048, -0.07058025,  0.6898575 , -0.48251894,
        -0.40153968,  0.2795936 , -0.13159704,  0.6899041 ,  0.03126201],
       [ 0.04797998, -0.06691808, -0.0085875 ,  0.22448535,  0.42774728,
        -0.12492707, -0.18689911, -0.31958008, -0.16985525, -0.18122579,
        -0.4364035 ,  0.02827751,  0.5425128 , -0.0544452 ,  0.50918525,
        -0.04927241, -0.58551633, -0.29055187,  0.56712675, -0.01706111],
       [ 0.05722482,  0.1746598 , -0.10813835,  0.32771775,  0.43996644,
         0.25502178,  0.5136414 ,  0.08904518,  0.21480024,  0.21663557,
         0.07598192, -0.36246154, -0.17512916,  0.03029894, -0.13201536,
        -0.09851056,  0.16795376,  0.10306943, -0.10741885,  0.46111694],
       [-0.16779287, -0.4478325 , -0.14108743,  0.15283121, -0.58394206,
         0.14816645,  0.297104  ,  0.35919482,  0.2878414 ,  0.40126672,
        -0.28137407, -0.1955496 , -0.27629608,  0.6909023 , -0.55694354,
        -0.9706789 ,  0.50371087,  0.34999058,  0.6412227 ,  0.680598  ],
       [-0.05131374, -0.1961759 ,  0.1552638 ,  0.16228788,  0.18607621,
         0.15721945, -0.30266327, -0.08500464,  0.36334705, -0.5639577 ,
        -0.5817358 , -0.24837846,  0.34684366,  0.08120067,  0.02999432,
         0.04120962, -0.52042484, -0.4212526 ,  0.2911665 , -0.10409528],
       [-0.17877187, -0.475186  , -0.03517614,  0.35318133, -0.56127703,
         0.16654557, -0.9157581 ,  0.2503498 ,  0.6467626 , -0.32127285,
        -0.31388247, -0.4539633 , -0.01344065,  0.26698947, -0.14868455,
        -0.40308958,  0.03699291, -0.0707991 ,  0.603413  ,  0.29903573],
       [ 0.24841979, -0.30880916, -0.32760495, -0.10413996, -0.26147866,
         0.25682572,  0.5115651 ,  0.20588501,  0.9471315 ,  0.04567733,
        -0.30327022, -0.35208485, -0.07435775,  0.34753472, -0.17205401,
        -0.7975872 ,  0.2990978 ,  0.40532967,  0.07098486,  0.90597796],
       [-0.02719733,  0.44292313, -0.1076375 , -0.56244296,  0.09740484,
         0.14723995,  0.57791424, -0.10896957, -0.15929973,  0.20347086,
         0.34395903,  0.40372258, -0.08737087, -0.18686508, -0.50521   ,
         0.5327273 ,  0.37291402,  0.18345466, -0.17675208, -0.05239908],
       [ 0.03504936,  0.10855445, -0.43042058, -0.21276371, -0.9151532 ,
         0.02515318, -0.5056274 ,  0.09325825,  0.33084732,  0.2019899 ,
        -0.2905761 ,  0.16462137,  0.01173169,  0.73422986, -0.11481197,
        -0.46553436,  0.35024777, -0.08968494,  0.94334054,  0.38280043]],
      dtype=float32), array([[-7.37194493e-02,  2.62097806e-01,  1.84509173e-01,
        -8.66647214e-02,  3.10132653e-01, -1.97772846e-01,
        -1.03509597e-01, -1.12735130e-01,  1.22845046e-01,
        -1.86938971e-01, -2.42425740e-01,  3.24582279e-01,
        -5.32051958e-02,  7.04531595e-02, -3.22430134e-01,
        -2.79307872e-01, -2.33529508e-01, -8.21114033e-02,
         2.09590986e-01,  3.28277290e-01],
       [-3.86470050e-01,  1.03099130e-01,  1.14304207e-01,
         4.36934270e-02, -5.86191006e-03,  6.12392724e-01,
         1.91336289e-01, -1.15237609e-02,  3.41269523e-01,
        -1.55866206e-01,  8.10750872e-02,  1.71345323e-02,
         7.43967533e-01,  5.78881800e-01,  6.79270132e-03,
        -6.90225065e-02, -2.28492200e-01,  3.49551030e-02,
         5.35449922e-01,  1.00736126e-01],
       [ 1.00714847e-01,  1.00051023e-01,  1.86323792e-01,
        -2.99967915e-01, -3.18503976e-02,  1.95523024e-01,
        -1.22293666e-01,  1.90009758e-01,  4.39739108e-01,
        -3.20399821e-01,  3.08075696e-01,  4.81561095e-01,
        -1.37873054e-01, -4.78363663e-01,  4.42544729e-01,
        -3.27294230e-01,  2.92373132e-02, -5.15234530e-01,
         2.97537565e-01, -1.05157048e-01],
       [ 2.47058664e-02,  7.42777288e-02, -1.35137632e-01,
        -6.47041202e-02,  1.69122964e-01, -7.66351283e-01,
        -3.02194636e-02,  1.75652653e-01, -3.02901596e-01,
         5.88547066e-02, -1.87376723e-01,  4.16936837e-02,
        -2.87698776e-01, -1.31428555e-01, -2.13513672e-01,
         3.91518444e-01, -6.23349428e-01,  3.77999812e-01,
         1.32376468e-03,  3.51895750e-01],
       [ 3.27194303e-01,  2.20127106e-01,  2.18339767e-02,
        -1.09846324e-01,  1.06500216e-01,  6.66324571e-02,
        -1.31989494e-01,  9.34822708e-02,  9.93092656e-02,
         7.14783594e-02,  2.09888533e-01,  7.39066064e-01,
         1.31833926e-01, -8.49729836e-01, -8.48888084e-02,
         3.62127900e-01,  2.87517369e-01, -4.13977325e-01,
        -3.51327837e-01,  6.13584146e-02],
       [ 5.72862476e-02,  2.64152169e-01,  5.13481535e-02,
         4.88697328e-02, -2.22053360e-02, -4.99872178e-01,
         1.05361156e-01, -1.02256931e-01, -3.51535797e-01,
        -1.46657497e-01, -3.17154288e-01, -5.16663849e-01,
         3.44501644e-01,  6.08412683e-01, -1.30627379e-01,
         1.14327177e-01,  1.75626144e-01,  5.87685704e-01,
        -4.02683228e-01, -2.20381275e-01],
       [ 1.24598220e-01,  1.72902599e-01,  7.77899995e-02,
        -1.43049672e-01, -3.35856795e-01, -1.83566555e-01,
         5.15248068e-02,  1.66278780e-01,  2.88021773e-01,
         6.72258377e-01,  8.28238949e-02,  9.44044162e-03,
         3.76869321e-01, -7.09095418e-01, -1.06806763e-01,
         1.05964996e-01,  7.00132689e-03, -4.30538148e-01,
        -1.38532013e-01,  2.04654843e-01],
       [-2.46992469e-01, -1.58705547e-01, -1.68045774e-01,
         3.10231090e-01,  1.37786001e-01,  1.05148233e-01,
        -2.90401518e-01, -2.49550596e-01,  1.61582716e-02,
        -1.33861095e-01, -5.12825012e-01, -3.86184275e-01,
         1.76959902e-01, -1.13554753e-01,  2.54462779e-01,
         2.41190158e-02, -2.20501617e-01,  1.57004938e-01,
        -2.26926908e-01,  1.99716408e-02],
       [ 1.43254846e-01, -1.15857206e-01, -3.43304396e-01,
        -4.00991850e-02,  1.39963865e-01, -8.30476940e-01,
        -4.08041090e-01, -6.30078688e-02, -5.07242441e-01,
         1.78668454e-01, -6.84196055e-01, -2.73786187e-02,
        -4.11324829e-01, -6.18991852e-01, -1.96881980e-01,
        -1.44420877e-01, -6.02403998e-01, -1.37348268e-02,
        -1.75493807e-01,  2.39214778e-01],
       [-4.15415764e-01,  7.85508528e-02,  5.27703464e-01,
        -2.34478995e-01, -8.80790874e-02, -3.96301031e-01,
        -9.49626938e-02, -2.33420610e-01,  2.83601075e-01,
        -1.44968005e-02, -2.68426180e-01,  1.35892943e-01,
         4.20419574e-01,  4.37967151e-01, -3.22362393e-01,
        -2.66837060e-01, -6.12549424e-01, -1.65465981e-01,
         1.15336142e-01,  6.01062514e-02],
       [-1.40377834e-01, -2.06906751e-01,  1.66490316e-01,
         7.32263476e-02, -2.79533207e-01, -3.72825451e-02,
        -1.40772045e-01,  3.54384333e-01,  1.84715688e-01,
         2.46173576e-01, -2.59304121e-02,  8.59286338e-02,
         6.72274530e-01,  6.99081421e-01, -5.43913841e-02,
        -1.91722512e-01,  4.67409678e-02, -7.55875185e-02,
         5.77692017e-02,  5.04097249e-03],
       [-1.17857382e-01, -1.86241105e-01, -1.96732938e-01,
         4.15735722e-01,  7.12124854e-02,  6.19988561e-01,
         1.72230065e-01,  2.11987689e-01,  6.76570952e-01,
        -1.54960334e-01,  2.25833282e-01, -7.37422407e-02,
         5.48814237e-01,  4.05286849e-01,  2.06372127e-01,
         7.71694481e-02,  4.84759688e-01, -1.38933912e-01,
         2.75544733e-01, -3.85412663e-01],
       [ 2.93264806e-01,  1.34517670e-01,  4.56809312e-01,
        -4.18277502e-01, -1.63207769e-01,  2.79181916e-02,
         3.52486223e-01,  1.71846375e-01,  3.34326655e-01,
         1.82310946e-03,  5.09252071e-01, -4.45841312e-01,
         6.14938401e-02, -7.62232482e-01, -1.31696612e-01,
        -2.03284081e-02,  2.48595670e-01, -3.43890429e-01,
         4.74027032e-03, -4.13365699e-02],
       [-4.22244295e-02, -1.99875563e-01,  3.40597034e-01,
         2.56949723e-01, -4.82460260e-01, -2.82660365e-01,
         2.07680557e-02, -2.33710244e-01,  1.04243420e-01,
        -2.62118310e-01, -2.52908856e-01, -1.23877995e-01,
        -8.27221692e-01, -6.84838593e-01,  3.06922458e-02,
        -1.27988920e-01,  1.87667966e-01, -4.67441045e-02,
        -5.79113722e-01,  1.51318302e-02],
       [ 7.36124367e-02,  2.57816374e-01,  3.03072900e-01,
        -1.37752116e-01,  1.96619466e-01,  2.33415037e-01,
         1.96821734e-01,  2.98326761e-01,  2.57381767e-01,
         4.21934687e-02,  3.44970316e-01,  3.33990335e-01,
        -4.16804366e-02, -6.10085785e-01,  8.50969851e-02,
         2.27600783e-01,  1.32533208e-01, -3.73299271e-01,
         4.09681022e-01, -1.39645696e-01],
       [-2.23640382e-01,  6.63102642e-02, -4.76216450e-02,
         1.31472901e-01,  1.50108546e-01,  2.90796340e-01,
        -2.25863629e-03,  1.33786455e-01, -2.07756460e-01,
         1.19964786e-01,  1.15759797e-01, -2.84004658e-01,
         8.79651725e-01,  1.46362150e+00,  2.80145579e-03,
        -3.80118191e-01,  9.85945538e-02,  1.53461784e-01,
         6.05497658e-01,  1.53787941e-01],
       [-1.61428183e-01,  2.85198122e-01, -5.63618504e-02,
        -1.23737752e-01,  7.23967180e-02,  9.79151204e-02,
        -1.82603016e-01, -3.82760242e-02, -3.22047561e-01,
        -1.15129448e-01, -2.38604695e-01, -4.52725291e-01,
        -2.42719486e-01,  6.13597870e-01, -3.03621024e-01,
         1.62714854e-01, -2.20627010e-01,  1.88322857e-01,
         6.45264164e-02, -3.34203988e-01],
       [ 3.81080247e-02, -2.62392461e-01,  2.47313783e-01,
         3.69735003e-01, -1.60718471e-01,  1.61296710e-01,
        -1.99979097e-02, -3.75910312e-01, -4.42048997e-01,
        -2.06350848e-01,  2.01715723e-01, -2.41455585e-01,
         2.31623203e-01,  6.54557765e-01,  8.93628001e-02,
         1.47157339e-02, -4.93205667e-01, -8.59873593e-02,
         7.13024735e-02,  3.33444774e-02],
       [ 7.20474243e-01, -2.14260234e-03,  1.71425924e-01,
        -2.29093611e-01,  2.62850188e-02,  1.16286851e-01,
         8.82540844e-05,  2.40555480e-02, -5.66926062e-01,
        -1.91309229e-01, -7.13716030e-01,  2.96321690e-01,
         9.27530885e-01,  2.20617503e-01, -8.08094293e-02,
        -3.05974126e-01, -4.98520821e-01, -9.46213678e-02,
         1.16764568e-02,  3.60198505e-02],
       [-6.04119785e-02,  1.30132958e-01, -3.03175211e-01,
         1.31470114e-01, -2.53105044e-01, -8.47248733e-01,
        -4.41568829e-02, -1.56473637e-01, -2.33057901e-01,
         6.29292205e-02, -1.58308357e-01,  3.79267126e-01,
        -6.94663823e-01, -2.87910819e-01, -1.10359237e-01,
        -1.60620853e-01, -6.32973194e-01, -2.94191062e-01,
         7.96795413e-02,  2.11887285e-01]], dtype=float32), array([[ 0.14661728],
       [-0.44535935],
       [ 0.1140371 ],
       [ 0.28794074],
       [-0.5103224 ],
       [ 0.28833085],
       [ 0.05885693],
       [ 0.18743432],
       [ 0.55642194],
       [-0.1622539 ],
       [ 0.52011544],
       [-0.25912666],
       [-0.7431475 ],
       [-0.60475475],
       [ 0.529363  ],
       [-0.18671031],
       [-0.3182707 ],
       [-0.48209676],
       [-0.39261043],
       [-0.18216823]], dtype=float32)]


Weights_h:
[array([[-0.30400786,  0.01792022,  0.06938045,  0.02330546, -0.06868703,
         0.37080288,  0.01202486,  0.01886149,  0.10361246, -0.15670668,
        -0.03693129, -0.2700748 ,  0.06063279, -0.04794429, -0.18770742,
        -0.43031457,  0.0885537 , -0.03981707, -0.08119503, -0.16214885,
         0.11414637, -0.3256369 ,  0.278451  ,  0.2964988 ,  0.11967512,
         0.32852736,  0.4801364 , -0.19182198,  0.19292532, -0.03105825,
         0.21247259,  0.12212262],
       [-0.08988723,  0.07390318,  0.05101496, -0.20506227,  0.26010945,
        -0.01923952, -0.23306885, -0.21306822,  0.12720756,  0.13766392,
        -0.21740034, -0.15015253, -0.3117034 ,  0.01175536,  0.29495478,
        -0.13960005, -0.14602302, -0.05989897, -0.09021899, -0.08428376,
        -0.0036646 , -0.266173  ,  0.26125628,  0.09124697,  0.01502525,
         0.06828384, -0.28480273, -0.00621608, -0.3989994 ,  0.00568015,
         0.43112308,  0.03681706]], dtype=float32), array([[ 0.11569422, -0.04723977,  0.3084169 , ..., -0.07265962,
         0.22303168, -0.21699463],
       [-0.11422396,  0.17824996, -0.0464906 , ..., -0.19711742,
         0.01816284,  0.02020247],
       [ 0.17763181, -0.25119373, -0.1642591 , ..., -0.25231907,
         0.03841883, -0.05415213],
       ...,
       [ 0.18433015,  0.23024501, -0.3433169 , ..., -0.11828477,
         0.17955808,  0.16050485],
       [-0.2366715 ,  0.0713651 , -0.25627568, ...,  0.27950966,
         0.28516105,  0.07738235],
       [-0.05673158, -0.27202567, -0.13438535, ..., -0.06205755,
        -0.12946098,  0.01012141]], dtype=float32), array([[ 0.05054799,  0.05766766,  0.25051004, ...,  0.03549561,
         0.15792166,  0.23611781],
       [-0.17571624,  0.1661249 , -0.31310213, ..., -0.27999386,
        -0.01309361, -0.04667158],
       [-0.21247248,  0.14322577,  0.05542572, ..., -0.09773356,
         0.13901141, -0.23091306],
       ...,
       [ 0.29810798,  0.16447218,  0.09788392, ..., -0.14747761,
        -0.31281254, -0.13939558],
       [ 0.0925322 ,  0.05173494,  0.20474224, ..., -0.19036953,
        -0.19046192, -0.27849728],
       [ 0.0337874 ,  0.23531835, -0.05128616, ..., -0.20331149,
        -0.14286007,  0.06216659]], dtype=float32), array([[-0.12511268],
       [-0.1893171 ],
       [-0.31220916],
       [ 0.2434964 ],
       [ 0.23665056],
       [ 0.0123227 ],
       [ 0.47079128],
       [-0.2175555 ],
       [-0.01930456],
       [-0.21869287],
       [ 0.20425278],
       [ 0.30568588],
       [ 0.21341772],
       [-0.08333297],
       [ 0.2469635 ],
       [-0.12570496],
       [ 0.04697948],
       [-0.3927118 ],
       [ 0.48104247],
       [-0.08670194],
       [-0.23502035],
       [ 0.06826956],
       [ 0.20307343],
       [-0.04939986],
       [ 0.30004272],
       [-0.252164  ],
       [-0.04778063],
       [-0.14081118],
       [ 0.1551775 ],
       [ 0.26574823],
       [-0.00438787],
       [ 0.06894805]], dtype=float32)]


Weights_c:
[array([[-0.13442113,  0.19845286,  0.09708432,  0.40922683, -0.36279464,
        -0.29366985,  0.13334762,  0.19582412, -0.36474195, -0.00639213,
         0.16563483, -0.07134784,  0.10933784,  0.16500331,  0.05301572,
        -0.21443018, -0.22199033,  0.19119225,  0.3372994 ,  0.35366562,
         0.1364199 , -0.18138339,  0.04972997, -0.16778229, -0.16920207,
        -0.12581487,  0.12767327, -0.14963128,  0.3119879 , -0.14133012,
         0.23281942,  0.25819734],
       [ 0.1487653 , -0.32936358, -0.07373161,  0.13086993, -0.370247  ,
        -0.02450482, -0.19813125, -0.33103657,  0.07152235,  0.10551912,
        -0.03737341, -0.28994802, -0.08255294,  0.25516197, -0.16769898,
        -0.03791162, -0.15366833,  0.08617391,  0.01770783,  0.3197725 ,
         0.10101067,  0.02484412, -0.08822213, -0.00227069, -0.05929791,
        -0.22289096,  0.34699023, -0.47490385,  0.32694906, -0.30304962,
        -0.23912951,  0.00561153]], dtype=float32), array([[ 0.06139038, -0.14951885,  0.12830696, ..., -0.07389957,
        -0.26557326,  0.14496595],
       [ 0.2894069 , -0.266369  , -0.03214949, ..., -0.01776998,
         0.05788056, -0.06198962],
       [ 0.02053292,  0.01680291, -0.0542418 , ..., -0.15697622,
        -0.05625335,  0.13148633],
       ...,
       [-0.30171463,  0.2308341 , -0.0315115 , ..., -0.00481637,
         0.11398295,  0.07938053],
       [ 0.06103221, -0.05772445,  0.12204749, ...,  0.17899142,
         0.1825149 ,  0.10094772],
       [ 0.18110369,  0.10372639,  0.12031326, ..., -0.03262603,
        -0.04672311, -0.17034456]], dtype=float32), array([[-0.1871115 , -0.02301693, -0.06045176, ..., -0.00649628,
         0.14063711,  0.07507982],
       [ 0.17728989,  0.107947  ,  0.07035647, ...,  0.29785442,
        -0.09396828,  0.18469846],
       [ 0.14216708,  0.13490656,  0.1967732 , ..., -0.09733833,
         0.15251693,  0.00948957],
       ...,
       [-0.17658044,  0.23159759, -0.3381804 , ..., -0.10576715,
         0.14067194,  0.05445183],
       [ 0.04000979, -0.1588569 , -0.1999719 , ..., -0.17903924,
        -0.05965688,  0.13578263],
       [-0.10473091, -0.00378662,  0.2004241 , ...,  0.27385694,
         0.29562017, -0.01813447]], dtype=float32), array([[-0.00594524],
       [-0.254245  ],
       [-0.1919461 ],
       [ 0.07142402],
       [ 0.02193999],
       [-0.11047361],
       [ 0.12381399],
       [-0.20115456],
       [ 0.16134983],
       [-0.10313765],
       [ 0.1157281 ],
       [ 0.12451386],
       [ 0.19572425],
       [-0.45730788],
       [ 0.36600986],
       [ 0.01748684],
       [-0.34259507],
       [ 0.10353127],
       [-0.18891682],
       [ 0.10702197],
       [ 0.11450938],
       [ 0.25676802],
       [-0.26005375],
       [-0.11707489],
       [ 0.310538  ],
       [ 0.2419247 ],
       [-0.33584556],
       [-0.03312165],
       [ 0.29492825],
       [-0.04745822],
       [ 0.28261483],
       [-0.01298675]], dtype=float32)]


Weights_k:
[array([[-0.6242978 , -0.02718751,  0.9022532 , -0.16150393,  0.9441095 ,
        -0.07576113,  0.91297233,  1.7705556 , -0.14576833,  0.1991964 ,
         2.6508808 , -0.32499933,  0.05292756,  0.398934  ,  0.13176577,
        -0.5304528 , -0.7426515 ,  0.17861329, -0.8220028 , -0.89145106],
       [-0.2803801 ,  0.43904394,  0.43789098, -0.444633  , -0.35326284,
        -0.89450467, -0.36655074,  0.03634013,  0.3324142 , -0.85663754,
         0.8422321 , -1.2864726 , -0.52359873, -0.03578846, -1.0290512 ,
         0.8648331 ,  0.4910073 ,  0.42092893,  0.7015742 ,  0.3764571 ]],
      dtype=float32), array([[-0.24865542,  0.57818013, -0.5054662 ,  0.12221538, -0.01044184,
        -0.1780517 , -0.07301034, -0.19830029, -0.0158422 , -0.21353297,
         0.26798344,  0.17808035,  0.31245017, -0.11905172,  0.54407454,
         0.47457612,  0.4561694 , -0.5390299 ,  0.78636205, -0.2995638 ],
       [-0.21407712,  0.22022803, -0.5681178 , -0.11375046,  0.19190887,
         0.18051465, -0.183992  ,  0.06667358, -0.23188981, -0.31499282,
         0.6942106 ,  0.22571862, -0.16632834, -0.00826631,  0.34595543,
         0.26829892, -0.9396565 ,  0.35022885,  0.3825482 ,  0.10156602],
       [ 0.65810966, -0.5796583 ,  0.6374383 ,  0.09425019, -0.44624534,
         0.04655417, -0.6487584 , -0.23555727,  0.00738746,  0.49253753,
        -0.57166135,  0.07192837, -0.29610357, -0.13068877, -0.06251402,
         0.09768628, -0.20707205,  0.49044496, -1.4650517 , -0.11756285],
       [-0.9710687 ,  0.06570946, -0.08590086,  0.08137408, -0.13289358,
         0.40046996, -0.46924043,  0.08643744,  0.18829481, -0.03101304,
         0.27807298, -0.00252802,  0.10451637, -0.2984576 ,  0.2647671 ,
        -0.29270416,  0.30256984, -0.8004101 ,  0.9197361 , -0.33208552],
       [ 0.0627894 , -0.48563477,  1.0222372 ,  0.19480677, -0.3989436 ,
        -0.03041052,  0.16362269,  0.03715625,  0.33292764,  0.6426243 ,
        -0.9841072 , -0.14479326,  0.07258825,  0.3659435 , -0.9816053 ,
        -0.3698464 , -0.13289401, -0.31534764, -0.32783467,  0.19953007],
       [-0.6075728 , -0.51558006,  0.15505509,  0.3900154 ,  0.09439364,
        -0.02931749, -0.47700587,  0.18594308, -0.11426628, -0.42996904,
         0.10996608,  0.21198855, -0.14892271, -0.36574188,  0.52512705,
         0.2155898 ,  0.62209886, -0.3518081 ,  0.23750821, -0.20523432],
       [ 0.09408922,  0.05695513,  0.39097482,  0.41200805, -0.05500819,
         0.03709757,  0.4420108 ,  0.19623807,  0.58480704,  0.14886633,
        -0.9190951 , -0.34818324,  0.0271932 ,  0.4765842 , -0.51468885,
        -0.60082084, -0.24833003, -0.34056625,  0.18838783,  0.13536368],
       [ 0.3232728 , -0.9831128 ,  0.70112866,  0.2698283 , -0.05906084,
         0.06362194, -0.19738533,  0.27356228,  0.38262287,  0.3358412 ,
        -0.6454996 ,  0.0177567 ,  0.09666623, -0.07480931,  0.07748776,
        -0.03785467,  0.8152566 , -0.1251747 , -0.43590266,  0.40345836],
       [ 0.5221551 ,  0.38379353, -0.2327841 , -0.07383712,  0.08256848,
        -0.27872598,  0.34479043, -0.0662592 , -0.19066536, -0.2650248 ,
         0.33468583,  0.18352033,  0.3348282 , -0.3793797 , -0.16996548,
         0.10798269, -0.63190895,  1.1659889 , -0.42268622, -0.05693625],
       [-0.25324872, -0.2612679 ,  0.18910216,  0.11482359,  0.16107428,
         0.1605305 , -0.41198155,  0.19403036, -0.11631756,  0.07967104,
        -0.2662599 , -0.07150475,  0.0720708 ,  0.3177896 ,  0.08186448,
        -0.41278273,  0.50333345, -0.6077691 ,  0.4405629 ,  0.39640287],
       [ 0.16497731, -1.2157229 ,  0.3429036 , -0.3278481 , -0.4288633 ,
        -0.29420084, -0.28373674,  0.4797826 , -0.07961352,  0.6899802 ,
        -0.74524516, -0.5147316 ,  0.06430104, -0.20678018, -0.1954256 ,
        -0.28627685,  0.7875903 ,  0.2666191 , -0.34349564,  0.20588848],
       [-0.92980665,  0.1267133 ,  0.45214263, -0.01529824,  0.13869499,
        -0.28966883, -0.37680215, -0.02984203,  0.2034914 ,  0.11763349,
         0.39121464,  0.19580956,  0.31624162,  0.4529466 ,  0.35746098,
        -0.0015084 ,  0.3454617 , -0.44820565,  0.30474195, -0.03248405],
       [-0.6982822 , -0.6022088 , -0.43513554, -0.17128165,  0.10694713,
        -0.11109915, -0.4458257 ,  0.58086205, -0.31012663, -0.19411938,
         0.22523783, -0.0685262 ,  0.391426  , -0.00579996,  0.5061457 ,
         0.19257839,  0.75652754, -0.50515056, -0.22832923,  0.27269349],
       [ 0.2959239 , -0.17858185,  0.7019199 ,  0.05022742,  0.00747258,
        -0.05185653,  0.3072496 , -0.12877618,  0.13585563,  0.67100376,
        -0.7216748 ,  0.05955989, -0.31034023,  0.39704415, -1.4077626 ,
        -0.6811543 ,  0.15844434, -0.1608319 , -0.40488565,  0.19393499],
       [-0.4090943 , -0.26984438,  0.00956222,  0.09427352, -0.42738488,
         0.00328419, -0.6221042 ,  0.30374798, -0.01823072, -0.544492  ,
         0.39340597,  0.03974918, -0.16026552, -0.2859352 ,  0.475428  ,
        -0.34505004,  0.9204021 ,  0.04499929,  0.17195721,  0.1845331 ],
       [-0.09142554,  0.28327537, -0.57104033, -0.07216257,  0.06259924,
        -0.5189438 , -0.10403316, -0.3347088 ,  0.08931334, -0.31065732,
         0.49439868,  0.29179776, -0.06359302, -0.07210779, -0.11553896,
         0.46766245, -0.79273224,  0.7989098 , -0.08141057, -0.06906209],
       [-0.08739664,  1.1738398 , -0.47899485,  0.11025778,  0.2278046 ,
        -0.27410156,  0.3648085 , -0.19078596,  0.00554401, -0.4003669 ,
         0.47070688, -0.10089516, -0.21732254, -0.07770005,  0.24806307,
         0.00275014, -0.30888635, -0.18572508,  0.15135306, -0.52545965],
       [ 0.64919746, -0.12878142,  0.21508515,  0.36945632,  0.26305592,
        -0.1830286 , -0.04279895, -0.21146284, -0.2197792 ,  0.05206018,
         0.18663281, -0.20306663,  0.00827455,  0.14810394,  0.20204015,
         0.5525822 , -0.18466124,  1.1845455 , -0.254318  ,  0.05509578],
       [-0.14987814,  0.20622817, -0.8447422 , -0.1016285 ,  0.22678226,
        -0.46466523,  0.21257131,  0.12779206, -0.20896943, -0.20689121,
         1.2471082 ,  0.13963327,  0.08241206, -0.49823704,  0.42113516,
         0.78531516, -0.5162207 ,  0.7566016 , -0.27499992, -0.14829466],
       [-0.14977235,  0.17115156, -0.74612445, -0.12381561,  0.00372093,
        -0.5808854 , -0.41970766, -0.12911256, -0.02062074, -0.550402  ,
         1.2682374 ,  0.24027906, -0.17036735, -0.21474256,  1.3700129 ,
         0.6715718 ,  0.07296561,  0.33895585,  0.2421601 ,  0.17726468]],
      dtype=float32), array([[ 8.72652382e-02,  2.16850743e-01, -3.74330759e-01,
         1.27087176e-01,  4.53179963e-02, -1.52976170e-01,
         6.90749213e-02,  4.38611627e-01, -1.40709043e-01,
        -2.96133697e-01, -6.54767454e-02,  2.72010118e-01,
         4.54294652e-01,  6.52280776e-03,  1.42761078e-02,
         2.16246828e-01, -7.73059577e-02,  2.05651507e-01,
         3.42746347e-01, -1.16814218e-01],
       [ 2.03727648e-01, -3.10248882e-01,  4.51088727e-01,
        -2.14489058e-01,  2.89859444e-01, -1.62260115e-01,
         4.10262406e-01, -5.68250954e-01, -7.26381660e-01,
        -1.30375549e-01,  8.79314020e-02, -1.86225772e-01,
        -1.52302489e-01,  1.59574281e-02, -2.78057680e-02,
         8.92177522e-02, -4.50533070e-02,  6.41507134e-02,
        -1.13181598e-01, -3.10481757e-01],
       [-1.91775560e-01,  2.59292275e-01, -1.27136081e-01,
         1.55964687e-01, -3.22684646e-03,  6.47234082e-01,
         1.41918778e-01,  6.37934804e-01,  1.12382621e-01,
         1.43527269e-01,  2.63245314e-01, -1.02938540e-01,
         1.23036534e-01, -2.20144823e-01,  2.79095203e-01,
         8.89537856e-02,  2.41410788e-02, -3.06852255e-02,
         3.32807600e-02, -1.27287716e-01],
       [-2.81717163e-02, -3.20335943e-03, -2.96249270e-01,
         3.20568472e-01,  1.62787307e-02,  5.67558482e-02,
        -3.58407736e-01,  8.52825958e-03,  2.47291867e-02,
        -1.42449260e-01,  7.66192935e-03, -5.07892072e-02,
         2.38127455e-01, -1.07427081e-02,  2.26891026e-01,
         6.51077554e-02,  7.13011101e-02, -3.96770328e-01,
        -1.25692636e-01,  3.50066185e-01],
       [-2.49977693e-01,  2.61173666e-01, -2.38168612e-01,
         1.19117051e-01, -2.58253425e-01,  1.57873794e-01,
        -2.90689021e-01, -5.42485118e-01,  2.48713762e-01,
        -1.56483978e-01, -6.53854683e-02,  1.97590701e-02,
        -2.57682294e-01,  1.49047986e-01, -2.94174701e-01,
        -1.45071492e-01, -9.47569236e-02, -2.02230468e-01,
         1.89822391e-01,  3.05076987e-01],
       [ 1.43844232e-01,  2.52619296e-01, -4.19637918e-01,
         2.08819479e-01, -2.25589171e-01,  5.86513400e-01,
        -1.87389746e-01,  6.15023915e-03,  1.14795439e-01,
         3.58312756e-01,  2.92779118e-01,  3.71032804e-02,
         2.70775948e-02,  1.55365407e-01, -8.37234128e-03,
        -8.64118785e-02,  1.29156664e-01,  9.99688730e-02,
        -3.65296364e-01, -4.00331020e-01],
       [ 5.13148680e-02,  1.63333714e-01, -3.37580621e-01,
         6.04200304e-01,  2.75818527e-01,  8.45318079e-01,
         4.96830344e-01,  1.98836461e-01,  2.25140393e-01,
         4.13677096e-01,  5.68097867e-02, -4.39545661e-02,
        -1.10375278e-01, -1.24175236e-01, -1.58389613e-01,
        -2.75631458e-01,  3.69731784e-01,  1.50066301e-01,
         1.14348084e-01, -3.49531114e-01],
       [-1.73308089e-01, -8.06869090e-01,  3.67260426e-01,
         3.45373235e-04,  1.84100643e-01,  3.06014381e-02,
         2.03285322e-01,  6.17980920e-02,  2.79439185e-02,
        -1.01466633e-01,  2.84799188e-01,  3.75548154e-01,
        -4.59025830e-01, -1.72647700e-01, -1.02980807e-01,
         5.35209954e-01,  4.35039282e-01, -2.09954917e-01,
        -3.78923565e-01, -1.75216928e-01],
       [-1.00020565e-01, -4.06602859e-01, -2.96814471e-01,
         3.78735848e-02,  2.73539070e-02,  5.67847252e-01,
        -2.48012185e-01,  3.47940594e-01,  2.98983246e-01,
        -3.52069363e-02,  3.97049859e-02, -3.79079819e-01,
         3.48251820e-01, -1.12488359e-01, -6.58147857e-02,
         7.44975433e-02, -1.83190852e-01, -5.15720904e-01,
        -3.33778054e-01, -1.40661001e-02],
       [ 1.97897598e-01,  4.11964774e-01, -2.46682599e-01,
        -9.04179960e-02, -8.85687992e-02,  1.96464106e-01,
        -2.03719914e-01, -7.41201174e-03,  1.12546422e-01,
        -1.53104216e-01, -3.05127680e-01,  5.15575647e-01,
         7.98622549e-01,  1.52837008e-01, -2.36340746e-01,
         1.15621962e-01, -2.68064260e-01, -1.09025083e-01,
        -7.99520612e-02, -1.03557646e-01],
       [ 4.07628298e-01, -9.00212005e-02,  7.36428201e-01,
        -1.76042691e-01, -2.50423223e-01, -9.06137705e-01,
        -2.28858575e-01, -6.48941398e-02,  3.83510560e-01,
        -1.68786556e-01, -1.70950606e-01,  2.12378100e-01,
        -5.03483474e-01, -1.62300795e-01,  1.20662898e-01,
        -7.71417096e-02, -9.54904631e-02,  1.40402779e-01,
         1.49972364e-01,  6.63897991e-01],
       [ 4.10382211e-01, -2.39271894e-01,  4.15259212e-01,
         2.86754310e-01,  1.65973350e-01, -3.59855086e-01,
         3.94167751e-02, -9.67870839e-03,  1.44497037e-01,
         8.03776607e-02, -2.58907139e-01,  8.72374848e-02,
        -2.25668252e-01, -5.75293750e-02, -7.20250085e-02,
        -2.49446064e-01,  4.17473972e-01,  1.98862016e-01,
        -1.54824719e-01,  2.97371924e-01],
       [-4.55317199e-01, -4.78821486e-01, -4.69213784e-01,
        -4.29679407e-03,  2.55121708e-01,  8.46971050e-02,
         1.77444726e-01, -2.82693300e-02,  4.56990488e-02,
        -2.49040470e-01,  3.20426643e-01,  2.19063714e-01,
        -1.99893788e-01, -6.44616112e-02,  3.54714543e-01,
         1.94890592e-02,  4.26069528e-01,  4.84430879e-01,
         1.23462647e-01, -2.20896915e-01],
       [ 3.24018002e-01, -4.44952548e-01, -1.65404320e-01,
         1.81176528e-01, -7.71375224e-02,  1.18599996e-01,
        -3.23312163e-01, -2.98861504e-01,  1.27609279e-02,
         3.31303626e-01, -1.18366241e-01, -1.63900673e-01,
         2.32043341e-01,  4.30817425e-01,  2.74955034e-01,
        -1.71486184e-01, -3.39005589e-01,  1.39568865e-01,
         7.79671296e-02,  1.98813811e-01],
       [ 2.21509710e-01, -2.58091718e-01,  2.44868740e-01,
        -1.81835651e-01,  2.19556153e-01, -1.51617765e+00,
        -3.16336215e-01,  1.98004562e-02,  6.78793639e-02,
