Weights_k:
[array([[-0.45933336,  0.68977547,  0.20925502,  1.2582688 ,  1.2676419 ,
        -0.09938691,  0.20084573,  0.9407499 , -2.3475535 ,  0.82937914,
        -0.43504092, -0.9541968 ,  1.0103099 , -1.1675752 ,  2.7944388 ,
        -0.6156935 , -0.41365325,  0.24911605,  0.8312994 , -0.4860248 ],
       [ 0.64450413,  0.4129941 , -0.73615694, -0.02034812,  0.33249336,
        -0.49317613, -1.0671414 , -0.8544097 ,  0.45477307,  0.4383658 ,
         0.7469608 ,  0.11882304,  2.01461   ,  0.8326613 ,  2.1532528 ,
         0.48908588,  1.2244587 , -3.2076383 , -0.2506559 , -1.4078467 ]],
      dtype=float32), array([[ 2.57563442e-01, -7.69151328e-03, -8.12740698e-02,
         8.85809004e-01, -8.01103354e-01,  4.45633531e-01,
         2.28002891e-01,  9.11502540e-01,  2.88695078e-02,
         5.22486866e-01, -1.45876974e-01, -4.83873308e-01,
         5.98219991e-01,  1.05872893e+00,  1.87464282e-01,
        -2.60877609e-01, -1.39769688e-01, -3.01675588e-01,
        -2.73637056e-01,  1.13820088e+00],
       [-5.45405522e-02, -7.73249984e-01, -1.02922034e+00,
         3.05237677e-02, -1.10328722e+00, -3.64450514e-02,
        -3.96904238e-02, -1.13755774e+00,  4.33180556e-02,
        -5.20311058e-01,  3.49883765e-01,  2.04426616e-01,
         7.08897293e-01, -5.26604474e-01,  1.76632613e-01,
         1.46909165e+00, -2.19020724e-01, -4.91615869e-02,
         2.88839042e-02, -1.36834645e+00],
       [ 2.40203645e-03,  1.26854286e-01,  2.42799267e-01,
         2.21638486e-01, -1.94710925e-01,  3.83217931e-01,
        -6.01878345e-01,  3.03574711e-01,  4.89196144e-02,
        -2.20101163e-01, -2.62470897e-02, -2.23189563e-01,
        -3.36735956e-02,  7.47118443e-02, -1.87775642e-01,
        -6.15807712e-01,  6.28398478e-01, -3.68370354e-01,
         4.12789695e-02, -1.67699829e-02],
       [-4.47212085e-02, -4.23061252e-01, -4.86954957e-01,
         6.95173085e-01, -2.90989757e-01,  7.62940869e-02,
        -4.26168293e-01, -2.06461024e+00,  5.23439825e-01,
        -2.00919795e+00, -1.13212600e-01,  6.19381785e-01,
        -1.14752024e-01, -1.30823946e+00,  4.47829127e-01,
         1.10139775e+00,  7.54203022e-01, -1.74452245e-01,
        -1.19045451e-01, -1.95909953e+00],
       [ 4.77506131e-01, -2.70750225e-01, -4.62865323e-01,
         5.16169131e-01, -2.39552689e+00, -1.32807363e-02,
        -9.72648323e-01, -3.54433626e-01,  5.21093845e-01,
        -1.24151802e+00,  3.65267992e-01, -9.28955078e-02,
         3.39995503e-01, -1.99114889e-01, -1.96591094e-02,
         1.77286491e-01,  4.28637952e-01, -5.91753006e-01,
         1.64339185e-01, -6.65225685e-01],
       [ 2.58893594e-02,  4.35943425e-01,  1.44825661e+00,
        -3.64337981e-01, -1.21089950e-01,  1.53563812e-01,
        -1.77125260e-01,  4.25608248e-01,  2.21652146e-02,
        -3.91670197e-01,  1.56461343e-01,  2.07155734e-01,
        -1.00306094e+00,  1.38042048e-01, -7.16122687e-01,
        -8.20192456e-01,  7.67486572e-01, -6.25981152e-01,
        -1.68743372e-01,  4.22874652e-02],
       [-6.78832710e-01,  9.10013020e-01,  8.82952392e-01,
        -3.39022785e-01, -3.27086210e-01, -2.43309408e-01,
        -9.63565707e-01,  2.82066949e-02,  3.38946432e-01,
        -8.91174793e-01,  9.36365351e-02, -6.37933686e-02,
        -7.05094457e-01, -6.28118142e-02, -6.38450757e-02,
        -3.76593053e-01,  8.12109709e-01, -1.74184129e-01,
         3.26047212e-01, -1.37095720e-01],
       [ 2.97089279e-01, -5.15767522e-02,  3.29082638e-01,
        -1.52680233e-01, -1.29451048e+00, -3.30826730e-01,
        -1.40386617e+00,  1.35324031e-01, -2.43548125e-01,
        -9.64060724e-01, -7.56780431e-02, -1.53028712e-01,
        -4.61063027e-01,  1.66681573e-01, -5.44771671e-01,
        -1.49939522e-01,  6.97887897e-01, -4.13124915e-03,
         4.51387495e-01,  2.00626016e-01],
       [-2.28857443e-01, -1.47657990e-01,  1.97588354e-02,
        -3.92920412e-02,  1.30209363e+00, -2.16062561e-01,
         2.68362164e+00, -3.10507286e-02,  1.71028763e-01,
         1.93329382e+00,  1.49738099e-02, -3.22024822e-01,
         7.06023574e-01,  6.80588633e-02,  4.54723626e-01,
        -3.22633326e-01, -5.31066298e-01,  3.43067139e-01,
        -2.81997770e-01,  2.02673420e-01],
       [ 8.76284111e-03, -1.83413178e-01, -5.20764649e-01,
         5.29861629e-01, -9.23708558e-01,  5.33523560e-01,
        -4.68378663e-01, -6.46013200e-01,  1.93836272e-01,
        -9.70680892e-01,  3.22218575e-02, -8.25932324e-02,
         3.95331949e-01, -3.47074240e-01,  1.99033633e-01,
         9.90281165e-01,  2.17457816e-01, -2.66874999e-01,
        -3.09109166e-02, -4.17796433e-01],
       [ 5.47384262e-01, -6.82121515e-01, -4.25043762e-01,
         3.42530191e-01,  3.82499367e-01,  3.32305729e-01,
         4.74519938e-01,  6.65983558e-01,  1.28230974e-01,
         1.75418353e+00,  1.09788179e-01,  9.23901722e-02,
        -4.77309972e-02,  2.12593824e-01,  1.40568182e-01,
        -5.23523986e-01, -7.48390377e-01, -1.94679335e-01,
        -1.79806486e-01,  4.27085757e-01],
       [-4.22255583e-02, -1.62145734e-01,  2.38334358e-01,
        -6.92417085e-01,  1.52468014e+00,  1.53225094e-01,
         9.49422359e-01,  3.35666656e-01, -5.52671432e-01,
         1.11292064e+00,  4.74682935e-02, -1.89953282e-01,
         4.74737167e-01,  4.42462593e-01,  4.10065413e-01,
        -2.48828568e-02, -8.66454780e-01,  5.28369844e-01,
         2.82262564e-02,  4.82471406e-01],
       [-8.39255229e-02, -1.44140947e+00, -2.03195429e+00,
         4.22787189e-01, -1.74481198e-01,  4.77737993e-01,
         1.89979836e-01, -3.24466765e-01,  6.81049749e-02,
        -2.67445505e-01, -5.28449953e-01, -8.60325396e-02,
         8.88330221e-01,  9.21122506e-02,  5.73376179e-01,
         1.05168378e+00, -3.66913199e-01,  1.70084760e-01,
        -1.42255023e-01, -8.44509363e-01],
       [ 1.30712107e-01, -3.74787748e-01,  1.78814828e-01,
        -8.14981535e-02, -5.77975154e-01,  3.23494911e-01,
        -4.14758623e-02,  1.70574832e+00, -1.50746509e-01,
         1.23894513e+00, -4.77238707e-02, -3.87961417e-01,
         5.64763010e-01,  1.22982347e+00, -3.18314254e-01,
        -4.91159946e-01, -1.63355261e-01, -2.54128337e-01,
         1.13738082e-01,  2.38365054e+00],
       [ 5.19321442e-01,  2.24969499e-02, -5.63364804e-01,
         5.13955235e-01, -2.40175080e+00,  6.17850304e-01,
        -1.48514235e+00, -3.64839852e-01,  2.50154942e-01,
        -9.83932197e-01,  3.38193811e-02, -3.21751982e-01,
         2.45963752e-01, -2.05958217e-01,  4.51811403e-02,
         2.31218055e-01,  4.77944911e-01,  2.55854917e-03,
         1.09719314e-01, -1.90514997e-01],
       [ 3.98715526e-01, -5.07794321e-01, -4.27458584e-02,
         1.99779496e-01,  2.93106973e-01,  1.48231491e-01,
         8.06890666e-01,  9.65453088e-01, -5.54847062e-01,
         1.84239411e+00,  1.23012587e-01, -5.62713742e-01,
        -1.94867149e-01,  7.15701222e-01,  2.09156480e-02,
        -3.10800254e-01, -7.76913762e-01,  3.17786425e-01,
         6.84932470e-02,  9.53875363e-01],
       [ 6.32107198e-01, -9.97044384e-01, -1.52702510e-01,
         8.25788677e-01, -8.18372369e-01,  5.96117795e-01,
         2.95561273e-02,  1.03501964e+00,  2.25126386e-01,
         7.83817112e-01, -2.44083945e-02, -3.82455617e-01,
         1.18785715e+00,  1.06515753e+00,  7.40631670e-03,
         1.63143709e-01, -4.09875423e-01, -3.47486347e-01,
        -9.64788496e-02,  7.45388091e-01],
       [-1.11122116e-01,  2.85071582e-01, -2.04292536e-01,
        -1.04115820e+00,  1.95973492e+00, -8.51213932e-01,
         1.89929736e+00, -5.33987164e-01, -3.59160416e-02,
         1.60256743e-01,  5.05235977e-02,  1.20891221e-01,
        -5.54942429e-01, -9.22494411e-01, -7.22707957e-02,
        -1.44774103e+00,  3.10789496e-01, -6.45946264e-02,
         5.48889153e-02, -6.04490638e-01],
       [ 9.20088589e-02, -7.79723287e-01, -6.58202529e-01,
        -2.73657739e-02, -3.30967814e-01, -1.99521363e-01,
        -2.51848936e-01, -3.20386338e+00,  2.30838791e-01,
        -9.48223591e-01,  2.52170544e-02,  2.24192992e-01,
         7.37343431e-01, -9.54655886e-01,  4.23867881e-01,
         1.16575646e+00,  4.89167750e-01,  2.34063804e-01,
         3.60985994e-01, -2.46587372e+00],
       [-3.04017812e-01,  1.00954330e+00,  2.11634254e+00,
        -6.29599094e-01,  1.85518533e-01, -5.46885967e-01,
        -5.93621016e-01,  5.42641044e-01,  1.50013631e-02,
         1.57344360e-02,  3.54672313e-01, -1.57819673e-01,
        -8.94516230e-01,  1.65702507e-01, -8.47490728e-01,
        -6.21538997e-01,  5.02110124e-01, -4.43366319e-01,
        -4.24909405e-02,  4.48584646e-01]], dtype=float32), array([[ 5.16120791e-01, -3.66154581e-01,  2.96023071e-01,
         5.87995723e-02, -1.52578294e-01, -1.31123573e-01,
        -1.00914031e-01, -2.27280423e-01, -4.95467365e-01,
         6.92874268e-02, -3.16040069e-01,  5.56572862e-02,
         5.47421575e-01, -2.21777007e-01, -1.96645483e-01,
        -6.67066500e-02, -3.68739553e-02,  4.43104878e-02,
        -6.23814940e-01, -2.31081173e-01],
       [ 1.11521944e-01, -3.47353876e-01, -9.45378363e-01,
        -3.34874064e-01,  1.23378378e-03,  5.79350591e-01,
         2.86988586e-01,  2.57720977e-01, -5.79109311e-01,
         1.75180376e-01,  2.36446872e-01,  3.29064250e-01,
        -2.43334070e-01, -3.24966669e-01,  9.93261300e-03,
        -8.72508362e-02,  6.94294646e-02, -2.19833136e-01,
         5.17987967e-01,  3.82009417e-01],
       [ 1.56194400e-02, -4.98315424e-01,  3.66097569e-01,
         6.02248497e-02,  6.98222399e-01,  6.41109765e-01,
         2.93785125e-01,  2.17379391e-01, -8.71739745e-01,
        -3.01887214e-01,  6.45324448e-03, -1.16736270e-01,
         2.23052099e-01, -8.95876437e-02, -3.30263078e-01,
         3.13917160e-01,  3.27477813e-01, -5.97322762e-01,
        -1.04679748e-01, -3.29539686e-01],
       [ 7.67263211e-03, -1.27101257e-01,  6.50176525e-01,
         4.46629189e-02, -4.12168711e-01, -2.15424061e-01,
        -1.10370480e-01, -2.65773594e-01,  3.11709498e-03,
        -1.54515833e-01, -1.01934098e-01,  3.18902172e-02,
        -3.83620441e-01, -1.44460807e-02,  2.33598754e-01,
         1.43316267e-02,  5.30970171e-02,  3.02700430e-01,
        -1.90179452e-01, -1.33348927e-01],
       [-2.19624251e-01, -2.05797091e-01,  1.01588741e-01,
        -3.81747216e-01,  5.45820296e-01,  2.58667678e-01,
         4.28299218e-01,  3.61819305e-02, -2.80293763e-01,
        -3.89266878e-01,  1.70591563e-01, -1.06404200e-01,
        -1.81398287e-01,  2.36223042e-02,  1.15752317e-01,
         2.54550099e-01,  1.37275189e-01,  7.28555322e-01,
        -5.06711245e-01,  3.21130008e-01],
       [ 2.50538349e-01,  3.94684494e-01, -7.87239522e-02,
         2.93905269e-02, -3.32421929e-01, -6.84659109e-02,
         1.22016944e-01,  2.75535733e-01,  5.35596728e-01,
         3.04919034e-01, -1.25540659e-01, -1.66058019e-01,
         4.52125937e-01,  2.93607526e-02,  8.03535819e-01,
         1.67467684e-01, -2.94139266e-01, -1.92933604e-01,
        -5.20085454e-01,  2.79885352e-01],
       [ 9.10442248e-02,  7.77981058e-02,  2.01666668e-01,
         2.81884104e-01, -8.77232134e-01,  1.14113674e-01,
        -7.67891228e-01,  6.65907860e-01, -4.56848666e-02,
         7.01298639e-02, -3.71818364e-01, -5.41953325e-01,
         9.61264729e-01, -2.08230734e-01, -1.79295346e-01,
         2.73653418e-01, -2.57720530e-01,  1.16799533e-01,
         2.77215987e-01, -4.13518280e-01],
       [ 1.71211466e-01,  3.32489908e-01,  9.50929344e-01,
        -1.95216790e-01, -5.75766385e-01,  1.47610772e+00,
        -4.20441866e-01, -5.39785288e-02, -8.44974875e-01,
        -3.52055669e-01,  4.63092864e-01, -3.05293858e-01,
        -4.39798206e-01,  5.06160438e-01, -6.89829290e-01,
         3.91973257e-01, -2.94601440e-01,  3.54422718e-01,
        -6.94017410e-01,  2.19966918e-01],
       [-8.40326846e-02, -2.03880280e-01, -1.05301404e+00,
        -2.63357371e-01, -7.06123888e-01, -2.83101499e-01,
         2.29328737e-01, -2.02707261e-01,  9.44356740e-01,
         4.22041595e-01,  2.49489360e-02, -4.07928169e-01,
         1.10014062e-03, -4.89986092e-01,  1.46752071e+00,
         1.45923123e-01, -1.77425429e-01, -7.19303563e-02,
        -1.06031671e-01,  2.18857050e-01],
       [ 3.46943617e-01, -4.30248290e-01, -4.24453557e-01,
         9.39350724e-01, -9.83077168e-01,  4.51186717e-01,
         2.80625552e-01,  9.24338281e-01, -2.64197737e-01,
        -2.68677562e-01, -3.49632613e-02,  9.68303084e-02,
        -1.31529674e-01, -1.47947356e-01,  5.70797265e-01,
        -5.91834784e-01, -4.47931439e-01, -7.84886815e-03,
         4.67832357e-01,  3.96496840e-02],
       [ 1.74122453e-01,  1.54297769e-01, -4.00160193e-01,
        -1.39293196e-02, -5.22098958e-01,  8.09506059e-01,
         4.21253443e-01,  3.57390821e-01, -9.34370533e-02,
         1.06843956e-01,  2.51139492e-01, -4.53222692e-01,
        -6.39331698e-01,  3.93730849e-01,  1.15286827e-01,
        -2.06332386e-01,  3.97150636e-01, -1.24824131e-02,
        -1.54724037e-02,  2.78230496e-02],
       [-8.74845833e-02,  1.82202712e-01, -9.66753960e-01,
        -1.28257468e-01,  3.94533761e-02, -4.79127139e-01,
         2.22915128e-01, -2.41255108e-02,  9.36047554e-01,
         1.64100945e-01,  6.59486175e-01, -5.21678865e-01,
        -5.29439509e-01,  1.19639978e-01,  3.63986552e-01,
        -2.75470763e-01,  2.12836340e-01, -2.31541291e-01,
         2.95325220e-01,  1.53111041e-01],
       [ 8.91286880e-03, -2.01012403e-01,  2.48252470e-02,
        -2.14906871e-01, -4.63946760e-01, -2.68613338e-01,
        -1.31808976e-02, -1.42617255e-01, -3.29534471e-01,
         7.75383785e-02, -1.66551098e-01,  3.15012634e-02,
        -3.90499353e-01, -4.22597565e-02,  8.10756385e-01,
        -1.06824428e-01, -3.15356761e-01, -8.64069834e-02,
        -1.30556315e-01,  2.27056742e-01],
       [ 1.57428563e-01,  8.13661814e-01,  6.65891051e-01,
        -5.47205843e-02, -5.15949607e-01,  1.28665015e-01,
         6.79435432e-02,  1.09500557e-01, -3.33158761e-01,
        -1.20470494e-01, -3.98168027e-01,  2.14405909e-01,
        -2.07052991e-01, -3.10350537e-01, -1.04257718e-01,
         1.91801548e-01, -3.91573489e-01,  3.51808071e-01,
        -4.93342765e-02,  5.60256578e-02],
       [-2.20113192e-02,  1.02329843e-01, -4.78500038e-01,
         2.35049203e-01, -2.10728988e-01, -3.65407556e-01,
        -1.56182662e-01, -2.11361066e-01,  9.11595702e-01,
         4.31287438e-01, -6.45046458e-02,  2.25204363e-01,
         5.94379961e-01, -5.18983603e-01,  2.00230703e-01,
         3.82871270e-01, -1.68769300e-01,  1.75064296e-01,
         8.06892365e-02,  5.30459225e-01],
       [-3.12312115e-02, -8.85801390e-03, -1.81202710e+00,
         3.32794398e-01, -5.21590531e-01, -3.24984908e-01,
         4.03616250e-01, -4.33585167e-01,  1.32495439e+00,
         6.32699788e-01, -5.23891672e-02,  2.98872474e-03,
        -5.81758507e-02, -1.85810387e-01,  4.93304312e-01,
         1.10688388e-01,  2.72424728e-01,  4.58982810e-02,
         3.99402738e-01,  8.94348621e-02],
       [-2.94819754e-02,  1.41284660e-01, -8.46444070e-02,
        -3.05789173e-01, -1.16693549e-01,  7.60278106e-01,
         1.76317617e-01,  7.10343122e-01,  6.87699139e-01,
         5.27167797e-01, -1.26934171e-01,  1.42485306e-01,
        -7.79231966e-01, -3.30353558e-01,  3.02788585e-01,
        -1.31097436e-01,  2.18436778e-01,  1.97075069e-01,
         8.23429942e-01, -2.48170465e-01],
       [-4.87649262e-01, -1.75959289e-01,  4.74372506e-01,
        -3.01428646e-01,  2.42606074e-01, -5.14949143e-01,
         6.94964901e-02, -2.74842292e-01,  2.22766742e-01,
         3.79811600e-02, -3.20955813e-02,  9.05439556e-02,
         3.30135763e-01, -1.07499123e-01, -1.86271995e-01,
         4.63067703e-02,  1.25690073e-01,  3.00834933e-03,
        -2.82567382e-01,  4.90795225e-01],
       [-4.33463186e-01,  7.03863278e-02,  1.81480005e-01,
        -4.18695569e-01, -7.62687147e-01, -1.35090113e+00,
         5.40061772e-01, -2.77143061e-01,  5.38556755e-01,
        -4.67298448e-01, -6.05089962e-02,  4.07749973e-02,
         5.25739901e-02,  5.23323715e-01, -1.32305408e+00,
        -4.61631298e-01,  9.03207660e-01,  4.02441412e-01,
         2.70994842e-01,  6.68959469e-02],
       [-6.66459277e-02,  2.53609806e-01,  1.17159382e-01,
        -6.34811372e-02,  5.18361986e-01, -2.46806487e-01,
        -5.26625037e-01,  3.01808536e-01, -1.55004275e+00,
        -2.30432954e-03, -3.70144486e-01,  3.33392203e-01,
        -1.87120795e-01, -3.59805934e-02, -1.01246274e+00,
        -5.06639201e-03, -3.40847909e-01,  2.06101760e-01,
        -9.08654630e-01,  3.09460368e-02]], dtype=float32), array([[ 0.6610619 ],
       [ 0.4092349 ],
       [-0.409542  ],
       [-0.2481545 ],
       [-0.30247483],
       [ 0.8304764 ],
       [ 0.5027712 ],
       [ 0.6795531 ],
       [-0.21517521],
       [ 0.31350422],
       [ 0.46482626],
       [-0.51444304],
       [-0.25396526],
       [ 0.5750224 ],
       [ 0.9676179 ],
       [ 0.73432225],
       [-0.59103125],
       [-0.2789149 ],
       [ 0.25862744],
       [ 0.60623354]], dtype=float32)]


Weights_h:
[array([[ 0.14568856,  0.0427883 , -0.24494357, -0.34768084,  0.12403906,
        -0.08453072,  0.13545074, -0.04501846, -0.10312223, -0.13585359,
         0.30502224,  0.33671856,  0.10827706,  0.11763223, -0.12222837,
         0.39696944, -0.03577499,  0.08426218, -0.07125954,  0.00613714,
        -0.23424527, -0.04163045, -0.08416878,  0.30254552, -0.34226817,
        -0.23766267, -0.04486886, -0.20879053,  0.0101837 ,  0.07206345,
         0.16564794,  0.17375416],
       [ 0.00346856,  0.39501163, -0.04247865,  0.05718492, -0.46294108,
         0.15985963,  0.08958366,  0.06815035, -0.21758986, -0.245652  ,
         0.04290448, -0.28693548,  0.10382438, -0.24541831, -0.33473513,
        -0.22370315, -0.28881592, -0.32878292,  0.19366924, -0.0243009 ,
        -0.02153269,  0.00258307, -0.43086967, -0.09275589, -0.32401958,
        -0.11621533,  0.22480007, -0.08678791,  0.20522231,  0.08635533,
         0.13053833, -0.12524052]], dtype=float32), array([[ 0.14613502,  0.13872388,  0.1402741 , ...,  0.251899  ,
         0.19029291,  0.08356266],
       [ 0.2909089 ,  0.012693  ,  0.14056441, ..., -0.22259322,
         0.17874275, -0.3493558 ],
       [ 0.00450856,  0.2582141 ,  0.09719661, ...,  0.06585601,
         0.27156398, -0.07380354],
       ...,
       [-0.13177583,  0.13860631,  0.320436  , ...,  0.22266309,
         0.11515298,  0.09497961],
       [-0.32934234, -0.06933061,  0.16701901, ...,  0.23945828,
        -0.04170385, -0.21546309],
       [ 0.01153392, -0.1474798 , -0.08698559, ..., -0.18199755,
        -0.10279488,  0.05231684]], dtype=float32), array([[ 7.05821216e-02, -5.46152852e-02, -1.89709201e-01, ...,
        -2.75937468e-01, -2.03610852e-01, -1.38038620e-01],
       [-6.36903048e-02,  8.44612252e-03, -1.03535384e-01, ...,
        -3.22719038e-01, -1.41772922e-04, -7.48106092e-03],
       [ 1.97661653e-01,  1.44059375e-01, -8.65310654e-02, ...,
        -1.39062628e-02,  7.18802810e-02, -7.87372515e-02],
       ...,
       [ 2.23957852e-01,  7.22172782e-02, -1.61669962e-02, ...,
        -6.46444559e-02,  1.65832117e-02, -4.95307110e-02],
       [ 2.76551485e-01,  5.90382963e-02,  1.41858488e-01, ...,
        -1.93446189e-01,  2.73978382e-01, -1.90457731e-01],
       [-7.44643584e-02, -2.15930268e-01,  1.40060276e-01, ...,
         1.87460482e-01,  1.40545100e-01,  1.02962419e-01]], dtype=float32), array([[-0.09848686],
       [-0.18843706],
       [ 0.20386577],
       [-0.10627208],
       [ 0.10532624],
       [-0.19488737],
       [ 0.05369253],
       [ 0.35077465],
       [-0.28267416],
       [ 0.18323849],
       [ 0.35219964],
       [ 0.1987451 ],
       [-0.25650328],
       [-0.3942111 ],
       [-0.04799478],
       [ 0.13988715],
       [ 0.00692682],
       [-0.4145102 ],
       [-0.41573158],
       [ 0.42574856],
       [-0.19519965],
       [-0.38440022],
       [ 0.10127336],
       [-0.12720051],
       [ 0.01412332],
       [ 0.1001907 ],
       [-0.4699128 ],
       [-0.09748092],
       [ 0.2031211 ],
       [-0.27913523],
       [ 0.10445727],
       [ 0.34600475]], dtype=float32)]


Weights_c:
[array([[-0.436551  , -0.19577149, -0.14908943, -0.23251636,  0.21020836,
         0.01899168, -0.18862444,  0.07153811, -0.28318742,  0.08614405,
         0.16644958, -0.05243946,  0.1033326 ,  0.35956657,  0.12489102,
         0.11240142, -0.44272956,  0.18902408,  0.2457999 , -0.37412995,
         0.18249556, -0.22759682, -0.09805822,  0.23432578, -0.44437405,
        -0.07873162,  0.33763906, -0.18306339,  0.34050578,  0.34015605,
         0.10902152, -0.29574654],
       [-0.36611027,  0.2716988 , -0.297845  , -0.14435045,  0.34210795,
         0.10336805, -0.30717757, -0.18570022, -0.2744148 ,  0.07295002,
         0.08316567, -0.1886442 , -0.04990215, -0.3336338 , -0.2549983 ,
        -0.0923717 , -0.17328607,  0.4468056 , -0.2635115 , -0.21491107,
         0.10679378, -0.13244447,  0.27923778,  0.1546878 ,  0.01163447,
        -0.04222929, -0.0029199 ,  0.11461112, -0.0541359 , -0.2994231 ,
        -0.00919068, -0.14721985]], dtype=float32), array([[ 0.11665306,  0.2537795 , -0.11705668, ...,  0.00697507,
         0.07209751, -0.03910639],
       [ 0.13674262,  0.20050101, -0.04953763, ...,  0.02222706,
         0.02070728,  0.19853294],
       [ 0.3518492 ,  0.20398915,  0.08312125, ...,  0.03551027,
         0.3447903 ,  0.08161815],
       ...,
       [ 0.02204326, -0.26413402,  0.01505016, ..., -0.13244654,
        -0.00846231, -0.22384918],
       [ 0.21933721, -0.03704536, -0.1586929 , ...,  0.18279529,
        -0.08279106,  0.21981505],
       [-0.22208689,  0.041264  ,  0.201325  , ..., -0.0835606 ,
        -0.1985827 , -0.04760926]], dtype=float32), array([[-0.03064156, -0.26161763, -0.15255532, ...,  0.05586261,
         0.01343352,  0.04425788],
       [ 0.0712921 , -0.16796869, -0.09860854, ..., -0.03465192,
        -0.03304254, -0.06419692],
       [ 0.13349235,  0.1533324 ,  0.07535215, ..., -0.13567074,
        -0.10419467, -0.12308176],
       ...,
       [ 0.27622157, -0.24120644,  0.02672122, ...,  0.0235175 ,
        -0.13245907,  0.09059867],
       [-0.07116906, -0.16041829, -0.0282239 , ...,  0.19553743,
        -0.04006693,  0.11770446],
       [ 0.01839904, -0.19303663,  0.24373351, ...,  0.04492711,
        -0.00136926, -0.10089289]], dtype=float32), array([[ 0.01475844],
       [-0.06276604],
       [-0.44945487],
       [-0.01337795],
       [ 0.02571248],
       [ 0.09547279],
       [ 0.14328891],
       [-0.20065366],
       [-0.06742534],
       [ 0.00947275],
       [-0.0857871 ],
       [-0.07455337],
       [-0.09628659],
       [ 0.0506513 ],
       [ 0.02637007],
       [ 0.10461706],
       [-0.09704024],
       [-0.26791316],
       [-0.01533256],
       [-0.29926658],
       [ 0.07074825],
       [-0.00978785],
       [ 0.20001294],
       [ 0.08812054],
       [ 0.2354673 ],
       [-0.02420573],
       [ 0.10969929],
       [ 0.15924199],
       [-0.18883389],
       [ 0.0879006 ],
       [ 0.30827   ],
       [ 0.13382424]], dtype=float32)]


Weights_k:
[array([[-0.47527868,  1.4335104 ,  0.19618236, -1.2342176 , -0.85409206,
         0.6583937 , -1.7246644 , -0.65742135, -0.74148333,  1.137129  ,
        -1.2883353 , -0.41389346, -0.8707899 , -1.2599219 , -0.38598508,
        -1.1023332 , -1.1763957 , -1.6741259 ,  0.5811065 , -1.3858376 ],
       [ 0.67417717, -0.62299585,  1.1717349 ,  0.09121121,  0.9486992 ,
        -0.6296216 , -1.054541  ,  0.5756713 , -2.5871253 , -0.11754065,
        -0.2081968 ,  1.5218166 , -0.25379062,  0.2601279 , -1.098284  ,
         0.51939017, -0.12038068, -1.565561  ,  0.63943464, -2.3571703 ]],
      dtype=float32), array([[ 5.42798713e-02, -4.14643705e-01,  5.91163278e-01,
        -9.99109149e-02, -2.49977812e-01, -2.88420469e-01,
        -3.07119340e-01, -5.58364511e-01, -3.08829844e-01,
         7.61310756e-02,  2.81780839e-01,  8.94502401e-02,
        -1.05145745e-01, -1.71847120e-01,  2.95301199e+00,
         4.35063809e-01,  3.01385075e-01,  2.71483868e-01,
        -2.80357271e-01,  2.14055166e-01],
       [-1.37311015e-02,  1.10794529e-01, -2.10181743e-01,
         3.22802037e-01, -2.35591576e-01,  2.80321687e-01,
        -2.14674607e-01,  1.04437053e+00, -3.01272810e-01,
         1.83354765e-01,  3.69914472e-01, -7.60509819e-03,
         5.55824161e-01,  2.08478713e+00,  6.27730310e-01,
         3.88519913e-01,  4.61755365e-01, -6.86987579e-01,
         1.49000555e-01,  6.22091889e-01],
       [ 6.95925951e-01,  6.03322864e-01,  1.24248818e-01,
        -2.88962960e-01, -5.50440431e-01, -5.38971484e-01,
         4.14219171e-01,  7.71549195e-02, -8.87455583e-01,
        -5.41824624e-02,  3.29783231e-01,  2.80867487e-01,
        -1.88644201e-01, -2.35420322e+00,  4.29297388e-01,
         4.48208302e-01, -1.73083889e+00,  7.81488359e-01,
        -9.02256221e-02, -2.34820440e-01],
       [ 3.68611813e-01, -5.59018195e-01,  7.96189249e-01,
        -1.42413944e-01,  9.15213883e-01,  2.02620272e-02,
         1.07122757e-01, -1.57556069e+00, -2.18326956e-01,
        -6.48864686e-01, -4.16896135e-01, -1.79963652e-02,
         1.44039497e-01, -1.70667899e+00,  1.97881728e-01,
        -3.54978442e-02, -6.82075739e-01,  4.60118949e-01,
         4.31467146e-01, -1.64081216e-01],
       [ 1.50198385e-01,  5.51938899e-02,  4.40869957e-01,
        -5.77582233e-02,  2.09779873e-01, -2.29894385e-01,
        -2.27396175e-01, -7.19683588e-01, -4.92861196e-02,
        -1.89781353e-01,  2.15364583e-02, -1.86053395e-01,
         2.77472526e-01, -4.44208479e+00, -1.40901670e-01,
        -4.43174876e-02, -5.99333227e-01,  3.83968592e-01,
        -1.53800279e-01, -3.73567224e-01],
       [-2.52864569e-01,  4.60588187e-01, -1.03969729e+00,
         6.19049370e-02, -8.92058462e-02,  1.06457865e+00,
         4.32467252e-01, -7.00579360e-02,  3.38870108e-01,
         4.63045351e-02, -2.96497852e-01, -4.18824330e-02,
        -1.75669804e-01,  3.44767004e-01, -1.16376758e+00,
        -1.57786086e-01,  1.05906658e-01, -5.92944086e-01,
         4.99537230e-01,  5.02607822e-01],
       [-6.07236810e-02, -9.11767840e-01,  5.39507926e-01,
        -1.07276469e-01,  5.27252376e-01,  1.23983383e-01,
         1.08275957e-01, -9.10971880e-01,  2.55352914e-01,
        -8.08555901e-01, -1.37710616e-01, -8.23515654e-02,
         3.13323736e+00,  4.74153385e-02,  8.16294968e-01,
        -3.79824698e-01,  6.02860272e-01, -5.66995516e-02,
        -1.13129832e-01,  1.15809321e-01],
       [ 5.81569262e-02, -3.11703295e-01,  5.37210464e-01,
         2.94617247e-02, -1.98684037e-01, -4.87282842e-01,
        -8.21172670e-02, -5.95113993e-01, -6.82228923e-01,
         2.47201458e-01,  4.30598080e-01, -2.81690478e-01,
         1.92746669e-01,  4.05699760e-01,  4.11172390e+00,
         1.07649706e-01,  5.05991578e-02,  1.70992315e-01,
         2.07330644e-01, -2.36283690e-01],
       [-2.14703023e-01, -4.91882175e-01, -1.13646185e+00,
         1.11149795e-01,  7.51525700e-01,  1.25358820e+00,
         2.79404491e-01,  7.18436241e-02,  8.85720074e-01,
        -4.40784186e-01, -1.20783173e-01, -1.91514403e-01,
        -6.88235879e-01,  4.90629375e-01, -6.93237960e-01,
        -5.15407205e-01,  1.00542963e+00, -1.00965416e+00,
         1.92917153e-01,  5.63160777e-02],
       [ 1.90884322e-01,  4.77828741e-01, -7.78890133e-01,
         1.62974179e-01, -3.20782125e-01,  5.00613213e-01,
         1.48533717e-01,  1.07575762e+00, -4.34795618e-02,
         2.34119073e-01,  3.56988125e-02, -2.53906459e-01,
        -8.61600459e-01, -7.73184448e-02, -1.49514985e+00,
        -1.38431698e-01,  1.62526704e-02,  9.42330882e-02,
        -4.66952980e-01,  1.34853482e-01],
       [ 6.42235726e-02, -2.68786788e-01,  8.13006282e-01,
        -1.71880469e-01,  1.00317860e+00,  1.75630733e-01,
        -2.04906121e-01, -1.40575969e+00, -8.49773809e-02,
        -2.16681659e-01, -1.16534986e-01,  4.59216982e-01,
        -2.14362115e-01, -1.41687143e+00,  4.00839210e-01,
        -2.63899475e-01, -9.60555896e-02,  8.63892883e-02,
        -3.08864206e-01,  6.73544481e-02],
       [ 3.49973738e-01, -2.63356179e-01,  7.95121014e-01,
        -1.33989668e-02, -8.00706327e-01, -9.76801693e-01,
        -4.27678972e-01, -3.50652635e-01, -1.16632783e+00,
         1.19382247e-01,  1.51092082e-01,  3.39048356e-01,
        -1.34713233e-01,  1.50353879e-01,  1.80041647e+00,
         3.29965025e-01, -2.22001240e-01,  6.94759250e-01,
        -2.93034047e-01, -2.35415380e-02],
       [-3.24124731e-02, -6.32765353e-01,  7.22571254e-01,
         1.10983461e-01,  2.75517076e-01, -3.35169643e-01,
         2.56481748e-02, -9.05941725e-01,  1.13977589e-01,
        -3.67375553e-01,  1.31145999e-01, -1.01245910e-01,
         1.09606338e+00, -5.05050480e-01,  1.73394084e+00,
        -4.85552149e-03,  7.46259317e-02, -4.03906316e-01,
        -2.30521142e-01, -3.69126856e-01],
       [ 1.72139913e-01, -4.10060167e-01,  9.38499570e-01,
        -1.65082172e-01,  8.23082328e-01, -3.02489907e-01,
         6.63389191e-02, -1.06540453e+00, -1.45642772e-01,
        -5.62812567e-01, -1.56536594e-01,  1.38184205e-01,
        -6.01334333e-01, -3.01892781e+00, -1.14060275e-01,
         5.90565428e-02, -2.87338138e-01,  6.24695301e-01,
        -4.02296260e-02,  2.73023564e-02],
       [-1.58859208e-01, -1.33290723e-01, -1.48817345e-01,
        -3.61380100e-01,  1.41133463e+00,  2.73160726e-01,
         5.46803415e-01, -2.99058676e-01,  1.09995627e+00,
        -6.43403769e-01, -1.02595225e-01, -4.17115279e-02,
         3.33003163e-01, -1.31384623e+00, -7.39966214e-01,
        -5.45960307e-01,  3.52472603e-01,  9.70005430e-03,
        -8.26056004e-02,  1.48396298e-01],
       [ 2.48421356e-01, -8.11946034e-01,  3.97064239e-01,
        -4.33735251e-01,  5.21473289e-01, -9.17297125e-01,
        -1.45615488e-01, -1.57135677e+00, -1.36433229e-01,
        -5.02265334e-01,  1.33398268e-02,  1.42387003e-02,
         3.42930585e-01, -1.73726559e+00,  6.91388547e-01,
        -7.04249740e-02,  8.47653835e-04,  3.54752034e-01,
        -1.22907192e-01,  4.05072808e-01],
       [-2.79702852e-03, -5.26029408e-01,  9.01048660e-01,
        -7.21458346e-02,  4.39182937e-01, -1.32470593e-01,
        -4.04914141e-01, -1.02377093e+00, -1.61817238e-01,
        -8.61551106e-01,  1.93576708e-01,  1.60406992e-01,
         1.75949740e+00, -9.43083465e-01,  2.96541047e+00,
        -4.63697493e-01,  4.81837004e-01, -2.16064632e-01,
        -1.41034409e-01,  5.00002682e-01],
       [-3.23450983e-01, -8.84254277e-01, -6.12813123e-02,
         1.39232248e-01,  1.28318286e+00,  4.82174963e-01,
         1.98704705e-01, -3.16289067e-01,  9.23677087e-01,
        -5.74661732e-01, -2.29224544e-02,  5.53868972e-02,
         1.27583253e+00,  6.43052697e-01, -9.18615684e-02,
        -5.76154172e-01,  4.91171330e-01, -2.66854346e-01,
        -2.24557385e-01, -9.00270045e-02],
       [ 2.15210497e-01,  9.94744062e-01, -2.95149446e-01,
        -1.86820477e-01, -9.95999634e-01, -2.25240588e-01,
        -3.86841387e-01,  9.07175779e-01, -7.80349910e-01,
         1.03029621e+00, -1.42171249e-01,  5.94471060e-02,
        -1.13352120e+00,  9.14264694e-02, -3.19562942e-01,
         7.13149905e-01, -8.45215738e-01,  6.58329904e-01,
         1.96566299e-01, -9.88008454e-03],
       [-2.22112998e-01,  2.77860731e-01,  7.47037828e-01,
        -1.45734102e-01,  2.16224670e+00,  3.32276285e-01,
         3.01213771e-01, -1.18205678e+00,  5.16116679e-01,
        -9.23953876e-02, -6.67631149e-01, -1.79151148e-01,
         3.89233649e-01, -3.40631700e+00,  7.76236296e-01,
        -7.17981160e-01,  1.43645853e-01, -1.67134002e-01,
         1.95601761e-01,  1.52066603e-01]], dtype=float32), array([[ 0.24070507,  0.26453578, -0.3783948 , -0.17679408, -0.18760698,
         0.33953437,  0.09586167, -0.12299871, -0.1033489 ,  0.7787636 ,
         0.4093239 , -0.18065234,  0.04972011, -0.2062186 ,  0.12662326,
         0.38392535,  0.47557133,  0.1588777 ,  0.15111357,  0.09974072],
       [ 0.34764567, -0.07449231,  0.0594546 , -0.9611904 , -0.59462124,
         0.04496444, -0.29124266,  0.29124   ,  0.01067206,  0.31863645,
         0.44291714,  0.12781994,  0.32118285, -0.5277652 , -0.514615  ,
         0.34648672,  0.24262127, -0.2014517 , -0.07829035, -0.10529227],
       [-0.12394662,  0.12229161, -0.62187433,  1.1069559 , -0.46831852,
        -0.11865429,  0.7134769 ,  0.15507163, -0.47913012,  0.53381985,
         0.6332196 ,  0.01304358, -0.2135514 ,  0.08038945, -0.41336226,
        -0.30134922, -0.14991136, -0.7935901 ,  0.82570606, -0.3485887 ],
       [-0.5108214 , -0.09922192,  0.17835283,  0.06393939, -0.2169327 ,
         0.22895518,  0.27431643, -0.20995903, -0.35362357, -0.44874194,
        -0.09836572, -0.09786677, -0.14211059,  0.40972397, -0.3122953 ,
        -0.39984646, -0.09741214, -0.04956259,  0.2674003 ,  0.02957652],
       [-0.2547257 ,  0.01699417, -0.64739734, -0.33905062,  0.8397174 ,
         0.6702402 ,  0.4014156 ,  0.4779163 ,  0.68642557, -0.04898309,
         0.1753405 , -0.09814316,  0.4548945 , -0.00361538, -0.21845125,
        -0.61141974,  0.05384174,  0.00554272, -0.21404885,  0.01710215],
       [-0.6229766 ,  0.01401669,  0.18333319,  0.1527536 ,  0.2051557 ,
         0.06841262, -0.38323867,  0.20837334,  0.34982428, -0.11950281,
         0.12728277, -0.07786731, -0.06813374,  0.18030407, -0.14300741,
        -0.48332295, -0.07393281, -0.10718959, -0.21224605,  0.14080666],
       [-0.07754601,  0.3517364 , -0.22076976, -0.29878896,  0.652745  ,
        -0.25096628,  0.47088924, -0.2295523 ,  0.01254585,  0.1331667 ,
         0.09218125,  0.08242618,  0.01507338, -0.60848707, -0.4071457 ,
         0.057162  ,  0.09702555,  0.31073627, -0.3035703 ,  0.40948874],
       [ 0.11711946, -0.2638553 , -0.43917385,  0.46911156, -0.7105395 ,
        -0.20385158,  0.2883721 , -0.0141714 , -0.48472652, -1.2044231 ,
         0.2289776 ,  0.28060842, -0.38977078, -0.12424497,  0.2949951 ,
        -0.307003  , -0.13561219, -0.19214532, -0.674239  , -0.1643893 ],
       [-0.1315638 , -0.44237795, -0.01481991,  0.14161369, -0.16800539,
         0.04057918,  0.3295534 ,  0.35107228, -0.05323934, -0.15134712,
         0.07390183,  0.16227156,  0.44286466,  0.10637278, -0.5649127 ,
         0.09761363, -0.5315584 , -0.34563574, -0.04071576, -0.045575  ],
       [-0.5812679 , -0.08715346,  0.95385927,  0.58010966, -0.08220932,
         0.02739497, -0.33789515,  0.00282911, -0.16372278,  0.2934541 ,
        -0.42981395, -0.15085629,  0.00386477,  0.2269681 , -0.05641098,
        -0.07832527, -0.00389162,  0.13434967,  0.41710302, -0.05059904],
       [-0.32345477,  0.39734465,  0.2806514 , -0.07033888, -0.44472545,
        -0.41658625, -0.24386457, -0.11295889, -0.6183461 , -0.17219213,
         0.13655777, -0.04465844, -0.5410814 , -0.1707715 , -0.02519436,
         0.1192511 , -0.19498588,  0.00726592,  0.15025684,  0.27358395],
       [ 0.6486377 , -0.14001793, -0.39670417, -0.48386037, -0.06918328,
        -0.13207957, -0.47149348, -0.09130707,  0.3967236 ,  0.2218915 ,
         0.18781708, -0.17481898,  0.28912973,  0.150788  ,  0.34922642,
         0.44642675,  0.09174067,  0.3047192 , -0.2987259 ,  0.00997436],
       [-0.7096513 , -0.07721065, -0.34929448,  0.6007132 ,  0.81080794,
        -0.20943703, -0.19521709,  0.06030677,  0.35204116, -0.4368794 ,
        -0.05615147, -0.22354446,  0.18476275,  0.14781766, -0.23189187,
        -0.39105093, -0.0070989 ,  0.09043507,  0.12313457,  0.2308366 ],
       [-0.7482936 ,  0.65507704,  0.8444786 , -0.16646974,  0.1599104 ,
        -1.1158804 , -1.1318045 ,  0.88901067,  0.15806416,  0.26736975,
        -0.71949637, -0.1693097 , -0.7859825 , -0.09515285, -0.03242037,
        -0.2999647 , -0.01200734,  0.05047378,  0.36176905,  0.19914505],
       [-0.04293085,  0.02991245, -0.18902342, -0.02180049, -0.14239755,
         0.10675495, -0.05650524, -0.33122241, -0.11418451,  0.48552403,
         0.39586702, -0.22371924,  0.19040841,  0.05675144, -0.01485177,
         0.13380252, -0.34964046, -0.34901187,  0.4401039 ,  0.44510654],
       [ 0.12911656, -0.37295336,  0.11465526, -0.12185594, -0.34462202,
        -0.17635094, -0.3573174 , -0.01094736, -0.18471281,  0.24933414,
         0.35336122, -0.12966439, -0.24210313,  0.11049564, -0.11638322,
         0.38479304,  0.22289975, -0.20764346,  0.94438314, -0.4219731 ],
       [-0.56622446,  0.10200472,  0.38423574,  0.8813629 ,  0.28655505,
        -0.4190812 ,  0.54912454,  0.6164945 , -0.03632639, -0.14802366,
        -0.14197282, -0.00933357,  0.21104379,  0.55658334,  0.15149553,
        -0.2857306 ,  0.02793961, -0.00225013, -0.33282676, -0.12472505],
       [ 0.06638689,  0.34772396, -0.24039525, -0.32639763,  0.166658  ,
        -0.26984861, -0.47247666, -0.8068383 , -0.4331736 ,  0.25243932,
        -0.00772283, -0.16556375, -0.38435414, -0.10663208,  0.07662001,
         0.7574967 , -0.40142983,  0.04921646,  0.64457524, -0.45162907],
       [-0.63544023, -0.26280117,  0.11707367,  0.30052915,  0.30831885,
         0.18664424, -0.09829341,  0.39247686,  0.29749215, -0.41292256,
         0.08797366,  0.49057978, -0.00893153,  0.257635  , -0.11470212,
        -0.11383747,  0.1000281 , -0.3336327 ,  0.20256804, -0.5288707 ],
       [-0.49748144,  0.04599556,  0.3025227 ,  0.39711824, -0.09450983,
         0.15223682,  0.22647844, -0.12150308, -0.12852295, -0.2391102 ,
        -0.03552354,  0.05471889, -0.08938759, -0.08343745, -0.41885084,
        -0.46841896,  0.37200558,  0.11363607, -0.20403488,  0.1930096 ]],
      dtype=float32), array([[ 0.6298241 ],
       [-0.7080064 ],
       [ 0.350499  ],
       [ 0.48984754],
       [ 0.2977585 ],
       [ 0.29495826],
       [-0.9114661 ],
       [ 0.58627635],
       [ 0.60604316],
       [ 0.34306675],
       [-0.6360774 ],
       [ 0.20935094],
       [ 0.6064441 ],
       [ 0.19187848],
       [ 0.49068055],
       [ 0.24086256],
       [-0.09832336],
       [-0.48183087],
       [ 0.45897666],
       [-0.566241  ]], dtype=float32)]


Weights_h:
[array([[-0.16667257, -0.14098442, -0.3371081 , -0.2938103 ,  0.31038827,
        -0.14485466, -0.39948893, -0.19172153, -0.07195195, -0.13461772,
        -0.06295788, -0.0570878 , -0.37470177,  0.04423603,  0.04003348,
        -0.25131515, -0.01828348, -0.00286655,  0.1424687 , -0.13803023,
        -0.14099388, -0.21372865,  0.06265498,  0.15111043,  0.0637881 ,
        -0.3842567 ,  0.0814514 ,  0.18488625,  0.27293012, -0.33196145,
         0.08002225,  0.00258938],
       [-0.1605048 ,  0.02642943,  0.36064792, -0.17233297,  0.07286545,
        -0.02350812, -0.2233314 ,  0.0720048 , -0.2646986 ,  0.23810387,
         0.13817751,  0.10486013, -0.06275598,  0.26177916, -0.09759831,
        -0.06965747, -0.13328612, -0.18019493,  0.40985096,  0.26168475,
        -0.14401527, -0.06207142,  0.0236031 ,  0.2072142 , -0.16891477,
        -0.20640516, -0.25395337, -0.0079886 ,  0.25706634,  0.28898326,
         0.06174295, -0.2862478 ]], dtype=float32), array([[-0.07952387,  0.05601887, -0.08114199, ...,  0.11496942,
         0.19842498, -0.15626514],
       [ 0.11576866, -0.10636358, -0.08431379, ..., -0.00401743,
        -0.11238188,  0.06086915],
       [ 0.01921429,  0.01835847,  0.02887561, ...,  0.02435638,
        -0.22979145,  0.02017415],
       ...,
       [-0.05570672, -0.10275162, -0.1165124 , ...,  0.08928961,
        -0.09025579,  0.02382337],
       [-0.06906956,  0.09112208, -0.25459448, ...,  0.24982288,
         0.1087403 ,  0.22040321],
       [-0.07558201, -0.06508206, -0.0545749 , ..., -0.08113257,
         0.29554686, -0.03057962]], dtype=float32), array([[ 0.02318055,  0.05314887, -0.04771667, ..., -0.01551351,
         0.00785696, -0.03070415],
       [ 0.13580392,  0.05563123,  0.20735967, ...,  0.16661893,
        -0.12942342, -0.31691745],
       [-0.26552325,  0.00763791, -0.16814883, ...,  0.02892022,
        -0.08468611, -0.1496304 ],
       ...,
       [ 0.04030946,  0.2339986 , -0.03834746, ...,  0.34941235,
         0.0725353 , -0.12587303],
       [-0.12964258, -0.23612624,  0.04492943, ..., -0.20143577,
         0.05992046, -0.15391302],
       [ 0.05161038,  0.11051093,  0.05691123, ...,  0.07618581,
         0.08538087,  0.20506121]], dtype=float32), array([[ 0.0320239 ],
       [ 0.4047919 ],
       [ 0.18547758],
       [-0.21642125],
       [ 0.1385907 ],
       [ 0.23560646],
       [ 0.01003942],
       [ 0.15534581],
       [-0.34430084],
       [-0.09889951],
       [ 0.16910109],
       [-0.17811348],
       [-0.1813838 ],
       [ 0.04572342],
       [ 0.2650643 ],
       [-0.33143377],
       [-0.05705164],
       [-0.02489571],
       [ 0.06294405],
       [-0.36889884],
       [-0.36486503],
       [-0.12024207],
       [-0.07027923],
       [-0.2844021 ],
       [-0.17836797],
       [ 0.06579563],
       [-0.01477459],
       [ 0.05191774],
       [ 0.03581678],
       [ 0.17893302],
       [-0.01134045],
       [-0.0713635 ]], dtype=float32)]


Weights_c:
[array([[-0.21855539,  0.0859611 ,  0.05785949,  0.03408356, -0.26873392,
        -0.32596388, -0.15043454,  0.05110978,  0.2057415 ,  0.1840395 ,
         0.15383962,  0.06026912, -0.09147272,  0.21124363,  0.33002204,
         0.34283423, -0.17870584,  0.01213983, -0.12984097, -0.04075257,
        -0.1937536 ,  0.13131702,  0.16435657, -0.40805823,  0.24011712,
        -0.45250282, -0.33970827,  0.3708952 , -0.09278612, -0.01306805,
         0.22326714,  0.10213867],
       [ 0.11809128, -0.0710515 ,  0.2212445 ,  0.2186606 , -0.13785253,
        -0.2892435 ,  0.30449   , -0.16764356, -0.440934  ,  0.2386299 ,
        -0.07764255, -0.45592225, -0.02357369, -0.32781643,  0.2455445 ,
        -0.3175778 ,  0.16144939, -0.1766583 , -0.08357299,  0.1619325 ,
        -0.26791215, -0.20170535,  0.15934452,  0.0870991 , -0.47853336,
        -0.33869752,  0.04722012,  0.17251417, -0.3157648 ,  0.15438317,
         0.07247742,  0.05817201]], dtype=float32), array([[-0.24019612,  0.0827605 ,  0.01939048, ..., -0.12124392,
         0.18913004,  0.11859066],
       [ 0.05264084, -0.30364797, -0.01070906, ..., -0.12660529,
         0.12226996, -0.25589588],
       [-0.11217719, -0.03921169,  0.0298625 , ...,  0.05651135,
         0.32999423,  0.18216631],
       ...,
       [ 0.26271546,  0.03622009, -0.16955745, ..., -0.1253519 ,
        -0.3051682 , -0.3070884 ],
       [ 0.20045432, -0.04249988,  0.1049904 , ...,  0.08221284,
        -0.28102383,  0.1154396 ],
       [-0.23891878, -0.00117731, -0.24787971, ..., -0.10705197,
         0.08746094, -0.10448793]], dtype=float32), array([[ 0.17363116, -0.12426404, -0.17871502, ..., -0.19528589,
         0.10295632,  0.16921656],
       [ 0.12246761,  0.2982503 , -0.11576544, ..., -0.23412669,
        -0.32905295, -0.05344482],
       [-0.04027465,  0.1161852 ,  0.22676595, ...,  0.17424907,
        -0.11921091, -0.10175683],
       ...,
       [-0.06329535, -0.00970055, -0.19573528, ...,  0.01615715,
         0.08141179, -0.20318405],
       [ 0.01822933, -0.25670868, -0.0882322 , ...,  0.02180021,
         0.22569056, -0.26289797],
       [ 0.07283358, -0.02597342,  0.2827217 , ...,  0.15197377,
         0.18653478, -0.09254892]], dtype=float32), array([[-0.04721677],
       [-0.31539735],
       [-0.21153095],
       [-0.05498205],
       [ 0.01665216],
       [-0.30080187],
       [ 0.19519201],
       [ 0.07675136],
       [-0.23347901],
       [ 0.21684225],
       [-0.13655867],
       [-0.11660205],
       [ 0.04123694],
       [-0.2378426 ],
       [ 0.34194967],
       [-0.08872461],
       [ 0.03502812],
       [ 0.04867774],
       [-0.01781973],
       [ 0.30306286],
       [-0.14985946],
       [ 0.1092234 ],
       [-0.37867755],
       [-0.02122351],
       [-0.05504847],
       [-0.11220027],
       [-0.19101469],
       [ 0.02976434],
       [-0.07292032],
       [ 0.15512271],
       [-0.32558522],
       [ 0.26215994]], dtype=float32)]


Weights_k:
[array([[-1.0577427 ,  1.3896353 , -1.2899696 , -1.0518073 , -0.30672902,
        -0.907628  , -1.0024714 , -0.9713037 , -1.5899631 ,  1.6024171 ,
        -0.5258504 ,  0.28086162, -1.0793955 ,  1.0295892 ,  1.3468765 ,
        -0.58314204, -0.21856776, -1.1614065 ,  0.14118199, -0.06714392],
       [-2.9564772 ,  0.20054984, -0.14733388,  0.47153503, -2.8194063 ,
         0.02423596,  3.9132218 , -0.16455609, -3.053048  , -2.7367098 ,
         0.14248593, -0.8791082 , -0.82251143, -0.6562687 ,  0.00476123,
         1.1169469 ,  1.0420889 , -0.4126151 , -2.4280498 , -0.9017213 ]],
      dtype=float32), array([[-4.81735975e-01, -3.82266462e-01,  9.79701638e-01,
        -4.58844215e-01,  5.80146313e-01,  2.29870707e-01,
         1.99010253e-01, -2.10614741e-01,  4.12289590e-01,
        -1.17874425e-02,  2.90460825e-01, -4.98979956e-01,
        -7.18805313e-01, -3.27278316e-01, -3.70769411e-01,
         1.32079482e-01, -8.63590598e-01,  2.87330985e-01,
         4.73346412e-01, -3.66958261e-01],
       [ 6.31120443e-01,  4.83675301e-01, -7.21497595e-01,
        -1.04881249e-01, -7.38232791e-01, -7.31023401e-02,
         4.10101563e-01, -9.94759053e-02, -3.25387508e-01,
        -1.20278917e-01, -1.15567040e+00,  5.63603997e-01,
         2.86218762e-01,  2.37675071e-01,  3.31868120e-02,
         1.18512690e+00, -9.59213734e-01, -4.23154205e-01,
        -2.88134754e-01,  5.93431473e-01],
       [-2.89330155e-01, -7.01549828e-01,  7.15344489e-01,
        -1.10409927e+00,  1.08770585e+00,  2.79574096e-01,
         3.36615086e-01,  1.07188761e-01,  5.79614043e-01,
         3.41405541e-01,  7.93143332e-01, -1.12115049e+00,
        -5.12216926e-01, -2.15144828e-01, -1.20814212e-01,
        -4.88657922e-01,  7.03213751e-01,  5.06803215e-01,
         4.64178026e-01, -1.73073217e-01],
       [-1.04899955e+00, -5.99516630e-01,  5.07526807e-02,
        -3.63897011e-02,  1.12957038e-01,  3.41386020e-01,
         6.44249022e-02,  3.32464993e-01,  2.95351624e-01,
        -1.68755297e-02,  8.21378887e-01, -1.27389416e-01,
         2.48144865e-01,  2.46993601e-01,  6.75638735e-01,
        -7.59976029e-01,  1.34254301e+00,  2.69959420e-01,
         8.85728821e-02,  1.92471908e-03],
       [ 5.54126918e-01,  8.64094198e-02,  9.52064753e-01,
        -3.92906964e-01,  9.02804494e-01,  1.42935468e-02,
         3.69491905e-01, -3.65913898e-01,  5.31053483e-01,
        -3.57006341e-01, -1.16497457e-01, -7.64597595e-01,
        -4.75656867e-01, -5.31292140e-01, -1.37335643e-01,
         1.13789690e+00, -5.58710694e-01, -2.08308235e-01,
         6.86427176e-01, -3.55611652e-01],
       [-1.08033216e+00, -4.27995235e-01,  9.42656219e-01,
        -3.68966967e-01,  1.03364861e+00,  5.76468945e-01,
         1.44537136e-01,  4.06490773e-01,  1.73025101e-01,
         1.64980233e-01,  1.25472176e+00, -5.24729192e-01,
        -4.18655336e-01,  1.30053729e-01,  3.88847888e-01,
        -1.51637685e+00,  5.35685420e-01,  6.31704152e-01,
        -9.27614421e-02,  9.64597389e-02],
       [ 8.62294286e-02,  6.51679158e-01, -7.28840053e-01,
         6.29620910e-01, -4.62456465e-01, -9.15324017e-02,
        -6.37756586e-01, -9.07814875e-02, -4.63084608e-01,
        -5.13418496e-01,  1.29475417e-02,  8.73674095e-01,
         7.37738967e-01,  1.68230206e-01, -5.75124800e-01,
        -3.46864849e-01,  1.48119700e+00, -6.84562698e-02,
        -2.32128158e-01,  7.20627233e-02],
       [-9.36672688e-01, -5.41591048e-01,  5.19885838e-01,
        -5.19340038e-01,  7.61629641e-01,  2.70803124e-01,
         7.33881176e-01,  2.88421392e-01,  4.10881847e-01,
        -2.35943776e-02,  1.18487263e+00, -1.63057402e-01,
         5.42290397e-02, -1.45957008e-01,  3.69991839e-01,
        -4.21150446e-01,  1.32534254e+00,  5.64096510e-01,
         2.49915138e-01, -2.91411012e-01],
       [-9.54954699e-02, -3.23326260e-01,  1.79898158e-01,
        -6.72539413e-01, -5.32811344e-01, -8.28933492e-02,
         8.79436135e-01,  3.28796178e-01,  4.42264408e-01,
        -1.72736108e-01, -1.20448756e+00, -1.46291509e-01,
        -2.29984105e-01, -2.67057627e-01, -3.52202877e-02,
         1.68066549e+00,  2.20063233e+00, -1.08697647e-02,
         1.18503892e+00,  4.05993015e-01],
       [ 8.08951735e-01,  2.52454400e-01, -3.89560647e-02,
        -4.24636096e-01, -1.13585484e+00,  3.69420834e-02,
         4.02954847e-01,  3.71765047e-02, -1.23260193e-01,
         1.76351726e-01, -2.34038711e-01,  4.36125547e-02,
        -2.85893917e-01, -9.92864817e-02, -1.03850186e-01,
         4.68863368e-01, -6.08346909e-02, -4.81962234e-01,
         1.05130196e+00,  5.32895267e-01],
       [-1.24982989e+00, -4.08912838e-01, -3.00583262e-02,
        -4.68345910e-01,  5.82483232e-01,  9.68231112e-02,
         4.37155813e-01,  6.84595704e-01,  7.93079197e-01,
         1.83856741e-01,  5.19311070e-01,  1.99841168e-02,
         1.93242729e-01,  7.05824886e-03,  5.15513837e-01,
        -2.00519621e-01,  1.73136127e+00, -4.75886092e-02,
         2.85373449e-01, -6.94251955e-02],
       [ 7.50517130e-01, -2.32314523e-02, -1.10952422e-01,
        -3.82585615e-01, -6.46828115e-01, -3.07504423e-02,
         3.82487625e-01,  3.19291860e-01,  2.67565101e-01,
         2.24155098e-01,  5.84745184e-02,  1.23330832e-01,
        -1.74061805e-01, -5.82081452e-02, -1.63665965e-01,
         6.51784837e-01,  1.32147267e-01, -2.33612299e-01,
         7.45471656e-01,  1.66974500e-01],
       [-2.87742376e-01, -4.01817828e-01, -9.97357816e-02,
        -8.55714798e-01,  2.67680049e-01,  7.27004781e-02,
         1.04611075e+00,  4.46579874e-01,  8.30572128e-01,
         1.83758110e-01,  1.43199995e-01, -5.42985797e-01,
         1.52602360e-01,  1.07973725e-01, -2.15819731e-01,
         1.18984178e-01,  2.78973103e+00,  8.19651708e-02,
         5.47455907e-01, -1.98100045e-01],
       [ 1.25676525e+00,  3.00477147e-01, -9.97619033e-02,
        -2.84852684e-01, -5.00432134e-01,  5.88954091e-02,
         1.14487477e-01,  1.60852864e-01, -3.67934369e-02,
         1.76041961e-01, -6.02306366e-01,  7.88167790e-02,
        -2.28999272e-01, -6.08040214e-01, -3.18168610e-01,
         1.61223006e+00, -1.14467537e+00, -2.93931544e-01,
        -9.09272432e-02,  1.49451375e-01],
       [ 9.71692383e-01,  5.02288699e-01,  3.00262302e-01,
         1.11436379e+00, -2.95677841e-01, -1.09246947e-01,
        -4.90061671e-01, -5.70850611e-01, -1.24647737e-01,
        -1.57350048e-01, -2.10106716e-01,  4.66867030e-01,
        -4.56375986e-01, -5.57190515e-02, -5.56644917e-01,
         2.19081566e-01, -1.60117400e+00, -2.46032447e-01,
        -2.20840454e-01,  1.87472612e-01],
       [-9.93357778e-01, -1.50727943e-01,  2.51214296e-01,
         3.67743492e-01,  8.03869367e-01, -1.19060934e-01,
        -3.26917358e-02, -1.67646706e-01, -2.04336271e-01,
        -5.42794429e-02,  5.72192430e-01,  3.58221941e-02,
        -1.25024244e-01,  3.56297851e-01,  4.78163242e-01,
        -7.99155235e-01,  1.68641165e-01,  1.97609469e-01,
        -7.87908614e-01, -6.66053355e-01],
       [-4.76575464e-01,  7.06891418e-02,  2.32471585e-01,
         4.15628672e-01,  4.33271021e-01,  9.42196399e-02,
        -6.85001731e-01, -5.17828092e-02, -4.14198607e-01,
        -2.25451738e-01,  3.29124600e-01, -2.20255002e-01,
         1.15244530e-01,  6.51097357e-01, -1.85339943e-01,
        -5.60475826e-01, -4.02907282e-01,  5.49663901e-02,
        -4.52864438e-01, -4.36258852e-01],
       [-6.78079903e-01, -9.70752895e-01,  2.42751569e-01,
        -9.12770927e-01,  6.43337607e-01,  3.53738695e-01,
         5.29481947e-01,  4.02226090e-01,  4.01314914e-01,
         6.66719228e-02,  1.24987292e+00, -5.34342349e-01,
         7.23714679e-02, -2.16843084e-01,  5.36352873e-01,
        -4.15796071e-01,  1.06483030e+00,  6.71145797e-01,
         3.13591301e-01, -1.36805475e-01],
       [ 1.46253090e-02, -5.68880737e-01,  4.63649690e-01,
        -4.34572488e-01,  4.32359308e-01, -3.62473637e-01,
         8.14736128e-01, -3.82045925e-01,  7.11974025e-01,
         4.23668325e-01,  6.88209474e-01, -1.15359437e+00,
        -7.19351649e-01,  8.25134143e-02,  1.82699442e-01,
         2.99038708e-01, -1.42984986e+00, -2.17760697e-01,
        -1.42700359e-01, -3.62432003e-03],
       [ 7.59471774e-01,  4.96697463e-02,  1.30501026e-02,
        -2.72878289e-01, -4.66313332e-01, -2.55848855e-01,
         6.56077027e-01,  3.20179053e-02,  4.27672267e-01,
         6.04489408e-02, -7.16789722e-01,  1.70580447e-02,
        -1.86905369e-01, -3.90515000e-01,  1.23134054e-01,
         1.68567455e+00, -6.09887123e-01,  6.50701970e-02,
         7.13927031e-01, -1.69462919e-01]], dtype=float32), array([[-3.33905607e-01,  1.77039102e-01,  1.90753371e-01,
         2.58409053e-01,  1.23190805e-02, -6.88394129e-01,
         1.65696785e-01,  2.76684970e-01,  2.70361513e-01,
        -3.47806901e-01,  3.87534082e-01,  4.28812578e-02,
         4.80164379e-01, -3.53143156e-01, -9.83318761e-02,
        -1.00937819e+00, -9.23969820e-02,  7.97228664e-02,
        -2.90354162e-01,  1.00557268e+00],
       [ 5.47063291e-01, -1.66836813e-01, -1.93381533e-01,
        -7.04294816e-03,  2.18336612e-01,  1.93595946e-01,
         2.79177457e-01, -2.08712146e-01, -8.37642625e-02,
         1.40773863e-01, -6.57132044e-02, -2.62903512e-01,
         3.99866104e-01, -4.39730942e-01,  9.48506892e-01,
        -3.94167691e-01,  1.59421265e-01, -3.04454833e-01,
         2.17031360e-01,  2.63007700e-01],
       [ 7.35550284e-01,  8.87278095e-02,  3.29593241e-01,
         1.06323518e-01, -2.29737461e-01,  2.59280264e-01,
        -1.39671102e-01,  3.48300561e-02,  1.55077741e-01,
         3.82867130e-03,  1.16025209e-01,  1.20343909e-01,
         4.84647661e-01, -3.78880650e-01, -8.60510208e-03,
        -1.97349533e-01, -1.59623727e-01, -1.68255121e-01,
        -1.41998425e-01, -4.45644498e-01],
       [-5.24848048e-03, -4.35650110e-01, -7.88017828e-03,
         1.51784360e-01, -1.42192811e-01, -1.36637002e-01,
         2.55587101e-01, -7.51595616e-01, -3.01706225e-01,
         8.62206042e-01,  1.25990570e+00, -2.57235944e-01,
        -4.36470419e-01,  1.03266731e-01, -3.51105183e-01,
        -3.52428555e-01,  9.74636674e-02,  1.61303535e-01,
         4.13780183e-01,  5.09401798e-01],
       [ 3.62351954e-01,  8.28845322e-01,  6.36212289e-01,
         3.75626326e-01,  1.21792905e-01,  1.92339271e-01,
        -1.12816423e-01,  3.41696918e-01, -5.79658672e-02,
         1.22271001e-03, -1.00787573e-01,  1.05923727e-01,
        -2.18924671e-01,  2.38443449e-01, -5.20988330e-02,
         3.18975717e-01, -2.68464684e-01,  5.62219381e-01,
        -4.54317126e-03, -3.26782256e-01],
       [ 5.31912208e-01,  5.45609370e-02,  9.34250057e-01,
        -8.29092860e-02, -1.06561668e-01,  7.16669738e-01,
        -1.23317301e-01,  1.13008898e-02, -2.77831405e-01,
         3.61694992e-01, -2.10216921e-02, -2.39705577e-01,
        -2.09036320e-01,  1.55921191e-01, -1.92999333e-01,
         1.52074322e-01,  4.18900065e-02, -7.88666010e-02,
         2.58048594e-01, -7.00992286e-01],
       [-1.24982223e-01,  5.64398706e-01,  7.57906079e-01,
         3.90292645e-01,  5.83763421e-01,  3.07328165e-01,
        -2.74828732e-01,  5.22115111e-01,  1.17518514e-01,
        -9.95020196e-02, -4.49470609e-01,  1.11169010e-01,
         2.64956802e-03,  1.20522358e-01, -1.16191037e-01,
         1.24317236e-01,  4.33251746e-02, -1.44913435e-01,
        -1.88330308e-01, -4.51676518e-01],
       [-2.61445820e-01,  3.64820331e-01,  5.72400868e-01,
        -4.55201752e-02, -1.14744566e-01,  3.98840874e-01,
        -2.85612106e-01,  4.89298165e-01, -2.21381292e-01,
        -1.27965182e-01, -1.36958528e+00, -4.58970442e-02,
        -2.55855769e-01,  1.06000081e-01,  2.16386989e-01,
        -4.20699688e-03, -3.83723974e-01,  3.75337213e-01,
        -1.94858670e-01, -8.44837576e-02],
       [-4.44689721e-01, -1.32920071e-01,  3.90031219e-01,
        -7.13807270e-02, -4.93698120e-02,  2.17172061e-03,
        -1.42113464e-02,  3.78990203e-01,  2.99979448e-01,
        -2.59826452e-01, -2.05668971e-01, -4.71155196e-02,
         3.02874297e-01,  4.99060810e-01, -4.10960287e-01,
         3.70373160e-01,  2.06620052e-01,  1.91196218e-01,
        -5.34277201e-01, -2.36951172e-01],
       [ 4.62971956e-01,  5.85812330e-01,  5.58005393e-01,
        -2.61148036e-01,  7.82411024e-02, -1.87196910e-01,
         4.82063964e-02, -1.51086720e-02, -4.48647588e-02,
         1.97060332e-01,  3.96100059e-02,  1.81941763e-01,
         2.68894117e-02,  6.09713018e-01,  2.57213145e-01,
         4.38082218e-02, -7.17796534e-02, -1.21206351e-01,
         1.13937952e-01, -1.73524693e-01],
       [ 8.19272041e-01,  7.79856563e-01, -3.90874475e-01,
        -1.37640521e-01, -2.47519277e-02,  8.94752666e-02,
         6.06564522e-01, -5.88730335e-01,  2.93170214e-01,
         8.37630630e-01,  1.55152261e-01, -5.62365532e-01,
         7.34864235e-01,  1.86803952e-01,  6.82370812e-02,
         4.19224948e-02, -1.85662180e-01,  4.49093938e-01,
        -4.25276533e-02, -7.84660816e-01],
       [-1.17004976e-01, -2.07497030e-02, -7.34446049e-02,
         1.10596724e-01,  2.78477401e-01, -1.44550309e-01,
         5.21354735e-01, -1.30323395e-01, -1.13527663e-01,
        -8.76446724e-01, -2.55873203e-01,  3.06989193e-01,
        -4.82576907e-01, -4.76639420e-01, -9.73702371e-02,
         2.63211280e-01,  9.71224606e-02, -2.18876585e-01,
         2.32873425e-01, -3.31645489e-01],
       [ 2.26363763e-01, -3.51035744e-01, -3.75440657e-01,
         1.53207138e-01,  2.35898614e-01,  4.44272846e-01,
        -1.79063320e-01,  3.56670886e-01, -1.22664019e-01,
        -1.86461523e-01, -7.34811783e-01, -2.59422779e-01,
        -3.81898642e-01, -2.01158202e-03, -8.68204981e-02,
        -2.12660581e-01, -4.51661229e-01, -1.29000563e-02,
        -2.74813384e-01, -3.71734947e-01],
       [-3.33395362e-01, -4.59681898e-01, -2.27653414e-01,
        -2.51902133e-01, -1.70031860e-01,  2.82768577e-01,
         2.44205654e-01,  9.84797627e-02,  6.85747014e-04,
         2.11792827e-01, -7.54277170e-01, -7.12795742e-03,
        -7.40860999e-01,  3.05155683e-02,  8.35305899e-02,
        -7.50747547e-02, -5.57468772e-01, -2.65848404e-03,
        -2.40058482e-01, -5.20997904e-02],
       [-1.39739171e-01, -2.37359609e-02,  6.95327878e-01,
        -4.18381393e-01, -1.69996232e-01,  1.25192249e+00,
        -1.19982675e-01,  1.04605779e-01, -2.31673256e-01,
         3.45104307e-01, -1.05414367e+00,  3.57797593e-01,
        -9.51336622e-01, -1.25609385e-02, -4.25707430e-01,
         4.34991457e-02,  9.86118317e-02, -1.29180908e-01,
        -1.64514840e-01,  2.95400858e-01],
       [-5.28061092e-01,  2.37766817e-01,  2.37531632e-01,
        -1.37064815e-01,  3.77177268e-01, -3.58327359e-01,
         1.91918924e-01,  3.19043905e-01, -2.09121630e-01,
        -4.88094151e-01, -2.63951311e-04, -3.87301177e-01,
         1.48968965e-01,  2.00544596e-02, -4.09060985e-01,
        -7.20250070e-01, -4.75920290e-02, -8.63898098e-02,
        -2.74925321e-01,  6.45553350e-01],
       [-1.18679322e-01, -9.86779809e-01,  1.10990465e+00,
         1.37243479e-01,  1.25473142e-01,  7.62900591e-01,
         1.92973539e-01,  4.14551534e-02, -2.68720329e-01,
         6.67795479e-01, -1.27830446e+00,  2.66983360e-01,
        -1.13555348e+00,  1.49159478e-02,  3.00451517e-02,
        -2.62282286e-02, -1.30914164e+00, -2.51999855e-01,
        -2.79860049e-01, -2.99773216e-01],
       [ 7.59795666e-01,  8.73035938e-02, -1.47687301e-01,
         1.16345085e-01,  1.98892102e-01,  5.80256522e-01,
         3.56896967e-01,  2.37315506e-01, -2.90738106e-01,
         5.10939062e-01,  4.58380990e-02,  5.26630878e-01,
         9.46976151e-03,  1.82323769e-01, -1.82050854e-01,
         2.68272489e-01, -2.39587903e-01,  1.14063717e-01,
         2.30575874e-01,  5.64412698e-02],
       [-3.18729937e-01,  5.70004344e-01,  4.60782588e-01,
        -1.76071469e-02,  2.51104292e-02,  1.47206679e-01,
        -6.21827543e-01,  1.11490838e-01,  3.11845720e-01,
        -5.72222099e-02,  3.92255336e-02, -1.26944548e-02,
         9.33013186e-02,  3.21188807e-01, -3.53335559e-01,
         4.62847240e-02, -2.18386695e-01,  4.12264258e-01,
         2.47449011e-01, -5.70927262e-01],
       [ 3.68899286e-01, -5.60793579e-02, -2.96168663e-02,
         2.53968656e-01,  1.53315112e-01,  6.64042681e-02,
         1.81693044e-02,  7.46323839e-02,  3.85436088e-01,
        -3.04188281e-01, -2.87214994e-01, -1.77500933e-01,
        -5.55079207e-02, -3.11175324e-02, -4.56428856e-01,
         1.77322164e-01,  3.65417123e-01, -3.53120029e-01,
        -2.51038969e-01, -1.47242174e-01]], dtype=float32), array([[-0.656822  ],
       [-0.5368881 ],
       [-0.7321888 ],
       [-0.527781  ],
       [-0.51707315],
       [-0.18075143],
       [-0.47533333],
       [ 0.65439296],
       [ 0.11420421],
       [ 0.4172458 ],
       [-0.47476727],
       [-0.39906192],
       [-0.15328173],
       [ 0.2792553 ],
       [ 0.35370955],
       [-0.4156561 ],
       [ 0.57155836],
       [ 0.738305  ],
       [-0.2932537 ],
       [-0.49115825]], dtype=float32)]


Weights_h:
[array([[-0.3847942 , -0.04948629,  0.24677642, -0.23875709,  0.05156523,
        -0.20742881, -0.21824352, -0.06401967, -0.27852044, -0.02240024,
         0.25755304,  0.18873529, -0.03202347,  0.23602533, -0.03530238,
         0.16433482, -0.05650025,  0.05088195, -0.06550679, -0.1382626 ,
         0.11936234,  0.02564701,  0.06707189, -0.26239616, -0.10346323,
         0.09673453, -0.21234682, -0.09207831, -0.17807688,  0.15526433,
        -0.29707652, -0.03676382],
       [-0.33513674, -0.18489185,  0.06239164, -0.19025156, -0.0101442 ,
        -0.04081805, -0.11376446, -0.04229528, -0.24654998,  0.2349803 ,
         0.20441197,  0.17320421, -0.1103617 ,  0.3836468 , -0.00348098,
        -0.35042274,  0.00902804, -0.3705562 ,  0.2899864 ,  0.18666182,
        -0.02002633, -0.37947112, -0.01253294, -0.12768048, -0.3302281 ,
        -0.01156785,  0.14746457,  0.0364135 ,  0.25202355, -0.25384378,
        -0.04984818, -0.2113126 ]], dtype=float32), array([[ 0.09194116, -0.17335773,  0.09601409, ..., -0.07172847,
         0.09723873, -0.12559257],
       [ 0.0792105 ,  0.03344706,  0.11776788, ...,  0.12338252,
         0.20829958, -0.05623387],
       [ 0.02874343,  0.02338286, -0.04900435, ...,  0.12100572,
         0.03710907,  0.0522728 ],
       ...,
       [-0.25116593, -0.08184017,  0.24272752, ...,  0.10158588,
         0.32422888, -0.23551747],
       [-0.17285287, -0.3381873 ,  0.03805894, ..., -0.09182721,
         0.16076602,  0.16624102],
       [-0.02222054, -0.21406713,  0.03391899, ...,  0.11497474,
        -0.12312885, -0.03046631]], dtype=float32), array([[ 0.01018026, -0.03925708,  0.21420872, ...,  0.09495685,
        -0.18163879, -0.11779539],
       [ 0.0113268 , -0.2960281 , -0.26057416, ..., -0.11653978,
         0.02164994, -0.21261981],
       [ 0.0042045 ,  0.07931965, -0.3090617 , ...,  0.05754375,
        -0.03637549,  0.07554075],
       ...,
       [-0.09785339,  0.19730261,  0.19000147, ...,  0.1329379 ,
         0.18629673,  0.0533314 ],
       [ 0.03400845, -0.0655346 , -0.08878192, ..., -0.00805781,
         0.00066319, -0.08710948],
       [ 0.01120411, -0.20655243,  0.07101776, ...,  0.01610675,
         0.1589889 , -0.32596985]], dtype=float32), array([[-0.01565349],
       [ 0.11162023],
       [-0.3251682 ],
       [-0.03965157],
       [ 0.05331318],
       [-0.00968867],
       [ 0.3363216 ],
       [-0.07715577],
       [ 0.4663127 ],
       [ 0.3354981 ],
       [ 0.06902552],
       [-0.24426116],
       [-0.13933954],
       [-0.0180802 ],
       [-0.18084541],
       [ 0.1622704 ],
       [ 0.16364646],
       [ 0.24967502],
       [ 0.20082943],
       [ 0.04129044],
       [ 0.37992406],
       [ 0.08060747],
       [-0.2853554 ],
       [ 0.0861797 ],
       [-0.32356298],
       [ 0.10788144],
       [-0.34842527],
       [-0.17330487],
       [-0.03875805],
       [-0.43936598],
       [-0.35634166],
       [-0.08395713]], dtype=float32)]


Weights_c:
[array([[-0.13622867,  0.42338312, -0.15675224, -0.32363656, -0.17980838,
         0.05629794, -0.07583773,  0.30347443, -0.1349772 ,  0.24305099,
        -0.4092207 , -0.3735009 ,  0.09488913, -0.33440706, -0.05949428,
        -0.29759374, -0.19795848, -0.35358143, -0.06076776, -0.05803337,
         0.15161946, -0.04768752, -0.2998307 , -0.15278476, -0.35588375,
        -0.08726347,  0.00589391,  0.28316075, -0.13023134,  0.41367993,
         0.4020938 , -0.1483381 ],
       [ 0.08978734, -0.00890773,  0.11880561,  0.23088348, -0.0555931 ,
        -0.14995074,  0.273828  ,  0.17952684,  0.21569912,  0.10075775,
        -0.21407801, -0.04635951, -0.19050644,  0.24149464, -0.2934903 ,
        -0.32948896, -0.02040687,  0.4164493 , -0.0814971 ,  0.45980972,
         0.00654618,  0.3216357 , -0.25729465, -0.10112642,  0.2957573 ,
         0.31495658, -0.12426634,  0.2900583 , -0.27321368, -0.19987638,
         0.2101588 ,  0.1513096 ]], dtype=float32), array([[ 0.29732078,  0.03540108,  0.1635939 , ...,  0.19236319,
        -0.1472768 ,  0.0139805 ],
       [ 0.19454236, -0.08634178,  0.10947739, ...,  0.03405735,
        -0.14790235, -0.0009466 ],
       [-0.0088187 , -0.21634892, -0.01317325, ..., -0.04822404,
         0.01997719,  0.07304514],
       ...,
       [-0.11606478,  0.09968559, -0.1909063 , ...,  0.02873203,
         0.19393866,  0.06193072],
       [ 0.00252427, -0.2394489 , -0.12123157, ..., -0.05189986,
        -0.17629506,  0.18243061],
       [-0.05971986,  0.19113524,  0.05141175, ...,  0.07302216,
        -0.01481896, -0.04089622]], dtype=float32), array([[-0.00089215,  0.1211469 , -0.05319216, ...,  0.16930425,
         0.12946188,  0.0407088 ],
       [-0.08425625, -0.33784568, -0.06500454, ..., -0.18562123,
         0.13479383, -0.00340043],
       [ 0.10126544,  0.0596708 , -0.3345778 , ..., -0.0576431 ,
         0.12685978, -0.22224922],
       ...,
       [-0.11011127, -0.05950799,  0.22059968, ..., -0.02914822,
        -0.03456303,  0.02283335],
       [-0.18414769,  0.20103744,  0.3129413 , ..., -0.17992538,
        -0.14682287, -0.0979409 ],
       [ 0.09176545, -0.15499635, -0.13979758, ..., -0.01998837,
         0.21740592, -0.00665311]], dtype=float32), array([[-0.02168288],
       [-0.03359716],
       [-0.34869012],
       [ 0.38278785],
       [-0.07443333],
       [ 0.12078632],
       [-0.05771888],
       [-0.21379422],
       [ 0.07108034],
       [-0.37464947],
       [ 0.37116486],
       [-0.1801672 ],
       [-0.12809238],
       [ 0.03691423],
       [ 0.01316369],
       [ 0.2842414 ],
       [-0.06493585],
       [ 0.09263818],
       [-0.15633747],
       [-0.15200108],
       [-0.30846697],
       [ 0.21564965],
       [-0.48064598],
       [-0.33955863],
       [ 0.13439439],
       [-0.00347315],
       [-0.2916215 ],
       [-0.20961083],
       [ 0.09588093],
       [-0.06549325],
       [ 0.19615898],
       [ 0.06145195]], dtype=float32)]


Weights_k:
[array([[ 0.9922878 ,  1.1814574 , -0.02231696, -0.38292113,  1.4638973 ,
         1.131645  , -3.0786865 , -0.76468307,  0.99118096,  0.7433026 ,
         4.5348353 , -0.7702077 , -0.9986906 ,  0.77381897, -1.3503107 ,
        -0.8825275 , -1.460557  , -0.24724194,  1.0737321 , -1.2448584 ],
       [ 1.7909143 , -0.42884514,  0.8203297 , -1.0287938 , -0.07015397,
         0.26021504, -0.21860242, -1.7367911 , -0.48978594,  0.47058982,
        -1.4099804 ,  0.397212  , -0.5199548 ,  2.406381  ,  5.233139  ,
         0.09433189, -0.06649586,  1.1065491 ,  2.2437768 ,  0.18344025]],
      dtype=float32), array([[-7.44743288e-01,  1.10360229e+00, -2.24825725e-01,
        -1.91597730e-01, -1.44049168e+00,  3.56685668e-01,
         8.77864420e-01, -3.96322399e-01,  7.21057892e-01,
        -2.98317432e-01, -1.58978984e-01, -2.71619827e-01,
        -3.83522138e-02,  6.37209177e-01, -7.59908855e-01,
         7.44759917e-01,  3.25121403e-01, -8.84796619e-01,
         1.25287962e+00,  4.39878017e-01],
       [-4.45744656e-02,  6.41801000e-01, -1.05689153e-01,
         2.52623647e-01, -6.36617243e-01,  6.15010550e-03,
         3.30176175e-01,  1.96670330e+00,  1.54921937e+00,
         2.02895165e-03,  9.74970520e-01,  9.33831632e-02,
        -6.06697798e-01,  1.29470694e+00, -7.03595221e-01,
         4.94016379e-01, -4.85879272e-01, -8.24892223e-02,
        -2.65425861e-01,  7.47951627e-01],
       [-1.63599342e-01,  7.55039394e-01, -6.29427433e-02,
         1.39546946e-01,  4.97450866e-02,  7.81444967e-01,
        -3.06103736e-01,  5.72296798e-01,  1.05931914e+00,
         3.70910794e-01, -2.01333329e-01,  7.73338899e-02,
         3.09952676e-01,  9.99485016e-01,  3.10945392e-01,
         5.23802578e-01,  1.11633539e+00, -9.86963585e-02,
         7.40051866e-01,  1.96863100e-01],
       [ 3.00900370e-01, -8.02971780e-01, -2.30858132e-01,
         4.28611636e-02,  9.82470930e-01, -7.92976201e-01,
        -7.10378230e-01,  6.51139140e-01, -7.93511152e-01,
        -4.07311857e-01,  5.16668819e-02,  5.47329247e-01,
        -4.90218461e-01, -9.96828020e-01,  9.83851627e-02,
        -1.17289197e+00, -1.66419193e-01,  5.16965874e-02,
        -4.82918710e-01, -3.05460334e-01],
       [-2.54106671e-01,  1.04874361e+00, -3.09258252e-01,
        -1.60362944e-01, -3.18524569e-01,  1.33780256e-01,
        -3.01284760e-01,  1.62496781e+00,  1.24802089e+00,
         1.68501228e-01,  6.17221177e-01, -4.74704728e-02,
        -4.72838104e-01,  1.19952607e+00, -5.97279787e-01,
         1.34321177e+00, -1.77654013e-01,  4.02618706e-01,
        -7.41676867e-01,  1.07684493e+00],
       [-1.81005538e-01,  6.11871421e-01, -1.81938797e-01,
         1.00363441e-01, -2.24343017e-01,  3.04892898e-01,
        -7.32728913e-02,  2.25771904e+00,  1.59827363e+00,
         2.34742120e-01,  5.29361308e-01,  7.40411952e-02,
        -3.93705666e-01,  1.91611290e+00, -2.41134048e-01,
         1.10138431e-01,  4.15749580e-01, -3.78814101e-01,
        -8.69973242e-01,  2.98083514e-01],
       [ 1.78519070e-01, -4.74911898e-01,  8.42630193e-02,
        -7.04643369e-01,  1.27718258e+00,  4.79010999e-01,
        -1.54035711e+00,  2.40184352e-01, -3.09924513e-01,
         3.25657666e-01, -3.57693434e-01,  5.61252773e-01,
        -1.14903927e-01, -3.09661031e-02,  1.08723617e+00,
        -9.04569864e-01,  8.08338940e-01, -9.39990729e-02,
         2.45794386e-01, -9.42194641e-01],
       [ 4.04508710e-01,  1.22683823e-01,  4.44152467e-02,
        -1.22561015e-01, -2.31434539e-01, -5.71976662e-01,
        -5.82567632e-01,  1.00328362e+00, -6.82044268e-01,
        -2.28177965e-01, -4.26865891e-02,  3.94677162e-01,
        -4.02786046e-01, -7.38118291e-01, -2.63645649e-01,
        -3.11874628e-01, -9.97658968e-01,  3.30061838e-02,
        -2.84732246e+00, -5.39753795e-01],
       [ 1.09401837e-01,  2.18656346e-01, -2.92847008e-01,
        -2.35674195e-02, -5.84130645e-01, -3.56343687e-01,
         1.00611484e+00,  6.16456509e-01, -1.54324844e-01,
        -5.00926614e-01,  6.80828094e-01,  4.80415747e-02,
        -4.98187393e-01,  3.34454238e-01, -7.66499817e-01,
         2.43391275e-01, -1.59885681e+00, -1.95924804e-01,
        -6.10347807e-01,  9.17145193e-01],
       [-2.33885534e-02,  2.17072368e-01, -3.38509172e-01,
         4.59692478e-02,  4.49782461e-02,  5.52273095e-01,
        -6.66183606e-02,  1.76342654e+00,  1.48786795e+00,
         5.09595752e-01, -2.41501391e-01,  2.72027135e-01,
        -1.69293240e-01,  1.73350585e+00, -7.15134367e-02,
         2.67149955e-01,  6.74093187e-01, -3.71589959e-01,
        -3.66663724e-01,  8.26177061e-01],
       [-1.64141789e-01,  1.14370632e+00, -4.87376362e-01,
         8.38872492e-01, -1.41688204e+00,  8.76877069e-01,
         1.59509814e+00, -8.13734904e-02,  1.29918933e+00,
        -2.41023436e-01,  2.95950651e-01, -2.03108713e-01,
        -1.78357914e-01,  8.11240375e-01, -1.11191928e+00,
         7.49266684e-01,  1.53087127e+00, -3.69307369e-01,
         8.02012026e-01,  1.23358214e+00],
       [ 9.52938721e-02, -9.69233096e-01, -1.56259924e-01,
        -1.93947315e-01,  3.00701171e-01,  4.79168668e-02,
         5.96681759e-02, -3.42002034e+00, -1.05593801e+00,
        -5.65370560e-01, -4.58532065e-01, -3.26786160e-01,
         3.78341794e-01, -8.00058186e-01, -1.57078326e-01,
        -8.04638803e-01,  2.76791304e-01, -1.62354201e-01,
         1.02748430e+00, -1.08851743e+00],
       [ 1.16965652e-01, -7.43161798e-01,  9.96021088e-03,
         1.59595087e-02, -3.58282365e-02, -4.54491228e-01,
         1.82704702e-01, -1.14281929e+00, -1.98839986e+00,
        -7.82551989e-02, -2.72444218e-01,  1.54497996e-01,
         2.91485518e-01, -1.49216998e+00,  1.40512332e-01,
        -4.96837705e-01, -1.08454490e+00,  6.31023273e-02,
         9.12833214e-02, -6.65485978e-01],
       [-1.80356905e-01,  7.25828111e-01, -1.34397626e-01,
         9.78765339e-02,  3.98862004e-01,  1.71865094e+00,
         6.86115086e-01,  3.82431030e-01,  1.24121213e+00,
         2.52946377e-01, -3.98163013e-02, -1.87558323e-01,
         1.18740611e-01,  1.16510487e+00,  5.37263751e-01,
         6.71322107e-01,  2.37665462e+00, -1.27630487e-01,
         9.36333477e-01,  8.68954420e-01],
       [-2.03693017e-01, -1.18816733e+00,  2.40483403e-01,
         3.42554748e-01, -4.55992401e-01, -3.70615363e-01,
         1.11573017e+00, -4.58237618e-01, -2.57790774e-01,
         2.76117325e-01, -3.07150614e-02,  9.46624354e-02,
         1.31998464e-01,  1.16049245e-01, -7.39014328e-01,
        -1.90123904e+00,  6.28221810e-01, -5.05014479e-01,
         6.74214959e-01,  3.93742174e-01],
       [-4.83699217e-02, -1.22146022e+00,  3.03141803e-01,
        -1.06519036e-01,  7.64457703e-01,  2.07458243e-01,
         2.32793853e-01, -2.57104969e+00, -9.76494133e-01,
        -2.47183114e-01, -5.95536351e-01, -3.93057335e-03,
         4.72232282e-01, -1.20251739e+00, -4.66995686e-02,
        -9.55992877e-01, -2.50734240e-01, -2.51198441e-01,
         4.85391527e-01, -1.22588778e+00],
       [-8.18389803e-02, -6.49244905e-01,  2.83074349e-01,
         1.04353428e-01,  9.12006736e-01,  1.57356977e-01,
        -4.00559217e-01, -5.07319033e-01, -4.93243665e-01,
         9.37976986e-02, -4.34903175e-01, -1.11441463e-01,
         3.00418854e-01, -7.56083250e-01,  4.34261441e-01,
        -1.79196191e+00,  8.64068210e-01, -1.38641343e-01,
         2.15309680e-01, -7.27951229e-01],
       [ 1.18617997e-01, -4.86211896e-01, -2.31773019e-01,
        -4.40235406e-01,  2.98347353e-04,  5.31340361e-01,
         2.78820246e-01, -1.10644829e+00,  1.81926250e-01,
        -2.20001359e-02, -5.96348405e-01, -5.19969344e-01,
         3.42200339e-01,  1.19294822e-01,  4.53386782e-03,
        -6.80142581e-01,  7.81634569e-01, -3.91343445e-01,
         1.09183478e+00, -1.90318137e-01],
       [-3.53646636e-01,  1.16061270e+00, -3.25233638e-01,
        -5.03705025e-01, -1.32857788e+00,  8.65264654e-01,
         8.92266095e-01, -3.65661144e-01,  1.28016067e+00,
         1.66013874e-02, -2.75609014e-03, -1.36099130e-01,
         2.66239531e-02,  9.98756588e-01, -9.48270798e-01,
         1.32456183e+00,  3.86766076e-01, -2.12140337e-01,
         7.50556707e-01,  7.55620301e-01],
       [ 1.62004232e-01,  1.05905123e-01, -2.26101801e-01,
        -2.49977112e-01,  1.03396404e+00,  7.79439583e-02,
        -2.01879859e+00,  2.77697039e-03, -1.87049642e-01,
         5.46418965e-01, -2.88058102e-01,  3.16572994e-01,
         1.33097544e-01, -5.44694252e-02,  8.44041526e-01,
        -7.50241339e-01,  1.21963501e+00,  1.69775918e-01,
        -8.11277628e-02, -5.60372829e-01]], dtype=float32), array([[ 1.21844187e-01, -1.01696737e-01,  1.05989240e-01,
         8.67684901e-01,  7.23286450e-01, -1.40631765e-01,
        -1.21738568e-01, -2.87801534e-01,  1.63895525e-02,
        -3.62047613e-01,  9.35437009e-02,  2.11846843e-01,
        -4.66936007e-02,  2.61761814e-01, -3.37138891e-01,
         9.02471319e-02, -7.90190324e-02,  2.41371438e-01,
         3.00072044e-01,  3.68956029e-01],
       [-1.31607294e-01,  5.65501563e-02,  2.29048356e-01,
         7.36754596e-01, -7.30206892e-02,  4.48445886e-01,
         3.31317544e-01, -4.81396765e-02,  4.30145860e-01,
        -3.28592300e-01,  2.50116084e-02,  1.86412945e-01,
         9.54688117e-02,  6.00641787e-01,  1.08870171e-01,
         2.01535106e-01, -3.94206256e-01, -1.31122962e-01,
         4.43268090e-01, -1.51865305e-02],
       [ 8.37454259e-01,  1.88519031e-01,  2.04938501e-01,
        -3.52007508e-01,  4.16558057e-01,  4.62954015e-01,
         1.20499000e-01,  2.18956992e-01,  3.77077460e-01,
        -3.05739313e-01,  5.25889695e-01,  4.52516705e-01,
        -1.52059406e-01, -7.27830157e-02,  3.76120657e-01,
        -1.00630410e-01, -2.75771350e-01, -3.08611095e-01,
         1.69137374e-01, -3.62554044e-01],
       [-3.86869013e-01, -1.72165371e-02,  9.37189683e-02,
         2.77653098e-01, -3.29862237e-01,  9.59542841e-02,
         1.01665609e-01,  3.79537076e-01,  1.10849932e-01,
         4.41820443e-01, -3.12280357e-02, -3.21704149e-01,
        -3.61265451e-01, -5.31409755e-02, -3.34568322e-02,
         1.37753844e-01, -1.81840762e-01,  7.30830789e-01,
        -2.60017008e-01,  6.56825840e-01],
       [ 4.31769788e-01,  4.27602917e-01, -1.92835748e-01,
        -9.00827199e-02,  7.37898469e-01, -3.60414311e-02,
        -2.19309032e-01,  9.28766504e-02, -2.09328786e-01,
         2.33374953e-01, -2.73298234e-01,  1.28476188e-01,
         1.83662236e-01, -2.21281126e-01, -1.40619904e-01,
         4.07350540e-01,  3.12030077e-01, -4.19825137e-01,
        -4.47893620e-01,  2.17940226e-01],
       [-2.40212560e-01,  2.16659665e-01,  1.64999394e-03,
         3.74509543e-01, -4.92534757e-01, -9.03034508e-02,
         1.75087839e-01,  1.27666578e-01, -2.30320245e-01,
        -1.02817520e-01, -4.28939015e-01, -9.18717980e-01,
         9.11692604e-02,  5.08970201e-01, -5.01245409e-02,
         9.93125886e-02, -1.37289137e-01,  4.02798086e-01,
        -2.65979320e-01, -3.26700807e-01],
       [ 5.09923846e-02,  3.31281215e-01, -3.26359384e-02,
        -2.78899759e-01, -2.98292816e-01, -2.99393442e-02,
        -1.38276204e-01,  4.82382923e-01, -5.25691748e-01,
         8.38233173e-01, -4.42556679e-01,  2.42885917e-01,
        -1.22742131e-01, -4.76094067e-01, -7.21261427e-02,
         1.20278835e-01, -3.19318444e-01, -2.64217734e-01,
        -1.87700525e-01, -1.10339426e-01],
       [-1.27755880e+00, -3.33706528e-01, -3.79327059e-01,
         9.92602766e-01,  2.16150776e-01, -7.46697187e-01,
        -4.14768249e-01, -1.51136369e-01, -5.19706719e-02,
        -8.49650353e-02, -6.90141857e-01, -2.40345314e-01,
         2.20099017e-01,  3.11556626e-02,  2.52017260e-01,
        -6.31644964e-01, -3.51065010e-01,  1.75782889e-01,
        -7.13031217e-02,  2.13269647e-02],
       [-5.08790731e-01, -8.07695836e-02, -2.16347292e-01,
         1.40044439e+00, -2.10526451e-01, -5.42273521e-01,
        -4.52074498e-01, -3.53612527e-02, -1.10760920e-01,
         1.94179878e-01, -3.16893101e-01,  1.92350209e-01,
        -4.11131740e-01, -7.77268469e-01, -6.49125576e-02,
        -1.26032066e+00, -7.74751723e-01,  2.69288197e-02,
        -8.95691067e-02, -7.33722895e-02],
       [-1.05899131e+00, -8.82708132e-02,  2.60213107e-01,
         7.43268549e-01, -2.49329567e-01, -6.56838834e-01,
        -1.99208185e-01, -3.81951869e-01,  2.03139260e-01,
        -9.67259780e-02, -2.52523303e-01, -1.57897934e-01,
         3.85518251e-05,  3.26152116e-01, -2.47962505e-01,
        -8.02837551e-01, -3.96334857e-01, -4.46132459e-02,
        -1.16293333e-01, -1.67656839e-02],
       [-5.41389249e-02, -2.34377742e-01,  1.86223954e-01,
         6.61221623e-01, -2.23129526e-01, -2.39657000e-01,
        -4.34852690e-01,  1.63513437e-01,  2.25455090e-02,
         3.49698335e-01,  1.02194019e-01,  3.43601286e-01,
         2.24923894e-01,  1.15586281e-01,  1.12357736e-02,
        -1.87062263e-01, -1.63891122e-01, -1.16477489e-01,
        -3.61462414e-01,  1.02004133e-01],
       [-4.71272498e-01, -5.90981185e-01, -2.15279043e-01,
         1.07539546e+00, -5.53066730e-02, -3.98850709e-01,
         2.49208629e-01,  1.27154604e-01,  3.18688750e-01,
        -2.30461240e-01,  1.08234458e-01, -3.03478036e-02,
         1.54668495e-01, -3.52369808e-02,  1.75875291e-01,
         3.28762867e-02, -9.15763155e-02, -1.55941784e-01,
         2.51007736e-01, -4.28204626e-01],
       [ 1.19962776e+00,  2.25958526e-01,  5.18792987e-01,
        -9.02181923e-01, -8.45903456e-02,  2.95688659e-01,
         8.43752027e-01,  3.03667694e-01,  1.25823364e-01,
         1.15131415e-01,  5.97932935e-01, -1.74040407e-01,
         5.98221570e-02, -3.74498278e-01, -2.53974795e-01,
         5.47503889e-01, -2.36380138e-02, -1.82654604e-01,
         8.01500399e-03, -1.42536908e-01],
       [-1.05061364e+00, -3.86854447e-02,  2.16680616e-01,
         6.55355155e-01, -6.89222217e-01, -1.63195384e+00,
        -2.29727238e-01, -2.74044782e-01, -4.97245602e-02,
        -7.61665851e-02, -5.87184012e-01,  2.72161603e-01,
        -3.75564367e-01, -2.91619778e-01, -4.97804247e-02,
        -7.63008833e-01, -3.44308197e-01,  3.28107506e-01,
        -1.86308492e-02, -5.56621961e-02],
       [ 4.23918575e-01,  2.90794700e-01,  5.51664650e-01,
        -3.34617980e-02,  2.75925994e-01,  1.72189802e-01,
         4.37842041e-01,  2.71000355e-01,  4.27158892e-01,
        -1.30738705e-01,  5.30599058e-01,  2.85091579e-01,
        -3.14597815e-01,  8.52689743e-02,  2.40582258e-01,
         4.38829720e-01,  2.49956809e-02, -3.51542592e-01,
         2.27512807e-01, -1.73330173e-01],
       [ 3.75348598e-01, -1.87087938e-01,  4.07203585e-01,
         2.58558512e-01, -1.89424857e-01,  2.43419141e-01,
         1.53261229e-01,  2.28708684e-01,  2.93764114e-01,
        -1.07252859e-01,  3.39405447e-01, -4.25887331e-02,
         1.84443116e-01,  5.58844745e-01,  3.16538900e-01,
         1.00601330e-01,  2.31634334e-01, -3.09276193e-01,
         2.64013737e-01, -7.83303306e-02],
       [-2.70375222e-01,  4.63978916e-01, -1.49880901e-01,
        -1.82557926e-01, -2.32262224e-01,  3.57989073e-01,
        -3.87178659e-01,  6.45791888e-02, -1.08346745e-01,
        -3.78257513e-01, -5.25190294e-01, -4.03625578e-01,
        -2.84539431e-01, -6.88563049e-01, -4.14550334e-01,
         2.04833150e-01,  3.04386369e-03, -3.26327831e-01,
         2.55314887e-01, -5.31759083e-01],
       [ 1.42033786e-01, -4.40047622e-01,  3.40636939e-01,
        -4.25502472e-02,  3.28955591e-01,  3.62873487e-02,
        -3.68865617e-02, -3.64378601e-01, -3.43854040e-01,
        -2.39610866e-01,  5.02541900e-01, -2.77249087e-02,
        -3.17186594e-01,  4.76940006e-01,  3.26924957e-02,
         2.99030572e-01, -2.62330204e-01, -7.56916478e-02,
         1.30228803e-01,  2.26096988e-01],
       [ 2.11636558e-01, -6.34956717e-01,  3.60935852e-02,
        -9.90897238e-01,  4.02360298e-02,  9.55713570e-01,
         2.86336452e-01,  8.32424089e-02, -4.05338347e-01,
        -6.41582787e-01, -5.51244259e-01, -7.76212662e-02,
        -2.37929195e-01,  1.84932798e-02, -4.69850481e-01,
         1.48803160e-01,  1.01878345e+00, -2.67948151e-01,
         6.16761111e-03,  3.93086582e-01],
       [-9.50048625e-01,  3.05493563e-01, -3.11589062e-01,
        -1.92357764e-01, -2.82890677e-01,  5.99143915e-02,
         6.17563352e-02, -1.58900768e-01, -6.22332841e-02,
        -2.23317202e-02,  5.58125079e-01,  2.16554508e-01,
        -1.99839741e-01,  1.85074747e-01, -1.31428376e-01,
         8.28430578e-02, -1.23877421e-01, -1.71712220e-01,
         5.19043207e-01,  2.17699051e-01]], dtype=float32), array([[ 0.26964003],
       [-0.5945249 ],
       [ 0.18920286],
       [ 0.5302807 ],
       [-0.41262817],
       [ 0.40934163],
       [ 0.1942068 ],
       [ 0.67644733],
       [ 0.5767236 ],
       [ 0.40039262],
       [ 0.5968797 ],
       [-0.45542416],
       [-0.46263212],
       [-0.6235317 ],
       [ 0.6753318 ],
       [-0.32260352],
       [-0.28710452],
       [-0.36743265],
       [-0.34885788],
       [-0.3594845 ]], dtype=float32)]


Weights_h:
[array([[-0.30400786,  0.01792022,  0.06938045,  0.02330546, -0.06868703,
         0.37080288,  0.01202486,  0.01886149,  0.10361246, -0.15670668,
        -0.03693129, -0.2700748 ,  0.06063279, -0.04794429, -0.18770742,
        -0.43031457,  0.0885537 , -0.03981707, -0.08119503, -0.16214885,
         0.11414637, -0.3256369 ,  0.278451  ,  0.2964988 ,  0.11967512,
         0.32852736,  0.4801364 , -0.19182198,  0.1929253 , -0.03105825,
         0.21247259,  0.12212262],
       [-0.08988723,  0.07390318,  0.05101496, -0.20506227,  0.26010945,
        -0.01923952, -0.23306885, -0.21306822,  0.12720756,  0.13766392,
        -0.21740034, -0.15015253, -0.3117034 ,  0.01175536,  0.29495478,
        -0.13960005, -0.14602302, -0.05989897, -0.09021899, -0.08428376,
        -0.0036646 , -0.266173  ,  0.26125628,  0.09124697,  0.01502525,
         0.06828384, -0.28480273, -0.00621608, -0.3989994 ,  0.00568015,
         0.43112308,  0.03681706]], dtype=float32), array([[ 0.11569422, -0.04723977,  0.3084169 , ..., -0.07265962,
         0.22303168, -0.21699463],
       [-0.11422396,  0.17824996, -0.0464906 , ..., -0.19711742,
         0.01816284,  0.02020247],
       [ 0.17763181, -0.25119373, -0.1642591 , ..., -0.25231907,
         0.03841883, -0.05415213],
       ...,
       [ 0.18433015,  0.23024501, -0.3433169 , ..., -0.11828477,
         0.17955808,  0.16050485],
       [-0.2366715 ,  0.0713651 , -0.25627568, ...,  0.27950966,
         0.28516105,  0.07738235],
       [-0.05673158, -0.27202567, -0.13438535, ..., -0.06205755,
        -0.12946098,  0.01012141]], dtype=float32), array([[ 0.05054799,  0.05766766,  0.25051004, ...,  0.03549561,
         0.15792166,  0.23611781],
       [-0.17571624,  0.1661249 , -0.31310213, ..., -0.27999386,
        -0.01309361, -0.04667158],
       [-0.21247248,  0.14322577,  0.05542572, ..., -0.09773356,
         0.13901141, -0.23091306],
       ...,
       [ 0.29810798,  0.16447218,  0.09788392, ..., -0.14747761,
        -0.31281254, -0.13939558],
       [ 0.0925322 ,  0.05173494,  0.20474224, ..., -0.19036953,
        -0.19046192, -0.27849728],
       [ 0.0337874 ,  0.23531835, -0.05128616, ..., -0.20331149,
        -0.14286007,  0.06216659]], dtype=float32), array([[-0.12511268],
       [-0.1893171 ],
       [-0.31220916],
       [ 0.2434964 ],
       [ 0.23665056],
       [ 0.0123227 ],
       [ 0.47079128],
       [-0.2175555 ],
       [-0.01930456],
       [-0.21869287],
       [ 0.20425278],
       [ 0.30568588],
       [ 0.21341772],
       [-0.08333297],
       [ 0.2469635 ],
       [-0.12570496],
       [ 0.04697948],
       [-0.3927118 ],
       [ 0.48104247],
       [-0.08670194],
       [-0.23502035],
       [ 0.06826956],
       [ 0.20307343],
       [-0.04939986],
       [ 0.30004272],
       [-0.252164  ],
       [-0.04778063],
       [-0.14081118],
       [ 0.1551775 ],
       [ 0.26574823],
       [-0.00438787],
       [ 0.06894805]], dtype=float32)]


Weights_c:
[array([[-0.13442113,  0.19845286,  0.09708432,  0.40922683, -0.36279464,
        -0.29366985,  0.13334762,  0.19582412, -0.36474195, -0.00639213,
         0.16563483, -0.07134784,  0.10933784,  0.16500331,  0.05301572,
        -0.21443018, -0.22199033,  0.19119225,  0.3372994 ,  0.35366562,
         0.1364199 , -0.18138339,  0.04972997, -0.16778229, -0.16920207,
        -0.12581487,  0.12767327, -0.14963128,  0.3119879 , -0.14133012,
         0.23281942,  0.25819734],
       [ 0.1487653 , -0.32936358, -0.07373161,  0.13086993, -0.370247  ,
        -0.02450482, -0.19813125, -0.33103657,  0.07152235,  0.10551912,
        -0.03737341, -0.28994802, -0.08255294,  0.25516197, -0.16769898,
        -0.03791162, -0.15366833,  0.08617391,  0.01770783,  0.3197725 ,
         0.10101067,  0.02484412, -0.08822213, -0.00227069, -0.05929791,
        -0.22289096,  0.34699023, -0.47490385,  0.32694906, -0.30304962,
        -0.23912951,  0.00561153]], dtype=float32), array([[ 0.06139038, -0.14951885,  0.12830696, ..., -0.07389957,
        -0.26557326,  0.14496595],
       [ 0.2894069 , -0.266369  , -0.03214949, ..., -0.01776998,
         0.05788056, -0.06198962],
       [ 0.02053292,  0.01680291, -0.0542418 , ..., -0.15697622,
        -0.05625335,  0.13148633],
       ...,
       [-0.30171463,  0.2308341 , -0.0315115 , ..., -0.00481637,
         0.11398295,  0.07938053],
       [ 0.06103221, -0.05772445,  0.12204749, ...,  0.17899142,
         0.1825149 ,  0.10094772],
       [ 0.18110369,  0.10372639,  0.12031326, ..., -0.03262603,
        -0.04672311, -0.17034456]], dtype=float32), array([[-0.1871115 , -0.02301693, -0.06045176, ..., -0.00649628,
         0.14063711,  0.07507982],
       [ 0.17728989,  0.107947  ,  0.07035647, ...,  0.29785442,
        -0.09396828,  0.18469846],
       [ 0.14216708,  0.13490656,  0.1967732 , ..., -0.09733833,
         0.15251693,  0.00948957],
       ...,
       [-0.17658044,  0.23159759, -0.3381804 , ..., -0.10576715,
         0.14067194,  0.05445183],
       [ 0.04000979, -0.1588569 , -0.1999719 , ..., -0.17903924,
        -0.05965688,  0.13578263],
       [-0.10473091, -0.00378662,  0.2004241 , ...,  0.27385694,
         0.29562017, -0.01813447]], dtype=float32), array([[-0.00594524],
       [-0.254245  ],
       [-0.1919461 ],
       [ 0.07142402],
       [ 0.02193999],
       [-0.11047361],
       [ 0.12381399],
       [-0.20115456],
       [ 0.16134983],
       [-0.10313765],
       [ 0.1157281 ],
       [ 0.12451386],
       [ 0.19572425],
       [-0.45730788],
       [ 0.36600986],
       [ 0.01748684],
       [-0.34259507],
       [ 0.10353127],
       [-0.18891682],
       [ 0.10702197],
       [ 0.11450938],
       [ 0.25676802],
       [-0.26005375],
       [-0.11707489],
       [ 0.310538  ],
       [ 0.2419247 ],
       [-0.33584556],
       [-0.03312165],
       [ 0.29492825],
       [-0.04745822],
       [ 0.28261483],
       [-0.01298675]], dtype=float32)]


Weights_k:
[array([[-1.7887793 , -0.63768655,  1.7735208 , -1.0106509 ,  1.9009155 ,
        -1.1541065 ,  1.5055453 ,  0.7036083 , -0.790904  , -0.79869384,
         1.4220282 ,  0.4590319 , -0.6665159 ,  1.1768881 , -0.90594614,
        -1.1183519 , -0.16800904,  0.4685218 , -1.1192547 , -1.0864773 ],
       [-0.25329277,  0.310444  ,  0.04095248, -0.92574704, -0.23369752,
        -1.552017  , -0.69552594, -0.12725931,  1.0396191 , -1.8970668 ,
         0.10879321, -1.5872338 , -0.55816156, -0.11183946, -1.3739356 ,
         0.9760176 ,  2.7060437 ,  0.63336563,  0.7807361 ,  0.7588357 ]],
      dtype=float32), array([[ 1.89143226e-01, -9.40809608e-01, -1.09705639e+00,
         3.43760103e-01, -1.16608046e-01, -6.29987478e-01,
        -8.80483091e-01, -3.36452276e-02, -1.69151634e-01,
        -2.08369166e-01, -2.97450554e-02,  7.61594772e-01,
         2.68530607e-01, -3.98188859e-01,  1.48417497e+00,
         3.70378041e+00,  3.37501913e-01,  6.34196699e-01,
         1.33837199e+00, -1.00138736e+00],
       [-1.62451163e-01,  1.22925103e-01, -6.17061436e-01,
        -1.00315087e-01,  8.44610810e-01,  6.25088578e-03,
        -3.30611169e-01,  2.61370182e-01, -1.64970112e+00,
        -9.05772030e-01, -4.21030447e-02,  3.72809589e-01,
        -1.14559114e-01, -5.05122244e-01,  1.13995187e-01,
         2.19254851e-01, -3.67260724e-01, -1.96095139e-01,
         2.34444693e-01,  4.03105795e-01],
       [ 2.06838220e-01,  5.95200695e-02,  1.14823484e+00,
        -5.42369150e-02, -7.70848989e-01, -1.60293519e-01,
        -3.67963523e-01, -4.52917427e-01,  2.27478886e+00,
         2.58279562e+00, -5.10495007e-01, -2.10802197e-01,
        -1.88462690e-01,  3.17587048e-01,  1.03608392e-01,
         4.46853563e-02, -3.97704899e-01,  2.45300606e-01,
        -4.07103211e-01, -3.99112910e-01],
       [-5.81311762e-01, -1.28930879e+00, -3.28950346e-01,
         3.80461484e-01, -2.59688586e-01,  8.57392728e-01,
        -8.10316026e-01,  2.55184114e-01,  5.13584673e-01,
        -2.59809464e-01,  3.56030792e-01,  3.93403023e-01,
         2.48916656e-01, -2.62620807e-01,  1.46743730e-01,
         1.53407359e+00,  9.45414789e-03,  1.37496817e+00,
         1.18809211e+00, -9.62597907e-01],
       [-3.30512911e-01, -1.63863689e-01,  8.51459742e-01,
         1.68712541e-01, -1.13492727e+00, -2.33793244e-01,
         9.97919440e-02, -1.42984897e-01,  2.03810215e+00,
         8.46383691e-01,  5.07480092e-02, -2.50330478e-01,
         1.11117594e-01,  8.78447711e-01, -1.83518663e-01,
        -2.03348741e-01, -2.74200946e-01, -4.35151681e-02,
        -8.13207477e-02, -9.85437185e-02],
       [-1.70250863e-01, -1.53940570e+00, -4.57548320e-01,
         7.22330689e-01, -1.61177069e-02,  3.87549192e-01,
        -7.03387499e-01,  1.32519037e-01, -8.11346769e-02,
        -2.40196705e-01,  5.85589521e-02,  8.32616687e-01,
         2.61428922e-01, -4.57131118e-01,  2.16546878e-01,
         1.27049828e+00,  2.25644693e-01,  5.56037366e-01,
         1.40876710e+00, -6.43584609e-01],
       [-1.87056705e-01,  1.88562304e-01,  1.36170638e+00,
         4.21188504e-01, -1.13200679e-01,  5.25723696e-01,
         6.48247242e-01,  1.40601233e-01,  5.06961703e-01,
        -1.43849388e-01, -1.79464534e-01, -5.22446692e-01,
         2.24821299e-01,  1.03246164e+00, -4.82719839e-01,
        -8.11831355e-01, -2.18590900e-01, -1.36372745e-01,
         2.61106730e-01,  2.56835043e-01],
       [ 3.08500737e-01, -1.22055812e-02,  1.76004398e+00,
         1.51184186e-01, -1.50110051e-01,  3.59799296e-01,
         1.09757110e-01, -1.68757588e-01,  8.14893246e-01,
         5.25097787e-01, -4.32374999e-02, -2.55690366e-01,
         3.09383671e-04,  8.44116271e-01, -1.09716192e-01,
        -4.30022746e-01,  2.78440505e-01, -3.09970230e-01,
        -4.79665428e-01,  1.44455716e-01],
       [ 2.59277225e-01,  9.84406114e-01, -3.72330755e-01,
        -1.30107671e-01,  8.71757269e-01, -7.30274558e-01,
         1.32816806e-01,  3.81159596e-02, -6.43090427e-01,
        -5.26563168e-01, -1.84815034e-01,  2.23149598e-01,
         1.40955850e-01, -8.36489081e-01,  2.48984564e-02,
        -1.58204317e-01, -1.00999005e-01, -9.03700814e-02,
        -5.38292229e-01,  2.35029846e-01],
       [-1.05411038e-01, -1.29859173e+00, -5.96766211e-02,
         2.73940474e-01,  3.98601182e-02,  1.66256630e+00,
        -2.53919542e-01,  1.18059158e-01, -1.29975891e+00,
        -1.39920509e+00,  4.31105077e-01,  3.35843414e-01,
         3.75021905e-01,  3.09896916e-01, -1.00694668e+00,
        -7.78113186e-01,  2.33265266e-01,  2.36023754e-01,
         1.16243887e+00,  3.04292798e-01],
       [-4.16340008e-02, -6.25017136e-02,  5.58313608e-01,
        -4.22599405e-01, -7.87612617e-01, -3.36502761e-01,
        -1.62755460e-01,  1.49687931e-01,  2.38669181e+00,
         1.71490097e+00, -3.37956369e-01, -6.25792444e-01,
         4.48745117e-02,  1.60222977e-01, -1.20346257e-02,
        -1.97150201e-01,  3.38852376e-01,  4.21464980e-01,
        -1.89772978e-01, -2.40292847e-01],
       [-5.55271924e-01, -8.33054304e-01,  6.76140785e-01,
         1.49673447e-01, -2.09005266e-01,  1.53449345e+00,
        -1.10616907e-01, -4.81860638e-02, -4.62190397e-02,
         7.34530985e-02,  3.70377451e-01,  2.87106097e-01,
         7.41651833e-01,  1.08715856e+00, -3.45863014e-01,
         5.64148650e-02, -6.77290484e-02,  4.48691487e-01,
         8.74382973e-01, -1.25733435e-01],
       [-2.10043699e-01, -9.95453000e-01, -6.14477932e-01,
         8.42771679e-02,  2.68842757e-01,  1.07750344e+00,
        -1.57735705e-01,  4.83327806e-01, -8.47065270e-01,
        -7.53581643e-01,  7.78393447e-01,  3.17426145e-01,
         6.73854470e-01, -1.99313551e-01, -2.38811120e-01,
         2.27438524e-01,  4.91425872e-01,  6.34507090e-02,
         8.23884547e-01,  3.77171963e-01],
       [ 9.52077433e-02,  1.20845534e-01,  1.62935960e+00,
        -2.33666468e-02, -2.06898019e-01, -5.74190207e-02,
         4.53052223e-01, -3.29982370e-01,  8.03854823e-01,
         9.86799002e-01, -6.58712932e-04, -2.87201136e-01,
        -3.14374179e-01,  1.50990069e+00, -1.72206476e-01,
        -7.70857692e-01,  2.53394470e-02, -1.08724043e-01,
        -2.66929001e-01,  5.61245866e-02],
       [ 2.08721966e-01, -5.86678505e-01, -3.49769562e-01,
         2.54569858e-01, -4.20240670e-01,  1.15702879e+00,
        -4.40961391e-01,  1.82341084e-01, -1.55495751e+00,
        -3.30223584e+00,  8.77347708e-01,  4.08647776e-01,
         2.40974110e-02, -4.25608099e-01, -4.87406366e-02,
        -1.27846479e-01,  3.28604043e-01,  4.68157589e-01,
         5.83579242e-01,  2.32962638e-01],
       [ 1.68183856e-02, -2.16847181e-01, -7.52877653e-01,
        -7.69535676e-02,  5.65661304e-02, -1.00704038e+00,
        -5.92367887e-01, -1.17673948e-01,  1.94697529e-01,
         4.82142687e-01, -1.98433220e-01,  3.41695756e-01,
         1.82203855e-02, -2.68781722e-01,  1.39424551e+00,
         3.61261678e+00, -3.13901693e-01,  6.54641747e-01,
         1.18625708e-01, -3.60704809e-01],
       [ 1.13649234e-01,  4.50813204e-01, -1.13032329e+00,
         8.23955536e-02,  5.13188720e-01, -2.18281910e-01,
         1.65065154e-01,  2.26020634e-01, -1.34803689e+00,
        -1.93966642e-01, -6.07569702e-02,  7.96954781e-02,
        -4.33721423e-01, -7.65289843e-01,  8.81263688e-02,
         1.09313577e-01, -1.30732775e-01, -3.03750545e-01,
        -3.63928437e-01, -2.64933258e-01],
       [ 4.99251693e-01,  1.44898570e+00,  8.86890829e-01,
        -1.24018177e-01,  3.05887401e-01, -7.88170040e-01,
         5.41634448e-02, -2.91619241e-01, -1.25044450e-01,
         8.69001210e-01, -1.15484074e-01, -9.27415371e-01,
        -3.68796527e-01,  3.57512653e-01,  3.68641198e-01,
        -1.87450513e-01, -8.63801911e-02, -4.23973650e-01,
        -1.27945554e+00,  3.38767856e-01],
       [ 2.11534455e-01,  1.18451733e-02, -1.10433483e+00,
        -1.28368124e-01,  3.75251949e-01, -1.05570269e+00,
        -1.86335575e-02,  2.63182253e-01,  4.42579798e-02,
         3.85261416e-01,  1.90960288e-01,  1.68874845e-01,
        -1.25543743e-01, -8.38337004e-01,  3.65167797e-01,
         1.06974816e+00, -1.99261129e-01,  4.25439864e-01,
        -4.20630336e-01, -2.49098107e-01],
       [ 1.67969480e-01, -4.59796488e-02, -7.86556423e-01,
        -1.98835298e-01,  1.95920244e-02, -1.19400406e+00,
        -7.18091786e-01, -3.58135998e-02,  1.34925008e-01,
         1.52819037e-01,  1.60423622e-01,  2.57020414e-01,
        -2.36828282e-01, -4.50918496e-01,  1.22796631e+00,
         1.90741777e+00,  1.23717105e-02,  2.71642864e-01,
        -5.93952090e-03, -5.52312434e-02]], dtype=float32), array([[-1.05408981e-01,  2.45676771e-01,  1.26522601e-01,
        -6.49853170e-01,  1.86575398e-01, -3.91512275e-01,
         5.62467396e-01,  1.59674764e-01, -2.10712984e-01,
        -5.38237572e-01, -5.67580223e-01,  9.50022265e-02,
         5.01580417e-01,  2.61681885e-01, -3.27400535e-01,
         1.57461733e-01, -3.88372600e-01,  7.96197504e-02,
         8.13221335e-01,  1.39802471e-01],
       [-3.95342447e-02,  3.35074306e-01, -3.40723127e-01,
        -3.26857269e-01,  5.26411533e-01,  1.12694487e-01,
         5.04800260e-01, -6.29544735e-01,  3.47939074e-01,
        -1.16220243e-01, -1.35081425e-01, -3.33302945e-01,
        -5.41730970e-02, -7.98495393e-03, -1.26611844e-01,
        -2.03396469e-01, -1.56939849e-01,  2.80781180e-01,
         3.75049897e-02, -7.87949383e-01],
       [-9.19424295e-02,  2.24907979e-01,  3.57489675e-01,
         9.68930423e-01, -1.48712248e-01,  2.16581330e-01,
         3.63087893e-01,  6.05567992e-01,  2.37187400e-01,
        -3.06762546e-01,  4.83707070e-01, -3.62704664e-01,
         6.29546285e-01,  1.39639512e-01,  7.91253209e-01,
         9.37601328e-02,  3.83844703e-01,  1.64002962e-02,
         2.82455325e-01, -6.51426762e-02],
       [ 1.92839831e-01, -5.28861105e-01, -4.76392984e-01,
         2.66469002e-01, -2.34746218e-01, -3.51222306e-01,
        -3.68638843e-01,  5.16297817e-01,  1.41312063e-01,
         1.29542068e-01,  1.57739282e-01,  8.25155154e-02,
        -4.60268371e-02,  4.33066003e-02,  8.50613937e-02,
         2.27379408e-02,  3.75275850e-01, -3.80125165e-01,
        -4.72484320e-01,  5.43239772e-01],
       [-4.42098975e-01, -6.40810430e-02, -3.21485847e-01,
        -7.04169273e-02, -2.05407679e-01,  8.45688656e-02,
